18385 16
1015 -0.222777 0.166729 1.428513 1.070299 1.100139 -0.775600 0.432591 0.994162 -0.199414 -1.174384 0.135124 0.025401 0.105046 -1.519415 1.584290 -1.226317 
414 2.041373 1.914795 -0.803564 0.853927 0.447302 0.180368 -0.523606 -0.040049 0.484773 -1.201880 -0.205542 0.393202 -0.316374 -1.807658 1.126631 0.367685 
2300 0.816246 0.592098 0.222727 0.140283 0.653058 -1.773415 0.367879 -1.516667 -0.441352 -0.664038 -0.996673 -0.852727 0.201087 -1.959425 0.254695 -0.235311 
1013 0.496248 0.880036 1.227641 -0.208695 -0.213648 -0.383800 0.880494 -0.871999 -1.323381 -1.744477 -2.381083 -0.980754 0.605226 -1.350431 -0.608573 0.402161 
2235 -0.297042 0.473505 0.245464 0.740636 0.936718 -0.678252 0.077036 1.096889 -0.655372 0.360779 -1.577257 -2.996568 -0.828029 -1.377079 0.785156 1.206277 
324 -0.647535 2.066330 0.934207 -0.685430 0.011828 -0.919331 -0.203319 0.436989 -1.006921 -0.682354 -0.729760 -0.557080 0.403950 -0.607844 1.769556 -2.134858 
1493 -0.087212 0.827614 1.055124 0.891145 0.119013 0.348582 0.053787 0.459130 -1.880144 -2.312178 -0.484794 0.376248 0.117944 -0.099074 2.499094 1.177397 
1475 -0.767500 0.403422 0.326847 0.470114 0.713238 -1.771587 0.106209 0.326829 -0.433849 -2.462856 -3.053608 0.129388 -0.512678 -1.382792 0.880007 -0.432253 
1523 -0.643629 1.685851 1.647900 0.864908 0.443673 -1.886256 -0.005156 0.209455 -1.231883 0.776783 -1.032515 -1.250265 -2.254926 -0.976109 0.723143 0.179647 
193 0.909420 0.672425 2.160026 -0.338495 0.702426 -0.982569 -0.050410 -0.102559 -1.381313 -0.020424 0.314619 -1.218595 -1.315788 -1.356181 -0.188078 -0.091872 
123 -0.316652 0.507989 1.932616 0.321393 -0.012231 -0.309447 0.213570 0.259086 -0.907902 -1.543228 0.571858 -0.444854 1.302629 -1.646685 1.777395 0.062738 
1560 0.836123 2.250695 1.066204 0.717207 0.015095 0.339034 -0.148305 0.656547 -1.024268 -0.513483 0.292342 -0.676432 0.350985 -0.467030 1.084939 -2.225640 
2101 0.670862 -0.691886 1.551628 0.665752 -0.040478 -1.868611 0.562191 1.512667 -1.278380 -0.376404 -1.426482 -0.702562 -0.802841 -0.219789 0.669760 0.785985 
1363 0.212741 1.054392 0.996223 0.425906 0.089252 0.531303 1.690648 0.161997 -2.140990 -1.286649 -0.589240 -0.723664 0.419563 -2.259146 -0.476411 -0.531557 
977 0.019911 0.244789 1.607466 0.008025 1.594988 1.523463 -1.670958 0.893941 -2.683327 0.491856 -0.505143 -0.717215 -0.731830 -1.804126 2.497963 -1.578933 
1362 -0.210369 0.535644 1.711335 -0.250936 0.569398 -0.217505 0.109390 0.976189 -1.614287 -0.992732 0.595052 -1.505856 0.697285 -1.663251 0.428855 -1.299150 
550 0.429053 0.350435 1.922324 0.288450 1.307264 0.362098 0.765926 0.573185 0.159088 -0.586362 -0.693542 -0.939686 1.424650 -1.412482 1.954869 0.326803 
1404 2.148773 -0.346996 1.772852 1.376895 1.209337 -0.130924 0.744009 0.790911 -1.159662 -1.044065 -0.910689 -1.945800 -0.986593 0.070151 0.334868 -0.532817 
2298 2.543076 0.295535 -1.080652 -0.456936 0.610172 1.176375 -0.531712 0.447525 -0.401598 -1.482463 -1.627140 0.561465 -0.455448 -1.814333 2.235635 0.222369 
974 0.102463 1.089304 0.460735 -0.554640 1.186036 -0.367360 1.366095 1.161140 0.058041 -1.420461 -0.295306 -0.495367 -0.076118 -1.418266 2.002515 -0.942809 
2003 1.868721 0.737030 2.517176 0.634454 0.319834 -0.577046 0.623952 0.103518 -1.204187 -1.163842 -1.168592 -2.013649 -0.690280 0.267249 -0.215157 0.118875 
383 1.469940 3.323847 0.652414 0.007517 1.186049 0.954586 -0.863028 -0.896713 -0.735234 -0.499708 -1.146728 0.924539 0.342636 -2.316458 0.575227 1.089343 
527 2.076748 0.094386 -1.339147 0.103885 -0.111169 0.424314 -0.207699 0.192155 -1.372823 -1.547840 -1.788793 -0.924576 0.068757 -0.199729 1.794252 -0.703657 
15079 1.276181 0.321575 -2.003025 -1.428239 -0.616529 2.713168 1.499828 -0.359251 1.210297 1.945160 0.326047 1.207435 -0.301418 4.231184 -2.005457 -0.697137 
1209 -0.136288 1.332153 0.945740 2.066421 0.538280 -2.181850 0.545886 2.495329 -0.815809 -0.597028 -0.943144 0.142728 0.555867 -0.591031 1.678277 -0.851180 
1803 1.545157 0.512822 -1.049211 0.952877 1.183382 0.251545 -0.230462 1.200764 -2.379784 -1.233962 -2.336200 0.866657 0.415612 -0.205205 1.325228 -0.463602 
1400 2.263309 1.724556 1.938690 0.181919 -2.211526 -1.576191 -0.035384 -0.505133 -1.698574 0.720032 -0.765611 -2.814142 0.738961 -2.143272 -0.144270 -0.631542 
390 0.788252 1.589714 1.171364 0.527709 -1.142187 1.478196 -1.274225 2.017443 0.274640 -0.287232 -1.633938 -1.084352 -1.756442 -3.185049 0.256633 -0.673721 
2179 -0.969555 -0.342675 1.526410 -0.181722 0.062097 -0.543835 -0.741853 -0.555259 0.042354 -0.663985 -2.752903 -1.063694 0.239371 -2.872200 1.462808 0.216616 
1437 0.093512 0.793286 1.978260 -0.853814 1.383047 -0.185533 0.263973 0.875792 -0.488294 -1.593925 0.115815 -1.334302 1.040025 -1.544567 0.978366 -0.102101 
2163 1.122519 1.683443 1.120865 0.100104 -0.162607 -0.980327 1.813059 0.585295 -1.314638 0.356444 -2.655595 -0.845444 -0.369301 -0.084312 0.769207 0.767866 
1302 0.006581 -0.091759 0.718617 0.058957 1.210527 0.104211 0.715888 0.638663 -1.941205 1.748888 -2.933664 -1.309973 -1.184060 -2.636583 1.392823 0.248332 
157 0.223998 0.852396 2.451677 2.812616 0.021619 0.593714 0.935789 1.225671 0.100138 -0.089786 -0.653831 0.354658 -0.843597 -3.275797 1.408836 -0.516648 
1917 3.220869 0.558254 0.725495 1.277394 1.452699 -0.365943 -0.984551 2.247825 -1.494560 -0.227591 -0.593090 -1.120248 -1.466475 -0.876919 -0.613171 -0.402409 
970 -0.097276 1.588229 2.278366 -0.053019 -0.427337 -1.260445 1.319973 0.946762 -1.804282 1.003636 -1.746575 -0.182693 -0.540505 -0.861455 0.750574 0.863342 
197 -0.177266 2.254399 1.120105 0.561938 -1.528803 -0.149496 -0.221746 0.724615 -0.070609 -1.412256 -0.970555 -1.526200 1.050161 -0.842504 1.697769 -1.860826 
830 0.868916 0.027694 0.488504 1.958794 -1.406805 0.849251 0.612346 -1.336455 -1.928346 -1.623151 -0.567950 -0.735101 -1.160092 -3.244556 1.848871 -1.216154 
1360 0.853234 2.648066 0.532356 0.441939 0.637650 -0.900545 0.973065 0.902568 -1.237606 -0.188431 -3.006015 -0.664987 -0.441476 -0.976739 -1.144541 0.323077 
792 1.115009 0.010557 1.015050 -1.474920 0.538167 -1.784126 0.456511 1.775681 -1.937526 0.160885 -1.177021 -1.488414 -0.315407 -1.321655 0.211066 0.563280 
42 0.201423 1.211575 0.882818 0.995927 1.173105 -0.102078 -0.430700 0.341780 1.019626 -1.379657 -2.153401 -1.672972 1.162868 -0.984046 1.913920 1.562172 
1800 -0.209574 1.081635 1.256241 0.512413 -0.845546 -0.942886 -0.298856 -1.131084 -1.348014 -0.954481 -1.489703 -1.579492 0.919292 -1.584639 0.494516 1.754652 
619 0.287481 1.931871 -0.091755 0.025066 -1.545496 -0.002904 -0.202232 2.411490 -2.234883 0.040193 -1.338145 -0.043323 -2.060259 -0.442809 3.207736 0.259519 
318 1.091530 3.399489 0.125179 0.953073 0.237114 -0.930310 -0.650410 -0.595945 -0.513646 1.544186 -1.376086 -0.786336 0.093026 -0.457658 2.474353 0.422146 
1983 0.480625 3.346183 0.857389 -1.160926 -0.339345 1.181687 0.436680 -0.357819 -0.474832 -0.677958 -1.092559 -1.314708 -0.629894 -1.586352 1.452986 0.805802 
1428 0.373028 1.627837 1.071786 -0.543526 1.200732 -1.196216 0.715919 0.729631 -1.705691 1.127853 -2.360104 -1.063460 -1.511421 -1.331708 -0.039094 0.932408 
2013 -0.009775 0.484462 1.758546 -0.092348 1.410091 -0.546144 0.968001 0.689093 -0.872571 0.327760 -2.240896 -0.831488 1.990764 -1.359302 2.175891 0.250532 
1243 0.417382 0.257537 -1.276582 1.064547 0.140828 0.793317 -2.276775 0.368769 -2.283847 -0.995668 -1.672118 1.234753 -0.902330 -3.051922 2.092912 -1.077620 
73 1.253530 3.213555 -0.469490 1.420787 -0.555862 -1.086873 -1.425584 -0.330422 -1.714432 0.860548 -0.911755 -1.795195 -0.236101 0.223027 2.353006 0.174248 
579 0.443624 0.719576 0.867491 2.735816 -0.520034 0.205413 -0.650664 0.448429 -2.198494 1.235688 -1.647565 -0.177515 -0.234793 -2.434918 0.141030 -1.590457 
1924 2.630419 0.822259 0.251457 0.488053 0.710293 -0.864726 -1.874593 1.498651 -1.661732 0.234798 -1.149440 -2.045831 0.000772 -0.627031 -0.641926 -0.700488 
705 0.606765 0.080903 -0.006178 -1.050937 1.091838 -0.721840 0.186937 -0.309171 -1.707022 -1.265839 -1.087367 -0.070196 0.535979 -3.117137 0.033157 0.162840 
3 1.284669 0.142657 -0.158550 0.435540 0.875815 -0.859742 -1.118196 2.412260 1.104448 -0.101667 -3.439337 -1.493899 -0.387606 -1.571186 3.002559 -1.481886 
2323 0.387982 2.819392 1.242252 -1.039446 -0.192086 -0.606844 0.490324 1.726421 -0.983607 -1.873322 -0.089773 -0.683764 0.635160 -2.128139 -0.374837 0.561370 
959 0.893036 1.728372 0.338146 -0.738680 0.145501 1.580152 -1.557339 -1.587435 -1.126918 -0.238334 -1.140757 -1.604830 -0.098472 -1.762142 2.009804 0.200484 
119 1.536989 0.446115 1.755080 2.242019 0.284966 -1.202004 -1.353189 0.025182 -2.881228 0.762346 -0.748577 0.048942 -1.424490 -2.681928 -0.673514 -1.503410 
557 3.844925 2.502359 1.947165 0.340866 0.641638 0.204043 -0.228380 0.785211 0.424928 0.178138 -2.336508 -0.831238 1.140944 -0.735879 0.613937 -1.042292 
775 -0.189843 1.902830 -0.743422 -0.708714 -0.454201 -1.393525 -0.193117 1.040401 -2.210079 -0.701249 -1.208467 -0.661713 1.252381 -1.356909 2.302360 -2.061936 
669 2.275687 0.015775 0.258604 2.338907 1.298983 -0.515990 -1.022578 -1.385685 -2.115279 1.119763 -0.759442 -2.473825 -0.788446 -1.766614 2.299195 -1.222443 
2410 0.113854 0.612966 0.300156 -0.465585 1.921936 -1.355531 0.145774 0.016002 -1.171261 -0.941869 -1.025371 0.716181 0.766690 -2.611046 0.462848 0.372529 
326 1.026935 -0.622994 -0.888785 0.174526 0.065150 0.065574 -1.526832 2.990195 -1.035892 -2.300235 -1.522037 -2.840252 -0.659219 -2.805642 1.193585 -0.762499 
642 2.258117 1.787063 -0.674476 1.090158 0.840692 -1.459621 1.223655 -1.126759 -0.049134 -1.912873 -0.373733 0.012340 -0.889142 -1.744518 1.740724 0.097551 
1331 2.952095 0.049086 1.560975 -0.349430 0.389429 -0.766413 -0.440472 2.003945 -1.512035 -0.209303 0.653693 -0.771844 -1.678005 -2.182440 -0.233413 -0.649601 
367 1.347718 1.267897 -1.240947 1.727601 -0.274658 -1.217637 1.485736 0.751952 -0.342345 0.408199 -2.562147 -0.838684 -1.266731 -2.021911 1.795544 -1.704974 
2048 0.371033 -0.428673 0.420978 -0.537437 1.116077 -1.162472 0.039199 -0.869842 -0.713086 -1.539691 -2.729534 0.608603 -0.040008 -2.003000 1.271660 0.246516 
91 0.739700 2.026473 -0.249079 1.905070 -1.710024 -0.440412 -1.222090 0.416298 -2.145914 0.021528 0.060153 -2.558723 0.620563 -0.510441 3.157094 0.490191 
64 1.307384 1.115119 -0.216048 1.373807 -0.175518 1.597798 -0.815622 0.402085 -1.933346 -2.477894 -0.501441 0.448839 -1.404066 -0.593922 2.034927 0.817339 
2067 -0.321134 0.222032 0.620535 0.113547 1.655478 -0.932342 -0.023610 1.259419 -0.222542 -2.623942 -1.490706 -0.115479 -0.171273 -1.794152 0.571337 -1.096171 
1366 1.796470 0.583536 -0.141740 2.917129 -0.661079 -1.792927 -0.797415 1.443790 -1.391599 0.089887 -0.895834 1.619633 -2.745121 -2.615327 2.031099 -0.515737 
1736 1.953774 0.643776 -1.332750 1.237909 0.867878 0.230018 -0.944055 -0.123959 -1.697227 -1.404732 -1.754698 -0.241701 0.484279 -0.603550 0.916908 -1.608135 
547 1.397456 1.356403 2.568105 -1.523639 0.217228 -0.925444 0.224068 -0.090108 -2.209440 0.387852 -0.517956 -0.364935 -1.615077 -0.152452 1.851876 0.638486 
55 0.070411 1.378050 -0.492783 2.617093 -1.638847 -2.649011 -0.884516 0.339398 -0.819536 -2.677430 -1.030110 -1.251598 -0.792964 -1.032804 2.176196 0.065361 
1717 0.794808 -0.387674 0.812206 1.578062 -2.179645 -0.997429 -0.620192 1.151070 -0.247619 -0.981890 -0.478669 -1.715609 -1.389729 -4.569763 1.349576 0.740005 
855 0.491531 -0.185354 0.180557 0.242275 2.042737 -0.461032 0.122547 0.249268 -2.351582 -0.772294 -0.649914 0.056443 0.093640 -3.120648 0.330742 1.237302 
322 0.983890 1.915612 2.369245 -1.028226 -0.362370 -0.213635 0.113875 1.113137 -2.152462 0.928126 -0.806321 -0.688020 -2.017718 0.102089 3.323863 -0.165945 
277 0.530343 0.759785 -0.230430 2.749176 0.360125 -0.989404 -0.792149 0.842446 -2.582044 2.089097 -1.919586 -0.161765 0.955791 -2.327713 1.881983 -1.258670 
2240 -0.359460 2.666324 1.880367 1.962213 -0.362236 -2.407883 -0.886600 0.870947 -0.310534 0.748697 -2.098999 -1.091214 -1.908677 -1.459803 0.185646 -0.567605 
2512 3.648925 0.817491 1.823816 1.569015 -0.916355 -0.477944 0.116430 2.314413 -1.000610 -1.899057 -0.814453 1.441056 0.666040 -1.400312 0.579846 -0.449665 
1749 0.714553 1.482946 -0.125545 0.380842 1.131460 0.643895 -0.745765 0.400990 -2.729823 -1.560367 -1.411189 1.635631 0.650659 -0.278294 2.438803 0.026781 
1396 0.515610 -0.712499 0.985745 -0.213367 0.024612 0.172818 1.492274 1.883468 -1.703936 -0.308823 -1.739519 -0.157572 -1.493639 -3.060719 0.557564 0.521180 
76 1.784560 3.256750 0.297516 -0.306473 -0.286999 -0.705561 0.236231 2.962748 0.574857 0.525451 -1.909296 0.293445 0.632580 -1.572703 2.659554 0.890745 
2151 3.009297 1.385435 1.232229 0.517269 0.203421 -1.996575 -0.448933 1.438129 1.427426 -0.313216 -3.088217 -0.518450 -1.984598 -2.372398 0.128961 -1.404941 
1441 0.179708 -0.344712 1.288773 0.337767 1.656407 -0.209772 -1.159037 -0.044761 -1.832058 -0.708961 -0.272109 -1.438574 -1.782895 -1.938020 0.328290 1.048736 
1063 1.483687 2.121053 0.511770 2.282279 0.161044 0.801515 -0.437240 -0.442382 1.246213 -0.966657 -2.277187 -1.161515 0.866735 -1.262683 2.416559 1.513588 
1932 1.426732 0.159765 0.501686 1.041364 0.806213 -2.655807 0.248672 1.754295 -1.734174 -0.908969 -2.847072 -1.540496 0.034705 -2.533735 -1.614366 0.806869 
768 -0.086559 0.901804 0.223268 -0.733340 0.402753 0.595650 2.437322 1.963288 -2.158946 -1.680544 -1.481805 -1.125321 -1.343006 -1.883075 1.399332 -0.455907 
214 1.245674 -0.433371 1.638728 1.758907 0.332086 -0.245383 0.589032 2.300174 -2.514330 -1.247904 -1.566709 -1.070822 -0.572330 0.568446 0.868672 -0.616187 
2341 0.034569 0.288778 -0.739436 1.122429 -0.132049 -0.974139 -0.004435 0.090578 -2.210974 -0.718859 -2.035487 -2.571101 0.294607 -0.947068 0.764552 1.265957 
994 1.378094 0.810869 -0.664420 3.115647 0.400524 -2.414119 1.067428 -0.236802 -1.607070 -1.480535 -0.244240 0.248840 -0.596821 -2.205159 2.755761 1.591208 
14736 -0.938944 1.033924 -0.732160 -1.386688 1.599771 2.488691 2.051282 -1.480139 0.506518 3.156081 -0.753546 1.502361 2.396186 1.581065 -1.883309 -2.059565 
14018 -4.106966 -0.466150 -3.257168 -2.584177 0.437113 2.860508 0.178943 0.281368 0.529553 1.476795 -0.292769 -0.552025 -1.342451 0.232766 -2.680901 0.628359 
17009 -0.807649 0.323455 -2.086429 -4.005176 0.215822 2.628685 0.591477 -1.334519 -1.714556 1.564594 1.694394 -0.239099 1.910364 1.838536 -3.216159 0.090136 
17387 -1.871919 -1.239806 -3.757711 -1.059500 0.037982 0.430009 1.335839 -0.027428 4.237686 1.267504 0.028809 0.552174 2.621104 1.622665 0.280539 -1.437363 
13986 -1.727369 -0.240816 0.517783 -0.766187 3.106802 2.488220 2.162229 0.389375 3.794100 2.475059 0.585679 -0.799803 -1.993012 2.032957 -0.062076 0.674578 
14506 -3.663949 -2.514161 -3.952082 -0.796279 -1.045474 1.712216 1.907983 0.782638 1.755508 -0.106571 1.298016 -0.871076 1.138211 1.301337 1.719911 1.212847 
478 2.567435 0.404920 1.346037 0.271922 -1.300943 0.332958 -0.244936 0.745507 -0.879195 0.545994 -3.151859 -2.498802 -1.157750 -1.980688 0.702089 -2.909251 
2310 0.131760 0.329471 3.387365 0.891104 -0.608943 1.470205 -0.953453 1.745126 -2.607078 -1.293395 -1.323322 -0.269669 0.244457 -2.121699 0.294114 0.496242 
1173 3.153131 -0.692745 1.678496 -0.173779 -0.717809 0.354164 -0.151124 0.379575 -0.429542 0.477175 -2.315863 -1.713132 -1.295135 -2.251566 1.823028 -2.396163 
1482 2.823236 0.912816 1.094431 0.568325 1.961025 -3.205521 -0.118958 -0.575376 -0.807433 0.673443 -1.551545 -2.337825 1.891404 -2.058024 1.182408 0.996879 
439 1.249275 0.443586 -0.703347 1.183556 0.241355 -0.100368 -1.492963 -0.207531 -0.091380 0.568634 -2.073933 -1.555403 -2.974537 -2.148340 3.196342 0.510247 
982 3.142032 1.698611 0.287058 -1.038682 0.948667 -0.455672 -0.298377 0.283375 -1.188702 1.323821 0.620253 -1.679118 0.260975 -1.792809 2.909334 0.476917 
1165 3.593123 1.965250 0.217524 0.872164 -0.042927 0.505533 0.650960 1.051946 1.502792 -0.892681 -0.984159 -0.210890 -1.153204 -2.605075 1.738217 0.483559 
3152 -0.269583 0.406997 1.443413 1.548370 0.345645 -1.310578 0.923739 0.385892 -0.337465 -1.113621 -0.326965 0.045104 0.816329 -2.180929 2.356581 -1.972087 
47 2.021117 0.407035 0.614281 0.452595 1.142792 -1.331330 -0.598822 2.383492 -3.188293 0.258462 0.664867 0.376907 -0.958360 -0.843198 3.308788 1.479071 
1545 0.751863 1.407995 0.220928 3.981989 0.141729 0.713328 -2.260408 -0.254951 -1.969521 -0.006178 -0.799180 -0.909464 0.329064 -2.982995 1.513875 2.044787 
2057 1.558347 3.299150 0.572967 0.242442 0.594762 -1.641964 -0.709022 0.771421 -2.460247 -2.754685 -1.105400 -0.414120 -0.310076 0.512079 -0.036137 0.592462 
14 1.155781 0.578752 0.735620 2.131963 2.109781 -1.197709 -1.010727 0.555777 0.630608 -2.004127 -1.122691 -1.608479 0.208384 -1.362913 1.486131 -2.677596 
2275 0.289323 2.640082 -0.134932 1.049066 0.542274 -3.456396 -1.218549 -1.046376 -2.496685 -0.193346 0.279289 -0.016975 0.676902 -2.663373 0.962796 -0.417380 
346 2.818452 0.346374 -1.125372 0.352092 1.369634 -1.568670 -1.857489 0.260666 -1.650900 1.627010 -3.590663 -1.301629 -0.349372 -1.120198 2.351986 0.216951 
2353 1.293231 2.102168 -0.472160 1.745124 -0.042895 1.108662 -0.743015 0.065417 -0.142662 -2.170318 -0.203393 -0.048886 -1.710376 -1.620945 1.128087 0.555486 
1729 -1.110567 -1.041865 1.183451 1.654800 -1.183319 -0.514970 -0.876032 0.446725 -1.548979 0.006360 -3.261630 -0.633538 -0.195209 -2.448524 1.985186 -0.325208 
2424 0.935315 0.254874 -1.548576 1.955463 0.925327 0.355549 -2.174652 -0.881770 -2.297821 -1.380923 -1.822115 -0.460683 0.124595 -2.120059 1.253634 -1.139128 
998 -0.436905 1.074188 1.845309 -1.208990 -1.370344 -1.024466 -0.881078 0.595961 -1.488459 -1.546132 0.078228 -1.588902 1.137193 -1.279244 3.723909 -0.947101 
153 -0.013188 1.480648 1.296437 0.043802 0.804323 -0.006135 0.285670 0.845170 -0.740114 -2.441052 -0.778824 -0.604313 1.229188 -2.312130 -0.584673 -0.650121 
161 -0.063082 1.680043 1.189252 1.361056 1.002857 -0.326190 -1.077310 0.601423 -0.409977 -2.209801 -1.311635 -0.081814 0.399420 -0.432917 2.421786 2.717520 
580 0.722707 2.033008 -0.018516 1.165949 -0.389436 1.284593 0.327246 0.660424 -3.014441 0.790397 -1.436093 -0.460254 -0.692296 -2.982872 -0.242362 -2.092853 
1488 1.567238 2.733779 2.220524 0.855113 1.412910 -0.091918 -0.453851 1.545484 -1.922113 0.266336 -0.494275 -0.845796 0.912143 -0.486062 0.319710 2.231978 
876 1.536402 0.492026 2.139391 0.667554 0.446438 1.193791 1.679661 0.199650 -0.884118 0.025327 -0.247334 -0.552576 0.510226 -2.400787 3.424950 1.567041 
2355 0.943524 1.831666 0.995338 1.844717 1.965415 -1.506520 -0.278373 2.463839 -1.735891 -0.004128 -1.471675 0.993483 1.178089 0.005575 1.767328 0.355085 
246 -1.155443 3.260511 0.044022 2.441386 1.894413 1.592449 0.187297 1.259751 -2.134787 -1.008626 -2.125708 -0.216248 -0.256689 -2.561586 1.204167 0.646753 
14051 -1.686144 -0.236229 -3.260149 -1.413957 0.282374 0.975217 2.013817 0.673814 1.774423 1.638132 1.141958 0.896549 -2.541529 -0.041072 -3.213327 1.818170 
1498 0.584911 0.385664 2.347572 2.039862 0.347271 0.487666 0.034534 2.104753 -2.283157 -2.264053 -1.973084 -0.047144 -0.252186 1.073466 2.579396 0.205213 
289 3.274314 2.096643 -1.103493 -0.893626 0.350002 -0.431529 -0.462480 0.635266 -3.165938 0.281827 -0.927594 -0.729797 1.319705 -1.868489 1.047198 1.399463 
852 1.062602 2.337285 0.925235 -0.032274 -0.607628 -0.434108 -0.936702 -0.213106 1.494742 -0.848352 -3.785280 0.619088 -1.066607 -1.747411 3.329209 -1.096259 
1846 0.416555 3.698355 0.831845 -0.463637 0.636641 -0.798815 -0.708477 1.298213 -2.043182 -2.399862 -1.387056 -0.117107 -1.160733 -0.391783 -0.383201 0.399000 
3076 2.814680 1.862089 -0.172543 -1.014015 -1.455294 -0.729724 -1.784700 1.914195 0.135769 -2.577739 -1.972579 -1.378204 -2.591109 -1.322028 1.042272 -0.161189 
269 1.410241 1.265203 -0.714173 -0.773848 -0.705647 0.745868 -0.866969 0.477074 -1.679858 1.133889 -0.294754 -1.265498 0.837781 -3.662638 1.969615 0.138187 
2602 1.728324 1.434557 0.741609 -0.167511 1.888589 -1.468298 1.769694 -0.198896 0.140710 -1.599393 -0.222614 -0.934120 -0.757143 -1.125305 1.696573 -0.043571 
602 0.798153 2.165188 0.585836 -2.439951 -0.126446 0.402348 -1.173656 -0.643162 -0.510873 -1.497452 -1.938217 -1.803198 -1.093681 -1.891063 1.923359 1.522214 
1257 0.197075 1.306086 0.769931 0.760244 1.313005 1.101019 -0.456441 -0.033806 -2.870372 -2.058580 -2.043818 1.135698 0.990962 -0.299254 3.165146 0.282964 
3131 -0.442522 0.615162 1.492058 0.866239 0.221221 -1.143592 -0.061417 -1.588462 -0.787175 -1.281507 -0.857814 -1.241734 0.742266 -1.962330 0.806551 1.192177 
3181 1.106487 0.261535 1.213122 0.346109 0.582229 -1.092502 0.698556 -1.176549 0.404076 -0.109324 -1.214348 -0.347988 0.398361 -3.184700 0.655483 -0.415872 
433 0.995565 1.775698 0.754252 1.808084 -0.386743 1.842715 -0.730100 2.032847 0.600196 -1.875284 -2.474067 -1.233603 -1.679231 -2.134787 0.313887 -1.074926 
2417 -0.431575 0.388800 2.300409 0.646435 0.610261 -0.750749 -0.303120 -0.576400 0.433410 0.245668 -2.354051 -0.316015 0.135872 -3.247234 0.806585 -0.734743 
2286 1.733612 0.805654 1.269103 -0.362846 -0.418896 -0.219148 0.371573 -0.477020 -1.820597 -0.920863 0.179715 -2.534422 -1.068182 -1.240678 -0.431272 -0.182494 
515 1.051415 1.281491 1.683241 1.527800 1.818771 -0.039814 -2.315570 0.666606 0.331636 -1.585955 -2.646082 -2.072802 1.761094 -0.890036 1.623931 1.892083 
1837 1.612692 1.279768 2.341834 1.466532 0.304246 0.459138 1.989549 -0.273503 -1.564320 -1.139970 -0.868990 0.487124 0.000593 -0.694935 3.256265 1.914463 
1168 1.383782 1.881709 0.864755 -0.281334 -0.710630 -1.599239 -2.457869 -0.489250 -1.518693 0.389018 -0.263166 1.652614 0.775456 -3.300404 3.427548 1.109195 
2071 -0.208980 0.194773 0.548795 1.579628 0.735083 -0.620032 -2.475694 0.749807 -1.975647 -1.916853 -0.451223 -2.164056 -2.672868 -3.274185 0.027468 0.414104 
2559 0.995835 1.401637 -0.648850 0.565919 0.940410 -0.199207 -1.215280 3.684268 -1.303315 -2.247960 -0.276750 -1.557079 -2.402392 -1.095877 1.773933 0.896965 
512 1.938894 2.853727 -0.602492 1.116947 0.154968 -1.633388 -0.392071 1.505765 0.436474 -2.019733 -1.769006 -2.567645 -1.358854 0.611457 2.806452 -0.149264 
555 -0.254151 1.239481 0.267399 -0.494663 1.051365 -0.377446 -0.365310 0.519608 -1.266205 0.605884 -1.184332 -3.524225 -0.794782 -1.251494 2.572849 1.099100 
2507 -0.404332 2.300273 0.895959 -0.145626 1.670978 0.321921 -1.696309 1.337685 -0.806079 0.348764 -3.332347 -0.064707 -0.779632 -0.276356 3.426928 0.180645 
2313 -0.619244 1.246835 1.232311 0.722550 2.679165 -1.009619 0.071110 0.059615 -3.144993 -0.476684 -0.282311 0.524495 0.370717 -1.892019 0.587580 -0.091533 
2296 1.702888 3.780041 1.291231 -1.158929 -0.947452 1.278740 -1.861982 0.945908 -0.501708 -0.729380 -1.696784 -0.329751 -0.556004 -0.649452 1.457553 -0.870341 
1364 -0.173747 0.372248 1.439590 0.309765 1.856211 -0.137910 0.854012 0.474936 -2.847930 -0.062764 -2.659673 -2.204412 1.431391 -0.469852 1.737500 0.155248 
1310 1.976999 1.996997 -0.914130 -1.319317 -2.232913 -2.130454 -1.271665 0.774811 -2.147867 -2.220961 -0.781388 -0.606962 -0.233028 -1.016327 2.762373 1.086177 
764 2.621886 1.113214 0.386716 -2.209947 1.100874 -1.998342 -0.502113 0.605209 -0.963549 1.605625 -0.872156 -0.798682 -0.189097 -2.490163 3.815876 0.534034 
658 1.383337 1.585167 0.561589 -2.111856 0.208887 0.102920 -2.074517 0.832828 -3.212192 0.449262 -3.060890 -1.074059 1.234384 -0.454332 1.999583 -0.089456 
1845 2.873041 1.857598 -0.474397 1.482015 0.803925 0.207576 1.543838 0.305625 -3.184706 0.842824 -1.657474 -0.533963 -1.686373 -0.466536 1.979863 0.852151 
2021 1.001401 0.645295 0.129167 0.824513 1.553795 0.271027 -1.394344 1.816911 -1.941294 0.913387 -1.179598 -0.135048 -1.660296 -1.022805 2.160663 -2.292710 
677 2.188698 2.328223 0.310393 -1.129309 -0.294318 -1.079212 -0.723082 1.847094 0.617405 -0.149321 -3.035878 -0.476474 1.199075 -0.892504 2.429486 1.316859 
1494 0.891948 1.131389 -1.274359 0.479669 0.834784 -3.305619 -1.541139 0.891646 -1.918285 -1.722573 0.701094 -1.723900 0.321182 -2.131140 2.276499 0.661858 
1485 -0.530617 1.083212 1.385583 0.432932 -0.580178 -1.185682 0.101720 -0.797928 -1.510217 -1.160344 -1.268215 -1.276576 0.478868 -2.866082 0.943218 2.712822 
714 1.226698 0.934274 -0.026461 0.818570 -0.292295 0.166741 -0.522952 1.613238 -1.937640 -0.826130 1.709517 0.669998 -0.333746 -4.112710 3.252463 -0.874468 
2552 -0.915331 1.615671 2.146621 0.750991 -0.609744 -0.373753 0.102782 -0.282616 -1.080426 -0.326202 -3.577147 0.382639 0.307711 -2.968711 -0.109586 0.678103 
1068 -0.377083 3.148678 1.297809 0.390951 -0.423897 -0.331858 -0.158548 0.897360 -0.612089 -0.626987 -1.309986 -1.168613 1.018535 -0.260287 1.827974 -2.058097 
895 -0.041124 0.477149 1.277876 0.491244 1.234068 0.774554 -0.600434 0.169600 0.980162 -0.975756 -2.031300 -1.156298 1.165820 -2.112460 2.838202 1.094746 
200 1.512370 2.661297 1.321554 1.915484 -0.803301 -2.269236 -1.355828 -0.423852 -0.662717 0.577699 1.673747 -0.966790 -0.201778 -2.981808 2.126708 0.148069 
1971 1.632849 0.965639 2.928326 -1.058941 1.239186 -0.262842 0.085575 0.412723 -2.182340 -1.230343 -0.930934 -1.096740 -2.627892 -0.055665 0.442925 0.232177 
175 1.686247 -0.841902 1.976012 2.678507 -0.473875 0.836041 -1.947251 0.029664 -1.859429 -1.888507 -1.882084 0.319845 -1.945708 -1.353885 2.056824 -2.090462 
15142 -2.410985 0.665099 -2.256486 -2.312872 0.758684 1.360507 0.411170 -2.179598 3.356012 0.655685 0.226593 0.427421 -0.462871 2.877015 0.495012 -1.180719 
3822 1.668795 1.787041 3.053266 0.526553 0.422491 0.611067 -3.066433 0.751812 -0.919161 2.006437 -1.347802 -0.402157 0.253745 -2.587505 1.103980 -1.478134 
72 1.494318 3.609543 -0.650148 1.060933 -1.120648 -1.340092 -1.195133 -1.130141 -1.936438 0.629460 -1.051018 -1.443137 -0.870014 -0.249411 2.004241 -0.024912 
1450 0.863336 1.262595 1.822486 0.513880 0.815162 -0.566155 1.720631 -0.100988 -1.487222 -0.723043 -2.975527 -0.999054 1.426317 -0.263971 0.579898 0.446986 
1125 2.271222 1.407487 -0.581462 0.410772 -0.337719 0.278618 -0.687451 -1.481943 -1.512324 -1.367644 -3.675363 -1.242811 -1.775743 -0.268553 1.665440 -1.510557 
2345 1.616340 0.536579 0.243527 -0.544378 -2.048557 -0.234685 -3.620442 0.893126 -1.808226 0.052996 -2.411217 -1.014580 -0.502767 -1.480720 2.603591 -2.215292 
63 0.939683 1.232320 2.487541 1.684998 1.167809 -2.265346 0.066018 0.797634 0.103926 -1.789506 0.985275 1.404511 -0.948661 -2.330752 2.419181 -0.268168 
1586 3.367667 -0.550915 2.273920 -0.351654 -0.732546 -0.133742 -0.906973 0.734944 0.274857 0.974741 -1.750891 -1.634707 -0.900290 -1.936610 2.523510 -1.404832 
198 0.281714 1.083294 2.627502 2.530318 0.625583 0.536271 0.692075 0.537600 0.075374 0.683625 -0.568433 0.055529 -1.199626 -2.831639 1.890749 0.603876 
274 1.092008 2.217079 -0.477848 1.678151 -2.039747 -0.624288 0.615448 1.316169 -2.509016 -0.420467 -0.366505 -2.516247 1.221307 -0.692033 3.231790 0.929613 
1289 0.098928 0.590402 1.590762 0.776130 1.649333 0.138458 1.069674 1.335032 -3.066621 -0.438047 -1.276401 -1.362264 0.948811 -1.251802 0.163195 -1.519805 
160 0.330549 0.227901 0.824574 2.683582 2.415444 -0.977879 0.609778 1.803054 -1.683306 -1.405159 -0.009109 -1.938706 -0.088599 -1.850025 0.003631 -1.257738 
540 0.762069 1.669944 0.348313 2.130016 -0.798274 -1.226462 -2.731515 -1.186356 0.959373 0.601652 -2.009094 -2.119838 -0.418454 -2.711044 3.055592 -0.435067 
1738 3.673209 -0.292585 0.774544 1.879771 -1.357303 -0.047613 1.432313 0.939140 -1.547548 -1.906489 -0.499357 0.031448 0.094048 -2.336287 1.173882 0.908456 
473 2.403210 0.816276 0.879313 1.648368 1.656417 1.931119 -1.295322 0.401688 -2.557475 0.985609 -3.340308 -0.288512 1.550869 -1.852030 1.699778 1.699211 
310 0.988923 0.782342 -1.077648 -0.606495 -2.298900 0.378488 -0.154605 0.759897 -1.807816 0.793109 -1.349635 -2.329177 -0.359794 -3.465138 3.158555 -0.238672 
1468 0.020917 1.296073 -0.657224 2.454608 0.822119 1.325404 -2.719874 -0.292921 -2.473470 -1.782779 -1.509117 -1.762724 0.563235 -2.288935 1.024721 -1.433013 
2556 1.889019 2.265847 1.025813 -0.803531 0.765468 -0.868357 -1.006913 0.447584 1.072776 -1.015166 -2.821777 -1.664903 0.502000 -0.465559 2.394660 2.274441 
2316 0.947580 -1.026591 1.503075 0.038137 0.284969 -1.186522 0.787670 2.629053 -0.733204 -0.512687 -0.686857 0.192474 -0.424788 -2.279299 1.442453 -0.749061 
384 1.097376 3.264400 0.591809 1.823442 -0.278431 1.236565 -0.645319 1.734278 -0.126248 0.980309 -2.251021 -0.571344 0.455367 -0.956261 1.835362 1.388087 
1477 0.777875 3.025722 -0.083529 1.163604 0.385911 0.404752 -0.155496 1.637352 -1.768287 0.105826 -0.419501 -0.408802 -0.781471 -1.350633 0.030358 -2.211287 
1225 -0.291382 3.293670 2.639828 -0.014807 0.941891 -0.599486 -2.796637 1.178167 -1.156091 -1.713948 0.206710 -0.359978 -2.385212 -0.785697 2.583846 0.194737 
1825 0.036526 1.884389 2.715754 1.955195 0.823555 0.707378 0.967019 0.323000 0.664894 0.913752 -1.339833 0.194956 0.671321 -3.754005 2.541547 -0.255236 
458 2.901091 1.115842 1.871142 1.392277 -2.186607 0.384747 0.340752 2.178845 -1.645110 -0.045997 0.577795 -1.306031 -0.726150 -1.814675 1.945359 -2.375649 
691 2.107425 0.480015 0.214315 3.421449 0.625101 0.044277 -0.561755 0.584926 0.506887 -1.216336 -3.343959 -1.574347 -1.764233 -2.142774 0.894732 1.963594 
1336 1.977915 -0.008499 0.366177 0.060651 2.106931 0.332992 -2.220648 -0.113721 -1.655472 -0.654374 -0.889980 -1.197920 -1.578612 -1.719893 0.323578 1.041059 
1859 2.381345 0.591703 0.833686 0.537241 -0.639561 -0.942747 0.262414 -1.884469 -0.792391 0.730655 -1.804792 -1.606187 -0.385898 -2.990230 0.126131 0.644185 
992 1.315191 1.918309 0.082949 0.609376 -1.592386 1.036001 -0.042047 1.211159 -4.179373 0.931626 -1.903865 -0.129205 -1.656352 -2.269016 0.294492 -0.291378 
14661 -1.543602 -0.569273 0.721666 -1.112365 1.123310 1.360404 1.748031 -2.132993 4.118418 3.006736 0.363607 -1.748694 0.184849 2.805129 0.290206 -1.441517 
1479 -0.700687 2.533843 -0.073671 0.254267 1.692321 -1.675131 -0.896877 -0.146566 -2.382792 0.152441 -0.612433 -0.150631 0.520713 -2.535697 0.413262 -0.456844 
14591 -2.253371 -0.929413 -3.457469 0.469373 -0.397538 -0.896084 3.184701 -2.017377 0.122124 -1.116376 2.742472 -0.916426 0.364928 3.680810 0.354882 -0.140622 
360 -0.988612 0.524067 0.803824 0.545682 0.528927 1.442168 0.987657 1.501677 -2.769193 -0.539074 -1.468829 -2.121666 0.386262 -2.946730 1.225036 1.504459 
2327 1.653944 1.002754 -0.357305 1.145749 1.839558 -0.794147 -0.420667 2.525989 -1.838800 -0.110486 -2.122405 0.884632 1.270865 -0.301295 1.487072 0.136653 
1672 0.830935 2.452038 0.618710 -0.794662 0.595442 -0.058748 -0.129017 1.170485 -0.434792 -0.966300 -0.071927 -0.681125 0.125781 -0.436794 2.049203 -2.210288 
329 -0.064446 4.213387 0.819350 -1.503453 -0.040239 0.367770 0.043300 0.033934 -0.355549 0.823156 -2.361157 -2.557469 -0.994721 -2.784539 2.251533 -0.981363 
1449 1.072687 1.433125 2.085952 0.549638 -0.380570 -1.172853 1.327068 -0.068710 -1.394637 -1.328488 -2.280749 -1.279726 -0.045127 0.258428 -0.378844 0.029998 
2586 0.684181 1.715318 1.818036 0.484043 1.826862 -1.761076 -0.087405 1.361216 -2.110545 0.322769 -0.766669 0.235991 1.100260 -0.552582 0.687244 1.573637 
2317 2.671771 1.117973 2.345278 2.127844 1.612379 -0.861465 -2.884556 0.542373 0.485535 -2.064503 -1.999131 0.018692 -1.078299 -3.246156 -0.980069 -0.865379 
441 2.304433 1.942920 0.548036 0.843546 -1.846511 0.243334 0.929667 -0.426194 -0.430087 1.790854 -1.534211 -1.449819 -0.780918 -1.977984 3.590328 -0.216722 
2363 1.846519 2.138438 1.353753 1.894963 -3.789078 -1.128060 -1.157770 1.870507 -1.784994 1.146372 -1.073750 -0.172681 -0.398317 -2.249724 2.158979 1.624343 
2495 -0.062368 2.297999 -0.080522 -0.784230 -0.571081 -1.707528 1.046260 2.261074 -1.094071 -1.577669 -0.901579 -1.862109 0.517402 -1.921952 0.158370 0.046368 
1816 1.443039 2.918322 0.972707 -0.732798 -0.016969 0.631259 -0.347323 0.584193 -0.174353 -0.779940 -0.906414 -0.717461 0.488745 -0.105652 1.591241 -1.796940 
1175 2.009080 1.454573 1.440151 0.147892 1.708962 0.442426 -0.766403 0.999908 -0.354973 0.147075 -0.162295 -0.220304 2.039798 -0.980123 3.335853 0.482326 
1398 -0.891045 1.786741 2.030951 2.153298 0.036817 -0.239597 0.583495 0.208691 -0.825920 0.568776 -0.591233 -0.793193 -2.232476 -1.996220 1.908915 0.719912 
2974 1.865337 2.106645 1.045066 -0.218604 -0.020092 -0.099805 -2.597901 1.301062 -0.518769 1.777078 -2.737961 0.046703 0.644156 -2.757024 0.682000 -1.816836 
1864 2.459684 1.909339 -0.195176 0.712660 1.357422 -0.740885 1.942436 0.457145 -2.892590 1.088459 -2.348572 -0.534554 -0.759658 -0.680025 1.185538 0.985675 
2799 1.964873 1.678770 0.671914 0.324877 -0.644736 -0.096839 -2.204860 -1.233396 -1.130703 0.652969 -4.072422 0.917851 -1.207715 -1.647222 2.644849 1.820676 
1986 -0.393100 -0.322259 1.873568 0.529959 1.538916 0.075914 -2.040653 -0.841901 -0.955756 -0.359212 -2.171262 -1.127171 -1.664825 -3.280879 1.024156 0.805525 
1741 0.962670 0.299654 -0.665355 0.382362 2.447443 0.539576 -1.243959 -0.180013 -2.463241 -1.236981 -0.696598 -0.258496 -1.300284 -1.930053 0.937552 0.996408 
467 1.265784 2.666527 0.928821 2.307165 -0.212997 2.139213 -1.003792 0.894976 -0.151128 -2.821479 -1.687283 -0.256886 -1.798581 -1.555393 0.411851 -0.287190 
15245 -0.960799 -1.342507 -1.162359 -2.794690 0.009012 3.176630 2.015427 0.835391 2.610050 1.560022 -0.996853 -0.682960 -1.736901 1.097006 -1.923538 1.823143 
225 0.720089 0.533467 2.069691 1.239112 1.553339 0.413719 0.946954 2.890778 -3.879002 -0.709800 -1.713635 -1.455404 0.866748 -0.625191 0.487969 -1.558477 
397 0.542133 3.199372 0.232057 1.221357 -0.707311 0.680329 0.005186 2.714049 -0.065514 0.880941 -2.372117 0.062329 0.583718 -1.982403 2.054899 1.217099 
74 -0.184824 1.445302 0.741151 -0.459849 0.725393 -1.180775 -1.100852 -0.762518 -0.952536 -0.989300 -1.780598 -2.248099 0.659717 -1.241536 2.361218 -2.922899 
1918 3.270732 0.077775 0.368443 0.985200 2.212198 -0.230168 -2.012791 1.109253 -1.955805 -0.024608 -1.182550 -1.237204 -0.742471 -1.551190 -0.546336 0.157839 
1195 1.272590 1.978264 3.885700 -0.570136 -1.459934 -1.232971 -0.441349 0.145781 -0.166859 -2.312185 -1.800553 1.443927 -1.173796 -1.674861 1.292948 -0.306591 
1908 2.365221 -0.975212 1.931965 0.138853 1.796827 -0.333418 -2.873019 1.686554 -1.793127 -1.545233 -2.244369 -0.683621 2.097234 -1.096171 1.737394 -1.109273 
905 1.132439 -0.328057 -1.040699 0.204898 0.259034 0.087096 -0.756409 0.626558 -1.319999 -2.087482 -2.309572 -2.622238 0.583405 -0.646936 1.395097 0.179635 
14997 -1.306854 -0.865992 -1.007497 -3.772649 0.014806 2.923282 1.860341 1.587523 2.433365 1.641031 -0.744552 0.079876 0.283624 1.030865 -1.063785 1.617401 
404 2.354837 -0.351896 -0.202952 2.216467 -0.972169 -0.705544 -0.199570 0.494162 -0.101047 -1.824722 -0.286239 -1.987227 0.090983 -1.895735 4.988796 0.741816 
2951 1.876296 0.121194 -0.822499 1.766657 -0.914334 -1.460490 -0.183225 -0.456162 -3.609905 -1.575738 -0.801107 -3.562878 -0.911129 -2.040748 0.695691 1.596609 
2274 0.520717 1.165033 2.137350 1.151707 -0.564790 -0.183632 -0.681276 1.577443 -2.266990 -0.141688 -0.211250 -3.013953 -0.786542 -0.366655 0.726590 2.024481 
1571 1.403779 1.306017 2.451395 1.828546 1.466854 -2.148792 -0.385260 0.565138 -0.827891 -1.769278 1.400412 1.643347 -2.152473 -2.430748 2.679147 -0.023971 
1782 2.807366 1.481899 0.985313 -0.182809 -1.279772 -1.317429 -1.624898 1.205569 -3.085519 -0.131475 -0.689104 0.378899 0.647375 0.595913 3.878245 -0.833868 
1743 2.149988 0.401192 -0.393438 -0.314340 2.300370 -0.759430 -2.186592 -0.527828 -2.418795 -1.023417 -0.834546 -0.935870 -1.544496 -1.186328 1.165753 1.211352 
2721 0.783094 2.296887 1.812080 1.215540 -1.463474 -0.138122 -0.215951 0.897291 -2.910851 -1.503859 -0.421271 -2.616376 -2.178486 -0.116426 1.341746 2.355161 
2336 4.036684 0.392071 1.331667 1.199546 -0.748047 -0.468828 0.969973 1.465852 -1.211290 -2.040061 -0.314523 0.615034 0.921482 -1.472516 0.835822 -0.043175 
1198 3.150248 -0.395843 -0.644367 -0.761123 0.680819 1.092119 -1.029848 0.750967 -0.582525 -1.633651 -1.189176 0.360502 -0.147795 -2.544935 3.009124 0.614481 
2078 1.212044 0.136719 1.995701 -0.972645 -1.316830 -2.433860 -1.743271 -1.900650 -2.274989 -0.580571 -2.593973 -1.158643 -1.492431 -1.768049 1.178213 -0.646476 
276 0.867714 0.576023 -0.221622 2.960660 -0.248641 -1.637360 -0.722699 0.936547 -3.093783 1.930887 -1.786915 -0.769330 1.301628 -1.930504 2.130857 -1.024908 
1306 4.536300 0.795284 0.767061 2.307818 -1.333406 -3.059572 -0.665637 1.530906 0.559715 -1.100152 -0.784347 -1.392169 -0.739476 -2.424173 0.734663 0.816586 
1042 -0.626800 1.855549 0.446978 -0.811302 -0.515897 0.594680 1.321542 0.803615 -1.335908 -2.203694 -0.528769 -1.490226 -0.829137 -1.644561 0.722968 0.188152 
1535 0.907079 0.744331 -1.850126 0.645178 1.307957 0.487859 -1.378473 0.971330 -2.037997 -1.505799 -1.439104 0.877788 -0.842723 -1.067975 2.409123 1.125661 
2255 1.015894 -0.642573 2.008826 1.121134 -0.473513 -1.774056 0.343524 1.458632 -1.884616 -0.208836 -0.675051 -1.897155 -0.715489 -0.429282 1.868119 2.079590 
308 2.523223 1.691496 -1.004102 -0.517347 -0.080174 0.221865 0.641424 0.734293 -2.755750 0.765019 -1.278211 -1.229561 -0.250569 -1.384367 2.236981 2.349921 
2435 1.848557 1.746154 1.431444 0.630620 -0.363310 -0.443175 0.355386 0.235502 -1.616245 -1.352239 0.286024 -2.077502 -0.837617 -0.107434 0.010983 1.186859 
2905 0.951530 2.676856 3.494872 0.371089 -2.510453 -0.717273 -0.506281 -0.004481 -1.044346 1.653321 -1.495857 0.626543 0.481913 -2.714958 2.812607 -0.775128 
2732 1.679573 1.004301 2.089777 -1.096021 0.875926 -0.054570 -0.216285 1.329443 -3.182520 -0.036430 -0.627500 0.015160 -1.176731 0.136951 1.309002 0.714135 
584 1.736227 0.562059 -0.914488 0.675271 -1.196665 -0.348124 -0.522751 -1.847151 -1.909198 -0.380962 -2.437006 -0.518544 1.082659 -1.433734 3.697890 0.439290 
2146 3.111499 1.784527 -1.170361 2.183996 0.811063 0.316906 -0.348836 -0.497939 -0.844753 -1.159522 -1.288792 0.359846 0.152367 -1.682810 0.675611 -1.291301 
80 0.118413 1.740591 0.742316 -0.608215 0.186577 -2.286965 -1.346536 1.068858 -2.314422 -1.029286 -2.691524 -1.796162 -1.308281 1.144216 2.976079 -1.701599 
378 2.587252 -0.799403 1.976983 -2.365948 0.039695 1.254246 -0.643731 1.104333 -1.597517 -1.089621 -2.696007 -1.807164 -0.375740 -2.214222 1.720442 0.994770 
2093 0.281815 -0.674963 1.482493 -0.678193 -2.621868 -0.540025 -0.718029 1.611835 -2.131888 -0.201085 -3.333154 -1.655931 -0.130248 -1.577189 2.168293 -0.231675 
2330 4.245304 0.843004 1.382978 2.309958 -0.300452 -1.165639 0.740249 0.311950 -0.978032 -1.384994 -0.706010 -0.994881 2.146182 -0.233451 2.356018 -0.473540 
88 0.968325 1.170447 2.838134 0.807907 1.067416 1.199449 -1.002044 -1.854855 -3.240721 -0.809962 -2.892992 -1.390767 -0.375550 -0.070432 0.869243 0.814875 
373 3.184665 -0.156623 -0.053100 2.545696 1.351272 -1.147809 1.803001 1.467388 -0.153305 -0.955166 -3.079780 0.122892 -0.048499 -1.351956 3.446502 1.183303 
1194 1.299907 1.776732 1.669801 1.430972 0.381715 -1.272291 -3.839269 0.667102 -0.241093 -3.138462 -1.985625 1.971846 -1.326190 -1.333813 1.868946 0.299703 
1832 1.194702 0.148345 0.301127 0.429059 -1.402489 0.792311 0.723960 1.153632 -3.352264 0.400116 -1.956743 0.463753 -1.639290 -2.992701 0.908479 0.883722 
16634 -3.577456 0.757732 -2.748213 -1.519502 1.090873 1.560189 1.719130 -2.234409 1.046350 -0.763281 3.840456 2.707294 -0.554520 1.552335 -0.699571 -0.585669 
14568 0.056775 -1.450344 -1.386022 2.083060 3.381299 1.308664 1.468286 -0.306457 0.888277 2.197070 3.238883 1.116324 2.245994 2.863401 -2.733058 0.034821 
18031 -3.767967 -2.774795 -1.856944 1.273336 -0.489811 -0.045795 3.199631 -1.800782 0.425523 2.687080 0.519632 1.619651 2.012531 1.575680 -0.003937 1.024076 
12479 -3.048111 2.311023 -2.271996 0.829671 0.762266 0.339499 1.598253 -0.779966 4.149544 1.278918 0.977296 -1.024896 -1.328006 3.650322 -0.495163 0.165009 
14377 -1.679740 1.990675 -0.873114 0.657356 3.352118 0.608667 1.019476 -0.747766 2.498774 1.811666 2.560321 0.567254 0.294272 4.074289 -0.817099 1.713716 
14384 0.872630 -0.330462 -2.798343 -0.861448 2.155399 2.862753 0.256405 -1.238077 0.549081 0.092487 5.168959 -0.809694 1.198003 2.957427 -0.875302 0.179622 
12311 -1.820135 -0.386260 -3.328542 -1.231578 0.400121 3.830546 0.247763 0.540146 0.794575 -0.056209 2.529489 -1.448241 1.050331 0.195538 -2.879603 3.295547 
14933 -2.788864 -0.778903 -4.420728 -0.055243 -0.630776 -0.063070 1.217923 -0.428886 0.185749 -1.038795 2.135787 0.474186 2.760873 3.370892 -2.066945 0.927523 
14347 -1.512306 -2.074277 -2.418376 -2.846935 -0.068104 -0.404647 3.271551 0.010574 -0.322302 -0.348363 3.421419 1.746938 0.346188 4.021183 -0.592966 -1.148549 
16698 -5.094752 -2.096008 -3.758847 -1.081058 -0.346697 0.367279 2.093709 0.542530 1.144447 1.363582 -1.026510 -0.579029 1.404791 0.784723 -2.022994 -1.877302 
14972 -1.371365 -1.434722 -1.526709 1.088037 -1.485924 1.603716 2.793781 -4.549663 1.709094 2.142732 1.686192 1.508372 -0.490809 2.107029 -1.061297 1.567705 
5839 -2.123585 -0.036515 -3.801901 0.291301 0.995765 2.221630 -0.713920 -1.267378 3.981347 2.213427 3.084236 -0.934117 -0.008532 1.578442 -0.549607 -2.341638 
14305 -0.582635 -2.381717 -2.327724 -2.125828 2.067221 -0.567737 1.468377 1.131896 4.364196 2.727204 0.238515 -1.084926 1.318949 2.466908 -0.087874 0.384097 
15105 1.479694 -2.411057 -1.080160 -3.898118 2.402175 1.020201 1.729324 -1.946553 2.529722 1.196992 0.674864 -1.699369 1.614954 2.459861 -2.151011 0.816524 
17151 0.228036 -1.080617 -2.092269 -1.194701 -0.954537 0.842324 4.546556 0.301070 4.149385 2.511791 0.745603 0.752341 0.177058 1.061424 1.001208 -0.451995 
14713 -3.121486 -3.708840 0.068716 -1.802031 -1.133955 2.212586 0.838360 -1.644607 1.026535 1.712924 1.926458 -2.858409 1.143449 2.726855 -0.749187 -0.865593 
16717 -0.619805 -3.221350 -3.355049 -2.685673 2.063675 1.642250 0.561123 0.393583 2.151271 2.251823 -0.374079 -1.216826 -2.228324 2.620388 -1.089647 0.102332 
14596 0.053433 -0.056899 -0.497189 -1.714543 -0.598061 3.325748 3.145839 -2.380542 -1.631255 2.396197 1.216173 1.039110 2.723225 2.765728 -0.817200 -0.695263 
12229 -2.421356 0.697912 -3.078024 -0.740752 0.169242 0.502032 1.952089 -1.681309 -0.412749 1.779547 4.103295 -0.228518 -2.505167 2.236366 0.331599 2.247385 
17157 -1.695429 -3.899199 -3.457839 -0.788739 2.389853 0.226063 1.726285 0.213771 1.452626 0.719187 2.745162 -1.056527 -1.247360 2.615654 1.472947 1.567673 
14104 -1.820383 -0.672753 -1.073348 3.104743 -0.589932 0.698148 4.105161 -2.221742 1.205764 -0.039618 3.350007 0.365463 0.223747 3.258780 -2.148201 0.517352 
17995 -1.682209 -4.542576 0.456249 -0.739869 1.026527 1.955098 0.960278 -2.375566 2.947114 3.075181 2.006184 -0.788111 0.735481 1.389067 -2.358535 -0.749378 
14762 0.415616 -0.638838 -0.439730 -1.232246 0.582806 1.026822 2.633319 1.007976 3.304018 0.805837 3.656289 -0.086483 0.823183 4.083342 0.283032 2.307478 
14580 -1.918467 -3.656045 0.105461 -2.100426 2.277330 3.374053 0.769096 -0.985820 2.337738 1.952371 -1.029269 -1.148668 0.552247 2.101220 -3.684511 0.750292 
14075 -2.620015 -0.078678 0.840904 1.222428 -0.740580 1.320755 2.438378 0.301278 2.993611 2.194691 0.937994 -0.796137 2.713875 2.914096 -3.615344 0.691214 
14391 -2.507574 1.321195 -2.348203 -0.695895 -0.304318 3.682371 1.168927 0.720366 2.049273 1.148999 0.909196 2.044708 3.572161 1.074674 -2.223800 0.732124 
15025 -3.997400 2.072435 -1.509788 -0.314463 2.058398 1.098175 0.396848 1.999488 2.866829 2.576732 1.539837 -0.306344 0.814756 2.694791 -1.860132 -0.610355 
12139 -0.184327 -3.946294 -2.305476 -2.247903 -0.227784 1.510841 2.821378 -1.870330 -0.355274 3.143646 0.433621 -2.146052 1.594044 0.973650 0.630251 1.983525 
14521 -2.721263 -0.425168 1.382029 -2.375348 -2.170833 3.550806 1.441076 -1.408494 2.140068 2.216013 2.016375 -1.246981 1.098986 2.073868 -1.280028 0.702400 
12132 -2.152226 -1.542852 -1.221592 -0.991813 0.734448 3.217550 0.753174 -0.234162 1.260011 3.988986 4.240970 0.273827 -0.361253 -1.213268 -1.677724 0.629911 
5677 -2.569368 0.477378 -1.056185 1.857398 1.727998 1.045572 1.574615 -3.589594 0.397109 1.449007 1.353110 1.497929 0.613543 4.078736 -1.955802 1.710217 
14358 -2.643853 -0.546924 -2.067690 0.670793 0.193560 0.830204 0.909849 -2.748123 3.445959 2.675503 1.473977 0.953782 2.162091 3.223195 1.368331 -1.108919 
17650 -1.481723 -1.612858 -3.356357 -0.715036 -0.446372 2.593180 3.540545 -1.588302 2.066324 -0.299726 -0.517055 0.947511 -2.949615 1.322390 -1.934767 -1.041028 
12079 -1.266333 -2.610453 -0.803559 -0.166074 1.578483 3.144092 0.508552 -1.084139 3.134908 2.323135 -1.033466 -2.407660 -0.173312 3.736212 -0.169601 1.181386 
15198 -2.101791 -1.730996 -1.407082 -1.129371 0.520968 1.882287 2.752189 -1.403342 2.630627 3.828706 2.280179 1.476428 -1.453673 0.363233 2.169241 0.837170 
14046 -1.291378 -2.422587 -1.541475 -3.557164 0.383115 2.222227 -0.161418 -1.163893 0.387074 3.226477 2.405586 -2.738305 1.167011 1.385391 -0.492090 2.426346 
17239 0.326863 1.339821 -1.234103 -2.814751 2.895948 1.961190 1.668674 -1.833423 2.835491 -0.123319 0.567582 0.720830 0.307848 3.728288 -2.438063 -1.123967 
14288 1.096537 -0.785150 -4.159853 -2.464040 -0.749892 0.703167 2.404169 -1.250423 -0.718318 0.825587 2.067513 0.529805 1.238353 1.977541 -3.787137 -0.923184 
11911 -2.454504 -2.097974 -4.396584 -0.588899 0.619695 0.261631 -0.471202 -0.074610 -0.287690 2.052224 0.159917 -0.407080 0.924327 5.022355 -1.665820 0.498736 
15199 -2.732038 1.278269 -3.781951 0.171629 1.798485 1.823762 0.449906 -2.596027 1.083724 -0.249263 -0.053043 0.095482 0.108991 3.666892 -3.550774 -1.621099 
8839 -3.202438 1.851908 -2.645641 -2.781883 0.652167 1.376190 0.629981 0.159070 2.059337 2.864805 1.897042 -0.447814 1.660009 1.192100 1.799005 1.464332 
15095 0.092940 -0.742897 0.448540 1.484931 1.231220 3.228933 3.477901 -0.991973 0.141047 3.265638 2.517672 2.106275 1.068154 2.204612 -3.518180 1.194153 
17376 1.022609 -3.485797 -2.688848 -1.947421 2.644540 1.148654 1.411441 0.141962 2.020459 4.012566 1.555776 0.716643 0.502765 0.388684 -1.739574 0.600374 
16628 -2.151365 -0.983854 -1.433002 -0.695768 0.485923 1.904041 0.893701 -1.376923 2.869070 2.802208 -1.613223 -1.010348 3.013343 2.831327 -1.140932 -2.503629 
17954 -0.114932 -0.991091 -0.151480 -0.469992 2.546171 2.565048 2.731691 0.881117 0.680593 2.643374 1.178446 2.701549 -0.173010 4.140461 -3.297642 -1.190904 
14773 -1.852906 -1.640423 -4.962039 -0.688338 -0.562175 0.032804 2.950619 -0.557283 2.707109 0.661337 1.651596 0.300914 -0.146914 -0.332051 -1.259861 3.759429 
11988 -1.197011 -1.704085 -3.460919 -2.407227 -2.395512 1.505569 3.302393 0.209756 0.100565 0.107297 4.067253 0.785725 0.328584 0.724546 -1.132959 -1.007094 
11795 -3.109487 0.071911 -5.452919 1.455077 -0.176357 0.260720 1.633479 -1.939458 1.054646 1.708086 1.650766 0.745845 -1.270026 0.958277 -1.807109 2.064994 
14893 0.675796 -0.081045 -2.166385 -2.418639 1.474364 1.400822 0.605356 -0.328934 3.863286 1.431025 2.515040 -0.969888 1.732843 1.051790 -3.171102 2.943657 
11723 -3.225693 0.825144 -2.947976 -1.387878 -0.308542 0.569060 2.390354 -0.486475 3.360231 1.216069 2.687354 -0.645169 -3.337672 0.969847 -0.523407 -1.006900 
14611 -1.313392 -2.388516 1.428903 0.005138 -0.750466 3.607020 2.111747 -0.219427 1.135216 3.951953 3.217092 -1.558469 0.680232 1.740523 -1.663268 -0.702916 
12412 0.589312 -0.921231 -2.910259 0.925574 0.198208 2.427048 1.043689 -1.658789 1.781767 2.169498 -0.222265 -1.427919 0.061672 3.710886 -0.964868 3.357862 
8285 -0.092556 -0.966306 -3.915775 0.273187 1.887783 -0.891795 3.125939 -0.813873 0.759483 0.954931 1.301713 -0.871597 -2.363575 4.604329 -0.105458 0.946327 
14627 -4.464148 -0.564160 -3.071233 -2.318129 0.993268 0.785487 -0.547931 -0.908042 1.683635 1.589293 -0.399950 -0.039614 0.431364 2.715814 -3.462897 -1.894408 
8895 0.774557 -0.931581 -1.989279 -0.595856 1.025200 -0.775719 2.143992 -1.569104 3.808163 2.925805 0.142013 -3.316706 0.865550 3.091528 -1.170699 1.061266 
15070 -1.580121 -0.590305 -3.016693 -3.832547 0.528108 0.950135 0.467745 1.810297 -0.279498 1.794794 3.712587 0.572416 2.622028 2.020762 -1.854996 0.350438 
14720 -2.050002 -0.564088 -2.888722 -0.749940 -0.199631 1.680411 3.101114 1.134118 -1.217085 2.181043 2.651188 2.345970 3.242607 0.355395 -0.981462 1.520027 
880 -0.247621 2.338529 2.081328 2.233551 0.182891 0.845850 -3.266908 0.676276 -3.397603 0.733121 -1.931799 -0.879385 1.003699 -0.428439 2.240076 -0.165386 
2239 1.689982 0.826465 3.120016 1.868705 -0.351729 -1.090462 -1.553769 -0.189866 -0.522418 -0.965296 0.189910 0.012094 2.894200 -4.530364 0.931475 0.629589 
1065 1.337681 1.615333 -0.433594 -0.312786 -0.351752 -1.889945 -1.491955 1.686331 -0.474737 -0.583307 -2.179726 0.149930 -3.067211 -4.199099 0.139602 0.989484 
425 2.138199 0.128091 0.650525 3.774860 -0.042480 -1.352336 1.250683 0.370560 -1.488233 -1.719311 -0.148430 -0.352364 -0.435126 -2.550298 1.839100 2.283173 
1963 -0.011930 0.762991 0.555555 -0.616681 -1.876826 -1.900587 -1.460626 -1.048331 -3.005947 0.228706 -1.439233 -0.071117 -1.806810 -2.663519 2.044554 -0.093329 
472 1.627903 0.189232 -1.663112 0.717602 0.233877 0.251247 0.603929 2.430509 -0.687008 -0.769846 -1.449527 -2.600361 -2.127236 -3.615268 2.038064 -1.677910 
365 1.035933 0.680039 -1.908852 1.921345 0.398352 -0.419352 1.022308 0.997075 -0.516485 0.232753 -1.611725 -2.016087 -0.976162 -2.902478 1.974855 -1.084715 
530 0.370944 1.308659 -1.687406 2.063933 0.100621 -1.414605 -0.349829 0.432888 0.254276 0.296022 -0.993384 -2.336902 -1.095305 -3.469430 2.663053 -0.734749 
2115 -0.469902 2.941614 0.601950 0.968917 -0.542093 -0.980817 -0.739288 1.497176 0.261417 -2.495535 -1.335515 -0.545691 -0.294402 -1.637139 3.055096 2.984358 
568 3.934311 -0.619947 -1.025486 1.818977 1.971714 -1.594734 0.015580 1.336942 -2.459129 -1.980288 0.666944 -0.937776 0.016812 -2.633662 2.120581 -0.079334 
1504 1.607086 0.706096 0.446766 -0.670977 2.198550 -1.715150 -1.887716 -0.918200 -2.060965 -0.850205 -0.458172 -2.748873 -0.760721 -0.370382 3.664401 0.329982 
1183 1.280533 2.304363 -0.173199 1.248820 -0.012158 1.540963 -1.625311 -0.745189 -0.596518 -2.399780 -0.052476 -1.730927 -2.298295 -1.810572 1.691678 -0.132181 
966 1.307572 1.844925 -2.317762 1.004482 -0.512290 -1.241745 0.394845 1.675694 -3.287099 -0.859603 0.082302 -0.487998 -1.691076 -2.584694 1.643733 0.218481 
3248 1.242339 -0.073676 0.389899 0.519660 0.262523 0.805991 -1.692448 3.645182 -0.369558 -2.749933 -1.195514 -2.899729 -0.774573 -1.329196 2.370332 -0.048219 
71 1.887560 -0.180949 -0.080438 2.496891 1.174510 0.002110 2.030517 1.730233 -0.331699 -1.544932 -2.999399 -0.212931 -1.254374 -1.540952 3.897496 1.050832 
501 -0.290960 0.269076 -0.300923 -0.022135 1.394559 -0.312826 -1.681514 2.548498 -0.373844 -3.315389 -1.945659 -0.714544 0.651505 -2.343532 1.244266 -0.516233 
1712 0.501791 2.564885 -0.261476 -0.011235 1.189516 -3.430017 -2.152003 0.272750 -0.322690 -1.400597 -1.446390 -0.107966 -2.068213 -0.779910 3.455474 0.714478 
263 1.130819 3.901662 -1.662020 0.976405 1.776606 1.228955 0.052984 1.808140 -1.678509 -0.861446 -1.231030 -2.326462 0.879823 -0.990376 4.394307 0.583449 
172 2.883773 1.075671 1.740599 1.426521 -2.953130 1.587048 -1.977003 1.088263 -1.435573 -1.887080 0.156100 -0.598805 0.211218 -3.739869 0.883287 -0.184982 
19 1.755329 0.607607 -0.224826 -1.431692 -0.958880 -1.787189 -1.649597 -0.019588 0.952232 -1.615263 -1.815646 -2.391453 0.567093 -2.930958 4.179739 -0.447673 
2099 2.981311 0.473957 0.398080 -0.667618 -0.513155 0.095870 0.540726 -0.874276 -2.415709 -0.939290 0.169419 -2.199364 -1.278907 -0.681226 1.733778 -0.143909 
412 2.968343 0.814802 -0.551136 1.692701 -0.569017 2.123575 0.168911 2.267047 -1.621633 -0.544692 -3.002930 -1.816818 -0.134651 -3.253484 0.086820 1.510761 
1454 0.671996 1.651744 0.858807 0.649832 -0.967897 -0.818661 -0.469014 1.312504 -0.561654 -1.754374 0.694614 -4.170990 1.350857 -3.176475 0.758702 0.028294 
560 1.249389 1.725449 0.456323 2.593236 -0.751896 0.619074 -0.943194 2.458580 -1.889817 1.006371 -2.306551 -0.292062 -0.831209 0.382032 3.426988 0.743986 
2337 2.793647 1.812154 1.282361 0.851538 1.384609 -0.173373 -1.492398 -2.172389 -1.651488 -1.010245 -0.244547 -0.470497 1.903032 -1.487024 1.524888 0.515620 
1773 1.953935 3.260216 -0.580274 0.488385 -2.930924 -1.483325 -1.817972 0.703347 -2.112141 -1.370114 -0.731023 0.765782 -0.988278 -3.610528 0.140846 -0.171935 
1297 1.656106 -0.851526 2.279482 0.013991 0.509041 -0.998659 -0.038600 3.268261 -0.943999 -0.221073 -1.457357 1.095499 -0.795008 -2.670342 1.942187 -1.958670 
2376 1.366463 1.301555 1.639307 -1.870278 1.658955 0.046882 -0.744254 0.509759 -0.812697 -2.003606 0.247114 -0.440737 1.393602 -3.130778 1.464761 -0.049475 
2023 0.285242 0.218547 1.038163 0.763672 1.700357 -0.189641 -1.374142 -0.222787 -0.793529 -1.413012 0.610754 -1.920516 -0.981458 -2.755507 1.100758 1.332456 
2598 2.300275 -1.591891 0.860661 0.001865 0.984944 -1.675556 -2.774966 1.810105 -0.947629 -1.222973 -3.030154 -0.727822 -2.984426 -1.536480 2.185583 -0.831613 
422 0.499321 2.644464 0.281695 1.348219 1.649660 -0.497512 0.518970 -1.407513 -2.579835 0.184713 -1.503235 1.365424 -1.695031 -1.932750 2.346271 -1.860751 
2970 1.482045 0.882662 2.145330 -0.273912 1.812224 -0.938460 -1.198869 -0.357754 -0.860238 0.136752 -1.026996 -1.773326 -1.679265 -2.103339 0.208141 -2.216337 
13969 -2.995676 -1.564144 0.606225 -1.930483 -1.143639 -0.439437 1.983586 -0.942099 2.773301 2.728815 1.561297 -1.267988 2.199602 2.660692 -2.303035 -1.623466 
66 2.886304 1.403163 0.738734 1.936545 -1.619743 0.107510 -1.109730 0.835764 -2.386335 0.395581 0.986697 -0.765391 -3.001576 -1.814450 3.005512 1.077314 
2924 1.863250 2.369374 0.438755 -0.153480 0.866371 -1.976170 -0.254433 -0.923712 -1.617499 -0.800355 0.354685 -1.967444 -0.596700 -1.862276 -0.680597 -0.038376 
1230 1.949577 0.482913 2.234200 3.104180 -0.025418 0.940586 -2.225855 -1.236542 -0.170865 -0.976637 -1.815651 -2.340700 -1.484099 -3.025322 0.515466 -1.310954 
158 -0.332364 1.186498 1.710586 0.282737 1.292967 -0.138532 -1.013937 -0.579685 -0.715971 -1.782138 0.964564 -1.969666 0.397533 -3.094115 1.548425 1.271542 
2560 1.554498 -1.127075 2.470542 -0.182692 -0.463478 -2.471302 0.511915 -0.488698 -0.742879 -0.526603 -1.390067 -1.697335 -1.465901 -2.224003 0.886850 0.375825 
14293 -1.881086 -0.776275 -1.050709 -0.147632 -0.522408 2.342083 3.799212 -2.055141 2.392386 0.153482 2.820231 0.654015 -3.295300 1.004922 -0.745363 0.637149 
268 3.164163 1.393029 -0.532591 1.154904 0.884463 -2.311530 0.828598 1.929558 -1.030123 0.993819 -1.601646 -0.175018 -0.035274 -2.292877 1.189476 -2.697809 
410 2.449029 2.729579 -0.409792 1.438352 1.907284 2.114939 -2.264485 0.980353 -1.101310 0.028857 -2.573413 -2.270580 -1.500356 -0.238105 2.051659 0.125717 
2092 -0.308990 -1.043825 1.423651 -0.004908 -1.283306 -1.436107 -0.696963 1.327817 -1.923584 -0.046546 -2.811697 -1.282255 0.099016 -1.258707 1.239668 -0.243525 
683 4.094236 1.216260 1.597285 1.627609 0.063849 -1.873386 -0.432542 0.160822 0.128448 -2.013254 -0.226647 -1.622977 1.610773 -0.084316 2.868227 -0.710091 
2049 0.708886 1.530087 1.777190 1.168298 -1.383534 -1.613211 0.120382 0.592883 -4.138722 -0.617547 -1.486915 1.938229 -1.375154 -1.312651 2.022539 -2.507886 
1891 3.118582 1.873764 -0.406744 0.935758 0.392566 -1.537663 -0.068048 0.607415 -3.219680 -1.229839 0.552375 1.306795 2.416134 -2.937671 2.187272 -1.644298 
1062 1.228241 1.529547 0.588952 1.809607 0.399696 1.106398 -0.097802 -0.100666 0.995275 -1.414439 -3.227966 -1.618499 1.192285 -1.191795 2.487857 1.406710 
608 2.045831 -0.943973 1.208132 -1.374180 -1.241227 -0.185797 0.039386 0.521498 -2.644571 -0.856134 0.092134 -0.844169 -1.486212 -2.931416 4.911659 0.252460 
884 4.259031 0.631220 0.911964 0.474471 -1.626915 -1.405530 -0.409883 -1.286059 -2.387924 -0.547883 0.051263 -2.191363 -1.130538 -0.620469 2.671682 -1.150133 
682 -1.192146 1.463276 0.640009 0.150360 0.457982 0.563074 -2.277176 2.176386 -1.236487 -0.418030 -3.677604 -0.503153 -0.088991 -0.611446 2.927211 -0.263534 
1254 0.381812 -0.155022 1.827603 -1.108905 -1.221933 -0.043054 -1.923482 1.015870 -2.435259 -2.182057 -1.115194 1.385836 -1.369772 -3.018117 2.894445 -2.212997 
639 2.105785 2.685619 -0.499016 4.118065 1.750014 -2.109471 -0.633783 1.183757 -1.380129 0.000599 0.195607 -1.874037 -1.493880 -1.653196 1.008242 0.720080 
1461 2.872843 2.529671 0.404877 1.692862 -1.275579 -2.704015 -2.877825 -0.041039 -0.352297 -1.120398 -2.118760 -0.607057 1.707834 -0.583037 1.972294 1.524477 
1326 3.103658 1.362894 -0.796164 2.147957 -2.166184 -0.925623 -2.698208 -0.258964 -1.391037 0.451179 -1.171413 -1.708319 -1.355358 -2.764186 0.897278 -1.448019 
1156 2.298054 0.238576 2.005799 3.205664 -1.029248 0.446789 -1.343728 -1.079347 -0.705371 -2.566759 -2.049002 1.191545 0.922295 -2.361866 1.814639 0.515764 
391 1.496145 2.489141 -0.920875 -1.072395 0.121703 0.729406 -0.243128 -0.253811 -3.433846 -0.150907 -1.467245 -1.522567 -1.049613 -1.482301 3.046766 2.621410 
297 1.507034 3.048516 0.985952 1.853204 2.260838 2.787516 0.069443 1.423913 -1.914853 -2.919292 -2.503126 -2.572360 0.776188 -0.314818 1.759316 -0.302991 
599 0.480758 0.355057 1.567906 0.269727 -1.282578 2.146119 -1.888950 0.284521 0.443520 -1.080648 -1.848498 -2.853966 -0.398217 -2.750177 3.240829 0.344940 
2472 0.440514 3.938256 0.421843 1.056529 2.030302 -0.427448 -2.713632 0.318512 -1.528054 -2.061743 -1.648499 -1.480413 -0.440729 0.193047 0.637661 0.024217 
1109 1.207512 2.426474 -1.645674 1.301323 2.984282 0.210706 -1.300530 -0.314895 -3.584282 -0.720540 -0.794595 -0.600789 -1.845043 -2.363783 1.398510 1.316660 
14590 -0.125104 -0.694250 -0.765837 -2.524601 0.916371 2.230394 2.299189 -1.816226 2.275799 -0.424001 1.274880 1.525851 -1.310383 2.683783 -1.888293 2.834105 
235 0.959650 0.997460 0.285113 -0.214960 0.975054 -1.251741 0.386705 -0.754263 0.015796 -0.447759 -0.795740 -0.060915 0.481441 -3.430793 0.285922 0.547896 
1990 0.422468 2.216416 1.812382 -0.450076 -0.009628 -3.051923 -3.777152 -0.054638 -0.732369 -0.431404 -2.763181 -2.769728 0.411475 -0.923701 1.314017 -0.071816 
536 2.223401 1.979844 -0.198623 -0.544431 -1.321949 -1.435242 -0.791054 1.501796 -0.119835 -0.016071 -3.983127 -1.491276 2.508220 -1.093277 2.782163 0.050841 
1447 -1.578276 1.914733 1.370171 1.218787 0.775913 0.231034 -0.889121 1.133772 -3.148961 -0.063995 -0.123203 0.760262 -2.520370 -2.848664 3.136736 0.546156 
1207 2.368201 0.195669 -0.476597 1.624588 -0.845237 1.958858 -0.266822 0.085831 -1.980973 -2.441689 -1.847807 -0.957068 -0.837437 -0.369986 2.195783 0.369187 
1239 2.786598 1.822198 -0.443673 0.172292 -0.928524 -3.305599 -0.476747 0.836430 0.144475 -1.294491 -2.146508 -2.733943 -0.840238 -0.120212 2.071571 -0.406530 
2436 0.325492 0.012678 -1.294884 1.414315 0.223927 0.616118 -2.320200 0.883615 -1.962056 -1.315353 -2.025279 1.472545 -0.748074 -2.824714 2.857865 -0.339336 
112 0.530145 2.157417 1.019515 1.487698 -0.985253 0.076759 -1.188448 0.812840 -0.571814 -1.920753 0.237416 -1.481554 1.472973 -1.267635 0.987242 -2.034322 
1357 2.210808 2.004450 0.071199 0.449316 0.885397 -1.284034 0.299690 1.797659 -1.133623 -0.524653 -3.908305 -0.820549 -0.419560 -1.667786 -1.432651 1.181403 
623 1.661151 2.276216 1.204186 -0.496464 0.449264 1.673338 -1.598727 -2.212053 -2.308270 -0.913442 -0.549010 0.027030 0.096568 -2.551072 1.726503 1.285414 
437 1.747548 0.430028 0.881220 0.138015 0.131842 1.535164 -1.211914 -0.437508 -1.489128 0.559581 -1.794802 -2.725574 2.635485 -2.674355 2.423842 -0.606803 
1047 3.048263 4.057806 0.543903 0.627359 -0.659162 0.338001 0.645147 1.902464 -2.859848 -0.691521 -1.317571 1.515097 0.607481 -1.315331 0.342689 0.675554 
251 1.554805 4.397863 2.234859 0.920819 2.030171 1.112959 -0.953009 -0.852949 0.107147 0.365029 -1.416646 -1.596465 -1.462272 -2.053501 0.990571 0.863754 
1833 0.286909 0.613017 0.880718 0.993091 2.139675 -1.595009 -0.644768 0.398345 0.722108 -2.742855 -2.959900 -0.302364 -0.234444 -1.285854 0.967672 -0.172442 
1287 0.497439 2.857066 0.368857 2.054658 -0.834238 -2.038669 -1.177780 -0.599906 -1.879128 0.564770 1.021758 -0.429175 0.347172 -3.505029 1.204114 -0.085667 
548 2.982525 1.298814 -1.939703 0.061683 -1.128782 0.450273 -1.316715 -0.499061 -2.790591 -1.699868 -1.908620 -1.584627 -1.915839 -4.450283 -0.045995 0.310034 
1017 2.143951 3.561239 -0.875288 0.050953 -0.035682 0.925330 -2.653716 0.801240 -1.360092 -1.888666 -2.807238 -1.475657 1.829976 -2.136826 0.008280 1.200402 
432 2.414050 0.182110 1.589849 -1.014875 -1.215757 -0.148527 0.803422 -0.604678 -2.951442 -0.691922 -0.094118 -0.979145 -1.015123 -0.813542 2.707985 -0.054731 
2449 -0.221317 -0.272967 0.817025 -0.288819 2.560573 -0.467374 -0.172028 -0.363925 -1.341300 -0.295906 -2.815658 0.021703 1.041589 -2.305864 1.355842 -0.068301 
2189 1.790533 1.363297 -0.185349 2.738549 0.021117 0.976079 -1.705334 0.385714 -1.400330 -3.071269 -0.552482 0.539197 -1.866101 -0.771779 2.264266 0.557678 
858 0.719373 2.867934 1.367113 -0.999724 -2.837174 -0.267538 0.446424 1.605130 -1.025316 -0.256342 -2.040550 0.743403 -1.871891 -3.597943 1.478901 -1.251001 
1564 3.808273 0.760876 1.910537 -1.137651 -0.964685 -3.342362 -0.063432 0.969985 -0.264028 -0.507742 -0.604721 0.735540 -1.193040 -1.953069 2.982597 -0.706093 
1147 3.608857 1.272708 0.912843 -0.353763 -2.027392 0.568966 1.783232 2.134719 0.173707 -1.215288 -3.180159 -2.348066 0.371428 -2.183001 1.672417 -0.052916 
1660 -0.802093 0.691754 1.093606 0.907523 0.010787 -1.672942 0.416555 1.250539 -0.202379 -0.483596 -0.396699 -0.434461 0.316758 -1.972656 2.091940 -2.195540 
2416 2.694237 2.252181 1.787885 1.293601 0.303894 -0.975863 -1.232904 -0.757666 -0.224061 0.171735 -4.342799 1.709557 2.257826 -1.745553 2.038722 0.038005 
1423 3.045568 0.831943 1.664261 0.322257 0.637446 -0.516977 -3.873517 -1.325876 -0.977662 -0.379720 -2.142221 1.708636 -0.898719 -3.412468 1.284553 -0.926141 
769 3.839514 2.597475 0.620999 1.137896 -1.146453 0.356955 -2.456849 1.082391 0.160589 1.351060 -3.627292 -2.385026 -1.355704 -2.178051 0.259182 0.815255 
232 1.055441 2.337118 0.812266 -1.009916 0.153417 -0.336798 -0.721587 0.962408 -0.438061 -0.634778 -0.014858 -0.851472 0.211969 -0.559528 2.198684 -2.339571 
2441 2.410817 0.264708 0.361205 0.836644 2.608354 -0.474416 -0.840554 -0.962387 -1.797417 -0.728244 -1.521377 0.182501 -1.907467 -0.171304 3.588196 0.731425 
628 1.307897 1.225045 0.109886 1.101996 -1.810466 0.088233 0.690450 2.662718 -1.455026 -0.364701 -2.775893 0.508883 1.569169 -1.216700 5.109297 -0.797566 
168 1.891469 1.298018 2.568602 1.427698 1.144018 -0.635963 -1.022199 -0.313335 -1.986578 -0.958943 0.980017 1.970070 -2.051652 -1.834239 2.184418 -0.071689 
147 2.956548 1.466494 1.262695 0.520791 2.302274 0.041375 -1.314913 -0.620561 -1.110788 -0.435074 -0.653277 0.168693 2.397407 -1.220076 2.727974 -0.258333 
2271 1.571220 0.143727 -0.666513 1.298421 2.902607 0.315945 -0.860481 -0.180049 -2.380326 -0.660750 -1.359870 0.703489 -1.466485 -1.462498 3.282732 1.067876 
1451 1.177148 3.602956 -1.177578 0.437226 -0.528232 -0.275665 -0.075884 2.662949 -1.797210 -0.145681 -1.776429 -2.237864 -0.560124 -1.614429 -0.358030 -1.155988 
305 0.381871 2.339032 -0.970740 -0.801856 -0.037804 0.789655 -0.796592 0.851485 -1.984111 1.657208 -1.675825 -0.198922 0.700382 -4.111787 3.202751 -0.027552 
1359 0.095037 0.153837 1.513287 2.017990 2.628731 -0.230947 -0.121031 1.366576 -1.425113 -1.193645 -1.017573 -1.838450 -1.348504 -1.208666 0.130165 0.721199 
2395 2.438807 0.113694 0.026494 -0.245187 1.837530 -1.292875 -1.555474 -1.081742 -2.557976 -1.024261 -0.547009 -0.979186 -1.310217 -0.235199 2.712710 1.110684 
2167 2.683342 0.210474 0.563273 1.112031 1.457715 -1.066662 -0.462769 -2.154945 -1.847302 -1.177025 -1.071006 -0.900691 1.649337 -1.852132 1.044295 0.643242 
1377 0.866437 -1.211393 0.215599 -0.877719 0.379535 -0.696528 0.794699 -0.166173 -2.161595 -1.620156 -1.938757 0.393550 -0.561098 -3.158849 1.449010 0.621245 
2177 0.715264 0.913766 1.578310 0.782424 -1.031800 -2.171503 1.945136 0.792619 -1.642420 -1.164740 -1.970940 -0.878757 -0.184307 -0.399928 0.317127 0.502882 
2382 2.710991 2.301392 3.266521 -0.187859 -1.313557 -0.311605 -2.766863 3.138639 -0.066572 0.182371 0.652819 -1.481621 0.343956 -2.297290 2.018694 0.139006 
1343 2.204455 1.171231 0.488639 2.552406 1.231773 -0.322810 -0.347826 2.028449 -0.981647 -1.695207 0.463102 -4.450754 1.382372 -3.491378 -0.172555 0.254712 
354 0.439139 3.560452 -0.971282 1.648230 1.228114 -0.052310 0.284438 -0.613847 -2.356410 -0.666736 1.382028 -2.217686 -1.476766 -3.290589 3.814008 0.191120 
1048 3.569503 2.325209 2.005958 -2.239403 -0.872778 -1.754044 -2.827928 -0.711376 -1.358398 -1.221494 -1.303795 -0.070526 1.389135 -1.103430 2.569093 0.427888 
167 2.545142 1.043493 0.333894 -0.830304 0.117142 -1.192352 0.451707 -0.452863 -2.087879 -0.231860 0.691145 -3.376962 -0.027333 -1.123231 2.856907 0.715851 
2058 1.943561 0.331166 1.223071 1.749018 -1.291930 0.690045 -1.348206 1.934648 -0.488573 -0.827754 -1.159715 0.783588 0.605862 -4.209988 2.121685 2.825389 
535 2.578935 3.061369 0.875361 -0.485254 -1.291065 1.820412 -1.760872 0.650365 -4.754116 -1.912177 -1.082857 -0.415068 0.404215 -0.666672 0.983562 -0.145944 
2029 1.884624 1.419276 2.534929 1.556510 0.286946 -0.122825 -0.195372 0.225812 -1.617916 -0.629084 -0.695622 -1.535892 -0.180695 -0.346129 -0.205058 2.317351 
2729 0.954897 2.580178 0.975207 -0.180757 0.898469 -0.293266 -0.645812 1.928814 -3.517387 -0.541243 -3.444190 -0.709504 0.125720 -0.190077 -1.001686 -1.076935 
896 1.652572 3.577794 1.186724 1.139952 0.015364 0.568097 -1.265316 0.641601 -2.341633 0.857193 -3.412436 1.003993 -2.867833 -0.137129 1.582965 -0.800862 
497 0.540190 1.030483 -1.017371 1.686992 0.065718 -0.974619 -1.457583 -0.936660 0.576525 0.232676 -1.817104 -2.375045 -1.813336 -3.089377 3.123021 -0.195691 
1299 2.826703 -1.789021 2.050596 3.478794 -0.927915 -0.694307 -0.675066 -0.743828 -2.401122 -0.873708 -1.334649 -1.479253 0.732760 -1.913792 2.167619 0.076587 
2249 1.605060 -0.538736 1.224714 -0.663599 0.739412 -1.427480 0.493282 2.626833 -2.063550 -0.107100 -0.669838 -0.305296 -1.153184 -1.538205 0.374275 0.711151 
2128 2.808290 1.476413 1.212557 -1.554710 -1.140604 -2.458038 0.378029 -1.342535 -1.286515 -0.709923 -1.382323 -1.238254 1.222409 -2.798227 0.333407 -0.669210 
2662 1.455657 1.971195 0.891526 2.281916 0.220522 1.276684 -1.013085 -1.901132 -2.282676 0.355875 -1.324351 0.800692 -1.474693 -1.411246 3.162589 -1.346462 
2299 0.741879 2.895512 -0.849922 -0.060111 -0.652192 -0.414223 0.385505 2.767611 -1.419539 -0.605142 -2.131012 -2.334140 -0.388680 -1.131272 -0.426698 0.040553 
2825 2.799426 0.560699 1.562558 -0.844762 0.393484 -0.479777 -3.428838 -0.171528 -4.016397 1.683012 -0.568554 0.268063 -0.227484 -3.169447 1.835176 0.070043 
1529 1.653206 3.346642 -0.770423 1.753979 -0.385882 -2.738568 -0.344980 2.943333 -0.572914 -0.203217 -0.714861 -0.174427 -0.500965 -2.733101 0.077874 0.250673 
359 2.513249 0.390250 -0.219702 2.097417 -0.161962 1.778071 -0.259668 1.374609 -3.881469 -1.365995 0.621367 -2.084448 0.975392 -3.026048 2.486154 2.121920 
107 0.484089 -0.991028 1.117188 2.967023 -0.062836 1.316312 -2.352346 3.212117 -1.547957 -0.418787 -1.845515 -0.743988 -1.239045 -3.115215 1.903831 0.261572 
3332 0.904819 2.468962 2.552119 2.099294 3.429222 -0.622538 -2.798336 1.901291 0.101216 0.852813 -2.487138 -0.175376 -0.928001 -1.731981 1.266314 -0.772289 
1677 2.415091 -1.081834 0.973250 -1.088577 -1.505370 -1.751527 -1.296211 -0.356402 -1.694531 -2.062390 -1.787256 -0.635202 0.959110 -3.586544 3.035982 -3.120300 
1084 1.569713 2.647518 0.875850 0.696593 -0.333155 -0.501534 -3.030424 -0.225742 0.004618 -2.811552 -3.174910 -3.040043 -1.457287 -1.720439 -0.635661 -1.119655 
2642 2.924485 0.882867 1.641141 -0.381936 -0.314291 1.999483 -1.652922 -1.742525 -2.814338 -1.411079 -0.822800 0.336956 -0.404492 -3.092289 1.273411 1.162900 
2356 1.902681 -0.141578 -1.568752 0.095270 0.488659 0.911360 -1.559147 0.969535 -0.174236 -1.405562 -1.692564 0.376961 0.021522 -3.085705 3.576603 -0.072748 
408 2.944010 1.545155 -0.539382 2.271927 1.803159 0.167081 2.454496 2.040989 -2.222294 0.634289 -0.322780 0.067844 0.488792 -3.666888 2.297200 0.018341 
668 2.227472 0.811159 -0.339306 2.673095 1.838503 -0.828818 -0.340987 -1.120077 -2.153095 0.757138 0.095596 -2.533845 -0.110820 -1.813180 2.647374 -0.810369 
102 2.712550 0.598545 -0.837519 2.465580 2.056082 0.937472 1.560294 2.184687 -1.389568 0.598817 -0.905738 -0.769921 -0.358916 -3.592695 1.939022 0.021242 
1547 0.184986 2.663807 2.210055 0.145969 1.382950 -0.828724 -1.193342 2.392800 -1.546439 0.774766 -0.254079 1.855783 -0.219231 -2.925589 2.082037 1.405667 
1462 0.648411 2.753104 0.264726 0.128223 0.235199 -0.111563 -1.844264 -0.150283 -2.753115 -1.255127 -2.214291 2.184005 0.425939 -0.307281 2.511697 -0.168939 
296 2.363745 1.894033 -2.100819 2.476127 -0.618244 -2.636769 0.211824 1.703017 -1.086385 -1.215664 -1.454864 -1.782272 2.035792 -1.929276 1.861234 -0.492950 
2511 3.742169 1.468253 0.385178 0.077429 -2.800404 -1.827656 -0.437967 -1.168013 -0.582956 -1.356670 -1.935869 -0.022905 -3.002434 -2.027064 2.860316 0.753605 
2285 2.476840 0.730005 0.726501 -0.460786 -0.423247 -0.395569 0.483866 -0.445452 -2.575352 -0.911358 0.568992 -2.926884 -0.770785 -0.969315 0.893033 0.216337 
2932 -0.252181 0.229256 0.236276 2.861453 1.987165 -2.230314 -2.340039 0.245960 -1.733474 0.141808 -1.836330 -1.377948 -0.242692 -1.171686 2.755563 1.034655 
2318 3.124259 2.916492 0.302466 -0.080501 0.781462 -1.014655 -2.296750 0.949878 -1.008793 -0.747012 -0.806783 1.440922 -2.946886 -1.931390 0.739131 -1.379946 
1533 0.898435 3.383632 0.333931 1.796208 0.757962 0.832019 -0.833062 0.807722 -0.725788 0.795645 -0.206232 -1.989136 -0.799806 -1.912109 1.140005 -2.016652 
3531 1.042117 0.015594 0.929281 1.197948 -1.573137 -0.809920 -0.180257 1.497501 0.456179 -2.373668 -0.778553 -1.284483 -2.089293 -4.458488 1.077798 1.332708 
377 1.344103 2.283008 -0.152419 1.644933 0.776938 -1.424795 -0.460001 -1.278586 -1.711901 1.296635 -1.733958 -0.070384 1.238229 -1.229954 3.598684 1.531924 
103 4.200654 -0.075127 0.374552 2.647690 0.548202 -1.518763 -0.205630 0.856660 -0.964688 1.761286 -1.011512 -2.091703 -0.467562 -2.270221 2.562378 1.913092 
2273 1.527815 1.926483 -0.383305 1.744572 -0.679243 1.447623 -1.254175 0.348469 -1.718985 -2.851608 -1.120638 0.564915 -1.753729 -1.008798 1.781137 1.403676 
2217 3.074805 0.174301 -0.646704 -0.527045 -1.626107 0.491391 -0.714623 1.229836 -2.342329 -1.989091 -2.727780 -0.600584 0.889599 -0.937472 1.430416 -1.299280 
424 3.059138 1.918391 -0.816267 2.309955 2.115844 -0.521380 0.223917 3.766302 -1.003225 0.528844 -3.573848 -2.677757 -1.290957 -0.014570 2.468545 -0.415739 
2236 1.640124 3.712329 1.052564 1.295051 -0.076850 -1.594342 0.108660 0.127823 -2.208451 -0.746802 0.188478 -0.824052 0.034137 -0.521312 1.401620 -3.484109 
1789 3.335735 1.177232 0.802966 3.878784 -1.276404 -0.061302 -2.263578 -0.458404 -1.838130 -2.436443 -3.010993 -1.558798 -0.620959 -0.522968 -0.088026 0.117544 
2226 2.514735 1.059735 1.602796 -1.146421 -1.347677 -0.046466 0.942493 -1.074122 -2.704426 -0.508738 -0.604310 -0.935565 -1.039217 -0.760818 2.229703 -0.036176 
298 -0.065893 1.683216 -1.523378 -0.490911 -0.216091 -2.244826 0.648757 0.926940 -3.105124 0.320455 -1.852415 -0.998424 0.452993 -1.473202 3.442139 -1.032051 
595 2.147690 1.873525 1.724440 0.239424 2.865074 1.932644 -0.351506 0.980687 -0.601585 -0.348594 -2.964062 0.323621 -2.014219 -2.061898 0.703639 -0.737376 
14809 -1.012136 -0.355331 -4.726781 -0.679991 -0.286592 1.400886 2.067006 0.289528 -0.825337 0.527140 2.758076 -0.733254 -0.917899 -0.219454 -1.165200 1.657543 
2437 3.195161 2.283095 -1.118580 1.885627 1.087743 -0.628346 0.342645 -0.456810 -0.404875 -1.189095 -1.237831 0.488234 -0.404607 -1.321168 0.699461 -0.200621 
487 2.604967 1.154980 1.345836 1.224092 -1.319091 0.675438 0.482043 1.432533 -1.503762 0.000309 0.550199 -1.296328 0.482220 -1.399048 1.924991 -2.485670 
99 0.410835 1.096117 1.706166 1.421345 -0.006726 0.179797 0.954924 -0.211516 -1.806422 -2.253367 -0.049715 0.233339 0.969967 -0.475320 2.881538 1.031665 
2404 1.333390 2.629135 1.103099 1.989340 0.317754 -1.421163 -2.292691 1.259181 -3.038536 -0.880628 -1.927459 1.868455 -2.258075 -0.581302 0.991895 2.281549 
607 0.996332 1.943702 0.259459 0.536351 -0.606994 1.883926 -2.501151 -1.212010 -0.924811 -1.427630 0.071349 -2.217390 -1.261442 -2.318135 2.715211 -0.298740 
2911 4.630990 1.375315 1.782487 0.913480 -2.279423 0.162901 -0.199862 0.230860 -1.092630 -0.553053 -3.669597 0.139270 -1.431823 -0.561201 0.917159 -0.424084 
1459 2.479317 0.622345 0.659850 1.298516 -0.886347 0.204115 1.221146 0.638370 -4.200014 1.206208 -1.779842 -1.791027 -0.342620 -1.038811 3.177866 -3.002257 
14060 -2.030290 -0.162870 -3.790499 -2.390089 -1.318101 -0.437985 3.449621 -0.529328 0.945944 0.307437 0.893967 -0.030994 0.287176 1.992121 1.248330 2.457454 
252 1.183998 1.400642 0.027632 0.427016 -0.038813 0.179592 1.210004 1.857441 -3.660736 1.321151 -0.983129 0.684397 -1.282638 -4.111770 1.285049 -2.310932 
1369 1.241827 2.254576 1.241036 0.617061 -0.381981 -2.246168 0.059082 -2.018591 0.254433 -1.496341 -2.645564 -0.033734 -2.030560 -2.859353 0.345070 -0.415308 
1368 1.039850 0.406974 2.789044 -0.626985 1.695240 0.347347 -0.875045 -0.344638 -3.468399 -0.819392 -2.124728 -0.639186 -1.746541 -0.010178 1.064816 0.621181 
732 1.052252 1.409793 1.696121 0.654447 -0.818311 1.868263 -1.739978 1.948176 0.798545 0.064283 -1.228228 -2.235957 -1.434429 -3.350165 1.267453 -0.532290 
2946 0.550845 0.414393 1.682834 4.387170 -1.724775 -0.408247 -1.091664 1.937544 -1.407964 -1.617544 -0.467673 -1.012252 -2.192429 -1.070871 3.979341 0.188566 
711 2.057156 2.730717 -0.010265 3.496729 1.417347 0.318983 -0.655676 3.384495 -1.244357 -2.130423 -1.269343 -0.681132 0.653313 -2.112619 -0.618479 0.401301 
1307 3.613795 1.967972 2.472094 -1.873528 0.863660 -2.274268 -0.017618 2.193340 -1.469504 -2.259762 -2.140237 0.913161 1.305978 -0.886329 0.820723 -0.830059 
2113 2.529715 2.972147 -0.046081 0.538054 -2.207804 -0.170791 -1.149463 0.702909 -2.713330 -1.214496 -1.121173 0.020956 3.269495 -3.757242 0.503594 0.271203 
3065 2.279660 0.963756 0.286935 0.253983 0.548304 -0.650017 -3.661402 0.975784 -3.568034 -1.706017 -0.741176 0.655889 2.100169 -2.448164 0.819103 1.155660 
3351 0.483867 2.074291 2.561438 1.013455 -0.152831 -1.570640 -3.484482 2.435135 -1.808519 1.487566 -0.246131 0.188350 1.728610 -2.117720 3.701189 -0.410400 
2765 1.163426 0.493062 -0.217674 0.571751 0.829036 -3.525095 -1.409158 2.037249 -3.093414 -0.829674 -1.829341 1.776430 -1.184112 -2.536870 1.578430 -2.676308 
3867 1.720710 0.825242 2.321525 3.127407 -2.138051 -2.657501 -2.553659 1.417927 -1.189362 -0.756208 -0.007699 -2.079092 0.769908 -1.308828 1.451270 0.128354 
2796 0.559070 2.116367 1.757226 -0.228722 -0.392032 0.002215 -1.035625 3.999696 -1.056470 -1.799849 -2.697506 2.252643 -0.468207 -1.525694 2.143007 0.382083 
3510 1.557437 3.140843 2.299757 2.259561 -0.894552 -0.174063 -2.889949 0.727145 -3.806189 -1.276132 -1.117617 -0.511606 1.395511 -1.889018 -1.345194 -0.024457 
3088 2.039688 0.245147 1.392308 -0.355017 -0.230721 -1.697057 -1.789241 1.606559 -3.071198 -1.504068 -4.340013 1.871667 0.188776 -1.380829 -0.010512 0.148111 
1780 0.976881 1.060377 2.357981 -0.428305 -0.326170 -1.212747 -2.309963 0.515650 -0.868058 0.652414 -5.296588 -0.369481 -2.217758 -1.095543 1.547917 -1.110577 
3411 0.701818 -0.169003 3.529824 1.552465 -1.232701 -0.906152 -2.982947 1.710650 -0.777611 0.616272 -1.340243 -3.264825 -0.275278 -1.957090 2.832986 -2.119224 
1866 0.775950 1.038412 -0.068306 0.685130 -0.354664 -2.546002 0.298636 -0.298726 -3.388286 -2.502666 -0.512661 -0.401850 -3.249584 -0.874598 2.859696 -0.647132 
2931 1.343311 1.252855 1.943020 1.599186 -2.134013 -2.550889 2.852098 -0.274023 -2.751002 -1.244139 -1.945715 -0.915591 -0.646193 -0.551141 2.461538 -0.812933 
1394 0.590852 3.669203 0.793192 0.282440 1.343870 -1.093661 -1.419755 1.113149 -2.298501 -2.351918 -1.416672 -0.638241 -0.470311 0.454163 -0.039019 0.079704 
1513 2.047173 1.314279 0.202764 -1.199093 -1.294077 -2.707590 0.133221 2.775477 -0.737558 -1.263225 -3.212344 1.033943 0.398998 -3.405685 1.151988 -2.286003 
532 2.934072 0.988645 0.364219 1.578606 3.172872 1.618765 0.670558 2.303313 -0.526755 0.393644 -2.108031 -0.127828 -0.924771 -2.238065 2.018978 -0.499849 
840 0.715419 2.097614 -0.580999 -0.253427 -2.656872 -0.750681 -0.737698 1.633325 -0.061616 -1.734154 -1.805913 0.170117 1.578022 -4.184571 3.505306 1.053927 
218 1.831237 0.747144 0.531538 2.055298 1.574215 -3.086497 -2.141251 -0.920242 -2.268311 -0.388918 -3.477384 -1.709473 -1.753639 -0.186868 0.822904 -1.358134 
355 0.390574 -0.014446 0.907222 1.721958 -0.321995 0.839036 -1.646097 -0.935338 -4.495243 0.535856 -1.726528 -0.615706 -0.793796 -1.905017 4.180190 1.732457 
1791 3.862506 -0.902708 1.498037 2.629921 0.717927 -1.271484 -1.092621 -0.358374 -2.268833 -3.284274 -1.022304 0.910423 -0.659977 -3.085183 0.229563 -1.539626 
3806 4.084822 1.117657 2.426643 2.189728 0.677490 -1.125835 -1.144081 -0.077904 0.238938 -2.314731 -3.262082 0.870088 -0.262521 -0.009900 1.614622 -1.488876 
14127 -1.999277 -2.401745 -2.558445 -0.023714 1.221717 0.754748 0.407218 1.389418 -0.798872 0.113546 3.241871 -1.292444 1.530858 3.181903 -2.712836 0.271312 
3707 4.534565 1.020660 1.507210 1.167409 0.591241 -0.032544 1.094595 1.268817 -1.863832 -2.165308 -0.617895 0.173908 2.094634 -1.204449 1.018030 0.396689 
1014 0.894264 1.035783 1.320920 1.981466 1.100322 -0.239294 0.181343 1.674249 0.101322 -1.412909 0.218758 -0.837455 0.244013 -1.384887 1.497943 -2.787030 
6372 -1.101097 0.621047 -3.395858 1.439508 -0.975850 0.327798 1.900678 -3.559369 1.493429 0.583088 1.304765 0.541918 0.431183 4.016894 -1.610363 -0.459782 
15108 -1.195310 -2.970196 -3.576059 0.931920 -0.302483 -0.126125 0.962435 1.017147 0.772618 3.479843 2.513852 -2.083836 1.439605 1.565065 -1.644233 -0.157985 
314 -0.185772 1.963982 -1.200181 1.191859 0.944151 0.171518 -0.218657 3.387716 -0.721798 0.323106 -1.803884 -0.250829 -0.747808 -3.285129 2.828154 1.583567 
469 -0.097634 1.940386 -0.360572 -0.012108 2.071367 0.700787 -2.228660 1.131960 0.418668 -1.565682 -2.393326 -2.262312 -0.002112 -2.952479 0.759038 -0.781403 
1606 2.587966 -0.141334 0.561220 3.010412 -0.010958 -1.679286 -1.889143 -1.729312 0.079378 -2.786690 -2.745765 -0.773986 -2.107188 -1.199049 3.139035 0.403360 
13592 -1.970593 -0.610759 -2.543997 -2.066944 1.365612 2.539983 1.204423 -2.562228 -0.531465 -1.254197 1.642467 0.303067 -1.324446 2.265520 -2.325358 -1.750774 
1446 2.542512 2.403152 4.454956 1.042448 -2.141685 -2.027042 -0.128502 2.481335 0.485329 -0.742200 -1.906342 -0.615488 0.897937 -2.163484 0.710082 -1.852148 
14594 -2.001840 0.314409 -2.759147 -0.166198 -0.383435 2.582220 0.145014 -3.112384 1.100653 3.166362 -1.329687 -0.135463 2.262327 1.646134 -1.743152 0.611528 
5739 -1.235828 -0.461458 -2.627396 -2.040193 -2.354718 2.364550 0.697379 -0.390380 3.387969 0.314799 1.821608 -2.598771 0.576950 1.519720 -1.536640 1.770927 
1509 1.729892 -0.061256 1.297871 0.399590 0.843239 0.236817 0.192584 0.162779 -0.409097 0.173467 -1.408389 -2.675256 2.454596 -2.364132 2.054928 0.091539 
1121 -0.722498 4.009923 0.969739 1.587324 -1.840219 -0.023207 0.791371 0.752357 -0.717844 -1.456053 -1.139339 -1.108753 -0.345063 -0.999375 2.263411 -1.323120 
14057 -1.234544 -0.452141 -2.619341 -2.041656 -2.362409 2.368068 0.682014 -0.397887 3.403233 0.303588 1.816407 -2.590992 0.579898 1.515584 -1.542209 1.781093 
14292 -2.197778 0.187484 -3.147136 0.018272 -0.521140 2.301559 0.159576 -3.198564 0.571749 2.990457 -1.229356 0.431267 1.810667 2.153713 -1.814845 0.746545 
16560 -1.976822 -0.611130 -2.549686 -2.076402 1.370994 2.541701 1.204138 -2.569349 -0.530840 -1.255860 1.650102 0.301178 -1.329081 2.266791 -2.328448 -1.754121 
1055 3.344882 0.445224 -0.210184 0.751094 -0.133446 -0.738298 -2.337061 3.649827 -0.149551 -0.242334 0.161967 -1.746848 -0.274370 -3.059800 2.576419 1.760605 
15163 -1.306484 -3.287138 -3.228995 0.884740 -0.120854 -0.426829 0.883195 0.720076 1.460332 3.142958 2.709490 -2.212567 1.080352 1.844381 -1.657996 -0.611435 
6795 -1.097772 0.621660 -3.400023 1.441187 -0.979653 0.325158 1.899752 -3.564983 1.492394 0.583400 1.304515 0.538350 0.434740 4.020045 -1.610395 -0.462872 
695 2.219241 1.040846 0.432637 -0.279779 -0.124187 0.241413 1.041118 0.023441 -1.068413 0.281376 0.168767 -0.919773 -3.088051 -4.551436 2.998395 0.879243 
645 1.493880 3.529673 0.171729 0.375094 -0.282568 -1.953362 1.397554 1.661012 -1.032050 0.920832 -0.684467 1.061047 1.498473 -3.191025 2.788107 0.426193 
1271 1.441127 -0.017287 1.768677 0.238965 -0.405711 0.482221 -2.694629 2.911504 -1.832950 -1.322204 -1.208576 0.034915 -2.020127 -1.851481 2.886406 3.042967 
1687 2.822582 0.187523 2.340699 1.162709 -0.144398 2.013783 -2.102683 0.491931 -1.124992 -0.172281 -2.097105 0.327128 -1.819520 -0.652831 4.350919 0.719622 
52 2.965155 1.775174 -0.069618 -0.202450 -2.192699 1.066202 -0.137515 0.270573 -0.901251 1.495738 -1.762275 -0.573116 -0.675690 -2.144460 2.864188 0.008801 
1892 4.079194 0.113848 1.681082 -0.086793 -0.573159 -1.905914 -1.127449 1.698069 1.845465 -2.963283 -1.744141 -0.303693 0.531327 -2.425675 2.789002 0.310104 
479 2.285374 1.803122 0.517432 0.510145 0.278563 -3.064614 0.561543 -0.260372 -2.363796 0.308593 -2.635179 1.636329 1.202211 -0.873240 2.967672 -1.773417 
1708 0.026366 2.306694 0.794092 1.718493 0.836158 -0.294258 -0.068956 -2.106464 -1.968239 -0.702004 -1.123572 0.921079 -1.396012 -1.487059 3.636205 -1.449747 
2220 2.291922 0.891213 -1.550175 0.140921 -0.026406 0.289914 -0.770277 -0.486271 -1.312271 -1.589378 -2.703344 -1.170799 -0.644396 -0.280092 1.667371 -1.530156 
1277 0.425079 2.543764 1.353154 -1.017985 1.193672 1.070869 -2.874408 -0.166214 -1.521580 -2.601324 -2.091965 -0.060849 -2.769957 -2.245313 0.891108 -1.543842 
681 -1.304336 1.595690 0.492861 0.419867 0.183598 0.427022 -2.485455 2.700758 -1.306526 -0.293354 -3.714118 -0.557605 -0.475297 -1.071453 2.408185 -0.849369 
45 0.850703 3.216089 1.478678 0.616171 -0.974181 -0.756761 -1.142700 -2.210202 -0.386980 -1.012297 -2.700105 0.265244 -2.954520 -3.142279 0.796314 -0.426862 
2739 0.647049 1.557524 1.404719 1.640999 1.102945 0.412945 -0.330104 -1.576721 -2.975411 -1.808511 -3.426197 -0.511957 -0.131275 -1.244706 -0.855680 0.817788 
2902 1.461794 -0.824662 1.027477 3.476232 3.139124 -1.403721 0.095573 1.703156 -1.987014 -0.808377 -1.861658 -1.055752 0.104919 -3.121395 0.150039 -1.496594 
1476 -0.518324 0.211779 0.264072 0.978853 1.273996 -1.552029 -0.328596 0.237334 -0.476925 -3.688966 -2.406146 -0.502052 -1.565976 -1.832797 1.026824 -0.375510 
2434 2.016324 0.521155 0.610737 0.786939 -1.162677 -1.361385 0.016786 -0.094791 -3.175609 -1.094407 0.554981 -3.099845 -0.718122 -1.428731 0.321498 0.644494 
1123 0.891955 1.699691 0.094540 -0.774850 -0.213805 1.431347 -0.937230 -2.170355 -1.445293 -0.930976 -1.565482 -1.402550 0.251400 -1.991894 3.398104 -0.021600 
421 1.628194 1.426096 -0.656004 2.263083 -1.663853 -1.168752 2.023098 1.635242 0.148081 -0.478268 -2.959695 -0.414183 -0.825493 -2.920001 1.612237 -1.257645 
29 2.189612 2.064525 2.728927 1.263455 -0.367241 -0.287121 -2.364345 -1.539641 0.585427 -2.460073 -0.663196 -0.467562 -1.123075 -0.884140 3.065668 -1.497921 
36 0.982964 4.045904 1.123881 0.388818 0.979757 1.369666 0.448315 -0.648520 -0.904959 0.255630 -0.652700 -0.610971 0.018513 -1.497010 1.209181 1.141862 
1883 -0.151978 3.363560 0.449990 -0.850741 -0.088887 -0.828289 0.134320 1.033815 -1.528494 -2.396109 -0.154429 -0.626864 -0.288277 -1.992087 -0.206359 0.563855 
1697 2.062276 4.104074 1.540903 -1.377182 -1.607406 0.687084 -2.884894 0.650437 -1.542468 -0.030145 -0.979968 0.266925 -1.210445 -1.288070 1.989254 -0.362614 
342 4.069719 2.065995 -0.380163 -0.861625 -0.454168 0.958397 -0.183136 0.909852 -1.956231 0.871725 -1.529358 -1.145710 0.751030 -1.709777 1.750084 1.639849 
2407 2.205858 0.214704 1.373687 -0.605023 0.958626 -1.064855 -0.059561 2.760823 -3.926311 0.038672 -0.321838 0.172104 -1.158493 -0.335948 1.490185 0.946972 
20 -0.264752 1.108275 2.067058 0.326593 -0.467149 1.198240 -0.157197 0.959187 -3.384264 -3.410005 -0.852512 0.759818 -0.608747 -1.268394 1.702758 1.217283 
521 2.215146 2.789404 -1.193506 1.958052 1.375117 -0.753669 -2.869198 1.015554 -0.625109 0.696893 -0.554347 -1.609449 2.239465 -2.959424 2.470469 -1.375786 
2648 3.300116 1.583238 1.509690 1.009304 0.296795 0.636747 -1.920845 3.443630 1.500419 -0.899339 -0.851557 -0.590703 -0.946303 -1.292342 3.907516 -1.096059 
1218 2.159288 -0.631653 0.646051 -0.528691 -0.266648 -2.548590 -2.537712 0.178340 -1.625021 -4.161237 -1.006571 -0.505820 -0.480440 -1.006643 3.746587 -0.881657 
2499 3.045599 0.154173 0.267829 -1.514089 -0.350713 0.402085 -0.886782 2.349296 -1.113260 -3.432238 0.199161 0.274513 -0.741120 -2.560285 2.944156 0.191390 
2548 -0.190669 2.739284 2.027656 1.021096 0.210732 -0.617153 -4.051935 -0.256865 -1.215059 0.693949 -2.068532 -1.287500 -2.337319 -0.728140 3.252234 -1.488827 
3162 2.779930 2.240751 2.590274 -0.033428 2.194076 1.144655 -1.078792 1.493893 -0.988001 0.602923 -0.102138 0.086560 0.382427 -0.640223 2.739826 0.301272 
396 1.765913 2.639161 -0.004200 1.176733 -0.351769 -0.633581 0.903390 -0.435480 -0.085436 1.657799 -2.148203 -0.940959 -0.321924 -0.912238 3.087195 -0.818211 
1081 1.719613 1.091220 3.081518 0.954146 -3.113953 -0.937501 -1.934532 1.089330 -2.470995 -0.816166 -3.418919 0.476514 -1.690606 -2.326347 -0.560616 -1.372763 
2526 1.188221 2.735793 2.486038 2.698929 -1.549999 -2.865065 0.828932 0.891550 -1.345932 0.577793 -1.632621 -0.475626 -1.407664 -1.471575 -0.423660 0.205751 
1365 2.420267 1.078261 2.103491 -0.414548 -1.121074 -1.066746 -0.917341 1.100513 -2.461326 1.081117 -2.052485 -2.346746 1.793197 -1.337585 -0.418027 -0.791585 
134 1.781096 3.651233 2.560422 2.363258 -1.738658 -1.276625 0.174041 -1.299137 -1.553458 -2.288369 0.108269 1.277405 -1.538409 -3.050298 0.962376 -1.195591 
443 2.509580 2.592644 -0.036222 1.636815 -1.750404 -0.884873 0.651661 2.948277 -4.008490 -0.563321 -1.029979 0.324001 1.015660 -1.268079 0.488535 0.599472 
850 1.454219 0.391182 1.025171 2.103121 1.653019 -0.294005 -0.899722 0.628693 1.178956 -0.359019 -2.731002 -2.024972 -0.993956 -1.274192 2.735531 -2.544451 
474 0.506979 0.878011 -1.090784 2.523231 -1.915808 1.336961 0.673642 2.555519 -0.700840 -2.496964 -1.744434 -1.600816 0.398492 -3.675659 3.430807 0.313593 
278 2.606964 -0.114597 1.671394 -3.261167 -0.202441 0.805615 0.203627 0.854886 -1.514343 -0.678034 -3.409008 -1.229659 0.053290 -2.651999 2.293274 0.480389 
146 -0.355328 0.546130 2.333581 0.439596 -0.340324 1.010389 -0.009465 0.635175 -2.651180 -1.689892 -0.410136 -0.335122 0.546414 -1.766358 0.502630 0.377024 
2937 1.500239 -0.353041 0.963597 0.078768 -2.090572 -1.030793 -1.918578 2.188946 -2.435381 1.538787 -1.517043 0.981000 0.295012 -3.268148 4.113544 -0.475067 
2319 3.112962 2.887997 0.312650 -0.130944 0.824023 -0.962533 -2.170231 0.862657 -1.116251 -0.708962 -0.731927 1.515830 -2.818236 -1.969469 0.727236 -1.320261 
14297 -3.079263 1.380413 -2.453146 -1.679473 0.890736 2.384477 1.449101 0.554132 -1.891645 1.550134 0.334771 1.913675 1.076616 2.071048 -1.388727 0.652773 
3640 0.938033 2.426333 4.265608 -0.127055 -0.974891 -1.253207 -0.956914 0.231837 -0.132040 -2.260580 -1.792511 1.397551 -0.903109 -1.467100 1.099173 -0.138157 
92 0.546124 0.431726 -0.880381 1.150014 0.023613 -1.300214 -0.345795 -0.477468 -2.673488 -1.646973 -1.809396 -2.412905 1.039344 -1.092873 0.577870 1.540084 
2950 2.470078 1.728144 2.461775 -0.481431 -1.651965 0.843881 -0.728321 2.132373 1.200560 -1.414369 -2.996709 0.916326 0.865807 -3.409593 1.869636 -0.975656 
1555 1.167825 0.597262 0.131062 0.547305 -1.261872 -3.149850 -2.569402 1.441051 -0.615037 1.143211 -1.120565 -2.048550 0.729546 -2.311919 3.475677 0.869308 
2874 0.839640 2.805472 -0.161058 3.177119 -0.621307 0.332685 -0.846471 1.159275 -0.817675 -2.409567 0.605902 -0.479496 -1.778210 -2.763776 0.924625 0.722738 
894 3.607285 2.398683 -0.977637 0.791655 0.418929 -0.650769 0.491050 3.362207 -0.614367 0.146538 0.207242 -1.716318 -2.117932 -1.345881 3.299178 -0.542690 
1919 2.018844 1.635356 1.210943 -0.642391 0.398098 -0.413588 -3.232413 2.713597 -1.705194 0.114874 -1.664247 -2.499079 -0.481162 -0.170039 0.203263 -0.158996 
1929 2.012447 1.963631 0.475280 -1.114454 -0.799386 -0.475586 -2.375535 1.597362 -4.654243 -1.617397 0.357648 0.662775 -1.655204 -2.645997 0.899645 1.452625 
698 1.891559 2.427682 2.288457 0.999533 -0.446032 -1.545380 -0.335134 2.731455 -1.145859 3.193539 -0.087839 -1.249059 0.455605 -3.304727 2.040557 -0.442321 
1670 4.012568 2.996771 -0.703898 1.603500 1.076739 -0.255372 -0.790203 -0.523579 -0.042441 -0.768330 -1.653467 0.179495 -0.708680 -0.905903 1.140942 0.882123 
3122 1.645261 1.908010 1.553601 1.023486 -1.376066 -0.742874 0.400063 -1.432070 -1.550338 0.642538 -1.130529 -2.376319 0.465533 -2.287453 -0.565236 0.352824 
2264 0.530550 -1.171351 2.116574 1.757507 0.969229 -1.889380 0.497109 1.635273 -2.196633 -0.260865 -2.512260 -1.517106 0.014779 -1.521451 0.266441 2.143622 
567 1.803272 1.089605 1.726259 3.116540 -0.743095 2.134729 0.391938 -0.269318 -2.475442 -0.465202 -2.284660 -0.741796 1.546916 -0.832733 2.303406 -0.882419 
2939 0.075946 0.077737 0.759908 -0.261452 1.733336 -0.624028 0.417498 0.319271 -2.901486 -0.349357 -1.008788 0.693541 -0.612240 -3.682225 0.373837 0.575048 
459 1.938829 -0.179979 0.876121 2.375216 0.977436 0.058064 -2.605093 0.144840 -0.818832 0.747189 -3.514049 -0.226145 2.033859 -1.660721 4.177601 -1.133908 
124 0.896149 2.277651 1.711783 -1.470669 -1.262412 -1.850859 -1.300552 0.921097 -0.082352 -1.233783 0.646329 -1.299467 -2.157345 -2.852440 3.456112 1.701562 
12828 -1.203061 -1.093994 -0.881212 -3.263320 -0.204426 2.817362 1.945284 1.172089 2.577809 1.623555 -0.761671 -0.431365 -0.815612 0.852668 -1.593420 1.789303 
2686 -0.572757 0.009930 1.210370 0.357669 1.479611 -0.970466 -0.500571 1.265105 -0.290516 -2.339971 -0.767564 -0.355943 0.742960 -2.592822 0.301323 -0.991056 
347 1.840753 2.698065 0.286220 1.918504 0.967718 -0.916776 1.513647 1.363786 -3.226749 -2.180976 -0.938432 1.315405 -2.430386 -2.302652 0.097807 1.510881 
1231 -1.557778 1.566593 1.421841 2.391555 -1.002810 -1.852919 -2.162483 1.685699 -3.560714 -2.173079 -1.190438 0.235263 -0.389707 -1.578702 0.934846 -0.081866 
78 2.443671 1.395248 0.544346 -1.840189 1.364425 -0.288192 -0.672644 -0.194251 -3.316082 1.380050 -2.760717 -0.792762 0.706306 -1.289127 1.815075 -1.837489 
1776 -0.310538 0.686824 0.126838 0.527012 0.708892 -1.353814 -0.391732 -0.117640 -0.859264 -3.886174 -3.047096 -0.104236 -1.915609 -1.542173 1.161065 0.027749 
1229 1.924246 3.189602 -1.384592 0.534301 1.682938 0.232596 -1.117759 0.706037 1.355888 -1.081025 -1.735946 -0.886130 -1.132912 -2.757819 1.320983 -0.643323 
1723 2.680877 0.948763 2.231318 1.379825 1.395734 -0.499069 0.184719 -0.760997 -2.585585 -0.072472 0.126315 2.110702 -2.327955 -2.845914 2.216768 0.946872 
1674 -1.530296 1.553728 1.423133 2.385895 -0.988186 -1.856958 -2.139424 1.693459 -3.542721 -2.162666 -1.166680 0.247239 -0.411716 -1.591480 0.919978 -0.069017 
1517 2.223931 -0.686450 -0.704553 0.601061 -1.315684 -2.622466 -0.679433 1.413655 -4.047960 -2.808353 -0.610046 -0.156212 0.962643 -2.428718 1.483736 0.012705 
1720 0.904483 2.117299 -1.009470 -0.963510 0.647210 -3.089308 -1.156034 1.142436 -0.572998 -1.386459 -1.529873 0.144720 -2.661883 -1.394581 3.355236 0.221023 
13907 -1.717857 -1.164027 -0.546439 -4.125800 -0.232522 2.410398 1.968068 1.260003 2.701145 1.901801 -0.054562 -0.114323 -0.293336 0.519176 -1.660999 1.524327 
2982 0.736019 2.084683 2.146311 -0.877937 -1.346062 1.492089 -0.110438 0.211373 -1.885529 0.103695 -4.328727 1.087052 0.332793 -2.384175 1.550082 -0.040092 
14108 0.462056 -0.548781 -2.053353 -1.272051 0.929279 0.668616 1.357859 -2.226869 3.356165 1.500784 -0.506760 -0.070821 -1.734065 3.777386 -1.729421 0.733255 
520 1.438015 0.043408 0.173755 3.396829 -1.105699 1.343585 0.578321 2.416442 -2.868505 -1.359128 -0.609013 -2.524765 -2.813028 -3.222368 1.653111 0.992801 
151 3.459182 -0.214936 3.036826 1.622087 0.059049 1.054790 1.226522 0.677130 -2.143900 1.043708 -0.650064 -0.725552 0.644190 -2.016515 3.118458 0.950258 
2617 0.333111 1.023600 0.328273 -0.581720 -2.701997 -2.216395 -1.273126 -0.196513 -2.386290 0.298982 -2.405444 0.849467 -1.629134 -3.648030 2.128445 0.351786 
1574 2.253301 0.956756 2.626977 1.242158 1.138309 0.397525 -1.154874 -0.250330 -2.039068 -1.463802 1.217092 1.282542 -2.667690 -2.044085 2.883580 -0.137862 
1801 1.241241 1.997556 1.756985 0.783509 -0.584561 -0.343285 2.145190 0.602840 -0.919654 0.014875 -2.077040 0.356655 -0.734714 -1.010098 1.850743 2.071115 
3682 0.251029 2.395735 -0.016199 0.440995 -2.301293 -0.487469 -3.191331 0.944235 -3.179108 -2.307031 0.031072 -0.947601 -2.202273 -1.529272 2.311493 -1.336597 
2748 2.580856 -2.321511 1.205615 1.090194 -0.093243 0.460377 -1.513013 1.730235 -4.066441 -2.838115 -0.389157 -1.457384 -0.904559 -2.267520 1.948069 0.144221 
1537 2.470514 2.667304 2.491681 1.842618 0.133945 0.218974 -2.674373 -1.556538 0.620909 -1.349586 -1.387997 -0.747254 -0.876467 -0.274849 3.794637 -1.159182 
2547 3.631687 1.747710 2.213866 1.875409 -0.519126 -4.254240 -0.358614 0.586544 -0.520051 -0.661197 -1.734722 -0.497564 -0.294692 -0.876750 1.126857 -2.968389 
165 0.966570 0.108032 -0.362234 0.849770 0.832029 -0.763236 -1.158594 2.876145 -3.414646 0.482876 0.007160 -0.262227 0.139794 -1.649928 3.978936 1.827962 
649 2.353205 3.412659 1.089033 -1.050436 1.831990 -1.532170 0.418280 0.883945 -0.506853 0.432866 -3.474664 2.010093 -1.077290 -1.955042 1.943233 -1.662935 
3937 1.581362 -0.563407 0.454046 0.774246 -2.170765 -1.184218 -1.859159 0.273130 -2.701215 -2.863543 0.187886 -1.504154 -1.154651 -2.595949 3.392263 2.518586 
1638 2.968537 0.317429 1.105476 1.725194 0.604358 -2.482331 -1.922022 0.462887 1.745194 -0.464885 -1.102156 -0.237895 -1.309619 -2.064466 4.549430 -0.279383 
2129 0.044114 3.572365 0.797267 2.073464 -1.562320 0.736986 -2.430004 -0.936511 -0.746668 0.156328 -2.951245 0.231449 -2.064781 -3.220909 1.193814 -0.355055 
400 0.227488 0.616545 0.127018 1.599412 1.038707 -0.694687 0.022623 1.963887 -1.294696 -0.889223 1.189158 0.121109 -0.153093 -3.225676 2.222781 -1.294688 
1948 1.097736 -0.044160 3.041865 -0.436896 0.464632 -1.686805 -1.984221 0.001137 0.141154 -2.268373 -2.711412 -1.907547 -1.114768 -0.193582 4.531464 -1.200952 
1358 -0.540473 1.279093 3.962636 0.748122 -0.300205 1.334064 -1.059984 2.009260 -1.652172 -0.685058 -2.600131 -0.979158 -1.166093 -1.769551 -0.001189 0.536523 
2771 4.234966 1.119253 2.157463 0.677363 -1.145229 0.469375 -2.442522 -0.052700 -1.706415 -3.023292 -1.418777 -1.917390 1.691011 -1.053204 0.213803 -0.852401 
1514 -0.624689 2.807172 0.785632 0.707048 1.730801 -1.359337 -3.377405 2.638073 -1.342890 -1.133279 -2.081235 0.683285 -2.620444 -2.362926 0.719917 -0.069583 
3220 4.930773 -1.214154 2.102249 0.183274 -1.986740 -1.441309 -1.230095 0.833382 -2.719919 -1.318991 -2.673151 -0.105317 -0.422806 -3.029966 -0.361563 -0.236835 
1303 0.363152 0.809525 0.526126 1.579600 -3.471276 -1.764313 -0.279077 1.878581 -3.120720 -2.349218 -1.071036 0.010626 -2.886655 -2.936287 1.510649 -0.689208 
61 0.814675 2.004033 1.716573 -0.595443 -1.181957 -2.652059 -1.990715 3.096735 1.331112 0.069289 -2.088714 -1.695804 0.232863 -4.017337 1.337981 -1.031761 
3119 1.967546 -0.106273 2.945799 1.094264 2.121822 -1.563576 -1.500440 1.130316 0.511459 -0.141135 -2.283340 1.117722 -3.266204 -3.586395 1.692826 -0.000272 
465 2.713297 -0.215706 -0.027668 1.273946 -0.042370 -0.950204 1.856217 1.476932 -4.243192 -0.187544 -1.221650 -1.045487 2.358035 -1.896958 2.796612 0.601774 
1614 2.915793 1.550860 0.059031 1.922010 -1.900616 -0.544575 -3.305647 1.372350 0.176406 0.737343 -2.795234 0.990271 0.620717 -2.211298 3.375696 -0.060635 
2973 2.700634 -1.652019 2.404062 2.600477 0.457599 -0.514275 -0.877665 0.202679 -1.788398 0.519813 -0.536258 -0.620717 -2.846669 -2.367444 3.528802 0.011809 
159 3.160575 0.799190 1.624864 1.947369 -1.599270 -0.583991 -1.541870 -2.406448 -0.846620 -0.130812 -2.580867 -1.427072 0.648517 -1.736484 2.491349 -2.634619 
1526 0.044165 2.269197 2.564507 2.659958 -2.046352 0.357267 -2.285650 3.731256 -1.070193 -1.087273 -0.608529 -0.975569 0.503960 -2.301019 1.590431 1.593878 
430 2.621658 -0.097705 -0.836792 -0.280973 0.210601 0.389208 -1.173843 1.650102 -6.156134 0.257325 -1.643561 -2.608292 -0.769801 -2.023319 1.499450 0.152998 
148 2.094513 2.355362 1.203630 2.377566 -0.605644 -3.081565 -3.160859 1.599147 -0.641995 1.410236 -1.962271 -1.186715 0.811535 -0.829230 2.475280 -2.468236 
1855 2.558703 0.527097 -0.417283 0.925959 -0.892649 -1.293594 -2.841307 1.711790 -0.316360 -0.202110 -0.347983 -0.165001 -0.747290 -6.004291 1.234100 -1.279182 
2525 2.803561 -0.081062 0.235659 -1.115700 -2.399321 -2.322145 0.847673 1.052296 -0.648167 -3.546723 -2.127256 -0.872834 -0.758452 -2.789199 1.933031 -0.398572 
2651 1.755668 0.735971 2.220786 2.600572 0.850015 -0.832509 -3.865920 1.121935 0.962780 -0.544936 -2.265559 -1.700056 -2.771830 -1.628304 1.775947 0.723261 
1906 2.773013 0.849554 -0.740155 1.963419 -1.592472 -2.531507 -0.771910 1.184702 -0.702571 -3.981047 -2.418601 0.914904 1.360190 -3.031438 1.034090 -0.636433 
2061 0.904428 3.211967 0.994556 1.866166 -0.111205 -1.995019 -1.568475 0.844814 -2.602196 -3.813085 -0.364981 1.314201 -2.196801 -0.813724 1.271631 -2.060562 
3035 1.172440 3.070230 1.240712 1.404062 3.068848 -0.283867 -3.847867 1.064897 -0.950238 -2.015450 -0.223378 1.023393 0.775461 -2.118574 2.165304 -0.941263 
3584 1.386218 2.292380 2.841386 0.862551 -1.600674 -0.025725 -2.058977 0.602840 -0.011373 0.374066 0.150070 -0.109067 -2.967303 -2.779260 3.292381 -1.655191 
2304 1.541696 2.986361 0.990241 -0.582497 0.932220 -3.253569 -2.854073 3.064153 -0.861340 0.887638 -1.476834 -0.472624 -1.907275 -1.082098 1.965780 -1.531168 
1815 2.354626 2.290033 0.051538 0.144014 -2.035686 0.751353 -2.812678 1.570438 -1.465511 -1.724568 -1.620302 -0.509114 2.563911 -0.999840 3.424566 0.778079 
244 1.126484 4.450150 -0.398438 1.332704 0.548114 0.331051 -1.360416 2.028423 -2.809760 0.285485 -0.301330 -0.096645 -0.826262 -1.376149 0.489976 -1.409285 
3354 1.993939 -0.500969 1.253308 1.225363 -0.443483 -2.188021 -2.735429 2.449001 -2.067589 -3.014194 -1.857787 0.696458 -1.262460 -3.481821 -0.940298 -0.246670 
936 1.779451 0.656520 2.012297 -0.896298 -0.320097 0.028495 -1.838944 0.267079 -1.719622 0.321701 -2.158619 1.307017 -4.114296 -3.452178 2.471168 1.039161 
2643 1.521652 1.713880 2.246733 0.122137 0.141498 0.370238 -2.784593 0.869882 -0.705449 1.931562 -2.141773 -0.481740 0.459431 -2.384701 0.684414 -1.584089 
3512 0.849826 0.635348 0.890312 2.312982 -2.852960 -1.305071 -0.929664 1.419765 -4.473211 -1.983077 -0.363786 -0.817393 0.101441 -0.565223 2.902162 -1.486151 
21 2.227593 1.556615 2.872141 -1.204583 -0.733619 0.346321 0.022307 0.772452 0.112834 0.204515 -0.707797 1.675990 -1.111139 -4.304781 3.782694 0.244817 
2389 3.622149 1.663650 -0.382815 1.772460 -2.030334 -2.025667 0.871037 1.623730 -2.446529 -1.485618 -1.712291 0.248430 -2.471522 -0.328152 1.779948 -1.510379 
1928 1.147221 2.003494 -0.661713 -1.174728 -0.525683 -1.099589 -2.428286 0.500412 -0.033372 -1.594234 -2.721192 0.557880 -1.603195 -4.149317 1.435706 -2.409748 
43 1.030258 1.898536 0.976663 3.214987 0.942188 0.909656 -1.443484 0.445922 -4.425879 -0.606162 0.904237 -1.033843 -1.060679 -1.080541 1.704931 -0.047112 
836 2.423915 2.254537 0.076603 3.618159 -0.844856 -0.416526 -1.441242 -1.254178 -2.981920 0.049278 -2.211358 -0.296462 -3.458299 -1.427614 1.008170 0.805238 
11768 -2.580508 -0.325042 -2.198455 -2.905108 -1.720830 3.781639 0.842885 1.673541 -0.977561 0.831759 1.622966 -0.539529 1.462257 2.527768 -1.815864 0.157134 
723 1.947917 1.672541 2.629983 1.774211 0.128044 2.131086 -1.171945 -0.665729 -2.516877 -0.054505 -3.073710 -1.249708 -1.763484 -0.610167 0.835766 1.927010 
