4057 16
1015 0.38055724 -0.81984085 -0.2983978 -0.41020608 0.40825102 -0.5126237 -1.0661311 -0.4043515 -0.13824771 -0.53872865 0.95386124 -0.07881968 -1.5102577 0.9119709 0.8166667 0.6831017
2300 -0.58244663 0.965708 -0.7541445 -0.21591294 0.27051002 -0.48332962 -1.3532604 1.1063462 0.08838099 -0.4824912 0.061206117 0.57437855 -0.98986614 0.32673275 0.67094505 1.0936614
193 -0.6248782 -0.18920073 -0.19622348 -0.28477323 0.8635825 0.19680713 -1.1362017 1.1862568 0.14436401 -1.3535264 -0.30720204 0.883355 -0.35160854 0.6990197 0.8943563 0.22288056
414 0.29515603 0.20785694 -1.8151244 0.5937457 0.92767686 -1.1507324 -0.026241712 1.1578937 0.6959531 -0.16105098 0.25410804 -0.39748487 -0.06947848 0.049751103 0.6705084 1.9152206
324 -0.29521593 -0.8319655 -0.12662208 -0.38994318 0.6139566 -1.2412266 -1.0645951 -0.7383584 0.6107037 0.46631417 0.9329644 1.032079 -0.68049395 0.7919904 1.5280622 0.016117863
1560 0.3580068 -0.8113034 0.59042454 -0.40563658 0.21052013 -0.568336 -0.9293362 -0.3741002 0.62104654 0.02658517 0.848954 1.5702873 -0.3366548 1.5530118 1.3839345 0.35139823
1013 0.055878222 1.209408 0.4278763 -0.76117873 0.9960051 -0.06799833 -1.8522524 0.75702727 0.035833962 -0.15965506 0.7513017 -0.24892269 -0.5049849 0.29266196 0.41364196 0.4006743
2101 0.363931 -0.08487505 -0.122164495 0.2166186 1.0794225 0.09355698 -1.5183127 0.5293015 0.020857388 -1.5331656 0.24156894 -0.76697516 -0.58966404 1.0915295 0.38568452 -0.13156624
1363 -0.51686597 -0.21455467 0.4094463 -1.0371218 0.88435906 0.028669044 -1.644478 0.35572717 -0.01645265 0.44177872 0.40998757 -0.17022768 -0.08100387 1.5564547 0.39345908 0.75663716
123 -0.08895337 -0.8560184 0.12545043 -0.8851197 0.714226 -0.2970208 -1.0378217 -0.11658585 -0.024137333 0.16741732 1.4694582 -0.075844735 -0.73559815 0.13047074 0.8230184 1.2764924
1523 0.275834 0.40744853 -0.48568693 -0.38229978 0.5321869 0.7623677 -1.5240631 0.35940105 0.22764416 -1.5209905 -0.111599006 0.3277846 -0.46155578 0.78796345 1.8483734 -0.5864813
527 1.2004838 0.22355886 -0.013843868 0.014476978 1.4715722 0.10572048 0.12056632 1.237722 0.64819664 0.53558296 0.48517877 -0.5060424 0.60479844 -0.06248849 2.146345 1.1688493
2235 0.03264441 0.25217783 -0.030925052 -0.44140068 0.74303573 0.7002171 -1.83694 -0.048399366 1.3121529 -0.9736921 -0.0155202905 -0.51399225 0.36257088 0.33991072 1.0712111 0.24339695
1493 -0.14144981 -1.5087886 -0.5803817 -0.40488222 0.69038457 -0.41297075 -0.4012841 0.45817345 -0.58502084 0.34414113 1.4051765 -1.2904778 0.0025899145 0.48682585 1.3998452 1.3969773
974 -0.18838514 -0.58932096 -0.9422741 -0.11326572 0.8743967 -1.1759742 -1.2615792 -0.58506113 -0.38554567 0.27590984 0.4725614 0.13692576 -0.94226 1.0619136 0.6034509 0.7123623
1404 -0.48583338 -0.94010675 -0.157948 0.5086983 0.41211498 0.009785151 -1.874862 0.86272204 -0.22083881 -1.5893092 0.68925273 0.13837363 0.19852269 1.1775404 0.5470837 0.47762853
1362 -0.51532364 -0.6315932 0.31725737 -0.8627702 0.90880513 -0.18587908 -1.0227841 -0.5408063 -0.27547318 -0.30224177 0.6571611 0.7442298 -0.51149625 0.9209024 1.0264837 0.84037143
550 0.09134595 -0.69577545 -1.1124309 -0.87697184 0.23357844 -0.45501363 -1.8437928 -0.3960034 0.47860706 -0.18642823 1.1013039 -0.59501815 -0.8792918 0.05735395 0.385804 0.5712295
1437 -0.24746066 -0.46038148 -0.28291175 -0.86518824 1.2642348 -0.67185235 -1.1834748 -0.49760863 0.20565714 -0.25535974 0.6404884 0.3531456 -0.9561694 0.36380872 0.41168243 1.1906832
2003 0.13416351 -0.3368822 0.06525849 0.040223632 0.7418052 0.20634538 -2.0255353 1.362064 -0.15269236 -1.3166406 0.75084287 0.4095174 0.25554264 0.8000781 0.22462958 -0.040579993
1816 0.41222456 -0.800923 -0.61989534 -0.3308217 0.2616747 -0.8090449 -0.7675879 -0.7981664 1.2555864 0.63798916 1.1198074 1.6360905 -0.28407204 1.4305437 1.0082451 0.083095945
2179 -0.72946376 1.0985154 0.045269392 -0.7530128 0.06264102 -0.8530055 -1.176106 0.05591268 0.7807798 -0.6455846 0.74707454 -1.2746854 -0.968237 0.21713762 0.7715635 0.7916032
792 -0.3899262 0.41985086 -0.19161463 -0.15605032 1.9687611 -0.18675739 -1.3486443 0.24222265 0.6356269 -1.7557083 -0.13312776 -0.04576623 -0.399903 0.69218314 0.44531515 -0.009744633
2410 -0.85808694 0.7643995 -1.0346106 -0.41279942 0.8431808 -0.036623668 -1.0618855 -0.42918038 0.1976518 -0.19679289 0.31540468 0.079532266 -0.88249856 1.0584807 0.59324247 1.3968866
2298 0.09475027 0.6440418 -1.01125 0.7365081 1.1582808 -0.08204231 0.7618224 1.6790477 0.7654023 0.3537175 1.0005958 -0.8270081 0.37120384 0.51082367 1.8209175 1.9355052
1803 0.75530154 -0.6507428 -0.565959 0.40834036 1.2847528 0.23725817 0.3989717 0.15797538 0.6589906 0.017972702 0.7387072 -0.8708958 -0.23780772 0.38313574 2.990688 1.0023803
318 0.50069493 0.6734423 -1.9492431 -1.0527225 1.4064304 -0.62961584 -0.7660139 1.1205508 0.5793369 0.7746778 1.7570688 -0.66976005 1.8790028 -0.4149689 0.51223826 -0.48579893
1042 0.16574672 -0.47524503 -0.20652123 -0.29876977 1.6191097 -0.95170283 -1.7862879 -0.020629855 0.24631393 0.7197999 0.21509157 0.44805145 0.17540008 1.0453374 0.03977171 0.6432331
1475 0.059249714 1.581401 -0.37709174 -0.12461739 0.90590674 -0.3440969 -1.3468027 0.3408085 0.008239135 0.22849129 1.000157 -0.5426089 -1.5814236 1.281498 0.856678 0.14377984
970 -0.067163505 0.30605325 -0.4838436 -0.2789751 1.5969677 0.2167754 -1.532427 0.28360924 -0.7609882 -1.0287125 0.26626796 -0.6691082 -0.19277668 0.21667479 1.3357676 -0.48350412
1396 -0.19377787 -0.23315543 -0.4812875 -0.6800658 1.3769861 0.041307792 -1.109915 0.025660666 0.30249438 -0.62209177 -0.38919106 -0.96758735 -0.4699379 2.1677501 0.2118864 0.48617908
2067 0.3536308 0.62397754 -0.6249313 -0.22253153 1.1513003 -0.43188196 -1.0650008 -0.28880242 -0.38322988 0.5081855 1.0016505 -0.13013037 -1.5902898 1.2940842 0.75496805 0.92227864
2048 -1.1369351 1.4335798 -0.85763067 -0.64448947 0.347005 -0.48493212 -1.0843433 0.3320421 0.20688006 -0.1875542 0.32644305 -0.624966 -1.2066326 1.2597525 0.6681726 0.78380173
42 0.04555037 -0.10082466 -1.0830773 0.017399158 0.05621685 -0.11897891 -1.6360192 0.9549721 1.0304873 0.37687466 1.6155058 -1.2344911 -1.0347863 0.03446283 0.6006239 0.44625047
1360 0.6226841 1.214273 0.47576368 -1.0221934 1.3794818 -0.6217266 -1.7275629 0.08251415 -0.30688003 -1.1073066 0.06493572 -0.033857044 0.61081797 0.50537145 0.72404164 -0.19612882
2286 -0.25136277 -0.28243414 0.22832628 -0.22228216 0.89319175 0.39476323 -1.7077852 1.5012518 -0.3060284 -0.0988155 0.17519844 0.66233426 0.3786139 0.93953854 0.7441574 0.67731106
2435 0.7534564 -0.5431884 0.13787583 -0.054363877 1.0986537 0.60651445 -2.048218 1.0921668 -0.015521599 -0.6413173 0.7021928 1.0037757 0.69470036 0.7432992 0.62709635 0.4778232
705 -0.98727185 0.592314 -0.5940739 -0.938626 0.93349594 0.016386101 -1.1371949 0.33019924 0.41588032 -0.026737578 0.09822215 0.015778072 -0.8325588 1.2786168 0.26477173 1.4151782
1428 0.060447037 0.48233044 -0.48494178 -0.58908767 1.114813 -0.1847417 -1.5356438 -0.008241241 0.022599226 -1.7132589 -0.6579253 -0.35539383 0.39374006 0.2548287 1.2807918 0.019184887
383 -0.2721992 -0.20173755 -2.5191102 -0.31285772 0.89093614 -0.44784328 -0.595849 1.3900673 1.0126013 0.74305654 0.35995382 0.28389883 0.2703572 -0.10303044 0.6354162 1.5106068
2323 0.100496195 -0.22078753 0.11661081 -0.7151839 2.0549738 -0.6965931 -1.7137446 -0.0705511 -0.12284444 0.09639472 0.36818048 0.8024695 -0.093396544 0.48122752 0.5398777 0.6243426
959 0.82585984 -0.017331606 -1.690419 -0.69990295 -0.106191106 -0.836206 -1.5530617 0.5906482 1.5194812 1.0316652 -0.30100802 0.062432818 0.7291463 0.75190103 0.63883376 0.65823996
197 0.3270073 -0.8198566 0.46311578 -0.15839298 0.6834319 -0.99979764 -1.1235857 -0.45994878 1.1284477 0.7014678 1.7875744 1.0381804 -0.40436688 1.1234995 0.75830156 0.3703661
1971 -0.92023176 -0.82156116 -0.61921453 0.1545171 1.2171432 0.1877806 -1.3956355 1.4079242 -0.034115367 -1.5132489 0.7179779 0.56031126 0.13165978 0.5150507 0.65013105 -0.50381756
977 0.40121076 -0.5701956 -0.16447152 -2.2817385 1.3505418 -0.17257777 -0.32704353 -1.2558533 0.3038484 -1.2304714 -0.040695462 0.5597005 0.29484773 1.347319 2.863465 1.6650778
2353 0.8357527 -0.53847635 -1.6318729 0.1822521 0.2291261 -1.1637303 -0.37128416 0.63917303 0.3124433 0.3344472 0.19353756 -1.1223807 0.87817454 0.8563506 1.3021538 2.46724
1800 -0.2711014 1.107052 0.16543317 -0.49697584 1.0133471 0.5430085 -1.6814444 0.887476 0.14656211 -0.26346567 1.2067251 -0.2708584 -0.12818168 -0.4054882 1.141592 1.0298642
153 -0.05875629 0.20678891 0.3870119 -1.149185 1.2089584 -0.33089644 -1.3152912 -0.026566112 -0.10841502 0.28662294 0.8798888 0.28499362 -0.9277107 0.8752642 0.38818678 0.9870378
1441 -1.2650832 -0.07311569 -0.06576411 -0.12435714 0.42292026 0.55636925 -0.9019115 0.43372983 1.347652 -1.3237245 0.15665656 -0.39175802 -0.07158918 0.63327813 1.375259 1.1005135
2163 0.5779006 0.4931446 -0.33463973 -0.7400777 1.4309559 -0.27542484 -1.6620865 0.32642862 -0.77481943 -1.2872717 0.18678384 -0.95428264 0.25841245 0.34310716 0.66220146 -0.48261833
1535 -0.36755338 -0.38517886 -0.76828575 0.37658507 0.734593 0.5197791 0.4743342 0.51745325 0.6409234 -0.21084347 0.71838033 -1.2163354 0.4334238 0.90377337 2.107658 1.926171
1672 -0.019661829 -0.7899752 -0.5055205 -0.3038988 0.36796224 -1.371121 -1.0436295 -1.0026321 0.5022298 0.27777007 0.70993197 1.4649137 -0.5617843 1.5559781 1.2108203 0.5225954
547 -0.7090021 -0.39464638 -0.5493488 0.13407007 1.6070324 0.39072034 -1.0817871 1.6111531 -0.31916362 -0.7457368 0.3340017 0.27770737 0.18800057 0.39668432 1.3733076 -0.69013643
1783 0.26184613 -0.66462165 0.41795483 -0.8625444 0.43882856 -0.42922333 -1.1956604 -0.15613228 0.26849595 0.18231961 1.7133329 0.38281876 -0.97166276 0.6892045 0.41148123 0.9747825
3152 0.56316966 -0.7021289 0.055406712 -0.6500752 0.03152861 -0.57989126 -1.2795373 -0.2552039 0.13724788 -0.42737272 1.4689431 0.119308315 -1.47018 0.38976207 1.1760643 0.9376814
3131 -0.69032145 0.48554033 0.31748152 -0.76361454 0.621026 -0.31737196 -1.4712871 0.75630003 0.3774331 -0.39410695 1.0381835 -0.10893524 -0.87171024 -0.40481895 0.75738275 1.0456322
1741 -1.3068761 -0.12790029 -0.4592905 0.1717757 0.8017327 0.61495924 -0.16945043 0.3775934 1.1606288 -0.44470286 0.11163042 -0.60833794 0.2026951 1.1485037 1.8496023 1.5812836
1917 -0.3956697 -0.69692147 -0.115912184 1.03461 0.73888874 -0.13722019 -0.7630118 1.2050376 0.79186475 -1.9150097 0.30600896 0.49497753 0.53663564 2.0332525 0.48355302 1.3588164
1983 0.3417696 -0.42867613 -1.5400556 -0.23790586 1.0510757 -0.6030544 -1.5098206 0.11327056 1.3170018 1.2201595 0.018019767 0.7011284 0.6106599 0.82921684 0.34127074 0.033459008
3181 -0.11174301 0.872809 -0.9803887 -1.1572 -0.4598028 -0.3602308 -1.5063385 0.16607092 0.23545352 -0.5864455 0.04971047 0.07161322 -0.9486752 0.49096403 0.78990066 1.5176128
2495 -0.101713784 0.12464249 0.24205613 -0.6463842 2.1570969 -1.1145267 -1.8312461 -0.27927807 0.6264781 -0.06005783 0.17139684 0.7788038 -0.071861774 0.47403932 0.5559693 0.11443781
157 0.20879258 -0.910069 -0.21016641 -2.2131548 -0.29908746 -0.68013746 -1.2963285 0.30113548 0.20000438 -0.6369121 0.62606585 -0.41954893 -1.5662205 1.3099126 1.2953371 -0.2620861
855 -1.4293045 0.31560117 -0.6355736 -0.33559978 1.103756 0.5896665 -0.8003787 -0.10451914 0.7677925 -0.32505497 0.2870293 -0.36018232 -0.48537123 1.2473854 0.8426735 1.262542
1924 -0.4421902 0.82883096 0.16571993 1.5386668 0.956993 -0.20291951 -0.9932617 0.72739524 0.6025444 -1.6967282 0.41801083 0.506078 0.78297484 2.0705974 0.8494327 1.3978951
308 1.5329845 -0.5772741 -1.9284902 -0.09870296 0.5270361 -1.6800739 -2.0525947 0.85672295 0.7227414 -0.33500051 -0.436173 -0.130298 1.3276601 0.47890505 1.6573809 -1.0458152
141 0.28861243 -0.9509788 -0.07622605 -0.92552555 0.37806287 -0.41175312 -1.3075296 -0.13227616 0.18902788 -0.15408969 1.7439785 0.092169 -1.0210854 0.18040538 0.6118802 1.1389287
2602 -0.26977783 -0.3117428 -1.0990407 0.5000593 0.50150293 -1.5169202 -1.4479865 0.38585407 -0.74525434 -0.88477147 -0.07809462 0.36118212 -0.76036817 0.53989935 0.9672877 1.2638952
1586 0.91218835 0.024173204 -1.7847545 0.10481905 -0.39762273 -0.7895467 -0.5802069 0.20179814 3.183535 -2.1586976 3.207613 1.7649194 1.7702142 -0.18414424 1.5664077 2.052773
830 -0.40388912 -0.38018233 -0.7698659 -3.5911303 0.57717735 -0.6456023 -1.6641207 1.0576476 -0.6747907 0.38163397 0.91452414 0.15142843 -0.160988 2.5402567 0.81532246 -0.49895278
2249 0.18053767 -0.4484358 -0.6961556 -0.04430659 1.903923 0.09727633 -0.7126516 0.5561092 0.40683165 -1.4344805 -0.3152393 -0.42457289 -0.60043234 1.550986 0.03170029 0.1563745
161 -0.66866344 -1.0357906 -1.5971522 -0.45184812 -0.053783417 -0.37568134 -0.83877677 1.5821234 0.4575466 0.86864954 1.748382 -1.4492726 -0.42370808 0.26975107 1.1885461 1.1150519
232 0.10989173 -1.0256469 -0.374136 -0.40932646 0.24448417 -1.3871493 -1.0169647 -0.83931494 0.767057 0.28022164 0.87954354 1.6365765 -0.45709655 1.5530938 1.4788544 0.26165417
64 0.3207922 -0.99768263 -0.79359317 -0.29094893 0.6558864 -0.31899053 -0.2019688 0.6300448 0.1371671 0.26130456 0.581117 -1.4853262 0.9010976 0.72756386 1.664767 2.3743541
2313 -1.1755518 0.10647489 -0.6797484 -0.08487519 0.84316236 0.5581229 -1.2322022 -0.8464665 -0.3436011 -0.5341431 0.93488574 0.41179898 -0.0705959 1.2062625 1.0224812 0.9968427
158 -0.99245155 -0.6498584 0.2909316 -0.88601583 1.2032862 -0.3527771 -0.9859816 0.34593198 0.8647457 -0.5719968 1.3682607 0.18712884 -0.89728093 -0.20987213 0.91742074 1.6549819
832 1.50819 -0.95614666 -1.3681617 -0.07111528 -0.2540761 -1.3577205 -2.189755 1.3568777 0.27043658 -0.11759535 0.42269558 -0.24928552 1.3870618 0.22943948 1.6726304 -0.6334118
642 -0.24035782 0.39896038 -1.4134706 0.8951504 0.63688916 -1.370042 -0.6543235 1.0188692 -0.27750355 -0.57998466 0.18201686 0.17547621 -0.54894817 0.09435004 0.9994354 1.7292938
982 1.0979773 -1.6753242 -1.1387334 -0.0005075138 0.24684158 -0.5585028 -2.5299501 1.8553796 0.44003892 0.042651415 0.54588175 -0.13419797 0.9136933 -0.17753308 2.3274894 -0.004455761
1302 -0.009918601 0.28791505 -0.6402681 -1.2048693 0.6975591 -0.023481099 -1.4304701 -0.508047 0.5920185 -1.3021935 -0.77482766 -1.1077676 0.20501274 1.083431 0.92659456 0.74501675
1183 1.1951362 -0.72383165 -2.2597156 -0.18262134 -0.034203082 -1.042898 -0.6555306 0.33865696 1.2725359 0.7774709 0.016623627 -1.1097726 1.026256 1.4703815 1.3272341 2.0174954
2004 0.11074173 -0.5713613 0.43597513 0.048980072 0.42942944 0.36837834 -1.8553866 1.1992173 0.22854021 -1.0609125 0.7176097 1.1715001 0.09609103 0.7779743 0.82348895 0.1689466
1331 0.15637353 -0.65611464 -0.36953196 0.10592556 1.513061 -0.13260278 -0.48284185 1.3612205 0.50782233 -1.4761015 -0.6231255 0.5855732 -0.28704324 1.3655694 0.23998305 0.82807887
390 1.0133215 -0.21197699 -0.013901746 0.7195834 0.08478902 -2.8189912 -1.9484398 0.08747032 1.0463314 0.74514997 0.80963504 -1.0035647 0.99495995 1.3581442 1.765051 1.4636223
91 -0.89901304 0.6143273 -2.1812751 -1.9720509 0.9050396 -0.46960506 -0.70543987 0.85682654 0.17621964 0.14382786 2.863037 -0.16710895 2.6728392 -0.18886183 1.7012761 -1.1491927
1923 -0.26869455 0.28770667 0.08974435 0.99745953 2.041683 0.0012006577 -1.197074 0.13987505 0.42516702 -1.624884 0.65597284 -0.6489764 0.123690225 1.1736892 0.59494317 0.10058447
269 2.0361185 -0.76051205 -1.0505527 -0.5301825 -0.69929165 -1.697804 -2.1709 0.9406435 0.29299623 0.24842283 0.7882993 -0.37205884 1.2001649 0.514119 1.0075234 0.120726466
1673 0.22935683 -0.83303994 -0.06145988 -0.34371746 0.5414776 -1.1504549 -0.94770896 -0.8841175 1.1368219 0.60052544 1.2701482 1.42127 -0.46739542 1.5488364 1.2999282 0.31031498
1209 0.8312866 -0.8368834 -0.16560955 0.23701139 0.9788584 -0.11962501 -0.99531955 -0.837352 0.15223208 -1.0200655 1.628282 -0.0902984 -1.3470147 0.5961432 1.4624205 -0.22417708
2029 0.5235883 0.058178235 -0.5844294 -0.3287167 1.2438017 1.1234078 -1.9711088 1.3399876 0.020343656 -1.1250181 1.3541044 0.51402533 0.7065312 0.1488665 0.23302183 0.5506129
2275 -1.2191384 1.4885266 -0.8931282 0.001364332 0.93648314 -0.27082732 -1.6308264 -0.22943172 0.05585849 -0.33672068 1.1395518 1.5076591 0.35997805 0.562842 0.95157677 1.1440439
579 0.030477213 -0.4546657 0.98517364 -1.8355055 0.013725071 -1.3140712 -0.61064017 1.2536951 1.2670752 -1.1800163 -0.27613828 -0.3826402 -0.92709905 1.7290126 1.1525712 0.09879614
1068 0.38873816 -0.915851 0.30768386 0.014449084 0.78832763 -0.8118775 -1.0098397 -0.7004684 1.2418458 0.5701815 1.7737457 1.1687928 -0.4721157 1.306381 1.2502644 -0.15196376
1449 0.47521698 0.7113553 -0.0313236 -0.54077786 0.946001 -0.14983687 -2.3257535 0.6811117 -0.6625232 -1.1303937 0.59954137 -0.16625203 0.03671927 0.6387218 0.3835554 -0.34071827
2417 -0.16372596 0.7333361 -0.08905225 -1.3092222 -0.20624022 -0.99530053 -1.4492258 -0.29648447 0.29283535 -0.73661965 0.57783556 -0.6239734 -1.1231811 0.13901393 1.0563037 0.96338725
249 -0.40714487 -0.70848954 0.29488805 -1.004227 0.83267766 -0.47114423 -1.1581473 -0.021478549 0.2661268 -0.3945374 1.3365564 0.4049641 -0.7989372 -0.015626017 0.51286787 1.2346114
2686 0.22519018 0.3301503 -0.21955702 -0.8396331 1.1608691 -0.31179404 -0.89869094 -0.5564778 -0.14080387 0.18713826 1.0241531 -0.06173592 -1.2940569 0.79443836 0.6282329 1.4037554
1336 -1.2166272 -0.17433159 -0.055349104 0.5902099 0.5137694 0.54990727 -0.56698 0.8543297 1.6807733 -1.1991715 0.39849213 -0.18065345 0.3931461 1.2830188 1.3614013 1.5311098
277 1.1488187 -0.6040712 0.7933985 -2.1538486 0.345437 -2.030802 -0.8900554 2.0417118 1.4899564 -0.7411526 -0.2841477 -0.5380045 -0.7034967 1.6380007 1.0164901 0.4193404
1063 0.17352346 0.4557637 -1.8916376 0.5550431 0.9821254 -0.8554061 -0.9779432 0.9950462 1.3520001 0.2721418 1.5474095 -1.5288932 -0.4963312 -0.52405363 0.4679981 0.6174161
160 -0.84783703 -0.75975287 -0.17793041 0.11271236 0.115011126 0.35604513 -1.8942935 -0.2555492 -0.2560319 -1.0412703 1.1070036 0.20901203 -0.01798662 1.4730812 0.87526876 0.88987577
2274 0.83994174 -0.4056341 -0.3572704 -0.5745946 1.1223241 1.2883037 -2.0527616 0.63505304 0.743871 -1.3409159 0.5841589 0.5143416 0.66382045 0.55122244 0.6503646 0.41691384
367 1.8803875 1.852621 -1.3882853 -0.30857655 1.3646089 -0.6755514 -0.9560643 0.40168944 -0.658415 0.02986989 1.4167323 -1.3226906 1.5687317 1.2541277 0.6775191 -0.49628168
1479 -1.1401297 1.107769 -0.9498762 -0.152156 0.8706728 0.15188998 -1.5796187 -0.6841338 -0.19226134 -0.26475242 0.90704757 0.9193906 0.064036846 1.0371317 1.1010557 1.2564753
580 0.17708643 -0.4731 1.3146393 -1.5135349 0.5499786 -0.9044393 -0.8432594 0.434983 1.2868648 -0.34396398 -0.3479294 -0.15841207 -0.2234693 2.6376426 1.1359838 0.3365983
2099 0.034962684 -0.68302774 0.09673011 0.28452784 1.0802144 0.39655498 -1.2319005 1.9303881 -0.02011054 0.25825387 0.16421908 0.23927554 0.9699444 0.58052325 1.7688024 0.29973716
2316 0.34102434 -0.82558554 -0.5924849 -0.3213244 1.2649173 -0.20380883 -0.9283615 0.16348784 0.094514824 -1.1969045 0.24739079 -0.7818115 -1.2470077 1.6119131 0.033037145 0.24909177
1400 -0.59244287 0.79644173 0.39512232 -0.15658107 1.1067187 0.09670146 -1.2568063 1.9694998 -0.5735127 -0.88372624 0.25190294 0.45820668 0.34173596 0.8997004 0.9552719 1.2662923
2092 -0.10147692 -0.15525495 0.53499556 0.10247084 1.4274402 -0.8060458 -1.4042944 0.7136401 1.1806694 -1.4436147 0.4259792 -1.4727689 -0.71727157 0.89900535 0.79109734 -0.576373
55 -1.7022779 -1.4272141 -3.1852198 -0.8224373 -1.3066547 -0.75986356 -0.6644247 1.462311 1.6254435 0.123675264 2.513649 -0.45445552 0.33130047 0.3931192 3.9335446 -0.21927609
2507 2.1000211 0.9398964 -0.561248 -0.84114116 2.2176828 -0.9374203 0.11342925 1.2812735 2.5870996 -1.4648105 1.6551903 0.7152014 3.1622262 1.7547655 -0.24750805 1.8293405
2013 -0.26837444 0.6337293 -1.140397 -0.86033946 0.36070824 -0.1748198 -2.028915 -0.8327132 -0.09222276 -0.8682405 1.0003256 -0.9320717 -0.19670267 0.24746917 0.46258444 0.3663994
1736 0.6228487 -0.07510298 -0.3207167 0.30716932 1.2836788 -0.6981989 0.5401103 0.4780049 1.0918515 -0.0213062 0.01647569 -0.08990882 -0.111275 -0.3103994 2.6600573 1.1638417
2586 -0.25585255 0.07210334 -1.3196875 0.35731187 1.7446125 0.890415 -1.1764838 -0.6553033 -0.4694227 -0.9036921 1.1631676 -0.16047433 0.107730076 0.43314734 1.0871658 -0.11763495
214 -0.069916524 -0.7891773 0.4501767 0.1627973 0.9147437 0.07404881 -1.2120028 0.45756692 -0.6743279 -1.741149 1.0057013 -1.1170231 0.39410305 1.3707613 0.73885113 0.5634057
2418 -0.3979947 0.8870663 -0.8679697 -1.0845817 -0.17399609 -0.56412685 -1.5871203 -0.5488867 0.2228404 -1.0978165 0.3222074 -1.0291984 -0.37070686 0.41782397 0.59697104 0.98790455
2023 -1.3890778 -0.5737766 0.09079074 -0.33899945 0.94249463 0.3808566 -0.6255012 0.33221555 1.8038664 -1.1299124 1.1182141 0.017429598 -0.4853601 0.52230847 1.2574275 1.7031432
1963 -1.072885 1.0881138 -2.004887 -1.2243179 0.53163564 -1.0597835 -1.9366361 2.900281 1.6831518 -1.0257101 -0.2957583 0.6952035 0.16143358 1.7277094 0.32587105 -0.9822826
235 -0.381631 0.7590111 -1.3520203 -0.76348525 0.3978995 -0.16084415 -1.1161102 0.45880884 0.47684005 -0.2881139 -0.04432158 0.18536548 -0.79901123 0.6660189 0.294212 1.9257766
2177 0.60306895 0.67017883 -0.011759529 -0.53407496 1.2990655 0.08905255 -1.6700401 0.7060282 -0.6447938 -1.2210126 0.5805356 -0.83471054 -0.45052 0.5906755 0.6726946 -0.46399018
432 -0.28945684 -0.67587173 -0.18704675 0.21034366 1.7122847 0.42521256 -1.2109836 2.1788573 -0.13506839 0.024967803 0.3736558 -0.011827345 0.45970514 0.8082296 1.881046 -0.56967527
365 2.0776381 1.9128388 -1.3034003 0.15086848 1.2487935 -0.98683435 -0.5535865 0.041945476 -0.468623 -0.20681894 1.9387954 -1.3492277 1.4288127 1.6182255 0.23660778 0.6175285
1476 0.44538516 1.5034899 -0.61382204 -0.14500289 0.9212615 -0.41909274 -1.3252531 0.19971734 0.13790895 0.51370025 1.4114238 -0.26953602 -1.9133717 1.5308802 0.84974027 0.1841327
1289 -0.86452544 -0.12821811 0.4048101 -0.5385223 0.7132301 0.21679159 -1.5849468 -0.8073592 -0.43390426 -0.71595997 1.0698309 -0.035795275 0.35000533 1.6165191 0.7530609 0.68193865
73 -0.20336726 0.6119266 -1.8547089 -1.5530038 1.5018022 -0.5858017 -0.417633 0.78884596 0.21040179 0.5697517 2.5441113 -0.23283952 2.3355236 -0.21323451 0.89976656 -0.742125
2157 0.85864836 -0.25533548 -1.0326129 -0.2544591 1.4563706 1.37472 -1.8962073 0.7602461 0.38463596 -1.1667235 1.1004423 0.91016847 1.1262442 0.4881809 0.476108 0.49435794
2424 -0.70656025 0.04957376 -0.28802943 0.44581696 1.4271472 -0.5595541 0.50410783 0.22084375 1.7212045 -0.34250942 0.3803501 -0.24746113 0.9176781 0.01234421 2.9508536 1.5551152
1121 0.85964614 -1.159503 0.59687597 0.5636136 1.4474927 -1.1886603 -1.5062597 -0.25324562 1.1141053 0.71165144 1.7480212 0.723139 -0.1433541 1.6561375 0.853641 0.21728481
342 1.540444 -0.60477036 -1.5840545 -0.15234295 -0.08074607 -1.7958273 -2.1085346 1.365922 0.35062835 0.031432763 0.46469656 -0.121631965 1.3234336 0.2851058 1.880021 -1.3106148
1243 -0.6634467 -0.0022913748 -0.6449414 0.63522154 0.76176304 -0.40822962 0.93430823 0.16208535 1.1949022 -0.33672634 1.1436623 -1.1004636 1.1089319 0.6557918 2.693809 1.9128424
1477 0.8877766 -0.29432452 1.3654335 -1.0159786 0.55165255 -0.9840838 -0.6405274 -0.43489745 1.2938004 -0.3450451 -0.08498028 0.8110954 -0.06999787 1.80579 1.6000686 0.22689666
2732 -0.5821288 -0.8125744 -1.339495 0.55634624 2.089911 0.51100963 -1.1449307 1.2937636 0.19362782 -1.0992006 0.9011529 0.11180387 0.024991874 0.4070821 0.59445834 -0.53879976
2288 -0.29472947 -0.5149364 -0.090543166 0.27697963 1.488151 0.3558006 -1.4613374 1.9993932 -0.33265013 0.028047202 0.3584787 0.3334616 0.6015878 0.65477496 1.6151567 -0.13294835
619 -1.4055742 1.5923755 -1.5509242 0.92391765 2.2120512 -0.7935576 -0.5974168 1.9394495 1.2495103 -0.33031207 1.2219814 0.46240833 1.2662705 0.5810651 2.4769905 -1.8668798
1822 0.31300408 -0.9999584 -0.085170925 -0.7238718 0.6050143 -0.4800932 -1.3294983 -0.368058 0.19980818 -0.3632112 1.5908469 0.107942775 -1.189881 0.26312587 0.7779543 1.019951
1749 -0.33475932 -1.0507597 -0.6540703 -0.10994954 0.88812053 0.2717563 0.44885966 0.5190569 -0.0068427795 0.2164127 1.2067386 -1.3379414 -0.11043802 0.6433983 2.46651 1.3358688
2668 0.38100347 -0.8463209 0.07150639 -0.20208356 1.8651674 -0.3542758 -1.7918919 0.9021388 0.011780475 -0.18009625 0.21077436 1.0883058 0.30797777 0.7430624 0.23924173 0.97130287
2021 1.0976847 -0.3744826 0.26261297 -1.2752359 1.0919243 -0.7481819 -0.041108795 -0.9213353 0.93259645 -0.8999373 -0.6413833 0.08368128 0.25596645 1.3285519 2.988188 1.1984056
1660 0.29951546 -0.7969302 -0.08247572 -0.3077433 0.3464815 -0.850233 -1.1248411 -0.8177899 0.21146859 -0.58156395 1.5041606 0.2339566 -1.3718758 0.3170652 1.2641011 0.24330682
557 0.6636553 -0.25432214 -1.461738 0.18227391 0.05218841 -2.1736362 -0.06132529 -0.78658646 1.4389869 0.5213624 2.4017105 1.9637805 0.9207126 2.592269 1.2934104 -1.0573552
876 0.2948319 -0.90410244 -1.670637 -2.2302594 0.37845275 0.10130263 -1.3846301 0.1332699 -0.2095569 -0.5147892 1.25882 -1.1193333 -0.6362974 -0.13716777 1.2181768 0.3025457
47 -0.23954357 -0.32658824 -1.9245604 0.164753 2.5874598 0.48603997 -0.11229069 1.1890694 0.779816 -1.6742164 0.8557803 -0.94677675 0.5142187 2.0132024 -0.016471041 -0.51718336
2526 0.5300632 1.0442986 -0.75545216 -0.29270354 0.23593101 0.8653466 -1.6093208 0.85755575 -0.21721561 -1.7631012 0.19593842 -0.30537012 -0.17671984 1.3478814 1.9471313 -0.8983806
2330 0.18943502 0.33027184 -0.45489663 -0.2176893 1.1735812 -3.1876163 -0.18641728 1.4671723 0.21273948 -1.4221888 3.3563333 0.8429274 0.11263959 -1.2611098 3.2808115 -1.5063679
439 2.042749 1.7275568 -1.3489721 1.5304047 0.5246286 -1.8872018 -0.70442826 -0.4449993 0.9673511 -0.722488 3.701573 -0.51735985 0.975857 2.045244 0.31785524 0.46065104
348 1.6755741 -0.42876855 -1.0110539 -1.0217218 1.9124638 -3.360411 -0.6678725 3.4216957 -0.35211074 -1.2159644 3.876874 -0.61443555 0.60582167 0.5513138 -0.7159763 0.5565866
1717 -0.18661292 -0.5330457 -4.149067 -2.7943962 2.297764 -1.2447115 1.2443297 0.9685647 0.6886383 -2.570154 0.80420977 -1.8275046 1.415228 0.5240171 1.6943448 0.73949254
2240 0.45126072 0.96386915 -0.7724886 -0.32681638 -0.042269524 0.9326473 -1.6147972 0.8084177 -0.049951274 -1.7231433 -0.054101203 0.056038216 -0.054247655 1.4325885 2.422236 -0.6778879
2512 0.44121662 0.9016202 -1.096892 0.98651356 1.7191877 -3.6421938 -0.58614963 0.89529794 1.0040666 -1.7952168 2.7233248 1.511471 -0.15925497 -0.4853371 1.5604326 -0.89219797
994 0.29732817 0.7477094 -1.533608 1.2304269 0.76454264 -2.2369473 -0.6772446 1.7922019 -0.8920379 -0.76737183 1.9426042 0.7168448 0.28851655 -0.5563715 1.6713878 1.702251
52 2.1673121 -0.27899635 -1.271777 -0.48303393 0.32013512 -1.6805667 -1.2737619 0.80291504 0.107271366 0.422479 1.7242403 -0.37030682 1.9973989 -0.30827516 1.5079476 -0.57421076
1738 -0.3713068 0.6706226 -0.780429 1.1595349 0.99257934 -3.0159934 -0.45195904 1.1765982 0.2242459 -1.2025396 3.0120165 1.4532591 0.69322497 -0.8041493 2.0264406 0.4309431
756 0.20447169 0.58689696 -0.37574336 -0.2665494 1.6352917 -0.13849725 -1.4981017 0.54633355 -0.4242648 -1.7073194 0.23136066 -0.75452626 -0.42173412 0.6175255 0.69715583 -0.4418032
2336 0.2838807 0.9865592 -0.64012766 0.92761177 1.2053164 -2.8054097 -0.3202622 0.9170648 0.45369804 -1.6587068 2.950777 1.3559062 0.0659224 -0.9426203 2.2081625 -0.34879443
1398 0.15927783 -0.037372254 -0.73943245 -1.7768916 0.16527726 0.58666193 -1.750966 0.32974908 0.78580743 -1.3265215 0.115503244 0.008602199 -0.80914575 0.5622029 2.0490828 -1.0070577
584 1.5613402 0.54816973 -1.0041217 -1.036495 0.6754454 -0.6662803 -0.34979656 0.78617656 1.2476277 1.4014987 0.57788897 -0.55624795 1.6950486 -0.3321497 2.1823895 0.4193614
668 -1.1437104 0.08023382 -1.2782279 -0.5541824 1.5940045 -3.6421509 0.8521295 -0.45885295 0.32887003 -2.2401364 1.3437117 -1.7505212 0.107895896 0.9943657 3.6498141 -0.88421005
2407 -0.22437304 -0.54630405 -1.3621458 0.4050926 2.3922582 0.41074425 -0.5461371 0.64737165 0.30717105 -1.2354156 0.43471682 -0.44479096 -0.14829336 1.3320904 0.13339487 -0.37125462
156 0.041897148 -1.0368502 -0.11412002 -0.5210161 0.14971578 -1.2501627 -1.2146088 -0.48051697 0.55845565 0.39342213 0.6950983 1.8086065 -0.3728334 1.7477828 1.921822 0.116670914
2341 0.6586509 1.2562122 0.41440448 -0.36033 1.1993971 0.8285379 -1.6212358 0.5603244 0.7666702 -0.16538976 0.6161923 -0.46719646 0.086406045 0.009186931 1.3526891 1.0353446
2552 -0.40263477 1.1013477 0.55157703 -0.65395164 0.27451792 -0.9420045 -1.7867227 0.36554033 0.049286187 -0.42887 0.7272113 -0.95016074 -0.5865404 -0.10490485 1.3264142 0.5402103
2226 -0.31305346 -0.7928155 -0.035788 0.36319527 1.7084857 0.16749606 -1.2672518 2.1299016 -0.045187544 -0.07347216 0.3513377 0.025607903 0.4873937 0.6728254 1.854333 -0.51750124
1482 -0.51206535 0.7505031 -1.5114386 -0.57882535 -0.3738972 -1.0744648 -2.1873958 1.2426404 0.4306647 -0.8898595 1.0255721 0.83870834 -0.6742958 0.55712277 -0.23280741 1.2495056
1044 -0.19865148 -0.6180513 0.34035614 0.21756792 1.2331312 -2.1945984 -1.9140567 0.16096263 0.7878795 1.0803539 0.5078907 0.2974142 0.36415985 1.2695613 0.8978495 0.70691735
1843 -0.16822407 0.49495587 0.15992348 -0.18989162 0.4403952 0.39980868 -2.0313075 0.9739333 0.9492899 -0.41037074 1.0973221 -0.4681308 -0.30255583 -0.23340355 0.5411242 0.3879464
3020 -0.7105033 0.41604522 -1.0486996 -0.0220171 0.33224797 -0.58588624 -1.7179674 1.708167 0.9576578 -0.81503147 -0.48806104 0.56971467 -0.78960824 0.88129497 0.5993876 0.04424411
2299 0.6813496 0.38587654 0.8807309 -1.0919176 1.6439285 -0.82734674 -1.9685158 -0.5670243 0.91802466 -0.58897465 0.0058978344 0.39043862 0.67120486 0.65371776 1.0477577 -0.24119455
112 0.3371449 -0.77049774 0.82118034 -0.7755453 0.3475778 -0.8004452 -0.88561296 -0.03396262 0.9248594 0.29139385 1.8277317 1.4320133 -0.7525526 1.1663327 0.817021 0.7077627
1714 -0.5303471 0.95812565 0.09310155 -0.46846795 1.1743573 -0.014770504 -1.699969 0.61051404 -0.33385664 -0.8453941 0.82392985 -0.9421501 -0.3494426 -0.49541923 1.841155 0.23124583
119 -0.05409333 -0.6849069 0.6253248 -1.5581831 0.6884827 -0.6329787 -0.33847496 2.2164288 0.9958205 -1.7976518 -0.48061606 0.22829467 -0.7438281 1.6297488 1.0343841 0.2543832
682 2.0069242 0.5274594 -0.19161302 -0.8764152 1.7749285 -0.54209155 0.1126492 0.9812186 2.6319175 -1.3954426 1.9560015 0.37741166 3.2270432 2.0554535 -0.094980754 1.980972
2679 0.090492584 -0.6970306 0.08188288 -0.8689945 1.9644587 -1.0667623 -1.6579134 0.11682436 0.15630983 -0.14159016 0.5084499 0.8288627 -0.03119473 0.2352127 0.08699633 0.9769912
1881 0.079701096 0.6450814 0.19148274 -1.3604113 0.97496957 -1.2850292 -1.0210289 -0.5990875 0.30783907 -0.24104704 0.71351194 -0.22016826 -1.1969899 0.49840754 0.643207 1.4650017
1341 -0.8409297 1.120688 -0.7187447 0.164307 1.0608135 -0.24819745 -1.9546204 -0.07767232 -0.06152721 -0.21131545 0.18524905 1.6692048 0.2992218 1.2029377 0.9778358 0.8007354
1450 0.041420583 0.91166264 -0.59005266 -0.8277973 0.950123 0.06782936 -2.4021373 -0.08418582 -0.46325895 -0.93913096 0.9467278 -0.77695966 0.05473103 0.3051125 0.5386342 0.009948687
1364 -0.20710379 0.4673836 -0.22310436 -0.70903015 0.3763223 0.45796248 -2.2621253 -0.89740443 0.2199336 -1.0344776 1.0694995 -0.61508 0.43568113 0.8811282 0.8107012 0.19768512
110 -0.9804054 0.33064252 -0.4823267 -0.5280601 1.6808603 -0.27803823 -1.1128372 -0.39223444 0.71610373 -0.85670304 0.1810328 0.19149597 -0.804841 0.79725826 0.25370356 0.8907516
1846 0.36071494 0.97057205 -0.2422545 -0.32454675 1.6763257 -1.427051 -2.3478374 -0.14632381 -0.6077773 -0.48048112 0.656682 1.2129827 1.220055 1.2917254 0.2091841 0.03185775
2568 0.81173104 -0.50019026 -1.6472956 0.41732246 1.123544 -0.7364607 0.058264073 2.05077 0.88401455 -1.0024375 -0.43016297 -0.23341082 -0.25569406 0.95632994 0.37826985 1.7855061
76 -1.304656 0.4341504 -1.8773671 -0.6521849 0.55866647 -0.61291033 -1.3348471 0.7241709 2.6336477 1.0857114 2.3994904 -1.3153988 0.6536862 1.3013179 0.65538484 -1.0813932
1709 -0.71712995 -0.042156238 0.15722226 -0.11406199 -0.98657703 -2.6070013 -1.8811214 -0.038904868 1.0650012 -1.8535023 3.362417 -0.393594 2.1286678 1.2753721 2.668829 -1.6556188
310 2.5763192 -0.35390764 -1.0060236 -0.78583837 -0.0036254104 -1.5099757 -1.6836276 0.69267017 0.6468682 -0.028149474 1.4099323 -0.7789481 2.0162833 -0.1564182 1.2139201 0.2203613
2449 -1.0167873 1.1362861 -1.0383224 -0.7482722 0.26173973 -0.4834263 -1.3859428 -0.79616266 0.1591131 -0.65653 0.5315513 -0.8595326 -0.5695575 0.74953294 0.6975233 0.8541297
3 1.707018 -0.3366428 -2.0592587 0.24580073 -1.6313257 -0.41270828 -0.45052782 1.451811 1.5107436 -0.56281334 0.9174049 0.5482611 -2.0054984 3.0033886 3.8041096 0.91257
560 -1.4256253 1.6844012 -2.0579517 0.9768154 2.147283 -1.2896674 -1.1182764 1.771086 1.8599403 0.68435234 1.4222071 -0.82308036 1.1367041 0.53337926 1.6284934 -1.0712256
2086 -1.3272417 -0.49954855 0.2537621 -0.4633546 0.94926816 0.9406642 -0.21728219 0.54935616 2.2265415 -1.3607359 1.8706295 0.32015684 -0.16744953 0.959562 1.530555 1.8825305
309 1.4323144 -0.37093785 -1.5229466 -0.69884634 1.006838 -1.5349452 -2.0101268 1.0624429 0.097839065 -1.2481798 -0.7226225 -1.0160136 1.0035026 0.44138145 1.7457901 -1.134162
1883 -0.17360197 0.51021385 -0.24969774 -0.24641293 1.8356477 -0.9951599 -2.1598082 -0.3056067 -0.10613169 0.20566994 0.44719464 1.2853988 0.41974068 1.006689 0.3251854 0.5226028
458 1.6690068 -0.7377147 0.516294 0.46345976 0.5186797 -1.4482567 -0.10816453 0.3810888 -0.73568267 0.19011542 1.9409049 2.1741498 0.21842663 2.8872995 2.5891984 0.87148494
2151 -0.026131582 -1.4720802 -3.8371277 -1.7031846 1.1065044 0.34415376 0.7426531 -0.67091495 1.5973506 -0.24771185 0.955387 -0.42032984 0.64351934 4.2897005 2.852797 -0.7736648
395 1.2881403 1.4038639 -0.9203205 -0.6870238 1.4199814 -0.51127696 -1.2476377 0.3861764 -0.42306364 -0.32940495 1.1433069 -1.3140634 1.7953646 0.31210396 0.6960321 -0.7788589
1498 -0.10310901 -1.3274409 0.0393134 0.21836823 0.7647655 -0.22772002 -0.6350008 0.915157 -0.8470796 -0.94645464 1.7317905 -1.8141845 0.39418587 1.1656922 0.99674654 0.9461851
2924 -0.507742 0.7459228 -0.3698137 0.42827585 0.674389 0.052249413 -1.6353855 1.0245665 0.044191007 -0.5854697 -0.09742255 1.3162216 -0.07156596 0.9728841 0.93427116 0.9178057
568 -0.36253482 -0.17951502 -4.105256 -0.8558993 0.98578393 -2.3256729 0.22896923 -1.1293724 -0.6251258 -0.4327621 2.1242418 1.1784651 2.4601157 0.26729116 3.7135322 1.0012646
198 0.31537983 -0.56019527 -0.74836123 -2.4166396 -0.2892471 0.072865866 -1.6721376 0.24156581 0.4506178 -0.88361585 0.5724397 -0.39809012 -1.2580558 0.50372416 1.7581823 -0.45643777
317 1.7580752 1.4186695 -0.28774026 -0.18548384 1.6722393 0.067439124 -0.6583732 -0.051940195 0.13599525 0.43223953 1.179112 -0.43169242 -0.3802651 0.7524041 1.1589241 1.980162
289 1.3637971 -0.8588457 -1.8372481 0.2081792 -0.23415156 -1.8909253 -2.1302748 0.89225125 0.6883534 -0.54474795 0.23165795 -0.34493634 1.2527187 0.26812243 2.278284 -1.1416886
602 0.5751815 -0.08524548 -1.7109492 -0.14325303 0.2684483 -0.584278 -1.8406363 1.0030005 1.8144385 1.0827565 -0.20273641 0.11142803 0.17506857 1.2050124 0.47640035 -0.32990408
905 1.2812389 1.2350975 0.16242538 -0.19812639 1.6277331 0.5893694 -0.93048877 0.68539906 0.5128582 0.19898558 0.5735543 -0.7070574 -0.07568996 0.10269339 1.657548 1.5050485
775 -0.061557952 -0.25843665 -0.22133555 -0.90318906 1.3923532 -2.0490348 -1.6350353 -0.7890772 0.5409878 0.25405142 1.1365422 1.3883771 -0.67328596 0.6830286 1.7237036 -1.1640805
3384 2.5774682 -0.54155797 -1.1820155 -0.8891003 0.29089615 -1.626617 -1.3052127 0.34442842 0.56844497 0.32856664 1.8607943 -0.5444874 2.360702 -0.06306817 1.4111818 -0.15183836
1156 0.6986976 -0.35878953 -2.959119 -1.6119144 0.44216722 -3.8053284 0.97458106 0.89625067 1.4130486 1.5180395 3.397977 -0.36320466 0.51178396 2.73712 -0.17013018 0.86389405
1859 -0.018504057 1.0855335 -0.7148578 -0.7591175 -0.35871935 0.21542083 -1.710629 1.2807442 -0.4606259 -0.6399601 0.34581402 0.2634516 -0.60647136 0.5476043 1.0067048 1.4252927
2002 0.29260662 -0.4510941 -0.138676 -0.26781547 0.51265043 0.7862831 -1.8616128 0.91753083 0.38724074 -1.6001705 0.3181567 1.2877834 0.15604097 0.81872445 1.1456758 -0.18496293
433 0.9728377 0.24879414 -0.43292487 0.75406027 -0.047848035 -2.7820225 -1.1221814 0.43549624 0.6740093 0.6596431 0.46899244 -1.2928617 1.4058646 1.8403728 2.052778 2.3742847
700 1.8844422 -0.65235484 -1.3420992 -0.44427422 -0.31421164 -1.6468147 -1.9445136 1.0520091 0.04003698 0.39923728 0.97123635 -0.32063293 1.4701476 0.2766028 1.6552109 -0.78087395
1324 2.4126985 0.11370322 -0.7914637 -0.8397716 0.33280236 -1.3796277 -1.1647136 0.6978551 0.65481716 0.5050915 1.5228025 -0.60742885 2.0976098 -0.31177476 1.4467546 -0.057937514
384 -0.86178374 0.30487677 -1.8608826 0.24477342 1.5614974 -1.0040815 -1.1404083 0.68263966 1.8076676 0.80620426 1.6515212 -0.8915795 1.06949 -0.16388653 0.5437627 -0.42557576
1776 0.48322996 2.0221827 -0.4825573 -0.19736414 0.9676668 -0.43152225 -1.3541337 0.2603705 0.27641872 0.2522788 1.4605501 -0.4162755 -1.9640977 1.7388688 1.1461511 0.09094184
599 0.9132298 0.0047917305 -1.3312002 -0.4789869 -0.20635717 -2.0237076 -2.0009913 -0.051027536 2.412902 0.8789217 0.6046315 -1.6414207 -0.21335936 0.5626433 1.6039873 1.304479
1377 -1.1288571 0.65063167 -0.6854536 -0.7732093 0.9268536 0.25591946 -0.670577 0.26883653 0.4683584 -0.5004587 0.14190513 -0.63871616 -0.9050389 1.8595121 0.25537753 0.9402211
1832 0.15345176 -0.026720112 -0.049420264 -0.82643706 1.2930639 -0.52092975 -0.8247339 0.034094375 0.8689934 -0.54593 -0.65725595 -1.0454386 -0.36963305 3.081762 0.60227555 0.25832862
1310 1.2675056 1.6315655 0.43663275 -0.55464447 -1.5954688 -1.0107234 0.0563661 3.3156548 0.61342365 -2.440724 1.0281274 0.2286416 2.187041 2.022966 4.0722713 2.139653
487 1.2446474 -0.39156199 0.65089136 0.23051068 0.19358358 -1.1326873 -0.6865015 -0.016042227 -0.2787101 0.2491204 1.6356565 2.0128102 0.067313574 1.9585215 2.1876442 0.9361124
695 1.8263102 -0.81307346 -1.388382 -3.1271932 2.1333127 -1.8271612 1.5852554 2.482539 1.102993 0.44921204 1.5690681 -1.216319 2.2348814 2.7311592 1.322835 -1.5034189
1254 0.7800223 1.7384751 1.1821765 -0.3847135 0.2050947 -3.6705422 0.055555668 0.89295465 2.0794635 -4.0289364 1.9105963 0.5388228 1.5637175 2.000712 1.4578063 0.16573718
895 -0.051662173 -0.08015174 -1.0854857 -0.50792634 0.004436132 -0.8906785 -1.7049136 0.110416844 1.1922715 0.049001906 1.2295175 -1.489201 -1.045124 -0.13716003 0.659383 0.63376963
2406 0.56415635 -0.24077936 -0.571964 -1.9712985 1.0728965 -0.25405166 -0.5589766 -1.5398884 0.7923132 -1.2928772 -0.6544511 -0.3298481 0.45628348 1.5528933 2.7846549 1.2289766
1932 0.5012262 1.3269265 0.2677314 -0.5347344 1.763202 -0.2598977 -1.7029669 0.515461 0.78967255 -1.5043553 0.23623559 -0.1842023 -0.4988079 0.5336049 0.14208129 0.43971914
2974 0.28978634 2.1284363 -3.0874445 -0.23068786 -1.5428212 -0.45641798 0.065602794 2.8532925 2.2127845 -1.1471125 1.5667903 -0.81361383 2.1953278 1.8924032 1.6629591 0.5136256
1168 0.47500497 0.200879 -1.1597152 -0.64425784 1.1186385 -0.96564037 -0.994429 0.8333172 0.83784366 -0.7050262 1.5601256 -0.046979528 0.401879 1.4725826 1.7979461 0.5094906
2345 -0.31854686 0.82121354 -0.16354784 -0.9040129 -0.24201354 -2.977637 -1.3754169 2.2880728 0.7564891 -0.8091099 1.1897126 -0.23762129 4.552197 2.369574 1.1822917 1.5362515
677 -0.5592988 0.22007443 -1.7065672 -0.25163272 -0.09690016 -0.31813186 -1.9180217 1.2875658 2.3072886 1.0700057 2.0681934 -1.0657465 -0.01527065 1.4035903 0.62120515 -0.96211886
501 1.09109 0.8867327 -0.56146014 -0.4782052 1.6400363 -0.26914954 -0.575333 -0.532439 -0.20796768 0.5626278 1.1095986 -0.14826328 -1.204861 0.9708236 0.9898928 1.7125769
1729 -0.5901762 0.45530257 0.6529191 -0.83549297 0.578795 -1.373781 -0.89129716 0.9696572 1.2322258 -1.2444927 0.29556665 -1.8001754 -1.095904 0.7186008 0.76374066 0.12749074
469 0.9657086 1.5446385 -0.4906735 -0.6469018 1.6963887 -1.5614243 -0.027523637 -0.055294503 0.7304546 -0.4337922 1.2196962 -1.0762309 -1.0765646 0.3409831 0.8246924 2.6041749
2800 -0.57080305 0.7666585 -1.2081566 -1.1270345 0.32652318 0.06703846 -1.3215454 0.020632423 0.5177326 -0.36217698 0.18306108 0.18998095 -0.8538295 1.1045594 0.34125587 1.8178833
768 -0.12476909 -0.5994323 -0.3757019 -0.5544174 1.4186816 -0.8470784 -1.679409 -0.1295032 -0.067468554 0.3202885 -0.14481686 -0.36345145 -0.3380179 1.9093723 0.26337254 0.53340334
3122 -0.22401574 0.8865055 0.0897276 -0.5438534 0.643168 0.47053444 -1.6778642 1.5049733 -0.58451265 -0.30183914 0.67530733 0.10920023 0.055695996 0.35546046 0.75216645 1.0637126
1825 0.078991055 -0.23664726 -0.6829262 -1.7987026 -0.43258458 -0.8123156 -1.683139 -0.080622144 0.37212813 -0.63309085 0.6927099 -0.5005731 -1.4184735 0.19762833 1.1742142 0.16944832
246 -2.4840417 -0.68408924 -0.9657685 -2.074908 1.7618916 -0.7416745 -2.2753549 0.27394786 2.0287597 0.29839724 1.3548677 -1.5294896 1.45109 0.9360573 1.4478434 -0.18652675
692 0.1527685 0.3439071 -0.91850436 -0.65513664 1.1583825 -0.799776 -1.7179569 0.5133523 -0.026362361 -2.0203218 -1.0273844 -0.39066243 0.99163467 0.20659387 1.6901717 -0.20587215
771 1.4434266 0.36588272 -0.5452738 -0.27301222 1.1267391 -0.18194374 -0.019419141 0.9512152 1.0735207 1.3181721 0.9146168 -0.4258651 1.2696879 -0.27682698 2.5416741 0.9591354
378 1.5996557 0.31065604 -3.1941643 -1.6719766 -0.09512703 -3.0833073 1.545608 1.5986477 -0.751254 -1.4335548 2.9896865 -0.16454099 1.88043 0.3614174 1.3852524 1.3946726
1488 0.375918 -0.20328222 -1.8654844 0.24707091 1.7414935 1.0942868 -1.5949829 0.4807146 0.107278705 -0.63682806 1.2592745 0.5795316 0.62279594 0.1086439 0.38205227 0.2509311
88 -0.30235606 0.43818566 -0.3581055 -0.3067941 1.5917538 0.854376 -1.8701693 1.9027623 0.8398481 -0.9115075 2.2008188 0.38518426 -0.20108604 -0.05649324 0.13759793 -0.36012974
329 -0.40582708 -1.2296809 -1.4386829 -0.68432266 1.1356274 -1.4557968 -1.3368946 0.22110306 1.8385227 1.440412 0.12320094 0.84482163 0.3113067 0.6530535 1.7315865 -0.12729274
92 0.7942516 1.2797931 0.2000389 -0.3695399 1.325855 0.4875535 -1.5714148 0.9488066 0.3873849 0.08703633 0.66356397 -0.3124226 -0.13175616 -0.17421037 1.3568276 1.1268622
168 0.02143363 -0.7554085 -1.377988 -0.41670486 -0.35783714 -1.2192326 1.06361 -0.3110376 0.47213313 -1.7352952 3.0206285 -0.05089372 -1.6939247 2.5373015 1.1779052 1.4480944
530 2.2888165 2.2380126 -1.6967742 0.73622805 0.71314406 -0.73945785 -0.8723405 0.11706493 -0.1698093 -0.8695311 2.9376864 -1.0680178 1.4752624 1.7166667 0.36435333 0.4589188
1043 0.47085896 -0.7088059 0.4059848 0.3675093 1.5347749 -1.4329946 -1.661601 -0.072862774 0.8438228 0.8697692 1.0756837 0.5622431 0.0760484 1.4115556 0.3813477 0.55061436
2146 0.59295595 0.031402227 -1.5135691 0.7180848 1.4923683 -1.4861422 0.078313015 0.74266994 1.1883848 -0.14688762 -0.101260625 0.1393028 -0.112192184 -0.50281507 2.1131427 1.7501587
146 -0.58593345 -0.88056004 0.6877164 -0.8874677 0.6587208 -0.43727973 -1.40182 0.040987268 -0.35580838 0.40619463 0.8598333 -0.44274202 -0.06738547 1.0130471 1.3564576 1.2879686
29 1.2761437 1.6586193 -1.2839671 -1.0733502 -0.26563486 -0.93657583 -0.5201178 0.047873877 0.19549856 -2.1866655 1.4857992 2.9008875 2.0702302 0.23527722 4.5203185 2.0528605
2258 0.8622116 -0.16990039 -0.049144186 0.019333092 0.77883905 0.71719307 -1.5078205 0.12856734 0.35725275 -1.7545131 0.4528572 -0.28317326 -1.0126882 1.1655889 1.4947475 -0.29499525
167 0.3620075 -0.8021298 -0.5044108 0.2931142 0.6134107 0.17188242 -2.2869205 1.8345159 0.27106 0.27781123 0.21961002 0.09376818 1.2267148 0.2395819 2.1190658 0.23483364
594 -0.2356206 1.3353628 -2.9107065 0.51855373 0.49167633 -1.9456977 -0.15008846 0.6025086 -0.20457447 -0.4710873 1.3806584 -1.2432532 2.1396077 3.6513355 0.36186498 0.48916277
2729 0.38026533 1.2053305 1.0038116 -0.4786039 1.4683291 -0.8181865 -1.6891913 -0.45984942 -0.81383467 -1.5026214 0.7704441 0.14668132 1.3783109 1.5321686 0.9586075 0.37420815
990 1.4666364 1.4950542 -0.40002692 -0.4083218 1.9218758 -0.67525065 -0.2434851 -0.28267798 0.2990106 -0.070027314 1.2963808 -0.43697384 -1.024345 0.65646183 1.1574684 2.3345628
14 0.5753627 -0.4302923 -0.22210103 0.1064047 0.24632132 -0.48311585 -0.585823 0.39014575 0.6437336 0.08661918 0.47948244 0.43886417 -2.1025372 0.7690053 1.777701 0.8883367
1359 -0.85762596 -0.5690771 0.19084124 0.2040081 0.16418527 0.30791324 -1.9467437 -0.0694317 0.796929 -1.4679494 0.60779023 -0.3652564 0.34960485 0.8481462 1.4026852 0.8197921
2238 -0.21138786 0.16959076 0.2986682 0.17936671 1.8427885 -0.13251887 -1.5584229 0.09154232 1.0995286 -1.3654836 0.19216466 -0.65111345 -0.1346304 0.8054769 0.47749823 -0.1460148
2031 -1.4059947 -0.07179849 -0.27275118 -0.11399058 1.0272995 0.7818396 -0.5429415 0.24451925 1.5160413 -0.8077986 0.58745265 -0.25031912 -0.38860708 0.8262761 1.4819387 1.3835504
758 -0.082311384 0.38583335 -2.2297916 -0.09390377 1.4879216 -0.69301283 -1.0025756 0.51590824 1.1205698 1.0368428 1.404937 -0.3228493 0.893424 -0.36468634 0.26371473 -0.10687588
1195 1.4567233 -0.29126686 -1.6075442 0.5742177 2.1745236 0.8767298 0.3357579 1.4103829 1.0656432 0.79306704 4.0296664 0.24178462 0.6727455 3.8093076 0.3513252 0.8877931
2025 -0.56679386 -0.21896689 -0.98034835 0.94712543 2.3667517 0.45515412 -0.9411781 0.1210506 0.010510212 -1.196183 0.98903954 -0.38996387 0.1639732 0.9376722 0.67314905 -0.3519547
3236 -0.1942055 -0.64059913 0.075184345 -0.6569032 0.8825676 -0.24611884 -0.5508261 1.7704787 0.59078324 -1.6918576 -0.6098644 0.6250637 -0.5330164 0.9901177 0.8288961 0.5188218
71 1.4671594 0.3303398 -3.5675693 -1.8474278 2.4503267 -2.925137 0.1837243 -1.4675843 0.88890696 -1.36464 3.086989 -0.13329385 0.078189254 0.12593213 1.3176224 -1.4601538
2595 -0.15243883 0.5431516 0.3506361 -0.61736727 2.1978734 -0.7305962 -1.9928504 0.09886151 0.4717203 -0.11458987 0.44018918 0.48775318 -0.43931815 0.33665365 0.63854945 0.046084475
437 0.5404155 -0.4578617 -1.796838 -1.3117436 -0.89024574 -1.3451174 -2.3342428 0.07781223 0.6062192 -0.3513351 1.0519168 -0.19386598 0.689797 0.27474812 -0.08530423 0.7407495
1864 0.839523 0.20004511 -1.2158216 -0.669556 1.162223 -1.1502315 -1.9441241 0.7745908 -0.37917304 -1.6560011 -0.55774665 -0.89269656 0.86323977 0.14578247 1.2324027 -0.8220157
397 -1.3722601 0.47074616 -1.6521375 -0.6163716 1.5169526 -0.25367254 -1.2769837 1.008172 2.4059284 0.8926102 1.9462066 -1.4014459 0.93789923 0.6000483 0.4416304 -0.5606671
2559 2.6806827 1.1133567 -1.345878 -0.3275959 1.053351 -0.46862677 -1.0689129 -0.15143415 -0.45438325 0.022050496 0.8758848 -0.33397204 0.73028016 1.5865022 2.0203917 3.3818872
1175 0.40946478 -1.3763683 -1.9605837 -0.6548464 0.7481515 -0.4296782 -2.5098925 0.7133377 0.4228646 -0.28638846 0.8732707 -0.020178216 -0.5840782 -0.7123016 1.3682352 0.14195432
386 -1.2728819 0.7484213 -1.7671136 0.59205204 1.8353351 -1.5162303 -1.1858044 1.2799165 1.9347817 0.6932225 1.6859945 -0.7850107 1.2388787 0.03995765 0.88228494 -0.781415
2453 -0.031828314 0.42234635 -1.434487 -1.2780629 -0.13820675 -0.062433176 -1.6554513 0.15438548 0.7732091 -0.7531172 0.60087675 0.30363274 -0.9114882 0.7563603 -0.12299928 1.9507701
2068 0.32447222 1.1631453 -0.66255283 0.3902205 1.0327092 -0.68216586 -1.2309705 0.25722346 -0.3178828 0.60386294 1.6162528 -0.23800756 -1.814656 1.4554214 0.821352 0.6044091
2434 0.6616573 0.016765002 0.27324378 0.0978964 1.1454281 0.76188326 -2.0976493 1.6265788 -0.0408381 0.083654016 0.4996055 0.65950507 0.6072241 0.85651946 1.257152 0.9849982
1872 0.5244518 -0.32081616 -1.1026877 -0.9988301 0.6222464 -0.19715866 -1.8216933 -0.3124012 1.0164096 -0.74238133 0.6979805 -0.013349715 -1.0157148 0.27481863 0.03137646 1.4374802
1858 -0.8870607 -0.8642079 0.006442253 -0.4466869 0.2411268 0.08141719 -2.0775287 0.79075724 -0.2826476 -0.5670499 0.72067356 0.11635336 0.51763135 1.3818508 0.2121826 0.85664636
1720 -0.14106943 0.8704235 -1.9774055 -1.8351744 -0.70883065 -0.71165526 -1.1333345 2.5193145 -0.014971818 2.1870637 4.366073 1.3189758 0.6331932 3.0965667 0.8744274 -0.04198994
1933 0.12422239 -0.6060055 0.83016306 -2.0080836 -0.8249986 -1.9441493 -1.0378884 1.9790827 2.3365297 -1.4457941 0.9972833 -0.20104073 -0.35274294 2.7028482 0.60661477 -0.6962601
2263 0.5063906 0.842005 -0.97615284 -0.5847504 -0.27112505 0.9550854 -1.6828436 1.1043365 -0.27349055 -1.6943116 -0.016727272 -0.02452348 -0.344249 1.2939621 2.2040796 -0.41284046
360 -0.8853029 -0.26727682 -0.22986789 -1.1729232 1.0346158 0.65206915 -1.9900119 0.0038968087 1.160212 0.24927159 0.57048833 -0.837033 0.06180252 0.906106 0.7698983 0.3034063
1462 -0.43707687 -0.52711093 -0.67271155 -0.7013744 0.76891965 0.24064031 0.84374523 0.3561157 0.14214996 0.60961914 1.9577668 -1.8877858 -0.260273 1.235633 3.0616698 0.7637834
2035 -1.3390224 -0.27123073 0.18055461 -0.31147143 0.89877594 0.8130762 -0.43124166 0.34980428 2.002139 -1.1978889 1.0294846 0.021230582 -0.2897639 0.9463133 1.4578842 1.4368607
607 1.1537045 -0.47628334 -2.3418727 -0.46062678 -0.3152129 -0.99276406 -1.2011241 0.22895528 1.7256652 0.98991716 -0.08381945 -0.71585983 0.7787719 1.2254971 1.18188 1.3467532
145 -0.4674692 -0.18015623 -0.052333932 -1.3758217 1.4323025 -0.23435932 -1.172747 -0.30194345 0.0537038 -0.043218188 0.7732805 0.6693838 -1.1635079 0.9605464 0.82958955 1.2820939
2220 0.84477866 -0.017473338 -0.18302299 -0.21201247 2.3707838 -0.90218604 0.58131695 0.929896 0.5283495 0.15407154 0.10024296 -0.32819247 0.49060273 -0.22930115 2.7713087 1.2148066
322 -0.6704008 0.6754698 -0.9306625 0.73331654 1.8153756 -0.11930948 -0.768694 2.3837678 0.14140576 -1.0814756 0.5575627 0.50036126 0.8004533 0.3022405 1.8273194 -1.1691996
833 1.1785098 -0.73126787 -1.968134 0.16407211 -0.0004747228 -1.7818357 -2.3388689 1.3016045 0.4022554 -0.23265763 0.4728162 -0.33627042 1.6665733 0.35987616 1.9449208 -1.336499
2285 0.3378382 -0.54706097 0.034206707 0.16417068 0.9831177 0.5129869 -1.928146 1.7747583 -0.19512235 0.19673507 0.27768558 0.4826614 0.77442914 0.7064492 1.4581946 0.36266947
3237 0.52984476 0.8805909 -0.96858233 -0.32812414 0.14884642 0.9714759 -1.6516256 0.7296193 -0.03984495 -1.6954128 -0.10804567 -0.021582875 -0.24638434 1.5120137 2.0908978 -0.70761454
1833 0.3339443 0.88511527 -0.8822779 0.3438852 0.6262655 -0.37917483 -1.3449931 0.67908496 0.31609166 0.7500837 1.1981869 -0.29711896 -2.0559921 1.1760757 1.0001746 0.688966
2296 1.1576967 -0.26101792 -1.4705312 -0.0712462 0.44666883 -0.80259126 -1.2565277 -0.5175123 1.8096966 0.8773143 1.2354555 2.2646897 0.1129067 0.8444978 1.3610076 0.1066424
2395 -0.6982719 -0.9031066 -0.56343377 0.8574284 0.5768445 1.0730082 -1.0052534 1.7194527 1.6568396 0.17176837 0.51930517 -0.078720406 1.0419223 1.4248871 2.434101 0.91517234
72 0.08291679 0.39978552 -1.8753083 -1.691543 2.0536394 -0.6534547 -0.31869578 0.94062287 0.3882177 0.73586005 2.5453362 -0.22201219 2.2087867 -0.26805577 0.72825533 -0.69886696
75 0.23931356 1.3944024 -2.0364532 -1.5410261 1.9170797 -0.46963716 -0.21873693 1.0158175 0.6156847 0.5750163 2.594985 -0.10565881 2.1368983 -0.3686734 0.9052781 -0.759701
2556 0.06531765 0.023689229 -1.5903195 -0.082443096 -0.026166366 -0.20528981 -1.7791361 1.2468805 1.9718428 1.1484976 1.3861213 -0.8054252 -0.67692685 0.8641677 0.61532736 -0.31652072
1817 0.31632093 -0.8343552 -0.2779189 -0.41519564 0.21931471 -1.1164447 -1.0371395 -0.8161923 0.90486515 0.28694698 0.95497024 1.8090918 -0.27388805 1.7167481 1.1922659 0.46182013
1670 0.08494493 0.21568428 -2.6132054 0.60054076 0.8151557 -1.9273474 0.4101152 1.3435017 0.39236972 -0.1704891 -0.0093138665 -0.5416593 -0.6263665 0.3833537 1.7624633 1.4383122
2239 0.33898178 -0.059007607 -0.7589401 -1.3931409 -0.38412732 -0.332913 -1.5002089 0.27186823 0.8189018 -0.19652611 1.7746279 0.77937424 -0.7889881 0.861942 0.19119197 2.6409264
2874 1.537406 -0.30102125 -1.801043 0.13113168 -0.29995507 -1.3302468 -0.25272974 0.5651106 0.2085123 -0.036547635 0.81678396 -0.6812318 1.1060619 0.94381446 1.7552938 3.1738467
1782 1.8724506 -0.25796875 -3.4415176 -2.3268561 0.38807145 0.14697477 0.24490756 0.65739065 1.5300604 -1.5586399 3.261324 -2.3044758 1.1445141 1.9844416 0.47457224 -1.2550117
149 0.12610169 -0.8503349 -0.3277543 -0.4291256 0.1765992 -1.3123103 -1.05998 -0.77747947 0.73189414 0.37993246 0.7973603 1.6529452 -0.47181615 1.538636 1.5587115 0.28278357
1491 -1.6288697 -1.0601183 -3.1528676 -0.5890847 -0.97744685 -0.68105924 -0.86467165 1.4185066 0.77568877 0.31080228 2.7784398 -0.7551895 -0.009622738 -0.014812274 3.5437615 0.32735732
36 -0.0038195504 -0.31935173 -2.2921963 -0.03741011 1.5319989 -0.13006508 -1.0609331 0.61579704 0.8999144 0.885181 0.5782936 0.53231454 0.79787195 0.100963436 0.064483 0.33631253
2745 0.26147622 0.11054937 -1.0735527 -0.6976417 1.2615372 -1.1476187 -1.1719363 0.91414344 0.9028394 -0.81265193 1.546114 -0.114299305 0.30828246 1.4995017 1.9081855 0.49920502
2442 -0.86395735 -0.37305158 -1.015164 0.9437874 0.09030242 1.1480322 -0.795399 1.2483218 1.2733209 0.46425334 1.1947607 -0.02700087 1.3866445 1.8850553 2.9994955 1.0489154
1392 0.338385 -0.46607828 -0.4555603 -0.3855992 1.514945 0.15803003 -1.1373707 0.47283357 0.014993533 -1.3521173 0.07412643 -1.0738724 -0.6816429 1.9448788 0.0080946 0.33010373
3060 0.3355692 -0.31622916 -0.8155303 -0.9380813 -0.33175796 -0.35756966 -1.5709049 -0.24642675 0.3059766 -0.56056666 0.868098 -0.11958834 -1.5688511 0.37399915 0.97765654 0.75978035
124 0.87840176 0.23984118 -0.74799734 -0.5353507 0.7686433 -3.5241284 -1.1343527 -1.1360786 0.5910576 -2.5637288 2.1974206 0.3129461 3.1091733 -0.21634093 2.2700148 2.6459303
1494 -1.4951887 1.9731164 -1.370039 -0.6622202 2.5010087 -0.8494161 -1.0875013 -0.61495334 1.5656325 -1.755134 1.5620102 2.0722682 0.4172767 0.81644464 0.5007269 1.7064164
1708 -0.72030914 -0.4662983 -0.0146629475 -0.43984437 -0.9982167 -2.3452678 -1.8057244 -0.30681437 1.2498682 -1.8085239 3.4150248 -0.3545937 2.095823 1.2113386 2.7416065 -1.6615705
1573 0.3441635 -0.7883048 -1.8204098 -0.39635298 -0.77491635 -0.7818319 0.72494084 -0.41091964 0.072732545 -1.9097302 3.1080496 -0.08015484 -1.6072632 2.4323025 1.5987606 1.536755
2093 -0.13776387 -0.486202 0.6772132 0.12649085 2.058514 -0.74412405 -1.3470384 1.6488314 1.3805206 -1.0544083 0.67748326 -1.9084628 -0.7051885 1.080824 1.385785 -0.89513844
2819 0.4175092 0.6282758 -0.2052573 -0.11734738 1.0694976 0.19697733 -1.7796814 0.56103 -0.61796534 -1.3356553 0.36283377 -0.7700794 -0.28750548 0.97001857 0.9694232 -0.6578817
1207 1.3724886 -0.69201773 -0.24714611 -0.61507887 1.3124765 -0.029575726 -0.087273024 1.2930242 0.6674785 0.3855887 0.7525352 -1.4375577 1.192891 0.31450105 1.9185985 2.3591454
2939 -0.9491964 0.30817655 -0.796163 -0.61361754 1.2781827 0.35223448 -0.97586036 0.04510149 0.65119636 -0.24507874 -0.08773622 -0.5516785 -0.6398867 1.7205005 0.42075855 1.4068315
1468 -0.96413004 -0.26149645 -0.25072363 0.53676534 1.917037 -0.9250014 0.8617997 0.38384774 1.777881 -0.3285946 0.91116345 0.61555594 1.4776286 0.279179 3.3831227 1.6784683
615 1.2347336 -0.4853047 -1.841512 -0.96002406 -0.9345079 -1.3684905 -2.2575295 0.65139127 0.88675416 0.26803187 0.6307155 0.018828591 1.243563 0.5444337 0.20220737 0.5921475
1845 1.2131662 -0.3105847 -1.6763093 -0.9313927 1.2150257 -1.6435639 -2.0408626 0.9535226 -0.37463656 -1.371575 -0.6809509 -1.1345218 1.0200824 0.5140644 1.7845954 -1.0527647
2998 0.63445014 -0.12647578 -1.4568638 -0.10711195 0.4962754 -0.3498956 -1.9553117 0.20728295 1.6063699 0.66038764 -0.53058404 0.119167335 0.7839494 0.90522826 0.8909287 -0.22858416
1972 -0.9830679 -0.5797925 -0.666586 -0.066600055 1.2262769 0.35534954 -1.0707732 1.5650285 -0.13246864 -1.3628306 0.24903363 0.7966895 -0.26667118 0.59178025 1.3018202 -0.5072041
1454 -0.3532826 -1.0791124 0.27180874 -1.3616389 1.2925174 -1.4426545 -1.737542 0.20562674 0.50640374 -0.8351729 1.289529 0.70051485 0.01638511 0.10803057 -0.13881713 1.1965153
1120 0.5436863 -0.85259396 0.10080199 0.286717 1.8063875 -1.2462323 -1.7439452 0.11884903 0.8547621 0.89257497 1.1112674 0.59592736 0.09323791 1.6186783 0.055257294 0.46609724
2079 -1.0115646 -0.6605792 -0.55566955 -0.08880847 1.1126363 0.11858363 -1.1880285 1.588349 -0.1891169 -1.4457719 0.35952386 0.8251746 -0.18639664 0.5860676 1.1476756 -0.54132414
482 -0.18050767 0.36288 -2.4351177 -0.7190388 0.505291 -0.7225212 -1.5709733 1.5743359 0.93429357 0.5347826 -0.10640003 0.4998118 0.04943341 -0.49364224 1.3081517 1.3805121
1571 0.0075431177 -1.070929 -1.4604847 -0.6914879 -0.42804962 -0.52309805 0.42925406 -0.37480873 0.08906758 -1.5263536 2.2890205 0.050472215 -1.647066 1.92515 1.1064061 1.264793
1419 -0.56420636 0.56399655 0.92337555 -0.066991195 1.1179502 -0.21089071 -1.308269 -0.5170337 -0.5647012 -1.4220812 1.1521378 -0.1649838 1.1000867 1.9266512 0.5516017 0.91036147
3076 -1.1071572 2.5973449 -3.2536361 -1.0715562 1.345094 -0.16304184 1.9204812 0.10781064 0.72601974 -1.1714116 3.1290467 -1.545161 0.22331938 1.6117551 2.785161 -0.6207164
1335 -1.2455249 -0.41037142 0.2779815 -0.042164404 0.80169845 0.6869098 -0.48225898 0.6683383 2.1803946 -1.074785 1.1893508 0.19309227 -0.13831188 1.0816766 1.2719523 1.810348
3099 0.07435414 -0.94838923 -0.581261 -0.30762213 0.35513562 -1.159569 -0.99303776 -1.0149822 0.87875885 0.37423125 1.0556976 1.4899975 -0.5640173 1.4889505 1.4503601 0.29284528
175 3.2322 1.1557775 -1.2822667 -3.6242085 1.5713035 -3.006003 -0.09155403 -0.1270121 1.4608155 -1.1111206 1.1276126 -0.014354095 -0.5197609 -0.33135977 3.6732607 -1.1219342
87 -0.7507754 -1.3308104 -0.50456625 -0.11344926 1.5291657 -1.7658309 -0.44477987 0.14001814 0.4775715 0.37688684 1.5968972 1.6576816 -1.2400625 0.8080333 2.230202 -0.2295479
2437 -0.101602785 0.26386747 -1.6200985 0.6457809 0.86915267 -1.7884634 0.058812056 1.1728327 0.27847147 -0.4463353 -0.12036979 0.029591752 -0.44695643 -0.12244654 1.7007424 1.7662071
2078 -0.9353223 0.4716221 -1.4029672 -0.34258232 0.43608132 -1.0953188 -1.9854544 2.163887 1.631518 -0.7216429 -0.5292528 0.61954373 -0.5594815 1.093702 0.6635673 -0.40968934
68 -0.7239569 0.386195 -2.4252791 -2.693324 -0.40301317 -4.4067783 0.77169186 0.8299625 1.0462134 0.44892466 0.45280927 -0.11154374 2.2324235 1.606582 2.7332337 0.61852384
1837 0.31492367 -0.90820545 -0.7148911 -1.7416348 1.3023537 0.023107162 -0.9975715 0.41018075 -1.2122748 -0.51455307 1.090284 -1.481902 -0.1771304 -0.16936849 1.560176 0.42915297
2455 -1.0555581 1.7910228 -0.74860734 -0.18910055 1.0285003 0.421478 -1.7502477 -0.27961627 0.12608714 -0.09492265 1.6390163 1.1817921 0.31792718 0.2537897 1.5347452 1.5175892
19 -0.9055646 -0.40158817 -0.14964399 -1.0530581 0.15104635 -3.5649986 1.452927 2.7891586 2.0773377 0.048551984 2.582139 1.5633287 0.92766744 1.9362098 1.1884829 2.4927962
2327 0.9918428 -0.37208572 -0.8871547 0.9040045 1.580684 0.40516663 -0.17755587 -0.82552046 0.31048352 -0.6148046 1.417033 -0.46003577 -0.08066307 0.18012433 2.5911577 0.44358692
377 0.76637954 0.946328 -1.8530344 -1.5492922 1.3274914 -0.4414428 -0.5429726 1.13516 1.0098808 1.2370234 1.8094872 -1.0813386 2.1781712 -0.46735066 1.3637296 0.005606853
43 1.9770521 3.1605306 -1.8242638 -2.5636547 -0.6204993 -1.8828425 0.080958255 0.38676482 0.65160674 -0.07543662 4.16907 0.7910143 -0.45280683 1.8385559 0.440458 0.75443596
1922 -0.45867604 0.38796276 0.12712865 1.933586 2.014163 -0.9206061 -1.5621358 0.020816527 0.76115006 -1.509026 0.8152219 -0.7704466 0.44880474 1.3304362 1.2025434 0.43190953
1786 0.36825255 1.9085351 -0.4127319 0.0065551857 0.8893187 -0.4971912 -1.3090659 0.16337278 0.18331747 0.3686169 1.394558 -0.40832838 -1.8505665 1.7751342 1.2339298 0.046942405
2139 -0.8395089 0.46772656 -1.5165782 -0.37860158 0.27815756 -0.7566339 -1.9135168 2.1616516 1.4207913 -0.71009225 -0.34698665 0.8482177 -0.5225261 1.3047924 0.55692106 -0.57612616
879 0.8481638 0.3511072 1.1726856 -1.3679305 1.5385044 -1.4774821 -1.8787373 -0.47024173 1.4072238 -0.79745793 -0.048715737 0.7488453 0.94489557 0.89442813 1.4320167 -0.42221433
2971 -0.37239158 0.10506487 -1.427375 -0.21246321 0.22029062 -0.8282881 -1.9944468 1.8251233 1.7198741 -0.3444159 -0.6942138 0.7505976 -0.4509273 1.2404147 0.6487385 -0.23487666
1225 1.5538279 2.4451504 0.5756096 1.4566095 1.708807 -1.5455601 -0.015256062 1.9147848 3.8366375 -0.33743435 1.8259528 1.1984237 -0.6285756 2.5265708 2.184467 0.21900734
1564 0.5907135 1.9779495 -2.4026742 0.703698 1.9135667 -0.99253505 1.5862206 0.025873072 0.92049736 -1.2428197 3.9849358 1.484574 2.9071162 1.12915 1.9169065 0.074289106
2122 -0.8323619 -0.038409177 -0.21568374 -0.15257409 1.7838414 -0.21090786 -1.4349953 1.0145702 0.500098 -2.0070577 0.08759502 0.6337405 -0.2104588 0.53890467 0.59669626 -0.23462619
2521 -0.13469958 -0.43401685 -0.0051583275 0.011702643 0.70207566 0.040876728 -1.8220028 1.2133825 -0.10395715 -1.8656158 0.31815442 0.07658304 -0.14419614 1.1739677 0.38800865 0.15152033
344 -1.2862093 0.74267036 -2.282524 -0.77932906 0.32886535 -0.20356971 -1.3962929 0.18090364 3.1098208 0.5796621 3.1481788 -1.174446 1.1445218 1.7048233 0.7689634 -1.1688169
719 -1.4771597 0.4439056 -1.0014762 -0.67079556 1.9298288 -0.118368976 -1.8871326 0.52589047 2.0964513 0.75966835 1.7680391 -1.9133377 1.296958 1.1707629 0.50930685 -0.20654374
2172 0.5088165 0.048964746 -1.2121475 -0.7939366 1.0045174 -1.1869199 -0.49595279 0.63089955 0.9024921 -0.66151005 1.4927572 0.25525096 0.41791502 1.4862579 1.5819706 0.7772998
2231 -0.7191968 1.1299659 -2.4498434 1.139632 -0.8937074 -0.30548975 -1.1090513 2.023133 0.15297425 -1.5719745 4.1919694 0.61542964 1.6221807 2.5047278 0.9702066 -0.71429604
396 1.3620925 0.80757797 -1.096852 -0.83636874 1.4697813 -0.95493746 -1.3845292 0.4665808 0.087692745 0.38754842 1.5839155 -0.8929079 1.9622239 -0.20357893 0.6681695 -0.8840578
1620 -0.22940153 -0.31817618 -0.008290439 -1.24845 1.5516413 0.3028001 -1.4046922 0.3394722 0.16277441 0.04541904 0.15950611 -0.7470635 -0.16934481 2.2948434 0.16360086 0.82163936
3088 0.15492319 0.38922524 -1.0596107 -1.0257123 0.9584716 -1.0771079 -0.11000413 0.76646227 0.6273023 -0.58655703 1.1977298 0.3552504 0.76838154 1.826269 1.2761289 0.47296426
1062 -0.025448015 0.109681845 -1.3804948 0.20865975 0.5905035 -1.0097767 -1.4130703 0.6405427 1.4034142 0.22515686 1.6859822 -1.4221841 -0.9110338 -0.37358555 0.5130162 0.5591865
3291 1.4653149 0.3713254 -0.38628647 -0.16152902 1.422143 -0.164505 0.0003517754 1.2916961 0.782665 1.1237632 1.0242035 -0.45670384 1.0441947 -0.21157737 2.5679474 1.2285526
2911 0.38497818 0.14319745 -1.1677892 -0.7726792 1.4808258 -1.1464279 -1.6513525 0.96689874 0.9508978 -0.90483856 1.7337074 -0.030831754 0.23304337 1.5716388 2.1980653 0.81916744
3562 -0.7897957 -0.45072055 0.13968252 -0.52935517 -0.9132674 -2.383455 -1.7708861 -0.2852489 1.1528584 -1.7653462 3.267585 -0.38910875 2.116833 1.2335039 2.7618785 -1.6403555
4018 0.5937958 1.0009379 -0.9484619 -0.27624762 0.10641709 0.9632328 -1.6460891 0.8843311 -0.018831661 -1.6126496 -0.019368874 0.098344006 -0.21051596 1.4832562 2.0841212 -0.6893867
2764 -0.06273255 -0.42684442 -1.3789724 -1.1497313 -0.567125 -0.9364554 -2.272067 -0.10507564 0.2816018 -0.6092286 1.2152227 -0.60796034 0.05368381 0.27059865 -0.10261176 0.8183042
2024 0.6205804 2.1922283 -1.2416148 -0.28312075 -1.5400785 -3.0479832 1.0450797 1.7498018 2.392531 -1.6224334 2.809515 0.5992852 -1.1347909 1.018836 3.0530224 -0.61942893
1918 -0.96357036 -0.022651989 -0.029992182 1.1365861 0.796657 0.1404224 -0.59051734 0.867849 1.3709524 -1.7072296 0.3736038 0.30887377 0.8428405 1.9002635 1.0849537 1.7296349
1230 3.214117 0.26849633 -0.07177652 -1.3682755 -0.9379871 -1.6318688 -0.4394281 0.5094087 1.5861607 -2.4475703 1.4781884 -1.5156466 1.2836589 2.3850243 3.3272529 -1.8643667
248 -0.14662273 0.5299071 -2.1033075 0.37825698 1.4748002 -0.85611486 -1.0583912 0.65073174 1.3831574 0.77406037 1.9536839 -1.020058 0.49067745 -0.49745512 0.35298982 0.14530793
2368 -0.21689251 -0.8150323 0.052946765 -1.7066427 1.2887837 -0.13763818 -0.5473708 -1.0993513 -0.13318232 -0.92866 0.33981633 0.81989515 0.18701519 1.0809047 1.9192928 1.3441302
3135 -1.4239446 0.14107646 -0.46568388 -1.382774 -1.1299843 -0.7326268 1.202883 1.396325 1.2675171 -0.37861028 2.1774538 0.57178164 1.9319487 5.134744 2.3800082 0.3701459
1123 1.168346 0.54049546 -1.409686 -1.626665 -0.106065266 -0.6544298 -1.5284257 0.7454065 1.4804031 1.5433688 -0.17019264 0.012684643 1.0612818 0.5439021 1.3158116 0.86020076
3280 0.610857 0.058557887 -0.956613 -1.6705753 -0.5493276 -0.3814007 -1.5448053 0.3505774 1.1643797 -0.24522999 2.5699787 0.8946201 -0.44102114 1.2135813 0.1687585 3.3756692
3084 0.7839688 0.18040201 0.044005957 -0.099373996 1.0091486 -0.130132 -2.5134106 1.0560198 -0.6811376 -1.0692476 0.89091206 0.70701486 0.6184114 0.9345148 0.3541964 -0.36821517
398 0.8783257 0.87039065 -1.1828176 -1.5317149 1.1897469 -0.9913797 -0.33868507 1.2902778 1.3373147 1.4983817 0.94011885 -0.80456245 2.218488 -0.55801934 1.8595294 0.46709892
117 0.6742819 0.16458228 -0.80990195 -0.78127986 0.4161928 -0.8554775 -0.21163887 1.2837245 0.84401494 -0.9848517 1.4061065 0.3177125 0.37894946 1.6392132 1.5586714 0.26917887
2317 0.20402136 -0.24445227 0.6711287 -1.7267282 2.8798676 -1.8295349 2.1562643 -0.14583266 3.2852712 -1.8588631 2.8953838 -0.89293164 0.20717 2.3236423 1.0442892 0.72039664
422 -0.7779982 -0.47522113 0.02948584 -0.46959642 -0.9947121 -2.450065 -1.7662709 -0.31379327 1.2375703 -1.8608792 3.2843335 -0.49606335 2.174856 0.9723433 2.7041094 -1.4349751
1836 0.09513288 -1.1491864 -0.8238201 -1.366243 0.94034386 -0.31605336 -0.744605 0.5031989 -1.186952 -0.06515539 1.3157096 -1.4007648 0.0037516013 -0.06368731 1.6264669 1.0641532
1950 -0.7878133 0.18309394 -1.8042449 1.0972325 1.0020201 -0.7965595 0.79983944 0.4556389 1.2751638 -1.3009007 1.7228441 -1.8041893 2.7302246 0.5698619 3.25712 1.1151791
2000 0.8537333 0.88164747 -1.6355652 -1.4613017 -0.39191577 -0.6643948 -1.635799 0.3351641 1.1239867 1.2251621 -0.34430307 0.061437774 0.61203086 0.7986631 1.344832 0.8173835
40 0.18235892 0.59806573 -0.5090988 0.23123306 1.0822378 0.36224377 -1.6488746 0.4150373 -0.24460281 -1.0672565 0.2201505 -0.6170321 -0.9010398 1.1636881 1.2417526 -0.67450386
2097 0.38974586 1.9349959 -0.47587615 -0.10584415 0.8409602 -0.6688666 -1.3149608 0.34941614 0.0879161 0.4041551 1.3631493 -0.4216273 -1.8646723 1.738107 1.0897355 -0.017848447
2404 -0.0718488 0.4375769 -1.1838307 -1.0970802 0.7056872 -1.134824 -0.15387237 0.9323102 0.6370569 -0.8332462 1.5885371 -0.07179389 0.46196702 1.4964892 1.1521955 0.3626577
1069 2.3097022 2.2789915 -2.5042133 -3.378547 1.9006534 -2.124143 -0.08948369 2.2716296 -0.39505398 -1.3005539 0.41799754 0.742334 0.790253 2.0546296 -0.16651262 1.3898784
1959 0.13328359 0.87757856 -0.098256014 -0.8608786 1.0333303 0.7465207 -1.7814633 1.1885955 -0.53242356 -0.5112273 1.1939663 0.036470946 0.07624888 -0.01851826 0.5688581 0.91562045
2219 1.4891855 0.33696705 -0.40647736 -0.14701013 1.3686123 -0.1346642 0.13134015 1.2931086 0.93469834 1.1552786 1.0519047 -0.35778874 0.988654 -0.26156345 2.522195 1.1916169
263 1.8692465 0.83620536 -2.2596643 -0.2922147 -0.12623522 -1.6459781 0.12124425 -0.7367346 -0.5667765 -2.981314 3.2392335 -0.37541553 2.3050594 0.41817832 3.7019045 -0.9054263
2661 0.37120938 0.20767397 -0.4712663 -0.4380502 1.4029528 1.151835 -1.847484 1.8886473 0.43208322 -1.5449916 2.1782486 0.55566776 0.48783308 -0.003419799 0.029882723 0.2611657
1147 -2.1818817 2.666191 -1.3683223 -1.7301035 1.0982263 0.27529693 0.8085787 3.0452857 0.26751843 -0.8359263 2.049001 -0.5717203 3.0010111 1.6022631 3.0227654 0.6772614
1421 0.25295234 0.25792572 -1.1446124 -0.7117111 0.85710293 -0.9545931 -0.5020689 0.7300154 0.60067147 -0.79271734 1.5011729 -0.034594737 0.49400294 1.308998 1.5483875 0.28723222
3986 0.24416226 0.08468816 -1.0583295 -0.74424636 1.3029803 -1.1093864 -1.2896037 0.88237804 0.89225936 -0.8994013 1.6370153 -0.10243124 0.3080116 1.5589355 1.9560635 0.48687398
1773 -1.5492414 0.96339136 -3.4338589 -1.3768064 0.36462957 -1.8718526 1.2261112 0.9815427 -1.2966844 -3.702057 1.6079261 0.08315782 -0.2708041 1.3971422 2.9900835 0.23239811
2118 -0.073006384 0.52069265 -0.76601404 0.42305994 0.09367645 -0.37684363 -1.2672809 1.1470826 0.6004555 0.33161417 0.8029634 0.39238417 -2.1394575 0.620296 1.2610276 0.8201205
820 0.52883875 2.9774559 -1.7761945 -1.7666911 1.2339178 -3.077966 -0.4313675 -1.2561924 0.7042812 1.2815355 1.328736 0.28304693 1.2994725 4.02123 1.7865404 -0.56389767
107 0.714894 3.0204291 -0.8540392 -0.67399406 1.1567285 -2.5725002 0.041271 2.4992762 1.3759981 -0.90729177 1.1873138 0.65053856 -0.31821734 4.92777 -0.10526782 -0.8473134
880 0.4207895 0.15637194 -1.0852182 -0.6824362 1.076644 -1.0017143 -1.0501095 0.9493442 0.8370833 -0.76547354 1.5049005 0.06346698 0.4412556 1.4142408 1.7691292 0.5850301
410 1.7526947 -0.7357748 -3.0682805 -1.8666724 -0.26032937 -3.703506 0.82563615 0.9674764 2.4402642 -1.2655581 0.47741085 0.9543847 -0.8942967 1.1659774 2.4019885 -0.9041776
2208 1.4579159 0.33216462 -0.26787794 -0.2214907 1.4468653 -0.13759464 0.095964864 1.1379684 1.0292833 1.1032946 1.0595295 -0.3658029 1.0769049 -0.24809146 2.5308192 1.2498957
404 0.25238076 0.08303373 -1.2552186 -0.78378344 1.2950788 -1.093309 -1.265609 0.9366741 0.7827341 -0.8425353 1.5660523 -0.1131009 0.2986576 1.4625009 1.9578111 0.6939287
2355 0.6085067 -0.41567245 -1.0582972 0.7577331 1.5492249 0.60372454 -0.72837394 -0.94134414 -0.024303129 -0.7954789 1.5197613 -0.20855847 -0.5566137 0.23766583 1.9638193 0.10956815
1111 1.8625103 -0.39034694 -0.4373576 -0.98485535 1.949679 -3.1161191 -0.75638026 3.5048964 0.17216615 -1.1029571 3.737026 -0.6946117 0.72008973 0.3525475 -0.6398641 0.8241716
2799 -1.1929394 -0.7022187 -2.2267978 -2.6088827 0.31226557 -1.4978243 2.0201435 -1.0615647 1.6516546 -2.3738534 1.9969449 -0.4133522 1.7614212 2.5443819 1.8241072 2.1279356
2656 -0.09541004 0.5145349 -1.0034108 0.5286918 1.5741142 -0.7197947 1.1407622 2.1452215 1.4735273 1.1562419 1.2453142 -1.0986797 0.17774162 1.3980303 1.8347782 2.2810543
1915 0.043763366 0.100824215 -0.21363547 -3.0017436 0.9825619 0.16579416 0.9902655 3.067281 -0.26963645 -0.765275 3.593867 1.3912568 -1.8498323 2.308914 2.627807 -0.9527766
1326 0.36396003 0.19180487 -1.3154678 -0.59086555 1.0994134 -0.8727374 -1.1617886 0.77471477 0.75446945 -0.93925476 1.618465 0.08588648 0.668973 1.659818 1.5813677 0.6903974
896 0.9426746 -0.86751175 -2.364412 -2.422195 0.56951797 -2.1733408 1.3056701 1.8130327 -0.7660371 -1.0352147 0.64716184 2.549446 -0.7508459 3.9816587 2.2478056 -0.41628587
195 1.2473752 -0.05109389 -2.5602882 1.5929646 -0.8929201 -2.6718352 -0.01691083 2.4745271 0.30078816 -3.680763 1.4565806 0.36567432 -0.12312498 2.0528576 2.3993175 -0.7129073
57 0.056963854 2.3096402 -3.0858378 0.05904975 -1.7261816 -0.5953474 -0.08338374 2.81038 2.3129792 -1.1821256 1.6052538 -0.77790135 1.852486 1.7941391 1.7665371 0.4517216
3867 0.22088887 0.5569905 -1.2680813 -0.7773877 0.6636091 -0.9140956 -0.25227743 0.9577775 0.78836334 -0.78445077 1.4367163 -0.04611324 0.64469284 1.251028 1.4293509 0.2675402
1280 0.7306035 0.20432872 -0.7522514 -1.3129176 0.7016305 -0.6121042 -0.015265165 0.8452424 0.56347525 -0.91148835 1.6749418 0.20450936 0.7714554 1.5817991 1.3554429 -0.12703101
1999 0.027777543 2.3271327 -0.3374517 -3.412364 -0.45263347 -4.0712667 0.8612566 1.9003712 0.8079933 0.12365901 1.9597536 -0.78548324 -0.33810806 3.0477912 1.5123948 -0.13578619
1722 -0.25084043 -1.4857033 -0.09153174 -0.88109815 0.4488783 -0.9218601 -0.5847439 0.7586801 -0.55441856 0.7211568 1.3820797 -1.4386919 0.12050356 1.0563306 1.8110381 1.7010249
2970 -0.8833372 0.7669078 -0.17766 -0.6548154 1.364516 0.57248133 -0.46135718 1.8783729 0.43459553 -2.005867 0.38198557 1.6084188 -0.17989421 1.5191683 0.879273 -0.073625594
1297 0.520735 -0.97373164 -0.81742233 -0.7477284 1.4925112 -0.7196071 -0.7408011 0.4102779 0.12751873 -1.4424714 1.011187 -0.90698695 -1.6651803 1.8883952 -0.26414856 0.2340748
2742 -0.36625507 -0.4690727 0.15722631 -0.5967536 0.9959268 -0.25295424 -0.8696769 1.7324282 0.62517524 -1.6621752 -0.48603275 1.0262176 -0.5005648 0.8975271 1.0655012 0.31467834
1399 -0.33231652 1.3188658 -0.8386672 0.256744 0.48904452 -0.037678543 -1.686145 0.47909325 0.013133736 -0.7302697 -0.14729181 1.4420689 -0.45152593 0.9131532 1.2312561 0.64711356
238 0.28939003 0.37347177 -1.0702808 -0.8985837 0.40501314 -0.73288286 0.021125171 0.7641557 0.8056778 -1.2117454 1.4068662 0.21294126 0.54173744 1.4211198 1.5566906 -0.080019385
412 1.412092 0.93024987 -2.278317 -1.8202993 0.18958443 -1.6038985 1.5212115 0.936809 -0.696185 -2.5245876 3.9446292 0.74233097 -0.37168768 2.3808393 1.2695607 -1.8938991
241 -0.29013276 0.53141373 -2.0858839 -0.3534883 0.72660357 -0.4674381 -0.514088 0.86158955 0.8020599 0.061149277 0.108355805 -0.05462128 -0.34563118 0.2928273 0.38935658 2.1992872
2481 -0.11551005 0.5992987 -1.004319 0.90499043 1.655711 -0.5511156 0.8986023 2.1863506 1.190728 0.87886876 1.2752957 -1.0510098 0.3677049 1.2227362 1.8141527 2.0421073
1384 -0.1559348 0.681445 -0.86182463 0.71284896 1.536242 -0.67204976 0.89618164 2.2518117 1.1825488 0.93022126 1.1730231 -0.97565913 0.13522029 1.2307074 2.018202 2.1965344
229 -0.58901876 -0.50178224 -1.2152145 -1.2886387 -0.6563307 -0.94553536 -2.4397056 0.29496497 0.3429459 -0.9475736 0.99586916 -0.36845252 0.2829794 0.5572051 -0.20832042 1.2220379
28 0.44685328 -1.1419628 -0.77343404 -0.49183458 1.1301464 -0.5847715 -0.9320264 0.08313206 0.2788935 -1.0569912 0.9255903 -0.6962239 -1.744335 1.7040868 -0.05551937 0.26177552
2905 1.4555085 -2.2650845 -2.066485 -3.2908416 1.5884503 -2.98852 1.7005461 -0.021234285 0.56865317 -0.2735361 1.8474388 1.0647249 1.2531029 1.0075327 2.3797474 0.96426684
2084 0.9394082 2.6440864 -0.4869617 0.31136632 0.46088964 -1.5738931 -0.030460764 -0.5645468 0.5143852 -3.0659378 2.892599 2.3538132 -0.44201702 3.2794628 2.053912 -0.9460682
155 -1.1887385 0.76902324 -1.0980277 -0.2362752 0.6056743 -0.2893917 -1.4153168 -1.0522566 -0.123079665 -0.34509337 0.71076614 0.020167839 -0.31968784 1.0331439 0.8251397 1.1471028
236 1.2645195 -0.09041042 -1.8599695 -0.8073495 1.1579679 -1.7236084 -1.8750337 1.2126231 -0.23576267 -1.7172437 -0.7156581 -1.0885624 1.0357774 0.43945783 1.8200973 -1.1322917
1239 -0.81758386 1.0462912 -2.6521993 0.98296463 -0.7625392 0.014064859 -0.82070684 1.954434 0.122100174 -1.6538945 4.1597 0.53312564 1.5721304 2.6539748 0.8614834 -0.60606974
2337 0.32503113 0.16438262 -2.6470504 -0.97150487 0.9747744 -0.70004123 -2.1145175 1.6162941 0.54925233 -0.11900031 0.0822033 0.7725681 -0.5282465 -0.9791108 1.7089695 1.0243076
2264 0.8107535 0.39940295 -0.10773217 -0.28567594 1.1090457 0.15647115 -1.932699 0.15825316 1.1800177 -1.6778303 0.25739652 -0.61817044 -0.4148529 0.6037269 0.1910492 0.48321772
1401 -0.18213652 1.0352364 -0.86254036 -0.98570055 -0.4291735 -0.39927664 -1.5850722 0.9820144 -0.23759124 -0.7245584 0.029003512 0.28980783 -0.8398502 0.5544688 1.07079 1.6621649
2670 -1.3040624 -0.48405647 0.0446749 -0.3998072 0.87305075 0.7531085 -0.37714854 0.65500605 2.3841124 -1.2559768 1.4824296 0.12047153 -0.36578387 0.91990757 1.2471235 1.7830046
425 -0.1922584 0.9308016 -1.5668182 1.147823 1.30153 -2.9036663 -0.7207565 1.584817 -0.9250597 -0.88620806 2.3841088 0.91091317 0.59301007 -0.7733111 1.8773702 1.137787
639 -0.19351506 -1.448675 -1.9006807 -1.2465787 2.6145103 -2.9177437 0.040311515 1.2918696 -0.24092688 -1.9898871 1.2922263 -0.995398 3.6734593 2.1764755 0.066749 0.75567913
347 1.0694891 0.4128712 1.4009545 -3.9837866 0.71586484 -1.4560077 0.0154621545 0.46847352 0.17951971 -1.9624239 2.7095914 -1.0131642 2.514471 2.7623017 1.7673607 -0.93782383
473 -0.65109664 2.175497 -3.3783488 -2.1238666 0.9146348 -1.2883993 0.7307978 1.8891603 0.75068253 0.69353575 1.6736996 3.1095939 0.7562122 2.5120375 1.5189254 -0.56733054
2256 -0.5764046 0.3124619 0.17151178 -0.2579635 2.2565331 -0.61780685 -1.5586137 -0.06440945 0.84422773 -0.84908044 -0.015593605 0.14463612 -0.40814602 0.6558867 0.48636883 0.16681825
1821 0.39898944 -0.9990336 0.21131839 -0.865737 0.481807 -0.5099068 -1.1748446 -0.14613134 0.024937555 -0.2887863 1.727392 0.07341101 -1.2975384 0.54369956 0.7937843 1.0588025
99 -0.07724574 -1.1227452 -0.4379864 -1.2751175 0.94317675 -0.33504757 -0.6669382 0.2822127 -0.92027867 0.010404978 1.3868319 -0.905778 -0.25193444 -0.09793269 1.3488611 1.2632804
1429 0.24417351 -1.0041825 0.4497921 -2.3787477 -0.23585947 -1.164684 -0.80866987 0.8519808 0.9871767 -1.1017246 0.17693768 -0.6916725 -1.4380624 1.6336647 1.4817039 -0.07290135
658 0.7518357 0.49492773 -0.74255985 2.269055 0.6663694 -1.6406702 -0.9102286 -0.37721887 1.7456194 -1.8319163 0.58105147 -0.30720225 2.0075266 3.4442751 2.2137575 -0.026089525
992 0.40482885 -0.10353827 0.84552205 -1.0297555 0.8013843 -0.90977466 -0.8153723 0.36420858 1.3365076 -0.41889733 -0.5840948 -0.61219144 -0.5551679 3.368757 1.1600335 0.4013868
3746 -0.13839549 0.70281804 -0.9495785 0.8747608 1.666174 -0.63325083 0.9479641 2.2095184 0.81434214 0.9110034 1.359737 -0.7672452 0.28872097 1.1914809 2.0075681 2.1538637
358 0.037715744 1.318046 -2.8522587 0.49568617 0.28330564 -1.7527171 -0.47062522 0.9297188 -0.63281024 -0.28605902 1.5823197 -1.0661074 2.1638641 4.2434597 0.21789426 0.79542494
3528 -1.8040698 -0.3862929 -0.45400056 0.20944321 -0.80327094 -2.5872571 0.033098057 2.7816205 2.6313097 -2.015757 1.749326 -1.2363507 2.3879042 2.7140632 1.9496609 -0.6266641
2698 -0.81401163 0.10623231 -0.6321834 -1.1710124 1.3835956 -0.16698048 -1.1914604 -0.33920756 0.22292894 -0.07823127 0.5942496 0.46135157 -1.2146345 0.96574146 0.5802168 1.2935493
2454 -0.3849371 -0.0137006305 -1.7199366 -1.1481246 -0.57380897 -0.8125451 -2.3305585 0.59437966 0.56822646 -0.8893692 1.0858152 0.3726902 -0.49119064 0.7111062 -0.3863793 1.4941784
1681 0.60332745 0.45210305 -1.6962565 -0.3431687 -0.79842883 -0.4141451 -1.1314404 0.050449062 3.2139864 -1.9075294 3.1901934 1.714384 1.9637171 0.0033744746 1.4147304 1.7253946
725 0.46600774 0.1709124 -0.9252087 -0.7825538 1.0319617 -0.93033266 -0.72997224 0.8607977 0.84427845 -0.7329461 1.5193796 -0.013524643 0.53956026 1.1646969 1.6192974 0.46210712
2769 -0.18233976 0.6002423 -1.1562098 -0.361409 1.1423277 0.2382268 -1.9104543 -0.5458294 -0.5078889 -1.1150534 1.0359379 -0.7959513 -0.11371326 0.15281337 0.8750118 -0.24659106
1728 0.0047296286 -0.7337546 0.072035976 0.1503593 0.31955945 0.36508188 -1.9656665 1.1332358 0.10430727 -1.7342724 0.84095275 0.99435514 0.34562725 1.0108002 0.8326216 -0.050922416
711 0.57469416 0.632089 -0.983651 -1.0711606 0.7223999 -1.0462775 0.033573166 0.9131963 0.73597527 -0.9200292 1.3660221 -0.111001216 0.5386188 1.5502266 1.2489038 0.38346002
268 2.1777818 1.7756937 -1.9776644 -0.7656579 0.87814415 0.09245903 -1.070142 0.19434687 -0.9643177 1.1446613 2.5706882 -1.3002838 2.0951097 2.7989256 1.9860501 -0.6079564
147 0.72006106 -0.7333804 -2.564881 -1.246901 0.90501225 -0.78901863 -2.4571397 1.5315329 0.7836944 -0.34474987 0.40806806 0.4533538 -0.62953603 -1.254962 1.8890499 0.8419868
997 2.6734028 0.8702845 -0.6325317 -1.2736028 0.2780368 -0.5021742 -1.7834265 1.6495185 1.3803207 0.7222066 4.1853414 0.6485912 2.1708953 0.5938344 1.3875797 -1.6501114
2436 -0.6069606 -0.04596988 -0.838438 0.66998273 0.9848944 -0.09919033 0.83853185 0.11180128 1.1455792 -0.19276386 1.361527 -1.3019346 0.8709578 0.9918346 2.4988966 2.174543
441 1.9103553 0.4823792 -0.82826763 -0.6061496 0.64978236 -1.2230339 -1.4601811 0.7376267 0.33742926 0.56385237 1.784701 -0.72641397 1.8796234 -0.22714457 1.1542094 -0.86901724
613 0.8063382 3.9266095 -1.1537228 -1.7295629 1.6344249 -0.55319273 1.4840878 2.6030877 1.5706751 -2.629122 0.63487804 -0.6387371 0.5423892 1.8890543 1.7078521 1.6304206
3053 -0.5780932 -1.5200008 -1.8905684 -2.5241725 0.1378189 -0.53936225 1.1357224 0.7351873 0.047919683 -2.3166394 1.4270664 1.3951626 1.6198388 1.0224557 4.814479 -0.728824
2935 -0.23853418 -0.96075296 -2.1814904 0.19953702 1.7148066 0.6128357 -1.4224561 0.976957 0.357043 -0.744784 0.98306906 0.4650271 0.31568134 -0.0851384 0.46629965 -0.27614617
555 0.44549152 -0.17044127 -0.86864436 0.1539008 0.5189849 0.45800918 -2.272583 0.20288719 1.7849443 0.007012155 -0.41324237 -0.2669817 0.917425 0.773606 1.4030998 0.10560303
3485 0.059432406 0.14782654 -3.2767313 0.64695305 0.77285427 -2.1618166 0.6477258 1.7266269 0.4378487 -0.19983202 -0.0092451135 -0.77451473 -0.67137295 0.7164393 2.3496468 1.0481418
172 0.3507388 0.378289 -1.1894943 -0.56321627 0.92259264 -0.97921354 -0.7410535 0.93796563 0.77750945 -0.77166015 1.5342121 -0.07470448 0.46178764 1.2394458 1.4723926 0.36658365
2438 -0.66085553 -0.32039246 -0.39738834 0.6379381 1.942085 -1.117506 0.6849487 0.22991823 2.3116164 -0.31382594 0.7157725 0.08292907 1.551818 0.3826633 3.0047066 1.8252028
1509 -0.21770795 -0.49204066 -1.5580946 -1.1903638 -0.5576542 -0.9206801 -2.3050625 0.06428266 0.34568033 -0.5504186 1.1878979 -0.12630747 -0.16953656 0.3204931 -0.14580017 0.85733
102 1.0263172 2.4988782 -1.8512862 0.4445189 1.1677321 -1.4886849 -0.4322923 0.52971566 -0.07534 -0.32354134 1.3948119 -1.4024996 1.8275236 3.0028403 -0.02291045 0.94935656
3153 0.9611063 -0.9022137 -1.0147554 -0.72440153 0.6718756 -0.031015232 -2.201466 -0.25889236 1.0239353 -0.7867676 0.9972349 -0.28689235 -0.91382354 0.29614767 0.39654085 1.297926
70 0.10328284 -1.1450272 -0.6128747 -0.373897 0.36529014 -1.3546814 -0.95919573 -1.0815672 0.7023967 -0.029593075 0.8223661 1.1379527 -0.89253515 1.297793 1.3444376 0.23590523
2850 -0.59979194 -0.60548264 -0.29292122 0.21314572 1.8385749 0.31439638 -1.31394 2.0949492 -0.2973527 -0.22359045 0.4810476 0.19233151 0.5372078 0.60658497 1.8768272 -0.48429966
3253 2.3196297 1.5827203 -0.64095765 -0.14898284 1.1401086 -0.12918213 -0.9772562 -0.14217043 -0.35919917 0.2278821 1.3662606 -0.39214823 0.055526383 1.1941568 1.6429073 2.6425219
79 0.22760269 0.44741732 -0.5177225 2.444846 1.3630886 -1.654848 -0.84566146 -0.48121786 1.8875377 -2.0390122 0.5533962 -0.23961307 1.4934583 2.9062724 1.9728246 0.18682006
373 1.5059675 0.32447276 -3.5250878 -1.7505614 2.433611 -2.9635417 0.20911725 -1.5564867 1.0105302 -1.3074532 3.0051875 -0.24102548 0.08355863 0.15044187 1.3203247 -1.4685556
3206 0.7673717 -1.0989882 -0.91681975 -0.7364022 0.48160535 -0.25278395 -1.8154782 -0.4580734 0.67277515 -0.44185513 1.2177393 -0.2930519 -1.1451067 0.313946 0.70472795 1.1558
3601 0.25538197 0.3471232 -1.2565571 -0.74034613 0.7083925 -0.93473816 -0.34574658 0.9472143 0.85802233 -0.7889823 1.3727027 -0.020537445 0.40616718 1.4187974 1.29584 0.3755786
1198 0.32259232 0.867367 -1.104606 0.9276578 1.2216702 0.095384754 1.2864956 1.6761729 1.2441571 -0.09563481 1.8042685 -0.840111 0.77639234 0.5714447 1.8982998 2.0651665
1712 -0.056652747 0.7559938 -2.0248206 -1.8436239 -0.56336933 -0.68760264 -1.0702603 2.3250766 -0.051280156 1.9832017 4.1825647 1.2761745 0.5425474 2.9660096 0.82424366 -0.037513547
1368 -0.72901285 -0.4459389 -0.77832997 0.23449509 1.8641719 0.7253396 -1.2490896 1.9462492 0.41782188 -1.2260321 1.6845515 0.27825782 -0.26947588 0.2573747 0.40739423 -0.4967123
2310 -0.48247778 -0.48053497 1.1586049 -0.41109654 0.70594066 -1.2391598 -2.00535 -0.08700886 0.0076400437 0.16157618 1.0763693 -1.0450735 0.34301427 1.0680726 2.146892 1.689617
2255 1.2159774 -0.52009624 -0.41220033 -0.19756469 1.2128555 0.7892415 -2.096675 0.42233002 0.850078 -1.6880417 0.5682111 -0.45420608 -0.3299903 0.7439642 0.45515 0.50350934
326 2.397772 1.8160762 -0.582815 0.04568912 1.9116788 -0.22236064 -0.6880914 0.056287788 0.22161378 0.4951005 1.4457557 -0.80431724 0.19162287 1.4514928 0.8507783 1.922773
1485 -0.89547676 0.74896455 0.016202807 -0.7630633 1.273058 0.3815807 -1.676351 0.76274985 0.24079825 -0.3902311 1.0079635 -0.7816417 -0.4494035 -0.32529747 1.362147 1.0653111
225 -0.634356 -0.024957757 0.684704 -0.15466003 0.9492465 -0.101335116 -1.2343962 -0.44398475 -0.9181776 -1.4057246 1.3934191 -0.5747824 0.7245456 1.9018135 0.6768017 0.8181561
532 0.21963988 1.7030625 -2.6280732 0.56991845 0.75486827 -1.807458 -0.31777436 0.5606658 -0.53685117 -0.31516486 1.5418302 -1.3678076 2.156297 3.6677856 0.2675615 0.7237018
196 0.00045268828 -0.7595186 0.41668448 -0.4327419 0.47264364 -1.1094518 -1.1113164 -0.4403542 1.256986 0.6745292 1.9523957 1.3782933 -0.6463352 1.2527738 1.2073369 0.14666766
2344 0.4507589 0.6807809 -0.86972815 -0.33309352 0.8086046 -4.039871 -0.5755291 -2.0282369 1.0154393 -1.640152 2.2783196 0.18414228 2.6024537 0.72812384 2.189052 2.0638897
1750 0.7299862 0.021451717 -0.17641564 -0.28931847 3.7490578 -2.2082684 1.227595 1.002203 0.030713154 -0.028185638 0.90242296 -0.49543828 0.98819345 0.1772661 2.991024 0.70855904
3669 -1.0845717 -0.0060011344 -0.94220424 -0.7112757 1.5622896 -3.4689841 0.90795666 -0.600676 0.20718221 -2.6416376 1.7572342 -1.8218194 0.24078098 0.85415894 3.5891569 -0.6622286
1596 -0.75433445 -0.6690215 -2.9517035 -0.23838083 1.36178 -3.004291 1.2455987 2.199169 1.2841512 -1.2291548 1.4510059 1.0706316 3.1564655 0.60681105 2.101647 -0.68826157
566 1.6828815 -0.91515195 -0.038143825 -1.961358 1.7967349 -0.56085986 0.39891875 1.9338757 2.178664 -0.36867115 1.0078151 -2.0130184 1.2741519 0.61201936 1.9324045 2.8198242
497 2.1108978 1.9575287 -1.6348505 1.1830046 0.37838623 -1.302748 -0.9335245 -0.34015447 0.121431254 -0.49310735 3.2919216 -0.78130436 1.3382655 1.9195992 0.5623972 0.41506395
1974 -1.3359452 1.297718 -1.2663378 -0.6778646 2.3642952 -0.8446927 -0.8316248 -0.71206784 1.3011111 -1.6197659 1.2923245 1.2249249 -0.17687568 1.1620182 -0.18362892 1.2927905
2095 -1.6470429 1.7529039 -1.4666036 -1.0565729 0.68124926 -0.9360671 -1.0036409 0.76921064 0.0052590324 0.111524634 0.37921932 -1.013238 -1.1237367 1.4357624 1.1964957 0.42132893
1124 -0.48037845 -0.9681942 -0.08386563 -0.2198255 0.647069 -2.2716215 -1.5020015 -0.34905568 0.8719184 1.0254368 0.5947654 0.8190977 -0.09937741 1.0361346 1.6609766 0.3834949
873 1.719966 1.6756098 -1.3064055 -0.63047194 1.6876281 -0.7702391 -1.0927434 0.44329137 -0.4931291 -0.23018838 1.2959547 -1.5981127 1.838479 0.8823233 0.7928824 -0.68640476
850 0.83725506 -0.4505706 -0.57506317 -0.018841479 -0.33240774 -0.45062688 -0.40907302 0.8607706 1.0014124 -0.11704725 0.64422894 0.60068804 -2.3241334 1.4034399 2.4210536 1.219253
3314 -1.1769562 0.91211915 -2.933481 0.18085927 -0.5237397 -3.9132783 0.20336728 -0.29093614 0.5380843 -2.1859815 3.306885 -0.0736972 1.1497853 1.5095443 1.0967969 -0.23308004
595 -0.7351209 1.2266439 -3.294748 0.4442357 0.64784575 -2.2137568 -0.046012804 0.54968745 0.32584375 -0.48554915 0.9875839 -1.1866335 2.05763 3.7174013 0.55886257 0.29763925
3707 0.21518254 1.0877328 -0.9564849 1.0078745 1.128391 -2.5843484 -0.26866037 0.97904265 0.9324498 -1.6664535 3.2511501 1.1487207 -0.22103064 -1.188298 2.965157 -0.643842
274 -1.3600277 0.038952824 -1.7929114 -2.2034466 1.2524636 -0.5369485 -0.6271689 0.6953426 0.6501828 -0.35946995 2.8526042 0.37694928 2.9130807 -0.57700306 1.9817154 -0.93453485
2295 0.7603618 -0.78211045 -1.4978939 -0.14832678 0.4003512 -0.39510196 -1.2332635 -0.49700627 1.4434997 1.1407241 0.8436988 1.5839975 0.34846684 1.0876788 0.94265205 0.21152142
1555 -0.81944364 -0.7584123 -3.0278666 -0.17774874 1.2571083 -3.0589504 1.1667476 2.2259917 1.3389168 -1.2828012 1.4373369 1.1040757 3.217041 0.54277486 2.127994 -0.7723937
3616 -0.51217926 -0.5622715 -0.36547625 0.2590112 1.7033606 0.4769088 -1.2127264 2.2458372 -0.18202725 -0.2881693 0.39991546 0.14428473 0.4327939 0.8016334 1.6764771 -0.46099994
2331 0.2052229 0.76551807 -0.68276787 0.5987692 1.0877552 -2.7466445 -0.22597316 1.0662553 0.50772977 -1.5057673 3.1360831 1.0777645 0.033032134 -1.1395531 2.7357938 -0.7419307
163 0.04848883 0.13622472 -1.4779893 0.54961675 0.4166887 -0.9567528 -1.3461763 0.96895266 1.4234276 0.10163652 1.8982192 -1.3290231 -0.8870423 -0.29547456 0.4444081 0.3404298
20 -0.32354352 -1.3851999 0.10859346 -0.7954233 0.6067119 -0.6858228 -0.7187034 0.6154343 -0.46145588 0.6096903 0.96392745 -1.1344775 0.20304778 0.9653141 1.5416573 1.8271085
375 -1.7645195 1.7374371 -1.8818495 1.036166 1.9157883 -1.2011522 -0.8535686 2.1238286 1.4842024 -0.19773237 1.4424925 -0.6124268 1.267598 0.3601016 2.0753107 -1.3544296
1909 1.6847607 0.3904247 0.12669106 -0.2024976 1.371766 0.07527397 0.32765332 1.9566003 0.48937705 0.23499426 0.21600172 -0.8968397 0.7061747 0.5187832 2.816269 1.1449316
1047 -1.0179161 0.46259362 -3.5351198 -1.7024542 0.6691135 -1.8287112 0.5166198 1.3261043 3.20975 0.2648622 0.93193144 0.47929046 -0.276232 0.15688148 1.3463439 1.3524202
379 1.574123 0.6169466 -2.8379118 -1.6532856 0.054911952 -2.9197547 1.7908897 1.5409433 -0.5358825 -1.4003601 2.8469617 -0.113737844 1.9222215 0.5146331 1.244934 1.4993944
1919 -0.3010188 0.7575554 0.12660438 2.0928624 1.3722575 -0.8911492 -1.1726912 0.31518131 1.0313054 -1.6602714 0.4698387 -0.054861143 0.79233813 2.1049247 1.1106819 0.6391538
1986 -1.3011539 0.7773131 0.10081391 -0.2751714 -0.24012488 -0.3163812 -0.90816444 0.18538332 1.5418717 -1.2306875 0.527299 -0.90306306 -0.76877576 0.56162375 1.5390245 1.0020903
1533 1.1302264 -0.44917256 1.1457998 -0.75173116 0.43832514 -0.9425283 -0.8825733 -0.56825274 1.1608164 -0.3073654 0.36261156 1.2911403 -0.14776574 2.145182 1.6912677 0.26760766
3640 0.8494825 -0.70712584 -2.0900543 1.0958784 1.5866494 0.640862 0.2585194 1.5871426 0.68851954 0.64317745 4.0548806 0.47447452 0.33248946 4.0027375 0.57261485 0.5284632
2057 0.78652984 0.6519014 -0.24410056 -0.025463426 1.4591695 -0.8903096 -2.7659342 0.6491706 -0.8482896 -1.0570408 1.259843 1.5230036 1.1838319 1.4392886 0.24319509 -0.44359058
1125 0.8186113 0.08598278 -0.15847597 -0.61327475 3.2823212 -1.4315764 1.0430597 0.88332087 0.3606002 -0.041340005 0.32463625 -0.61840844 0.87164825 0.053418253 2.974093 1.0930854
217 0.34750128 -0.63442457 0.22775781 -0.30213222 1.3475267 0.26262614 -2.2012503 1.4110078 0.062125027 -0.57264996 0.48742533 0.90379536 0.59335196 0.864152 0.403589 0.71865064
966 -1.1425736 0.9617501 -2.938856 0.15635143 -0.5539885 -3.8579514 0.18219525 -0.30178368 0.56141174 -2.1576903 3.2868307 -0.021655358 1.1447843 1.4886041 1.0945048 -0.20074299
1777 0.3192281 1.9549237 -0.64155513 -0.17291185 0.9305016 -0.44281203 -1.4981809 0.41033274 0.28876844 0.40213716 1.4367496 -0.37319136 -1.9328994 1.7025506 1.043938 -0.13377966
3822 1.158894 1.8382196 -2.955518 -1.4640203 -0.85906076 -0.010925742 0.70847493 2.6523678 1.8257109 -1.0588292 1.2264334 -1.013736 3.1502717 2.171346 1.5342108 0.9516876
16 0.2199429 -0.73693883 -0.3321076 -0.38650516 0.34615973 -1.1560223 -0.8526381 -1.0392582 0.8778202 0.34370163 1.050263 1.667675 -0.35152978 1.8149369 1.1358064 0.45585468
731 1.5061961 -0.33452094 -0.018387564 0.31975278 -0.32959655 -2.8758662 -2.479003 0.63862646 1.3148285 0.9003715 1.0314093 -1.3800315 1.1189913 1.104384 2.0051055 1.1622865
2413 1.9764326 0.6164996 -0.40106437 -0.8188925 2.030352 -0.71634 0.087683335 1.0356878 2.529265 -1.2899954 1.752262 0.54600203 3.199306 1.9266931 -0.15181841 1.9365987
1905 1.6818526 0.4719548 0.12698735 -0.07612367 1.4399807 -0.12509474 0.3749715 1.8441874 0.40159854 0.12217583 0.3817936 -0.8755794 0.8234696 0.2935951 2.7670698 1.1456387
2114 1.781711 -0.808726 -1.3167865 -0.5011362 -0.4952068 -1.9010174 -2.073921 1.4952549 0.3049821 0.08857302 0.63550305 -0.20029312 1.4511787 0.25438628 1.405388 -0.35200828
596 -0.7606356 1.2744886 -3.2138982 0.2514536 0.6451413 -2.150649 0.018563649 0.53111243 0.37461898 -0.50155705 0.94763774 -1.0765473 2.1499033 3.6671133 0.32735717 0.4301984
1901 0.732865 -0.7747129 -0.32252565 -0.29657272 0.29539075 -0.35922733 -1.2364378 -0.6526294 0.03954416 -0.95274645 1.6850723 0.07823577 -1.5958229 0.46215793 1.3863459 0.44427794
2162 -1.1157722 -0.08749517 -0.9307909 -0.79044414 1.5551823 -3.4247017 0.8760968 -0.5599194 0.22039957 -2.603674 1.7052348 -1.7898711 0.26646817 0.79623485 3.55473 -0.6713013
1743 -1.2927681 -0.58598363 -0.4202959 0.75714564 0.59856105 0.7008212 -0.69253033 1.2315083 1.6250958 -0.34743455 0.3422894 -0.34121424 0.57642233 1.5034577 1.9611478 1.3247423
863 2.622921 0.63035035 -0.8662159 -1.0255939 0.50044507 -0.7150609 -1.9717942 1.385887 1.2226491 0.7727374 3.3379865 0.06203225 2.0113633 0.5429672 1.2541659 -1.6652365
2273 0.6383055 -0.88438725 -1.3692294 -0.11907173 0.71659696 -0.85733044 -0.30256787 0.7486988 0.11481543 0.18740551 0.40929544 -1.8101392 1.0848606 0.9530337 1.6065941 2.5207734
1232 1.6101977 -0.6116564 0.8050638 0.34597045 0.2047775 -1.5843745 -0.31312075 0.45987552 -0.48862657 0.08860722 2.15057 2.0938497 0.36241198 2.7774396 2.4414759 0.86241794
1508 0.3527049 -1.1257436 0.6371255 0.2680232 1.1320703 -1.0414947 -1.1528915 -0.35506022 1.4875928 0.7564724 2.2107525 0.9609712 -0.3460861 1.4974551 1.1593214 0.27245912
1212 1.9509743 0.61854327 -0.38890266 -0.79434776 1.9689152 -0.71280265 0.09673152 1.0925627 2.5504718 -1.3005822 1.7453676 0.5697869 3.1568425 1.8995594 -0.17657289 1.9590355
2183 1.2392924 1.6606323 -1.2245309 -0.909132 -0.38098738 -0.8643339 -0.5822002 -0.05662396 0.27593935 -2.149481 1.4145826 2.7830398 2.0002928 0.09705892 4.4069166 1.9645572
540 1.8996366 2.0207567 -1.9108523 1.5906115 -0.023129521 -1.807227 -1.3468788 -0.60900354 -0.4463775 -0.6227412 3.5908475 -0.5886342 1.4950708 1.9113592 1.4056818 0.89590716
209 0.17541414 1.2866672 -1.7701281 -2.1009433 2.4245303 -0.91709304 0.0943566 1.1885808 0.5602292 0.46659288 2.9330707 -0.096373625 2.1073256 -0.5497189 0.8206193 -0.6790041
2189 0.48816696 -0.76586795 -1.382287 -0.41546485 0.7463089 -0.78813934 -0.33185616 0.8002126 0.051052514 0.15343133 0.21155827 -1.6325719 1.1829866 0.8373785 1.7981416 2.7832963
1357 1.1577046 1.6240425 0.3215968 -1.0001023 1.8850207 -0.82818985 -1.8275042 0.17069325 0.26822174 -1.6974157 0.23404555 -0.17020147 0.1662921 0.5846433 0.3050333 0.3033973
1386 0.32813925 0.22844785 -1.212237 -2.0320406 -1.1263286 -1.0271754 -0.08120227 1.6714007 2.989984 -4.1372495 1.7101694 -0.7717491 2.2713456 1.0113282 1.073185 1.2597021
467 0.85097337 -0.11977198 -1.0785145 0.7033097 0.06551625 -1.9453006 -0.9437591 0.7821043 0.29248703 0.50420624 0.12413535 -1.4993585 1.07269 1.5760126 1.8430709 2.3884428
2837 -1.6429684 -1.0149069 -2.9252658 -0.25888184 -0.7810004 -0.8615426 -1.0077178 1.4404539 0.4576008 0.1927967 2.5197113 -1.3627928 0.005282888 -0.008993588 2.8691332 0.8217107
1949 -0.68212134 0.44499135 -1.1860162 1.2569177 0.7285137 -0.8005711 0.79104084 0.2554674 1.2385334 -0.51810783 1.4508909 -1.7271402 1.950931 0.9858666 3.1646478 1.4005195
2631 -0.7030118 0.82440305 -1.7400619 -0.53971606 0.25332245 -0.5596063 -1.7833834 1.5260222 0.44985873 0.41749313 0.057804514 0.7513171 -0.44660053 0.022145847 1.2414263 1.251058
1353 -0.4909071 1.0243996 -0.09472683 -1.4664443 0.18904139 -1.3309479 -1.1841546 -0.39594588 0.6744898 -0.7577149 0.78158116 -0.88677484 -1.2439044 0.10542978 1.1331828 0.8382891
1418 -1.8857874 1.0151879 -0.91266537 -1.6323034 1.6804863 -0.045679275 0.2200706 0.8073356 0.25866973 -1.0580512 1.5119729 -0.9754176 -0.8379159 3.254142 0.16021591 0.7442221
623 0.30910206 0.2415519 -2.3732061 -0.33170652 0.18811868 -0.99379253 -1.4213787 1.2481098 1.5427191 0.8120344 -0.13317107 0.4856577 0.43455803 -0.1288766 1.1451321 1.4188298
3054 1.4701637 -0.5154146 -3.1698453 -1.7368553 -0.6622089 -0.099998705 0.36526853 0.31809342 1.1900799 -1.1131331 3.0365343 -1.4663901 2.175309 2.8738744 1.2004948 -1.4990622
2202 1.6674156 0.36964574 0.11251205 -0.20198378 1.3221408 -0.025520032 0.44263244 1.7923816 0.37938276 0.1895864 0.30999586 -0.75968 0.7434711 0.36070654 2.735614 1.2023019
2710 -0.8839339 0.24833499 -1.3602808 -0.11804722 0.9092744 -0.8714177 -1.398673 -1.101865 -0.06775547 0.058257367 0.5095768 0.14429247 -0.7032017 1.3076154 0.76099014 1.1631185
1010 0.1843467 -0.54748553 -0.9847455 -0.08546433 0.11012978 -1.0586879 -0.3024422 -0.9512274 1.5296487 0.6238803 1.5361164 1.5927725 0.081336446 2.143068 1.0943788 -0.43016696
2473 -0.14443952 1.3091961 -1.5006505 0.6408435 2.055338 -0.29740715 -0.8520051 3.3649116 0.12828 -1.515204 1.0221144 0.5813184 0.9275436 -0.112354755 2.326599 -1.3894792
200 -1.4158607 2.2097902 -1.4882108 -0.6692174 1.1173774 -0.75338155 -1.091515 0.37888706 -0.24640338 -0.13274927 3.2986183 2.472686 1.0883482 1.9043946 0.33517146 1.7391535
1982 0.0880689 0.19076715 0.17192544 -0.8019695 1.1321322 0.72465926 -1.8998442 -0.001044839 1.8813936 -1.3883729 0.45314178 -0.69613326 0.90132475 0.053309586 1.6387595 -0.10290367
669 -1.6367764 -0.22452389 -1.6868682 -0.9565849 1.8534786 -3.6681705 0.5817308 -0.09090016 0.86298764 -1.6188668 0.5502567 -1.705002 -0.04061917 0.8993094 3.6948152 -1.1293384
2951 0.9111132 0.9738989 0.5419162 -0.07074723 1.2667475 0.69281685 -2.020837 1.202464 0.4844001 0.07788092 0.65793097 0.08864256 0.16618179 0.2568817 1.6157329 1.147508
2005 0.5455714 -0.57977337 0.35075745 0.075192675 0.48890942 0.50005776 -1.9717212 0.9195553 0.46623835 -0.90221065 0.7477935 1.6589898 0.1526688 0.85600996 1.0829513 -0.062021837
194 0.57185644 -0.6892632 -0.34390998 -0.6268099 -0.0155695295 -0.5058528 -1.4695586 -0.38375258 -0.05171996 -0.69840705 1.3389448 0.024285462 -1.5974257 0.64604676 1.1612033 0.67353696
1926 -0.646425 0.8866734 0.6816373 0.83337235 1.7133363 -0.0028049417 -0.9027196 0.4666503 -0.26522624 -1.6534104 0.74533385 -0.13338865 0.75992775 1.7596066 0.7120851 0.8685152
2992 -0.592781 -0.42836875 -1.1962868 -4.4335384 0.6528517 -1.3856486 -1.3354871 1.2548223 -0.6807518 0.38233998 0.82171607 0.028691988 0.09137857 2.9320035 0.8250726 0.03861508
48 0.8109125 0.20767266 -0.32413188 -0.31528103 0.69375646 1.0437734 -1.3807237 0.27442697 0.3963371 -1.8572901 0.28847563 0.15279877 -0.9674335 1.2315614 2.0047245 -0.38364235
1014 0.8153873 -0.71371067 0.061105378 -0.14912225 0.04783338 -0.45056137 -0.9676703 -0.14193363 0.54558986 -0.06372687 0.83144957 0.56901985 -1.6388985 0.9782113 1.4034383 0.86816585
1180 0.15783516 1.3907816 0.0029850681 -0.8170747 0.6741074 0.86796147 -1.9430397 0.60206884 2.2837477 -1.4196692 0.43632245 -0.6924879 1.5233136 1.7718767 0.7949042 -0.15468194
1358 -0.73769116 0.27850005 1.1356708 0.66413337 0.730657 -1.7515249 -2.313307 0.11328158 0.2945125 -0.25069323 1.0203484 -1.2680489 0.2492644 0.858276 2.1124692 1.2408894
60 1.5709003 0.50695705 -0.01619247 -0.16141537 1.4886601 -0.042000763 0.2983414 1.9865463 0.3470299 0.12733877 0.32542953 -0.9862374 0.7116105 0.1777308 2.9803689 1.1944728
2444 -0.84162366 -0.26770344 -0.8439927 0.28130877 0.6272753 0.857659 0.1044172 0.5163766 0.94496304 -0.38537738 0.40708104 -1.0011578 0.41769055 1.433228 2.3317127 1.9595319
755 -0.5810981 -0.51071054 -1.0973223 -4.4747663 0.6956842 -1.1279483 -1.2839475 1.1239909 -0.41918635 0.37625986 0.97056603 -0.05453702 0.082300454 2.7449975 0.8734136 -0.12750368
3159 0.9992167 0.1409812 -0.08695106 -0.53186846 0.8700201 1.0962797 -1.3288649 0.33951056 0.26174504 -2.0867918 0.5158335 0.044896506 -1.0120622 1.2547729 1.9941978 -0.47309604
2392 0.4051108 0.7315268 0.5334921 -2.1409216 1.4348028 -3.2408962 -1.9838307 -0.4232886 2.548438 -1.6731774 0.2301062 1.7241645 1.9629662 0.38480812 2.0527928 -0.08242045
3687 1.0007418 -0.06259948 -1.564378 0.9961153 1.8344406 -2.0502133 -0.078871325 0.8414689 1.5219511 -0.16896787 0.0046066483 0.12710312 0.0111428555 -0.24252509 2.3385887 2.0070922
680 -0.1631642 0.053964555 -1.8164296 -1.8799613 2.1537035 -0.6825842 -0.35827124 1.0292586 0.005736406 1.0719455 2.9282968 -0.00330412 2.4491465 0.16060184 0.8642403 -0.690974
1394 0.71304584 0.95677185 0.18700333 -0.24912474 1.6167853 -1.3569597 -2.2038696 0.18936005 -0.72485846 -1.0183462 1.351446 1.5137026 1.4208964 1.6966363 -0.0012198455 -0.1123975
1935 -0.31459913 0.35966668 0.116953805 -0.07658151 0.58201814 0.54937005 -2.2633061 1.521265 1.1177812 -0.8005237 1.7439238 -0.057974946 -0.23391746 -0.05842525 0.44501382 -0.08101901
1169 -0.045851134 -0.25607565 0.52783054 0.60397375 0.6099977 -2.5360746 -2.1708527 -0.01724053 0.8518304 0.8307867 0.6790427 -0.38236776 0.80137306 1.267199 1.4304093 1.0695093
2217 1.5695852 0.35896352 0.5065632 0.46435344 2.1069818 -0.54393077 -0.25600532 1.3881814 1.478398 0.48179275 0.8312976 -1.3831072 0.7255582 0.31484422 2.3571663 1.1671319
