4057 16
1015 -0.947673 -1.6941996 0.4918101 0.48617938 1.0563812 0.056961335 -0.48423287 0.82137334 -0.048788067 0.42046726 -0.5379753 -0.33490536 0.10339523 0.20574874 -0.21563697 -1.2023754
2300 -1.40758 -0.17861283 0.032732625 0.022464642 1.8776375 -0.56984514 0.8443636 -0.018560093 0.26085526 -0.5034452 0.19057022 -0.88945246 -0.33755288 -0.2791179 -0.009775171 -1.0087621
193 -1.4927217 0.12904729 -0.2550374 0.824598 0.77260625 0.6049261 0.05787878 0.15970528 0.8156936 -0.864322 -0.37962338 -1.3769319 -0.3715588 -0.049956392 -0.16890737 -1.0103966
324 -0.19661045 -1.9806541 0.17824773 0.14160407 -0.034241 0.17367795 0.65027773 0.9830944 -0.9686647 -0.12146328 -0.49369195 -1.5060903 -0.27477637 0.23913847 -0.4469468 -1.2650127
1560 0.00901511 -1.3185072 -0.06991371 0.49377957 0.3849237 0.32857382 -0.11975883 0.73274493 -0.6905502 -0.25735873 -1.2562721 -1.4977503 -1.121418 0.45708975 -0.86523855 -1.2915823
414 -0.8402969 -0.28025252 0.0765378 0.5127111 1.8155392 0.999878 1.494893 -0.97711104 -1.4399611 -0.23913956 -0.6253999 0.0329621 0.18233468 -0.47100002 0.23561664 -0.97409976
1013 -0.6466062 -0.6183406 0.19956182 -0.860891 1.4788947 -0.257713 -0.079171136 0.6575342 0.41143483 -1.5351306 -0.23734692 -0.30813572 -1.1026859 -0.4576703 0.16107558 -0.4994365
2101 -0.9992465 -0.87981194 0.14325689 0.59535116 0.8867544 0.5335092 -1.2792841 0.23023309 0.67831093 -1.0844368 0.27978724 -0.4888489 -0.14009455 -0.7478138 0.4480099 -0.9165492
1523 -1.7896637 -0.1058723 -0.80602676 0.5511033 0.63961726 0.7812421 -0.5002716 0.97807497 0.8089817 -0.6478535 -0.7750582 -0.21090809 -0.51806295 -0.93658316 0.41649172 -1.2859713
2235 -0.8428496 -0.5894641 0.002599925 -0.07610314 0.21030651 1.2611085 0.2699984 0.7418449 0.86219555 -1.5175284 -0.44446665 0.14021587 -0.46310294 -1.047895 0.058462333 -1.3022485
1363 -0.8126372 -1.3113897 0.7553967 -0.100782834 0.5317692 0.035829403 0.05788003 -0.3014558 0.3326728 -1.0902394 -0.6617543 -0.043894805 -1.5743989 0.56352884 0.18052058 -1.1215427
123 -0.39952835 -1.5300725 1.1137015 -0.421207 1.1031104 0.041617375 0.098585606 0.7772419 -0.13047029 -0.50423574 -1.0101238 -0.35697812 0.2038006 0.713508 -0.03362387 -0.82391584
1493 0.4350023 -1.4134492 1.480199 -0.24902697 1.324974 0.84787726 -0.10569189 -0.13802423 -0.13241386 -0.07932479 -1.6787382 -0.2929895 0.5308821 -0.24528335 0.658455 -0.5798352
527 -0.67208993 0.043505535 -0.5945678 -0.28143328 0.98861057 1.1201985 1.2724231 0.66018736 -0.56109655 -0.9015927 -2.5488842 -0.43748727 0.464723 -0.40005705 0.4925169 -0.12746026
974 -0.009591302 -1.8360457 0.4743163 -0.06839378 1.0495139 0.1144912 0.36394188 0.28125405 0.009014708 0.50801766 0.0042004082 -0.696066 -0.44527367 -0.16403271 0.39405817 -1.7699672
550 -0.3686347 -1.0603843 0.95001435 -0.47972575 1.1795245 0.16246426 -0.20844188 0.74570185 -0.16995743 -0.44127548 -0.27113008 0.2528207 0.49319777 -0.05378568 -0.3364675 -2.1406898
1404 -1.176848 -0.3491323 1.421819 0.9974339 0.6973953 0.87896055 -0.51951826 0.003038614 0.51907736 -0.6124839 -0.1742635 -1.211158 -0.75928915 -0.7832694 0.39954278 -1.1733507
1362 -0.6759996 -1.5075645 0.47220194 0.09396439 0.45399526 0.15828131 0.15411033 0.63740003 0.6142849 -0.2525598 -0.99396545 -0.94094163 -0.6022266 0.67082316 -0.31941873 -0.9759879
2003 -0.74267536 0.12051063 0.60635215 0.62411606 0.9899585 0.6293212 -0.8786007 0.15730272 0.4079457 -1.2948033 -0.24772808 -1.3498127 -1.0229286 -0.54412735 0.4443578 -1.2715701
1437 -0.6190201 -1.8918068 0.44571003 -0.50774646 1.0465419 0.37829265 0.46010646 0.69888294 0.455918 -0.2702755 -0.25232497 -0.5920171 -0.03687888 0.554138 0.026932884 -1.2930307
1816 0.10073871 -1.0605726 0.1557039 -0.100030325 -0.17670077 0.31803992 0.3420572 0.9163605 -1.3452477 0.1968816 -1.0052719 -1.5709678 -0.7770491 0.010398606 -0.6592868 -2.261187
2179 -1.5412041 -0.9925096 0.7826774 -0.94965714 1.0678898 -0.08676591 0.41316235 0.76711565 -0.07148586 -0.8290794 0.28207314 0.2617298 -0.1762906 -0.95502156 -1.0483243 -0.6582264
970 -1.2477196 -0.35096848 -0.015117709 -0.23799042 0.84129006 -0.06183755 -1.1726474 0.7976165 1.1889178 -1.1471708 -0.78489596 -0.3722278 0.4021662 -0.6653093 0.6950704 -0.7530984
2410 -1.172415 -1.7153302 0.31780645 0.15613514 0.99820834 -0.7423242 1.0519003 -0.14017944 0.7702866 -0.43669918 -0.17661157 -0.26984012 -0.11793083 -0.4163486 -0.012235788 -1.1279199
792 -1.090124 -1.0002049 -0.5864424 0.25861546 0.7005366 0.59863263 -0.36015424 0.06817855 1.3134781 -1.5580093 0.21356063 -1.1805378 0.26896676 -0.5333616 0.17911184 -0.67021614
1042 -0.2154977 -1.3736593 0.11708081 -0.4666776 0.03612818 -0.11057181 0.2778273 0.093106724 -0.09282513 -0.72127926 -0.0694309 -0.7315625 -0.8605539 0.641156 1.1058084 -1.7766905
1803 0.027214644 -1.0942686 -0.44650245 0.64751345 0.78951263 1.1022596 0.7983332 0.41426703 0.1308049 -0.44680345 -2.4099824 -0.7165598 1.2980788 -0.9492922 -0.014385968 -0.43409374
2067 -0.48378554 -2.259646 0.007517526 0.02807339 1.7096082 -0.6206965 0.35596472 0.5543251 0.043685332 0.22283424 -0.6383809 -0.111152 -0.75261974 -0.6834136 0.21776132 -0.93601733
1396 -0.98674405 -1.7691329 -0.019211164 0.48131287 0.4919873 0.11466506 -0.71101993 -1.0216019 0.8299215 -0.99923414 0.13843894 0.08706835 -0.61269027 -0.27281478 -0.09777654 -1.3587037
1360 -0.64338756 -0.584499 -0.45672753 -1.4389783 0.6939586 0.46659836 -1.0393835 0.45836636 1.1665918 -1.0089319 -0.6026978 -0.85203207 -1.1591536 -0.7431165 0.29262742 -0.49602786
2298 -1.0378243 -0.29506075 0.39998522 0.411385 1.3900228 1.6468725 1.6215287 -0.34052446 -1.4350189 -1.0802858 -1.8758038 -0.53845614 0.80987537 -0.7715661 0.0030676208 0.26072326
318 -0.87196237 0.7699469 -0.14754689 0.100823335 0.29783815 -0.6913584 -0.06388809 -0.798648 -1.0621047 -1.4453199 -2.5254662 0.3853604 0.032590777 -1.2394823 -0.9570085 -1.3657942
1475 -0.7001712 -1.7089679 -0.20561546 -0.13371965 1.9241757 -0.76707304 0.019871606 0.66465765 0.002345702 -0.58227843 -0.025236664 -0.27357247 -0.98699576 -1.5245824 -0.14199631 -0.48878372
2048 -1.3415425 -1.4387558 0.25816414 -0.10918883 1.2862561 -1.0340753 0.6995417 -0.21746513 0.20071134 -0.77378273 0.47284335 -0.19480738 -0.39980197 -1.1399897 -0.5846222 -0.8283329
42 0.26373222 -0.47070828 0.9187385 -0.36191157 1.8409003 0.36340114 0.21282047 0.48573637 -0.46052215 -0.69975954 -0.5995153 0.30752608 -0.050834004 -1.2520221 -0.82435596 -1.8767211
2286 -1.2485772 0.24717808 0.6585355 0.1693088 0.58176047 0.41706142 0.13224328 0.17873773 0.2897859 -1.248521 -0.7500826 -0.98909026 -1.086816 0.53068227 0.92911357 -1.0828501
2163 -0.720119 -0.2282566 -0.058390938 -0.7542949 0.77236074 0.15927775 -1.5869105 0.36337858 1.2631986 -0.94889176 -0.69539964 -0.41727716 -0.09636053 -0.9850325 0.22954457 -0.8607646
2435 -0.4124658 0.13910371 0.5529377 0.45083517 0.6240604 0.83602875 -0.18552786 0.43656787 0.020933734 -1.4620972 -0.7040895 -1.3456967 -1.1449437 -0.106903866 1.2765241 -1.5512652
1428 -1.1659257 -0.3408877 -0.5762997 -0.6103175 0.7014734 0.9228301 -0.56458926 0.16703616 1.750502 -0.7053572 -0.42896575 -0.48517907 -0.07287102 -1.0455312 0.16189851 -1.1436114
2323 -0.47815892 -1.5014236 -0.18679814 -0.72432786 0.4573134 0.030027112 0.08627442 0.6761102 0.6166487 -0.83742696 -0.43210146 -1.0778826 -0.512303 0.77245384 0.95839864 -1.2577678
197 -0.2907065 -1.3504313 0.120763555 -0.24817607 0.33263817 -0.2864696 -0.063236795 1.015255 -1.5651599 -0.33185416 -0.7343644 -1.2861133 -0.8949904 0.87173635 -0.20609035 -1.4938675
977 -0.9451538 -2.082083 -0.9779831 -0.81064117 -0.06970365 0.68857586 0.42824197 -0.15195057 1.2362317 -0.09943219 -2.7151415 -0.61252654 -0.20732196 0.23590718 -1.2999052 -2.2133398
959 -0.5245173 -0.1722492 -0.30314922 -0.52413964 -0.13257228 -0.06116058 1.4771382 -0.12423877 -0.97754574 -0.55603486 -0.36661828 -0.11111493 0.7651446 -0.6859818 0.6078622 -2.689525
547 -1.6403928 0.7746279 0.38402763 0.48482236 0.6515076 0.33364245 -0.8169846 0.25833577 0.51487833 -1.6354194 -1.0250857 -1.3216993 0.5447808 -0.05726971 0.33744928 -0.85277075
705 -1.1011798 -1.5491945 0.33654067 0.1091142 1.2106777 -0.47547907 0.9613976 -0.6316272 0.58496815 -1.1208302 -0.023350546 -0.24161549 -0.4408573 0.09759972 -0.15539503 -0.9150506
1672 -0.011702874 -1.7625355 0.4058876 0.22764546 0.33358535 0.37565616 0.51799107 0.6152342 -0.92193323 0.3882806 -0.5041505 -1.53058 -0.96617514 -0.06952793 -0.638058 -1.7840446
3131 -1.0729617 -0.47142118 0.9437185 -0.69903684 1.7012993 -0.09109091 0.5803881 0.9227652 0.27083752 -1.1073538 -0.42990708 -0.5248158 -0.37466666 -0.09134526 -0.47382224 -0.59263587
1535 -0.65782577 -1.1684314 0.9074173 0.6131939 0.610148 1.3911482 1.197578 -0.40397775 0.0028375667 -0.52634495 -1.9696985 -0.33607623 1.0630214 -1.1161462 0.23862399 0.0031672854
1441 -1.6916534 -0.7977632 0.72430146 0.6344731 0.396164 1.2925019 1.082819 0.14167845 0.91350216 -1.1248983 -0.62633044 -0.42600307 -0.0615574 -0.9376407 -0.56162834 -0.71821535
1800 -0.96313834 -0.15651017 0.73741907 -0.7618152 1.5028653 -0.13614976 0.6987622 1.0084156 0.63542575 -1.6703383 -1.0811919 -0.37726742 -0.64181274 -0.7031581 0.31825274 -0.59563434
1971 -1.2054243 0.4216533 0.77287424 0.9968672 0.78803533 0.44259715 -0.7190294 0.14279458 0.5614119 -1.4706854 -0.47438255 -1.8267477 0.07690489 -0.52275056 -0.1681447 -1.2768991
2353 -0.5140246 -0.91320896 0.7752365 0.1410443 0.9680743 0.99319863 1.1972469 -0.931038 -1.325705 0.22503641 -1.3395439 0.33657727 0.37433282 -0.79028475 1.589375 -1.1512723
383 -0.15229379 -0.017261812 0.23624878 0.35031497 1.4419545 -0.42825618 1.7258508 -1.1781827 -1.1060821 -1.3436481 -0.72205865 -0.5240513 0.68132025 -0.38328105 0.11217443 -1.6039408
1741 -1.3415041 -1.1958053 0.7726557 0.47659877 0.41835433 1.0550604 1.4462419 -0.5427825 0.97317994 -0.93072504 -1.2753518 -0.33305106 0.60712475 -0.9957164 0.05765945 -0.24353382
2602 -1.0075418 -0.86882436 0.5650436 0.18342485 1.8706753 0.75553733 0.76110196 0.09385333 0.124878235 0.6441793 0.36530226 -1.1064113 -0.37911084 -0.47080466 0.69206566 -1.3633585
3152 -1.086636 -1.5626013 0.60366315 0.29350647 1.1562763 -0.26859462 -0.2069853 1.2804796 -0.63017595 -0.21373971 -0.9799794 -0.19195874 0.31053042 0.5244398 -0.55058444 -1.2640127
2495 -0.35727382 -1.5646765 -0.3387757 -0.97963953 0.021843355 0.35229918 0.19572018 0.6758624 0.4401649 -1.2043984 0.15762351 -1.6244471 -0.48003763 0.4797952 0.6170201 -1.2536757
1917 -2.0679498 -0.85183483 0.9616268 1.118331 0.017068846 1.4462535 0.0056098714 -1.1779274 0.38812628 -0.5590701 -0.2656859 -1.7568957 -0.62088585 -0.4296874 0.5004769 -0.4386684
1983 0.13037668 -0.37454426 -0.15063053 -0.21491659 -0.55285525 -0.16650668 1.0937272 -0.145167 -0.7429989 -1.1684223 -0.42001 -0.68497604 -0.27708906 -0.04789941 0.26882127 -2.6805692
153 -0.6525892 -1.834865 0.20551531 -0.46492234 1.241106 -0.22030325 0.22263639 0.51153815 0.2754411 -0.66925746 -0.55844706 -0.34764943 -1.0503418 0.58209455 0.05254825 -0.77799004
1924 -2.6393812 -1.1063943 0.6902882 0.5757445 -0.3106377 0.3675525 0.2576389 -0.6749351 0.47922456 -0.7739964 -0.10300453 -1.9114563 -0.67931354 -0.75271803 0.86960614 0.13857119
855 -1.1359855 -1.7256929 0.6503903 0.40271536 0.6650827 0.07357775 1.1395881 -0.5321663 1.1108387 -1.27398 -0.51449615 -0.10842227 0.17639296 -0.59375834 -0.18101539 -0.7041359
64 -0.26225215 -1.0805749 1.1761906 0.20306997 0.8064906 1.2178442 0.885445 -0.39141273 -0.52154934 -0.0802345 -2.165767 0.07091303 0.60001725 -0.3843724 1.2958889 -0.65588075
1586 -3.1825335 -0.5416882 -0.61340964 -2.8330433 0.11033385 0.44584754 -0.29129577 1.2623606 -2.2348313 -1.3821427 -1.4242995 -3.315132 0.92883337 -0.115786575 -0.9818532 0.315338
1673 -0.015660122 -1.6044536 0.17760454 0.16767177 0.277933 0.15793209 0.2057615 0.8654031 -1.415737 0.07398089 -0.71871257 -1.7253184 -0.96814615 0.16484812 -0.72494256 -1.7724065
91 -2.411076 0.20809099 -0.97789115 0.4521398 -0.057138972 -0.7184556 -0.30230492 -1.1964628 -2.2908337 -1.8022343 -3.037466 0.49668565 -0.9858587 -1.3012094 0.11469941 -0.81403553
1302 -1.2729678 -1.0053009 -0.5019183 -0.5337717 0.30632472 0.5062366 -0.21839127 -0.30176285 1.3943154 -0.9022671 -0.30502266 0.46549556 -0.3481162 -0.9659295 -0.7216392 -1.7776483
1783 -0.5928413 -1.45647 0.7547512 -0.14159526 1.1702995 -0.31415448 -0.18949696 0.8192079 -0.5878146 -0.46985146 -0.86242205 -0.57176656 -0.25949106 1.0421257 -0.33137363 -1.0359064
141 -0.73059034 -1.4337559 1.0821902 -0.22951382 1.346237 -0.26934707 -0.15258883 1.0037786 -0.45323622 -0.43135932 -1.0156738 -0.3560217 0.27422297 0.74376446 -0.3694883 -1.3912545
232 0.016712025 -1.8707085 0.38339856 0.24558231 0.055961333 0.5572738 0.37216258 0.7038002 -1.3498805 0.15428013 -0.6545259 -1.7414904 -0.93604386 -0.03146654 -0.78243715 -1.7078873
2004 -0.71856755 0.1283285 0.45949185 0.8695966 0.80493057 0.85306704 -0.20936026 0.74371463 0.020707058 -0.9767517 -0.75931495 -1.4841886 -1.3874067 -0.2219268 0.26148003 -1.1601013
269 -1.5215094 0.24834317 1.1634206 -1.2377836 -0.87290096 -0.06909868 0.22699225 -0.0313404 -0.8040028 0.36172897 -1.0990027 -0.5449208 1.2632607 -0.8418234 0.17420861 -2.3728507
2313 -0.97792834 -1.3741386 0.9373498 0.6021527 0.121732675 -0.8582867 0.5159796 0.2243243 1.1556401 -0.53067416 -1.0781372 -0.8078579 -0.34669903 -0.5646878 -0.09340585 -1.169443
982 -1.0366681 0.94616807 1.4730428 -1.1859132 0.10390767 1.3169667 0.28203902 0.84499866 -0.4233203 -1.040437 -1.252575 -1.5451872 1.3164862 -0.51357687 0.67437625 -2.3838477
157 -2.1450863 -1.3021373 0.4573788 -0.10881392 0.9542256 1.0951159 -0.9557578 0.6156303 -0.6035759 0.518137 -0.7572403 0.53175664 -0.72835314 0.384872 -0.61255056 -1.6139375
3181 -2.0285022 -0.63047403 -0.12409601 -0.08557278 1.3747706 -0.7599518 0.7778972 0.25842616 -0.091789275 -0.5551241 -0.09365928 0.32526532 0.14774647 0.09456508 -0.16138574 -1.5824623
308 -0.84557444 0.7174435 -0.042147074 -1.6335992 -0.82171553 0.34539735 -0.19530591 0.40501463 -0.071684055 -0.48678264 -0.579834 -1.4207934 0.95191306 -1.7973278 0.3241399 -2.5809066
1331 -1.6001166 -0.52481276 -0.3352157 1.2489947 0.7083876 1.037091 -0.32447177 -1.1134268 0.35891634 -0.8051301 -0.06750628 -1.2534115 -0.14725418 0.5666694 0.34414524 -0.9567887
642 -1.137128 -0.24375701 0.2312222 0.38436306 2.1641018 0.6556266 1.4328339 -0.39386874 -0.5001611 0.49979696 -0.175178 -0.9192057 -0.23511784 -0.6367351 0.42144597 -1.0167391
832 -1.2692851 0.8158919 0.8828532 -1.5844914 -0.62577736 0.43333188 -0.06559033 0.41657543 -0.41266403 -0.2594393 -1.0183446 -1.3173087 1.4091116 -1.0443277 0.36807534 -2.2911136
161 0.9909318 -0.8886875 1.5064272 -0.5816365 2.1464481 0.1751955 0.36768425 -0.6491532 -0.41839674 -0.8027338 -1.38439 -0.29334268 0.510929 -1.0735277 -0.16664888 -1.3684864
1449 -0.7251471 -0.150502 0.19425836 -0.5048405 0.9973825 -0.07453928 -1.3859679 0.56769687 0.7537938 -1.1840045 -0.2191182 -0.728893 -1.0226612 -0.9067231 0.5556274 -1.0689704
1209 -0.93031114 -1.6675125 0.019668993 0.9988107 0.41225055 -0.17372228 -0.8276424 1.7146254 -0.39262152 -0.23822577 -1.011438 -0.53462833 0.59266937 -0.29301476 0.3474788 -1.2804614
1183 -0.34795323 -0.89188683 0.263389 -0.19728754 0.469755 1.1519387 1.4698589 -0.65420675 -1.666597 0.09354901 -1.2908342 0.33292592 0.84088385 -1.198873 1.6882048 -2.3772216
876 -0.7965562 -0.727708 0.8735416 -1.3399907 1.5752167 1.013074 -1.1920664 0.8578719 -0.029817687 0.14069547 -1.3408941 0.54349166 0.4925973 -0.2817167 0.5069627 -2.2879977
2249 -1.0942742 -1.1197549 -0.28094563 0.9626012 0.579009 0.38417366 -1.0991558 -0.8633058 0.8315249 -1.2520007 0.08985883 -0.6639456 0.2791509 0.08341056 0.20438644 -1.1745279
367 -1.339441 0.31975868 -0.4759558 -1.3783296 0.83813417 -0.29033238 -0.9959629 -0.13639268 0.30151206 -0.31833616 -2.7850509 -0.2054583 -0.9067455 -1.931263 -1.0526562 -0.22466786
2029 -0.011160974 0.041827504 0.5167331 0.7708753 1.202791 -0.0029376855 -0.1730083 0.40230924 0.32296088 -2.091133 -1.2165053 -1.1341354 -0.96663743 -0.85643965 0.7670095 -1.5852342
1400 -1.994792 0.09469506 0.1003357 0.36143962 1.1233956 -0.18097168 0.42792192 -0.037753522 0.2851489 -1.6899204 -0.844311 -1.3282402 -1.3455949 0.12854634 0.5610872 -0.28056595
2177 -0.9768634 -0.38605902 -0.12788405 -0.21872675 1.284548 -0.12943497 -1.4567744 0.58120954 0.7632883 -1.3580258 -0.29015884 -0.3732117 -0.32663932 -0.8154175 0.5394516 -0.7100382
1068 -0.3579067 -1.4930633 -0.121811844 0.01500831 -0.034525402 -0.22576088 -0.29232916 1.3131196 -1.5538363 -0.22140616 -0.7386967 -1.6842008 -0.74782205 0.43208697 -0.4507035 -1.6348953
158 -1.166587 -1.4032696 1.3651054 -0.62037545 1.373944 0.64978653 0.8645743 0.91468257 0.3489095 -0.8320986 -0.69040155 -1.1161243 0.29545626 0.47072557 -0.68551266 -0.6363637
2275 -1.3759289 -0.7584362 0.5625745 -0.6170458 0.551447 -1.2671068 1.3655059 -0.025466993 1.373487 -0.29952678 -1.0392861 -1.776461 -0.21522157 -0.8547353 0.6110609 -1.4021729
1923 -1.2564222 -1.2992872 0.08856062 0.6419152 -0.14576001 0.15129079 -0.73910606 0.30116308 0.7379172 -1.8652501 0.097320266 -1.3299277 0.07203045 -0.9617106 0.52013165 -0.2056736
2013 -0.8906306 -1.081727 0.69502676 -0.7862287 0.6457862 -0.683789 -0.51243955 0.8515884 0.80708617 -0.92075366 -0.25599438 0.14327995 0.11288382 -1.0369627 -0.44935998 -2.0472634
390 -1.3017694 -1.2597061 1.8792663 -0.46131548 -0.7305926 -0.18309103 0.5168435 0.46204138 -2.260882 -0.26989055 -0.88170457 -0.08187855 -0.17853858 -1.0724732 1.3579316 -1.3620694
2021 -0.18827067 -1.627303 -1.494198 -0.3853684 0.2784337 1.1610416 0.29616416 -0.16885793 0.48525125 -0.4630308 -2.3086605 -0.4470584 -0.078988686 -0.275405 -1.7123555 -1.4771522
439 -2.53377 -0.25860593 -0.15571691 0.39986804 -0.10870226 -0.3966982 0.9376858 0.64639693 -1.0264574 0.3027254 -3.4118965 -2.2498057 -0.6280699 -3.6199722 -1.9350709 -0.5472249
830 -2.3876796 -1.673051 1.333968 -1.0777004 0.95413184 1.135003 -0.86871105 -1.022471 -0.6664436 -0.05635662 -0.9738609 0.7386067 -2.4172926 -0.20332836 0.5356176 -1.4803957
160 -1.4067584 -1.0464985 1.6828218 0.81313187 0.27338603 0.12837824 -0.092101276 0.42248613 0.6868215 -0.17964752 -0.90250784 -0.69623744 -0.7222868 -0.39862582 0.080850236 -1.4854462
2316 -1.0494474 -1.7240684 0.15303816 0.8518109 0.8093757 0.17389113 -1.5379946 -0.22636345 0.44593498 -0.6383732 0.05133696 -0.36454517 0.21226464 0.009907426 -0.08112511 -1.3708786
1336 -2.3237307 -0.9501039 0.97225904 0.31001538 0.052462373 1.6346873 1.2124459 -0.47012508 0.8586384 -0.7154251 -0.7038649 -0.79787487 0.13496166 -0.8744576 -0.07513527 -0.20750062
2274 -0.28497165 -0.2904272 0.05326179 0.93315554 0.754704 1.1764059 -0.023340903 0.66672385 0.4838738 -1.7604065 -0.97589415 -0.6650676 -0.739685 -0.7239882 0.8622514 -2.0979998
1121 -0.48038828 -1.520902 -0.37490103 0.06732037 -0.21892582 -0.56185555 -0.6925698 1.0407386 -1.5252504 -0.44897512 -0.9431216 -1.2454387 -1.2245321 0.6386958 0.52658534 -1.8922305
619 -2.3365517 1.5443425 0.23851532 -0.3716374 0.97038716 0.029022805 -2.5854754 -0.2050815 -2.3361523 -1.865388 -1.47885 -1.0386904 0.019980084 0.08349524 -0.2413408 -2.573811
580 -0.8940858 -1.778408 -0.2515668 -0.2875897 0.19341414 1.0632875 -0.7554971 -0.6250008 -0.27169755 -1.1697991 -0.47499043 -0.52653575 -1.7205929 0.43517658 -1.7719456 -1.2519715
1477 0.040679377 -1.5747393 -1.0456886 -0.21806714 0.07061618 1.2319695 -0.5411581 0.2924572 -0.3446959 -0.69586337 -1.0492437 -1.1225436 -1.2231613 0.32577193 -1.4246414 -1.1235638
1063 -0.50956774 -0.029250497 0.8188657 0.20625725 1.910172 0.5663291 0.366389 -0.22626133 -1.4180284 -0.80039555 -1.0118096 0.87887293 -0.08015393 -1.0951968 -1.069378 -1.8242434
579 -2.0149903 -1.0525371 -0.1423076 -0.36791044 0.49558702 1.5771228 -1.1992165 -0.11090482 -0.6302019 -0.7215425 -0.07929245 -0.5331131 -1.0652938 0.42140958 -1.8514113 -1.1033347
2686 -1.0055311 -2.1062217 0.31792307 -0.39790958 1.2576324 -0.29850367 0.47616518 0.73676854 0.21335718 0.11891054 -0.7380608 -0.037702095 -0.4047472 0.11123134 0.09422701 -0.7325142
1479 -1.3952165 -1.330593 0.63316125 -0.042013016 0.3888154 -1.1401837 1.2002417 0.22578923 1.2126305 -0.36929944 -0.8296904 -1.0767045 -0.45204636 -0.89614516 0.4593966 -1.4674071
432 -1.7598262 0.7457768 0.47157314 0.1496266 0.5932671 1.0271341 -0.5158812 0.3565275 -0.09918918 -2.143033 -1.1769743 -1.5054699 0.730888 0.1606248 1.1566328 -0.52423364
2099 -1.2086931 0.7439373 0.6060615 -0.13500994 0.09025629 1.0503167 0.25308564 0.2880184 0.016658515 -1.4392799 -1.550614 -1.194201 -0.053394973 0.5024597 0.9622111 -0.69141483
2417 -2.0540035 -1.1851981 0.23330747 -0.85959935 0.90543914 -0.35170597 0.27143943 1.130021 -0.1954003 -0.5931754 -0.12454953 0.57773435 -0.14234583 -0.12393327 -0.506149 -1.1000687
249 -0.8587581 -1.2672645 1.1150463 -0.5368001 1.1502254 -0.028686699 0.14814894 0.9903462 0.15011439 -0.5405974 -0.7838477 -0.8961123 -0.0015277758 0.78116477 -0.45660627 -0.89822817
2586 -0.7094076 -0.9229953 0.14842796 0.6837437 0.048522253 -1.0065854 -0.57373697 0.68340945 1.0823191 -1.3634034 -1.2456634 -0.69632083 0.52378666 -0.9625552 0.41320747 -1.1679051
2240 -2.3543239 -0.09578251 -1.155424 0.81663233 0.8207812 0.61435616 -0.6387601 0.31655636 0.7500863 -0.70278007 -1.3579028 0.13697554 -0.63408905 -1.4784479 1.2264681 -1.6619308
2023 -1.8784016 -1.4279836 1.282127 0.057081703 0.69079477 1.4387169 1.2753482 0.29521954 0.8118814 -1.304888 -0.8574555 -1.046039 0.6073747 -0.1100229 -1.0912827 -0.89233744
1736 -0.61804634 -0.57777625 -1.3033309 0.48488033 1.3151889 1.1502855 1.4136326 -0.22415406 -0.07305824 0.020109192 -2.2574778 -0.6044007 0.71623445 -0.30632207 -0.16080171 -0.56869954
2507 -2.6643066 -0.57103586 -0.739586 -0.60224396 0.76011163 3.3623438 -0.40302923 0.03348885 -2.4292378 1.2153242 -1.1848619 -2.650705 2.4571323 -0.8011369 -1.1794696 -2.421683
2092 -1.7949742 -1.1866931 0.23487107 -0.23509884 0.6808099 1.0750319 -1.0778859 0.6224413 -0.045607276 -1.4851283 1.2014422 -0.8788029 0.14274307 -0.97961026 -0.28131247 -0.7084247
214 -0.7697478 -1.3703549 1.5181581 0.58528763 0.78440964 1.021809 -1.2764537 0.13790502 0.8635184 -0.7508139 -0.65093106 -1.2496946 -0.45084783 -1.0691526 0.62965095 -0.3594018
342 -1.1443607 1.1055882 0.5962949 -1.5915796 -0.65613997 0.41619337 -0.053583257 0.30126432 -0.70441544 -0.17453192 -1.0866853 -1.522891 1.0875155 -1.8142077 -0.18124074 -2.409849
1749 0.055607546 -1.5775186 0.89340484 0.06070669 1.0967242 1.3954151 0.56778073 0.038686063 0.0743012 -0.25741193 -2.013941 -0.5407874 1.3954462 -0.9182176 0.13701394 -0.069191106
2526 -2.240282 -0.15195803 -0.82259417 0.4427444 0.88717186 0.40662307 -1.0145985 0.3876098 0.70244724 -0.7911085 -0.87771434 0.06760717 -0.5776843 -1.4693556 1.3368884 -1.2213405
1963 -1.9094226 0.5047316 -1.8933661 0.14740343 1.6855384 0.46475613 -0.2860198 0.16478151 -1.663898 -1.248805 0.89082736 -2.1447453 -0.092135385 -0.9101695 -0.54643005 -2.9002147
277 -2.177834 -1.3979784 0.0059133964 -0.932234 1.0248857 2.5563877 -1.0315433 -0.7741433 -0.5945145 -0.060623284 -0.12940069 -0.9980442 -0.9581056 -0.41080958 -2.4566696 -1.2167438
2424 -1.8402107 -1.165006 -0.67772603 0.32003215 0.75684327 1.2442976 1.3615572 -0.8705444 0.42981184 -0.2248344 -2.4042134 -0.2554498 1.140159 -0.5188916 -0.28536195 0.05760517
365 -1.5230346 -0.23615707 -0.37447903 -1.1376365 0.81173575 -0.3780984 -0.28722873 0.55435675 -0.45504084 0.3949629 -2.8619316 -0.4835983 -1.3504418 -2.2743716 -0.85465956 0.13313061
1482 -1.7633448 0.20215066 0.55022955 -0.8187569 2.4012318 -0.68003035 0.28133217 -0.8736883 0.49047282 -0.2507834 -0.23219873 -0.76263535 -0.011097659 0.042179953 -0.16749813 -2.26992
1738 -0.7795799 -0.20702593 -0.560571 -0.012811499 1.3991971 -0.1404915 0.40622693 0.24277249 -1.6904154 0.8601553 -0.8722557 -2.9820433 -0.2807795 -3.7827017 1.1081542 -0.9596797
2086 -2.257703 -1.74902 1.4902376 -0.3024593 -0.00041750894 1.8509134 1.209509 -0.029920356 0.7497758 -1.7984412 -1.0334166 -1.5328156 0.610425 -0.34878844 -1.6336342 -0.86664057
2418 -1.8098046 -0.9308975 0.26502118 -0.9960574 0.7227235 -0.5818112 0.15571499 0.41228586 0.7341373 -0.59384704 -0.044238664 0.46771154 -0.056555584 -0.67396855 -0.9133487 -1.8417782
1476 -0.28105778 -2.2075574 -0.36856696 0.12053831 2.2359693 -0.70323414 0.12957142 0.75887394 -0.19369969 -0.56153584 -0.4337089 -0.49741808 -0.8544038 -1.5689325 -0.26349354 -0.64074755
235 -1.3658961 -0.8702113 0.13721283 0.2383061 1.5620537 -0.57988334 1.2672521 -0.5750197 0.11126218 -0.8091463 -0.20463434 0.14591418 0.07930251 0.09744453 -0.015345082 -1.3496053
2732 -0.9950729 0.107179746 0.6377826 0.9948174 0.17913054 -0.2087813 -0.8445553 -0.10769714 0.37436604 -2.1220698 -0.7189967 -1.5900394 0.7333466 -0.39586058 -0.17383152 -1.1810404
156 -0.10785424 -1.8546324 0.13381103 0.7524852 0.10712463 0.61283726 0.51575774 0.6334823 -1.1863768 0.02832241 -0.9038489 -1.832751 -1.143248 -0.061352346 -0.802804 -1.3723806
2336 -0.4794166 -0.15587129 -0.34246394 0.22434643 0.9563436 -0.7849095 -0.1633767 -0.2651645 -1.9335519 0.45940948 -0.7392079 -2.8469145 -0.6414773 -3.6365995 0.72556454 -1.2756083
348 -3.668743 1.0783862 -1.8880444 -2.6029031 0.19394761 -0.57835734 0.06854818 -2.0990448 -2.1166048 -1.7730106 -0.6347996 -2.5030932 0.27525488 -1.2243743 -1.1249609 -1.4358193
2568 -1.1456885 -0.27455825 -0.09507851 1.2545596 1.6835132 1.6255559 0.48997656 -1.6971346 -1.1706077 -0.6681185 -0.5411154 -0.43734616 0.023825316 0.06302924 0.33124876 -0.9741805
2668 -0.6055769 -0.66358083 0.18156622 0.11234204 0.5245538 0.612662 -0.000579837 0.17436486 0.15584835 -1.1391573 -0.3530717 -1.2957883 -0.75325483 1.0222436 1.4411966 -1.5257348
756 -1.0543318 -0.6740106 -0.2226019 -0.06408633 1.0565834 0.17718112 -1.3578062 0.44510183 1.1513213 -1.2303445 -0.2395159 -0.6408257 0.17949887 -0.8906186 0.6637473 -0.6665173
895 -0.5258316 -0.8984141 1.2284143 -0.6261839 1.4335378 0.15948492 0.20347326 0.797424 -0.88560134 -0.78169054 0.024494236 0.60057116 0.27025488 -1.0883422 -0.8538766 -1.7253892
1289 -0.98158276 -1.4348478 1.2211237 0.019294545 -0.12832926 -0.13870619 -0.29237217 0.46368843 1.0258254 -0.47910762 -0.990173 -0.71750027 -1.2277105 -0.39945644 -0.109592475 -1.0443106
2341 -0.7090073 -0.32269302 -0.07211994 -0.8038858 1.1057894 0.7195403 0.95552945 1.019617 0.45766842 -1.6123178 -0.9436624 -0.08290415 -0.8741401 -0.9766786 0.594354 -0.43158537
1462 -0.319978 -2.0272539 0.9743274 -1.1945628 1.4911239 1.6393677 0.7838846 0.44874436 -0.28567076 -0.20922612 -1.9541978 -1.1109306 2.0173576 -2.0144446 0.43616018 0.22690691
1398 -2.1982765 -0.17573625 -0.49085844 -0.025188176 0.6714306 1.7110348 -0.6958324 1.42236 0.21740557 -0.3058621 -1.0760565 0.3083153 -0.49444398 -0.7736433 0.12707017 -1.7595639
2288 -1.5424138 0.7155818 0.7123546 0.038075946 0.36988643 0.7298165 -0.2713392 0.24937326 0.17124803 -1.8285025 -1.2585442 -1.2876467 -0.001948402 0.4505974 1.0324496 -0.8664119
3 -2.0522268 -1.8085608 -2.5495358 -0.029686404 2.3335292 -1.2651353 -1.179339 -0.050104924 -1.3541156 0.55802584 -2.2463925 -1.2465935 0.7698713 -0.068653174 -1.9933382 -1.7342572
1717 -2.172199 -1.9700296 1.448886 -0.66832864 -1.044934 0.9881544 1.0230542 -1.8734902 -2.384457 -0.9788489 0.86485153 -2.3880672 -1.5436949 -3.6734903 -0.6822849 -1.711661
1714 -1.7760795 -0.55349666 0.68095666 -0.8474944 1.1157018 -0.29189906 -0.21127695 1.0620822 0.809192 -1.8220949 -0.86849105 0.08981184 0.30374095 -0.7674008 0.51663524 -0.28046384
1846 -0.6476743 -1.024298 -0.036018312 -1.4192832 0.13512799 -0.16652752 -0.6270504 0.35477155 0.76632583 -0.38359353 -0.36132756 -2.1479504 -1.5509521 -0.71703416 1.5977243 -1.2831442
3020 -1.643761 0.22873417 -0.5521485 0.66563284 1.2024019 0.088911854 0.38214234 0.08031032 0.048463058 -1.0015097 0.68305737 -1.3704448 -0.25504133 -0.6061779 -0.32641536 -1.8141255
73 -1.4872309 0.3717495 -0.23393704 0.3313543 -0.040803753 -0.6488151 -0.16775623 -1.1034626 -1.7256461 -1.9614366 -2.8778577 0.5400437 -0.3565914 -1.4148322 -0.35760298 -0.73532635
2157 -0.043485146 -0.14272125 0.39518014 0.90148735 0.55170757 0.23819949 -0.065555245 0.7753124 0.092741 -2.1967344 -1.2466959 -1.1548339 -0.5478044 -1.0757338 1.3091685 -2.032187
55 0.047552805 -0.5120217 0.5432755 -2.5170982 2.8883638 -1.1924746 0.34827578 -2.035126 -0.6738762 0.77162796 -3.5997257 -1.4430373 0.7788215 -1.521502 -0.33800608 -1.9889319
1822 -0.8196262 -1.6257507 0.9188408 0.095476165 1.1892108 0.051785965 -0.17118555 1.1706958 -0.3514112 -0.46993926 -0.8625874 -0.45028475 0.38548276 0.70589924 -0.2173887 -1.3651165
1364 -0.85020465 -0.99710226 0.8970658 -0.662003 -0.023864843 0.22784469 -0.39778042 1.1443994 1.042258 -1.1968489 -0.70067495 -0.09050168 -0.75278497 -1.2133993 -0.2766113 -1.8197362
2226 -1.7271248 0.75490576 0.52668786 0.039765585 0.46774542 1.0136896 -0.45444185 0.43411866 0.0140682645 -1.9781704 -1.2781883 -1.4950889 0.62784827 0.24197288 0.8129814 -0.49173298
289 -1.70005 0.97047013 0.68584716 -1.9628869 -0.45424488 0.65672207 0.3061583 0.2611831 -0.36319852 -0.03654935 -0.6476739 -1.7024617 1.1239614 -1.828831 0.29780924 -2.3519187
1660 -1.0873032 -1.7955877 0.40876743 0.5695048 0.58093286 -0.06953234 -0.03426555 1.5160314 -0.6753836 -0.20192581 -0.7219965 -0.5135661 0.4156788 0.27609053 -0.34860453 -1.2001234
198 -2.1496005 -0.6419442 0.088828884 -0.5165781 1.1796653 1.4674736 -0.82166874 1.1607991 -0.25259775 0.2845516 -1.0732832 0.7660576 -0.2785265 -0.13741623 -0.23032606 -1.9246707
2299 -0.2731245 -1.3415776 -0.862993 -1.287028 -0.24252437 1.1453907 -0.39536375 0.8885816 0.6645373 -1.2777048 -0.4823808 -1.1563016 -1.0754865 -0.18657377 0.044369873 -1.077471
2924 -1.7977569 0.062308595 0.0027289067 0.35406306 0.64698577 -0.27799204 0.78614646 0.031415794 0.6469733 -0.44386008 -0.2150693 -1.587284 -0.7962111 -0.050229475 0.67559284 -0.9430315
1243 -1.3551161 -1.3890944 0.41377747 0.37319508 0.5916037 1.4947429 0.97444403 -1.0893868 -0.3358569 -0.4212913 -2.3548682 -0.14344157 1.5017531 -1.1528941 -0.22801742 0.47613388
994 -1.2468839 -0.27117592 0.021609684 0.2962109 2.4344714 0.64523524 1.5456932 -0.31252384 -1.5738114 0.72302353 -0.36154068 -2.3332925 -0.9671784 -2.4480968 0.89742756 -0.72805893
2406 -0.99087936 -1.7524673 -1.2688076 -0.7802872 0.060856238 0.78926027 0.31885815 -0.088860705 1.1751031 -0.42614892 -2.0279331 -0.027644113 -0.1102593 -0.5888515 -1.8901737 -2.3723934
682 -2.3363385 -0.6171593 -0.720539 -0.43135953 0.71201086 3.47096 -0.5018949 0.32099146 -2.510267 1.3789774 -1.0405731 -2.29789 2.1070771 -1.4254634 -0.8963216 -2.5464315
1825 -1.7649777 -0.8854084 0.52549034 -0.64446455 1.1340178 0.4870244 -0.45816 1.2554561 -0.59880537 -0.13377096 -0.29370436 0.6164022 0.022818103 0.10727357 -0.36254543 -1.7402221
1341 -1.6251823 -0.76349384 -0.23383974 -0.16928418 0.14454557 -0.90538013 1.0134426 0.32224068 1.0497607 -0.23965359 -0.41840592 -1.6289555 -0.79583704 -0.34040597 0.90432924 -1.4296557
1043 -0.40110266 -1.4829677 0.054090023 -0.37716103 -0.26703763 -0.39547354 -0.13740312 0.51343685 -1.2470877 -0.5274526 -0.43064258 -0.9184699 -1.1296312 0.75880086 0.92507756 -1.7377725
1359 -1.4660704 -0.944834 1.3376342 0.7706448 -0.102579065 1.2660279 0.38510904 0.57033294 0.6397657 -1.1599748 -0.540212 -0.41247347 -0.66556644 -1.0655878 -0.041068885 -1.398703
2552 -1.6125307 -0.95970535 0.767641 -1.0421745 0.8254774 -0.33756796 -0.114546835 1.1467074 -0.18590938 -1.6401517 -0.09256602 0.36421868 -0.4566539 -0.6201216 0.11231003 -0.30635673
1883 -0.65524244 -1.2635379 -0.28225228 -0.957715 -0.04195367 -0.36699158 0.4453321 0.46045396 0.6505353 -0.6079536 -0.17971547 -1.4950695 -0.9704183 0.25246245 1.2395908 -1.49806
2407 -1.044277 -0.7902854 0.13627096 1.1160803 0.079186216 -0.13982815 -1.1987551 -0.86004955 0.55302745 -1.9922032 -0.49970594 -1.0454422 0.8344678 -0.14533474 -0.09028611 -1.0631005
47 -1.3959217 -0.86985296 0.24815239 1.2883242 -0.20543696 -0.0075937025 -1.7075229 -1.7048985 0.4560299 -2.1374881 -1.3687116 -1.0631734 1.0633931 -0.8284619 0.14007737 -1.0275958
2679 -0.6485587 -1.3097397 0.3926976 -0.8677524 0.44511643 0.45095798 0.18328615 0.54740876 0.24346441 -0.7979314 -0.13771324 -1.1744503 -0.319204 1.1172858 0.9830679 -1.5967201
1843 -0.436274 -0.07259405 0.80059785 -0.39285955 1.555404 0.64833045 0.31857967 0.84574044 0.32224992 -1.4309186 -0.44699955 -0.18344714 -0.75667334 -0.9313606 -0.5332509 -0.99850625
469 -1.47937 -2.1173532 -0.42124346 -1.3611987 1.8239554 0.94307667 1.7600241 0.36966905 -1.3452387 -0.20896697 -0.7382268 0.64424884 -0.8069744 -0.5655501 -0.22981264 -0.4706479
2151 -2.5540533 -0.37405494 -3.116153 -2.5807974 0.3442628 -1.331453 0.28161705 -1.1337668 -1.2301743 -2.7584615 -1.7634372 -0.35630703 -0.15541287 -4.1452966 0.77951175 -1.1061386
668 -1.6041679 -2.1772099 -0.75925124 -1.7470875 0.05808523 -0.87702173 0.77401954 -1.6868174 -1.3911902 -1.5687186 0.26870224 -3.772092 1.1116109 -2.9750493 0.39604932 0.3540856
110 -0.8603922 -1.9458253 0.029069701 -0.0582829 0.8469688 -0.021689141 0.68662024 0.008322587 1.0696404 -1.1680455 0.25712177 -0.8528565 0.3840272 -0.09707541 0.12049453 -0.793936
1881 -1.5290277 -2.0793061 0.18171209 -1.2225367 0.98770165 0.07140604 0.6366095 0.8575024 -0.038851783 -0.20243584 -0.29872045 0.06521631 -0.6103002 0.32758427 -0.16939445 -0.826999
2449 -1.4519747 -1.3795706 0.5852036 -0.71395373 0.6527414 -0.89184874 0.45472398 0.43468133 0.756855 -0.53620106 0.14549181 0.07260568 -0.07589156 -1.1597003 -0.69388986 -1.5715393
52 -1.5135769 1.1493784 0.7517945 -1.3700253 -0.5548553 0.12672171 -0.10352376 -0.12192123 -0.6298696 -0.36884063 -2.4551537 -0.29260582 1.1181492 -1.8407682 -0.39558658 -1.6971714
501 -0.79919857 -2.3003328 -0.2648063 -0.433051 1.6739026 -0.31963283 0.98743874 0.97281885 -0.1885291 0.12590952 -1.4149907 0.3052176 -0.68492 -0.56077635 0.50493747 -0.6511981
1859 -2.1797934 -0.0019587087 0.022134742 0.16689728 1.8806362 -0.7328862 0.62807035 0.39301473 -0.044887047 -0.94782424 -0.5338969 -0.0033650927 -0.59882444 -0.111761495 0.589117 -1.3782578
584 -1.058793 0.52146226 -0.78206086 -1.0746174 0.057719555 -0.026928687 1.5514162 0.42848513 -1.0195326 -0.97409356 -2.8833454 0.25134042 1.0265396 -1.0265515 0.050032817 -1.5943457
433 -1.9158362 -1.1931351 1.7787113 0.12491462 -0.12217444 0.56150895 1.2092631 -0.3442669 -2.713831 0.03229725 -1.1645967 0.2097421 -0.3181876 -1.1627516 1.4909216 -1.178106
1044 -0.7617063 -1.8318881 0.67313236 -0.30231273 -0.7200421 -0.18374497 0.588699 0.48295656 -1.2648427 -0.50649166 -0.15358329 -0.93028617 -1.0424051 0.20266645 1.2177389 -1.4498502
599 -0.767123 -1.3316822 1.13962 -0.6637289 0.45460424 0.072817795 1.2290087 0.8276159 -1.8934641 -0.73913515 -0.3048806 0.6787131 1.0355145 -1.944215 0.3779641 -2.6850693
2512 -0.38675648 -0.6613987 0.12736435 -0.43469134 0.8335639 -1.6363323 0.059395757 0.00496695 -2.4266725 0.17158403 -0.55215436 -3.4005904 -0.33922398 -3.5926406 1.2047218 -1.6633351
1156 -2.5331657 0.47650385 0.8941502 -0.71190894 0.95073545 -2.151108 -0.73098254 -2.6344543 -2.4827297 -2.7243052 -1.3058943 -2.7659311 -0.39221317 -3.0570943 0.786674 0.11157026
2559 -1.2698152 -1.5013165 -0.49983147 -0.9335963 1.8521101 0.23980927 1.1290586 0.19211903 -1.6601456 0.25759098 -2.4505847 0.76251686 -1.0032445 -2.2946017 2.5191236 -0.7735029
568 -1.7429206 -1.4322622 0.2897946 -0.6134972 1.158536 0.6114735 -0.004553292 -0.1039357 -0.99302936 -1.1548071 -1.7140155 -1.4267997 -0.16251759 -1.188264 0.14822261 -1.9619302
76 0.43446884 -0.46562174 0.0120198 -1.2703221 0.8058612 0.17415091 -0.9664838 -0.757887 -1.8476884 -2.2727578 -1.4273959 1.1562341 -0.6107816 -1.7241637 -0.0897983 -2.8846128
990 -1.0765283 -2.186402 -0.7215049 -1.1413587 1.7332518 0.18722926 1.5331423 0.8185249 -0.80113876 -0.12761874 -1.6183134 0.5589669 -0.7019871 -0.674021 0.28328118 -0.4213632
1864 -0.8393248 0.35721433 -0.4773763 -1.3951265 0.5613362 0.5369208 -1.3426467 0.4010833 1.2827408 -0.6122465 -0.63930744 -1.166701 0.67636746 -1.7041254 0.0549226 -1.5543482
119 -2.5837307 -0.28033572 -0.18936944 0.2286049 0.7840575 1.6307461 -0.91543597 -0.67984813 -0.32515767 -1.0262016 -0.22044511 -1.281256 -1.0680803 0.6964572 -1.6311227 -1.3498032
309 -1.0404077 0.5820443 -0.5535266 -1.7156706 -0.019346438 0.56541526 -1.2937915 0.28991234 0.7599438 -0.51536024 -0.4754979 -1.4369565 1.0466081 -1.7093972 0.24481097 -2.1636536
322 -2.1075358 1.1973046 0.102586284 0.35145894 0.8116415 -0.31610516 -1.6711055 0.089477174 -0.5630757 -1.4311292 -1.4080534 -1.578428 0.41466892 0.23316528 0.30781856 -1.3442185
317 -0.8734749 -1.3459008 -0.5585597 -1.0427996 1.4819509 0.13995074 1.149205 1.2167441 -0.34967944 0.0006488283 -1.9446075 0.2096422 -1.059127 -0.82645327 0.75956446 -0.18123871
775 -0.22927697 -2.2155516 -0.32254115 -0.41291454 0.18066828 0.62707514 0.48251936 1.4525535 -0.751422 -0.31765804 -0.39862433 -2.7495954 0.13195923 0.066279106 0.15257417 -0.94078034
1175 -0.4659508 -0.18718597 1.1755844 -0.37279066 1.214506 0.090070784 -0.24891812 1.0738527 -0.5277653 -1.0776144 -0.34270164 -1.0063212 1.6779021 -0.23467258 0.09829667 -2.5776691
2296 0.58821267 -0.5582716 -0.19374563 -0.5342812 0.026401041 0.6512777 0.6294486 0.37081844 -1.9796609 -0.080251575 -1.0817436 -2.3973439 -0.3534293 -0.063207135 -0.25753394 -2.987241
2330 -1.2239376 0.38899755 -0.57019156 -0.043141726 1.4880784 -1.541178 -0.3127618 -1.1829413 -2.000893 0.6521767 -1.1558797 -2.1028495 -0.33523068 -4.2217703 0.6037105 -2.0784802
1709 -3.9030762 -1.7566005 0.15431866 -1.7858355 0.03693489 -0.6850049 -1.0994662 -2.3784733 -0.24903965 -1.6561958 -1.535037 -0.15397614 1.9381977 -2.6345973 0.40207243 0.42548537
112 -0.2895622 -1.3098606 0.045187708 -0.056226138 0.99622905 0.14446113 -0.10098831 0.91921777 -1.3552619 -0.36653712 -1.3354264 -1.3227146 -0.8745683 1.224322 -0.6433193 -1.2850444
602 -0.21246871 -0.0027282464 -0.5779475 -0.4344053 -0.06367926 0.38385844 1.1061746 -0.0718671 -0.8625764 -0.865546 0.2367845 -0.39034417 -0.10584831 -0.94740665 0.048862718 -3.0084932
1310 -1.9908069 -1.6841925 -0.147293 0.45094278 -3.082182 2.2439432 -0.3902565 -0.78363687 -0.99457246 -0.38198972 -4.090601 -0.9538738 -0.8826518 -2.4087822 -0.6332077 -2.3752623
2035 -1.8907925 -1.4055051 1.1700242 0.15412387 0.375173 1.6973392 1.3558892 0.0392409 0.85735005 -1.5013926 -0.91841644 -1.0268854 0.30478895 -0.40777737 -1.1281613 -0.9470617
758 -0.29721737 0.46137676 0.42416 0.54329604 0.33899733 -0.5844481 0.3348168 -0.681791 -1.4224297 -1.6061115 -1.5606122 0.2749805 -0.19435595 -0.82410127 -0.8339548 -2.047842
437 -1.430172 -0.39047673 1.1680373 -1.1409198 0.48709923 -0.11604155 0.41486982 -0.5135585 -0.18474475 0.14386596 -0.5991951 0.050327856 0.85156214 -0.17691042 -0.16964251 -3.4996433
1837 -0.4531498 -0.6861063 1.0650935 -0.9701968 1.7483271 0.7369319 -1.4383551 0.7293641 0.51540464 -0.2411583 -1.7948115 -0.09907798 0.73069465 -0.3799704 0.903336 -0.9423191
1450 -0.80658597 -0.507909 0.504165 -0.86827534 0.7450549 -0.5207057 -1.0081267 0.9839928 1.0013977 -1.2739664 -0.46504554 -0.34209457 -0.56687105 -1.0799499 0.04924184 -1.5803446
29 -0.9556601 -1.697109 1.1205083 -0.74226445 0.94813496 0.2117071 1.5555061 0.12655702 -3.8050075 -2.967054 -0.74329865 -3.1218529 -0.84552604 -3.1226676 0.85440844 0.601009
905 -0.51099056 -0.44595295 -0.54996014 -0.8372969 1.2468884 0.59339243 1.2447494 1.1327288 -0.015115694 -1.3439583 -1.7121507 -0.029164657 -0.6624061 -0.7778086 0.745844 -0.10501211
1720 -4.777489 0.9948167 -0.18778926 -0.7018643 1.1766876 1.2055049 -0.35888758 -2.3982763 -2.3198948 -1.167614 -0.9342511 -0.8762834 2.8256984 -2.0910664 1.1944513 -1.1300727
2345 -1.7373917 -1.2734 0.08374986 -0.64093655 1.085878 0.3812719 -0.0043511977 -0.19971713 -0.88508016 -1.0180144 -1.6636685 -1.3432863 -0.1893553 -1.2316391 -0.07979437 -1.7923633
700 -1.3932287 0.9934535 0.85809 -1.3005332 -0.78151053 0.19853626 -0.045281794 0.110940464 -0.7759035 -0.108749 -1.369205 -0.9087661 1.201515 -1.321744 -0.2963096 -2.324081
557 -0.020927489 -1.1511954 0.18458049 -0.837158 -0.0066936538 1.238955 0.516561 2.132851 -2.495424 0.9272157 -2.6578739 -1.6860825 -1.0678606 -1.5775431 -0.004546863 -2.391801
3084 -0.51009375 0.20843188 0.40239316 -0.2645966 0.7644993 0.33758718 -1.2136236 0.28027365 0.49587852 -1.2797142 -0.38557053 -1.5690438 -1.4795038 -0.90110034 1.1893028 -1.5076487
1168 -3.805066 1.1101829 0.10551543 -1.0346296 -0.37687942 1.3615627 -0.33065215 -1.6820672 -1.349108 -0.72424215 -1.8868867 -1.3186163 -0.97098327 -4.397265 2.2501156 -0.599058
14 -0.61619526 -1.0985345 -0.48217034 0.7016509 1.7014562 -0.19776095 0.22910738 0.8544774 -0.2129765 0.48841006 -1.0748552 -0.8711503 0.2494015 -0.09708571 -1.1749414 -1.2574083
695 -1.7314548 -2.0986633 -1.8555865 -0.75457567 1.0916344 1.4248834 0.65200627 -3.4466503 -0.03871612 0.3489411 -1.7374748 -1.0674673 -2.632263 -2.8122127 2.7293823 -2.0489612
1488 -0.029523203 -0.06795004 0.48392937 1.0664624 0.29760414 -0.86220735 -0.30532274 0.3155414 0.091884695 -1.9686217 -1.2279865 -0.9758358 0.14872119 -1.0286844 0.68710375 -1.9663129
2002 -1.0002203 0.13842888 -0.19863103 1.1841357 0.69737154 1.172477 -0.34766382 0.8991296 0.3563204 -0.96430284 -0.9853422 -1.1488277 -0.98752576 -0.59618515 0.37138867 -1.6379364
1254 -1.6014493 -1.6086887 -0.10386767 -1.040375 1.2584075 0.4936422 0.12073576 -0.6690316 -0.34298888 -0.7942613 -1.5697882 -2.0355568 0.0694886 -1.1052238 0.22729835 -1.869806
2146 -0.79964286 -0.34889293 -1.0530754 0.6282137 2.0195992 0.9522709 1.6872833 -0.91774446 -0.6685598 0.39640856 -1.5873895 -0.40442282 0.44399524 -0.69905615 0.036709014 -1.0443206
167 -1.2492698 1.0311942 0.8524829 -0.55972946 -0.21923271 1.4787292 0.49652016 0.62252694 -0.17160586 -1.4306226 -1.1309813 -1.221411 0.12636046 -0.13010031 0.9071721 -1.8077404
329 0.04680791 -1.8854938 -0.2964433 0.08305998 -0.87170815 0.15603969 1.4977722 0.081307724 -1.2586943 -1.6012006 -0.3947896 -0.948396 0.092640564 -0.19202529 -0.1684246 -2.4544077
246 -0.7834506 -2.0902548 0.13664556 -0.76807314 0.14405692 0.528798 0.037058175 -0.45073453 -0.377344 -3.3373508 -2.3698652 1.7259692 -0.43065265 -0.5781429 0.3660025 -2.117936
384 -0.32715264 0.563701 0.6427128 -0.07781761 0.8209486 -0.04507978 -0.41622826 -0.8959865 -1.7843957 -1.9704275 -1.5606906 0.7048954 -0.22197124 -0.6173285 -0.46569315 -2.45411
2974 -3.8923602 -2.023099 -1.2205251 0.04498272 -1.1654863 -1.812029 -0.6890848 -1.8369781 -0.7634776 0.24143983 -2.272759 -0.8044387 0.32079345 -2.512511 -2.134606 -1.8517224
236 -1.0217831 0.60634655 -0.5508437 -1.8676828 0.41994292 0.7752716 -1.801099 0.35618836 0.7468971 -0.6559234 -0.5446884 -1.5156531 0.8602617 -1.8114064 -0.098499194 -2.2589238
1729 -2.0898902 -1.2595316 0.5032048 -0.75239265 0.8553422 0.6183793 -0.7504633 0.45191622 -0.3990955 -1.2922958 1.0593678 -0.38899493 -0.2584549 -0.81797373 -1.6113806 -0.49815068
2025 -1.0228847 -0.898343 0.3445901 0.85203284 -0.32199433 -0.65936726 -0.9478231 0.14271536 0.75013125 -2.1476982 -0.63965553 -1.3776896 0.7044238 -0.6206358 0.14847156 -0.69230604
487 0.6402488 -1.6979009 0.18931931 0.7110583 0.28639275 -0.22045027 -1.1625485 -0.00972042 -0.7840897 -0.24885157 -2.138998 -2.6026802 -0.6179646 0.19745912 -0.75820833 -1.6062758
2031 -1.6562016 -1.4756331 0.9605681 0.3638021 0.55475956 1.0197563 1.4705961 -0.19049576 1.0290571 -1.2357786 -0.94594485 -0.65524817 0.44679037 -0.4982295 -0.67776155 -0.7063951
1498 0.07363646 -1.7092886 1.9456683 0.27050492 1.2724396 1.2111968 -1.0757146 -0.28629416 0.25574234 -0.627506 -1.2280337 -0.8072179 -0.1295201 -1.2662852 0.8433383 -0.26522952
1047 -0.26269582 0.3375321 -1.5073844 -0.83989936 2.0716927 0.41377357 1.5788001 -2.3061075 -2.632798 -3.216259 -1.0790404 -1.8234233 -0.29312596 -0.9812881 4.630955e-05 -1.4729431
1845 -0.7842524 0.3914004 -0.83492106 -1.7480543 0.42021552 0.6941578 -1.6256826 0.3887908 0.87204295 -0.59167635 -0.64661247 -1.5168195 1.1032269 -1.8172472 0.10751479 -2.1976922
2395 -1.721935 0.041537818 1.1274549 -0.13628021 -0.5167319 1.7635455 1.4594558 -0.74832696 0.6761159 -1.7232034 -1.7019845 -1.2442483 0.94145656 -0.665146 0.9443813 -1.000121
1468 -2.5753691 -0.9238984 -0.8741661 -0.25895494 1.0576944 1.4026717 1.0152673 -1.12509 0.52080494 -0.06379897 -2.9329972 -0.32788244 1.7062247 -0.48323688 -0.3490273 -0.09009592
1195 -0.7443351 -4.2413163 -1.3547189 -2.235133 -0.37929425 0.82273763 0.32163832 -0.9330667 -0.14973064 1.1836855 -2.0268679 -1.8404053 -0.13325712 -3.3295465 0.21636088 -0.44280475
395 -0.94165826 0.7057559 -0.22290103 -1.1275352 0.32340264 -0.32403377 -1.3004007 0.108077295 0.4201424 -1.0890155 -2.3166232 -0.00029663436 -0.55620414 -1.6064035 -0.8139492 -0.6061361
482 -0.6430402 0.23016523 0.30012968 -0.1823656 1.5151721 -0.6639454 1.7151706 -0.4349553 -1.0940404 -1.2714822 -0.03564393 -1.1259356 0.95577186 -0.43940258 0.50798446 -1.7185422
850 -0.90078396 -1.115128 -1.0825115 0.116679534 2.1359718 -0.38869682 -0.28886712 1.0010823 -0.58383936 0.77042377 -1.4694993 -1.3799621 0.58520895 -0.13469404 -1.5101355 -1.4030213
1377 -1.1191874 -1.863441 0.29682073 0.32109645 1.0243165 -0.389552 0.59072524 -1.1454742 0.77599454 -1.1049281 0.09828166 -0.050683413 -0.28673324 -0.62483555 -0.6164078 -0.8029827
833 -1.208534 0.9314757 0.63626266 -1.9943099 -0.6133555 0.48406795 0.008013275 0.29583246 -0.46662858 -0.09283332 -0.7963703 -1.7397704 0.9682655 -1.8265305 0.23368356 -2.3835778
1062 -0.41947076 -0.45605135 1.1674984 -0.13545266 1.8037701 0.5184962 0.25415176 0.26190653 -1.046066 -0.81586474 -0.64584625 0.79931194 0.1213611 -1.3415167 -1.1116908 -1.853451
1782 -1.6179404 -0.09362157 -0.7792353 -1.5800852 -0.44781673 -0.62271553 1.225894 -3.4293203 -0.92000425 -2.165825 -0.7772348 -2.1091094 -1.8379685 -3.4623353 1.5298967 -2.1529026
1120 -0.40848887 -1.5287198 -0.25801075 -0.49486887 -0.06302076 -0.53025496 -0.4310044 0.45712852 -1.0474868 -0.60091156 -0.4196249 -0.9803057 -1.2823212 0.7988857 1.0619797 -2.0329251
1324 -1.3995827 0.7073774 0.48828244 -1.6255945 -0.52318877 -0.32904503 0.3344251 -0.022969645 -0.5427927 -0.28398383 -2.7185643 0.06189571 0.9690323 -1.3828645 -0.28823903 -1.6024747
2434 -1.0790476 0.6079296 0.73495764 -0.3525439 0.75064546 0.975331 0.5512967 0.6261302 -0.19955702 -1.4493574 -0.917446 -1.1652796 -1.2529823 -0.044366457 1.3417568 -1.1675148
146 -0.4910185 -1.8126203 1.5569276 -0.09520696 0.54593706 0.3275363 0.15848501 0.1984306 -0.118469834 -0.78683907 -1.3169516 -0.2683892 -0.63228726 0.60678756 0.26166365 -0.48074636
2939 -1.1613944 -1.9728556 0.38726774 0.54486436 0.8796625 -0.0956361 0.52696216 -0.88125867 1.0059224 -1.2239833 -0.27064168 0.0478081 -0.26890677 -0.27101785 -0.20419502 -1.0001035
3237 -2.2699845 -0.11735503 -0.9618355 0.7405707 0.7649463 0.43265963 -0.6573687 0.39013883 0.7141228 -0.63565886 -1.1620748 0.14639044 -0.68116134 -1.5843946 1.0221485 -1.6284927
268 -1.562564 -0.9284109 0.3776286 -1.460407 1.2679777 0.41209346 -0.85162395 -1.8881252 0.23649189 -0.37907436 -4.0479803 0.31422555 -1.6004084 -2.6927114 -1.4417487 -0.15342773
2819 -1.305035 -0.47390777 -0.10339562 0.014695245 0.97229046 0.031046655 -1.5123317 0.42424542 0.85686946 -1.0949817 -0.28138688 -0.19924599 -0.2910421 -1.0174791 1.0230955 -0.79505897
71 -1.9799037 -0.30165648 -1.2603136 -2.5474029 1.9507787 -1.5369143 -2.9057808 -0.8005215 -2.4167652 0.24279788 -3.0978963 -2.3281317 -1.0879596 -1.2326143 1.4403371 -0.2582764
677 0.642367 -0.40701184 -0.13124685 -1.3921101 1.3160292 0.4625987 -0.516442 -0.7594861 -1.2590474 -1.611337 -0.5011164 0.531015 -0.35585433 -1.9487438 -0.25441983 -3.122848
378 -1.5580178 -1.3204389 0.024564298 -0.49431336 0.93299204 0.47871625 -0.14457452 -0.17656182 -0.88748974 -1.0377322 -1.5905168 -1.3749195 0.09505581 -1.2308522 0.11450742 -1.40985
615 -1.2420433 -0.17800416 0.77303946 -1.2600118 -0.2804427 -0.16485393 0.9124421 -0.62684256 -0.6784994 0.14584696 -0.48172387 -0.12621805 1.160399 -0.49747843 0.17729709 -3.1952376
92 -0.6168629 -0.073458485 -0.098663494 -1.0554116 1.423775 0.32488883 0.99953085 1.1416911 0.19561611 -1.5145361 -0.99144495 -0.32910937 -0.68800646 -0.8263548 0.75583124 -0.42125517
2285 -1.1451176 0.7383011 0.80233365 -0.16289142 0.17878966 0.89284563 0.2248905 0.41362742 -0.04173444 -1.4032832 -1.1069043 -1.2082701 -0.69700694 0.32169965 1.1818471 -1.1794734
1494 -1.331714 -1.9878119 0.4566022 -1.6869848 0.92522836 -0.9169591 1.4178958 -0.7929935 2.15111 -0.9609177 -0.92946976 -3.0601122 1.0875427 -1.3125006 0.31432968 -1.3950465
2595 -0.45325774 -1.5923793 -0.2544445 -0.90583736 0.78944 -0.041356478 0.24854936 0.9608195 0.55399984 -1.7583807 0.18368387 -1.4177316 -0.47507086 0.15928212 0.6524813 -1.0104861
1858 -1.4139214 -0.3937953 1.8224933 0.30778763 0.4196478 0.31781566 -0.2514753 -0.17921603 0.58950317 -0.7204671 -0.6986674 -0.67088073 -1.0799235 0.22964013 0.400094 -1.6246514
2473 -2.7333262 1.4109 0.10947839 0.23140696 0.9407607 -0.9452104 -1.8661944 0.34608528 -1.2015663 -1.5143849 -1.782067 -2.3515286 0.36375454 -0.21330707 0.32214108 -1.1758256
2263 -2.487199 0.09886774 -0.8057648 0.6777327 1.2528282 0.46191147 -0.5393312 0.36554432 0.58729047 -0.8036725 -1.0532856 0.32525298 -0.6770847 -1.4171795 1.037638 -1.6880252
1932 -0.7940104 -1.0990953 -0.35593846 -0.8453451 1.559607 0.8643207 -0.36717528 0.16514584 0.9734815 -2.0371182 0.15273668 -0.53859526 -0.3491219 -0.4529029 0.25604728 -0.38518408
88 -0.19384699 0.06189158 0.8269262 0.18632592 1.3280982 0.16828215 -0.4346511 0.30622235 0.0465571 -3.041005 -0.7842304 -1.4030046 -0.6934359 -0.98689675 -0.69117385 -0.94253856
1833 -0.19381967 -1.3655379 -0.3322159 0.2097345 2.4131136 -0.8284577 0.21721528 0.5458224 -0.14346215 -0.09221978 -0.63971204 -0.2030981 -0.63320816 -1.1974581 -0.5646177 -1.1591238
2800 -1.5934427 -1.4186765 0.1327351 0.042443793 1.3546894 -0.7513198 1.0440906 -0.4763435 0.4356763 -0.774309 -0.23742105 0.22674072 0.1751761 0.05784008 0.11665083 -1.4493127
2453 -1.5746219 -1.0520601 0.25867543 -0.41070116 1.8854133 -0.3677719 0.6793304 -0.4506303 0.23877922 -0.718567 -0.20199528 0.39656615 0.6018097 0.5106706 0.06522271 -1.9474814
1776 -0.6015551 -2.2750835 -0.46383002 -0.09120268 2.151451 -0.77786195 0.08929879 0.7608312 -0.13636045 -0.7592909 -0.3123679 -0.68461096 -1.1454239 -2.022323 -0.45144615 -0.44954404
3384 -1.5271608 0.6867017 0.86658984 -1.500026 -0.5513023 -0.039256796 0.2338758 -0.22048101 -0.25572777 0.02425783 -3.0985985 -0.10510827 0.92302155 -1.5170467 -0.18326132 -2.1044014
1392 -1.1506387 -1.5903993 -0.005966427 0.80550796 0.77606606 0.4152237 -1.4649166 -0.6452862 0.7845933 -0.9612398 0.0748638 -0.24055704 -0.06515113 -0.31038448 0.1985054 -1.2887341
2258 -1.2446803 -0.9745702 -0.5703328 1.014435 0.8440746 0.8483455 -1.0985582 0.98604834 0.4186399 -0.72015995 -0.3930045 -0.07560729 -0.1402336 -0.9030436 0.46791506 -1.2401445
310 -1.5494046 0.35350886 1.1054603 -1.5965569 -0.66737443 -0.41081354 0.25821465 -0.023815615 -0.6705837 0.14504321 -2.478516 -0.06012528 1.0299906 -0.89569557 -0.12522458 -2.0704792
3060 -1.4929446 -1.0598186 0.3881102 0.21971515 1.3092458 -0.17728387 -0.021356447 1.0513219 -0.544365 -0.046024352 -0.43614376 0.37238756 0.43550533 0.2662422 -0.19131006 -1.9397092
2337 -0.6797513 0.25855908 0.2976458 -0.6386804 2.1650445 -0.5073152 1.1256628 0.5353748 -1.0458857 -1.3734373 -0.08129893 -1.5201223 1.5537051 -0.47557664 0.5689356 -1.9017975
768 -0.1769558 -1.9571438 0.22086175 0.018882442 0.5228891 0.1585084 -0.13982593 -0.56955594 0.22608155 -0.49197492 0.11904678 -0.30667683 -1.1634637 0.2047719 0.6339591 -1.8676331
1872 -0.70489293 -1.4439076 0.2071785 -0.41194025 1.8260856 0.7508968 0.20865482 0.3683016 0.30379656 -0.9466706 -0.070175655 0.13264848 0.5978555 0.49932632 -0.07196218 -2.3004305
2000 -1.7126602 -0.34183902 -0.8297858 -0.72093797 0.030831259 -0.5502451 1.7700292 0.20481037 -1.0807471 -0.790803 -0.7427264 0.4260725 0.74118096 -0.55893594 0.56747156 -2.74037
168 -1.9006251 -3.7665515 -0.34772983 0.15394984 2.2841597 0.10665863 -0.38787997 -0.07490582 -2.1595914 0.2953924 -0.21415272 -1.1670375 2.4450479 -0.43446812 -0.18981971 -0.7500385
3099 -0.010632059 -1.7705858 0.47428846 0.1928672 0.07288674 0.35995787 0.41763693 0.8488298 -1.2828871 0.15065789 -0.49412814 -1.6651597 -0.658712 -0.16294803 -0.8321958 -1.811577
147 -0.4629983 0.07165184 0.51188755 -0.7796815 2.1960714 -0.30363676 0.30889013 0.7453067 -1.0425254 -1.2278042 -0.22816415 -1.3886139 2.002178 -0.33440173 0.5361041 -2.4137373
2238 -1.0663943 -1.2977427 -0.14919405 0.1257611 0.11498206 0.781334 -0.3785427 0.6084584 0.78630406 -1.7499988 0.6293852 -0.8502896 0.12084198 -0.7764241 0.33665147 -0.8085929
530 -1.8332148 -0.53380007 -0.6272309 -0.12426514 0.4932737 -0.43521774 0.29027888 0.14030953 -0.3453095 0.28523755 -3.489983 -1.0585104 -1.5345762 -2.8673277 -0.97501343 0.23979431
458 0.40123084 -1.6284921 -0.08067763 0.45927963 0.64614934 -0.99822587 -1.5360974 -0.6042986 -0.800612 -0.1377016 -2.220155 -3.7748945 -1.0123932 -0.058273483 -0.97966737 -1.9318732
2745 -0.7797049 -1.7640516 -0.95978856 -2.6275115 0.8264037 0.5769941 -3.1673522 -1.1775872 -2.7646754 0.7369862 -1.0064366 -1.3792228 1.2971383 -0.73995364 -0.9576225 -2.8382344
3122 -1.3993449 0.09848686 0.33951008 -0.20469989 1.4888525 -0.39141163 0.3541338 0.51984227 0.21551803 -1.6005023 -0.80859095 -0.4799121 -1.0861523 0.055469517 0.6891335 -0.60745037
771 -0.85614437 0.35382047 -0.6852173 -0.7585928 0.4716478 0.49293488 1.6681669 0.43393195 -0.8036335 -0.9822893 -3.0114713 -0.30468675 0.7712034 -0.5958688 0.08096551 -0.69203186
124 -0.8655 -1.0661403 -1.3270644 -1.4109647 -0.44264713 -0.28879935 1.6863216 -2.9386725 -1.987314 -0.6490738 -3.3260703 -3.3276544 0.21901436 -0.533037 -1.5618112 -0.7771139
1123 -1.0339637 -0.053415146 -0.99153423 -0.8532485 -0.03917272 -0.35748342 1.7797897 0.23372585 -1.1130731 -0.75252515 -1.3024708 0.16918778 0.90039796 -0.6727427 0.4207016 -2.662316
145 -0.9181326 -2.1782446 0.28944921 -0.38755897 1.2836252 0.0038586198 0.62478274 0.37503418 0.6660726 -0.52730733 -0.5673822 -0.91057646 -0.65277785 0.657379 -0.337402 -1.0809798
360 -0.8848796 -1.1176828 0.824478 -0.16198215 0.4184806 0.7569655 0.36193523 0.13381049 0.578813 -1.839385 -0.9836811 0.8650557 -0.57935804 -0.11413516 0.054683782 -1.7210107
879 -0.19657001 -1.5961078 -1.2986431 -1.3209493 -0.5231386 1.537481 -0.92783386 0.8021417 0.18069603 -1.7256567 -0.9224365 -1.3001164 -1.1342975 -0.13582568 -0.25444818 -1.1466564
2068 -0.41275507 -2.0500956 -0.046355195 -0.21025605 2.2987304 -1.0810299 0.0017085604 0.3220572 -0.088833064 0.16386928 -0.7066554 -0.165166 -0.8663899 -1.1992239 -0.06825703 -0.9700213
692 -1.3891479 0.021735247 -0.7441091 -1.029755 0.638551 1.0981237 -0.6260496 0.1645179 1.8927712 -0.5719255 -0.63900393 -1.2258003 0.4115795 -1.2582821 -0.22329357 -1.5025733
2729 -1.0109863 -1.2490673 0.42413917 -1.4225894 0.08346054 0.44687527 -0.90551096 0.032361247 1.4817857 -0.8756395 -0.8973374 -1.7363104 -1.6262214 -1.0376335 0.349905 -0.05435712
386 -0.80231947 1.0003539 0.6989017 -0.53463674 0.8513275 0.07123927 -0.7945484 -1.0117486 -2.315458 -2.0620725 -1.6067429 0.20863025 -0.5968718 -0.22831254 -0.4572875 -2.780228
2556 0.67172307 -0.3094437 -0.14660971 -1.12629 1.2874736 0.36677 0.3365678 0.080211334 -0.88159627 -1.0849624 -0.37064266 0.22540721 -0.26047027 -1.5370809 -0.6325638 -2.8623493
274 -2.8378808 0.41706592 -0.92558396 0.26897013 0.533607 -0.44889924 -0.7110715 -1.4513603 -2.7653003 -2.0499232 -3.1343853 0.44866046 -0.76983964 -1.3478491 1.1333649 -0.30444384
1207 -0.45884547 -0.55895257 0.4437344 -0.21795446 1.1433609 0.95398015 1.230967 0.10360115 -0.8776635 -0.23655722 -3.2576687 -0.4541254 0.61568356 -0.018202621 1.4790496 -0.51649314
1832 -0.92328554 -2.1513283 -0.32254007 0.7178327 0.5514732 0.5439642 -1.0278822 -1.4446791 0.49281907 -1.0338551 -0.02741208 -0.19879316 -1.3704728 -0.7767333 -1.0530369 -1.8032521
2442 -1.3040423 -0.4517393 0.99738926 -0.7467959 -0.5764713 2.1018116 1.504083 -1.1345278 0.71863705 -1.6481234 -1.8791881 -1.6846442 0.9568561 -1.3108609 1.1657373 -0.57322025
2093 -2.5065484 -0.84767777 0.49705178 -0.4644014 0.8911059 1.6175516 -1.1955557 0.7359975 -0.46480504 -2.0322216 0.9644595 -1.2098056 0.7679575 -0.54740775 0.12865056 -0.6325683
560 -1.2307774 1.3143163 0.770512 -0.7021009 1.2682079 -0.3792621 -1.343071 -0.88019055 -2.4980414 -1.9327035 -1.5084742 -0.19303998 -0.48941177 -0.21015382 -0.03669763 -2.745331
149 0.05478911 -1.6821283 0.31978065 0.29910454 0.07075761 0.5359684 0.57000846 0.6680905 -1.2272537 0.10726158 -0.88353026 -1.8259566 -0.9321825 0.10231595 -0.6815254 -1.6675272
1399 -2.0126822 -0.12700221 -0.49728352 0.16786037 0.8109872 -0.6606877 0.8184164 0.41205558 0.6987505 -0.07364943 -0.24534142 -1.2982302 -0.6437733 -0.50133276 0.89360607 -1.331442
2139 -1.7105151 0.21743819 -1.2677308 0.52865 1.173054 0.21266603 0.34167248 0.09959951 -0.64590555 -1.1441001 0.88555163 -1.6697006 -0.21592475 -0.9729403 -0.5589586 -2.5411637
594 -2.3848524 -0.04852883 -1.5679603 -1.7997706 1.1942565 0.34093603 -0.40971732 0.8754379 -2.4026332 0.21576224 -1.0782338 -2.2431188 -2.1241076 -2.5501773 -1.953439 -0.7218006
377 -1.2062978 0.720164 -0.74492264 -0.14655009 0.3153802 -0.38435975 0.4059968 -0.070432074 -1.4101985 -1.5834702 -3.0849595 0.3873127 0.5116879 -0.9806362 -1.1788152 -1.5825417
1708 -3.7986956 -1.8584334 0.3615974 -1.6968732 0.07037187 -0.7260267 -1.1397907 -2.3655725 -0.3074965 -1.429203 -1.4002857 0.111798085 2.1466095 -2.7791927 0.31552538 0.020846529
2670 -2.2894182 -1.467754 1.5638242 -0.48355836 0.34627846 2.0259447 1.6698625 -0.18437354 0.8357218 -1.7542982 -1.0600278 -1.4133301 0.19912328 -0.25265563 -1.3932961 -0.9814908
72 -1.6046144 0.3390721 0.4129759 0.32329577 -0.004920185 -0.62237835 -0.3640625 -0.81012625 -1.7806767 -1.8928629 -2.952269 0.5005291 -0.054927245 -1.4334145 -0.742831 -0.76374835
1922 -2.0254133 -1.6786219 0.31414646 0.9794997 -0.6266671 0.30860376 -0.38879406 0.360713 -0.07785425 -2.1050074 0.043109126 -1.2000153 -0.22935472 -1.2102828 0.90613353 -0.05423866
555 -0.74672097 -0.041611955 0.013210976 -0.5099805 -0.62264323 1.3377674 0.9173454 0.39016974 0.27279156 -1.5785328 -0.2119571 -0.28664678 0.02706756 -0.86232316 0.45424712 -2.3056006
1933 -2.6102386 -1.0771466 0.8202139 -0.611395 0.41564023 1.3726223 -2.8857613 -0.35256937 -1.0538492 -0.6994357 -1.2186695 -1.5399314 -0.7489765 0.016799096 -2.661272 -1.1198641
658 -4.117094 -2.361346 0.31096894 0.6206622 -1.4888767 -0.43692005 -1.532176 -0.93690926 -2.0163019 -0.8970095 -0.29391634 -1.7660341 0.3509373 -1.204805 0.75456727 -0.30028394
2078 -1.8140264 0.31144923 -1.0950977 0.3059057 1.145338 0.02525041 0.21629378 -0.1413699 -0.53919435 -1.1576011 1.0042127 -1.5526772 -0.25090235 -0.87750316 -0.34222034 -2.5358708
2264 -0.8275611 -1.0554016 0.020512857 -0.19655657 1.2751418 1.5061083 -0.45836595 0.24518636 0.795958 -1.7783313 0.07380594 0.052615304 0.0005780079 -0.57512844 0.42353025 -1.1068434
422 -3.6671174 -1.8601968 0.46443552 -1.7224728 0.07601215 -0.6333934 -1.1894666 -2.3638754 -0.3274543 -1.3993509 -1.3927084 0.11447614 2.034252 -2.7638674 0.38298836 0.047065232
3986 -1.1810372 -1.0614552 -0.96660507 -2.6929822 1.1896448 0.9223895 -3.187635 -0.7086713 -2.6678088 0.76595145 -0.72542936 -1.5382508 1.1394901 -0.6637101 -0.93799883 -2.9711928
1418 -1.805877 -2.928069 -0.12206409 -0.54356915 1.623922 0.14839616 0.59007 -2.7735116 0.3619153 -1.2004293 -0.07471097 -0.3468028 0.08592476 -1.5303732 -0.97471136 -0.1503153
2239 -1.3383303 -1.355023 0.46588427 -0.65093714 1.890299 -0.72978276 0.30474916 -0.39544994 -0.37183002 -0.8602562 -1.1133565 0.023884948 0.80544376 1.3802451 -0.38165787 -1.6621642
396 -1.1806765 0.9733174 0.0904061 -0.90978295 -0.12088045 -0.5919721 -0.7316376 -0.30660433 -0.21936652 -1.1799734 -2.4282284 0.30443662 -0.19463533 -1.5603589 -0.91767126 -1.2090385
36 0.047370825 0.18158332 0.23201287 0.91642725 0.17720406 -0.66749674 0.88830507 -0.667572 -1.0483526 -1.583782 -1.0203917 -0.4482033 0.15278539 -0.39203602 -0.16693032 -2.094689
1239 -3.1850958 -1.6160988 -1.456941 -1.011619 -0.95242196 0.7862142 -0.0994866 1.7205874 -4.285763 -2.3634837 -1.8504024 -0.11583972 0.45936856 -0.972341 -0.2755029 -0.9675481
1225 -0.45968452 0.6566976 2.4899802 -2.072282 1.4599528 1.2451849 0.33013552 0.1120919 -1.7846602 -0.1434192 -2.8906872 -3.8365896 -0.82005775 -2.822017 -0.42127487 -0.57021827
175 -1.0191697 -2.8514729 -0.7903897 0.6747029 -2.2033615 0.3652864 -0.43082213 -1.8961726 -1.5746855 -1.084411 -3.9616392 -2.2139833 1.4527888 -0.025844967 1.6845179 -1.7100989
2971 -1.3455447 0.22280724 -1.0602587 0.54864657 0.86774135 0.2414418 0.6573072 -0.13049504 -0.35610414 -1.0785738 0.8018269 -1.3318751 -0.31477287 -1.0905887 -0.19219325 -3.0376565
3076 -2.6259766 -0.47687697 -0.7538391 -0.6886165 0.9977165 0.18865491 -0.7491801 -3.558125 -4.5074296 -0.15716375 -1.9898341 -1.279189 0.604253 -1.8832636 -0.5423968 0.10387091
2814 -1.6952761 -1.0146142 0.7554349 -0.25290936 2.035669 1.1678706 0.5867178 0.115706034 -0.26965496 1.0107381 0.6212918 -1.5748712 -0.55536675 -0.6224915 0.77550024 -1.6057488
2404 -2.5366857 -0.79466367 -0.64869326 -0.5309635 -1.1171321 0.61072373 -2.5290601 -1.4438722 -2.270899 -1.9677321 -1.5628661 0.5032475 2.1632051 -1.7343496 1.8688841 -3.1550732
2095 -1.6491739 -1.855795 -0.08839021 -0.5666693 1.1634254 -1.9071015 0.76269794 -0.44370556 -0.08954256 -1.2701268 0.55683446 -0.62761927 -0.2585624 -1.4086003 -0.91725165 -1.0666789
968 -0.5907337 0.51057804 -2.509599 -0.5820385 1.7222179 0.5649568 1.4856906 -2.3444037 -2.9011178 -3.3357766 -1.3839341 -1.9924808 -0.33532855 -1.2290095 0.26834488 -1.7472574
1836 -0.050804365 -1.1368418 1.3057064 -0.8648379 1.7183734 0.8345813 -0.91652536 0.37372765 0.36330965 -0.15783414 -1.9993343 -0.26516432 0.7439863 -0.24918523 0.8565564 -0.764816
441 -1.4401292 0.94434613 0.4983798 -1.5693074 -0.64839995 -0.4058364 -0.22135125 -0.40233377 -0.46721452 -0.83044344 -2.408565 0.12072918 0.40165016 -1.5936136 -0.5765878 -1.373992
2455 -1.2996081 -0.6761419 0.9966517 -0.76836854 0.8802789 -1.172687 1.6584885 0.37725836 1.3472929 -0.9651893 -1.3974155 -1.3924536 -0.43759468 -1.2478335 0.7375961 -1.3529798
1817 0.20194934 -1.5361489 0.2612021 0.24996927 0.23325586 0.44464397 0.28319624 0.75894374 -1.1538234 0.038321394 -0.9139363 -1.8608843 -1.2531575 -0.12041207 -0.8137308 -2.0400317
229 -1.6518269 -0.3775716 1.5664675 -0.8183427 1.1650994 -0.22735909 -0.065535516 -0.4337382 0.32115892 -0.40100193 -0.26665542 -0.030722145 0.1522449 0.14785025 -0.1970962 -2.852142
3601 -1.5222707 -2.7744465 -0.06426455 0.25853366 0.5554578 -1.3883781 -1.9312357 -2.892438 -3.435415 -0.14118756 -3.1787584 -0.85759777 1.0491756 0.83339125 0.5357459 -2.1405022
68 0.19812492 -1.5876479 -2.7607982 -1.8942538 2.7257106 0.3731398 -0.27569464 -2.888406 -0.53102696 -2.2459314 -1.9464351 -3.1215036 0.42982662 -0.2502456 2.1261733 -1.2374661
1485 -1.332121 -0.7324873 1.0101271 -0.6607399 1.5773315 -0.13681602 0.6728878 0.57057494 0.84469664 -2.0651314 -1.201674 0.078459635 0.01972303 -0.33589932 0.03220313 -0.5766494
2437 -1.1233608 -0.06294569 -0.33383593 0.0993378 2.1179414 0.96532124 1.7446495 -0.8766233 -0.7927807 0.65345156 -0.9579308 -0.80753416 0.14368166 -0.3444646 0.09843562 -1.0524313
613 -2.018318 -3.6275005 0.38832897 -2.6652334 -1.1172407 -1.0707635 -0.2306895 -1.9400339 -1.0104666 -2.5732474 -1.2528886 -1.2943488 2.7245734 -0.20713529 1.4337075 -1.5333233
2998 -0.32441542 -0.0055318805 -0.36577424 -0.5975768 -0.7039868 0.6601604 1.1740404 0.19896482 -0.41572264 -1.0896189 -0.013970568 -0.50621665 0.12814349 -0.9092274 0.22593045 -2.581338
3616 -1.8861352 0.8695924 0.47828066 0.15006457 0.65296173 0.81201226 -0.6753589 0.2872141 0.2181469 -2.1120992 -1.2945741 -1.5614796 0.508745 0.092104554 0.97829026 -0.8193976
3867 -1.5201858 -1.0868808 0.11626833 -0.4652913 0.85024875 0.5208721 -0.06074313 -0.50316644 -0.92399436 -0.85186625 -1.5302489 -1.1659185 0.08909634 -1.0646269 0.110986955 -1.5058577
28 -0.9470828 -2.1288729 0.56849 0.7779 1.0465051 0.018350104 -1.6694875 -0.1085873 0.08721994 -0.22085683 -0.07581031 -0.5637573 0.45370278 0.07477433 -0.39146668 -1.6283444
248 -0.3758546 0.3202766 0.86426497 0.5519518 1.1038557 -0.05705192 0.020763524 -0.46818295 -1.7135314 -1.3427769 -1.6194823 0.7570729 -0.2488339 -1.060966 -0.8299575 -2.2909348
404 -1.9078189 -0.87577087 -0.4159942 -2.7644486 -0.96066666 2.2961507 -2.9668272 -1.672058 -1.8304042 -1.4133201 -1.9863093 -0.23350413 0.26543888 -4.37857 0.19479525 -0.7972946
43 -0.00915893 -1.6583443 1.6596143 0.06939673 2.718093 -0.017207224 -0.9818155 -0.7192766 -3.4134681 -1.9680364 -2.1773372 -3.1824076 -0.4480609 -1.924923 -1.7676084 0.5521576
2454 -1.807355 -0.38408884 0.97395384 -0.806413 1.9793118 -0.440955 0.2145478 -0.8027593 0.34596226 -0.38640392 -0.24433538 -0.062256295 0.4961669 0.28653273 -0.053295422 -2.710262
2057 -0.4052695 -0.2903981 0.3706109 -0.8491723 0.34051433 0.024002569 -0.9730159 0.18677363 0.7053683 -1.044397 -0.58057743 -2.6217272 -1.591406 -1.1767113 1.7168988 -1.6325291
263 0.24588929 -1.3882195 -1.798605 -2.4607592 0.4871365 -1.1519043 -2.788423 0.38096735 -2.2967443 -2.9828007 -2.022563 -2.3592014 1.4324688 -0.91418195 -0.25096264 -1.9371159
2850 -1.9288988 0.9335381 0.51974183 0.22795235 0.5505441 0.895666 -0.67649144 0.20919736 0.20734876 -2.0752387 -1.3115385 -1.4141105 0.58802414 0.011072093 0.8448483 -0.8039101
2148 -0.7947121 -1.9997402 -1.4421467 -0.54148746 -0.35095996 0.93812543 0.16800855 -0.22279994 1.1113139 -0.113344274 -2.522409 -0.55047965 -0.07681699 -0.5875073 -1.5407542 -2.0737429
3236 -1.9969995 -0.10563606 -0.46725222 0.7934235 0.70841044 1.1679344 -0.47229588 -0.5382327 0.41099164 -0.7257014 -0.27341452 -1.4500917 -0.5821243 0.571286 -0.6825769 -1.1372164
87 -1.0901175 -2.6077907 -0.7215147 0.13823152 0.17453615 -0.3058874 1.3834122 0.3537462 -1.4631044 0.40330622 -1.1239086 -2.3337662 0.27920395 0.7930898 -0.59977865 -1.5537196
1230 -1.2679434 -1.0265009 -0.17779513 -0.54795074 0.730084 0.37223032 -0.24090981 -0.5931518 -0.9118118 -0.74185216 -1.2923514 -1.1869093 -0.0007057349 -1.2727709 0.025446737 -1.289883
473 -0.12681635 -2.2636356 0.860549 -3.983239 0.37042934 -1.021665 0.10200024 -2.2125406 -0.77535886 -1.763596 -2.321607 -0.42873478 0.42550117 -3.287944 1.5094163 -0.9166831
75 -1.2944411 0.19836177 0.23178758 -0.2092864 0.24697365 -0.9640521 0.007982234 -1.2686144 -1.5799174 -2.0938663 -3.291549 0.53288025 -0.071715236 -1.0230551 -0.7073047 -0.82330656
2256 -0.74365306 -1.7022014 -0.40230918 -0.33834192 0.40437427 0.28738236 0.19749044 0.51054764 0.8821858 -1.7026498 0.5777756 -1.2830709 0.06665062 -0.115468316 0.5187809 -0.8995248
19 -0.81531173 -1.3254074 -0.8320991 -1.0716509 0.7957922 0.21674171 -0.36554152 -0.83090335 -1.3098935 -0.9884924 -1.4828162 -1.6203996 0.100847155 -0.65190226 0.32054573 -0.8221095
1596 -1.5693711 -1.2030206 0.03815843 -0.5751636 0.88120323 0.5891224 -0.10324848 -0.30698365 -0.9211282 -0.91879904 -1.4587272 -1.252668 -0.0534495 -1.1507883 0.15458173 -1.5930439
1972 -1.8706112 0.65563816 0.15131968 0.9020701 0.863533 0.51321423 -0.563284 0.52237517 0.61359966 -1.3503934 -0.8501538 -1.5399292 0.3228301 -0.24669284 -0.18548182 -1.2826661
398 -1.4375175 0.6912235 -0.6832448 -0.3665125 0.24422036 -0.28232157 0.737728 0.27264968 -1.788277 -1.3572502 -3.4685996 0.5270615 1.3029858 -1.0785277 -0.17263167 -1.7895719
3562 -3.69254 -1.9099158 0.5132437 -1.7622012 0.039487828 -0.5929301 -1.2340723 -2.3065 -0.2662847 -1.3205533 -1.4285896 0.15711187 2.0986018 -2.753628 0.39356866 -0.033952355
1335 -2.3459027 -1.5351119 1.3588179 -0.056859758 0.17757553 1.8258709 1.2852963 0.012287187 0.6420485 -1.2635082 -0.81526977 -1.2196251 0.5811947 -0.21062304 -0.8603358 -0.611978
2799 -3.7130086 -2.4285145 -0.39363763 -1.4314011 1.6146767 0.40339333 -1.2543188 -3.2338111 0.55286515 1.7070479 -1.0158591 -1.8562921 -0.36248225 -2.458061 0.6316639 -0.18744619
595 -2.4188282 -0.52096945 -2.0844793 -1.6132665 0.9659733 0.4555383 -0.28521612 0.9592751 -2.249423 0.38067734 -0.7503145 -2.1656861 -1.8620259 -2.8089583 -1.9446378 -0.89265466
2217 -0.7623916 -0.018633304 -1.1326369 -0.038282957 0.5619262 1.7216439 1.3458943 0.8581919 -1.3004476 -1.0533582 -2.6281328 -0.82166994 0.5336463 -1.0626963 1.2369615 -0.40624878
1454 -1.2552685 -1.227451 1.4417061 -1.3503138 0.649814 0.250116 -0.17036618 0.5873958 0.21156725 -0.8097606 -0.22238576 -1.7267805 -0.04694536 1.2301637 0.1963584 -1.7921088
1564 -1.4633452 -0.55299073 -0.08740939 -0.91772074 0.65197426 0.4926062 -0.55398065 -0.5757253 -1.2003913 -0.99477106 -0.875322 -1.1483529 0.6624486 -1.1911436 0.079509735 -1.4396542
1915 -0.10381711 -0.9440768 1.4402392 -2.6059318 -0.74796015 1.6541405 0.3642325 -3.0197048 -2.443901 0.58332044 -2.7393863 -2.2996407 -0.22284375 -2.8631048 0.9908431 -1.342526
1999 -0.4433082 -2.0977652 -1.3338114 -3.6792388 -1.6490544 1.8097763 -0.07906902 -1.7178946 -2.1855934 -1.006772 -1.0101566 -1.377463 -1.4433469 -3.234153 -0.42725933 -1.907142
412 0.8761259 -2.1961076 0.09336829 -1.0374715 2.4762728 -0.62682587 -2.286002 -3.5276535 -0.8050868 -2.0748882 -0.9285822 -3.2518008 -0.32275108 -2.2205772 0.40552303 -1.099028
2317 -2.3757102 -1.7656176 0.7289297 -0.53401244 -0.11669899 -1.7566934 -2.156752 -0.3395085 -3.4212887 -0.49753547 -2.7089164 -1.6496912 1.2324636 -2.175597 -2.1847086 -0.16547407
2084 -2.545797 -2.809278 -2.1091537 -2.1299171 1.0875621 0.2473059 -0.055330854 -2.58485 -1.2461003 0.9355614 -1.1637515 -3.2603703 -1.7585918 0.32105306 -0.67800665 -0.42040038
2935 -0.43345353 0.14676943 0.6617372 1.068367 0.25655302 -0.5099596 -0.42055467 0.041253533 -0.09745835 -2.1701086 -0.7608115 -1.3351479 0.9136001 -0.48669928 0.090457074 -2.1359608
117 -1.4506772 -1.0576097 0.10175785 -0.64073306 0.71176744 0.48706648 0.048993852 -0.50064725 -0.7362333 -0.86981314 -1.5353789 -1.1795251 0.2217623 -1.2868662 0.17422655 -1.3577168
1280 -1.5374476 -0.82898146 -0.9507571 -3.9128983 1.1478677 0.45441175 -0.60735536 -1.36861 -0.47714671 -2.1431892 -2.6442416 -1.4175618 3.4785078 0.3075039 0.21551076 -1.6050273
344 0.7101699 -0.51400334 0.16483562 -1.512816 0.6573634 0.053036124 -1.147288 -0.7621507 -2.2421713 -2.526816 -1.8042206 0.87157214 0.09663771 -2.508202 0.40398774 -2.7620432
200 -2.387235 -0.7806771 0.908883 -2.352658 0.10690362 -1.609985 1.5983815 -1.4090027 1.2735565 -0.012171129 -2.2879176 -2.4494417 -0.6457423 -1.032862 0.13858463 -1.6634809
896 -0.05609466 -2.5854232 -0.0042386563 -0.3493102 0.5888961 1.8542016 -0.69818634 -0.08635273 -3.001117 -3.9154656 -1.6114707 -0.62035394 0.8200729 -2.5722988 -2.1743915 -0.36570525
3053 -3.280759 -0.40972793 0.8604217 -1.0647695 1.289337 1.2088895 -1.496726 -2.3761933 -3.2202475 -3.4386292 0.37660238 0.477367 -0.09572203 -2.163474 1.0003078 -1.1514349
2255 -0.4703857 -1.0266621 0.17276894 0.94953406 1.1423311 1.3429257 -0.84113866 0.8452197 0.22478673 -1.7178147 -0.12838402 -0.26165488 0.10171979 -0.73223263 0.7888907 -1.9531908
607 -0.42307284 -0.48552254 0.059301894 -0.38184014 0.23608747 0.52760476 1.5878078 -0.0912094 -1.300986 -0.39110678 -0.8157106 0.24147964 0.8684147 -1.3183941 1.5119084 -2.883376
3088 -1.2874798 -2.310598 0.20654134 -3.7615879 0.034248263 0.74194217 -1.3511055 -0.28540835 -1.2275527 -1.7674364 -2.2850087 -1.796075 1.4029124 -1.9206579 -3.2385514 -0.023585355
2905 -1.420928 0.3439 1.7866828 0.11288948 0.22887531 2.5624683 -1.976909 -2.9031315 -1.9242787 -1.8632243 -1.4122467 -1.6551118 0.55653167 -3.8775804 -0.23293936 -1.2451408
880 -3.5135393 -1.584038 -0.49736524 -2.3000178 -2.3251932 1.1036773 0.5540985 -2.0527384 -2.2802384 -0.3212002 -2.5837488 -1.3633354 -0.13762671 -2.4784267 -1.6191545 0.07840904
2521 -1.1872156 -0.18700068 0.51933366 0.8890457 0.9752513 0.7876917 -0.95487654 0.13773286 0.59366614 -0.87586546 0.05109329 -1.3153877 -0.8306308 -0.6763415 0.20285837 -1.2590764
2764 -1.187893 -0.631926 1.322634 -1.0002736 0.95308053 -0.0922805 -0.01468636 -0.12033014 0.080094926 -0.1144006 -0.2602985 0.16238935 0.46253338 -0.036882438 -0.42694575 -2.8325663
2024 -3.5596883 -0.70026284 -2.2377663 -0.036380176 0.9821444 1.0903393 0.29675356 -0.75079924 -2.18477 -0.41768748 -1.3168695 -3.4023702 2.4878042 -2.1991823 -0.1066977 0.84519356
3135 -0.19804372 -2.1966782 -2.328791 -3.3266802 1.8428676 0.021287657 0.37264258 0.19107622 -2.09073 -1.0287046 -1.7469271 -0.42415184 2.2699769 -3.3572 -0.031533632 -1.016026
347 -1.5158995 -1.7458789 -1.1474149 -2.086539 -0.06531459 0.33535627 1.7638347 -1.331296 -2.7949603 -2.2061465 -1.7196932 0.026238073 -1.6040567 -3.4459796 -2.4299846 -0.9446433
711 -0.10734934 -2.693415 -2.7633917 -0.88213027 -0.76074463 -1.7637726 -0.36378515 -2.2548964 -2.9961433 -0.844769 -2.2919471 -1.119633 0.8916578 -1.9902972 0.082676776 -2.6031563
107 -3.382617 -0.38558093 0.43504426 -1.523856 1.6138473 -1.538695 -2.62629 -1.1171634 -1.0982751 2.1244473 -1.549075 -3.2253666 -0.019063339 -1.2367489 -0.7501152 -2.0251694
60 -0.71021867 -0.039475054 -0.69784385 -0.5433728 1.6181918 1.639936 1.0657398 1.0075057 -1.0313042 -0.9698691 -3.1976886 -0.4474224 0.85728335 -0.518605 0.51471865 -0.3991614
1326 -0.045737736 -0.56284493 0.41852292 -0.9376805 0.6120913 0.4630844 -2.4778967 -3.5460136 -2.736335 -2.9613526 -2.947899 -1.9652977 0.7064568 -0.30767685 0.47123033 -0.97973627
196 -0.35109478 -1.6693218 0.08699693 -0.0746587 0.5920471 -0.112249166 0.2666679 1.1093104 -1.6584864 -0.34938085 -0.7554059 -1.7443442 -0.8931215 0.7451229 -0.42482135 -1.4773716
1919 -2.8072917 -1.6289306 0.44866022 0.9081742 -0.71187294 0.24327326 -0.11508459 -0.28088787 -0.13990621 -1.3788949 0.1197845 -1.6170853 -0.042951155 -1.1465864 1.0514234 0.21253203
1421 -1.6330355 -1.3024182 -0.9627664 -3.2243435 -1.8173478 0.3935197 -1.6038425 1.1622164 -3.235812 -0.22081791 -2.9361022 -1.799414 -0.10035703 -2.5130746 0.8369984 -0.6814944
497 -1.7834033 -0.4752476 -0.2897083 -0.18386948 0.19274758 -0.67958385 0.87969685 0.3622187 -0.49655545 0.11967125 -3.3623688 -1.3758328 -1.193295 -3.2216077 -1.3569444 -0.15002768
1147 -1.564023 -1.1729996 0.08209492 -0.571344 0.9204224 0.5639134 -8.8226974e-05 -0.2471139 -0.94274175 -0.9777492 -1.5529399 -1.2480792 -0.09219112 -1.1733145 0.12485319 -1.5995079
172 -3.0084536 -0.18018056 0.5953499 -1.4877982 -0.21672168 1.0508146 0.003873493 -4.6200485 -0.76962996 -0.8456144 -2.4216907 -1.6236942 -2.1466036 -1.5510634 -0.058663577 -0.5580953
195 -1.6997082 -1.1833942 0.10642408 -0.49910554 1.0237675 0.6512087 -0.039305028 -0.20139775 -0.91818786 -0.99125797 -1.6131234 -1.2630116 -0.0008834201 -1.1422536 0.04695686 -1.6913435
1670 -1.5666579 0.21177703 -0.15497115 -0.06588436 1.6354555 0.86590093 1.9327359 -1.4590639 -1.4089079 0.5067354 -1.1697756 -0.405991 -0.20635097 -0.52192825 -0.30229107 -1.2505666
725 -0.34504604 -2.0552852 0.29905102 -1.6161047 2.2974446 0.1005797 -0.6732915 -2.6359348 -3.4107034 0.3720297 -0.4664219 -2.8976502 2.1420903 -0.31903797 1.8482192 -2.1228778
2441 -1.333406 -0.55164784 1.1568847 0.014038044 -0.3263541 1.8226669 1.5868617 -0.6820533 0.48168185 -1.6571383 -1.9009329 -1.4408914 1.556396 -1.1813684 1.0963902 -0.59548926
238 -1.9255532 -1.4696742 0.14919488 -0.4555398 1.3224547 0.6378693 0.099063374 -0.1066158 -0.81366336 -1.3045992 -1.7461481 -1.4216672 -0.13108175 -1.2172126 0.089346334 -2.083564
2911 -1.7334417 -1.9466879 -1.8806196 -0.5998083 -1.9447324 0.49930128 0.4940842 -2.6222627 -2.4507334 -1.1548694 -3.166366 -1.1034342 -2.6423638 -1.0751042 1.71467 -1.7718772
2097 -0.51898056 -2.1550517 -0.56837046 0.038321976 2.252776 -0.87561065 0.033363532 0.7837869 -0.14449905 -0.8243236 -0.38553774 -0.66718924 -1.1520605 -1.9374435 -0.30961987 -0.6237194
639 -1.518674 -1.1303481 0.06985111 -0.5106618 0.92952245 0.52328306 -0.06465541 -0.31985918 -0.91300523 -0.96152335 -1.5146327 -1.2523798 0.014408159 -1.1941469 0.16286518 -1.459546
1918 -2.6947386 -1.0804797 1.1280714 0.73443943 -0.15550347 1.3539134 0.6920446 -1.0356876 0.57645696 -0.78787404 -0.38049516 -1.5791528 -0.1617129 -0.6521045 0.2470326 -0.078997076
2970 -1.6397102 0.76295596 -0.8935733 0.97255754 0.995171 0.77017456 0.0665584 -0.54229915 0.8075121 -0.98340714 -1.0997306 -2.2145796 -0.5064488 -1.3136241 -0.054715674 -0.68951607
1974 -1.2458428 -2.2308915 0.24908525 -1.3121217 1.0255989 -0.49935254 0.9622484 -0.9196381 1.9364392 -0.86649853 -0.4205756 -2.2904205 1.451723 -0.59121186 0.079595074 -1.3449003
2220 -0.7067546 -0.5193705 -1.5412511 0.18524615 1.5364308 1.0107353 1.2518339 -0.15053712 -0.5202474 -0.88902414 -2.769227 -0.8155656 0.409037 -0.05789086 0.19410159 0.05271742
2118 -0.5580126 -0.59430295 -0.366275 0.48419157 2.4434626 -0.79092425 0.61575466 0.5087997 -0.008714019 -0.03477691 -0.70361847 -0.71262586 -0.21249466 -0.71565104 -0.9142862 -1.3307548
397 -0.20038688 -0.12976575 0.4560468 -0.8481428 0.810062 0.31245878 -0.6616107 -1.1009893 -1.7130474 -2.7670102 -1.4049914 1.2345072 -0.30731934 -0.79186237 -0.19070199 -2.6329648
1773 -1.6769778 -0.7024115 0.042351328 -0.67918485 0.1831048 0.016565809 -0.78220904 -0.5866659 -1.1968133 -0.7857334 -1.3268244 -1.537618 0.41003755 -1.2447605 0.57829124 -1.0858496
194 -1.385694 -1.5599463 0.563608 0.63053656 1.2756094 -0.17311722 -0.25767952 1.1880751 -0.6608661 -0.0062386747 -0.7857866 -0.076443925 0.43785816 0.3589195 -0.050320078 -1.656467
410 -1.204044 -0.8173648 -0.11493359 -0.86449206 0.611306 0.34087342 -0.263303 -0.647947 -1.0004184 -0.711695 -1.1824061 -1.3044279 0.19697496 -1.126335 0.19350159 -0.98950094
820 -2.2852871 -0.30699334 -1.0647612 -3.124084 -0.14982975 -1.1654375 -0.86007184 -2.27619 -0.46135435 -3.0037758 -2.4905982 -1.333866 0.46489403 -0.7596902 3.059163 -1.3853856
99 -0.098083496 -1.2667774 1.3034859 -0.82145315 1.6449381 0.6102524 -0.6913792 0.53788364 0.23689152 -0.1634802 -1.7334079 -0.32448363 0.57103044 0.16280825 0.49190167 -0.615903
70 -0.24738894 -2.0358007 0.4561775 0.27825764 0.24343827 0.60754865 0.21982676 0.841385 -1.3548698 0.42169654 -0.24128051 -1.456411 -0.41515 -0.04032101 -0.82947916 -1.7443362
3640 -0.58002764 -4.681833 -1.347177 -2.2338986 -0.27653566 0.9222699 -0.086469814 -1.3799561 -0.6810439 0.8757504 -1.9919364 -1.6448416 -0.211628 -2.3696973 0.46573696 -0.1660434
3153 -0.59991604 -1.3458033 0.533658 0.07645495 1.6235371 0.72358096 -0.1569511 0.8261731 0.09912401 -0.94676864 -0.35134736 0.17492877 0.65204066 0.104287505 0.06617247 -2.7292938
2219 -1.0491272 0.20906146 -0.624284 -0.6643505 0.7537732 0.789382 1.8169084 0.4473668 -0.8133536 -0.991281 -3.1478536 -0.42113787 0.63287413 -0.51245004 0.17163056 -0.5265555
2079 -1.6019945 0.6968261 0.25662264 0.90137297 0.91401756 0.54465 -0.5808733 0.44481963 0.509732 -1.2389188 -0.8204583 -1.7507013 0.21886514 -0.218629 -0.13676324 -1.1879009
2231 -2.9842808 -1.7652955 -1.3629749 -1.1880286 -1.0432016 0.95936173 0.17473166 1.5043284 -4.129616 -2.295215 -1.945503 -0.00043083442 0.059638344 -1.0830863 -0.6979528 -0.78656805
540 -1.2677048 -0.8757555 0.011476493 -0.2220353 0.4984561 -1.081102 1.6396123 -0.11517195 -1.0313194 -0.017264504 -3.7374468 -1.7302076 -1.239368 -3.813676 -1.6664903 -0.38269588
2769 -0.9878476 -0.74023664 0.36306083 -0.32113144 0.50559723 -0.8580304 -0.86989796 1.0034773 1.1113435 -1.3446599 -0.6867747 -0.27726746 0.2602944 -1.2315115 0.13717625 -1.6344113
16 0.120725475 -1.47679 0.22045101 0.25122735 0.2534056 0.47455767 0.09438299 0.64316654 -1.2123895 0.25682005 -0.90907353 -1.584278 -1.2307562 0.037313495 -0.7148813 -1.9265482
2444 -1.0136178 -1.4058197 0.7796698 0.38231894 0.60566723 1.5525141 1.5438533 -0.5231015 0.60672545 -0.8622995 -1.5850892 -0.59188664 0.9490106 -1.2720565 0.45930758 -0.01326035
1491 0.5918375 -0.48377907 0.9612657 -2.304421 2.5390737 -0.7111341 0.4864618 -1.7759295 -0.87921107 0.28147507 -3.214796 -0.87068194 0.67331296 -1.636268 -0.5919242 -2.3589003
1786 -0.71683025 -2.3724136 -0.33752927 0.034872815 2.18085 -0.7440553 -0.17015716 0.9378106 -0.22081089 -0.6839462 -0.3428252 -0.7290751 -1.1205183 -1.9885663 -0.30411196 -0.3827893
1124 -0.4475755 -2.432587 0.40176842 0.3286532 -0.8005974 0.10242111 1.0971506 0.68756866 -1.3563963 -0.5299722 -0.54064274 -1.2807703 -0.6120756 0.044073496 0.33700988 -1.5104939
2172 -0.3630252 0.42667374 -1.139872 -1.4408294 0.76997817 1.8426267 -0.91508824 -2.481203 -1.6187869 -2.7475579 -1.7778934 -3.107002 -0.13333076 -2.573003 -2.2455056 -0.40960187
2438 -2.542108 -1.2618694 -0.7798138 0.012094491 1.0278425 1.2629424 1.3120394 -1.260427 0.3667168 -0.2695319 -2.7111473 -0.5585399 1.7417927 -0.15040153 -0.5999218 -0.11433169
1509 -1.2742671 -0.45504323 1.2814986 -0.8452558 1.2916907 -0.1872382 0.031080866 -0.1780937 0.21496828 -0.112956956 -0.44570786 0.06768006 0.6018492 -0.008237245 -0.18960766 -3.094311
2661 0.1616285 0.00650107 0.55225724 0.64075166 1.2923858 0.2748186 -0.3676261 0.106061004 0.15688013 -2.873321 -1.1641715 -1.6613137 -1.2328335 -1.2520621 0.054447852 -1.4136822
1419 -1.4617708 -1.6152339 1.0638527 -0.24344736 -0.19394054 0.027368028 -0.7878797 0.26849923 1.1985791 -0.78932774 -0.8907148 -1.5997862 -1.5497262 -0.73962885 0.110828005 -0.034889594
3528 -1.9227022 -2.240225 0.49927157 -1.8609627 0.5332084 0.41812158 -0.99564195 -1.3554413 -3.1075509 0.8884674 -3.3179574 0.18381786 0.4654747 -3.9977086 0.5699285 0.6202438
3707 -0.67948204 -0.27773333 -0.2695445 0.6822073 0.883016 -0.90220183 -0.66573954 -0.533834 -1.8423209 0.6702075 -0.87990844 -3.0690768 -0.7001698 -3.9443035 0.30776793 -1.6742256
1069 -1.8607559 -1.2327172 -1.3110675 -1.5736661 -0.24245755 0.9029877 0.11007507 0.63279134 -1.4594549 -2.8575044 -1.9477823 -2.0927098 0.36554587 -4.101306 -0.9743279 1.3331095
2273 -0.4410526 -1.1910301 1.110094 0.19365759 1.0451151 1.2888519 1.1341873 -0.52329874 -0.9585643 -0.18906878 -1.9215313 0.21813455 0.61716676 -0.74579525 1.7067391 -0.88059366
1297 -1.2496073 -2.213955 0.56059647 0.8032934 1.1628603 0.07090292 -2.0356073 -0.4189067 -0.13910337 -0.5072922 0.08451796 -0.4189986 0.5010286 -0.07192434 -0.0624937 -1.4915854
669 -2.1512063 -1.9774896 -1.4121996 -1.8141656 0.4945958 -1.1799352 0.49556184 -1.5632764 -1.1193559 -1.0584189 0.27309695 -3.6574333 0.96436137 -3.025356 0.7439288 0.44164285
155 -1.1954331 -1.6911118 0.7982196 -0.011452315 0.4354526 -1.0266811 0.74124867 0.22651254 0.96232367 -0.3256329 -0.19836466 -0.57246125 -0.21045887 -1.0115826 -0.093089156 -1.4786308
373 -1.9268222 -0.29807842 -1.280662 -2.4100754 1.8523985 -1.4805495 -2.8092875 -0.6232702 -2.396884 0.27895236 -2.9778006 -2.3013978 -1.0684581 -1.2220256 1.3391875 -0.35517132
3509 -1.7299579 -0.28083634 -0.44582012 1.3156325 0.87349 0.8504457 -0.31949404 -0.7665485 0.62049854 -0.6633009 -0.53738964 -1.6413212 -0.33301353 0.42596856 0.15740643 -1.1518748
2211 -0.70550865 -0.025817543 -0.6797729 -1.4145131 2.1218586 0.0755783 1.2574378 1.3442825 -0.12770665 -1.6077855 -0.62472564 -1.0161635 0.11465334 -1.2757711 1.2220745 -0.86930865
1681 -3.6358216 -0.84007263 -0.7400431 -2.7202954 -0.31502724 0.49792847 -0.5694731 1.1357342 -1.6627183 -1.4963825 -1.549829 -2.8957539 1.5392423 0.033925675 -0.8311325 0.24777405
1905 -0.73880756 0.23832054 -0.6258275 -0.5026159 1.56498 1.6669244 0.947399 1.1144702 -0.91316843 -0.83757395 -3.0496848 -0.68368477 0.729373 -0.53343374 0.35778677 -0.45998675
1909 -0.572183 0.070103355 -0.63824475 -0.5290038 1.7178355 1.6704293 0.9920254 0.8951941 -1.1697654 -1.0030433 -3.1337683 -0.474624 0.89677256 -0.45227328 0.546146 -0.6260432
1728 -1.0656137 0.11521816 0.6962215 1.0264919 0.7252955 1.0193422 -0.6912219 0.6407476 0.33096677 -0.6984443 -0.84497696 -1.4321798 -1.186157 -0.7680667 0.38802844 -1.3192562
79 -4.087179 -1.7246236 0.7189059 0.9775454 -1.2490528 -0.5609286 -0.60584736 -0.6973167 -1.4472069 -1.1928293 -0.2781374 -1.6004025 0.5323641 -1.173858 0.4755619 -0.19603941
3822 -3.448012 -1.5101848 -1.2594247 -1.0528538 -0.8683293 -1.8762672 -0.47758988 -2.4222162 -0.30175236 0.77963376 -1.7983156 -1.3125293 -0.32967705 -3.0791647 -1.7154176 -1.8291324
57 -3.9845276 -2.0857508 -1.2042785 0.24287304 -1.2496126 -1.7575072 -0.5892949 -1.5746783 -0.7943115 0.068874195 -2.3816502 -0.62713176 0.39841825 -2.3539882 -2.081466 -1.8022622
339 -1.2160738 -1.7309834 -1.9052429 -0.25268778 2.2432353 -1.0070783 -0.8974339 0.62614745 -0.90914786 0.82368016 -1.9355206 -1.4981174 0.36978227 -0.16607593 -1.8834583 -1.7794166
4018 -2.5168715 0.0020795283 -1.0114022 0.51555 0.8359268 0.52871335 -0.6123704 0.50979006 0.7228746 -0.9840899 -1.0198106 0.13148868 -0.63507414 -1.5679551 1.0632683 -1.338204
2331 -0.73124593 0.0607514 -0.39159313 0.31248432 1.0564024 -0.9952081 -0.52018636 -0.6946527 -1.8707104 0.602488 -0.9115529 -2.5439453 -0.6455722 -3.9647777 0.5660004 -1.7494489
1111 -3.6828053 0.8376184 -1.7973069 -2.385246 -0.21985765 -0.45002124 -0.1251752 -1.9271562 -1.825573 -1.7525615 -0.44719288 -2.1050189 0.123851694 -1.0808918 -1.3445212 -1.4116497
2698 -1.0873002 -2.1562045 0.28919047 -0.20283224 1.3196884 -0.2263027 0.9259921 0.048082873 0.76405287 -0.6807257 -0.32148415 -0.7448025 -0.2509009 0.46090493 -0.32983595 -1.2552537
2202 -0.7362291 0.09371318 -0.6243296 -0.4858401 1.5790442 1.5984485 1.0426257 1.087389 -1.1332116 -0.96602684 -2.9382725 -0.5309955 0.7438134 -0.40035075 0.3280307 -0.48515007
1368 -0.8940206 0.3226415 0.84231067 0.81507385 0.85663456 0.16450222 -0.8444527 -0.14294112 0.29248217 -2.533104 -0.8154114 -1.6632898 0.1637647 -0.6419937 -0.67949235 -0.86562055
2167 -1.0347484 0.107805826 -0.33563864 -0.51798356 2.270641 -0.57593626 1.2153543 0.6389908 -0.31827173 -1.0705023 0.0043454864 -1.4176701 0.8299188 -0.68973255 0.54333276 -1.2915853
425 -1.0174036 -0.15370183 -0.24802437 0.1953711 2.0602846 0.49091747 1.3881757 -0.42098424 -2.0246158 0.9556165 -0.5581261 -2.8602357 -0.7365445 -2.8155065 1.0698199 -0.81666404
2318 -1.27149 -0.40878958 -0.1525052 1.705606 2.0636387 1.5335482 -0.05423128 -2.043103 -1.5435 -0.75074655 -0.94804746 -0.42664686 -0.19050695 -0.19001807 0.3617717 -1.0687604
1901 -1.3391396 -1.7350478 0.440918 0.8982413 1.1201193 -0.21807434 -0.39976674 1.5067049 -0.65590084 -0.05921178 -1.038074 -0.2680983 0.48100507 0.19858626 0.24636349 -1.4899193
1180 -1.6378899 -0.47777855 -0.42763567 -0.5012275 0.06680975 2.3982701 0.016987385 0.19401637 -0.054497793 -3.3242822 -0.6303307 -0.0330749 -0.68173474 -1.5565856 -0.8765995 -1.2764593
863 -1.7555332 0.8868097 1.0555623 -2.8835835 -0.28514054 -0.005263485 0.51886797 -1.0735816 -0.7997164 -2.0371194 -2.6041057 -0.3945344 0.7233542 -2.0533981 -1.3984607 -1.3398373
1137 0.325311 -2.1466215 1.0426381 -0.087066874 1.2004546 0.5291388 0.18087387 0.044375654 0.18684196 0.65654504 -0.7968648 -0.7866723 0.23000084 -0.24668603 0.83806914 -1.350318
731 -1.5817811 -0.86033803 1.9206861 -1.0143919 -1.0797471 -0.28164917 0.54321045 0.6338619 -2.0930066 -0.008235395 -0.9314341 -0.24621889 0.3418816 -1.5044643 0.9991494 -1.6548144
1256 -0.004187934 -1.0868229 0.1911051 -0.99051785 -0.37202343 0.08497375 0.5112182 1.1092802 -1.5513271 0.682065 -1.7863783 -1.6060905 -1.141049 -0.5592294 -0.9335638 -2.2681844
241 -0.8877057 -0.57636106 0.25671342 0.49313435 1.6377547 -0.19095126 1.8413169 -1.1695027 -0.76078373 -1.0800078 -0.5188939 0.059199817 0.17991723 -0.046934273 -0.015305916 -1.295101
1573 -1.7686632 -3.5561302 -0.87793034 -0.020470588 2.4460585 -0.3687745 -0.6134775 0.21036084 -2.2262757 0.26674607 -0.3810918 -1.2367053 2.3564818 -0.10718293 0.26871294 -1.1202879
1547 -1.7910914 -0.97561276 0.89093083 0.6894228 0.117361255 -1.7727594 -0.8751864 0.28345448 0.7397331 -0.95938265 -1.5936233 -1.338059 1.3967844 -3.0392444 0.3831906 -1.37111
623 -0.47463465 0.18060556 0.045831617 -0.2855092 0.898636 -0.39090452 1.8543352 -0.8355401 -1.0080838 -1.1007867 -0.19778295 -0.65744966 1.1674536 -0.9685026 0.5283217 -2.3135333
3291 -0.8621783 0.026208693 -0.635569 -0.5761128 0.5254501 0.82359016 1.7596177 0.4741936 -0.87010473 -0.9326316 -3.2168593 -0.5236766 0.66184103 -0.5840524 0.10469155 -0.41150472
2656 -1.016846 -0.7249714 0.58027035 0.7304582 1.6380888 1.7306191 2.0491004 -0.22117367 -2.1148057 -1.4693068 -1.9855067 -1.3169819 0.7744141 -1.0881089 -0.2268767 0.3580759
152 -1.2928905 -2.4373002 -0.4026385 -1.459333 -0.14011197 -0.7386122 0.956171 -1.5180414 -1.3799251 -1.810779 0.38764635 -3.749972 1.1136199 -2.9373662 0.39598536 0.10191481
217 -0.74402905 -0.17131308 0.5688737 0.35821116 0.8174513 0.7063311 -0.18584354 0.25054228 0.24750133 -1.5230817 -0.5776212 -1.3291179 -1.1162959 0.391577 1.27415 -1.626517
1801 -0.50591934 -0.38648173 0.40622443 -0.6910542 1.5170039 0.3488479 -1.4643906 0.56828487 1.2251741 -0.9052443 -1.5360988 -0.24422435 0.4517569 -0.6193238 0.89081687 -0.7546008
1401 -2.375286 -0.2777972 -0.08022863 -0.057083376 1.9839957 -0.82923937 0.68457335 0.3579445 -0.30777928 -0.62611943 0.07721926 -0.26085666 -0.28537863 -0.03576705 0.32671136 -1.4872375
40 -1.3116955 -0.7775994 -0.45265704 0.54355776 1.2350947 0.08482058 -1.1373279 0.8077047 0.7130346 -0.8452106 -0.16979004 -0.2696898 -0.21071264 -1.3360602 0.37969816 -0.61292946
719 -0.585049 -0.5694174 1.1497653 -0.863598 0.37205222 0.4767798 -0.2794568 -1.0654098 -0.83984286 -2.8564034 -1.4379776 1.4292489 -0.46339288 -0.7710243 0.19282943 -2.3734927
2413 -2.375143 -0.4737482 -0.7083176 -0.3929814 0.71382284 3.2750742 -0.46629238 0.27431613 -2.3647914 1.2233154 -1.0237474 -2.3943875 2.140164 -1.0826902 -1.0046825 -2.3756735
2344 -0.70475787 -1.1266452 -0.94592905 -1.2064224 -0.26293918 -0.8101953 2.3762777 -2.7785969 -0.8248061 -1.4239798 -3.2790582 -3.371882 0.24409284 -1.3659016 -1.2815977 -0.6620798
1358 -1.7021729 -2.0417447 1.9803677 -0.3391359 -0.1037307 0.24948654 0.2297355 1.0847125 -0.9785085 -1.7636462 -0.5070679 -0.051402815 -0.84506524 -0.7563263 0.7813573 -0.17848742
3746 -1.1521295 -0.5857766 0.5866043 0.5045011 1.4024212 1.5341657 2.1927302 -0.2521899 -2.0945632 -1.1165587 -2.1387348 -1.4631658 0.84087443 -0.91933626 -0.171157 0.33115578
2189 -0.5375806 -1.235759 1.1853489 0.18671858 0.93669885 1.3126448 1.2079096 -0.3415218 -1.128733 -0.13827114 -2.0408592 0.11994838 0.65889615 -0.79871297 1.7284741 -0.8794783
2122 -1.1912115 -0.294972 -0.19468181 0.72795475 1.0019529 0.6707129 -0.32992825 0.13307172 1.0970026 -1.594856 -0.06733552 -1.9486889 0.08059314 -0.37110785 -0.3466883 -0.96637064
2271 -0.89499754 -1.0725302 0.98153055 0.23056966 0.21205778 1.5011009 1.6327115 -0.6334742 0.5244925 -0.9831189 -1.5996698 -0.7892424 1.0766742 -1.0228274 0.5667512 -0.26077762
2874 -0.99306154 -1.0874091 0.49381042 -0.005676235 1.4159148 0.6634517 0.9995966 -1.1866747 -1.2624798 -0.032304343 -1.514021 0.70955026 0.47051978 -1.5234057 2.2896929 -0.90260094
1386 -1.3556157 0.0032621475 -0.13571596 -1.537021 1.1791722 -0.4655203 -0.67392164 -2.5579748 -1.4823433 -1.3746719 -3.7707627 -1.9442255 2.8296196 -2.412356 1.115987 0.40407202
267 -1.6208884 -0.39185655 0.13689429 -1.5626228 1.247812 0.098421514 -0.9328113 -1.1770481 0.482526 -0.105284214 -3.087477 0.17588137 -1.2157407 -2.1639311 -1.2072419 -0.14384857
2208 -0.9778041 0.14880335 -0.5720652 -0.5657718 0.7069161 0.78024566 1.7110454 0.6126079 -0.80537206 -1.1150082 -3.1502383 -0.52988124 0.7960688 -0.54034775 0.24815808 -0.46369857
3314 -2.0910306 -2.4681616 -1.6944078 -0.63320625 -0.24948053 2.387253 -0.93065274 -1.3458139 -2.382274 -2.7887568 -1.9389561 0.14048716 0.841411 0.1864593 2.1917522 -0.6665622
163 -0.38630438 -0.24571627 0.9735834 0.0010526892 2.0640278 0.6142937 0.025440997 0.07505909 -1.1067848 -0.66492707 -0.75427103 0.77138823 0.05292409 -1.5258236 -1.1392137 -1.7752354
375 -1.5833032 1.3109084 0.7269031 -0.45786837 1.2984267 -0.6133515 -2.2503881 -0.38722247 -2.6333392 -1.73544 -1.4411563 -0.5100419 -0.12823506 -0.30426747 0.20870791 -2.6783924
1567 0.27876806 -1.1299242 -0.47238186 0.34275213 1.0069258 0.79114527 0.9592393 0.25012365 0.30246913 -0.06314298 -2.951041 -1.2611886 1.3826046 -1.6338829 0.03567536 -0.60068333
2327 -0.6492265 -1.5397844 -0.57277733 1.2433378 0.28825063 0.145836 0.08641723 1.0250466 0.24641736 -0.7081731 -2.451714 -0.5490879 1.7111046 -0.87768394 0.40295786 -0.7480008
3253 -1.0918514 -1.329743 -0.40937394 -1.1794726 1.4887654 0.020663012 1.0393296 0.6403402 -0.7822359 0.09019798 -2.235947 0.39690155 -1.1932054 -1.2942116 1.6409135 -0.14969733
1959 -0.54606616 -0.16364473 0.360016 -0.15508541 1.7384932 -0.41086632 -0.01782556 0.6877475 0.5708049 -1.9139032 -1.3045417 -0.5127919 -0.8750813 -0.4383509 0.7956094 -0.8117714
2375 0.034536865 -0.75855786 0.06428998 0.08486516 2.404302 -0.49672493 0.4843664 0.54342604 -0.31229 -0.16000298 -0.7120235 -0.11008167 -0.21634357 -1.3653573 -0.9982222 -1.7056438
2758 -0.9313672 0.17761715 1.2479385 0.8265921 0.7735885 0.7203695 -0.88320625 0.0674982 0.6217766 -1.1177142 -0.31901187 -1.9864041 -0.5088723 -0.8795018 0.05085025 -1.4589196
1821 -0.7446743 -1.6052462 1.0150363 0.012438771 1.3155646 -0.3395044 -0.37645152 0.9450902 -0.56566936 -0.25610545 -1.0022445 -0.43142202 0.15315118 0.74083847 -0.2168077 -1.077054
2075 -0.1779058 -0.22569269 0.20200478 1.0065337 0.50523686 0.79442424 -0.0993442 0.7883157 0.037902206 -2.1855729 -1.4957042 -0.7933238 -0.7637901 -1.3605299 1.5691749 -2.3642197
3206 -0.5813581 -1.5246611 0.5333749 0.13741669 1.3460387 0.5441249 -0.17806737 0.90015376 -0.10145163 -0.5854045 -0.5315394 -0.0116845025 0.62341493 0.40574092 -0.29862207 -2.3526633
2295 0.31108087 -0.4437342 -0.15614824 0.01840745 -0.2086724 0.15199603 0.9306884 0.44603533 -1.327488 -0.20676005 -1.0401919 -1.3678182 -0.39386114 -0.0739709 -0.33254403 -2.9012644
966 -2.0367794 -2.489987 -1.6723208 -0.6056252 -0.23910005 2.3554068 -0.961005 -1.3403186 -2.3816645 -2.788667 -1.967507 0.12446694 0.8317088 0.16607477 2.1274192 -0.68322474
1750 -1.0458617 -0.8429022 -2.515368 0.30012545 1.5874761 0.5455467 0.35380438 -1.236916 -1.6285164 -1.4869444 -4.0069103 -1.3654081 1.0467991 0.25310856 0.37701455 0.12678753
2892 0.24819675 -0.9243336 -0.5629965 0.4758781 0.88318 0.8298149 0.9570934 0.24781814 0.2799158 -0.30164665 -2.8649638 -1.3939153 1.4982538 -1.5576568 -0.067751296 -0.7090647
326 -1.3493067 -1.1224316 -0.341013 -1.3943627 1.3714178 0.026791247 1.0631022 1.0307359 -0.2725938 0.3504441 -2.617957 0.2159932 -1.2598778 -1.3139453 0.34397122 -0.08572705
2631 -1.165816 -0.1895913 0.35685298 0.17778912 1.7713723 -0.8316221 1.4503535 -0.23550154 -0.4916325 -1.2444079 0.46355042 -1.2200276 0.3695134 -0.65580827 0.44654784 -1.3652273
1640 -0.014609759 -1.4670042 -1.4720762 0.2598744 0.7248184 1.4950984 0.35481358 0.079527974 0.12569794 -0.26266423 -2.1724677 -0.5097051 0.06606835 -0.27294526 -1.5161992 -0.93787074
2436 -1.1423903 -1.2050819 0.8179138 0.693988 0.62865967 1.5574719 0.8328629 -0.9215982 -0.3765053 -0.53608346 -2.4084084 -0.30045825 1.4064846 -1.2106916 -0.11572503 0.34842288
1451 0.018938303 -1.5956668 -1.1116483 -1.0248216 -0.19886477 1.5482028 -0.84430385 0.68566626 0.22593004 -1.1549131 -0.72719467 -1.4068592 -1.1769614 -0.030420808 -0.6870049 -1.2060796
2355 -0.6324 -1.4268496 -0.26171544 1.1590738 0.18085049 -0.58598524 -0.36982933 1.3846085 0.40749103 -0.82174903 -1.929408 -0.61359763 1.1242988 -0.7729968 0.32686782 -1.0965074
596 -2.451172 -0.423707 -2.0303886 -1.7260557 0.8785712 0.456027 -0.008095704 0.96589226 -2.2342796 0.2190337 -0.7318261 -2.2227354 -1.8964639 -2.6291614 -1.8847191 -0.84096974
1982 -0.65486836 -1.0549904 0.14191554 -0.1601887 -0.072411805 1.8188293 0.10606916 0.48334512 0.7986694 -1.5707756 -0.66031724 0.25602517 -0.40545833 -1.9951925 0.2174164 -1.4904605
1198 -1.6685593 -0.39686316 0.38791424 0.15330103 0.979699 2.5361328 1.4591526 -0.58409065 -1.8043615 -0.889456 -2.4707067 -0.2974828 0.6632627 -1.005636 -0.5356829 0.27043754
3162 -0.18875423 -0.1374786 1.3321421 0.3329627 0.8154605 -0.1221683 -0.6105241 0.67625535 -0.4277 -2.0797067 -0.6487513 -1.4780743 1.616182 -0.5442604 -0.16586092 -2.807904
2481 -1.0759106 -0.71921426 0.57062536 0.5230034 1.5640715 1.5772556 2.214912 -0.33807948 -2.2856457 -1.1485088 -2.2380848 -1.3327177 0.8276596 -1.0855889 -0.17997833 0.3752358
2310 -1.1284852 -2.3657565 2.0772448 -0.24267292 0.26666978 0.4218196 0.081238516 0.659539 -0.86898416 -1.5353427 -1.1594579 -0.1957102 -0.8354556 -0.05412082 0.3969305 -0.014156014
1357 -0.64173156 -0.9355846 -0.36728996 -1.693528 1.4351124 1.0701572 -0.9413125 -0.029855229 1.2273222 -1.7154562 -0.31241935 -0.9141939 -0.7299579 -0.6280091 0.19629079 -0.3626564
102 -2.0001278 -0.4193338 -0.7074696 -1.4176656 1.6135726 0.14912546 -0.61726016 0.17399633 -1.8189213 0.60719323 -2.399451 -1.3483317 -2.2933326 -2.5474885 -1.9299794 0.15500885
400 -1.5297441 -1.8339869 0.7682134 0.035925895 0.29672682 -0.30101854 -0.53391224 0.5901928 -0.14308174 1.3084588 -1.0842115 -0.51916873 0.9693346 -0.09983837 -0.3643338 -1.4177645
3353 -0.036561895 -1.6244388 -1.470846 0.04774137 0.5669586 1.5431232 0.235959 -0.35836077 0.24516895 -0.4075679 -2.31819 -0.6113152 -0.18205306 -0.16913049 -1.6755474 -1.2653453
2951 -0.97208345 0.116662025 0.33205545 -0.9316306 1.3022875 0.9396302 0.99307 1.0883185 0.038977787 -1.6654534 -0.9973935 -0.52647126 -1.1206521 -0.7389676 1.1785084 -0.6755802
2162 -1.2444379 -2.4122782 -0.3067626 -1.5133858 -0.15132667 -0.6922484 0.9346072 -1.5461054 -1.3711028 -1.8043741 0.35302982 -3.686714 1.1309177 -2.905764 0.31430554 0.13120389
2447 1.0816813 -2.4448414 -0.124703996 1.0811439 0.6621007 -0.12450545 -1.6829389 -0.21705912 -1.0986791 -0.57986695 -2.3956532 -2.986274 -0.7504606 -0.33593532 -0.4083277 -1.6421952
1010 -0.03315284 -1.0567102 0.0875305 -0.85158455 -0.206331 0.48109892 0.667046 1.4105996 -1.6023444 0.86145025 -1.6872804 -1.5910304 -1.0869207 -0.6926042 -0.45986745 -2.1307018
20 0.09158077 -1.7951322 1.8236095 -0.2690022 0.7471427 0.7053448 0.15936625 -0.20596774 -0.14151944 -0.34982845 -2.1181269 -0.1844158 -0.18849096 0.14726326 0.49598607 -0.43672156
823 -1.972279 -0.18180892 -0.3563354 -1.4272612 1.2865107 -0.22987023 -0.2751872 0.35298732 -1.323481 0.31002197 -2.739048 -0.9881311 -2.0397146 -2.1706915 -1.3979156 0.32156608
2005 -0.63072026 0.03186009 0.18254104 0.9220661 0.56034124 1.0466377 -0.27500147 1.0118356 -0.1990374 -1.073666 -1.0419452 -1.5574238 -1.4794626 -0.17641555 0.47669333 -1.4387184
1571 -1.5543779 -3.0837874 -0.5364731 0.23046167 2.2419457 0.2708602 -0.6296843 0.32649356 -1.754464 0.3422542 -0.24648924 -0.9922518 1.3671232 0.311178 -0.03000528 -0.6757881
1777 -0.5244948 -2.2083576 -0.6273702 -0.108229205 2.1238074 -0.88865966 -0.09610358 0.76849836 -0.07210633 -0.64131993 -0.36816365 -0.63291764 -1.1375972 -1.923059 -0.35888526 -0.5645872
2368 -0.6824658 -1.9622896 -0.11490105 -0.5118019 -0.009011469 0.4442927 0.24095646 0.3287446 1.2570528 0.009314888 -2.169937 -0.9758118 -0.4283041 0.60302156 -0.7569457 -1.8427606
2641 0.13032274 -0.91894937 -0.31399348 0.42572412 0.8920845 0.8722369 0.8623388 0.22974789 0.17261577 -0.28458148 -3.0415275 -1.179642 1.4620473 -1.6227987 -0.14262131 -0.617507
1343 -2.0704408 -1.1340675 2.4710598 -1.1057279 0.3059497 0.2999418 -0.4853358 -0.08216452 0.27535865 -0.8690631 0.11384141 -1.5176811 -0.12736876 0.8509613 0.18066545 -2.53939
997 -2.1101627 0.67893875 1.7547556 -3.223512 0.08516526 0.09547916 0.7305403 -1.7084535 -1.1277474 -2.0433323 -2.6829038 -0.55870116 0.7523393 -2.1465304 -1.5580647 -0.89892817
2400 0.15120673 -1.614087 -1.4534181 0.0856397 0.34013364 1.5322747 -0.0011263845 -0.056944128 0.017540954 -0.4276543 -1.934388 -0.6590394 -0.59841394 -0.1378313 -1.5220082 -1.035913
2183 -0.90827256 -1.5877728 0.9644812 -0.6679263 0.99341565 0.11282589 1.4860113 0.06659151 -3.7892296 -2.8630316 -0.6285709 -2.8405554 -0.8051781 -2.982639 0.85692745 0.527241
3736 -0.7795248 -2.1165764 1.0972959 -1.3972988 1.8402327 1.6784981 0.5537772 0.7026414 -0.66049933 -0.026555594 -2.0125616 -1.2914202 2.3552997 -2.641745 0.6332106 0.33352154
1834 -1.7930865 -0.44162127 -0.45751986 0.0695307 0.1411321 1.5011822 -0.1652737 1.1916821 0.6196944 -1.0721699 -0.8734617 0.38569286 -0.45253974 -0.8320605 0.25842923 -1.5171138
1203 -0.22408648 -1.192059 -1.1526885 0.68217975 1.3231062 1.1744598 0.80589867 0.35391665 0.039098494 0.085802115 -2.207038 -0.58629924 0.6098585 -0.35450974 -1.0341153 -0.72859913
