18453 16
18442 0.25434542 0.6482058 0.12133773 0.75720495 -0.12487831 -0.72317576 -0.582709 -0.21648988 -0.95796895 -0.5809484 0.9776813 -1.0644512 -0.1097946 0.045307565 0.40609714 -0.30678108
18433 0.30654955 0.24840179 1.061305 0.7444642 -0.41507462 -1.4367797 -0.12504531 -0.4418831 -0.7803515 0.35400954 0.7134161 -0.35950783 0.31864986 0.28302374 0.14297836 -0.15160488
18450 0.5521199 -0.05262262 0.96333355 0.4148737 -0.54896307 0.19224605 -0.7843653 -0.19048592 0.8742095 -0.15904264 -0.1151202 -0.55368334 -0.37417445 -0.5242517 -0.42839387 -1.0598255
18448 1.0800767 -0.4505944 0.6352727 -0.23760082 -0.65852696 -0.5875091 -0.029033953 0.1845428 0.03731489 -0.5196162 0.978872 -0.2910596 -1.2352974 0.30739877 -0.20192055 0.683021
18439 0.8725788 -0.33696467 0.43009338 -0.07746195 0.30756482 0.7737986 -0.3442292 0.1920801 0.46506092 0.15757322 0.5234246 -1.3220838 0.056829385 0.26915297 -0.70952934 -0.62329566
18449 0.49423453 -0.11977319 1.0747327 0.6322858 -0.4828144 0.8555384 -0.3766185 -0.5889516 1.0795491 0.30860513 0.13231245 -0.80955577 0.032089457 0.5625056 0.19762357 0.04425101
18443 -0.575092 -0.622749 0.13718063 0.13470154 -0.5864727 0.03217724 -0.5634428 -0.123990476 0.24254128 0.37758926 1.3180106 0.027558392 -0.58794326 0.8958418 -0.11432996 -0.9638929
18434 0.7978425 0.35172266 0.2265219 0.5176209 0.4532134 -0.4084172 0.430156 -0.2913714 0.9633223 0.22529364 0.89842004 -0.043112975 -0.92621875 0.31569162 -0.7383984 -0.11627758
18441 0.8321989 -0.53239274 -0.33854526 0.47270337 -0.4682779 -0.5778471 -0.043783333 -0.6979476 -0.9325297 0.49982 0.84596074 -0.5630167 -0.46892783 1.5502957 0.6256615 -0.4171996
18440 0.8709829 0.6175687 0.31536102 -0.014285785 -0.072266884 0.541878 -1.3165653 -0.19730504 -0.37706128 0.4823244 0.9289491 0.6108641 -0.5047816 0.9903708 -0.16303417 -0.28482717
18446 0.018545242 0.02707731 0.41548368 0.6930056 -0.38934436 -0.29306844 -1.2739029 -0.27837375 1.4235669 -0.28843617 0.95449436 -1.0568533 0.949678 -0.14034037 -0.40905905 0.2609994
18444 0.62156445 -0.09989247 1.1406052 -0.40368083 1.1503813 -0.07919165 -0.8729073 0.017319065 0.2987973 0.3249081 0.8236101 -0.09349428 -0.7310298 0.7229922 1.1040502 -0.8395245
18451 0.106608115 0.10394982 0.37941587 0.49744642 -0.3008997 -0.6221588 -0.79483324 1.0052519 0.32078916 1.168122 0.11502335 -0.96029687 -1.0746822 0.21452284 -0.11423581 0.36363295
18438 0.35263285 -0.37271905 1.3240055 0.5603103 0.36937377 -0.013752047 -1.1427839 -0.068004325 0.7400369 -0.3381915 -0.19286911 -0.3285353 -0.013518504 0.99723077 -1.6153625 -0.0656082
18445 0.024835203 -0.670265 0.15464051 -0.21358368 0.7435228 -0.23122111 -1.7980436 -1.3311465 -0.12980458 0.4980014 1.0725905 -0.40937993 -0.813056 0.08665773 0.0351711 -0.0157637
18447 1.2358487 -0.8505213 0.020540345 -0.15733649 -0.1535945 -0.5943241 -1.291602 0.08697626 0.41855183 0.90396017 1.2595859 0.44832778 0.5709967 0.4374077 -0.05100341 -0.8063855
18435 1.2234032 -1.0495665 0.15619534 2.1079195 -0.26339877 -0.78956765 -0.80915177 0.1374541 -1.08086 -0.06545989 1.0214719 0.2259843 -0.9226722 -0.42983493 0.3122444 -0.8057256
18436 0.90616554 -0.09831986 0.18989515 0.06409103 -0.074902706 -1.7113397 -0.95155966 -0.15068464 0.35277885 -0.9989292 0.03793132 -0.5568515 -2.2651083 1.0606351 -0.46531454 -0.1455392
18437 0.08871403 -0.7947047 0.4026871 1.1235366 0.94697887 -0.6052225 -0.97136295 -0.06194227 -0.59827584 -0.29777187 1.3166101 -0.20704499 -0.1126884 1.8460542 0.42157635 0.45144984
1015 0.35071266 -0.645105 1.2412577 0.10834621 0.019201199 0.93794894 -0.2911144 -0.20726351 -0.03510236 0.53584015 1.3677953 0.13815507 -0.09448249 -0.27232686 -0.14534694 -0.6966561
2300 0.47814202 -0.3547109 -0.39280584 0.7693084 -0.17072397 0.10009192 -1.0642234 -0.047980856 1.2472093 -0.024340654 0.20922682 -0.20269091 -0.4781185 0.81827646 0.26256981 -0.96472347
1013 0.6882904 -0.33921012 0.98255545 0.50846547 -0.16197155 0.29545698 -0.53284574 0.46605268 1.4684887 -1.0865129 0.2437556 -0.5610371 0.14681438 0.64440626 0.11054043 -0.6832176
1475 0.85356474 -0.9820539 0.6568739 -0.15632331 0.22479878 0.26978627 -0.72336674 -1.3607063 0.5370307 -0.115752034 0.37093416 0.16681106 0.037981782 1.1156547 -0.41061777 -0.6087936
2235 -0.27705926 -0.94109327 1.3030072 0.29740083 -0.38931563 0.325361 0.00940222 -0.4116298 0.9958652 -0.35225275 0.49532485 -1.6509272 0.12798019 0.019390538 -0.24110936 -0.58167046
414 1.3692316 -0.24470665 0.54113954 0.342797 -0.94017833 -0.6760421 0.4733378 0.24921551 0.36304766 -0.89590824 0.70729107 0.09702718 -0.6396609 0.9859205 -0.99873114 0.14459032
324 0.29337505 0.36120623 1.2648535 -0.0024387531 -0.07242606 -0.13109405 -0.2632718 0.21268451 -1.4336166 0.45660406 0.48030052 -0.094319776 -0.8770072 0.8279855 -0.40980285 -0.1185602
123 0.84908026 -0.64951545 0.94019794 0.42201197 0.19322312 0.9748513 -0.6122751 0.8709886 0.071843155 0.57094634 0.8214622 0.041018758 -0.09630908 0.7468632 0.091134876 -0.613968
1523 0.93105894 -0.17504376 0.7327612 0.033396035 -1.1084775 1.3661104 -0.52681 -1.1272354 0.86148417 0.09781938 0.39286613 -1.5254314 -0.4379709 -0.07750258 -0.5920065 -0.5628727
1493 1.0336293 -0.31953496 0.16301396 0.5996552 -0.16883819 1.0151178 -0.17499773 0.48371965 0.7507063 -0.42744932 0.9525512 -0.7081998 -1.1976242 0.047759403 -0.18531735 0.36347324
193 0.89445263 -0.8199002 1.2731292 1.152882 -1.1211647 0.7481381 -1.0838959 -0.5382944 0.64046216 0.44209522 -0.29408717 -0.71966296 -0.0731626 -0.18432684 -0.60952276 0.13916335
1363 1.2685294 0.4917737 1.2641413 0.15638518 -0.15120582 0.417869 -0.07417463 0.92000186 1.1180028 -0.110392556 0.27957362 -0.54371274 0.13071308 0.7118508 -0.06972639 -0.6201485
550 0.59826046 0.16147572 0.45458463 0.90727824 0.50485647 0.5968456 -1.1844257 0.21070057 0.21650508 1.1205261 0.68889505 -0.083788015 0.36829457 0.4477309 -0.53951395 -0.684485
1362 0.7862774 -0.30313873 1.660641 0.45064396 0.48528466 0.43943605 -0.35196352 0.7547658 0.2823538 0.22759062 0.27773982 0.13602303 -0.25330034 0.4100887 -0.057554923 -0.8937691
1560 0.86611784 -0.2166177 0.7343675 0.45336878 -0.014468208 -0.09817773 -0.24556063 0.70762646 -0.48761615 0.5368793 0.15205555 0.071833216 -1.9132217 0.6357798 -0.0984109 -0.36067942
977 0.2793815 0.060968645 1.2215654 1.2850971 0.3096344 0.4366861 0.6461713 -0.28987202 0.51843035 0.10593432 0.25086474 -0.9189918 -0.78727853 0.259583 -1.1648002 -0.44794974
2101 -0.4616481 0.07558881 1.0166028 0.6575989 0.049822845 0.967105 -0.9076296 -0.35822788 1.3330199 -0.0761828 0.7097081 -1.4827489 -0.8703513 -0.24209705 -0.30534005 -0.23915802
974 -0.050073884 0.04399369 1.2842973 0.064917125 -0.07226839 0.1571122 -0.655631 0.5148119 0.53026026 0.26392376 1.4646578 0.5657971 0.21145055 0.4575231 -0.7026918 -0.57201004
1209 0.15190247 -0.39585042 0.4769096 -0.4335904 -0.5872856 -0.21160285 0.16919582 0.28142172 0.68391937 0.114940286 1.6510656 -0.29209474 -1.6627522 0.06526533 -0.35740915 -0.18242086
1437 0.51635706 -0.23707041 1.4388062 0.24264891 0.7256025 0.31935638 -0.8249727 1.0146469 0.5273204 0.52674955 0.50004447 -0.06650896 -0.19391915 0.64562684 -0.48947346 -1.0024885
1400 0.92311525 -0.7835303 1.0722938 1.3082067 -0.91486657 0.37143585 -0.131988 0.06566132 1.6004019 0.21632072 0.29587615 -0.6801392 0.22587132 0.19992314 -1.040461 -0.8235681
1404 1.176743 -0.3098048 1.4733412 1.0638771 0.3421396 1.0698392 -1.2068762 -0.39202893 0.6744632 -0.320091 -0.045808244 -0.7953318 -0.07918427 -0.32821643 -0.29480803 0.08104119
2163 -0.092796244 0.9279434 0.62165177 1.2399151 -0.67970943 0.15713966 -1.0777295 -0.34592995 1.6519632 -0.6126041 0.8387537 -0.90973973 0.45729446 0.14588626 -0.41261137 -0.0021231303
2003 1.5356442 -0.2006405 1.3074409 1.00801 0.42073902 0.825295 -1.0234041 -0.6142394 1.081742 -0.21674463 -0.19867402 -1.1434755 -0.083117574 -0.18467443 0.062320933 0.3017112
73 -0.17012107 0.40844133 0.60353255 1.4704736 -0.9264755 -1.5918915 -0.1516647 -0.9715744 -1.1557051 0.14166884 0.4269545 -1.3187855 -0.41149378 0.7345771 -0.18025818 -0.26784933
2179 0.5557409 -0.5946848 -0.39662492 1.2073783 -0.112082504 0.5704115 -1.4759839 -0.44027272 0.4174445 0.117886215 0.40408275 -0.044624295 -0.059841994 0.4150629 -0.7020817 -0.44514295
326 0.32673287 0.32216954 -0.11369097 0.28697413 0.15435044 -1.2405053 -0.44893456 -0.28967163 -0.8835324 0.3906662 1.3596174 -0.23062745 0.19372256 1.4863552 -0.45444998 -0.704248
42 1.0688325 -0.52779037 0.12168743 0.5197371 -0.54858094 -0.21975721 -0.53644764 -0.1164068 0.21516724 0.36129227 1.535314 0.90915686 -0.14402811 0.7733702 -0.068336256 0.5009695
157 1.1255789 0.15335968 0.4430558 0.09740828 0.048489 -0.20103164 -0.04865919 -0.1068593 0.62214684 1.6441149 0.4116619 -0.6778235 -0.22622913 0.20673531 -0.90272486 -0.08260379
2013 0.5768861 0.2796225 0.7325934 0.8027612 0.84377754 0.25555822 -1.5631247 -0.30797026 1.0279785 0.76223886 0.4777604 -0.50948536 0.69934386 0.12648733 -0.48442364 -0.73964053
970 -0.15477271 0.52389055 0.37534124 0.7598456 -0.59309584 0.9440556 -1.1892415 -0.6705286 1.393759 0.19579989 1.0601513 -1.4620972 0.4972462 0.15644704 -0.18796849 -0.29818738
1800 0.6745835 -1.1229426 0.34425208 0.3129524 -0.7750238 0.37112445 -1.5346807 0.54876924 1.3483833 -0.37313706 0.4525371 -1.2126355 0.36961412 0.17145461 0.30770504 -0.35828975
705 0.8014859 0.3601507 0.41036108 -0.21443275 -0.7814394 0.18397215 -0.7223075 -0.08442125 1.241332 -0.16491757 -0.37077805 -0.96565944 -0.214725 1.5218885 -0.43835703 -0.79796934
2410 0.65219814 0.27776828 0.48626962 -0.21804824 -0.64185345 0.31605592 -0.90583104 -0.26082864 1.3315685 0.1301857 -0.24768767 -0.9551746 -0.24594001 1.4915671 -0.5586635 -1.3162938
579 -0.20953591 0.07497509 0.6638138 0.9956333 0.044760425 -0.7442821 -1.045564 -0.056628287 0.23291385 -0.67829865 0.39194116 -1.2319894 0.8300739 -0.49314034 -0.5628631 -0.22878055
318 -0.02541597 0.59810126 0.25476336 1.8421052 -1.175043 -1.0604659 -0.23010466 -0.51491386 -1.374923 -0.2639347 1.0060998 -1.1513397 -0.028217897 0.894847 -0.40477243 -0.10349412
390 0.40601492 -0.722132 -0.065855 -0.20846894 -1.2729118 -0.1008268 -1.0205767 -0.61577594 -1.2320155 0.07026172 1.1322834 -0.43936017 -0.06855161 1.18059 0.54106414 -0.67683834
383 0.25751168 -0.27842835 -0.63678133 0.5188287 -1.1940799 -0.64375585 0.12802024 -0.17981786 -0.4982265 0.19873473 1.006443 -0.54194725 -0.49454725 1.1514899 -0.7204933 -0.46945778
775 -0.07734775 0.039178662 0.74656326 0.15124215 0.2597449 0.110763445 -1.0840186 -0.5683947 -1.4270416 0.14493075 0.8036943 -0.16245794 -0.5404509 1.4750623 0.14934632 -0.35256818
1302 0.13684835 -0.01313791 1.5191585 0.77454853 0.1828833 0.9258438 -0.70084786 -0.8410189 0.7807977 0.69579077 -0.18060207 -1.567221 0.04108338 0.5979719 -0.601652 -1.2625941
2067 0.35885215 -1.2565932 0.8148163 -0.5288213 0.08614913 -0.18167055 -0.88215095 -0.755114 0.1655415 0.18123172 0.6590424 0.26754978 -0.11059723 0.9596222 -0.65964633 -1.1532965
2323 0.15674502 0.41913405 1.6579174 -0.45461202 -0.27361333 -0.2977032 -0.7513144 0.35036975 1.5780916 0.5593418 0.8147328 -0.9944395 0.29150486 -0.24672529 -0.24595504 -0.115703955
197 0.10226163 0.18689205 1.4340297 -0.06321651 0.09876173 -0.42173678 -0.3565526 0.08182912 -0.51510185 0.8229481 0.19362037 -0.22935878 -1.720913 0.85760957 0.12784351 0.13223337
1360 0.4514564 0.713755 0.9954265 0.30960122 -0.85539967 0.2047314 -0.5895684 -0.014305138 1.2396518 -0.7296136 0.5757991 -1.233282 0.8488846 0.4563946 -0.9231788 0.101107165
1917 1.2730184 -0.015456519 1.5373585 0.12873761 -0.38083497 0.9724226 -0.95669943 -0.28841883 1.5270798 0.44424716 0.5040946 -0.5248527 -0.7636808 -0.33332196 -1.365257 -0.4081769
1428 0.24439771 0.3256307 0.9750188 1.0784589 -0.9857221 1.1491995 -0.81083566 -0.48539746 0.8017967 -0.041697662 0.63247263 -1.3369169 0.82783484 0.5327939 -1.1714511 -0.05503564
855 0.34288403 0.6207797 0.5856487 -0.56298786 -0.5062259 0.39470127 -0.9796618 -0.22488903 0.55795056 -0.4582458 -0.16230519 -0.8047381 -0.34152782 1.4146956 -0.39849433 -0.8493464
3 1.3195599 -0.46972722 -0.3096374 2.1410463 -0.8279193 -0.93387794 -0.8490445 -0.12099061 -1.3265111 0.007201606 0.8952288 -0.43988314 -0.52838063 -0.372141 0.47675127 -0.68086445
2048 0.9568803 -0.6696343 0.20775656 0.5199943 -0.10272947 0.35713202 -0.6686452 -1.4986081 1.2576259 -0.4323462 0.26480463 -0.5172043 0.21726109 0.7599261 -0.86778206 -1.0285088
119 0.34213525 -1.1154573 1.4610474 0.5117695 -0.48592943 0.22521544 -0.88254565 -0.19502857 0.38292736 -0.12664382 -0.35642135 -1.3837845 0.5326254 0.19739085 -0.886261 -0.8639859
14 1.1618428 -0.99976885 0.345793 1.793683 -0.07747447 -0.34045345 -1.1629589 0.53920513 -1.2394935 0.4038481 1.330903 0.15831752 -0.6820921 -0.30343857 0.5868094 -0.120635934
91 -0.47802413 0.36854085 1.4767138 1.5076505 -0.18962286 -1.300657 0.031670652 -0.5929052 -1.0877469 -0.16447547 0.79804766 -1.3150054 -0.6131545 0.2942274 0.7449234 -0.1261641
768 -0.07702398 -0.570688 0.38537556 0.43537217 0.14866948 0.03661882 0.16842057 0.37359518 0.83914393 0.3121591 1.2428457 -0.26132777 -0.4787276 0.29305297 -0.00143535 -1.5375247
1243 1.1015484 0.77163625 0.17802721 -0.053234868 -0.41721073 -0.8991313 -0.25368795 -0.2835927 0.74291027 -1.1419965 0.7884546 -0.8200473 -2.606875 0.7905626 -0.112392195 0.049287006
76 0.41661942 0.10456543 0.8627565 1.0946305 -0.34210065 -1.1599486 0.33666876 -0.10658007 -1.0588593 0.41710702 1.7608162 -0.84302014 0.46831205 1.2245182 1.0149177 0.12550779
619 0.31681022 -0.28065324 -0.32117203 0.6793931 0.3261129 -1.2414283 -0.77639675 -1.5588706 -0.3820382 0.03162671 0.9000984 -0.96747315 0.27721193 0.5505803 0.28497875 0.17906493
792 -0.12181128 0.7822944 1.005783 0.70316684 -0.77639294 0.8491493 -0.8436625 0.28558153 0.58111674 0.21457624 0.050192874 -1.7009546 -0.5105136 -0.06825548 0.18143043 -0.18262891
1063 1.187553 -0.7355473 0.23338212 1.2064937 0.33770955 -1.03198 -0.6283518 -0.068428546 -0.21376848 -0.118597865 1.5179911 0.8631969 0.33071563 0.7018048 0.34804556 -0.12919518
1983 -0.25669223 0.22593437 0.0653838 -0.45604312 -0.21823257 -0.11001232 -0.6237035 -0.8241784 0.6218849 0.9537752 1.6353902 -0.23908289 -0.2149955 0.82839125 -0.81539553 -0.27177498
830 0.147142 0.6192629 0.3802293 0.11136286 1.0012374 -0.45408824 -1.193598 -0.10643961 -0.11655579 0.6367323 1.1110817 -0.5487676 -0.38549897 0.81383955 1.2985213 -0.39432356
2298 1.5794543 0.3792507 0.40995863 -0.5123581 -0.67148405 -1.3674402 -0.6477615 -0.33045954 0.9477702 -0.7056234 0.80938524 -0.21170075 -1.4823891 1.1738088 -0.52544 0.9157181
367 0.12242482 0.24277419 0.58110064 0.7288452 -0.76065797 -1.9084959 -0.7444232 0.69763345 -1.0710204 -0.8782281 1.1221211 -1.1475388 0.29770038 0.81354547 0.4009723 -0.59368587
998 0.77460635 0.16629127 1.2385658 0.28644106 0.7101235 -0.3279899 -0.9006988 0.36319274 -1.0390545 0.24527791 0.816789 0.08776532 0.27689776 1.1696526 0.7270152 -0.2979677
547 0.52968705 0.21026027 0.06298749 0.77620625 -1.0827777 -0.52024037 -0.9945946 -0.7706373 0.6840235 0.181675 -0.07735465 -1.414275 0.50953245 -0.14638706 -0.35048684 0.638261
1545 0.12506293 -0.4106286 0.7207692 0.86428505 -0.8101266 -0.2896529 -1.3793485 -0.9494172 1.7986479 -0.16248046 1.1400212 -1.0218977 0.85976225 -0.4448321 -0.28709748 0.28292084
3152 0.54784626 -0.67866266 1.0871073 0.026857382 -0.27872968 1.1228834 -0.5322884 -0.23825976 -0.038055964 0.86766523 1.4977592 0.06375029 -0.04049289 -0.19722398 0.006556088 -0.79265815
277 0.44721988 -0.13320354 0.8411047 0.78346246 -0.21958978 -0.7438566 -0.36443895 -0.28589776 0.4201286 -0.28758985 0.55908376 -1.2025989 1.482754 -0.37425926 0.24288735 -0.43359324
1932 0.15190037 0.50840783 1.1414001 0.7430958 -0.39976016 1.0464975 -0.8078372 0.5249592 1.0386394 -0.1548447 0.10162796 -1.1941667 -0.922714 0.4722838 -1.04777 -0.51618177
515 1.0314131 -0.28591156 -0.06492836 -0.038556986 -0.088505894 -0.3169962 -0.79559296 -0.5980249 -0.019210365 0.40917325 1.7519889 0.5666831 -0.22028287 0.75695264 0.6141432 0.30302584
153 0.9491591 -0.67798954 1.3427954 -0.5652865 0.32291478 -0.06406318 -0.3285193 0.8386654 0.8006497 0.55963993 0.2893291 -0.6233621 -0.23083559 0.6413373 0.19395486 -0.81538004
2341 0.08109324 -0.8408626 0.7283716 0.36367255 -0.5228139 0.07994827 0.4061353 0.30533051 0.9707888 -0.030766038 0.13464788 -1.7877339 -0.5507777 0.32801077 0.17844705 -0.5667255
1396 0.38494864 0.15987371 0.7600249 0.04622024 0.39980093 0.23618513 -0.3685696 -0.17070694 1.269753 -0.47135428 -0.061981577 -1.766419 -0.7145622 0.4056893 -0.47614422 -1.4698714
1331 0.79773945 0.309557 1.2110153 0.5796206 -1.1438231 0.818497 -0.63964957 -0.16042314 0.42184407 0.7463751 0.24192947 -0.8824606 -0.16302247 -0.76120543 -0.40177733 0.08011927
2275 1.0538052 0.7295359 0.6529107 -0.5878514 0.11026365 0.6108242 -1.2418247 -0.7913931 0.64965546 0.22872968 0.27055594 -0.7500723 -0.36779737 0.2292585 -1.2940087 -0.45596263
527 0.49057043 0.27255148 0.48567885 0.74183965 -0.62062055 -1.3955294 -0.3364779 0.02688685 0.6682685 -0.17141703 0.90426326 -0.051125366 -1.4143125 0.73714197 0.2834382 1.2189382
1803 1.588513 -0.02922033 0.48166505 0.42528555 0.16251776 -1.1415389 -0.17302169 -0.3408601 1.1104426 -0.55079085 1.0567795 -0.04644357 -1.520354 0.035751525 0.17476512 0.94104
175 -0.12490122 0.07364968 0.76976234 -0.17376523 0.45694768 0.0013250739 -2.088087 -1.1923444 0.09739547 0.37029022 1.1967205 0.25025934 -1.2479604 0.5746113 0.83315736 -0.5514247
322 0.48739752 0.16843258 -0.11985407 0.8825241 -0.57565135 -0.80990833 -0.66352946 -0.7228147 -0.327853 -0.02106236 0.63020825 -1.6405945 0.9797045 -0.24930774 -0.25364217 0.18140231
478 0.211701 0.2820428 0.077311374 0.5715259 0.50743353 -1.6339287 -1.1609502 0.07241923 -0.349934 -0.8265218 0.33510837 -0.77741295 -1.2315655 0.3957205 -0.100944914 0.21564923
72 -0.06962405 0.35042354 0.43577635 1.3886826 -0.9767718 -1.6577176 -0.17174397 -1.0399642 -1.1621045 0.3868241 0.33536124 -1.2492154 -0.4722119 0.8653749 -0.14087783 -0.3847651
2240 1.2048883 -0.056983057 0.78758454 -0.12048647 -1.0079545 1.3777665 -0.51912236 -0.90633756 0.7105954 -0.13447891 0.17192529 -1.6342113 -0.30124536 0.08762032 0.035776276 -0.73876506
580 0.54394937 0.25983346 0.5800505 0.5898275 0.3460404 -1.2858198 -0.4034231 0.72901 0.47448212 -0.22434214 -0.38575932 -1.1062441 -0.9206604 0.19041935 -0.19451718 0.13405438
540 0.26381448 0.27855188 1.3562083 0.57562274 -0.031971067 -1.5954874 0.082589425 -0.5973815 -1.5608745 -0.12253941 0.99688077 -1.1139622 -0.44874525 -0.21663426 0.29192072 -1.1674085
1924 1.1427597 -0.42519858 1.27338 0.0114093525 -0.98074365 0.5433791 -1.0625298 0.28174073 1.401401 0.2813643 0.13074549 -0.6152587 -0.9196311 -0.17018294 -1.3272359 -0.37506038
63 0.20616417 -0.053354535 0.6891444 -0.37483707 0.87648374 0.49721614 -0.4813478 -0.31660807 -0.06990527 -0.7680373 1.6678983 -0.18873723 -0.44471917 0.16568135 0.42141718 -0.6672145
959 0.09561532 0.19758506 -0.2723983 0.28048682 0.03438966 -0.5298327 -0.63250244 -1.5960114 0.044823803 0.91758263 1.5947278 0.083503634 -0.9255264 -0.13008866 -0.3921091 -0.39972088
2310 1.2100358 0.32994804 0.72635037 0.6245344 0.404567 0.37901708 -0.93381745 0.15529136 1.2573024 -0.83876073 0.8819095 -0.614063 0.2762404 -0.705481 -0.5598776 -0.3741507
472 -0.6786971 0.59148985 0.45955676 0.5741514 -0.11289551 -1.4672365 -0.6919026 0.53318405 -0.7429934 0.016378244 1.3584245 -1.1956878 -0.18864113 0.2033898 0.091109015 -0.7091677
1165 1.410188 -0.53770256 1.182718 -0.33486527 -0.9954078 -0.43929678 0.5410362 -0.110610895 0.73908806 -0.44849846 0.56675756 -0.16226296 -0.85591215 0.24675332 -0.36823204 0.14275771
3131 0.64552045 -1.1754304 0.18013205 0.5998506 -0.57083946 0.664587 -1.4217826 0.4559415 1.2656223 -0.3876546 0.49887866 -0.9023648 0.16186312 0.53416353 0.36553925 -0.5593529
876 -0.27014926 0.25423092 0.050817914 1.4424179 -0.30348068 0.22834496 -0.3921671 0.16141243 0.17870678 1.0109103 1.2454524 -0.18060383 0.32223195 0.9418398 -0.04169303 -0.5434887
895 0.88839644 -0.21786068 -0.21138883 0.59163254 -0.27829543 0.39165506 -1.0467659 -0.1342868 -0.263525 0.8825815 1.6983595 0.41514042 0.123068415 0.55333 -0.5774088 0.22924416
1482 1.3039556 0.41472688 0.120796345 0.83582014 0.038168184 1.218846 -0.5576507 -0.26305705 0.25720236 -0.21678858 0.34759942 -0.28358975 -0.44906247 0.93964875 -1.1600728 -0.48548394
677 1.0296643 0.19920954 0.09114185 1.0285603 -0.58137393 -1.236803 -0.3781186 -0.73287344 -0.8420504 0.48675728 0.64379054 -0.6245628 -0.16652605 1.7301241 1.2455684 0.12981755
1441 -0.050143942 -0.80350465 0.8570535 -0.018361619 -0.11885646 0.80108577 -1.2292484 -0.6246807 0.15476452 -0.8523761 0.11832931 -0.86271846 -0.9369803 0.3095723 -1.1183814 -0.8498303
2057 0.11697287 0.036650814 0.8337048 0.27544194 0.16081436 -0.007616885 -1.4548253 -1.234231 1.4592686 -0.52552205 1.0026181 -0.76591855 0.46408427 -0.021289894 -0.18414256 0.6785948
3181 0.59406215 -0.064331956 -0.44344392 0.54674596 -0.07202338 0.51456386 -1.4458523 -0.017428897 0.9573537 0.45163667 0.26275814 -0.42511538 -0.77279735 0.794108 0.27830604 -1.2565734
2313 0.6659745 0.49422312 1.5180942 -0.5761179 0.8161144 0.14205149 -1.0990038 -0.43979785 0.92835134 0.24878863 0.17992777 -0.20971015 -0.46856844 0.91734487 0.41945845 -0.62521154
642 0.2836785 0.14493257 -0.021410828 0.50557506 -0.9260665 -0.093148 0.08962152 -0.112430334 -0.027044522 -0.42944193 1.1878968 0.489249 -0.67758733 1.4696597 0.049210533 -1.039671
1488 0.57071096 -0.33547425 0.92083824 -0.125824 0.1647381 -0.4500508 -0.8251698 -0.20969135 0.83096194 1.0985483 -0.67262036 -1.275494 -0.73785454 0.19096337 -0.085423924 -0.6661933
1485 0.67313224 -1.1153904 0.5539035 0.31299084 -0.7085152 0.38522828 -1.6496801 0.4383628 1.2623504 -0.38437015 0.28606328 -1.083028 0.5677667 0.47770685 0.04318929 -0.28460765
1450 0.09871931 0.14597882 1.1541946 1.2304413 0.111134574 -0.30982333 -1.5090104 0.4194143 1.6610022 -0.34767324 0.064484 -0.77153045 0.45195115 0.2354116 -0.30604008 -0.35440323
2417 0.44171482 -0.6545361 -0.21954428 0.7936966 0.390818 0.15134576 -1.6014946 -0.47458547 0.49702436 0.687092 0.4042703 0.017903721 -0.53825885 0.45520902 -0.9356937 -0.87025166
214 0.23926462 -0.5475551 1.3335341 0.64295053 0.5770754 0.45706466 -1.3766912 0.016494041 0.9066263 0.42245382 0.43223482 -1.2335684 -0.14302021 -0.53531754 -0.73447025 0.4603003
1364 0.3520409 -0.25478083 1.5319035 0.7244579 0.2866816 0.1746297 -1.2591951 -0.2399442 1.6619377 0.44380406 0.43456218 -1.1608396 1.0017399 0.05914715 -0.7559234 -1.066389
1846 -0.401804 0.2140687 0.6940965 0.3363664 0.046046004 -0.076879576 -1.7176236 -0.6649954 0.8101386 -0.72170544 1.1330357 -0.48297676 0.70205516 0.66104364 -0.3530821 0.69230974
1837 0.42006725 -0.42617232 0.47719178 1.0712818 -0.053741686 1.0957487 -0.75545853 0.36337927 0.9823576 -0.26958185 1.079067 -1.2132392 0.30656847 0.79325974 -1.2508835 0.4839031
2556 1.4622597 -0.21205667 -0.43417975 0.3734957 -0.9139098 -0.36651134 -0.20749827 -0.89965224 -0.84736687 0.0903509 0.9737773 -0.39535904 -0.79853344 1.5322784 0.8412372 0.19723028
74 0.24617471 -0.33537555 0.48602757 0.8230076 0.06771656 -0.56914014 -0.1721183 -0.1069646 -1.9292281 0.25915 1.2375145 -0.5432705 -0.83472097 1.5371339 0.2207434 -0.45848405
64 0.35117987 -0.008783194 0.3640525 0.33319622 -0.24014504 0.2776377 -0.09562087 -0.8341443 0.26564482 -0.6194486 1.7046959 -0.1687454 -1.4288782 0.18557751 -0.3671772 1.0159966
360 0.45489386 0.8319373 1.0712783 0.13573575 0.38509312 0.16125992 -0.011965209 -0.30178788 0.89240634 -0.38495523 0.46013442 -0.43446502 0.32571015 0.5705613 -0.47453144 -1.231101
992 0.66627413 0.7436501 0.7646731 0.7717893 0.50654066 -0.92455465 -0.0116705205 -0.5657909 0.6911291 -0.30592507 -0.24186426 -0.8494275 0.18687281 0.124776825 -0.585546 -0.2958813
439 0.0057552764 0.3672641 1.2254788 0.9946358 0.06735431 -1.2492564 -0.27309847 -0.84439117 -1.5316173 -1.067851 1.7644364 -0.5068981 0.118472904 0.15339564 -0.41219613 -0.5949919
602 0.438041 0.061148476 0.066741064 0.5837779 -0.1338737 0.13378209 -0.0969453 -1.3994272 0.10169263 0.5832606 1.2828559 -0.09820138 0.4337623 0.45826274 0.5710281 -0.16919681
691 1.0848361 0.16774791 0.053780057 0.9898984 -0.53412485 -1.5998131 -0.18862271 -0.70786774 -0.88528556 0.5596242 0.38202256 -0.41837946 -0.29904604 1.5919011 0.76578707 -0.8939897
1289 0.8750335 -0.2756981 1.8755357 -0.010774164 0.20997809 0.6315156 -1.2596332 0.8277936 0.53575957 0.3024032 -0.07629715 -1.2118752 0.078440666 0.23013076 -0.7607522 -0.3516594
714 0.67545223 -0.013991947 0.05253546 0.6450004 -0.059349407 -0.33605108 0.071302645 -0.1692285 -1.4857191 0.3092451 1.8187251 -1.416219 0.21608455 0.7838689 0.80348355 -0.050145574
555 -0.4854189 -0.6703966 0.5308753 0.17492045 -0.18283677 -0.32695192 0.54793084 -0.62449664 0.076465614 -0.0595001 1.0604901 -0.7694684 0.026068037 0.6499634 0.44148323 -1.2952307
1825 0.86787975 -0.25856975 -0.14370471 0.23646186 0.26204163 0.24604277 -0.29563075 -0.3272464 0.7545588 1.3969343 0.73183346 -1.0104414 -0.64151686 0.09758515 -1.1310269 -0.44444352
1479 1.1502742 0.7534789 1.0496778 -0.76786554 0.116854005 0.25973952 -1.4079479 -0.76987827 1.1753255 0.16939244 0.15685558 -0.894843 0.0705973 0.26892257 -0.9283407 -0.43494502
384 0.87072283 -0.32480562 0.8015851 0.9935195 -0.6372091 -1.0844326 0.2147357 -1.2821188 -1.2015691 -0.76893234 1.1209362 -0.36883038 0.58218104 0.9148196 0.45579198 -0.6993811
1173 0.9751192 -0.59621733 0.4326024 0.73351413 -0.07812928 -1.1388178 -1.1447682 0.25333518 -0.34040678 -1.4402058 0.06463725 -0.2559302 -1.5436121 0.34601617 -0.78756315 0.37795776
297 -0.19502302 1.0481355 0.9828279 1.424745 -0.45050946 -1.395597 -0.71830535 -1.0020015 -0.7001106 -0.7533187 1.0262934 -0.50263196 -0.52934825 0.32165912 0.8282989 -0.054470386
1859 0.58971334 -0.6359488 0.58310044 1.3406076 -0.7160725 0.26776296 -0.23046246 -0.42687988 1.4808701 0.5825906 0.17108689 -0.91378564 0.4067446 0.43697625 0.31437734 -1.3128442
1571 0.54864407 -0.3876851 0.42554435 -0.55445576 1.1569622 0.04712434 -1.6645907 -0.3575189 -0.18926194 -0.37866855 1.9410169 0.12457951 -0.59104604 0.48975533 0.36458188 -0.67520356
2424 1.2158525 -0.45035687 0.22229342 -0.19643956 -0.48761624 -2.007044 -0.4970119 -0.12464865 0.7886507 -0.95577306 1.1654428 -0.41146272 -2.289729 0.017405763 -0.16226457 -0.061883546
2286 0.80719197 -1.0325905 1.2233388 1.0229331 -0.4255116 -0.3960224 -0.4451822 -0.29992557 1.2502443 0.8891482 -0.4477465 -0.5278734 -0.66470015 -0.05015556 -0.51693404 0.27644867
2495 0.3770508 0.393184 2.0648103 -0.7515969 -0.617704 0.25825202 -0.37414643 -0.16019452 0.9341143 0.7681835 0.39893323 -1.3503305 0.252445 -0.06731544 -0.34093618 -0.51214087
1068 0.12718724 0.047519233 1.2635669 -0.06787638 -0.09581872 -0.35436365 -0.2680682 -0.012934037 -0.81815445 0.97078484 0.4880268 -0.28253338 -1.8501958 0.84564674 -0.14046171 0.26198697
2021 0.69915974 -0.7579452 0.7733592 0.86914873 0.6392873 0.18848197 -0.05434329 -0.3124907 0.30215308 0.6353972 0.5047367 -0.86803454 -0.74069387 0.031196337 -1.732891 0.3215524
1449 0.6937054 0.31080282 1.2868298 0.96473354 0.4670805 0.40559798 -1.2496938 -0.21463113 1.7074063 -1.0632321 0.18463305 -1.2314674 0.31604522 0.29177675 0.09803918 0.16637084
1729 -0.14238289 -0.32277632 0.3649359 0.35363656 0.39305276 0.31116375 -2.0522532 0.15027916 -0.23479356 0.31434467 0.24729727 -0.7083507 -0.78294694 0.53740185 -0.17275122 0.5927878
274 -0.3796191 0.48249292 0.94479775 1.6755474 0.35375112 -0.9854544 -0.400589 0.1419361 -0.85652894 -0.0621212 0.9774234 -1.33134 -0.5664265 0.38110268 0.83733827 0.29080057
982 -0.3490326 -0.37329572 0.15017654 -0.039268702 -0.8432011 -0.93212605 -0.5151716 -0.98341966 -0.36341628 -0.053162348 1.608561 -0.5845478 -0.7910812 -0.057945564 1.1265829 -0.26844192
2376 0.5142011 -0.11304652 1.33087 0.48387006 0.46348903 0.046994172 -0.022114865 0.70520675 1.2684953 0.51532614 0.25056535 -0.623639 -0.4559606 1.0753272 -1.0042998 -0.483787
2071 0.2652241 -0.5899602 0.12282619 -0.38225594 0.39630464 -0.14487256 -1.8290256 -0.7522427 -0.1353573 0.120055124 1.1087196 0.20706119 -1.0087621 0.115358666 -0.7457671 -1.1121563
2316 0.8873342 0.33821738 0.8794956 0.15090922 0.45636967 0.6320417 0.20161647 -0.3133977 1.432717 -0.023667688 1.1391613 -0.86068296 -0.6614813 -0.4939969 0.0805091 -1.0775898
161 1.0467396 -0.58717823 -0.84430414 -0.30467683 -0.29737487 0.007682294 -0.72067434 -0.047014266 -0.25243562 0.0760477 1.1225337 -0.6995764 -1.1239811 0.11438416 -0.24306624 0.10705728
198 1.4266088 0.23343359 0.48855585 0.324725 -0.2354948 0.21410665 0.0006750504 -0.47263324 1.070331 1.5984251 0.36693648 -1.0091442 -0.3434225 -0.027216977 -0.93575513 -0.41089657
2355 1.2550201 -0.28129423 0.22466506 -0.7952328 0.07070442 -0.55331296 0.71120554 -0.4616705 0.44619453 0.18755247 1.268451 -0.7213473 -0.97210157 0.76516783 0.336798 0.13869268
1833 1.1928504 -1.365353 -0.00046065327 0.054744437 -0.18487784 -0.58952993 -0.6072498 -0.9597839 -0.04224317 -0.0056005614 0.14401086 0.17774439 -0.7534839 1.3938285 -0.26604566 -0.16651158
1736 0.4604281 -0.25787058 0.47146246 0.45407724 -0.670785 -1.2886876 -0.52459526 0.26222575 0.95210683 0.12112448 1.1243926 0.10090597 -1.7632482 -0.091507174 0.05233573 0.66757435
397 0.6393856 -0.39008006 0.8527478 0.9725878 -0.25382587 -1.1007038 0.16984472 -0.9087347 -1.0297192 -0.62207633 1.0282917 -0.3974189 0.56472784 1.4730835 0.6989221 -0.39346853
764 0.48121747 -0.19364281 -0.13179432 0.7228897 -0.48946333 -1.2938976 -0.3746744 -0.8733804 -1.029018 0.36303475 1.5931355 -0.6663845 -0.7904618 1.3402952 1.5714914 -0.29008633
2602 -0.4017021 0.3716321 0.50825775 0.21074985 -0.8909667 0.745457 -1.2970147 0.17453372 0.2970452 -0.45172518 1.4770377 0.214515 0.118616946 0.92427194 -0.74115914 -0.7500365
1749 1.2959685 -0.3990475 0.7936551 0.49856347 -0.7467554 -0.035588223 -0.086538024 0.20103174 0.45918876 -1.1165456 1.2446419 -0.49125487 -1.7511768 0.3418129 0.2845304 1.2032374
994 0.90062577 0.29948914 -0.013191753 0.77906454 -0.5803598 -0.48387745 0.35746995 -0.61943084 -1.2499381 0.10770091 1.1491398 -1.058617 -0.529953 1.1266403 1.3056235 -0.70761186
225 0.59337085 -0.30745578 1.459308 0.09289405 0.062800296 0.3094139 -1.3143113 1.0214908 0.2617981 0.5425254 -0.15115207 -1.3459195 -0.28095287 -0.008836372 -1.0057735 -0.19625875
1366 1.1131637 0.3501717 1.29348 -0.1165387 0.9642996 0.76489055 -0.46628594 -0.21693832 0.42229685 -0.48923692 0.3522151 -0.43673968 -0.51661867 0.5004681 -0.36608374 -0.054564435
433 0.9721173 -0.8841651 0.4263645 0.70257926 -0.6154094 -0.7241037 -0.24475703 -0.761967 -1.9554385 0.2107119 0.7764211 -0.8293968 0.11300793 0.5188577 0.1810284 -0.31644386
246 0.36255693 0.61799866 0.51566994 1.260064 0.22844781 -1.8863745 0.5070144 -0.26234782 -0.0761056 -0.39382327 1.1532714 -0.83101225 0.17063956 0.24750927 0.10609583 -1.0271416
3248 0.5821819 -0.65242356 -0.27189493 -0.047003295 -0.49817175 -0.48402932 -0.6654546 -0.06426138 -0.47514686 0.8956479 1.4772363 0.12665154 -0.14056776 1.5444827 -0.36198038 -1.4213285
658 -0.07706787 0.6706357 0.45701638 0.98544955 0.0374796 -0.85691375 -1.141308 0.9577947 -0.5553103 0.3673647 -0.04629261 -1.3876168 -0.5209376 0.2559096 -0.26373807 0.19039902
2951 -0.07306303 -0.84786487 0.9978513 0.28374505 -1.0092485 -0.13715237 -0.19973287 0.6297337 0.74638677 0.53752923 -0.06737159 -1.1411822 -0.8208916 0.3189018 -0.2868878 -0.049649958
557 0.72449064 0.51862645 1.0820017 0.46531293 -1.2328962 -1.3742539 0.48813212 0.3712855 -0.8281613 -0.2861808 0.9877282 -0.85562086 -0.6640004 -0.112546176 0.22142148 0.31271836
1971 1.6398767 0.08385802 0.7870416 0.9314549 -0.76080567 0.52926964 -1.2485619 -0.5109962 0.53899044 -0.0013236266 -0.7973867 -1.1487085 0.075979166 -0.080134794 -0.4523843 -0.057733417
346 0.32525632 0.004926934 0.99370426 0.56484324 0.25195885 -0.7951113 -0.036434796 0.06793506 -1.3278215 0.25664678 1.0518887 -1.773695 0.6850074 0.004674318 -0.12407299 -0.1164951
1672 0.7545655 0.55729526 1.1147022 0.051609788 -0.4036654 -0.08212562 -0.71151835 0.7881288 -0.8459062 0.9028278 0.63141805 0.36547095 -1.4200978 0.7219962 -0.73909986 -0.13508803
769 0.5508206 0.051319342 0.4968055 -0.24489738 -1.3293438 -0.80346674 -0.22085242 0.31261548 -0.6969727 0.6734837 0.7774819 -0.42894423 -0.46991524 0.9718387 0.501029 0.37222448
1042 0.099850915 0.64544195 1.283827 -0.7746815 -0.6732786 -0.025949148 -0.32647204 0.6079869 0.90166277 0.60392106 1.0526925 -0.42861646 0.15158048 0.43314758 -0.036702704 -0.2930378
276 0.44256973 -0.10684264 0.93012094 0.7810251 -0.23621272 -0.71899045 -0.42457744 -0.33098698 0.3368385 -0.21945685 0.6594664 -1.178474 1.5830042 -0.3841247 0.20805418 -0.32228154
1257 1.1454138 -0.48272842 0.8429302 0.36465088 -1.0213331 0.26764962 -0.18239258 0.15266289 0.48390347 -1.0861061 1.0364813 -0.5975567 -1.4436547 0.508597 0.21806017 1.27893
310 0.6940476 0.93196017 0.684454 0.56568277 -1.0372094 -1.6386132 -0.8152136 -0.877738 -1.2489369 -0.59738386 1.0130794 -0.19561186 0.13432902 0.11075971 -0.4173804 -0.4970067
2552 0.01843663 -0.7467185 0.06736039 0.6946824 -0.58807886 0.71444154 -1.5340989 0.28183213 0.9159638 -0.12810516 0.6058335 -1.0954399 0.073309526 -0.05213242 -0.03907084 -0.96297514
1477 0.87371343 -0.22678186 0.46923253 0.20465861 0.8804717 -0.24334763 -0.030233601 -0.40056273 0.6025477 0.99641776 0.2746063 -0.46903667 -1.5459146 -0.05335282 0.23997279 -0.7401775
160 0.07757988 -1.3140287 1.0595934 0.5603288 0.38566282 0.6324277 -1.0407099 -0.14613031 0.2815648 -0.25884554 0.8213793 -0.74855995 0.25125 -0.55636525 -0.40757242 -0.32522464
669 0.95911056 -0.12387196 0.70621103 0.17669205 0.04454761 -2.1497111 0.4731208 -0.65752745 -0.9030032 0.15526527 1.083223 -0.8178592 -0.011819214 0.36491966 0.21195783 -0.7847481
441 0.40627933 1.1252398 0.62835264 1.263025 -1.0362036 -1.7302963 -1.2350314 -0.121705435 -1.0315539 -0.25022802 1.1526694 -0.22257203 -0.032560702 0.17711177 -0.07481521 0.26938677
501 0.08597245 -0.5152017 0.603431 -0.62099373 0.2053991 -0.8530778 -1.0836712 -0.66063595 -0.65482926 0.98312676 1.0654482 -0.11752221 0.21248463 0.76413524 -0.3254392 -1.1373427
1062 1.2743205 -0.7326178 0.34218073 1.1171536 -0.22448945 -0.94318414 -0.7624946 -0.15708761 -0.37758306 0.31862974 1.4285861 1.0905725 0.3507525 0.6824431 0.15773097 -0.02767789
2586 0.43064412 -0.313039 0.15211806 -0.8197481 -0.33678696 0.20266825 -1.2217532 -0.6718018 0.75278586 1.078603 0.5634071 -0.83011943 -0.31771025 0.16038941 0.26221722 -0.6926206
289 0.45172206 1.1094368 0.8954512 0.86041296 -0.37426904 -1.0561277 -0.3771715 -0.323614 -1.1762964 0.4900222 1.9121606 -0.9798472 -0.07320742 -0.35560483 1.06899 -0.02354102
1891 -0.16948573 -0.9290258 0.5777473 0.34798342 1.1974636 -0.26731032 -0.80057675 -0.4238665 -0.071062975 0.17319982 1.3829967 -0.3421004 -0.6968911 1.5781046 1.0747507 -0.579696
1468 1.2249709 -0.58123386 0.31587788 -0.14526637 -0.08292527 -2.075439 -0.13204376 -0.16346763 0.5626378 -0.90009916 0.926775 -0.5537285 -1.9330167 0.029841395 -0.38607013 -0.241618
1504 0.78933835 -1.26118 -0.0012656094 1.2047874 0.20872729 -0.4565181 0.18162088 -0.74937135 -0.92689073 -0.13802092 1.0925941 -0.64519376 -0.6631164 2.2103646 0.5652793 -0.21276519
1845 1.1764026 0.43586403 -0.2306814 0.09341375 -0.72989357 -0.35835135 -1.2993456 0.9840618 0.5861639 0.6853761 1.2046928 -0.38557526 0.18063222 -0.21499975 0.10693269 0.40327793
530 0.32554707 0.2694263 0.9989263 0.6309264 0.19291338 -1.9234288 -0.78243375 -0.6105964 -1.52495 -0.8420037 0.59342253 -0.87798077 -0.16552405 0.3209674 -0.16467184 -0.9389686
2732 0.8801624 0.29094017 0.24675389 0.3189329 -0.94929993 -0.24537066 -1.3003395 -0.45053756 0.9473281 0.38906842 -0.49724656 -1.7472119 0.25480026 -0.13081151 -0.28464663 -0.13120724
2449 0.8901685 0.108829826 -0.08986572 0.58490837 0.08089728 0.32935324 -1.1399491 -0.6269783 1.3372723 0.32469133 0.0850419 -1.0920184 0.26368302 0.8911541 -1.1500254 -1.0248191
536 1.3253617 0.99641055 0.53111106 1.0306041 -0.44604522 -1.4048067 -0.23454168 -0.42640638 -0.9620561 0.32605675 0.35612154 -0.7215265 0.22327414 1.122598 0.8969416 -0.34400895
269 -0.05405882 1.2080685 0.57223076 0.54755306 -0.8169934 -0.50423163 -0.72002226 -0.6153184 -0.867987 0.36426145 1.553556 0.20942192 -0.024136513 0.05388831 0.111006424 -0.81818444
1832 0.6382948 0.5369499 0.5090899 0.54623264 -0.074685976 -0.40163696 -0.1541145 -0.8859455 1.6023483 -0.37578505 -0.17200428 -1.3757297 -0.46164265 -0.12855765 -0.42743364 -0.90467125
1498 1.2937971 -0.651023 0.40826175 0.14541969 1.3917236 -0.26454896 -0.5613092 0.4574593 1.0307701 0.10279743 0.9270735 -0.44242004 -0.16579904 0.06422346 -0.51127636 -0.517806
19 1.0925928 -0.67802393 0.30447885 1.6342125 -0.081580944 -1.652013 -0.30661866 0.078242995 -1.3884957 -0.28545672 0.77380204 -0.8108587 -0.26662034 -0.124114215 0.43119553 -0.75309634
2255 -0.16158956 -0.59249574 1.3848567 0.7892318 0.2738946 0.91609925 -0.6789763 -0.8250695 1.6014535 0.17490913 0.7161229 -1.7719314 -0.3861436 -0.24576816 -0.049694445 -0.32124773
1864 0.930401 0.7962608 0.102692924 0.7115429 -0.9614755 0.18137327 -0.8543703 0.3474743 0.7746668 -0.07930808 0.9372738 -0.6040855 0.56179446 -0.6615214 0.16664 0.0014837402
200 0.84892446 0.9689887 1.1248542 0.36783653 0.008157849 -0.19901206 0.34319773 -1.0585507 -0.520804 0.14371808 0.23896474 -1.0338297 0.29989648 -0.09482112 0.1358911 -0.27391452
1660 0.41877317 -0.553226 1.3321646 -0.16503765 -0.3421366 0.9734873 -0.5094335 -0.13258502 -0.3344373 0.8768468 1.3324288 0.19226553 -0.25352314 -0.13863748 -0.055108074 -0.71591294
251 0.4869735 0.33520234 0.57842517 0.1209878 -0.10017995 0.2328544 0.50072014 -0.91648287 1.0136667 -0.00082374155 0.77475256 -1.2900399 0.1334664 0.24350964 -1.2009523 -0.527169
2721 1.1145926 -0.95375353 0.97775733 0.08174674 0.3195857 0.14396352 -0.6608858 -0.7038874 1.5374674 0.20874915 -0.04860604 -1.8674575 0.24556245 0.25004098 -0.3157823 -0.14469253
1132 1.0620441 -0.743637 0.17478617 1.8915623 -0.16949552 -0.658559 -0.35494304 0.04385461 -1.8401743 0.031267695 1.3877004 -0.3045578 -1.0009084 0.12950665 0.62685436 -0.7932914
1986 -0.20300946 -0.4500448 -0.37805068 0.3961602 0.3166557 0.32547313 -1.2635529 -0.444423 0.023586912 -0.47968248 1.3848907 -0.21776876 -0.18169302 0.34969714 -0.8200213 -0.7260592
298 -0.08389986 -0.21788423 0.874421 0.7452395 0.17565453 -0.74811524 -0.7441406 -0.55528104 -1.6972871 -0.2231272 0.54819345 -0.9737831 0.103044264 1.5472456 0.20381595 -0.29061797
2128 0.9332824 -0.41657835 0.490656 0.5379673 -1.5062962 0.04090656 -0.35523105 -0.118670724 1.4988345 -0.37158623 0.091858305 -0.43380675 -0.5620667 0.17503932 0.36598665 0.0042442717
365 -0.34229672 -0.065753594 0.87903476 0.5763717 0.26079795 -2.1981688 -1.1408083 -0.006192506 -1.0726225 -0.6375934 1.3535849 -0.79353076 0.22472402 0.7961195 0.0056665335 -0.37659225
1175 0.406615 -0.22438748 -0.4714334 0.4132275 -0.49631637 0.31611606 -0.4654101 -0.21046136 -0.5095988 1.393719 1.5210698 -0.55594397 -0.6048271 1.4057585 0.68805426 -0.6705435
296 0.085829474 0.62512434 0.21195167 0.8410061 0.07630575 -0.69612116 -1.3709317 -1.2487972 -1.5541325 -0.22145112 1.1612291 -1.2584875 -0.5370942 -0.31431797 -0.13952412 0.10831636
1476 1.1250137 -1.0011446 0.83720326 -0.45069063 0.31639892 0.26118368 -0.82390237 -0.9813522 0.4987308 -0.058119666 0.5281498 0.1838894 0.18522258 1.3363783 -0.3779485 -0.92434937
1336 0.50870544 -0.3443016 1.0523763 0.15573256 -0.105862856 0.41420045 -0.3433996 -0.77343047 0.75720894 -1.042115 0.14091162 -0.58214915 -1.4760767 0.13960873 -1.2842958 -0.42115504
560 0.22231956 0.32909608 0.7877343 0.6878423 0.70129025 -0.74121445 -0.17991522 -1.1577301 -0.82282394 -0.21657223 1.1075081 0.10032186 -0.03947907 1.22352 0.5254414 -0.74448514
2274 1.053721 -1.0247571 1.3272338 0.24100423 0.65554434 0.0106038395 -0.352068 -0.8933712 1.3909023 0.16641705 -0.18127932 -1.5403416 -0.36063468 -0.08967829 -0.6137154 -0.42314565
497 -0.06312878 0.26178914 1.3478653 0.8563497 0.14755179 -1.6798098 -0.21436028 -0.52995574 -1.4419585 -0.61440766 1.0576473 -0.6787239 -0.230246 0.103893586 -0.3096781 -0.99113107
1494 0.6188651 0.25670573 0.027663004 -0.530157 -0.88352984 0.36853075 -0.16405824 -0.33817783 0.8581967 0.32207566 1.2412744 -0.34406888 -0.32357264 0.41581053 -0.6061677 -1.6337225
2435 1.4448943 -0.89757395 1.4084525 0.6597871 0.24548161 0.090972565 -0.52260476 -0.6779809 1.5956417 0.5951441 -0.25600144 -1.2040327 -0.22515227 -0.12254732 0.17884223 0.124611266
80 0.30900323 1.0096213 0.5310758 1.2158538 0.552761 -1.353018 0.2488518 0.20429567 -0.16429816 0.4606975 0.9379683 -0.5087407 -0.4426458 0.14960521 -0.7890159 -0.12948535
2924 0.38569823 -1.0875252 0.9315567 0.20643085 -0.7704197 0.21249394 -0.9904035 -0.07904489 1.1577218 1.0560957 -0.19843882 -0.905058 -0.5931411 0.46284878 -0.86566997 -0.66707724
1297 0.88240397 0.1915428 0.4036742 0.0186261 0.46484616 0.043816812 0.3706554 -0.36503497 1.3786683 -0.18822877 1.347023 -0.18772422 -0.8552122 -0.16305062 0.24563478 -0.78224266
235 0.7328479 0.29734278 -0.48614818 0.31198782 -0.4691352 0.34749836 -1.2552284 0.21126056 0.8230054 -0.20222649 0.13604009 -0.3856444 -0.48996392 1.1135731 0.26039532 -1.2726293
1816 0.9253456 0.7991134 1.0765779 -0.06753895 -0.40481302 -0.50796235 0.27289197 0.4799422 -0.20394868 0.8429745 1.0475441 0.035064533 -1.9266888 0.4432123 -1.090464 -0.19121131
47 0.20252067 1.2153369 -0.039005287 0.57135195 -0.21231869 -1.1118006 -0.67612445 -0.030668218 -0.19823866 0.60930866 0.53415465 -1.8037914 -0.72379845 -0.27400622 0.45917118 0.18084858
467 1.5029665 -0.9060489 -0.07094938 0.07008346 -0.4544757 -0.54652923 0.587712 -0.86823475 -1.0393968 -0.007929343 1.232503 -0.5814504 -0.9938525 1.2233043 0.039913252 0.12517327
2353 0.92818767 -0.6916328 0.24317648 0.6267318 -0.3969658 -0.09966935 0.17717138 -0.5933512 -0.47203347 -0.98476154 1.6703695 0.2600365 -1.1763029 1.1026748 -0.58634835 0.6975473
1398 1.5618376 0.011038391 0.18317273 0.047496464 -0.46641496 0.39622703 -0.029652577 -0.67048234 1.0305878 0.4489981 0.61737794 -1.0189363 -0.56885767 -0.72380835 -0.8765139 -0.72301686
1918 0.79821825 -0.10531657 1.6629397 0.28858942 -0.5125396 0.61408526 -1.0046152 -0.5969308 1.826869 -0.080709666 0.2710527 -0.21182512 -1.0983462 0.019767221 -1.3577955 -0.4869165
1776 1.3068044 -0.8207722 1.0012524 -0.41465375 0.77252775 0.28057164 -0.72040963 -0.98111147 0.5450962 -0.044688452 0.43564117 0.04348245 0.10844095 1.4027319 -0.47771108 -0.687247
221 0.9585968 0.5331579 0.3850965 0.042431418 -0.49768293 1.1239655 0.0002129222 -0.5867399 0.68406993 0.43044105 1.1114676 -0.30667862 -0.45841318 0.089702874 -0.7741431 -0.74309516
1357 0.36218145 0.6688677 1.199409 0.23769616 -1.0051308 0.40132213 -0.5947337 0.62612927 1.1186062 0.0039890893 0.29918966 -1.6357557 0.3189035 0.4663846 -0.89136714 0.15423593
331 0.78314286 -0.17007719 0.20187473 0.22531518 -0.13305415 -0.42644903 -0.26037803 -0.2753364 -1.4784828 -0.075233415 0.04009717 -1.651373 0.124546446 0.82204777 0.18883152 -0.7471489
373 0.951924 0.541611 0.9275067 0.23629324 -0.50091153 -1.8640327 -1.1879637 -0.38528273 -1.1428396 -0.48780456 0.4626776 -0.6705357 0.5048718 0.27678195 0.46941936 -0.43068138
1014 0.8928294 -0.73194957 0.9705431 0.15553686 -0.1252677 0.4766671 0.16866642 -0.15835088 -0.8997372 0.2641042 1.2102343 0.17179187 -0.71739584 -0.33044636 -0.08317992 -0.057411976
88 1.5541048 0.059419926 0.9225469 0.85535973 0.20771375 0.03464856 0.03604561 -0.17257564 0.17938974 -0.4432623 -0.45714828 -0.8746675 0.5972563 0.43372124 -0.6639945 -0.40463886
2239 0.3159973 -0.262505 0.5677318 1.3742992 -0.15223111 0.998374 -1.0379611 -0.22631526 0.17669998 -0.19423884 0.057378106 -0.24944925 0.1495871 1.2049598 0.28797457 -0.15946047
1369 0.8361268 -0.5729937 -0.091513395 0.48553702 -0.53443176 -0.22169206 -0.90982395 0.3110006 1.3909146 -0.070274584 0.12941973 -1.0952502 -0.57475156 -0.15430026 -0.7790388 0.1799441
1741 1.157275 -0.10056207 0.5090903 -0.31570032 -0.3777108 0.10418756 -0.113714725 -0.7872544 0.088254854 -1.1402264 -0.07060586 -0.87947464 -1.6709098 0.66046965 -0.6282765 0.06449839
1377 0.05126168 -0.28752357 0.10533459 -0.3444697 -0.03308108 -0.4508237 -0.8054057 -0.83934265 1.5612134 0.05843135 0.37527153 -0.8679645 -0.057524417 0.9047857 -0.6772017 -0.6552526
1743 0.9071373 -0.7202224 0.88016224 0.16272996 -0.1687573 -0.35787335 0.0901608 -0.6624531 0.31268984 -1.246044 0.34009722 -0.60771585 -2.23317 0.61004305 -0.7536745 0.18845972
1451 1.0324315 0.005965758 0.5652875 -0.348709 -0.18417194 -0.7143092 0.32637748 -0.80409575 1.4065183 0.7623278 0.72957194 -0.6642511 0.22615789 -0.15178268 -0.27786285 -0.5555616
2559 0.41909644 -0.21263266 -0.30513012 0.020780863 -0.78720963 -0.2887887 -0.52066493 -0.82093376 -0.32554477 0.62595123 1.7278781 0.3792219 -0.40485784 0.9845424 -0.09764008 -1.6041933
2939 0.62448597 0.5628024 0.701673 -0.35452926 -0.36939055 0.5817232 -1.0146317 -0.1590119 0.7008783 -0.3948662 -0.27858213 -1.1187532 -0.28584978 1.564672 -0.7158814 -0.8778125
2299 0.45684835 0.15177897 1.3142375 -0.55878884 -0.5650265 -0.38012913 0.19545527 -0.84029675 1.4234742 0.68569446 0.5183937 -1.118877 0.33600304 0.20120195 -0.7066072 -0.23579422
404 1.0852126 0.7617586 0.74379134 1.7381511 0.061697405 -1.1606934 -0.33389884 0.20530045 -1.255761 0.20415443 1.3808335 0.11537924 -0.13359693 -0.17315081 0.09906388 -0.6363588
45 0.60627824 -0.06242594 -0.07929634 -0.06657469 -0.119523734 -0.24811658 -1.1311297 0.27339032 0.6608681 0.7370212 0.36669624 -1.2535491 -1.2107109 -0.74551386 -0.617901 0.049514066
2560 0.38678378 -0.9360899 0.22132376 1.0456679 -0.21110766 0.97172695 -0.9778075 -0.5866257 1.2766662 -0.15486322 0.31917775 -1.7022188 -0.017057866 0.611083 -0.7647017 0.027900072
2436 1.253245 0.8839916 0.19986337 -0.05399231 -0.5411221 -0.7447111 -0.17632318 -0.23460175 0.7302039 -1.2364007 0.8665952 -0.88242495 -2.6199863 0.85518944 -0.1464626 0.14648846
905 -0.26706213 -0.44607323 0.11494699 0.64124125 -0.063605726 -0.6508967 0.054381963 -0.037124477 0.41823754 0.5444823 0.80276364 -0.6008447 -0.34424525 1.9806744 0.27979603 0.28671458
2099 0.12841393 -0.9055291 0.1602681 0.61095756 -0.55435747 -1.1971257 -0.23417975 -0.0031354134 1.0820732 0.6032751 0.45926908 -0.42387754 -1.321899 0.57264435 -0.7562555 0.44181672
168 1.0108855 0.085753076 0.70573986 -0.8931643 0.2569631 0.12347338 -0.8462447 -0.12212763 -0.4149135 -0.6867635 1.5018828 0.20653327 -1.1993637 0.31342933 0.7494616 -0.3242338
2686 0.42975396 -1.1715745 1.4859245 -0.83097094 0.48979422 0.004120722 -0.8427876 -0.1700929 0.12627389 0.5025927 0.5416214 -0.14999853 -0.39943457 0.5797413 0.13642809 -1.5299278
3122 1.0633851 -0.95228344 0.952697 1.3961941 -0.8341704 0.28379604 -0.124417506 0.032640144 1.886033 0.4961282 0.13231903 -1.0475795 0.24828523 0.35592917 -0.38898504 -1.1617836
2093 0.650466 -0.52067035 1.3789274 -0.5571461 -0.484933 -0.14675996 -1.1275222 -0.079406 0.57262933 -1.0467501 0.032798965 -0.5968554 -1.1084535 -0.18175164 -0.7662829 0.27627608
2375 1.0288368 -0.9522801 0.12501243 0.53836095 -0.796106 -0.31133187 -0.86970484 0.1306608 0.21202667 0.53508055 0.90689474 0.82624984 -1.2133945 0.9151841 -0.36424008 0.40720305
112 0.35593358 -0.41399047 0.87868863 1.0560477 -0.13532834 -0.2244441 -0.35914224 0.9671061 0.08155121 0.79008394 0.3883694 -0.036655933 -2.025047 0.055733357 0.27824685 -0.31327805
1535 1.2807956 0.1333369 0.71673226 -0.045472905 -0.8545912 -0.26893583 -0.08355393 -0.60492885 0.4118634 -0.92741513 1.1973386 -0.716637 -2.259097 0.75314116 0.019247646 1.3635875
151 0.46630314 0.7960626 0.40627286 1.2168412 0.006195741 -0.40927958 0.5744182 -0.26358932 0.58031505 0.13062705 1.0047773 -0.30202946 0.34855616 -0.08764911 -0.48537093 -0.35150397
1990 0.094065756 -0.2742678 0.5580606 -0.024356838 -1.3401407 0.60693854 -0.8913887 -0.3682028 0.88069326 0.7798664 1.011278 -0.21795431 0.4528744 0.77035624 0.1983337 -0.54391354
2177 -0.17955104 0.6399972 0.97350675 0.70689315 0.5117632 0.33466882 -0.5346713 -0.25743836 1.1908168 -1.1511898 0.5373434 -1.2638631 -0.07780893 0.18079102 -0.04324416 -0.15973634
423 0.11928763 0.7041938 1.0092511 0.8603178 -0.5672944 -1.5750886 -0.9908105 -0.52855396 -1.0599821 -0.34268543 1.3828505 -0.73131245 -0.36355355 0.19030644 1.4472892 0.16927427
2729 0.35567936 0.03381841 1.5752966 0.37178656 -1.1598232 0.28111932 -1.0728953 -0.14128955 0.797468 -0.042139657 0.107684046 -0.94519114 0.8559965 0.74734765 -1.5729017 0.07894107
232 0.7487302 0.71666366 0.9905018 0.012128431 -0.4325604 -0.022610089 -0.6904278 0.5619281 -0.87586963 0.92437845 0.62578166 0.19411066 -1.4740117 0.84764934 -0.8039742 -0.08905985
2023 0.2534781 -0.60025394 1.4672399 -0.04165541 -0.33647025 0.8498571 -1.3433139 -0.2512785 0.29821703 -1.0367086 -0.39606702 -1.1692214 -1.1777622 0.33708826 -0.5614036 -0.7318022
391 -0.119593404 0.6802646 1.0147394 0.46448737 -1.0744743 -0.15001062 0.27926812 -0.7330948 -0.056264225 -0.29267254 1.0364467 -0.42940745 -0.08490965 0.17485273 0.8734615 0.18145534
1287 1.0946673 0.6120351 1.5186583 -0.15781492 -0.21843569 0.8391607 -0.3437195 -0.95318323 0.12288477 0.26094568 -0.010685997 -1.1926706 0.16956928 -0.13455547 -0.51509094 -0.77378315
308 0.4595896 1.1971483 0.5085088 1.0118792 -0.47296664 -1.1218488 0.3153752 -0.30392691 0.10864544 0.39409098 1.6717393 -0.45158765 -0.010737674 -0.4593369 0.6662197 -0.109218195
820 0.646521 -0.536074 -0.33783418 0.6779783 -0.03475061 -1.08463 -0.8509827 -0.21688586 -1.1162938 -0.71176535 0.8664653 -1.408139 0.098431826 1.754978 0.710209 -0.20718312
599 0.15776122 -0.15761153 -0.4029243 0.9233747 -1.1521031 -0.65711534 -0.57426226 -1.3779296 -0.7597018 0.5586677 1.352171 -0.6569918 0.079729274 1.3068584 0.47543672 0.13448057
2327 1.4373908 0.01140546 0.4708313 -0.7474151 0.28129065 -1.2944603 0.44264713 -0.44055215 0.66764915 -0.42609608 1.2789935 -0.7977692 -1.1275 0.7284818 -0.21174818 0.55255806
77 0.21135265 0.39580008 0.3086406 1.0523021 -0.6175933 -1.4342927 -0.71796757 -0.2870702 -0.097956754 0.39668936 -0.37188408 -0.648872 -0.042428665 0.5174809 0.6408364 -0.86755496
421 0.44743663 0.6819768 -0.15195747 0.4862086 -0.6951812 -1.0239547 -1.0394155 0.65899456 -1.1737617 -0.663296 1.0042889 -1.6762861 -0.1268726 0.67255384 0.6703926 -0.52662754
1883 0.08834811 0.50894296 1.5180547 -0.7302662 -0.19218732 -0.17531179 -1.2606174 0.20597102 1.2879347 0.20570187 1.0124127 -0.7440017 0.4694652 -0.07683355 -0.8107415 -0.21366142
2337 0.57683814 0.36459008 -0.6473201 0.47773862 0.03722934 -0.15108956 0.062354438 0.08656749 0.061260708 0.10358051 1.6577693 -0.31868094 -0.5564324 1.8660415 -0.078126825 0.008979805
345 0.107809156 0.7979565 0.2752001 1.0642087 -0.09797226 -0.762331 -1.3418499 -1.1679474 -1.668075 -0.3116989 1.1760395 -1.44991 -0.5996679 -0.3113702 -0.21046169 0.047693387
252 0.39503336 0.11011351 0.91243845 0.36842862 0.49932575 -0.8450838 -0.4900891 -0.35482875 0.466982 0.21540031 -0.5131417 -0.9577024 -0.5335206 -0.26979575 -1.0680044 -0.7281131
437 0.67223996 0.4094278 -0.4419079 1.2411395 -0.25699282 -0.23020226 -0.3797887 -1.1214657 -1.0786322 0.48926872 0.009943 -1.192113 -0.4965218 0.6633622 0.17789629 -0.9010734
2368 0.49239892 0.035279866 1.7894228 1.3721164 0.19864371 0.826286 0.41541743 -0.16585757 0.70651287 0.12838814 0.12042293 -0.6643695 -0.70256627 0.211623 -0.438879 -0.8185714
1454 0.49355355 -0.8735515 0.41873962 -0.12440452 1.2357527 -0.38284346 -0.52621526 0.051472157 1.0865703 1.0825326 1.3868165 -0.7860613 -0.72241133 -0.17664817 0.34386247 -0.20446514
535 0.55772877 -0.020648474 0.32827327 2.0004997 -0.77341795 -0.9710244 -0.86938196 -0.044241704 -1.2006135 -0.6467544 0.9335474 -0.18816446 -0.14700545 -0.41165754 0.020183159 -0.82273
167 0.44743773 -1.3262186 -0.04814491 0.49566296 -0.6871202 -0.6836971 -0.019314172 -0.3293743 0.079998374 0.22741142 0.97908294 -0.15353374 -1.1769453 0.57074666 1.1498842 -0.3834056
158 0.911055 -0.7572889 1.0468827 -0.53564703 -0.08731248 0.14300272 -1.0355672 0.9724005 0.09245455 -0.56583 -0.16631012 -0.7457742 -1.1309602 0.52035236 0.33845854 -0.142308
2115 1.533949 -0.23811479 0.07817469 -0.24410309 0.8910562 0.60138804 -0.5490605 -0.5205104 0.77531016 0.46160778 1.1502283 -0.5599276 -0.23436116 0.22583593 0.32923007 -0.11125079
425 0.65095 0.18834879 0.7874296 0.6423079 -0.61587703 -0.7458859 0.7414337 -1.2041254 -1.1773838 0.4901274 0.7863667 -1.0826637 -0.4889838 0.9168828 0.8135412 -0.012771029
1383 0.56083655 0.31993237 0.9917662 -0.03869363 0.533901 0.39814317 0.25375313 -0.62097967 0.8494836 -0.2257532 0.75346726 -1.1576672 -0.18887497 0.6948596 -1.6647226 -0.3523235
1801 0.10043633 0.19225438 0.3708665 1.189352 -0.6051707 0.18712562 -1.3074352 -0.41552272 1.7383697 -0.46156085 1.296947 -1.1542721 0.63414663 -0.39404806 -0.7653034 -0.023883015
1509 0.6756895 0.32827833 0.36036342 1.5708045 -0.039912395 0.419236 -0.6916608 -0.25294754 0.4047214 1.061438 -0.4058011 -0.7519037 -0.4198643 0.29014775 -0.65900326 -0.8023304
2296 1.3122748 0.27693146 0.7955742 -0.5092595 -0.34522742 -1.0159087 0.20812318 0.26370218 0.4803922 0.64332956 1.0518783 -0.34094086 -1.4751552 0.120760575 -1.3495421 0.17792824
2092 0.30809018 -0.2398918 1.1108732 -0.41739172 -0.16170603 0.08925563 -1.35609 -0.3133747 0.5615608 -0.7705929 0.065807156 -0.81575775 -1.3670216 -0.4335995 -0.621191 0.32588702
850 1.3881716 -0.90918607 0.30938765 2.1019423 -0.5130866 -0.9601828 -0.36393458 -0.60899514 -1.2542355 0.8215766 1.0100477 -0.08651318 -0.6675329 -0.15748443 1.0868214 -0.5101112
146 1.4291359 0.111841455 0.8838222 0.5917663 0.70686126 0.8406688 -0.6185373 0.65100884 0.77373487 -0.36516595 0.7020277 -0.65958893 0.014040546 -0.308631 0.408291 -0.67268574
1529 1.1245573 -0.4366943 -0.6195431 0.68471605 -0.06458706 -0.3355573 0.10703012 0.17622088 0.118307635 1.2084916 0.8447915 -0.26347387 -0.8334614 0.29818657 -0.35894457 -1.0225259
1712 0.9154726 -0.7056035 -0.0361017 0.09443316 0.052843254 -0.44950068 -0.14278974 -0.83104813 -0.822569 0.62194544 0.84773797 -0.7269898 -0.89074844 1.6261061 1.3065422 -1.221492
396 -0.3484507 0.5237632 0.9388832 1.1811508 -0.6016904 -1.0749215 -1.126718 0.17583054 -0.68083155 -0.35942417 1.2288767 0.39569628 0.04646091 1.2179562 -0.173786 0.38108832
1394 -0.108476974 -0.18426785 0.9429361 0.26398548 0.01758998 0.053385373 -1.6873031 -1.049055 1.3144805 -0.4815227 1.0686709 -0.9049841 0.8249752 0.49767488 -0.41792303 0.7804895
1017 0.99998677 0.8679085 1.1192871 0.07365105 0.38029236 -1.019174 -0.20789081 -0.30164376 -0.7634848 -0.375368 1.0476986 -0.52745086 -0.17806058 -0.06006838 1.3544323 -0.7522337
1125 0.6608155 -0.4384509 0.44399142 0.5723264 -0.9487437 -0.7723003 0.21112828 0.13998821 0.3238983 0.95788455 0.24681549 -0.81272274 -0.70227975 0.6168922 0.4582177 0.8889617
92 -0.1965009 -1.0397279 0.40922254 0.22053109 -0.47067243 -0.12071413 0.33386546 0.38864964 1.0846878 0.082174376 0.4221466 -1.4342829 -0.58051187 0.84488034 0.07297327 -0.677206
1365 1.03047 -0.30172965 0.5260196 1.2777646 -1.026961 0.6743494 0.1381237 0.022394067 1.4644336 0.37698394 0.87148577 -0.90296197 0.25164083 -0.07656778 -1.0521777 -0.49130055
1359 0.6522936 -0.8916432 1.1912605 0.36363658 0.1324979 1.1960489 -1.1195563 -0.17799082 0.64156735 -0.73004276 0.7145245 -1.2255553 -0.26137203 -0.78793085 -0.5979175 -0.9613579
2129 0.7228959 1.022515 0.3449108 0.81934005 -0.33211157 -0.0065809274 -0.4696694 -0.8978335 1.5421151 0.18766609 0.7943964 0.039734818 -0.46417162 -0.005417362 -0.41560912 0.24324276
2249 0.23722494 0.8950487 0.9297424 0.6224975 -0.44108889 0.78699183 -0.69444996 -0.089717895 1.2953168 0.4668368 0.29605573 -2.0285707 -0.7131548 -0.30496988 0.4009998 -0.15986924
819 0.8313586 -0.5065645 -0.35961854 0.65896255 -0.14170748 -1.0851696 -0.7526892 -0.283195 -1.1567477 -0.70303303 0.80313694 -1.3899459 0.10745131 1.6773845 0.7754776 -0.29935202
392 0.28125867 -0.15097448 0.89006877 0.4477998 0.18413037 -1.9161093 -0.6876985 -0.7333483 -1.7260449 0.15493506 1.0366218 -1.309306 -0.1845398 -0.1206223 0.080037616 -0.4740099
2285 0.4682173 -1.1046069 0.3531636 0.88490087 -0.25189766 -0.98890877 -0.27415606 0.010709007 1.4215403 0.53891224 0.2828542 -0.6692193 -0.49878383 0.049728945 -0.5150834 0.58114594
888 0.57799107 0.2145288 0.8093452 0.7992937 0.071384124 -0.18809292 -0.98146737 -0.6969294 -1.3199948 0.28576732 0.85296595 0.3416336 0.027475126 1.7510315 0.21063903 0.25867426
2264 -0.39121655 0.103605874 1.1332475 0.71506333 0.0040545263 1.0991591 -0.94526446 -0.22884619 1.2638092 -0.33809325 0.9252926 -1.7737452 -0.37843361 -0.43580607 -0.50927675 -0.5385704
1109 1.3700433 0.5850742 0.18319832 -0.053903647 -0.3531151 -0.5318227 -0.13867576 -1.0211706 -0.6460532 -0.5923253 0.18302314 -0.14607176 -1.1545634 0.9769167 -0.098749235 0.15053062
141 0.746587 -0.8533232 1.2889321 0.487765 0.39729732 1.0992041 -0.8547032 0.9038656 0.08143436 0.6424469 0.7839557 -0.026872884 -0.680872 0.6966871 0.47128883 -0.7296208
2236 0.52696276 -0.11045203 0.1279715 0.5934499 -0.124438114 0.048853435 0.30586067 0.20436397 -0.23980759 0.869519 0.02820611 -0.6377414 -1.6342211 0.7772659 -0.6048924 -0.9330823
894 0.9632134 0.79006714 0.7168599 0.8948525 0.58934104 -1.3757347 -1.1295809 -0.9467954 -1.3375186 -0.3539472 0.76135755 -1.2610503 -0.23599714 -0.074625455 0.78765213 0.3155441
1643 1.158684 -0.46480545 0.150506 -0.33986467 0.6876569 -0.1372972 -1.4157884 -1.2101068 -0.55186355 1.0299475 0.8659161 -0.17588912 -0.6717399 0.7254596 1.0172532 -0.52183086
317 0.24575129 -0.3972601 -0.052485887 -0.11925935 0.07526256 -1.3410699 -0.84454054 -0.46004748 -0.54116476 0.9659314 1.3147275 -0.14839782 0.32795724 1.4337202 -0.48481682 -0.8211898
2268 -0.06980688 0.33082592 -0.123812 1.2332602 -0.4324343 0.31775746 -0.4442541 -0.22193272 0.03161405 1.1305542 1.5172116 0.21050538 -0.40148363 1.3918779 -0.13802552 -0.66290313
36 -0.075531535 0.11861168 -0.10637822 0.11789268 -0.9880366 -0.19292082 0.22000183 -0.95023066 -0.23730725 0.4108272 0.5519089 -1.0804404 0.24507152 0.6558026 -0.83539927 -0.829767
99 1.0556072 -0.48350224 0.4130105 0.8117529 -0.059800897 0.9978857 -0.38049388 0.584393 0.9625181 -0.7130408 0.9342634 -0.577379 -1.0440342 0.13968585 -0.79506904 0.3608204
102 1.0888346 1.1053631 0.7227097 0.33934844 0.0484509 -2.0973978 -0.63727635 -0.1986163 -1.0716931 -0.061317053 1.1218274 -0.9147193 0.61250216 0.5111786 -0.25759488 -0.23214726
1121 -0.05947489 0.46527898 1.2326937 -0.18144941 0.34403342 -0.8626989 -0.47853774 0.09466147 0.15725464 0.19465952 0.7553421 0.09250134 -1.4371665 1.7234507 0.022207033 0.4934627
408 1.0458895 1.2711569 0.57654214 0.30001625 0.1440876 -1.6215737 -0.66358894 -0.14062503 -1.3235799 -0.29773608 1.0229105 -1.1495593 0.48298815 0.6275142 -0.16918916 -0.4096694
2029 1.537823 -0.70480025 1.0677049 0.60705644 0.71715295 0.10880243 -0.2817414 -0.72694665 1.3143178 0.23828855 -0.36463138 -1.5098983 -0.072291754 0.45271018 -0.16217026 0.114962384
880 0.29962948 1.3227748 0.44589847 0.16841294 0.60952103 -0.14583518 -0.24867989 -0.22386535 -0.15638037 -0.072804175 0.92321974 -0.12352007 -0.50520575 0.25324082 -0.23369314 -1.3624051
329 -0.6998653 -0.11698411 0.1422654 -0.10412026 -0.4634977 -1.1135474 -1.2803688 0.14758018 -0.5055546 0.96922874 1.3521689 -0.5154332 -0.34902343 0.006417557 -0.40732208 -0.6867759
2167 0.4788594 -0.7954697 -0.4504237 0.43206653 0.061263144 -0.52762055 0.04901071 0.5453079 0.17281349 0.014544778 0.84758437 -0.931978 -0.5635426 1.8627356 -0.010395185 0.3132413
667 0.9665996 -0.30716556 -0.11966619 1.6780002 -0.21529353 -1.5329508 -0.70947397 -0.06594531 -1.3781463 -0.12105395 1.2709442 -0.347919 -0.95424026 -0.22861178 0.822302 -1.0854932
732 0.19374499 -0.45918742 0.07424071 -0.09989404 -1.5243957 -0.24705058 -0.8972955 -0.79442036 -1.1906888 0.14103785 1.0433879 -0.5240541 -0.056385733 1.351867 0.5823271 -0.5117164
2472 -0.30539328 -0.24448039 -0.051479362 -0.57180935 0.1077833 -0.058175657 -1.8525316 -0.5826614 0.7099376 0.30818486 1.7502624 -0.62622315 0.26760474 0.53769785 -0.19692554 0.04111157
268 0.7913278 0.31269807 1.0218368 0.593808 -0.2791765 -1.0485795 0.08836607 0.5276924 -0.9831438 0.118041754 0.39390576 -1.3404595 0.9563121 0.562897 -0.19951226 -0.66429967
2271 1.4515629 -0.013651954 0.93319213 0.032308348 -0.15991363 -0.26926592 0.7586624 -0.6618002 0.36977413 -0.31507996 0.95863146 -0.4259406 -1.943849 0.58065647 -0.55415744 0.69957775
20 0.96971333 -0.43297687 -0.35359663 1.4080973 0.3674686 0.29926482 0.28508896 0.4438619 0.06940196 0.019626513 0.73009545 -0.77221626 -0.86697394 0.44942117 0.5655006 0.19939959
3162 1.1689128 -0.6068519 0.0408301 -0.43165225 -0.15243293 -0.17498419 -0.90475637 -0.0766303 -0.18946013 1.1271133 0.70234907 -0.4286179 0.33110952 1.5799766 0.66786456 -0.7392715
548 0.5217716 0.48323026 1.1791831 0.45593402 -0.03916247 -1.5033773 -0.33351693 -0.48206118 -1.6172444 0.29978684 1.5934715 -0.73987377 0.45527026 -0.28335834 -0.32719815 -0.8906749
2395 0.7493739 -0.7462872 0.27506027 0.5882803 0.14420134 -0.6019029 0.69927573 -0.65815115 0.24424782 -0.4096359 0.5590612 -0.65320396 -1.888525 1.301829 -0.42929575 0.2726353
1343 0.724917 -0.8922957 0.43077612 0.86394864 0.73036915 0.12361762 -0.109423846 -0.41160205 1.4452951 0.7212028 0.89400166 -1.2070383 -0.26941323 -0.62447304 -0.014420534 -0.4804601
432 0.9469696 -0.40388167 -0.18770619 0.19836996 -1.0298563 -1.2225267 -0.4430912 -0.15673831 0.57475495 0.44712555 0.30182013 -1.1206973 -1.4727746 0.4841537 -1.0640059 0.92350286
71 1.1498309 0.30544508 0.6041885 -0.11804745 -0.049588185 -1.4496555 -0.7931816 0.016871512 -1.0855436 -0.845728 1.0955086 -0.9343852 0.09308452 -0.23419121 0.46116263 0.12957445
314 0.5525805 0.76193404 1.4803909 1.3807366 -0.6647369 -1.2164885 0.034800705 0.37707943 -0.8631213 -0.70361453 0.76340914 -0.58543634 0.6449898 1.0354983 0.7122992 -0.76418525
377 -0.18101317 0.6612536 0.51665854 1.3409847 -0.18078826 -0.8571153 -0.8489902 -0.45142895 -0.57890123 -0.59984344 0.38689664 -0.9853019 0.61904854 0.57815844 -0.93512625 0.1669821
2769 0.30015844 0.43174684 1.1779454 0.9644367 -0.11516396 0.38661134 -1.6331894 -0.6556052 1.8448524 0.6995328 0.5008571 -0.8308504 0.6675615 -0.115299225 0.076146685 -0.8164984
2728 0.20866375 0.38995844 1.9958683 -0.7114964 -0.23372166 0.092989735 -0.8985305 0.065329656 1.2107528 0.251357 0.59136575 -1.009793 0.3514492 0.08251553 -1.021097 -0.47346422
2068 0.58925444 -1.312578 0.308771 -0.3441019 -0.08609402 -0.60765356 -0.6454142 -0.9848142 0.5218547 -0.294555 0.3017979 0.21927713 -0.75355315 1.1427634 -0.72149205 -1.1643435
723 1.0223551 -0.029869804 0.6459855 0.33100533 -0.22895451 -0.46592784 -0.1665263 -0.29688868 -0.029510545 -0.9897813 0.20952554 -1.0581005 0.4046678 -0.34303376 0.2697391 0.52578545
1574 1.2877039 -0.061738506 0.8487989 -0.88624567 0.12761648 -0.27162263 -0.6301663 0.12786536 -0.4509034 -1.0730828 1.5519266 -0.078856066 -1.2896354 0.2485331 0.59951514 0.14246963
1533 0.74502116 -0.9823816 -0.049335185 0.96909374 -0.614145 -0.56672263 -0.13064647 0.41217133 -0.45422125 0.99790305 0.39988646 -0.6125262 -1.6614769 0.28035042 0.59967947 -0.2242504
1456 0.76761615 0.0017456132 0.41301483 0.0016410371 0.5019664 -0.34514138 -0.43368232 -0.14168538 0.86237466 -0.71761674 -0.4798164 -1.6920365 -0.94744456 0.27874285 -0.71388847 -1.2303953
110 0.70000345 0.29800993 0.58510774 -0.35682034 -0.7427418 -0.2866611 -1.1746162 0.70935965 1.0548365 0.6657136 -0.3484724 -0.692757 -0.05423664 1.2018065 -0.41192183 -0.86837345
756 -0.1404212 0.8272686 0.6843864 0.8625314 -0.23126538 1.113182 -1.2292144 -0.47114247 1.5318426 -0.11183264 1.0566487 -1.7132432 0.18900576 0.0042262226 -0.089241624 -0.4142849
2146 1.3084179 -0.44242126 0.6705773 0.15275331 -0.22923994 -1.3500623 -0.22035392 1.0128245 0.5711201 -1.008567 1.3615382 0.11534233 -1.4796822 0.55613995 -0.91633487 0.22452337
263 0.91269666 1.2214558 0.72326493 1.6702446 -0.22956333 -0.7003233 -0.08594421 0.11834392 -1.2977706 -0.8330066 0.77865523 -1.3037457 -0.33234304 0.4789146 0.61535573 -0.15174523
512 0.4356912 -0.7367171 1.089014 0.6944309 0.24128498 -1.4304843 -0.14593227 -0.3369695 -0.69546926 -0.6962058 0.9380331 -0.6473103 0.10969171 0.95805275 0.70539105 0.7456027
584 0.54329544 1.3822005 0.26122954 1.5709801 -0.56742674 -1.6312888 -0.7601548 -0.9245064 -0.6065655 -0.5445429 1.3502054 -0.3896476 -0.36028957 0.33850634 0.53869134 0.29641885
378 0.21125224 0.04390367 1.3105788 0.9105293 -0.91753286 -1.1730033 -1.4221683 -0.59817135 -1.4787185 -0.47083518 0.57179236 -1.2274767 0.14277154 0.26417968 1.1540085 0.36336982
1341 0.1076937 -0.69549996 0.84716034 -0.6443293 -0.97114414 -0.14902762 -1.1791368 -0.3339581 0.935976 0.9212603 0.5805497 -0.09569664 0.17753972 0.8732993 -0.78092587 -0.66018873
55 1.1161678 -0.06491701 1.7166231 0.7548999 -0.56307626 1.038481 -0.22876114 -1.1189138 1.2447333 -0.4481281 0.5256553 -0.35759398 0.3118078 0.050537076 0.027005307 -1.4020306
2970 1.2383544 -0.7765238 1.3836343 0.16053978 -0.9143485 1.2982603 -1.1003543 -0.47494754 2.0550091 0.6450524 0.6410166 -1.0460258 -0.2844268 0.064987876 -0.703756 -0.39313972
1368 1.7760408 -0.065309145 0.733766 0.51918703 -0.27301642 0.4003509 -0.9944967 -0.0051486758 0.45329115 0.07591293 -0.6259905 -1.3965366 0.31997687 0.3682998 -1.2435141 -0.41267356
1459 1.527726 -0.27115348 0.7230436 0.19570553 0.4684259 -1.0335046 0.27849287 -0.30624777 0.46820205 -0.53868866 0.4305304 -0.75400066 -1.8257178 0.5642955 -0.49298954 0.75387794
2511 0.60138315 -0.26181337 0.21849614 0.1749665 -0.678895 -0.846711 -0.28411862 0.7024693 -0.6218638 -0.81101966 0.7709228 -1.4676175 -1.7371699 0.14077635 -0.4377606 0.61701185
623 0.411382 0.41599515 -0.7139459 0.11639117 -0.8670333 -0.019822508 -0.65672 -0.3740023 -0.5736708 0.44127762 1.5548835 -0.11193819 -1.0841416 0.9997331 0.1547788 -0.21688956
1376 -0.14097488 0.86633325 0.51790875 1.2532247 -0.76167095 -0.36154202 -0.68254644 0.24027379 1.6396224 -0.39159736 0.9664951 -0.45236337 -0.048653178 0.005133451 -0.5407694 0.3843945
1933 -0.08674571 -0.4830272 0.7851982 0.9692873 -0.96442187 -0.49576384 -1.3935602 -0.76435876 1.7596987 0.08236768 0.9270364 -1.1497828 0.6097328 -0.66942984 -0.4445909 0.16622198
2432 0.8401535 -0.96413416 0.99854827 0.8521644 0.66081333 0.46260306 -0.1565932 -0.41408077 0.39852327 0.5200639 0.47683322 -1.1135285 -0.36194274 0.3221981 -1.8500359 0.20256828
400 0.43335223 0.0074920477 0.72089887 0.30266166 -0.0011834371 0.42732933 0.05155949 -0.107244544 -0.84890336 0.10345935 0.8108417 -1.2254411 0.32026535 -0.7268813 -0.27227613 -0.9525922
1198 1.6503404 0.29629362 0.5192263 -0.68465394 -0.7608372 -1.7754836 -1.2242767 -0.22604923 0.7704064 -0.7604998 0.5279039 -0.3641213 -1.9341586 1.3792229 -0.5700444 0.8066152
1717 -0.16321993 -1.0852141 0.04075047 0.42848733 -0.97067356 0.02962481 0.011652978 -0.83378756 -0.27687424 0.51452565 1.2639958 -0.5905662 -0.66075397 1.5115894 0.8649453 -1.1368501
2095 0.6554251 -0.6716462 0.25965557 0.6476859 -0.5215502 0.4368829 -0.82082796 -1.496367 1.0390142 -0.5630311 0.514929 -0.67789966 0.381343 0.05307714 -0.8517289 -1.482427
2434 0.16870588 -0.6970427 0.8724791 1.0977098 -0.4942786 -0.6844348 -0.5026805 0.23002477 1.1839981 0.90401447 -0.235301 -1.0669111 -0.51803416 -0.34885103 -0.018862851 0.13848054
1723 -0.09890276 0.26365808 0.18228818 -0.794589 0.6518391 0.1084427 -1.2141594 -0.58112735 -0.4068693 -0.20872733 1.3230946 -0.75711215 -0.72490007 0.286905 0.3312536 -0.9737476
2407 0.3668997 0.98156023 0.21711881 0.6564551 -0.6161868 -0.25411463 -0.93880856 -0.6973984 1.5723164 0.21267654 0.1324101 -1.7494638 -0.1891721 -0.396782 0.15516442 0.064427026
479 1.2134218 1.2060765 0.6267731 1.2532775 0.41010374 -1.2124913 -1.0359743 -0.15351844 -1.4383262 -0.53789073 1.0559503 -0.9857231 0.33913565 0.45331424 0.16425307 0.35987598
1892 1.1305563 0.16929844 0.22987902 -0.8318742 0.25156125 0.113535225 -1.556893 0.61543065 0.024522202 0.64614165 1.46812 -0.019188968 -0.12633306 0.86536294 0.023482345 -1.2728777
18452 -0.060738474 -0.6668755 2.1545618 0.21994624 -0.42495316 -0.5511879 -0.3929144 -1.0550054 -0.24973384 0.8535485 -0.18690783 -0.15736854 -2.5633967 0.52136654 -0.4834417 0.29956126
1461 0.5751077 -0.14994536 0.45761907 0.2815232 -0.4342546 0.09249055 -1.5674158 -0.28154615 1.2571628 -0.55334866 1.357202 -1.549148 1.0095105 -0.87518394 -1.1370066 -0.5625001
1570 1.2190914 0.2707734 0.7815866 -0.7194607 0.23493177 0.33213952 -0.6323268 -0.06137747 -0.0016367703 -0.9189345 1.6056874 0.42263672 -1.084004 0.61026335 0.17817208 0.13052154
2739 0.81250167 0.0438799 1.2219012 0.7479496 0.34999046 0.5606283 -0.5151423 -0.19524068 0.08476481 -1.1967291 -0.3239569 -1.0259427 0.32249945 0.5129018 -0.6437468 -0.8060681
1997 -0.23632759 0.42859784 0.9575983 0.3801587 -0.9029581 -0.4811133 -1.7476012 -0.10809992 1.7614125 0.4238544 0.65605956 -1.3059494 0.592118 -0.07331854 -0.28627813 0.20748876
1076 0.30097544 0.67665166 0.46040523 0.47464472 -0.6284542 -0.51609737 -0.83320075 0.019331932 0.6750092 1.768029 0.6762515 0.110725515 -0.338066 0.76388234 -0.04113765 0.27542347
2189 -0.29547068 -0.18607494 -0.009127725 0.19964527 -0.20493849 0.15428106 -0.55227643 -0.91558015 0.01823147 -0.48387155 2.0363598 0.08006026 -1.2381103 0.21499553 -0.5025111 0.31013456
1326 0.5874009 -0.35627663 0.54311407 -0.7180214 -0.08233821 0.6503836 -1.647463 -0.6984694 0.48525164 1.0408863 0.91995525 -0.5404509 -0.23199938 0.7283186 0.9450457 -0.01410626
740 0.21513113 -1.1055338 0.5801654 0.8572093 0.39984483 -1.0034176 -0.95711756 -1.1386172 -1.2264955 0.6222644 0.99577874 -0.4552421 -0.08078471 1.2364693 0.4279095 0.49836898
2905 -1.0589397 -1.1750478 0.5843368 0.6165622 0.57104516 -0.35240662 -1.3212019 -0.5094536 0.19905671 0.19150293 1.7312709 -0.041066576 -0.7720424 1.1502986 0.43907288 -0.43006536
2064 0.76766944 -1.0679284 0.5482826 0.3057842 -0.0006041565 0.7300237 -0.7472915 -1.015007 0.883883 -0.5926631 0.5283191 -0.2984869 0.447659 1.028854 -0.43537247 -0.6059508
458 2.149548 -0.6054632 0.45287293 0.23548356 -0.26376534 -1.2079346 -0.07958155 0.25472412 -0.41619268 0.22730011 0.12851706 -0.85939044 -1.3947865 0.9578808 0.06587296 0.943159
1908 0.7298545 -0.57218736 0.98981404 0.25397572 0.184632 -0.34443694 -0.4941698 0.22590815 0.62286085 -0.33346996 0.19351858 -0.90638435 -0.15534024 -0.113065585 -2.0021284 -1.3403225
568 0.13110076 1.1858007 0.4116672 0.5814399 -0.94015294 -0.5877405 -0.84556824 -0.7049153 -0.9360487 -0.0180155 1.0368849 0.28399885 -0.28058085 0.80689496 0.5241038 -1.0855016
2118 1.67561 -1.4681206 -0.05030903 0.7865699 -0.75980234 -0.58028316 -0.8202907 0.21312678 0.022004258 -0.3600931 0.68483824 0.6707563 -1.0095838 0.16828088 -0.0063397945 -0.029812725
2935 0.05460963 -0.47630963 0.900465 -0.29474267 -0.20197077 -0.29747528 -1.4487932 -0.28084588 0.72332346 0.5126294 -0.3959638 -0.9604188 0.2806496 0.6731719 0.26039135 -0.85095733
1419 0.39343745 -0.17384273 1.5012294 0.48597205 -1.1099242 0.1637601 -1.1285592 0.68281084 0.5465641 0.59766185 -0.46303868 -0.913015 -0.22094733 0.50508237 -1.2321558 0.034850452
858 -0.2767708 -0.11496079 0.23691937 -0.43572745 -0.9195294 -0.15805411 -0.038562648 0.41170275 -0.70002407 -0.5041831 1.4241734 -1.0535098 -0.11815432 0.5159434 0.1193753 -0.6915223
2885 0.3453072 0.0780003 0.9192503 0.27962032 -1.0499158 -1.2699891 -0.61078024 0.6450981 0.18064915 -1.3992134 1.2204965 -0.06217574 -1.4482977 0.7439984 -0.10291494 0.72251743
1836 0.8504935 -0.31502694 0.35385373 1.1670315 -0.15309693 1.2109333 -0.30001473 0.5243623 1.097459 -0.451712 1.0082282 -0.9629626 -0.74699545 0.18148857 -0.913082 0.4213565
3132 -0.3889332 -0.5759849 0.7898047 0.00801193 -0.9647119 0.09732414 -0.29293662 -0.5759128 1.3419349 0.12486337 1.1023353 -1.2823168 0.5506548 -0.048252832 -0.5393745 -0.6923186
2317 0.5020461 0.74943566 0.35679114 0.08206591 0.17272562 0.99594384 -1.0145353 -1.015351 0.32004735 0.31363037 0.7805743 0.091352254 -1.130769 0.47876826 0.09778458 -0.64216375
2902 -0.45688137 -1.7121543 0.2139943 0.23591384 0.16489393 -0.11070575 -0.8765739 -0.55012995 -0.36260974 -0.21395156 1.5152164 -0.3910901 -0.65800536 0.7909086 0.03508717 0.08377249
2078 1.0107858 -0.88456744 0.6734174 0.7308066 -0.8241399 0.9094493 0.16917427 -0.73085725 0.60826945 -0.48180744 0.19345142 -0.8612354 -0.87982506 -0.19087148 -0.110555656 -0.3446141
643 0.50626504 0.3887316 1.602104 1.006756 -0.49981585 -1.5282283 -0.14193721 -1.2537547 -0.7211888 -0.11870412 1.1624141 -0.0034509283 0.49470276 0.06682388 0.62993187 -0.42107198
147 0.92273325 -0.086651064 -0.8832271 0.26857406 0.1452552 -0.6133229 -0.1621575 0.35055223 -0.060864184 -0.020902298 1.9463624 -0.39904284 0.0037568389 0.96012414 0.24088229 -0.2512656
1806 1.0632392 0.37320435 0.6248601 0.27450117 1.6181217 0.47888878 -0.2757354 0.15450193 0.77532876 0.7470967 1.0060244 -1.0803949 -0.35836187 0.29415682 0.17902553 -0.5278466
1650 1.0839771 -1.1180471 0.20115973 2.654629 -0.33151978 -0.79743063 -1.1060026 0.1234833 -0.9176704 -0.90301496 1.2748265 -0.052031495 -1.1184244 -0.5980368 0.5906873 -0.81330717
884 -0.43238002 0.21827957 0.501147 0.6648143 -0.76702994 -0.8351791 -0.80895513 0.41658235 0.33870915 1.3069553 0.6602411 0.017594999 -1.0094708 0.51001155 -0.42805693 0.16092333
2526 0.6909815 0.16643521 1.246325 -0.2120079 -0.43499872 1.3772894 -0.66998655 -1.332469 0.7237796 -0.047248937 0.025805984 -1.8285096 -0.5531263 0.44895217 0.15968461 -0.42558518
2932 -0.27772647 -1.0634761 0.5802693 1.1345966 -0.88633597 0.43727693 -0.4288443 -0.75641465 0.2915175 -0.2375614 -0.013565022 -0.98714626 0.19925356 1.249164 -0.10963795 0.0371774
1447 2.0149019 -0.54473066 0.7572391 -0.6920511 -0.9846201 -0.7893218 -0.21008962 -0.44606704 -0.11194774 -0.1262862 1.359595 -0.21799177 -1.6433847 -0.06046755 -0.77499753 0.75409067
2164 0.15888175 0.34479484 0.93023455 0.55148274 -0.08633498 1.5408641 -1.1683042 -0.41455856 1.448643 0.090664566 0.76285136 -1.6344969 -0.5731924 -0.06705165 -0.2483926 -0.7925631
541 0.528014 1.2086183 0.09201214 0.37855533 -0.30318522 -0.77918816 -1.3936532 0.25270262 -0.42121565 -0.28963017 -0.19369651 -0.5254249 -0.7704436 0.09740574 0.049692813 -0.58099014
2441 0.7225959 -0.2885375 0.9308444 0.23899432 -0.08256092 -0.88198066 0.11777815 -0.9240401 0.119086675 -0.5504118 0.3330353 -0.36371544 -2.581316 0.80175775 -0.73312396 0.20655857
2507 0.7431878 -0.56833184 0.7898152 -0.37236416 -1.1754022 -0.22160813 0.20901972 0.24480599 0.18266907 -0.851332 0.8643306 -0.9551792 -0.9070438 -0.65958977 -0.987226 -0.2502349
469 0.2950514 -1.2017974 0.07150995 0.6201002 -0.3827455 -1.3583142 -0.699459 0.21567523 -0.5898402 0.71598095 1.0662842 0.061028756 0.3172572 1.1918843 -0.15652317 -0.9932886
2004 1.675537 -0.44902694 1.457101 1.1792578 0.27253664 0.75873464 -1.011341 -0.7472941 1.045868 0.079812616 -0.48135632 -1.0905573 -0.31806237 -0.07324326 0.119166546 0.32276195
2273 0.7043543 0.028358264 0.39751804 0.26831695 -0.25690597 0.21271169 -0.063562974 -0.8429875 0.21898107 -0.58432883 1.8679864 -0.074184336 -1.4841934 0.42755815 -0.6765557 1.0966042
2226 0.87676615 -0.16414675 -0.08737622 0.46362066 -1.0212601 -1.0956724 -0.34765208 -0.13332823 0.77322495 0.6768194 0.39561042 -0.93801004 -1.3745332 0.33416143 -1.1428825 1.0113958
1586 1.2984532 -0.32449216 0.56927335 0.41233304 -0.87378055 -1.1581441 -1.2165221 0.28024396 -0.34942445 -1.4797952 0.86314815 -0.12965062 -2.3605182 0.40078282 -1.1492507 0.62541497
2109 -0.27132896 -0.12972791 0.5724781 1.0046866 -0.5150113 -0.9155281 -1.6194378 0.12021998 1.5315598 0.12986343 0.6600333 -1.3921229 0.319914 -0.6454524 -0.4665724 0.31888947
645 0.23941605 0.18108745 0.46192998 1.250503 -0.28816512 -1.1183171 0.14505705 0.3223473 -1.1663681 0.3520172 2.207797 -0.99228024 0.22181743 0.6010893 0.72352594 -0.065495096
1973 0.10762375 -0.1448467 0.2002059 0.48020962 -0.6053373 0.9788085 -1.4399678 -1.0509683 0.3645634 0.3725751 0.36640292 -0.28479064 -0.8268669 -0.0011446697 0.17260067 -1.1012415
1900 0.23817034 0.7266352 0.81397164 -0.20784523 0.95542 0.04781629 -0.88471687 0.4251818 0.4372277 0.40366176 1.2741956 -0.38344717 -0.310869 1.7206485 1.0056268 -0.6373441
244 0.8781807 0.14351931 0.4398242 0.22260651 0.60537916 0.68178123 0.0017795111 -0.65725136 0.38418183 0.71673346 0.44721657 -0.3392275 -1.5332196 0.3673793 -0.09966718 -1.291739
1393 0.7400097 -0.27154046 1.0243336 -0.43256155 1.3395832 -0.10567886 -1.8553953 -0.76855916 -0.14836901 0.5180391 0.9686208 -0.069003925 -1.2206899 0.30057463 0.87719244 -0.7314186
75 -0.38630912 0.553284 0.776878 1.5650663 -1.1341114 -1.6577797 0.06314898 -0.7363088 -1.0170019 0.114982486 0.81693995 -1.0963498 -0.20268822 0.5568111 -0.45797014 -0.4358315
1218 1.0049376 0.5587403 -0.35304728 0.51638347 0.4921215 -0.98764 -1.1523107 -0.36722752 -0.328715 -0.76248527 0.2779972 0.11055663 -1.2751622 1.7321975 -0.20205389 -0.23625213
2512 2.0626047 -0.18878204 0.57391244 -0.6141821 -1.5676157 -0.61021423 -0.10696474 0.058153134 -0.0958047 -0.4998941 1.1532559 -0.55712014 -1.943524 -0.3375351 -0.23784725 0.12776707
473 0.16997485 0.15574418 -0.04726944 0.07835969 -1.105887 -0.3179824 -0.9269288 -0.39867055 -0.60550326 0.40262288 1.3603506 -0.120115735 0.40369058 0.7080581 0.6719158 -1.2794123
2166 0.46651486 0.08985204 1.9091532 0.39879486 -1.2134111 0.4429883 -0.90649706 -0.37519258 0.7641183 -0.12726252 0.08178563 -0.78188545 0.6710253 0.7871472 -1.7437645 -0.1691099
2558 0.4873801 -1.5468106 -0.24862163 0.4175294 -0.45764264 -0.32987013 -0.06407968 -0.54573256 -0.20969045 0.34817925 1.519132 -0.3296629 -0.12554926 1.3707542 0.7171436 -1.1490781
883 0.07080811 -0.63408124 0.10673632 1.0834041 -0.13409492 -0.9437659 -1.0451057 0.4379289 -0.7702877 0.5115513 0.40953955 -1.2261785 -0.11066923 1.525208 0.8864355 0.35465947
1000 0.115956314 0.15469873 0.9619896 0.489195 -0.13420145 0.06652774 -0.42742032 -0.0010970812 0.30846328 -0.15621266 1.3815331 -1.0241675 1.4505488 -0.11411242 -0.22657377 0.2303569
730 0.56980014 -0.9293484 0.33756462 1.4169097 0.64007103 -0.7363976 -0.47758016 -0.72354674 -0.9285313 -0.15051232 1.3491309 -0.2683008 -0.49900028 2.497595 0.83940846 -0.04165701
990 -0.110373296 -1.3526032 0.22523278 0.4272868 0.09287745 -1.1479098 -0.7532447 -0.5925264 -1.0437304 0.913562 1.0797919 -0.33694082 -0.12269607 1.0032392 -0.2761271 -1.1168454
1782 0.4920736 -0.19405295 -0.0425926 0.060589664 -0.7014083 -0.5230503 -1.1942899 0.41220146 0.043110795 1.5287207 0.5909371 -0.126604 -0.8695385 1.128947 0.9128005 -0.77697194
1 1.3012811 -1.0475708 -0.06716639 2.0817103 -0.025554575 -0.8947832 -0.6662405 -0.42451143 -1.5017523 -0.5211875 0.91750634 -0.26155654 -1.340158 0.08075396 0.6721786 -1.2371233
2293 1.2161885 0.89149255 0.19617532 0.0095473975 -0.41182703 -0.69625515 -0.038175043 -0.3712505 0.66690385 -1.0320528 0.771935 -0.87456006 -2.5117087 0.81650734 -0.15419823 0.15190311
2790 1.3083857 -0.61013585 0.57204074 -0.75861984 -0.10707372 -1.8746011 -0.7288179 0.14488235 -0.35004133 -1.1819206 0.6863704 -1.1069468 -2.4748552 1.1199684 -0.7805836 -0.06632617
2151 -0.110870466 -0.6334383 0.9413712 0.2899364 -0.63581294 0.14355151 -1.5651087 -0.7270886 0.40974092 1.1015364 0.5109486 0.37755162 -0.13077198 1.2050403 -0.44958377 0.14287664
1673 0.6705171 0.37285233 1.2402387 -0.007660981 -0.31488055 -0.2864587 -0.09556097 0.5682476 -0.6613197 0.7078229 0.7841444 0.13899837 -1.9307115 0.77169883 -0.5838118 -0.020202072
2367 0.38881072 0.13498847 1.0228399 1.2415398 0.19725926 0.32279277 0.5144209 0.14089808 0.5092866 0.25198323 0.34082976 -1.2315911 -0.9770222 -0.2725993 -1.2179987 -0.6897768
2122 0.9645682 -0.074064635 1.1751376 0.644067 -0.9986133 1.133762 -1.0962483 0.101479165 0.009015271 -0.15211962 -0.4852898 -1.4481931 -0.15481564 -0.13394213 -0.08843371 -0.6276898
1958 1.62494 0.23332211 0.83231395 0.50190634 -0.7041389 0.43813846 -1.5640987 -0.62091804 1.0430818 -0.06241556 -0.38966352 -0.97160465 0.5128455 -0.22192645 0.009969642 -0.2701918
411 0.26435125 -0.34844786 1.319178 0.33365065 -0.64946383 -0.35141113 -0.1702707 -0.36653516 0.26116607 0.076006904 -0.11660023 -1.0470625 0.09676991 -0.746285 -0.45813835 -1.416288
1956 1.1989093 -0.17025225 0.87877303 0.07424376 -1.448665 1.2565159 -0.7450539 -1.1894295 0.65417033 -0.0074325125 -0.06108316 -1.2736346 -0.59450173 0.040028468 -0.49672827 -0.37116235
1168 0.9595856 -0.32063034 0.77444786 -0.5360527 -0.051758982 -1.0238402 -1.073684 0.9406658 0.42649326 0.14966154 0.4023624 -0.7686061 -1.7469441 0.22437036 0.7771343 0.45379075
996 0.8068639 -0.8147187 0.9573832 1.9784964 -0.46866256 -1.6848501 -0.6238406 0.087615326 -1.2972243 0.024939101 0.78494066 -0.10773438 -0.29241267 -0.44024092 0.33556625 -0.56881034
851 0.2726892 0.5258805 1.2208216 0.033909354 0.73229104 -1.1338015 -0.9544654 0.61032563 -0.093490526 0.80491453 0.47304985 -0.56862235 -0.5402821 0.11963797 1.17788 -0.31450307
1183 0.5255576 -1.0611509 0.3050049 0.55071944 -0.76292616 -0.47757378 0.33165574 -0.5641335 -0.09656789 -0.5003661 1.6454054 0.20150805 -1.5970436 0.2816392 -0.74648696 0.13131563
305 0.39575318 0.84532243 0.84058714 1.2656202 -0.5137646 -1.2663903 -1.0651673 -0.92930615 -0.96407235 0.576489 1.1866068 -0.49314573 0.9147592 -0.008365132 0.66602707 -1.0143701
692 0.31106076 0.438584 0.90116715 1.223783 -1.2895364 0.73843944 -0.38770133 -0.50337785 0.09195738 -0.17236753 0.76006085 -0.83248943 1.0848525 0.22598982 -0.21469991 0.3351308
429 0.3675453 -0.96013236 0.16884829 0.23318349 -0.11512194 -1.2164414 -0.7194742 -1.2725997 -1.5177544 0.8119857 0.7466509 -0.8876797 -0.40272295 0.6034835 0.1658192 -0.45888966
2648 0.8247669 -0.14080599 -0.6389498 0.70675015 0.07781567 -0.9954214 -0.9012459 -0.10257746 -1.2049227 -0.35505173 0.9361517 -1.2592005 -0.1891399 1.5646774 0.8813772 -0.4593626
1777 1.347121 -0.8117274 0.9227716 -0.41630304 0.6572122 0.30535883 -0.6116991 -1.0067936 0.52558285 -0.049448404 0.5149433 0.0022779012 0.17750463 1.2204102 -0.63985795 -0.57665247
395 -0.36983314 0.46091428 0.6814955 0.67360574 -1.0144712 -1.1763133 -0.6607671 0.7515081 0.025169153 -0.88810706 1.1367499 -0.09396902 -0.3704602 0.5794973 0.00997191 0.47855186
2503 1.1699718 -0.45161876 0.7894285 -0.06742953 -0.6557173 -0.42559302 -0.23436217 0.7576994 0.1781769 -1.0688095 1.8010836 -0.60552055 -1.4063678 0.5948142 -0.022329064 1.2235774
240 -0.31721053 -0.05435935 0.052182045 -0.20800224 0.45761126 0.27297544 -1.2036505 -0.5117989 -0.16486332 1.1018215 1.5321592 -0.38166976 -1.3094035 0.928421 -0.087280504 -1.249791
520 0.19564183 0.33396676 1.6108291 0.70581174 0.5511123 -1.472353 -0.26274076 -0.0871298 -1.0548666 -0.23615164 0.82467115 -1.2598841 0.095234275 0.40924653 1.0568469 -0.42915982
23 1.1207601 0.0061408477 1.0026413 -0.024854362 1.0024759 -0.23702164 -1.5050637 0.42780557 -0.23240586 0.31792837 1.0956678 0.40205196 0.022623224 1.6610947 0.8175568 -0.27705726
2125 1.0610517 -0.6669131 1.2357097 0.5285934 0.15362245 1.1344006 -0.20976928 0.07028231 0.9550365 -0.6202617 0.3237864 -1.2869265 0.35712734 1.1674949 -0.26328337 -0.17384328
1923 -0.2037972 0.48781955 1.0551084 1.1526183 -0.7710037 0.8041377 -1.2987999 0.11902201 1.4922001 0.24068189 0.6001083 -1.5920914 -0.6534061 -0.59951484 -0.8791223 -0.051132463
1555 0.383718 -0.034424882 -0.5258868 1.3471941 1.1183393 -0.88441986 -0.43762806 -0.7283488 -0.36136097 -0.5083191 1.1633071 -0.89095443 -0.56794083 1.3926048 0.22836277 0.13643157
608 1.26037 -0.60924333 0.18873964 -0.252168 -1.0705186 -1.181084 0.25326324 -0.35334963 -0.7953638 0.28241014 0.8373996 -0.6270891 -0.6378339 1.435731 0.31135377 0.30137172
2931 -0.69159794 -0.18552302 1.8293422 0.41272736 -0.65554225 0.3404727 -0.5278294 -0.49900067 1.1262745 -0.6847742 0.26484948 -0.31992054 -0.41628885 0.73501956 -0.5509139 -0.7049973
1831 0.76394695 -0.91071415 1.0185859 0.9423414 0.57583827 0.26573205 -0.28739864 -0.45083192 0.39917305 0.42745388 0.41487452 -1.0193683 -0.5360248 0.09332398 -2.0618854 0.25799507
2764 0.65336955 0.32494152 0.21803108 1.3915703 -0.051426936 0.34725064 -0.96511906 -0.143479 0.17153071 1.3063134 -0.46649083 -0.92759466 -0.4748505 0.19034104 -0.4878932 -0.8953615
375 0.72243 0.28036729 0.10327897 0.62906605 0.77445364 -1.2132986 0.5558949 -1.29511 0.08382355 0.23698577 0.87769324 -0.53951037 0.061118506 0.57471955 -0.41539484 -0.21865842
1510 -0.0013846013 -0.05245944 1.0301102 0.42838416 -0.745644 1.1568946 0.23396902 -0.6403208 0.7098209 0.9016789 0.9863892 -0.4333044 -0.6631142 0.5584029 -0.33919626 -0.4198695
2135 0.87083083 0.14227946 -0.45080364 0.59161156 0.26044393 0.06363323 -0.7594502 -0.2576346 1.7435148 -0.1172301 0.44410384 -0.6343493 -0.6011595 0.72050655 -0.73209894 -0.7161916
354 0.63116753 0.7836742 0.41569978 1.2679194 -0.44310376 -0.8044376 -1.7765877 -0.4682555 -1.4863882 -0.73971814 0.56733817 -1.169153 -0.07231219 0.23977591 0.8674293 0.06994807
747 -0.07981652 -0.6834308 0.3080783 0.047354706 -0.19695412 -1.6184626 0.29129267 0.42110842 0.5500575 -0.25958323 0.66287374 -0.9260105 -0.87515956 1.2048373 -0.41946262 0.00996903
176 0.4047251 0.27546936 0.8103419 -0.17187975 0.407778 0.18404117 -2.4148288 -1.2740405 0.010530511 0.42512238 1.1743492 0.4342783 -1.170727 0.76107013 0.8738852 -0.383549
481 0.6830798 0.1910225 -1.0356658 1.1298617 -0.1660376 -0.6147789 -0.5030621 -0.28739128 -1.01766 -0.15756412 1.61505 -1.1132059 -0.17709258 1.4890478 0.43905476 -0.20200707
2318 2.0216022 -0.37156853 1.2944701 0.46912354 -0.51928794 0.30941886 0.16908401 -0.14311089 0.5616847 -0.06636724 0.070108734 -0.5542181 0.38197166 0.32536837 -1.4153638 -0.86512405
1358 0.8633238 0.7957361 0.66215026 0.48570323 -0.8413516 0.9212128 -1.5507723 -0.01417166 0.80401886 -0.57963985 0.66754067 -0.0469362 -0.3998293 -0.63718694 -0.05257576 -0.24332392
1123 -0.13023336 0.13989364 0.13908999 0.5142313 0.23854354 -0.8517536 -0.6185717 -1.7351774 0.21942864 0.83772403 1.468011 0.18662278 -1.0100567 -0.26091638 -0.4954127 -0.37215856
2800 1.1396616 0.07806377 -0.039447583 0.3613172 -0.37405193 1.0326622 -0.9278825 -0.102372184 1.1909088 0.32552066 -0.044668943 -1.4376074 -0.4373502 0.9593705 -0.29355478 -1.333002
1512 1.5929937 0.38839087 -0.45001414 -0.30441627 0.14179187 -1.0584465 -0.68062055 0.16975148 0.5941829 -0.49856567 1.2958152 0.3057892 -0.35640436 0.16251807 -0.14531198 -0.46178907
2382 0.9915344 -0.35106215 0.72012866 -0.10475546 0.93236387 -0.14912798 0.33925232 -0.10216811 0.61210793 -0.31505662 1.0557559 -0.8329116 -0.42689148 0.5187996 -1.6403713 0.05110824
1147 -0.55870414 -0.07839195 0.28849426 0.32057405 0.9976907 -0.46785253 -0.86466235 -0.33140248 -0.7858833 -0.2764837 1.6347619 -0.9601883 -0.56678826 0.34520674 0.8364236 -0.728939
94 0.55409217 0.87180734 0.32234752 1.57582 -0.9843788 -1.4848347 0.4732825 -0.67642945 -0.70048136 0.009040217 1.3963997 -0.83670884 0.2946401 0.04408113 -0.1825838 -0.72588533
744 0.9151139 0.4195487 0.73044634 0.31688473 -0.5066123 -1.3546838 -0.14850125 -0.03837184 -1.2005657 -1.1361964 1.3958583 -0.65798986 -0.10926815 0.29515028 -0.029987829 0.5123085
1999 1.0263453 -0.4637207 1.2430747 0.1825281 0.062014457 0.3379457 -0.4561401 -0.5252544 1.2203584 -0.47646126 1.1725304 -0.97212785 1.0204791 -0.13290021 -1.1604031 0.4140928
52 0.99121034 1.0256602 0.36009365 0.20114388 -1.3936279 -1.0548013 -0.5677092 -0.14974877 -1.062615 -0.75217044 1.0342401 -0.7344205 -0.6374474 -0.5952616 0.16883117 -0.16340034
250 0.5366766 0.036263753 0.58173215 0.41978943 -0.08225733 0.35373312 -0.52739835 0.6481197 0.583625 1.16302 0.021207025 -1.7787806 -0.7712565 -0.04562431 0.1510396 0.035371296
1022 0.29780248 0.17302611 -0.35194728 0.9119721 -0.8919262 -1.2940993 -0.4571289 -0.31574485 0.054117806 0.19954567 0.5253701 -0.5050578 0.01713851 1.0203798 1.1173012 -0.8453003
2097 0.90483886 -0.8611473 1.061782 -0.42103267 0.6529943 -0.17142627 -0.9676726 -1.150737 0.8131371 0.24279916 0.6990612 0.46115705 0.04488228 1.3946089 -0.3060656 -0.43923104
155 0.49260828 0.44566607 0.78966206 -0.3110723 -0.6765844 0.46451268 -0.97266287 -0.49987745 1.3596381 0.33665153 -0.037866358 -0.81155455 -0.03292462 1.4323566 -0.31495172 -1.4348006
607 0.16182157 -0.3120157 -0.2902256 0.27292648 -0.84599274 -0.8708886 0.10189884 -1.3922126 -0.8568557 -0.03394939 1.602751 -0.36726043 -1.1663814 0.51746833 0.09593324 -0.3372586
22 0.89290416 -0.15463045 -0.14670527 2.2451174 -0.15184233 -0.97896445 -1.0582465 0.14940023 -0.8755049 -0.67825335 1.5653961 -0.30915397 -0.7607625 -0.6945883 0.76332134 -0.7541381
362 0.339641 -0.37605968 1.027009 0.5289589 -0.428977 -0.75914776 -1.2282995 -0.30306202 0.83989924 0.2530993 0.33398813 -0.20064427 1.4065499 0.7138277 -0.7750866 0.32503438
103 0.54498845 0.99460214 0.8459601 0.9978158 0.32584748 -0.2598092 0.67285734 -0.29803318 -0.06789507 0.03931963 0.94287413 -0.9760213 0.021160029 0.092984185 0.2105914 0.5983636
2025 0.45428896 0.3097632 0.49404943 0.3578198 -0.8174042 0.40972435 -1.0965164 0.06011269 1.0319079 1.0219374 -0.14329153 -1.6329267 -0.77921146 -0.1039206 0.40053612 -0.05580847
2356 1.5308245 0.25673676 0.19619057 -0.46108013 -0.64235437 -1.4777135 -0.9559866 -0.47973192 1.0319908 -0.9584507 0.66709816 -0.26464206 -1.7826415 1.1242632 -0.46386528 0.58692026
1207 1.192523 0.061564397 0.9869914 0.5027889 -0.66915673 -0.79771096 0.09835878 -0.8393004 0.09102849 -0.36456943 1.3373753 0.058074847 -1.3070269 0.016486198 -0.4542714 1.503022
727 0.6878595 -0.53436947 1.280372 -0.13737552 -0.08518533 0.11160582 -0.7206343 0.55268914 0.3490686 -0.14377727 0.077676006 -1.0839702 -0.5428345 0.8303433 -1.284311 1.0629901
2363 0.9430599 -0.30952507 1.3471111 -0.4931897 -0.36690754 0.18822713 0.22908713 -0.28122553 0.6678926 -0.47289267 0.39709193 -0.746239 -0.4076388 0.61 -1.1300476 0.4707611
412 0.015860412 -0.82209915 0.27097276 1.6046447 -0.71626407 0.16878605 -0.7476306 -0.57406765 -0.75163746 0.45315138 0.9526342 0.48646733 -0.6166933 1.4256622 0.5123828 -0.4039259
1517 0.71879953 -0.777866 1.4604888 -0.26198894 -0.5492729 -0.38472053 -1.0797714 0.23561983 0.4946421 -1.3138782 0.11850896 -0.28226763 -0.5805436 0.18727711 -1.160526 0.3524548
5 1.1480391 -0.5771049 0.59092206 2.280762 -0.006931454 -1.3325931 -1.0567768 -0.3737698 -1.4687678 -0.26062223 0.5688859 0.1282531 -0.94421357 -0.30976254 0.101118684 -0.7600827
911 0.0169821 0.575603 0.5313677 1.1836196 -0.059502598 -0.9788702 -0.4280984 -1.0549638 -1.1012441 -0.58070636 2.1055667 -1.0084969 0.5577195 -0.1826684 0.26901874 -0.7839086
267 0.46356392 0.3899519 0.72369295 1.0440084 -0.8099114 -1.5908711 -0.37371013 0.961749 -1.1352215 -0.78337663 0.952065 -1.2778739 0.5427836 0.78879154 0.2663304 -0.62953365
1032 0.2505756 -0.64229363 0.032279674 0.87554944 -0.7525516 -0.80604756 -0.75682646 0.34707364 -0.7062082 0.5281905 0.063766085 -1.4123821 0.09931734 1.0817095 0.98751116 -0.09421521
138 -0.35476652 0.561988 0.6904824 -0.1383692 0.12329855 -0.29904228 -0.8377686 0.66437256 0.5897999 1.1313413 1.085521 -0.40085527 -1.6841037 1.0807459 0.25037968 -0.035964556
1738 1.9455428 -0.2586374 0.72806954 -0.25068814 -0.016123941 -0.1456925 0.71251786 -0.462657 0.029241992 0.0851535 0.80995506 -0.8006356 -1.1243869 -0.24317768 -0.7648872 0.3658306
172 1.5579193 1.0150667 0.115792185 0.15354607 0.3672913 -0.14983837 -0.38822857 -0.28174445 -0.27227604 0.26191416 1.2130007 0.3290444 0.4323814 0.29353195 -0.78179586 -0.51091886
2476 0.2949129 -1.0515863 0.93843335 -0.07164605 -0.121184945 0.9114066 -0.55083823 -0.41289875 -0.09425541 0.70624954 1.5013775 -0.19053379 -0.07855647 -0.38232374 -0.21024203 -0.8580406
2666 -0.20482746 0.056705657 0.89769787 -0.62306744 0.38068318 0.8129523 -0.78880113 -0.21616255 0.33515337 0.3749818 0.9342184 -0.86585444 -0.1551418 1.5344476 -0.6526489 -0.45513326
1680 0.4421632 0.082207985 0.6869519 -0.0443344 1.4808004 -0.18509431 -0.60771936 -0.4856518 0.75105315 0.72818214 1.5600741 0.23823838 -1.3509457 0.8015779 -0.03323292 -0.4823044
1353 0.48908556 -0.43598086 0.28028533 0.47133884 0.08568414 0.032117475 -2.2746716 -0.35543576 0.23860843 0.3128125 0.45173112 0.6707316 -0.53121555 0.44288656 -0.46682984 -0.92610604
3084 1.4368138 -0.06727437 1.2190801 0.35651144 0.502494 0.36773026 -1.1644642 -0.7853187 1.65494 -0.29693663 0.117291525 -1.3239068 0.2663822 -0.32564992 0.34936285 0.03202446
1391 1.2627636 -0.12892932 0.4971007 -0.069986016 0.42342255 -0.32988885 0.43266243 -0.22019643 0.97375643 -0.36205265 1.2037458 -0.5406288 -0.2925577 -0.32265353 -1.0875285 -0.12482498
1863 1.498656 0.29298007 -0.1762765 -0.088787735 -0.82455647 -0.2798854 -1.4382764 1.1135585 0.4112323 0.784406 1.1267469 -0.30426052 -0.047031935 -0.0010762832 -0.01498824 0.49913478
1714 0.047308173 -0.90717065 0.1831876 0.80439436 -0.9651741 0.48770547 -1.188416 0.66950136 0.5282365 0.22295988 0.14256938 -1.3096048 0.037185892 0.16571704 0.5234149 -0.6324612
715 0.35181063 -0.39934424 0.5386612 1.2975593 -0.5400067 -0.0012129592 0.012419373 -0.405272 0.7963903 0.566207 -0.076949745 -0.7125199 0.35559222 0.48756653 0.4577354 -1.3362491
2642 0.20431717 -0.07322948 -0.34979266 0.0921973 -1.0980412 0.038759492 -1.1912065 0.4918996 -0.01835702 1.1643667 1.440025 -0.03292168 -0.9126794 1.017997 0.2425681 -0.49904838
1881 1.014222 -0.4688789 0.3621149 0.18172957 -0.17501849 -0.12374214 -1.3004495 0.117245905 -0.29125687 0.7863231 0.20226888 0.5336506 -0.37166122 1.1301218 -0.100627705 -1.6082352
2103 0.7342802 -0.4344456 0.8354563 0.62773114 -1.1519448 0.06767047 -0.3508916 -0.24683572 1.3170638 -0.8149364 0.3176264 -0.5882629 0.52926254 0.5402426 -1.0658221 0.10046333
3126 0.015092931 -0.19213195 0.991372 -0.7908032 -0.4413908 0.1512747 -0.39238277 -0.2858239 0.8049221 1.1986076 0.46997154 -1.821876 -0.11645283 0.32471156 -0.50459987 -0.31338078
1229 0.43511742 -0.637735 0.4870568 -0.028421089 -0.77751267 -0.8779953 0.367241 0.5855456 0.8136313 -0.224252 1.6793138 0.01728104 -1.156432 0.6896462 -0.84208494 0.04393413
2698 0.5989813 -0.20609666 1.520504 0.30672535 0.1619514 0.3416646 -0.38737264 0.74081707 1.4024118 0.41760874 0.1430766 -0.7823677 -0.3275364 1.362278 -1.2042867 -1.0295281
2455 1.2273405 0.6336913 0.73949623 -0.70301384 0.2303923 0.30386066 -1.4456846 -0.6566559 1.2457715 0.14305963 0.36945 -1.102165 -0.04683762 0.26839897 -1.0248064 0.17987412
1813 1.7261181 -0.4952024 1.4530133 0.7982741 0.13180777 0.9939475 -0.51598024 -0.4698181 1.0965735 0.3451197 0.1337245 -1.068397 0.104605235 -0.32318652 0.39465508 -0.3807824
163 1.4649163 -0.040143065 -0.13393953 1.5928929 0.19367605 -0.42148185 -0.3550947 -0.46984518 -0.5162421 0.3998999 0.8368023 0.76823866 -0.40399465 1.3141131 0.13041113 -0.1983273
1508 0.39350918 0.42612475 1.5302277 -0.3407337 0.41041553 -0.42672142 -0.65785205 0.12774636 -0.06387563 0.9115578 0.53694326 -0.09499316 -1.7486436 1.340074 0.3900432 0.3873886
13 0.35090017 -0.35685077 0.49467802 0.26209337 -0.49519363 -0.11811191 -1.854957 -0.1492002 0.3689409 0.325304 0.73911947 0.89242774 -0.7341543 0.34298134 0.114449374 -1.628386
86 -0.006824201 0.69563866 0.7806349 1.1613989 0.12184447 -1.4857606 -0.07682026 0.646106 -0.3122351 1.0722741 0.62244636 -0.71801776 -0.59346706 0.26743692 -0.7259076 -0.016672762
1919 0.39777806 0.46013263 1.369456 1.2095522 -0.45416528 -0.049469654 -0.6897758 -0.13178697 1.1714288 0.7263247 -0.43194562 -0.2760729 -0.9698546 0.28323767 -0.79590124 0.35968262
2035 0.049155537 -0.5393755 1.495489 0.20399109 -0.4281265 0.81058174 -1.3398948 -0.70247674 0.47772038 -1.0496621 -0.41446307 -1.2022549 -1.1072097 0.30573636 -0.6506234 -0.80312955
1804 -0.074989185 0.2552851 0.88424015 0.0870468 0.9440583 0.40860996 -0.38449857 -0.27437937 0.92981595 0.011781722 0.94406277 -0.11961147 -0.8363495 1.3638608 -0.33035177 -0.35121027
3253 0.57949746 -0.2952347 -0.15445228 0.013968494 -0.48795256 -0.2069534 -0.8365574 -0.08987567 -0.5161657 1.0200293 1.634637 0.24485147 -0.16529673 1.585588 -0.42443746 -1.537578
1328 1.1946098 0.65810907 0.36376387 -0.79151565 0.061380234 0.31158873 -1.8126403 -0.78012484 0.48952436 0.44391304 0.66833645 -0.5047123 0.5134248 0.18969822 -0.58990955 -0.28541413
2437 1.325288 -0.3499002 0.6226665 0.10811462 -0.480335 -1.0709732 0.23264775 0.9403032 0.27933452 -1.2820619 1.3438883 0.19577236 -1.263167 1.037848 -0.47542372 -0.23619333
1374 0.4801576 -0.58022976 -0.49170524 0.6177508 0.37537462 0.20287243 -1.0691996 -0.7992455 1.286641 -0.062387303 0.38275364 -0.42165655 -0.83895165 0.6518343 -0.24369363 -0.93877494
975 0.27039987 0.082325585 1.2998431 0.2760817 0.2262071 -0.53441226 -0.5681873 1.0017651 0.3968431 0.70786077 1.1822236 0.688982 -0.05604641 0.47300607 -0.5661202 -0.7059128
1483 0.48258746 0.6145166 0.8433339 0.6586119 -0.43668595 0.8939597 -0.17780054 -0.87668675 0.936948 0.645801 0.89040864 0.39500472 -0.6433575 0.9123988 -0.0729916 0.11583019
1935 1.7558516 -0.33990943 0.86710954 0.8296285 -0.5525529 0.74535286 -0.29366612 -0.06915406 0.8964343 -0.30072683 -0.18188536 -1.112686 0.37488633 0.32359117 0.58398247 -0.524555
1726 0.68508697 -0.55805355 1.1381265 0.30136326 -0.4873151 1.1707956 -1.0302743 -0.11413334 1.1890202 -0.50203466 1.1407052 -1.1611674 0.5584039 -0.47334522 -0.14535132 -0.14879373
2319 2.2027998 -0.30983463 1.1307477 0.44957212 -0.60466963 0.27983248 0.32246187 -0.14908329 0.6530507 0.08693961 0.17196487 -0.6539584 0.4202339 0.22034316 -1.2639693 -0.93987596
1412 0.59575534 0.29088545 0.6992966 0.98417205 0.49228147 0.23086098 -0.81150305 0.13461526 1.1081197 -0.28820196 0.6251544 -0.45074847 -0.9082469 -0.6320526 -1.5391947 -0.49864972
2418 0.2662887 -0.14601381 0.01961257 1.0389674 0.43248633 0.13263424 -1.4597474 -0.81995493 0.62678134 1.2605705 -0.13650595 -0.6508058 -0.773383 0.20868494 -0.59468126 -0.66539055
485 0.18571568 0.74611545 0.6639351 0.9777292 -0.10054361 -1.1507689 -0.9584962 0.89476997 -0.6314188 0.7983588 0.19026087 -1.2566121 -0.5177339 0.08433212 0.09001149 0.41207168
315 0.6152377 0.66593516 1.711149 1.4626642 -0.73146915 -1.3024907 0.14792006 0.2601848 -0.8182346 -0.5451246 0.8073203 -0.48980942 0.819233 1.0326406 0.6160933 -0.6978949
2244 0.50211734 0.501535 1.1139874 0.86433804 0.2892272 1.8420162 -0.7736516 -0.18254946 0.64222413 0.20859474 0.7862166 -1.7664379 0.024993781 0.24237818 -0.51529676 -0.9469744
2438 1.3781291 -0.80244607 0.34498832 -0.12332891 -0.44242132 -1.9401013 -0.00034368984 -0.24014962 0.675276 -0.90294665 1.2327251 -0.4711261 -2.124122 -0.12370233 -0.26016542 -0.15139183
278 0.21015377 0.29501018 1.3078365 0.7813961 -0.8899316 -1.1743268 -1.3622531 -0.51473343 -1.4802848 -0.31569776 0.41208267 -0.96873987 0.013382123 0.108225755 0.8559349 0.17858584
474 0.01470804 1.0509462 1.1161025 1.2393433 -0.20777453 -1.8782154 -0.6884225 -0.807957 -0.67656136 -0.009949953 1.0991069 -0.32249662 -0.45582348 0.2690311 0.9472188 -0.09130191
2408 1.209432 -0.046979457 1.4308223 -0.16604547 0.7304753 -0.3183421 -0.082410194 -0.7751615 0.38031965 0.5794333 0.6863058 0.51711655 -1.7007866 0.47619393 0.020243522 0.050815623
938 0.77606326 0.8821875 0.34649432 0.705855 -0.65742457 -1.7682981 -0.9757836 -0.7974768 -0.7471139 -1.1893339 1.3931248 -0.46869546 0.14173873 0.002130339 0.6759963 -0.50382334
342 0.3874578 0.6818369 0.8444808 0.17553481 -0.6462045 -0.6475328 -0.19673973 0.079401836 -0.51325256 1.1152779 0.643754 -1.2899283 0.014314478 -0.7861119 0.44909036 -0.3744993
1548 0.86798346 0.074850455 0.34909144 0.6666846 0.70399725 -0.7074624 -1.0043789 -0.08864654 1.3116704 0.27576733 0.67790055 0.026605356 0.49322 0.06631119 -1.1761281 -0.4541396
2933 1.1110523 -0.7243219 0.7475255 -0.46706346 0.47076955 0.5153621 -1.1704199 -1.2112758 0.21948305 0.002484811 0.5059929 -0.0354496 0.28453335 1.2097279 -0.54717684 -0.4872844
2257 -0.4949278 -0.523813 1.220567 0.8214494 0.010535878 0.76530194 -0.58764386 -0.8085011 1.6146147 -0.006253305 1.0077965 -1.9869257 -0.07526043 -0.060862854 -0.0926183 -0.025427002
1730 1.1072701 -0.5594973 -0.2592087 1.4940133 -0.3412952 -0.82206696 -0.7283593 0.1232618 -1.5404767 -0.42804232 1.2737103 -0.6620866 -0.8654875 -0.035012174 1.1741731 -1.1451932
254 -0.26068684 -0.019222287 0.69987667 0.109577976 0.11258663 -0.6161634 -0.7024076 0.048066575 1.2270961 -0.6313627 0.5335571 -1.1948583 -0.6800775 0.01048423 -1.153852 0.5248938
