18405 16
18442 -1.248463 -0.144243 1.209652 -1.190704 2.874362 -0.593668 3.599838 1.481591 1.224203 -1.808968 3.289372 0.657723 -1.544273 0.843191 0.012371 1.890278 
18448 -0.450633 -0.446564 0.535950 -1.802403 2.316174 0.135261 4.341151 0.302931 0.527682 -1.380482 3.284963 0.513878 -1.955990 0.653317 -0.850258 1.623101 
18450 -1.172219 -0.876440 0.559263 -2.104584 3.091466 0.295669 3.025803 0.002528 1.067627 -2.180573 2.926625 0.582452 -1.426042 0.604381 -0.058057 2.436813 
18433 -1.668806 0.298315 0.684646 -1.328505 2.817593 -0.518671 3.718205 1.165430 0.835325 -1.865876 2.657706 -0.016597 -1.488442 0.954802 -0.204896 2.232790 
18439 -0.836585 -0.880566 0.832539 -1.741114 2.883246 0.748593 2.844478 0.388542 1.568347 -1.827657 3.260017 0.075708 -1.871509 0.571460 -0.236349 2.283211 
18449 -0.821984 -0.269615 0.386603 -1.801857 3.328395 0.081898 2.794485 -0.024734 1.444948 -1.888196 3.028141 0.290844 -2.055134 0.384864 -0.233929 2.487479 
18443 -1.084025 -0.340628 0.388544 -2.468884 2.726371 0.297975 3.002871 1.266486 0.430058 -1.657384 3.504596 -0.287147 -1.943360 -0.150395 0.183068 1.702179 
18434 -1.546817 -0.536531 0.931892 -1.855522 2.626051 0.694504 3.705490 0.071056 0.867090 -1.290167 3.656289 -0.057487 -1.831985 0.407914 -0.751561 1.860339 
18441 -1.079436 0.439777 0.572587 -1.664268 2.230207 0.006815 3.349065 1.832932 0.943176 -1.675389 3.016236 0.003034 -2.200808 0.049771 -0.444749 1.665490 
18440 -1.244004 -0.409666 1.164235 -2.183301 2.454534 0.609464 3.571871 0.923243 0.626642 -1.414834 2.811621 -0.081585 -2.809940 0.001025 0.397030 2.200615 
18446 -1.012659 -0.088523 0.840972 -2.048617 2.822240 0.009865 2.173603 0.244248 0.729519 -1.308578 3.312486 0.941325 -1.554870 0.630004 -0.629345 2.902248 
18444 -1.466094 -0.227243 0.437431 -1.830815 2.210243 0.472192 3.168879 0.353698 1.241607 -1.305387 3.119991 -0.290170 -2.721567 0.690385 0.895769 1.398432 
18451 -0.681593 0.051338 0.706960 -2.008461 2.101756 0.423749 3.910787 0.379697 1.067047 -1.533770 3.471802 0.040213 -1.263527 0.538362 0.226277 2.516345 
18438 -1.163623 -0.328406 0.417111 -2.039367 3.219285 1.332815 2.814780 0.372905 0.923668 -1.594950 2.928951 0.597654 -1.784564 1.105565 -0.256146 2.219506 
18445 -1.361557 -0.366425 0.936863 -2.241169 2.376001 0.131187 2.781227 0.933526 0.450002 -0.924519 3.629104 0.603733 -2.430372 0.503120 0.820868 1.523907 
18447 -1.364150 -0.743848 0.607283 -2.503913 2.091735 0.245949 2.771245 1.204175 0.521360 -1.486004 2.973567 -0.443550 -2.625218 0.746983 -0.078512 2.166764 
18436 -0.770900 -0.434672 0.992516 -1.597709 1.321281 0.857731 3.948504 0.484225 0.245685 -1.273242 3.101696 0.860540 -0.932604 0.620575 -0.574187 1.339476 
18435 -0.974124 -0.845319 1.294765 -1.465553 1.410339 -1.203658 3.285726 1.233978 0.890917 -2.017286 2.637086 -0.228109 -1.664230 0.155407 -0.416349 2.299035 
18437 -1.941153 0.161551 0.640224 -1.994665 1.793172 -0.044836 3.201578 1.393870 1.050336 -1.844370 2.988201 0.687188 -2.307980 0.117815 0.178559 1.343584 
1015 -1.028007 -1.458570 -1.254526 -0.813646 0.813620 0.001883 0.269608 0.567606 1.052496 1.042210 0.292684 0.096203 -0.546862 -0.604113 0.135107 0.733834 
2300 -1.329107 -1.361243 -1.338189 -0.959156 0.916421 0.045677 0.298746 0.433092 0.907024 0.996382 0.477205 0.275030 -0.451019 -0.680202 0.058166 0.833216 
1013 -0.568890 -1.175968 -1.057872 -0.296217 1.119836 0.602518 0.543532 0.008030 1.127235 1.022940 -0.025489 0.511452 -0.013092 -0.505060 -0.072618 1.221381 
2235 -0.214786 -1.423503 -0.989255 -0.258034 1.269103 0.293127 0.220575 0.015226 1.134680 1.116161 0.004992 0.330416 0.114267 -0.498322 0.114047 1.561755 
414 -0.277673 -0.900448 -1.008967 -0.046028 0.356290 0.234563 1.735986 -0.048285 0.389100 1.595775 0.008360 0.106862 -0.049500 -0.600019 -0.802799 0.572558 
1523 -0.079706 -1.587793 -0.961557 -0.016884 1.358290 0.372606 0.426661 0.027168 1.450304 0.901986 -0.162274 0.115993 0.230852 -0.751676 0.149064 1.573349 
1475 -1.174683 -1.197245 -1.298748 -0.860539 0.786775 0.290162 0.210055 0.475434 1.127017 1.293175 0.347850 0.317699 -0.708368 -0.610504 0.042410 0.715865 
123 -1.195164 -1.590884 -1.410600 -0.969512 0.760076 0.196505 0.419206 0.723620 1.482313 1.248849 0.261933 0.011627 -0.717469 -0.649763 0.082851 0.721262 
1493 -0.193475 -1.258133 -0.905824 -0.264662 0.346011 0.316269 1.008617 -0.099139 1.143009 1.141913 0.167976 0.376875 -0.464947 -0.726259 -0.640077 0.929230 
193 -0.107851 -1.040933 -1.135784 -0.163460 1.468724 0.378537 0.302055 -0.275068 1.088933 1.077275 -0.273404 0.424788 0.267905 -0.862358 0.166786 1.697924 
324 -0.755779 -0.982889 -0.707517 -0.396028 1.239853 0.291829 1.932584 1.603716 0.513740 1.742094 -0.355214 0.300390 -0.397250 -0.308534 0.174047 0.790502 
1209 -0.231969 -1.198296 -1.053943 -0.447595 0.775747 0.057662 1.603532 0.443027 0.057069 1.545133 0.669237 0.017150 -0.308366 -1.017434 -0.514851 0.488797 
1400 -0.586367 -1.388267 -1.002439 -0.247956 1.381959 0.599157 0.451541 -0.028150 1.257812 1.062351 -0.092067 0.541865 0.193594 -0.660784 -0.041051 1.436273 
1363 -0.727824 -1.598807 -0.948378 -0.408019 1.062346 0.491185 0.625808 0.171847 1.525211 1.283857 -0.063886 0.593544 -0.372496 -0.648576 -0.347039 1.013872 
977 -1.303988 -1.261900 -0.970245 -0.330617 0.999860 0.653403 1.007162 0.086249 1.613558 1.154801 0.282423 0.336822 -0.097550 -0.845340 -0.741209 1.156623 
550 -1.125950 -1.627923 -1.302206 -1.061793 0.842827 0.132363 0.361093 0.692973 1.264433 1.425147 0.099727 0.217733 -0.614354 -0.249559 0.131629 0.974384 
2101 -0.785880 -1.367658 -1.228266 -0.590947 1.271258 0.189361 0.356275 0.104442 1.099335 0.963761 0.263029 0.454614 0.041846 -0.647191 -0.050877 1.379551 
1560 -0.406800 -1.386397 -0.823524 -0.542925 0.471669 0.343149 1.893417 1.020624 0.993592 1.316572 0.618181 0.413531 -0.842085 -0.754388 -0.264377 0.900421 
1362 -1.301098 -1.306590 -1.277469 -0.623989 0.834251 0.526210 0.587295 0.113579 1.306770 1.101710 0.069897 0.389333 -0.536355 -0.450121 0.249190 0.583490 
1404 -0.207945 -1.221879 -1.084608 -0.089914 1.414989 0.610785 0.347468 -0.093039 1.252800 1.034667 -0.146960 0.199362 0.233582 -0.638539 0.225990 1.584584 
326 -1.490179 -0.641555 -0.644495 -0.338387 0.903572 -0.070320 1.416015 1.775970 0.431761 1.373500 -0.333560 0.286357 -0.108626 -0.950517 0.146304 0.710689 
579 -0.799292 -1.002483 -0.456600 -0.222468 1.170407 0.043510 0.221619 1.268039 0.780686 1.084602 0.052862 1.012428 0.508531 -0.001299 -0.447862 1.707832 
974 -1.174430 -1.375073 -1.309708 -1.060709 1.047305 0.090339 0.542199 0.692713 0.696538 1.461900 0.234189 0.100350 -0.578390 -0.569904 -0.070056 0.803187 
2163 -0.637981 -0.995420 -0.578031 -0.524592 1.195094 0.065436 0.229851 0.406061 0.847854 1.423483 0.018264 1.393574 0.412596 -0.686487 -0.668883 2.288207 
1302 -0.139912 -1.354600 -1.078728 -0.030111 1.357696 0.556417 0.376775 -0.018026 1.469647 1.014056 -0.177455 0.017380 0.195154 -0.702706 0.096646 1.617971 
157 -1.310937 -1.467718 -1.085580 -0.783830 0.796706 0.430915 1.250007 0.363450 1.464938 1.398288 0.433021 0.235944 -0.662481 -0.511625 -0.581788 1.307490 
768 -1.387149 -1.637435 -1.212486 -0.820452 0.600992 -0.052957 0.334968 0.700114 1.071503 0.806737 0.763729 -0.171529 -0.280294 -1.076805 -0.214778 0.597449 
2179 -1.115857 -1.379711 -1.142633 -0.952692 0.804046 0.017246 0.277586 0.725149 0.999491 1.137044 0.218984 0.431060 -0.576890 -0.517956 -0.233487 1.062198 
2013 -1.087382 -1.285686 -1.303504 -0.937907 0.956086 0.276566 0.080729 -0.008011 1.034786 1.598160 0.231160 0.660725 -0.524066 -0.063149 0.330941 1.177417 
775 -1.213593 -0.901985 -0.401629 -0.440898 0.424105 0.045606 1.352552 1.831594 0.555679 1.585159 -0.014685 0.270943 -0.253745 -1.179690 0.862282 0.504128 
119 -0.326872 -1.364526 -1.081161 -0.207574 1.303422 0.741783 0.315444 -0.029109 1.156086 1.021035 -0.141237 0.265245 0.394015 -0.462704 0.209294 1.544066 
2003 -0.394521 -1.281905 -1.023295 -0.149793 1.365534 0.377356 0.350948 -0.010124 1.450421 1.123479 -0.018824 0.371749 0.001888 -0.875260 -0.126646 1.398888 
73 -1.463681 -0.001290 -1.143905 0.418396 0.721678 -0.998232 1.143146 1.384428 0.945475 1.274911 -0.269833 0.321009 0.392166 -0.051097 0.017733 0.970948 
390 -0.919785 -0.426942 -0.676299 -0.469301 0.668225 -0.164282 1.359368 2.018491 0.391260 1.601519 -0.127291 0.159747 -0.311702 -1.899736 0.254686 0.659166 
970 -0.390018 -1.186326 -1.058142 -0.534630 1.324723 -0.263147 -0.267743 0.258858 1.023437 1.400604 0.452300 0.540649 0.006690 -0.580125 -0.057365 1.709402 
383 -0.902722 -0.541059 -0.807906 -0.355290 1.149508 0.154767 1.634749 1.769425 0.348797 1.388911 0.263686 0.168515 -0.267537 -1.353615 -0.324599 0.694064 
1932 -0.728213 -1.258384 -1.143290 -0.393629 1.006083 0.651364 0.762903 -0.048879 1.405810 0.915941 0.155507 0.292467 0.062618 -0.653675 -0.107680 1.577636 
42 -0.534893 -0.987988 -0.800676 -0.590410 0.717689 0.441923 1.431862 1.345738 0.179317 1.935088 -0.066588 -0.176469 -0.553679 -0.649546 -0.381782 0.679239 
1545 -0.158628 -0.793138 -0.636312 -0.732827 0.914093 -0.112367 0.180404 0.334500 0.844069 1.860939 -0.074432 1.541126 0.664115 -0.855586 -0.971810 3.133053 
1917 -0.864015 -1.481163 -1.006932 -0.252751 1.179742 0.732661 0.609431 0.010802 1.391771 0.902721 0.033858 0.450377 0.249251 -0.809458 -0.214767 1.145569 
1983 -1.268884 -1.543291 -1.185470 -1.132637 0.933209 -0.011757 0.291746 0.908310 0.730091 1.804765 0.868506 0.186460 -0.619443 -1.008603 -0.246706 0.586762 
1360 -0.586847 -1.226822 -0.640987 -0.335548 1.324010 0.270829 0.165844 0.377758 0.971714 1.341197 0.121941 0.918788 0.226851 -0.402556 -0.331638 1.820899 
1437 -1.365378 -1.414728 -1.539728 -0.867940 0.809115 0.652938 0.544320 0.192024 1.350232 1.256770 0.381617 0.105301 -0.440220 -0.272843 0.451463 0.645482 
14 -1.285945 -2.007792 -0.247071 -0.536849 -0.536827 -0.883492 1.956450 1.791372 1.085968 0.710104 -0.385335 0.104247 -0.264275 -1.116312 0.653376 1.897437 
1165 -0.057850 -1.146817 -1.268016 -0.217048 0.238903 -0.062067 1.476990 -0.418197 0.579648 1.354479 -0.042298 0.414597 -0.223157 -0.633061 -0.788056 0.507658 
76 -1.866596 0.205089 -1.288683 0.031848 0.371354 -0.766280 1.180198 1.475657 0.811847 0.916677 -0.520638 0.639098 0.388904 -0.408446 0.035454 0.902935 
3 -1.758994 -1.160589 -0.288711 0.037516 -0.567162 -1.960794 1.414214 1.240764 1.129980 0.526395 -0.768532 0.310179 0.085213 -1.390220 0.871430 1.587616 
515 -0.643942 -0.752137 -0.542466 -0.457633 0.321723 0.384215 1.317427 1.432048 0.369141 2.047204 0.059051 -0.130619 -0.755688 -0.991306 0.142108 0.594050 
1331 -0.451980 -1.279904 -0.956959 -0.206554 1.295268 0.051898 0.657752 0.103396 1.287142 0.776475 -0.029292 0.471727 0.187007 -0.687062 0.144920 1.553807 
91 -1.266567 -0.088742 -1.071992 0.766294 0.835368 -1.065815 1.092275 1.328252 1.145105 1.573787 0.092545 0.123997 0.407720 0.324313 0.014872 0.958211 
998 -1.779888 -0.977432 -0.350085 -0.252887 0.185617 0.289690 1.758636 1.438357 0.785170 1.498050 -0.635254 -0.108012 -0.179903 -0.707354 1.281165 0.649036 
619 -1.262014 -0.014853 -0.572563 -0.149336 0.451898 -0.323131 0.779985 1.442989 0.244737 1.295611 -0.112060 0.993901 0.034135 -0.608613 0.284451 0.792063 
318 -1.466025 -0.178787 -0.890137 0.526153 0.708861 -1.116692 1.071121 1.351942 0.991139 1.362551 -0.183267 0.573556 0.345000 -0.131696 0.141599 0.801522 
1428 -0.133856 -1.088962 -0.988707 -0.198264 1.416524 0.298659 0.024609 0.040066 1.192980 1.379259 0.097410 0.369137 0.105308 -0.521913 0.042971 1.834066 
478 -0.801545 -1.231082 -0.291265 -0.135740 0.625361 0.644945 2.247552 1.671817 0.561973 1.647993 0.594192 1.277588 0.491454 -0.009029 0.143152 0.671748 
830 -1.395447 -0.902083 -0.271631 -0.169767 0.354809 0.198233 1.587996 1.167032 0.662443 1.529814 0.048424 0.171409 -0.321088 -0.922418 1.475074 0.456657 
2275 -1.210221 -1.667664 -1.168256 -0.774284 0.888488 0.693188 0.444102 0.248679 1.473584 1.365006 0.091049 0.641306 -0.302265 -0.316478 -0.008871 0.855797 
2298 -0.348854 -1.141491 -1.013250 -0.283216 -0.283235 0.092966 1.906822 -0.546032 -0.324829 2.143049 0.363157 0.306882 0.560395 -0.515117 -0.822311 0.486080 
705 -0.187326 -1.102015 -0.828458 -0.026858 1.021183 0.601013 0.716271 0.083586 1.239362 1.044188 -0.172930 0.548665 -0.118983 -0.644673 -0.362608 1.207812 
367 -1.444972 -0.222678 -0.871129 0.569859 0.711173 -1.127800 1.076847 1.337006 1.066873 1.415473 -0.062949 0.522886 0.372551 -0.055305 0.150830 0.826599 
472 -1.093096 -0.823903 -0.679253 0.186897 1.279453 -0.627019 1.610246 1.609212 0.726055 1.309059 0.483684 0.370330 0.261876 -0.288540 0.431316 0.933194 
1803 -0.455903 -1.042558 -0.775159 -0.086198 0.055597 0.172472 1.877521 -0.689979 -0.077706 2.247896 0.399820 -0.256068 0.401596 -0.863443 -0.888099 0.632541 
175 -0.610266 -0.943862 -0.804621 -0.853935 -0.228978 -0.166097 0.561481 0.753947 0.754748 2.442310 0.870169 0.310849 -0.939965 -1.467607 1.345629 0.408112 
2240 -0.118163 -1.452384 -0.994531 -0.022273 1.289584 0.401349 0.419768 -0.083162 1.459061 0.905671 -0.102009 0.069712 0.260910 -0.851787 0.104267 1.633628 
1800 -0.578470 -1.528497 -1.039647 -0.735510 1.014113 -0.057741 0.222760 0.142079 1.004414 1.214416 0.292681 0.431040 -0.046419 -0.139183 0.133898 2.017040 
2341 -0.449333 -1.270843 -1.081615 -0.399796 0.706769 0.293886 1.009540 -0.126195 1.509817 0.883667 0.300011 0.344144 -0.200110 -0.686530 -0.171688 1.668195 
547 -0.380953 -0.800079 -0.679493 -0.426744 1.195083 -0.241152 0.549980 0.748330 0.726732 1.143531 -0.074129 0.960544 0.214980 -0.293910 -0.481562 2.239059 
792 -0.649640 -1.215042 -1.030120 -0.490355 1.029580 -0.111119 0.839996 0.130390 1.339277 0.808112 0.372291 0.587688 -0.140414 -0.532813 0.074108 1.849392 
2310 -0.967398 -1.611195 -0.757202 -0.545250 1.086239 0.425988 0.317890 0.101383 1.124654 1.350793 0.310151 0.973485 0.214884 -0.441387 -0.420603 1.451990 
580 -0.622921 -1.060851 -0.724435 -0.319952 0.732106 0.612556 2.296033 0.785138 1.027777 1.117730 0.517693 0.876009 0.134966 -0.235337 -0.188313 1.390494 
2323 -0.906274 -1.391738 -0.866854 -0.759214 0.972195 0.016478 0.648236 -0.030753 1.043926 1.234084 0.548773 1.048054 -0.071508 -0.485985 -0.331072 1.981017 
1924 -0.350446 -1.159489 -1.138314 -0.455189 0.612367 0.651244 0.958776 -0.278662 1.080688 0.885589 -0.131032 0.412743 0.187570 -0.447161 0.026641 1.569413 
2067 -1.274201 -1.282626 -1.314858 -1.138125 0.302888 0.133619 0.034280 0.894923 0.668338 1.184221 0.638036 -0.055224 -0.287130 -0.733660 0.199634 0.733847 
1173 -0.070952 -1.341879 -0.971798 -0.487267 -0.694633 0.283969 1.678444 1.007334 0.521038 1.338856 0.187021 1.130374 0.441339 0.201748 -1.149252 1.016188 
1243 -0.446604 -1.155335 -0.869094 -0.429584 -0.691853 0.420917 1.986134 -0.578890 -0.250477 2.445805 0.488007 0.419754 0.892042 -0.453036 -0.869026 0.737745 
322 -0.851358 -0.585672 -0.655496 0.361259 1.088853 -0.480095 0.475363 1.330506 1.003309 1.469204 0.285097 0.456741 0.402795 0.359248 -0.333471 1.159798 
63 -1.102432 -1.160839 -0.674789 -0.157097 0.689502 0.261622 0.771702 0.681396 0.876352 1.142406 0.398687 0.166183 -0.330714 -0.573768 0.687270 0.114581 
527 -0.331473 -1.087339 -0.780372 -0.073532 0.699055 0.177392 2.282989 0.529338 0.285295 1.821363 0.525075 0.363272 0.147036 -0.437892 -0.472851 0.670564 
540 -1.231433 -0.070356 -1.010213 0.845014 0.804858 -1.022014 1.002380 1.253527 1.096815 1.587703 0.127037 0.082394 0.455210 0.376991 -0.024196 0.980547 
677 -1.838304 0.281285 -1.297621 -0.198036 0.326961 -0.683010 1.278689 1.703218 0.921263 0.938703 -0.784275 0.852393 0.028385 -1.054576 -0.104290 0.903147 
642 -0.953241 -1.016716 -0.710672 -0.634952 1.115180 0.233140 1.424143 1.890174 0.349057 1.804818 0.195301 -0.115411 -0.242644 -1.514267 -0.158430 0.550333 
1396 -0.631170 -1.823901 -0.941588 -0.280096 1.084534 0.743349 0.456544 0.198337 1.517875 1.040387 -0.103185 0.208006 0.488673 -0.483594 0.053867 1.275983 
1482 -1.312947 -1.818194 -1.276900 -0.941191 1.008724 0.615828 0.616053 0.597785 1.885764 1.640012 -0.070638 0.482202 -0.663670 -0.559593 -0.420087 0.845498 
2355 -0.396506 -0.558237 -0.931783 0.075316 0.294844 0.552154 1.706467 0.386131 0.893804 1.671122 0.238509 -0.135981 -0.609327 -0.976184 -0.696255 0.413375 
2556 -0.167696 0.009290 -1.420959 -0.262205 0.384682 -0.013448 1.555606 2.150002 1.251376 1.542626 -0.186273 0.758518 -0.764489 -1.347282 -0.706750 0.515906 
1488 -1.234080 -1.255475 -1.425582 -0.866952 0.742853 0.381701 1.221433 -0.321532 1.411850 1.022507 0.545625 0.497244 -0.304002 -0.374899 0.280848 1.569142 
74 -1.557857 -0.064885 -1.041203 -0.169854 0.364875 -0.332087 1.164064 1.786432 0.773967 0.867697 -0.239520 0.650919 0.098970 -1.156907 0.151752 0.568469 
992 -1.337846 -1.152686 -0.545990 -0.075478 1.226516 0.401064 0.777189 0.672178 1.022115 0.992886 0.056384 0.371812 0.281838 -0.283946 -0.628412 1.229066 
2951 -0.437089 -1.003963 -1.424856 -0.769686 0.654329 0.138874 1.286704 0.027126 1.131034 0.843052 0.529508 0.552348 -0.395111 -0.581683 -0.132504 1.490329 
360 -1.364384 -1.649392 -1.112008 -0.703184 1.123139 0.475086 0.556880 0.115461 1.454246 1.424678 0.115598 0.690936 -0.404932 -0.396327 -0.070116 0.846891 
1366 -0.852048 -1.103199 -1.192637 -0.429478 0.707417 0.853001 0.625211 -0.027741 1.469543 1.450665 0.143149 0.426733 -0.664687 -0.432463 0.048782 0.628070 
3248 -0.558608 -0.669005 -0.994101 -0.877743 0.116223 0.242631 1.155937 2.037348 0.455162 1.925910 0.180943 -0.703377 -0.447576 -1.970008 0.163069 0.837965 
1364 -0.344844 -1.394583 -0.920301 -0.381099 1.266270 0.450260 0.081551 0.014249 0.967201 1.256087 0.084048 0.474035 0.320695 -0.344746 0.190698 1.799481 
2313 -1.580017 -0.819161 -1.722022 -0.760960 0.914829 0.648182 0.713155 -0.438730 1.426664 1.798858 -0.037720 0.331425 -0.927352 -0.630638 0.795652 0.317484 
855 -0.789142 -1.439542 -1.222207 -0.644649 1.119761 0.246230 0.389812 0.539322 1.103809 1.171788 -0.023067 0.359513 -0.458224 -0.374456 0.125480 0.636892 
714 -1.737335 -0.085619 -1.106477 0.089570 0.367558 -0.934474 1.151935 1.642587 1.096486 0.840153 -0.425605 1.162787 0.327861 -0.711738 0.122562 0.524261 
1450 -0.690185 -0.803089 -1.154649 -0.832896 0.905407 0.418466 0.492686 -0.124751 0.743884 1.337493 0.284590 0.932764 0.191103 -0.207317 -0.142267 2.301789 
277 -0.779214 -0.913513 -0.657325 -0.196094 1.253568 -0.123586 0.361945 1.126790 0.817501 0.991218 0.006002 0.394257 0.325799 0.061645 -0.326700 1.909687 
602 -1.188053 -0.728430 -0.740781 -0.371917 0.788202 0.024632 0.672511 1.244189 0.724783 0.965338 -0.048737 0.119300 -0.393968 -0.727956 -0.005048 0.880579 
764 -1.658379 0.203806 -1.323119 -0.191578 0.377216 -0.823307 1.127832 1.808249 1.004064 0.920233 -0.685693 1.008694 0.028714 -1.151446 -0.137883 0.727295 
769 -0.446864 -0.632642 -1.083916 -0.460668 1.279668 0.257581 2.289590 1.915739 0.552649 1.527904 0.009191 0.475154 -0.392790 -0.544396 -0.165407 0.986431 
2048 -0.833220 -1.374550 -1.116812 -0.410684 1.294701 0.449488 0.244104 0.192271 1.205855 1.027508 0.316864 0.393281 0.026048 -0.686392 -0.157097 1.121192 
555 -1.321327 -0.910856 -0.825657 -0.319385 0.953804 0.032043 0.946664 1.268647 0.544812 0.777068 0.162634 -0.215801 0.088053 -1.047845 0.172560 0.530944 
297 -1.233265 -0.196559 -0.872223 0.801043 0.759691 -1.103349 1.008850 1.273367 1.110396 1.585841 0.163587 0.293326 0.395195 0.233130 0.065897 0.854140 
1749 0.083578 -1.236311 -1.733668 -0.191121 0.103624 -0.268923 1.998144 -0.254026 0.190742 1.809645 0.249949 0.253856 0.105819 -0.564450 -0.803935 0.021184 
691 -1.719221 0.370810 -1.345508 -0.195637 0.471208 -0.840987 1.231111 1.745390 0.861415 0.960064 -0.784763 0.848017 0.162891 -1.189900 -0.189810 0.963190 
1063 -1.308928 -0.982899 -0.374657 -0.265381 -0.337731 0.176091 1.307145 1.545758 0.491407 1.132279 -0.093276 -0.273371 -0.292930 -0.636555 0.088637 0.909728 
2410 -0.825949 -1.515170 -1.319531 -0.481597 1.211830 0.336149 0.184239 0.298819 1.294533 0.819671 0.297746 0.083990 0.063019 -0.717038 0.038846 0.971617 
214 -0.488715 -1.144696 -1.169753 -0.651966 0.923155 0.367463 0.387196 -0.037462 1.136855 1.324905 0.458724 0.404101 -0.017982 -0.158870 0.050167 2.038222 
1837 -0.115658 -1.041490 -1.047360 -0.188328 1.277609 0.724690 -0.247678 0.188185 1.334300 1.756272 0.286621 0.208103 0.127790 -0.100279 0.155605 1.614867 
1257 0.363415 -1.151721 -1.893908 -0.198613 0.080445 -0.396732 1.680446 -0.131998 0.791835 1.295286 0.093767 0.812806 -0.262675 -0.542433 -0.878982 0.090416 
2057 -0.935961 -1.001318 -0.817158 -0.831936 0.855676 0.006217 -0.167156 0.252838 0.874174 1.692369 0.517856 1.511791 -0.128863 -0.504007 -0.432284 1.709619 
433 -1.949414 -0.054820 -1.121385 -0.082395 0.353150 -1.228967 1.270476 1.534822 0.867336 0.791910 -0.714964 0.604704 0.123243 -0.887357 0.006811 1.115736 
1891 -1.077387 -0.509268 -0.695492 -0.176576 -0.500184 0.685423 1.240412 1.495478 1.150707 1.500159 0.864713 -0.339740 -0.577277 -1.786674 1.231648 0.196810 
2552 -0.937049 -1.684473 -1.219436 -0.795976 1.240677 -0.125367 -0.184273 0.346792 0.923403 1.012587 0.495944 0.330150 0.178149 -0.465786 0.175464 1.267098 
1571 -0.790900 -0.840775 -0.717196 -0.744040 -0.461634 0.085249 0.741431 0.889822 0.891827 2.150495 0.538116 0.066294 -0.860745 -1.291986 1.430660 0.578753 
161 -0.147318 -0.996356 -0.779837 -0.411661 0.529299 0.314924 1.284731 1.108195 0.579132 1.539776 0.622922 0.726752 -0.561616 -0.573599 -0.170292 0.433821 
153 -0.843382 -1.103689 -1.269001 -0.510040 0.347762 0.531580 0.925783 -0.172814 1.448918 1.186465 0.408476 0.238214 -0.776703 -0.306599 0.370966 0.843877 
2071 -1.096486 -1.231758 -0.867346 -1.003340 0.419552 -0.049218 0.412373 0.735207 0.445888 2.022731 0.787755 0.350454 -0.655019 -0.886909 0.564722 0.578300 
1825 -1.360917 -1.572230 -1.080597 -0.648240 0.561090 0.385691 0.550403 0.127275 1.506755 1.232878 1.105308 0.363425 -0.238630 -0.783169 -0.445202 0.717876 
1736 -0.193976 -0.973251 -1.178952 -0.387040 0.743579 0.100295 2.168258 0.305083 0.267064 1.783249 0.892318 0.292453 -0.189102 -0.855660 -0.429266 0.699674 
160 -0.792739 -1.506729 -1.124835 -0.692473 1.069450 0.212918 -0.256070 0.225819 0.958990 1.306897 0.694289 0.556825 0.020037 -0.237651 0.264232 1.109175 
876 -1.216583 -0.938913 -0.901414 -0.562161 1.032107 -0.030985 0.817125 1.294553 0.683083 0.949288 0.230348 -0.046572 -0.350851 -0.933178 0.067483 0.901210 
959 -1.339494 -1.064916 -0.403160 -0.559031 0.945753 0.256624 0.822167 1.137101 0.112343 2.180801 0.805371 0.342638 -0.334098 -0.889794 0.143132 0.400441 
346 -0.997398 -0.474912 -0.807182 0.738396 0.840210 -0.608862 0.939272 1.200088 1.195430 1.371572 0.139499 -0.070739 0.346405 0.417062 0.119445 0.948411 
1986 -1.298744 -1.450317 -0.843116 -0.873378 0.654351 0.031296 0.151867 1.164909 0.700133 1.228185 0.614533 0.380987 -0.132346 -0.713558 0.159926 0.576268 
221 -1.376130 -1.918305 -1.123054 -0.731289 1.183672 0.257937 0.574905 0.447371 1.640621 1.252477 0.306465 0.437602 -0.432433 -0.892948 -0.502460 0.737120 
274 -1.276642 -0.734751 -0.754807 0.183890 0.849848 -0.509087 1.669919 1.551655 1.060284 1.190702 0.340896 0.763535 0.320857 0.003151 0.344631 0.938364 
994 -1.683311 0.034597 -1.139955 -0.142672 0.604470 -1.096251 1.343272 1.822320 1.041827 1.021918 -0.716203 1.296417 0.031778 -1.212795 0.035090 0.781054 
2376 -1.198666 -1.006061 -1.271778 -0.539897 0.738283 0.938668 0.910034 -0.082956 1.709159 1.326881 0.627962 0.384331 -0.227283 -0.756618 -0.623888 1.258076 
251 -1.031974 -1.628897 -0.795323 -0.317521 0.991864 0.444876 0.524428 0.042615 1.583934 1.273694 0.437802 0.630311 -0.058550 -0.820254 -0.656743 1.057984 
197 -0.850601 -0.870399 -0.953085 -0.572992 1.278945 0.570000 2.293721 0.880075 0.592085 1.562054 0.350695 0.619426 -0.623799 -0.579215 0.457040 0.892220 
397 -1.909392 0.233815 -1.252445 -0.052204 0.251313 -0.552054 1.186168 1.535883 0.729934 0.873823 -0.589394 0.712930 0.384618 -0.497229 0.154755 0.818802 
658 -1.229942 -1.685721 -0.871038 -0.589904 1.791948 0.002705 2.638657 1.989410 1.422709 1.275587 0.833702 0.973584 0.140814 -0.047299 0.233678 1.596615 
1289 -0.319949 -1.339095 -1.105796 -0.129545 1.168249 0.919597 0.342217 0.059707 1.407335 1.068904 -0.066655 0.014093 0.324929 -0.405178 0.217069 1.492415 
895 -0.709239 -1.362764 -0.637770 -0.820976 0.532789 0.065390 0.931469 1.445605 0.462902 2.120007 -0.023134 -0.036545 -0.578953 -0.827366 0.139311 0.627844 
2417 -1.311876 -1.216356 -1.332507 -1.062910 0.565917 0.406681 0.084414 0.373174 0.736683 1.531597 0.737002 0.276696 -0.541475 -0.540120 0.069226 0.616339 
1441 -1.055730 -1.508292 -1.568331 -0.679151 1.303466 0.709855 0.048660 0.430649 1.090903 0.875052 0.251195 -0.106131 0.408310 -0.394870 0.215788 0.945344 
2316 -1.105649 -1.775241 -0.833754 -0.302236 0.988482 0.501901 0.743400 0.037037 1.662860 1.053133 0.208200 0.565502 0.033828 -0.952584 -0.613271 0.999347 
536 -1.642008 0.040111 -1.228652 0.163485 0.612162 -1.021562 1.188504 1.452792 0.798614 1.024614 -0.464326 0.545275 0.361478 -0.319523 0.029350 0.939336 
2586 -1.105185 -1.597703 -1.394404 -1.189113 0.324356 -0.179740 -0.269236 0.315798 0.988225 1.166670 0.702168 0.265550 -0.627374 -0.695134 0.291865 0.839381 
310 -1.188664 -0.089316 -0.983673 0.819866 0.763732 -1.023935 1.069088 1.277092 1.124822 1.582244 0.058504 0.148791 0.421348 0.359759 0.035997 0.997896 
1485 -0.473335 -1.217050 -1.177941 -0.636551 1.149862 0.298578 0.074723 0.086423 0.906090 1.324881 0.147862 0.354934 -0.125988 -0.186501 0.135065 1.814299 
441 -1.332691 -0.133251 -1.037463 0.779239 0.790358 -1.072348 1.031700 1.264318 1.150991 1.542005 0.071402 0.026841 0.450175 0.298930 0.032120 0.921812 
1846 -1.072304 -0.967681 -0.923762 -0.980754 1.288578 0.278884 -0.181332 1.476885 0.848562 1.941394 0.221510 1.408957 -0.143931 -0.130986 -0.492139 1.278770 
72 -1.758069 0.190900 -1.268493 0.126399 0.555512 -1.017423 1.211755 1.433567 0.782497 1.045523 -0.613858 0.641205 0.299513 -0.411404 -0.058650 0.961190 
1832 -1.128954 -1.548373 -0.903738 -0.421871 1.239052 0.433000 0.631512 -0.131144 1.238577 1.097107 0.094515 0.915909 0.208845 -0.933848 -0.497705 1.055146 
2128 0.155939 -0.820023 -1.139173 -0.360688 0.732513 0.079563 0.807009 -0.484785 0.792055 1.042277 -0.330707 0.997772 -0.151288 -0.919479 -0.498055 1.314035 
2424 -0.229754 -1.170198 -1.276367 -0.496844 -0.755482 0.214032 1.920418 -0.360528 -0.122416 2.126890 0.361017 0.717280 0.764892 -0.175739 -0.895730 0.535044 
560 -1.561586 -0.666400 -0.659908 -0.127341 0.639975 -0.113927 1.489066 1.550817 0.507462 1.131827 -0.255055 0.116413 -0.038476 -0.664672 0.776388 0.589087 
439 -1.150367 -0.122507 -0.889863 0.843237 0.788704 -1.077989 1.038036 1.308576 1.120814 1.609942 0.173565 0.257571 0.416583 0.266699 0.073428 0.960046 
669 -1.715501 0.205680 -1.334953 0.193216 0.531013 -0.906858 1.184513 1.393435 0.778478 1.118656 -0.436109 0.270267 0.526082 -0.235380 -0.004980 0.984981 
1468 -0.392871 -1.117275 -0.958407 -0.412153 -0.502216 0.277017 1.951473 -0.539902 -0.247493 2.313673 0.438782 0.453790 0.704495 -0.491412 -0.884875 0.675471 
298 -2.006231 0.009977 -1.223341 -0.055619 0.228473 -0.502038 1.154534 1.550458 0.927782 0.770912 -0.431264 0.928164 0.374902 -0.335500 0.229624 0.670794 
225 -0.849828 -1.169564 -1.477880 -0.868157 0.326639 0.686206 1.146137 -0.186938 1.481542 0.965473 0.577240 0.089080 0.079955 -0.135771 0.106852 2.088685 
64 -0.340027 -1.174070 -0.706780 -0.182812 0.786806 -0.004805 1.479550 0.320953 0.167117 1.874855 0.324464 0.460852 -0.411163 -0.684702 -0.417873 0.268310 
19 -1.912140 -0.704516 -0.419343 0.225006 -0.057978 -1.802096 1.248066 1.097907 0.944075 0.809961 -0.629215 0.208311 0.095529 -0.890168 0.468547 1.502906 
1477 -1.678795 -1.276049 -1.212935 -0.661443 0.927741 0.439132 1.029949 -0.182033 1.146623 1.581472 0.918289 0.463760 -0.654463 -0.603389 0.205923 0.417165 
289 -1.167969 -0.110789 -0.894619 0.917991 0.754860 -1.121406 0.987757 1.260155 1.104955 1.630859 0.156484 0.206737 0.405899 0.301561 0.046697 0.876010 
1859 -0.498411 -1.441962 -1.305500 -0.517587 1.501091 -0.185394 0.077632 0.127314 1.126940 0.981149 0.121892 0.251128 -0.048497 -0.815369 0.216780 1.339566 
269 -1.166554 -1.171917 -0.490823 -0.367488 1.396862 -0.451332 1.545277 1.814608 0.221448 1.752395 -0.252835 0.071833 -0.073303 -0.491921 0.659993 0.965671 
557 -0.255400 -0.518727 -0.863289 0.445655 0.853432 -0.006251 1.805032 1.546358 0.444383 1.750051 0.153365 0.302718 0.261336 0.363358 -0.331208 0.561803 
1729 -1.147323 -1.234433 -0.992587 -0.942095 0.659514 0.342572 1.090318 0.929561 1.175664 1.349267 0.933470 0.941754 -0.671882 -0.272913 0.682853 1.043007 
1504 -0.986451 0.458649 -1.551152 -0.206346 -0.852774 -0.059546 0.965131 1.984266 1.649702 1.205914 -0.090087 0.533575 -0.219541 -1.746517 -0.183822 0.354673 
497 -1.168541 -0.072131 -1.008272 0.819995 0.809568 -1.087039 1.001941 1.280107 1.060791 1.633362 0.067020 0.005442 0.398557 0.314366 -0.001534 0.963295 
331 -1.412737 -0.357967 -0.998384 0.039618 0.716611 -0.718243 1.065925 1.464224 1.129227 0.780510 -0.349032 0.792313 0.123889 -0.609175 -0.141627 0.731646 
384 -1.787686 0.182170 -1.270179 0.020451 0.605994 -1.047320 1.190464 1.509993 0.780620 0.987021 -0.586894 0.696047 0.281463 -0.550952 0.037756 1.005636 
1369 -0.497327 -1.068216 -0.976469 -0.559398 0.643857 0.445819 0.923955 -0.146706 1.015847 1.213949 0.251828 0.769032 -0.096237 -0.356456 -0.458218 1.655993 
2721 -0.001928 -1.394593 -0.985058 -0.057085 1.353950 0.392762 0.045539 0.018229 1.338459 1.307121 0.111200 0.064038 0.151435 -0.495959 0.175353 1.535754 
1297 -1.215654 -1.222907 -0.984936 -0.319565 0.859733 0.334846 0.875800 -0.168133 0.919400 1.449126 0.574124 0.083619 -0.313923 -0.933332 -0.452950 0.334132 
1971 -0.204637 -1.234110 -1.101700 -0.118349 1.376901 0.609495 0.453739 -0.272313 1.192870 0.942796 -0.301005 0.372000 0.455594 -0.837512 0.213952 1.579621 
423 -1.210189 -0.204895 -0.846146 0.801790 0.793429 -1.076618 1.033013 1.308435 1.123940 1.584769 0.113935 0.283018 0.347669 0.237910 0.033050 0.957291 
530 -1.179327 -0.157008 -0.949468 0.909660 0.817139 -1.114376 1.079687 1.245939 1.152567 1.551821 0.169959 0.116130 0.391085 0.265951 0.046502 0.859133 
1479 -0.697293 -1.451264 -0.908853 -0.242848 1.124596 0.800510 0.354160 0.071788 1.266487 1.094147 0.103197 0.432794 0.227718 -0.459977 -0.035202 1.296487 
2560 0.013628 -1.115861 -1.001768 -0.093882 1.375153 0.299117 -0.103314 0.119221 1.381175 1.492623 0.207366 0.184185 0.110329 -0.469939 0.111581 1.619783 
1132 -1.720660 -1.013363 -0.564286 -0.082021 -0.353237 -1.821868 1.432065 1.428138 1.126848 0.477634 -0.708819 0.333275 -0.151805 -1.405558 0.460023 1.530499 
151 -1.486866 -1.193101 -0.435785 -0.002482 1.311599 0.177599 1.045010 0.745231 0.898867 1.217827 0.078412 0.211291 0.312268 -0.389598 -0.861688 1.086006 
3152 -1.194450 -1.605216 -1.548413 -1.229268 0.656604 -0.291481 -0.079783 0.500751 1.151688 1.239452 0.383096 0.035069 -0.705731 -0.739906 0.268217 0.854196 
1743 -0.288831 -1.184790 -1.044568 -0.303254 -0.306496 0.078903 1.946528 -0.522862 -0.298142 2.169947 0.361721 0.259026 0.596931 -0.506657 -0.888709 0.555698 
1175 -0.446376 -0.592240 -0.903721 -0.749879 0.471490 0.118379 1.578097 2.354649 0.745458 2.031788 0.091146 -0.133446 -0.573174 -2.340966 0.276018 0.672483 
88 -0.896724 -1.122809 -0.889616 -0.062628 1.116484 0.826062 0.773131 0.444250 1.439565 0.870507 -0.240894 -0.035150 0.221041 -0.438443 -0.324714 1.396570 
1498 -1.602454 -1.404504 -1.229810 -0.711606 0.387100 0.845788 0.605017 0.025159 1.485190 1.553022 0.339653 -0.006507 -0.472684 -0.396634 -0.135615 0.614056 
2924 -0.892272 -1.419454 -1.473769 -0.793141 0.996389 0.211199 0.717236 0.220707 1.292286 0.752524 0.419637 0.089975 -0.009715 -0.516556 0.128826 1.476300 
373 -1.321906 -0.106492 -1.122320 0.754653 0.749826 -1.065927 0.981246 1.293006 1.111103 1.546325 -0.016785 0.057001 0.470105 0.423507 -0.029333 0.922126 
501 -1.210993 -0.717519 -0.553909 -0.747749 0.600366 -0.125715 1.231363 1.380446 -0.280408 1.912774 0.014692 -0.306206 -0.327276 -1.000048 1.042550 1.008985 
2129 -1.522747 -1.489872 -1.040927 -0.862132 1.375019 0.036022 0.735898 -0.039043 1.214876 1.835211 0.108212 1.034280 -0.590086 -0.935136 -0.780947 0.897497 
252 -1.386960 -1.096090 -1.021777 -0.414326 0.905342 0.832041 1.150629 0.313295 1.154820 0.714278 0.003309 0.205318 0.541758 -0.355058 -0.328079 1.417915 
80 -1.621751 -1.381854 -0.207019 0.181143 1.532224 0.136504 2.042426 1.225279 0.781657 1.808040 0.457774 -0.184660 0.375579 -0.378922 -0.453860 1.027018 
200 -1.129829 -0.935511 -0.615797 0.387185 1.194771 -0.149230 0.966539 0.993879 1.182385 0.894624 0.077610 -0.038361 0.280678 -0.101168 -0.282371 1.061327 
1990 -1.025916 -1.486639 -1.718090 -1.338300 1.095994 -0.643414 -0.158975 0.545797 0.929673 1.254813 0.440548 0.185336 -0.657479 -0.851023 0.089592 1.052485 
246 -1.283061 -0.602066 -0.575274 0.684516 1.032185 -0.454282 1.277230 1.191028 0.816059 1.692122 0.335325 -0.240052 0.366918 0.125937 -0.207459 0.840673 
2255 0.042342 -1.228433 -0.974939 -0.056685 1.436089 0.107089 0.100547 -0.121550 1.262899 1.255150 -0.000752 0.241555 0.131158 -0.723490 0.152968 1.673601 
1398 -1.291578 -1.851776 -0.854434 -0.409743 0.869096 0.561891 0.746682 0.078382 1.622592 1.047414 0.309103 0.489258 0.221363 -0.846816 -0.557775 0.946990 
45 -0.827255 -1.259666 -1.119533 -0.862174 0.398341 0.279945 1.392888 -0.045127 1.091071 1.221160 0.961491 0.924265 -0.361656 -0.219850 0.251414 1.291476 
2021 -0.951747 -1.037510 -1.043610 -0.369576 0.292404 0.931651 1.001799 -0.192010 1.681767 1.487373 0.703322 0.245916 -0.179785 -0.771539 -0.824659 1.098031 
1864 -0.759029 -1.392227 -0.404364 -0.249651 1.306077 0.073546 0.265844 0.703330 0.989257 1.111772 0.086098 1.152653 0.382237 -0.514513 -0.547136 1.549416 
1287 -0.128362 -1.678929 -0.937856 -0.078352 1.234793 0.489742 0.407425 0.042312 1.466661 0.920280 -0.082016 0.171498 0.336820 -0.694584 0.185131 1.507618 
198 -1.092584 -1.519334 -0.878048 -0.219176 0.939981 0.413086 0.663866 -0.098456 1.655273 1.092025 0.373388 0.439895 -0.101242 -1.074387 -0.682176 0.959497 
2449 -0.765287 -1.524696 -0.887152 -0.340002 1.065218 0.651965 0.306227 0.182095 1.413766 1.328762 0.265814 0.457787 0.090345 -0.441901 -0.343781 1.265887 
1833 -0.430715 -0.404731 -0.858734 -0.473309 0.187225 0.780355 1.797809 1.670628 0.805154 1.728161 0.602525 0.478657 -0.729265 -1.217026 -0.560774 0.761736 
905 -1.347640 -0.663765 -1.090416 -0.595228 0.690543 0.540734 1.438040 1.756796 1.179983 0.906360 0.527315 0.283513 -0.346403 -1.170637 -0.141430 0.832925 
1459 -0.445735 -0.993629 -0.762769 -0.154318 -0.192610 0.255209 1.909800 -0.667327 -0.157614 2.237599 0.497909 -0.010142 0.513724 -0.784380 -0.848494 0.667608 
2115 -1.341623 -1.352173 -1.297348 -0.833284 0.370460 0.378013 0.283865 0.030832 1.618904 1.752833 0.649556 0.305647 -0.963432 -0.641883 -0.055173 0.516192 
3181 -1.184462 -1.828622 -1.501661 -1.247824 0.827769 -0.173626 0.503020 0.628170 1.327541 1.183036 0.536301 0.250316 -0.667233 -0.592181 0.450032 0.870921 
2602 -1.215495 -1.928309 -1.504510 -1.600525 1.273932 -0.500305 0.053617 1.201869 0.742140 1.697718 0.317777 0.358093 -0.206859 -0.794419 0.131593 0.776081 
77 -1.440760 -0.605086 -1.132444 -0.230349 1.154271 -0.302233 1.717006 1.583651 1.001735 0.723720 -0.038830 0.610699 0.324476 -0.258155 0.035590 1.292344 
1377 -1.311820 -1.225948 -1.243144 -0.896687 1.037469 0.127263 0.061525 0.283223 0.793028 1.274679 0.685926 0.528755 -0.434190 -0.638004 -0.348190 0.934814 
1918 -1.140151 -1.086841 -1.220781 -0.398629 1.266392 0.914406 0.668127 -0.168455 1.167358 0.936690 -0.104375 0.695636 0.290976 -0.837339 -0.223436 1.101545 
467 -0.098696 0.046022 -1.454754 -0.133393 0.338913 0.327857 1.647649 1.843302 1.283761 1.582153 0.198224 0.417868 -0.851117 -1.397597 -1.194862 0.519377 
2274 -0.792749 -1.405993 -1.000339 -0.216842 1.113367 0.894508 0.590726 0.076120 1.584027 1.119631 0.069213 0.305596 0.039633 -0.669478 -0.272477 1.268380 
1357 -0.444374 -1.239608 -1.207190 -0.658674 0.946670 0.038559 0.529384 -0.162229 1.218042 1.205634 0.541627 0.377592 -0.158857 -0.302576 0.126390 2.119889 
982 -0.502489 -0.581483 -0.385148 -0.129408 1.010485 -0.113344 1.295940 1.620201 -0.418393 1.767299 0.443231 0.491622 -0.019269 -0.738754 0.329904 0.419617 
723 -0.205969 -0.872177 -0.570034 0.121282 1.009027 -0.068662 1.079149 1.015613 0.801984 1.057090 -0.280252 0.808113 0.034173 0.048287 -0.405485 1.136185 
365 -1.647406 -0.187921 -1.037606 0.290879 0.375226 -0.595543 1.074955 1.408063 0.913131 1.134836 -0.136332 0.498094 0.411709 0.227901 0.236038 0.819583 
2239 -1.032427 -0.905483 -1.244935 -0.701725 1.132077 0.166049 0.243033 0.818331 1.446501 1.038815 -0.053624 0.803559 -0.560208 -0.805824 -0.261733 1.046629 
535 -1.808768 -0.836876 -0.234054 0.417357 -0.090589 -1.912804 1.253360 0.976612 1.068136 0.926992 -0.409308 0.166705 0.175974 -0.807505 0.748101 1.487465 
391 -0.280282 -0.667409 -0.910917 0.189930 1.339105 -0.401905 1.080889 1.228919 0.729679 0.978470 -0.078791 0.164896 -0.137705 -0.141243 -0.062160 0.934970 
1643 -0.708961 -0.290361 -0.316610 -0.428208 -0.462853 -0.038812 1.149997 1.164841 0.557828 2.481954 0.194228 0.120975 -0.998822 -1.758040 1.366914 0.612392 
2559 -0.654455 -0.757522 -0.920542 -0.902795 0.278941 0.165960 1.207120 1.960886 0.438938 1.998440 0.259049 -0.562632 -0.461929 -1.974779 0.251320 0.810661 
2327 -0.404853 -1.022956 -0.904567 -0.120790 0.044566 0.092715 1.897866 -0.667234 -0.129533 2.182177 0.479065 -0.107469 0.362893 -0.852627 -0.824920 0.510168 
2495 -0.113575 -1.580165 -0.949059 -0.039460 1.230091 0.350637 0.468953 -0.081105 1.395988 0.868383 -0.111642 0.091137 0.308135 -0.748397 0.152633 1.610659 
888 -1.637312 -0.758688 -0.654297 -0.638188 0.250258 0.364787 1.728066 2.009223 0.861576 1.610657 -0.819062 0.369406 -0.034230 -0.742192 0.573417 0.861448 
2353 0.079283 -0.679459 -1.360580 -0.135135 -0.047856 0.527961 1.744089 1.274873 1.154651 1.675973 0.145002 0.302828 -0.621251 -0.481490 -0.714293 0.181776 
404 -1.694735 -0.490260 -0.477265 0.603430 0.102079 -1.557202 1.123084 0.971451 0.951953 1.155786 -0.229087 -0.217264 0.247780 -0.360793 0.415871 1.337598 
2271 -0.376944 -0.948908 -0.959154 -0.044307 0.270163 0.044577 1.842730 -0.624727 0.074401 2.207163 0.258473 -0.243769 0.133946 -0.902800 -0.945438 0.535802 
2296 -0.512794 -0.995219 -0.807833 -0.143191 0.568596 0.111348 2.080238 -0.454891 0.330592 2.287936 0.681466 -0.149497 -0.065869 -1.025910 -0.809651 0.859000 
18452 -0.446853 0.316056 0.798388 -1.453872 2.613590 0.644807 4.123914 -0.288874 0.075746 -0.956645 3.057227 0.463307 -1.187233 -0.103143 0.868772 1.191332 
392 -1.291934 -0.139114 -0.998963 0.809664 0.798937 -1.050710 1.041873 1.277048 1.171013 1.610919 0.109822 0.077389 0.403382 0.378615 -0.034630 1.006081 
2286 -1.336371 -0.726944 -1.728462 -1.007705 1.041819 0.565449 1.283319 -0.794013 1.213297 1.396709 0.230948 1.029964 -0.412794 -0.880809 -0.141071 1.307059 
276 -0.757130 -0.909145 -0.645094 -0.186005 1.209012 -0.169969 0.355862 1.245282 0.793697 1.105159 0.101165 0.481829 0.484724 0.204975 -0.427553 1.910232 
1494 -1.506686 -1.911958 -1.412615 -1.081311 0.963435 0.120638 0.301562 0.702918 1.195946 0.986844 0.475574 0.091628 -0.222211 -0.794460 -0.270711 0.680523 
421 -1.279326 -0.414538 -0.464647 0.546017 0.264435 -1.334653 0.948147 1.460316 1.224832 1.460484 0.041472 1.319613 1.055883 -0.773325 0.414855 0.371359 
1109 -0.585478 -0.901734 -0.574846 -0.270215 0.720072 0.500410 2.071976 1.569937 0.505529 1.821016 -0.206997 0.638678 -0.235803 -0.583128 -0.512121 0.622496 
3131 -0.674829 -1.560443 -1.251910 -0.596343 1.314553 -0.134764 -0.156115 0.295181 1.055590 1.034626 0.356636 0.177399 -0.033374 -0.605497 0.069343 1.195437 
167 0.071931 -0.698233 -0.946909 -0.120981 -0.062037 0.140537 1.565869 1.760235 1.026273 1.267890 0.548846 -0.283455 -0.975007 -1.677250 -0.275438 0.400862 
296 -0.926664 -0.514720 0.016802 0.424121 0.441621 -0.696133 1.057200 1.284060 0.285968 1.875616 0.288736 0.693445 0.376346 -0.426058 0.970529 0.627881 
2732 -0.498369 -1.302212 -1.017364 -0.681321 0.954656 -0.126223 0.544050 -0.145923 0.980161 1.071031 0.318834 0.697426 0.020602 -0.398426 0.128148 2.139097 
1017 -1.185059 -0.694112 -0.232383 0.632058 0.558606 -0.674348 1.432457 0.985385 0.808206 1.558011 -0.133066 -0.081700 0.004665 -0.226682 1.176104 0.691932 
2511 0.051459 -1.249164 -1.184985 -0.098865 0.766164 -0.011769 2.386328 1.041305 0.681374 1.460563 0.454707 0.993233 0.008519 -0.165089 -0.294776 0.393013 
1801 -0.302927 -0.860873 -0.547422 -0.736681 0.727161 0.068686 0.283237 0.172602 0.679618 1.606197 -0.178242 1.594293 0.697910 -0.720643 -0.799545 3.087383 
1451 -1.498452 -1.595183 -1.031092 -0.814166 0.840901 0.204948 0.595073 0.057284 1.070867 1.355802 0.256955 0.423532 -0.366686 -0.614288 -0.716646 1.076744 
1336 -0.899223 -1.157964 -1.015077 -0.399357 0.666175 0.766756 0.896926 -0.239429 1.090703 1.027164 -0.024103 0.585168 0.134532 -0.691286 -0.481200 1.003983 
1535 0.343478 -1.214717 -2.237926 -0.172990 -0.082556 -0.380987 2.114256 -0.225311 0.452227 1.662248 0.111968 0.563689 0.209161 -0.302733 -0.729096 -0.272197 
1741 -0.062341 -1.067055 -0.987845 -0.275180 -0.326537 0.245473 1.459122 -0.393932 0.730347 1.333967 0.188567 0.799914 -0.069948 -0.562181 -0.763803 0.779481 
623 -0.280349 -0.876394 -0.726336 -0.519114 0.760636 0.143736 1.523072 2.055494 0.528871 1.900032 -0.099210 0.234255 -0.504705 -1.476672 -0.018917 0.351641 
47 -1.278383 -1.636968 -0.600919 -0.146814 1.888259 -0.143247 2.715149 1.923306 1.393245 1.419322 0.859872 0.826622 0.195312 -0.314855 0.215953 1.294171 
1125 -0.486121 -0.573882 -1.196483 -0.407795 1.118404 0.291276 2.301344 1.190784 1.218723 1.214723 0.543062 0.539278 -0.513735 -0.769075 -0.625990 1.395194 
1014 -0.273714 -1.090191 -0.534216 -0.216914 0.376855 0.132485 1.511606 1.272842 0.629916 1.608308 -0.054288 0.343188 -0.514860 -0.367191 -0.507941 0.724644 
1712 -0.802514 0.131731 -1.093862 -0.015989 -0.003665 -0.110656 1.563275 1.702779 1.276386 1.548707 0.103822 -0.260495 -0.962019 -2.357649 0.377982 0.394737 
2503 0.397885 -1.393914 -2.227065 -0.265690 -0.098465 -0.458930 2.072293 -0.070544 0.532809 1.599792 0.097851 0.684296 0.118326 -0.244347 -0.779997 -0.197208 
168 -0.290956 -0.974888 -0.657940 -0.239848 0.580570 0.415455 1.619143 0.843617 0.447982 2.225086 0.047546 0.206518 -0.699388 -0.711126 0.710746 -0.005956 
1447 0.354160 -1.312191 -2.200510 -0.207663 -0.041477 -0.463257 2.052177 -0.032523 0.441834 1.580623 0.170407 0.637710 0.151938 -0.256681 -0.813501 -0.226993 
2902 0.063353 -0.306017 -0.856942 -0.483056 -0.350324 0.757306 0.947844 1.886729 0.542888 2.001858 1.470003 0.269631 -0.501323 -1.515623 0.226786 0.250739 
2739 -0.409419 -1.271769 -1.096480 -0.115674 1.214253 1.052828 0.337601 0.010210 1.258217 1.034479 -0.146377 0.055289 0.411355 -0.410878 0.240919 1.430616 
71 -0.512939 -0.502504 -0.592836 0.743651 0.838956 -0.439258 1.417967 1.444793 0.786937 1.901609 0.241122 0.448619 0.314608 0.310980 -0.128643 0.530092 
1365 -0.797569 -1.538693 -0.809106 -0.327645 1.110054 0.348357 0.373514 -0.010837 1.467513 1.265312 0.253118 0.796202 -0.064229 -0.801602 -0.422491 1.224822 
1449 -0.239233 -0.949746 -0.988386 -0.354625 1.379943 0.375540 -0.035495 0.053533 0.882952 1.428536 0.055911 0.571630 0.195882 -0.437364 -0.033435 1.944096 
1383 -1.227306 -1.166517 -1.022101 -0.350719 0.608405 1.163727 0.692062 0.019156 1.902686 1.459914 0.437432 0.379756 -0.059694 -0.830925 -0.791948 1.055860 
1368 -0.352118 -1.461587 -1.079477 -0.188106 1.048153 0.946812 0.308980 0.100786 1.341197 1.078769 -0.029010 -0.102907 0.451138 -0.318068 0.222514 1.461792 
880 -1.537330 -1.713512 -0.520728 -0.351067 1.259035 0.101865 1.152452 1.151148 0.849943 1.309071 -0.159102 0.082837 -0.082673 -0.392174 0.113371 0.471467 
425 -1.836852 0.254405 -1.332229 -0.103418 0.558033 -0.982448 1.231648 1.577519 0.825386 0.972128 -0.722285 0.681013 0.190473 -0.779043 -0.071696 1.018634 
667 -1.794697 -0.905086 -0.371860 0.152101 -0.368810 -1.947605 1.309735 1.169125 1.158012 0.596801 -0.690504 0.410724 0.176221 -1.175954 0.714035 1.451908 
377 -0.862372 -0.537015 -0.736827 0.145766 1.139998 -0.167095 0.500242 1.472956 0.748835 1.379605 0.204727 0.617576 0.419442 0.362935 -0.335636 1.152717 
240 -0.757654 -1.232311 -1.145057 -1.089896 0.204826 -0.159239 0.616095 1.174731 0.794964 2.071777 0.946113 0.075871 -0.809229 -1.698794 0.863101 0.381984 
411 -0.730873 -1.291642 -1.016763 -0.205716 1.072254 0.593724 0.807980 0.409998 1.131998 0.388489 -0.491779 0.106813 1.296064 -0.483383 0.240215 1.517215 
1723 -0.940833 -1.176866 -0.363451 -0.349603 0.436718 -0.138915 0.589840 0.950765 0.447685 1.504683 0.577694 0.360557 -0.208910 -0.566739 1.176525 0.374136 
1529 -1.203375 -1.600306 -0.842984 -0.782297 0.566508 0.221740 1.406701 1.432892 1.295776 1.133878 0.693099 -0.131065 -0.759526 -1.085929 -0.685654 1.194360 
2905 -0.772492 -0.798320 -0.985476 -0.590493 -0.318159 0.521304 0.674499 1.664538 1.021185 1.563520 1.377978 -0.226533 -0.339788 -1.741356 0.811211 0.187229 
541 -1.039117 -1.591825 -0.379485 -0.525822 0.821157 0.296074 2.048725 1.608167 1.050997 1.068049 -0.179512 1.370023 0.220291 -0.096595 0.344882 1.143024 
2970 -0.036563 -1.441855 -0.941888 -0.029724 1.299785 0.262568 0.307339 -0.041395 1.511670 1.056195 -0.147507 0.160998 0.226920 -0.847980 0.123159 1.566335 
2435 -0.441500 -1.192675 -1.052711 -0.104467 1.258518 0.300832 0.491998 -0.186541 1.597872 1.066076 0.050461 0.460919 -0.067451 -1.162805 -0.311325 1.323155 
740 -1.741223 0.231457 -0.789634 -0.288796 -0.386871 0.319825 1.183820 1.606338 0.383644 1.271594 -0.082811 0.396803 0.295831 -0.886367 0.607605 0.714180 
3162 -0.703839 -0.524307 -0.930207 -0.559781 -0.280997 0.341831 0.779917 1.288800 0.972487 1.608065 -0.251834 -0.659528 -0.914630 -1.481561 0.088004 0.788570 
1359 -0.299621 -1.856794 -0.935913 -0.190653 1.210408 0.632685 0.410330 0.001382 1.341297 0.961941 -0.161809 0.202487 0.759373 -0.567357 0.307018 1.416871 
2337 -0.993787 -0.958888 -0.636999 -0.349648 0.874898 0.597320 1.446536 1.720489 0.881120 1.790880 0.227035 0.076944 -0.566053 -1.294903 -0.588077 0.386088 
643 -1.260565 0.217533 -1.401328 0.587831 0.561782 -0.935036 1.015823 1.322634 0.966063 1.657878 -0.102170 -0.373351 0.883368 0.428635 -0.280378 1.190386 
512 -0.930309 0.004584 -1.218017 0.061797 0.228078 0.304321 1.431415 1.671818 0.557396 1.181683 -0.144713 0.627828 0.224431 0.232943 -0.092234 0.471854 
548 -1.237688 -0.003301 -1.019939 0.766565 0.743904 -0.926030 0.998928 1.315263 0.896807 1.686327 0.170831 -0.202058 0.542603 0.329778 0.017233 1.020143 
1341 -1.179870 -1.031455 -1.934904 -1.361071 0.567610 -0.083676 -0.139129 0.460710 0.762134 1.125663 0.481750 -0.488186 -0.507173 -0.871727 0.122973 1.155297 
894 -1.167835 -0.325626 -0.697326 0.870390 0.664572 -1.222499 0.938837 1.261062 1.130915 1.588726 0.133120 0.376774 0.508696 0.115738 0.234622 0.802869 
2317 -1.355358 -1.678837 -1.248468 -1.132198 0.853652 -0.003824 0.423690 0.463572 1.266247 1.810576 0.273218 0.611279 -0.798065 -0.700593 0.189465 0.434187 
2885 0.144628 -1.391769 -1.876477 -0.311828 -0.247148 -0.338551 2.066727 -0.204655 0.082411 1.672439 0.280880 0.824849 0.362906 -0.188616 -0.723040 -0.042328 
2093 -0.116767 -0.690529 -1.284223 -0.494590 0.035950 0.881963 1.207004 -0.360296 0.806735 1.119741 -0.413243 0.760542 -0.114642 -0.335736 -0.503553 1.175171 
2146 -0.262910 -1.212328 -1.041954 -0.162765 -0.094362 -0.020808 1.943135 -0.591992 -0.055186 2.079635 0.382014 0.123063 0.323443 -0.643904 -0.802398 0.440249 
2472 -0.842751 -1.091219 -1.239325 -1.274948 0.557428 -0.295878 -0.446834 0.729077 0.420834 2.034479 0.934314 0.663154 -0.555505 -0.513364 0.326499 0.816426 
1510 -1.084104 -1.298871 -1.629448 -0.712763 1.283341 -0.136008 0.119933 0.152254 1.358601 0.995588 0.648489 0.193651 -0.452247 -1.337188 -0.383761 0.644527 
20 -0.834633 -0.981264 -0.638748 -0.121633 0.331450 0.177515 1.443417 1.179630 1.489475 0.905992 0.515720 0.293691 -0.506088 -0.868442 -0.807055 0.973155 
2099 -0.553058 -0.960492 -0.934885 -0.537427 0.718841 0.508179 2.024588 0.395620 0.389012 1.665273 1.057328 0.240516 -0.151724 -1.004916 -0.392316 0.949229 
1393 -0.917644 -0.722316 -0.798422 -0.735291 -0.753040 -0.047510 0.785072 0.206692 0.907511 2.437878 0.268473 0.269806 -0.691646 -1.335112 2.198277 0.371000 
2935 -1.058956 -1.100546 -1.621444 -0.811392 1.281716 0.237386 -0.049300 0.038623 0.851889 1.155517 0.335769 0.282147 -0.332895 -0.377187 0.613774 0.825616 
1483 -1.244082 -1.491148 -1.481776 -0.980936 1.454817 -0.098047 0.441664 0.366740 1.559994 1.859433 0.243324 0.551553 -1.171803 -1.310170 -0.593204 0.514931 
2078 0.136678 -1.101111 -0.975106 -0.129204 0.809739 0.341731 0.820334 -0.271050 1.148449 0.950011 -0.409910 0.507256 -0.108612 -0.821333 -0.244709 1.362338 
1997 -0.554239 -0.838278 -0.973723 -1.190172 0.729391 -0.238035 0.630394 0.254706 0.832775 1.582535 0.320556 1.498038 0.113028 -0.628470 -0.680795 3.116887 
2368 -0.691541 -1.487022 -0.934413 -0.207270 1.225725 0.381273 0.551396 -0.019723 1.492664 0.962621 -0.056647 0.552496 0.032531 -1.016855 -0.346648 1.224303 
3132 -0.954114 -1.487239 -1.293269 -0.885778 1.324982 -0.363361 -0.326608 0.523341 0.865205 1.047004 0.674625 0.426693 0.094989 -0.554625 0.032606 1.376680 
437 -1.566753 -0.232923 -1.039211 -0.132371 0.552237 -0.871858 0.945211 1.521809 1.194165 0.592698 -0.487929 1.410420 0.385921 -0.991335 -0.129310 0.644108 
1042 -0.753655 -1.361619 -1.247596 -0.859190 1.027619 -0.000258 0.934033 0.745451 1.007422 1.054363 0.133632 0.145978 -0.635915 -0.513901 -0.077320 1.166992 
479 -1.104345 -0.208321 -0.646150 0.948777 0.744987 -1.122258 1.089550 1.178557 1.096049 1.728420 0.228778 0.442659 0.429105 0.077218 0.204702 0.740022 
2441 -0.747779 -0.980611 -0.950576 -0.639069 0.318865 0.414974 2.426570 -0.909208 -0.779011 2.982280 0.331040 0.611616 0.830373 -0.697092 -0.322121 0.662528 
2164 -0.123143 -1.507747 -0.938385 0.034400 1.247986 0.369043 0.347659 -0.034391 1.533292 0.917278 -0.150281 0.128544 0.390878 -0.765685 0.064321 1.575687 
2177 -0.843530 -1.426312 -0.560513 -0.187888 1.322025 0.422378 0.338103 0.536681 1.259449 1.241959 0.212651 0.823641 0.154379 -0.442009 -0.474880 1.295571 
408 -1.214159 -0.168324 -0.772784 0.911818 0.686806 -1.063275 0.941524 1.254812 1.084591 1.669226 0.212200 0.243018 0.466992 0.217599 0.138871 0.773266 
1845 -0.781850 -1.365522 -0.896974 -1.065701 0.902195 0.141868 1.422897 1.074103 0.636794 1.685189 0.342403 0.402208 -0.761328 -0.006402 -0.113474 1.703301 
2735 0.088115 -1.262183 -0.943642 -0.107143 1.300977 -0.092489 -0.250730 0.109597 1.453837 1.563994 0.446847 0.242770 0.087398 -0.495322 -0.050562 1.719437 
263 -1.060910 -0.351041 -0.556695 0.872028 0.562736 -1.172127 0.891758 1.243811 1.264159 1.725661 0.193609 0.563425 0.684405 0.018346 0.266057 0.683574 
147 -0.990215 -0.782007 -0.391984 -0.164646 0.394250 0.194848 1.085376 1.458308 0.297111 1.463696 0.049223 0.049345 -0.332237 -0.816577 -0.315252 0.516199 
996 -2.041519 -0.832481 -0.141344 0.410224 -0.466724 -1.811810 1.537022 0.798517 0.800688 1.012924 -0.636768 -0.459552 0.194443 -0.896158 0.568879 1.917762 
2125 0.046380 -1.122283 -1.097432 0.046506 1.084720 0.726742 0.134115 0.002412 1.860383 1.407853 0.253119 -0.054809 -0.016052 -0.761691 -0.010332 1.511132 
599 -1.239876 -0.082370 -0.942718 -0.221334 0.807633 -0.540694 1.292372 1.849780 0.469596 1.128184 -0.127310 0.534693 -0.025735 -1.477738 0.048728 0.701913 
481 -1.579706 -0.102390 -1.119160 -0.073781 0.205120 -0.936013 1.117144 1.866534 1.272713 0.844594 -0.483041 1.449643 0.234135 -1.106327 0.020029 0.434380 
1804 -1.588631 -1.165694 -1.548136 -0.780289 1.271190 0.677454 0.630381 0.256053 1.390753 1.780990 0.395539 0.163509 -0.886061 -0.825045 -0.052878 0.275255 
473 -1.171093 -0.927670 -0.426792 -0.484886 0.889627 -0.362779 1.155048 1.831943 0.009203 1.528107 -0.293221 -0.048879 -0.098815 -1.327879 0.446336 0.734001 
1892 -1.170246 -1.584556 -1.519009 -1.295439 0.081002 -0.058591 0.469243 0.700930 1.366673 1.952109 0.063376 -0.495533 -0.949441 -0.847989 0.686826 0.748591 
2299 -1.004520 -1.214576 -1.008255 -0.303288 1.317387 0.604365 0.512237 -0.024684 1.384823 1.173567 0.224829 0.762163 -0.130383 -0.918258 -0.536489 1.124567 
2167 -0.258885 -0.286631 -1.351198 -0.334912 0.005559 0.778766 1.519856 1.587456 1.545348 1.038656 0.834157 0.440664 -0.775721 -0.964338 -0.557808 0.662526 
884 -1.563207 -1.704123 -1.213814 -1.296216 2.042430 0.232293 2.646354 1.837084 0.781365 1.724305 0.826298 0.258577 -0.434149 -0.579033 0.249825 1.647990 
744 -0.331761 -0.486391 -0.669721 0.724560 0.899036 -0.255487 1.580328 1.391407 0.707761 1.702244 0.259501 0.454675 0.237564 0.366460 -0.109152 0.616915 
1570 -0.364219 -1.287601 -1.060263 -0.555650 0.712651 0.527612 1.998956 0.697281 0.657197 2.473137 -0.327520 0.216065 -0.845747 -0.552178 -0.009318 0.219239 
400 -0.817150 -1.595911 -0.464222 0.127285 0.878924 0.197921 0.692096 1.034737 1.441318 0.582736 -0.064309 0.225759 0.736548 -0.054802 0.162728 1.087922 
1650 -1.411219 -2.018831 -0.049703 -0.125827 -1.431380 -1.942150 1.656633 1.339470 1.310141 0.557282 -0.818596 0.124961 0.596113 -1.718784 1.312598 1.836033 
2363 -0.155654 -0.819340 -1.043701 -0.179805 0.160300 0.683186 1.051135 -0.377974 1.163795 1.312209 -0.090938 0.366983 -0.379829 -0.570474 -0.706826 1.035650 
2512 0.351591 -1.349110 -2.172368 -0.154006 0.031948 -0.497868 2.101307 -0.000265 0.523198 1.560491 0.152406 0.741017 0.114741 -0.313959 -0.816394 -0.289793 
1509 -0.996353 -1.139835 -1.274674 -0.567621 0.999825 0.441743 0.938815 -0.220304 1.373710 0.906753 0.371041 0.582463 -0.174921 -0.915188 -0.333477 1.434831 
1973 -1.288154 -1.596733 -1.410506 -1.188990 0.856248 -0.321343 -0.016612 0.306939 1.026376 1.031080 0.410320 0.773979 -0.411563 -0.876293 0.478965 0.660637 
1391 -0.859029 -1.175761 -0.769008 -0.144931 0.136125 0.479308 1.060418 -0.530127 1.159513 1.563079 0.433235 -0.001008 0.068021 -0.896230 -0.980645 0.784983 
2931 -1.077034 -0.854101 -1.860630 -0.789206 1.519139 0.519186 0.094909 0.137845 0.760115 0.804548 0.105324 0.136611 0.089735 -0.800258 0.211020 0.959047 
1717 -0.412522 -0.022109 -1.142305 -0.596204 0.171238 0.275940 1.217322 2.231128 0.399789 1.735624 0.587888 -0.503529 0.088650 -2.568400 0.207122 0.526795 
850 -1.786152 -0.921315 -0.581152 -0.146867 -0.464177 -1.421700 1.650820 1.479322 0.989107 0.566682 -0.809667 -0.007324 -0.228359 -1.442581 0.021318 1.835241 
730 -1.096143 0.237115 -1.470724 -0.306290 -1.538841 0.356411 0.952528 1.935313 1.863162 1.108756 0.147737 0.580012 0.205238 -1.457053 0.249848 0.172193 
2236 -1.543417 -1.246690 -1.114258 -0.670139 0.888552 0.404471 1.450872 0.787511 1.452379 0.793606 0.896108 0.236095 -0.244496 -1.108850 -0.575656 1.058912 
568 -1.205656 -1.099743 -0.471776 -0.412038 1.386666 -0.475618 1.672696 1.888674 0.383208 1.765546 -0.493653 0.325221 -0.210325 -0.713384 0.668173 0.945622 
55 -0.101790 -1.418118 -1.047588 -0.060353 1.444246 0.349016 0.514080 -0.258815 1.281110 0.886874 -0.367827 0.286203 0.369139 -0.893537 0.229954 1.669417 
1229 -0.245797 -1.209854 -0.955704 -0.270388 0.755550 -0.096461 1.626217 0.227735 -0.240938 1.896366 0.483574 -0.208025 -0.214137 -1.077870 -0.632367 0.293202 
2395 -0.505723 -0.684012 -0.617762 0.052816 0.172364 0.536525 1.918780 0.161457 0.537150 1.952588 0.419285 -0.197966 -0.014992 -1.125881 -0.896952 0.667434 
1726 -0.146096 -1.402526 -0.808314 -0.242380 1.257382 0.068133 0.004433 -0.022665 1.030652 1.283449 0.171933 0.463392 0.226127 -0.378590 0.191528 1.862441 
2375 -0.288416 -1.373490 -1.200143 -0.986666 1.273626 0.227406 2.041535 1.371811 0.509322 2.173109 0.578543 0.331983 -0.844368 -0.848020 -0.259373 0.833490 
1574 -0.012106 -1.294727 -1.261850 0.186938 0.829227 0.080850 2.266084 0.750887 0.558053 1.622291 -0.001518 0.377602 -0.286769 -0.185923 0.131540 -0.309473 
102 -1.331170 -0.055432 -1.061450 0.776154 0.737754 -1.066921 1.070286 1.301706 1.123129 1.611843 0.020402 0.078951 0.430164 0.348628 -0.051264 0.971503 
2103 -0.324092 -1.035035 -1.009829 -0.304924 1.376672 0.484834 0.094465 -0.057485 0.955365 1.345693 0.019885 0.539584 0.192040 -0.349510 0.135771 1.837979 
1512 -0.891349 -1.538680 -0.242209 -0.590570 0.350249 0.520376 1.604049 1.106487 -0.083748 2.120779 -0.196110 0.055254 -0.189364 -0.326970 -0.397594 0.797473 
2122 -0.255288 -1.571484 -1.006447 -0.155378 1.297323 0.498907 0.462094 -0.102414 1.239297 0.841743 -0.205243 0.210082 0.461708 -0.782394 0.197317 1.572208 
329 -1.310552 -1.064708 -0.613383 -0.813030 1.102360 -0.114169 1.491841 1.653446 -0.190454 1.506579 0.521252 -0.021963 0.035030 -0.659864 0.748913 1.256915 
2434 -1.204676 -1.266761 -1.382276 -1.088931 0.915062 -0.106004 1.400269 -0.263474 1.252726 1.051479 0.837275 0.856028 -0.303863 -0.627241 -0.083380 2.081791 
1168 -0.316402 -0.889865 -1.193713 -0.390256 0.716696 0.783849 2.677655 0.594704 0.975190 1.906265 0.823959 0.810766 -0.590707 -0.446679 0.427959 0.658758 
2151 -0.881379 -0.979227 -1.735325 -1.359695 0.628737 -0.090156 -0.104179 0.495582 0.986029 1.683919 0.548138 0.337397 -1.020082 -0.913997 0.118949 0.876428 
1062 -0.891992 -0.987223 -0.398561 -0.580215 -0.089797 -0.042138 1.392724 1.668979 0.000752 1.517744 -0.468930 -0.522050 -0.190435 -0.702828 0.148477 1.276632 
2264 -0.153005 -1.579839 -0.806806 -0.299798 1.216131 0.190934 0.120923 -0.031604 1.085941 1.313586 0.110834 0.543676 0.335142 -0.251921 0.218409 1.822410 
851 -1.492441 -1.156303 -0.676425 -0.233809 1.192449 0.518750 2.587755 1.146503 0.914967 1.439642 0.278265 0.008817 -0.322508 -0.286998 1.610659 0.982789 
158 -0.180927 -1.034468 -1.133348 -0.271017 0.134977 0.702971 1.556488 -0.066812 1.287159 1.121481 0.218854 0.689167 -0.673499 -0.305623 0.102371 0.697431 
858 -0.470443 -0.872825 -0.707724 -0.031819 1.031868 -0.114365 0.974363 1.507510 0.464594 1.028236 0.243696 0.228294 0.134152 -0.634959 -0.006813 0.356719 
1218 -1.147949 -1.574335 -0.208572 -0.681517 0.222630 1.125338 2.307730 2.115816 1.087932 2.152939 -0.208678 1.187587 0.224717 -0.582587 -0.219565 0.634870 
2648 -1.559359 -0.078439 -1.117586 -0.075312 0.105401 -0.907738 1.089973 1.826812 1.258170 0.838795 -0.467739 1.382796 0.168388 -1.081619 0.103232 0.423973 
268 -0.934074 -0.525508 -0.899812 0.641060 0.805135 -0.361456 0.916872 1.102082 1.238167 1.280115 0.130321 -0.488956 0.443891 0.494307 0.005700 1.092726 
146 -0.733954 -1.625680 -1.334036 -0.522372 0.984761 0.386945 0.230844 -0.247332 1.456607 1.263718 0.210758 0.270737 -0.263028 -0.294412 0.734614 0.935254 
2769 -0.108937 -1.006255 -0.949499 -0.356025 1.287241 0.084290 0.232603 -0.277554 0.850142 1.149724 -0.215285 0.750387 0.385174 -0.799163 0.104085 2.160205 
2507 0.139957 -1.181778 -1.374469 -0.320906 0.182248 0.075060 1.363911 -0.280319 0.669979 1.037233 -0.397024 0.683436 -0.119546 -0.383854 -0.538326 0.559996 
1419 -0.963563 -0.824631 -1.750864 -1.007015 0.729415 0.552773 1.270646 -0.396217 1.237400 0.955941 0.464942 0.408369 -0.089231 -0.336690 0.196268 2.068507 
3122 -0.066913 -1.446743 -1.115746 -0.123031 1.338615 0.406151 0.392043 -0.107915 1.347856 0.943571 -0.308062 0.210477 0.319703 -0.802279 0.151716 1.526618 
308 -1.472861 -0.746773 -0.415774 0.600801 1.047150 -0.233401 1.342382 1.189322 0.660703 1.784553 0.444657 -0.284501 0.446069 0.017034 -0.303493 0.757271 
2056 -0.332611 -1.448493 -1.033602 -0.140104 1.384565 0.525280 0.495962 -0.142838 1.253100 0.784563 -0.314058 0.471780 0.767413 -0.941735 0.267222 1.415206 
2268 -0.974943 -1.386093 -0.932937 -0.973193 0.994024 0.244126 1.321547 1.951216 0.873950 2.028863 0.318904 -0.102660 -0.529036 -1.801147 -0.083140 0.556701 
1000 -0.287275 -1.028406 -0.483655 -0.096175 1.275862 -0.030917 -0.026776 1.084256 0.957591 1.462041 0.132090 0.404022 0.329190 0.101469 -0.406978 2.153369 
362 -0.768074 -0.582692 -1.176445 -0.886646 1.169685 0.366873 0.070503 0.981293 0.406666 1.608815 -0.228138 0.270256 -0.092349 0.168889 -0.266455 2.042339 
1 -1.356324 -1.404052 -0.408648 -0.123643 -0.915870 -1.795634 1.383745 1.499440 1.386299 0.343983 -0.865348 0.335182 0.052515 -1.708228 0.841863 1.502235 
2109 -0.822919 -0.958236 -1.079013 -1.445820 0.533738 -0.255043 0.807487 0.226100 0.803297 1.568622 0.567873 1.696683 0.308852 -0.508354 -0.865287 3.368773 
103 -1.345539 -0.939121 -0.400437 0.456099 1.412686 -0.189174 1.150752 0.826304 0.995533 1.299829 0.227407 -0.003328 0.163879 -0.345079 -0.476439 0.861529 
2340 -1.253575 -1.626963 -0.817279 -0.266053 0.866787 0.601970 0.762086 0.008915 1.679841 1.091457 0.323464 0.536569 0.091833 -0.968081 -0.633793 0.836089 
469 -1.259782 -0.311774 -0.779552 -0.529249 0.229200 0.202167 1.076311 1.814436 -0.010772 1.325948 -0.102630 -0.535825 0.045828 -1.406466 0.265120 0.882041 
608 -0.128685 0.021931 -1.591165 -0.160810 0.565958 0.278910 1.792812 1.989590 0.888813 1.429374 -0.172904 0.611198 -0.497162 -0.740569 -1.003365 0.489296 
2118 0.129133 -1.862361 -0.948049 -0.364044 -0.414178 -0.306477 1.698950 1.316415 0.555021 1.392860 -0.015146 -0.199301 -0.351190 -0.559997 -1.491814 0.932057 
23 -1.403893 -1.107340 -0.753073 -0.717188 -0.634898 0.451773 1.362589 1.074717 1.315570 2.172732 -0.340129 -0.450361 -0.545410 -1.179407 1.472890 0.472893 
2382 -0.816016 -0.867186 -0.916467 -0.268147 -0.082279 0.989779 0.881005 -0.344119 1.511248 1.727482 0.635640 0.074917 -0.082560 -0.836759 -1.090390 0.998431 
520 -1.179123 -0.099751 -1.043295 0.794757 0.784577 -1.133423 1.000741 1.317451 1.089217 1.557119 0.133054 0.104686 0.451620 0.333398 -0.016128 0.951943 
2558 -0.477499 -0.056974 -1.003781 -0.596680 -0.074245 0.231439 1.117633 2.014748 0.389922 1.795547 0.329488 -0.630876 -0.297203 -2.341083 0.053534 0.718160 
429 -1.429520 0.348186 -0.574904 -0.115365 0.499625 -0.478690 1.219148 1.571931 -0.078031 1.682159 -0.230406 0.589067 -0.167091 -1.251679 0.489782 0.842571 
1022 -1.449699 -0.042402 -0.975627 -0.119722 0.929552 -0.752676 1.268557 1.618557 0.343314 1.008735 -0.240923 0.465530 0.048958 -1.122336 0.154370 0.858482 
1533 -0.122942 -1.187351 -1.207027 -0.680142 0.718778 -0.014518 2.500405 2.138417 1.599627 1.130107 0.986079 0.519077 -0.981465 -1.124593 -0.711786 1.578583 
22 -1.607042 -1.443026 -0.003233 0.191165 -0.907054 -2.282159 1.318113 1.030161 1.356996 0.581773 -0.802684 0.475389 0.525181 -1.427790 1.414018 1.516594 
412 -0.522363 -0.992310 -0.778106 -0.585350 -0.302346 -0.016946 1.237671 2.241413 1.104161 1.239529 0.410856 -0.190755 -0.448311 -1.965952 0.237578 0.662051 
250 -0.923360 -1.227531 -1.615871 -0.988273 0.592373 -0.061464 1.589897 -0.182643 1.904047 1.013871 1.107973 0.456286 -0.492625 -0.639727 -0.130134 2.244200 
375 -1.744800 -0.904806 -0.456588 0.127485 1.351347 0.389629 1.773989 1.180259 0.627035 1.716190 0.085161 -0.487036 0.442170 -0.783956 -0.797085 0.768867 
1680 -1.768715 -1.337304 -0.931107 -0.695413 1.190051 0.627586 1.319629 0.416849 0.723624 2.366369 0.685896 0.153755 -0.731860 -0.889552 0.385914 0.181203 
1782 -1.097828 -0.982554 -1.170338 -0.984638 0.967588 0.363246 2.134073 1.713006 1.147449 1.545856 0.707351 -0.059411 -1.088466 -1.314316 0.355341 1.369119 
584 -1.178903 -0.268570 -0.860943 0.824512 0.795017 -1.053458 0.895361 1.311524 1.134528 1.604263 0.268650 0.211209 0.435616 0.294279 0.073361 0.813747 
2189 -0.460638 -0.983341 -0.465218 -0.467694 0.824211 0.138515 1.010595 1.220128 -0.113365 2.067160 0.826805 0.368514 -0.336187 -1.023632 0.053230 0.298580 
2642 -0.861185 -1.221654 -1.214500 -1.293665 0.871894 0.144012 1.648820 1.935415 0.849874 1.841143 0.604243 -0.117480 -0.798288 -1.321057 0.266258 1.314932 
2932 -0.790005 -0.244038 -1.441490 -0.471820 1.375064 0.165507 -0.008699 0.704598 1.074735 0.983518 0.201893 0.570882 -0.256427 -1.173229 -0.468988 0.908916 
1147 -1.359056 -1.055924 -0.108529 0.016130 0.300200 -0.229413 1.093071 1.419109 0.432671 1.263041 0.447951 0.333763 0.254237 -0.904395 1.458820 0.211735 
1958 -0.292468 -1.398426 -0.945389 -0.256905 1.403351 0.212363 0.282961 -0.206661 0.970137 1.049213 -0.134860 0.483039 0.370718 -0.639031 0.211185 1.794713 
2998 -0.828578 -1.452945 -1.642023 -1.347747 0.913328 -0.547240 0.246353 1.027383 1.077756 1.594571 0.452775 0.130992 -0.718194 -1.477889 0.381119 0.603801 
99 -0.456159 -1.071843 -0.923203 -0.209631 0.392880 0.641638 1.006026 -0.264651 1.163008 1.136439 0.032282 0.298654 -0.148929 -0.646499 -0.657184 1.063489 
1269 -0.610808 -0.975339 -0.553989 -0.103939 -0.023447 0.470281 1.992850 -0.562029 0.006022 2.387589 0.473293 -0.182085 0.564898 -0.961277 -0.912609 0.787022 
2728 -0.446433 -1.247717 -1.099505 -0.106536 1.265576 1.036524 0.326329 -0.139559 1.201080 1.094311 -0.164054 0.102803 0.472928 -0.391856 0.292766 1.453895 
2285 -0.749020 -0.991511 -0.848074 -0.723515 0.649357 0.281927 1.201524 -0.125762 0.728096 1.775270 0.712652 0.876723 -0.190761 -0.342938 -0.830269 1.675870 
1908 -1.241285 -1.367764 -1.024775 -0.401644 0.913991 1.165828 0.700398 0.023418 1.404207 1.066939 0.123859 0.535790 0.464889 -0.573607 -0.317125 1.117799 
786 -1.525907 -0.912460 -0.396715 -0.517924 1.341650 0.263788 2.042844 1.666736 0.727384 1.832104 0.379922 0.706711 -0.578711 -0.898371 0.030845 1.109203 
1435 -0.811284 -1.681195 -0.819930 -0.223555 0.927128 0.532131 0.609949 0.104705 1.806823 1.167895 0.434381 0.373741 -0.141546 -1.018335 -0.589783 1.115356 
354 -1.036761 -0.375559 -0.501584 0.845506 0.556792 -1.145955 0.933104 1.357205 1.206106 1.722294 0.328807 0.603411 0.673948 -0.143501 0.278722 0.632834 
1456 -0.502742 -1.390399 -0.517025 -0.137401 -0.048932 1.263844 0.992067 -0.036323 1.527010 0.881592 0.138762 0.775356 0.587152 -0.643804 -0.475288 1.327436 
518 -1.370494 -1.082985 -0.371227 -0.627220 1.223588 0.151816 2.228926 1.803659 0.226236 2.098460 0.256185 0.457638 -0.164457 -0.066817 0.982202 1.477731 
94 -1.213483 -0.045234 -1.097621 0.842239 0.697812 -1.089059 0.968429 1.281127 1.167320 1.615020 0.106611 -0.005505 0.466652 0.484669 -0.102896 1.003640 
911 -1.193493 -0.208245 -0.735890 0.885727 0.709878 -1.114374 0.996939 1.208728 1.109705 1.599073 0.231316 0.450941 0.495591 0.088846 0.087950 0.710558 
92 -1.140892 -1.663929 -1.523673 -0.969585 0.954195 -0.063480 0.440984 0.411867 1.294528 0.841399 0.989865 0.079027 -0.297539 -0.908114 -0.244178 1.036289 
2800 -0.177151 -1.786543 -0.828841 -0.004427 1.156227 0.425988 0.393486 0.144999 1.615594 1.009819 0.076808 -0.060146 0.341900 -0.591902 0.130053 1.539487 
1517 -0.157654 -0.338697 -1.586406 -0.614503 0.165861 1.162032 1.256205 -0.484894 0.683016 1.472068 -0.714388 0.663913 -0.119886 -0.169911 -0.454683 1.172063 
2354 -0.097497 -1.138641 -1.427219 -0.089956 0.218418 -0.209940 2.043634 -0.381186 0.201919 1.942820 0.223546 0.034175 0.059342 -0.666313 -0.807902 0.236811 
1935 0.001799 -1.387252 -1.064277 -0.032300 1.290884 0.284735 0.328250 -0.069289 1.450126 0.973945 -0.147218 -0.003885 0.137203 -0.850903 0.109029 1.596950 
1521 0.310929 0.188731 -0.647186 -0.542879 -1.731115 0.947747 0.346659 1.550940 0.909864 3.334300 1.872528 0.599265 -0.343066 -1.748084 1.299793 0.226889 
791 -1.527529 -1.529145 -0.775807 -0.907638 1.352203 0.052539 1.554470 1.453066 0.254583 1.494690 0.794478 -0.090657 -0.121604 -0.895497 0.026091 1.046308 
1566 -0.724961 -0.909838 -0.666756 -0.049208 0.417869 0.217958 1.743552 -0.750500 0.277115 2.602422 0.631718 -0.437796 0.227459 -1.233035 -1.127780 0.783355 
1326 -0.969705 -1.229557 -1.526889 -1.182067 0.237630 -0.239375 -0.171393 0.229992 1.243512 1.614671 0.681318 0.245060 -1.173808 -0.896479 0.653361 0.761154 
36 -1.067072 -0.910370 -1.041358 -0.233060 0.991726 0.006586 0.717421 1.251376 1.031614 0.343060 -0.163975 -0.136284 0.116122 -0.709230 -0.077578 0.873576 
820 -1.814394 -0.053912 -1.132341 -0.060548 0.138762 -0.818950 1.105604 1.716466 1.214671 0.727782 -0.456683 1.236790 0.313432 -0.945950 0.240061 0.496735 
1548 -1.543477 -1.309561 -1.158865 -1.059686 0.805661 0.572925 0.383345 0.299976 0.834210 1.747839 0.169923 0.437776 -0.226456 -0.155422 -0.800122 1.335589 
1215 -0.039559 -0.499334 -1.292607 -0.615874 -0.516110 0.850065 2.100004 1.858669 0.751857 1.758309 0.421367 1.499809 0.362438 -0.354774 -1.053243 0.828618 
732 -1.086702 -0.378235 -0.740370 -0.395572 0.793963 -0.309441 1.436266 1.954029 0.282459 1.319788 -0.230777 0.269104 -0.177358 -1.693819 0.310130 0.703671 
112 -0.631390 -1.642373 -0.950830 -0.783313 0.918251 -0.162064 2.167530 0.989761 0.949212 1.237810 1.215205 0.258340 -0.447444 -0.829923 -0.435185 1.569149 
883 -1.802027 -0.659511 -1.328061 -0.511775 0.572549 0.277544 1.998255 2.097320 1.524383 0.643150 0.382632 1.083463 0.030410 -0.486265 0.154304 0.848040 
1999 -0.201108 -1.182382 -0.874671 -0.369272 1.171695 0.421187 -0.141713 0.155501 1.037332 1.639508 0.364197 0.458254 0.218082 -0.128563 0.031272 1.922127 
1552 -1.102272 -0.950416 -1.331429 -0.893134 0.486018 0.482698 -0.493986 -0.224158 0.978586 1.589432 1.080740 1.078972 -0.274158 -0.213657 0.511209 0.774823 
1933 -0.113438 -0.876147 -0.636130 -0.656062 0.897253 -0.115257 0.187230 0.198571 0.725782 1.590108 -0.106128 1.459240 0.600596 -0.789868 -0.737863 2.928818 
1959 -1.274963 -1.339061 -1.045087 -0.362096 1.000328 0.913904 0.729758 -0.116603 1.401806 1.056844 0.172816 0.510881 0.134537 -0.766037 -0.448571 1.031639 
1660 -1.151139 -1.692066 -1.640337 -1.224111 0.589891 -0.255380 0.137879 0.568399 1.162186 1.217579 0.224337 -0.209332 -0.681480 -0.721909 0.436279 0.683626 
5 -1.865778 -1.399484 -0.074057 0.108059 -0.738802 -1.871019 1.628344 1.019003 1.024916 0.736146 -0.723213 -0.042865 0.286093 -1.208957 0.810765 1.983062 
75 -1.262345 0.015292 -1.234531 0.735780 0.699934 -1.011214 1.051588 1.317838 1.100895 1.525321 0.013154 -0.205488 0.572645 0.394584 -0.161191 1.081923 
2519 -0.123190 -1.393252 -0.752037 -0.687783 0.998366 0.034078 1.462557 1.168283 0.899716 1.807049 0.115389 1.076362 -0.537090 0.145309 -0.302198 1.251989 
163 -1.462319 -1.201441 -0.522432 -0.451773 0.229139 0.193487 1.697532 1.831024 1.311376 1.471665 -0.271889 0.047371 -0.695813 -1.146454 -0.426396 0.888575 
16 -0.537171 -0.581303 -0.720339 0.176035 0.965269 0.503693 2.091656 1.324570 -0.174246 1.777764 0.111813 -0.770109 0.063456 -0.361450 0.731257 0.376947 
1454 -1.546650 -1.252973 -1.225722 -0.798342 0.572701 0.572553 0.868468 0.174861 1.142272 1.765187 1.170270 0.133390 -0.867785 -0.653156 0.228195 0.529500 
1068 -0.590529 -0.561539 -1.086907 -0.655002 1.671230 0.444040 2.452355 1.348783 0.341542 2.094350 0.646554 0.766582 -0.590766 -0.959441 -0.018340 0.864468 
1358 -1.094692 -1.680762 -1.448329 -1.165014 1.544796 -0.114018 0.469306 0.339910 1.246704 1.379420 -0.562441 1.024467 -0.340347 -0.573275 0.327152 1.139471 
2399 -1.359918 -1.414140 -1.439528 -0.868149 0.903564 0.236428 1.009819 0.727792 1.178759 1.240138 1.111533 -0.238063 -0.578788 -1.133042 0.171577 0.514161 
244 -1.649072 -1.732172 -1.309341 -0.836534 1.209230 0.290270 0.632894 0.380964 1.341286 1.452426 0.407273 0.293430 -0.567371 -0.828013 -0.161152 0.259164 
1453 0.332361 -1.215110 -0.679315 -0.129976 0.544616 0.196454 0.358595 0.012599 1.244877 1.527394 0.208712 0.782992 -0.323482 -0.499858 -0.638786 1.250571 
2430 -1.020662 -1.495253 -0.812423 -0.464789 1.101571 0.297958 0.421471 -0.103301 1.077106 1.085614 0.233488 1.023318 0.366641 -0.784644 -0.395904 1.246187 
2028 -1.010279 -0.994823 -0.749017 -0.268355 0.749292 0.374507 2.092843 -0.525564 0.727468 2.466867 0.966722 -0.108489 0.082700 -1.058570 -0.766351 1.060525 
1943 -0.226443 -1.764193 -0.970794 -0.108368 1.212021 0.424922 0.357324 -0.002158 1.421445 0.906993 -0.132911 0.078819 0.432022 -0.593682 0.240977 1.486393 
645 -1.464509 0.001629 -1.071899 0.437384 0.609096 -1.117545 1.069502 1.325778 0.945649 1.191683 -0.344588 0.567955 0.266014 -0.166272 0.153807 0.783743 
1730 -1.668897 -0.965632 -0.354099 0.034253 -0.609187 -2.004864 1.233570 1.355554 1.194820 0.534743 -0.829301 0.725629 0.182558 -1.442438 0.884971 1.240728 
2408 -1.298916 -1.028981 -1.006706 -0.636340 1.543565 0.683212 2.167022 -0.042152 0.229271 2.857926 -0.123018 0.489579 -0.688410 -0.661969 0.337590 0.260063 
305 -1.129977 -0.090315 -1.044113 0.792980 0.712198 -1.053964 1.070278 1.318907 1.055917 1.671719 0.060198 -0.102936 0.454751 0.412091 -0.069997 1.041891 
432 -0.224265 -0.948887 -0.997910 -0.320157 0.378977 0.172749 2.276057 0.012840 0.451696 1.972983 0.854466 0.452314 0.063451 -0.751329 -0.519827 0.874031 
1461 -0.317624 -1.499286 -0.525265 -0.640378 0.854470 0.044638 0.005302 0.350400 0.900349 1.623090 0.273771 1.072849 0.704551 -0.226033 -0.352356 2.618931 
1900 -1.270923 -1.046313 -0.938336 -0.567542 -0.090903 0.444651 1.410325 1.055738 1.375666 1.912585 0.109043 -0.378417 -0.629597 -1.415995 1.587451 0.258719 
2201 -0.497589 -0.962971 -0.938964 -0.593614 0.741413 0.624753 2.769242 0.446876 1.035417 2.066550 1.305787 0.739776 0.014595 -0.794107 -0.377326 1.589387 
1249 -0.499883 -0.888186 -1.327739 -0.613028 1.020034 0.562340 2.214564 0.960631 0.705164 1.726305 1.117624 -0.084711 -0.851881 -0.975766 0.717358 0.647523 
474 -1.180679 -0.117374 -1.006095 0.813584 0.779119 -0.990582 1.050473 1.280511 1.098931 1.580546 0.105252 -0.113830 0.427104 0.316111 -0.006548 0.999946 
101 0.284842 -1.246889 -1.224335 -0.046400 1.157805 0.147302 0.018733 -0.126051 1.830008 1.394104 0.127122 -0.103767 -0.021402 -0.956748 0.072635 1.514292 
938 -1.159489 -0.241686 -0.653103 0.894955 0.663224 -1.136689 1.027110 1.214956 1.025144 1.722736 0.311599 0.363558 0.525765 0.091704 0.189188 0.719508 
631 -2.159856 -0.977218 -0.169115 0.197877 -0.534635 -1.709060 1.718138 0.733468 0.788573 0.994587 -0.650955 -0.670028 0.364251 -1.004155 0.334928 2.289181 
689 -1.169827 -0.120863 -0.933293 -0.564691 0.875619 0.084295 1.379275 1.793960 -0.330569 1.391194 0.077338 -0.479786 0.460357 -1.634215 0.404978 0.881146 
254 -0.567267 -0.860879 -0.923311 -0.802303 0.502415 0.448798 0.930243 -0.131616 0.616274 1.650343 0.272906 1.008730 -0.101939 -0.169271 -0.639440 1.721042 
819 -1.657654 -0.022537 -1.173588 -0.038155 0.245710 -0.940702 1.209933 1.743125 1.167392 0.768780 -0.580170 1.331274 0.235925 -0.971700 0.174498 0.506793 
1343 -1.018879 -1.532424 -0.777076 -0.351227 0.975191 0.357614 0.477957 0.026105 1.511310 1.248687 0.474018 0.739439 -0.146860 -0.786396 -0.635379 1.221793 
1586 -0.029807 -1.341130 -1.654906 -0.546821 -0.745498 -0.142872 1.898220 -0.229072 -0.228651 1.925734 0.266685 1.057957 0.631328 0.183689 -0.798391 0.277163 
2025 -0.796984 -1.070675 -1.656433 -0.943377 0.842529 -0.166027 1.192369 -0.489740 1.479259 0.924077 0.609626 0.524362 -0.421757 -0.855459 -0.040302 2.092233 
2092 -0.231784 -0.984761 -0.944725 -0.516736 0.084562 0.732792 0.779203 -0.286164 0.746593 1.122607 -0.005401 1.324288 -0.327281 -0.326271 0.022971 0.804116 
345 -1.087944 -0.406460 -0.468716 0.906320 0.486492 -1.272618 0.851764 1.286816 1.369753 1.794801 0.393086 0.654497 0.934979 -0.160276 0.414574 0.583430 
1813 -0.005756 -1.373437 -1.058829 -0.036005 1.353688 0.404589 0.303707 -0.050321 1.464093 1.016890 -0.189920 0.183455 0.137744 -0.819947 0.088956 1.617139 
1394 0.025031 -0.378441 -0.918843 -0.452223 1.177845 0.244359 -0.127966 0.270423 0.905218 1.923565 0.094389 1.152479 0.370313 -0.661461 -0.628594 2.433239 
1555 -2.099977 -0.716348 -0.714431 -0.108472 0.294651 0.419186 1.105969 1.616316 1.286300 1.026200 0.390352 0.758373 0.312955 -0.782308 -0.141165 0.162205 
172 -1.574397 -1.842528 -0.412233 -0.538966 1.080540 0.341109 1.123767 1.278856 0.870108 1.876714 -0.345053 -0.051965 -0.204674 -0.181780 -0.330569 0.742837 
2064 -0.608588 -1.205789 -1.333760 -0.508420 1.214299 0.175015 -0.151865 0.346755 1.271598 1.133852 0.518210 0.185379 -0.154565 -0.638477 0.054428 1.041977 
317 -1.133766 -0.431735 -0.528538 -0.690272 0.365312 0.009008 1.219811 1.719574 -0.415266 1.937433 -0.291299 -0.548928 -0.192077 -1.361948 0.516286 1.092638 
1198 -0.130835 -1.328920 -1.659905 -0.741266 -1.209668 0.099226 1.979715 -0.305217 -0.179013 2.199584 0.380143 1.314137 1.090439 0.138051 -1.042765 0.500410 
2029 -0.568147 -0.960068 -1.206877 -0.155809 1.085015 0.675371 0.267542 -0.077223 1.908684 1.514351 0.372930 0.295832 -0.301247 -1.065681 -0.527721 1.069875 
1707 -0.917500 0.315571 -1.378968 -0.586716 0.786143 -0.634744 0.559108 2.044600 0.946526 1.194346 -0.447273 1.882100 -0.073300 -1.083189 -1.288638 1.170056 
869 -1.862714 -1.373003 -0.015541 0.179629 -0.615973 -1.911124 1.618432 0.984813 0.959413 0.800623 -0.789140 -0.204030 0.202834 -1.265619 0.800772 2.003016 
422 -0.452145 -0.859657 -0.682165 -0.202689 0.710004 0.175083 1.289074 1.818488 -0.033484 1.321730 0.443727 0.254599 0.243348 -0.518969 0.130962 0.248395 
2706 -1.030476 -1.281113 -1.768411 -0.915131 1.066787 -0.344822 -0.174338 0.266189 1.135358 0.787784 0.656442 0.033918 -0.236335 -1.192541 0.088985 0.710399 
1376 -1.218985 -1.096224 -0.892088 -0.905885 1.102152 -0.030645 0.851754 0.036100 1.006570 1.647408 0.562460 1.383507 -0.072166 -0.709190 -0.964007 1.917278 
1076 -1.521297 -1.618517 -1.076648 -1.229126 1.578626 0.160478 2.094230 1.522801 0.934417 1.593650 0.367481 0.212331 -0.710328 -0.361833 0.049001 1.751543 
235 -1.232585 -1.823120 -1.125185 -0.863072 0.872328 -0.184141 0.293876 0.937624 1.165492 1.071751 0.018002 -0.020146 -0.313444 -0.482026 0.407494 0.638926 
2165 -0.673968 -1.163300 -0.847511 -1.427343 -0.495894 -0.205025 0.512861 1.051053 0.866736 3.165205 -0.008143 0.387131 -0.802160 -1.148627 0.936289 0.791476 
2901 -0.886039 -0.279857 -0.890489 -0.550837 -0.914751 0.754987 1.224661 2.070395 1.350678 1.829489 -0.218335 -0.001546 -0.436110 -1.511592 0.157562 0.590401 
2729 -0.319703 -0.900582 -1.109704 -0.302093 1.361169 0.775092 0.053464 -0.014444 0.911115 1.367351 0.016786 0.470357 0.158312 -0.266218 0.133758 1.775618 
2407 -0.895102 -1.102573 -0.725987 -0.557347 1.188508 0.049425 0.370967 -0.089092 0.845936 1.290524 0.168306 1.292423 0.147788 -0.936585 -0.568100 1.751278 
3081 -0.123524 -0.971057 -0.973432 -0.987905 0.048439 0.333621 0.884895 1.206092 0.141792 2.366148 0.659908 -0.098692 -0.873113 -1.124549 -0.037640 0.655186 
1877 -0.019413 -0.671705 -0.940543 -0.717796 0.217777 0.513496 1.431106 1.952798 0.437658 2.162186 0.096002 -0.457744 -0.775727 -1.561648 -0.207124 0.714281 
1738 -0.239223 -0.990612 -0.899299 -0.020389 -0.077344 0.318825 1.320114 -0.503235 0.850047 1.783572 0.405830 -0.161418 -0.118986 -0.809368 -1.079123 0.693698 
285 -1.457980 -0.424305 -0.325280 -0.211340 1.160797 0.240940 0.677499 1.015049 0.246097 1.828725 0.384354 0.880070 -0.029975 -0.602704 -0.514581 0.729170 
686 -1.728845 -0.511888 -0.720137 -1.075062 -0.852212 0.562174 0.935318 1.457143 -0.089666 1.863407 -0.748120 -1.007922 0.352941 -0.675888 0.770514 1.607977 
2175 -1.292393 -1.032377 -0.958242 -0.841077 0.855996 0.392865 1.137392 1.553135 0.554865 1.849064 0.391840 -0.388253 -0.505797 -1.563070 -0.378439 0.667825 
1820 -1.488375 -1.290285 -0.747419 -0.823513 0.686204 0.380604 1.090276 0.534715 0.881324 2.693891 0.441987 0.516522 -0.856973 -0.916023 0.644400 0.255788 
396 -1.749016 -0.979231 -0.690707 -0.488554 0.808659 0.166408 1.600886 1.927011 0.443053 1.469624 -0.218110 0.014153 0.184052 -0.347278 0.583735 0.886276 
1697 -0.459870 -1.145486 -0.911846 -0.317677 -0.445087 0.327231 1.918333 -0.619016 -0.238354 2.274916 0.492482 0.308339 0.626594 -0.475651 -0.723958 0.529513 
458 0.218867 -0.676424 -1.639430 -0.301974 0.262415 0.313100 2.192328 1.225427 1.015817 1.427023 0.506191 0.853998 -0.295078 -0.587561 -0.699618 0.408839 
342 -1.028098 -1.083157 -0.944536 0.090388 1.203534 -0.068784 1.706663 1.359879 1.447226 0.974142 0.399130 -0.051059 0.296906 0.327697 0.217321 1.398115 
2018 -1.099075 -1.087849 -1.007766 -1.032728 1.045121 1.039960 3.407896 0.532638 0.771670 2.506390 1.059989 1.568449 0.786915 -0.889341 0.034890 1.506816 
2526 0.070429 -1.361532 -1.002302 0.072025 1.411371 0.342895 0.287389 -0.058225 1.491539 1.067210 -0.158448 0.088734 0.210125 -0.808031 0.129658 1.543520 
2329 -0.627085 -1.137851 -0.993029 -0.398723 0.478557 0.230168 1.420832 -0.397370 1.089137 1.221775 0.572295 0.338187 -0.293614 -0.821000 -0.705951 1.240201 
2808 -0.104795 -1.832436 -0.856672 -0.054987 0.833373 0.541487 0.289978 0.249890 1.813666 1.081885 0.112144 -0.230180 0.574818 -0.535433 0.158065 1.498398 
378 -1.168552 -0.125291 -0.890179 0.790170 0.689507 -0.999380 0.983661 1.209424 1.014137 1.503548 0.104321 0.248479 0.364483 0.324571 0.099891 0.927350 
636 -1.364226 0.192382 -1.392997 0.615831 0.598884 -0.940869 1.033184 1.303978 0.998969 1.710340 0.000648 -0.488167 0.866564 0.457617 -0.257740 1.242815 
1292 -0.500173 -1.116452 -1.133316 -0.310741 1.400580 0.793143 0.284578 -0.256107 0.888411 1.131369 -0.153045 0.659574 0.562938 -0.388964 0.331235 1.595543 
1789 0.041533 -1.384181 -1.259812 -0.955153 -0.287325 0.476034 0.534829 0.698635 1.355448 1.847512 -0.180176 0.030794 -0.808267 -0.265111 -0.341112 0.854950 
58 -1.159192 -0.421707 -0.538846 0.880291 0.616826 -1.203195 0.906547 1.322734 1.246412 1.753464 0.311339 0.550103 0.673890 -0.009290 0.156763 0.691268 
215 -1.754322 -1.838103 -1.147641 -1.046780 1.460813 0.222940 1.091265 0.444110 1.445535 1.972895 -0.246222 0.669023 -0.793810 -0.840523 -0.551896 0.660343 
364 -1.311618 -0.451579 0.001505 0.005764 0.138749 -0.049053 1.006384 1.419886 -0.036851 1.771814 0.292250 0.827450 0.290321 -0.417352 1.203735 0.610578 
2356 -0.403989 -1.137058 -0.885853 -0.402879 -0.642402 0.319710 1.889239 -0.466600 -0.204753 2.267465 0.451018 0.603718 0.846585 -0.410773 -0.903618 0.692980 
1412 -1.465098 -1.460194 -1.060136 -0.542070 0.803075 0.959521 0.748613 -0.062588 1.370275 1.121098 0.179170 0.544410 0.373121 -0.671076 -0.499866 0.965254 
485 -1.215213 -1.640014 -1.000261 -0.492642 2.017677 -0.205748 2.962972 2.052066 1.395687 1.321754 0.682402 0.730012 0.000852 -0.038565 0.398065 1.695553 
1463 -0.113066 -1.455357 -1.666832 -0.807294 -1.378609 0.202810 1.942391 -0.316131 -0.111386 2.226259 0.435537 1.366403 1.093676 0.212863 -0.978904 0.507209 
1881 -0.960183 -0.930016 -1.045024 -0.923246 0.130584 0.004476 0.721021 1.135265 0.838730 1.385896 -0.463525 -0.159527 -0.609251 -1.060086 0.467485 0.849483 
52 -0.150385 -0.679862 -0.451216 0.725754 0.894629 -0.266216 1.561471 1.493773 0.741013 2.008320 0.400505 0.645055 0.341306 0.186147 -0.015327 0.327128 
1476 -1.280886 -1.434799 -1.649733 -1.194662 0.309875 0.169864 0.165460 0.311085 1.280984 1.482243 0.190549 -0.320069 -0.728289 -0.528710 0.475287 0.761312 
2135 -1.286888 -1.329488 -0.888277 -0.413114 0.992658 0.617566 0.603817 -0.035481 1.283200 1.409216 0.480932 0.619559 0.007180 -0.633261 -0.731725 1.022502 
1207 -0.085756 -1.188335 -1.314155 -0.083430 0.174542 -0.313129 1.858988 -0.366136 -0.044779 1.950615 0.311799 -0.001693 0.153712 -0.636757 -0.860745 0.207109 
314 -1.233525 0.014772 -1.099418 0.772650 0.722122 -1.027475 1.004759 1.296970 1.126613 1.604772 0.047037 0.154145 0.427271 0.414697 -0.056411 0.954532 
1919 -1.236099 -0.794235 -1.534328 -0.820235 0.927071 0.399792 1.297226 -0.557005 1.393441 1.132179 0.644365 0.679954 -0.450148 -0.961914 -0.440576 1.737550 
463 -0.437387 -0.740776 -1.110078 0.034986 1.427644 0.555893 0.589254 0.469017 1.146336 0.685277 -0.562050 -0.154693 0.313106 -0.374645 0.063613 1.645765 
607 -0.495578 -0.255491 -0.954595 -0.106374 0.983494 -0.280740 1.357266 1.797951 0.291975 1.244880 0.014135 0.513891 -0.110055 -1.164911 -0.242923 0.393961 
727 -0.232563 -0.125033 -1.541429 -0.594544 -0.008702 1.354178 1.295112 -0.229492 1.472759 1.479409 0.363116 0.388846 -0.373413 -0.245957 -0.426239 1.778757 
1306 -0.753880 -1.492121 -1.574447 -0.689016 1.362118 -0.180339 0.133011 0.219670 1.193220 0.745860 0.220342 0.079582 -0.110310 -0.952360 0.269443 0.970721 
1886 -1.029343 -1.018883 -1.472067 -1.125552 0.820319 0.333714 0.389016 0.768076 0.890278 2.000803 0.589476 0.200920 -0.825809 -0.889597 0.511016 0.482469 
2790 -0.119950 -1.489579 -1.689379 -0.797439 -1.290849 0.202335 1.978574 -0.223317 -0.114089 2.214027 0.401580 1.369615 1.106356 0.285626 -1.028745 0.517580 
2249 -0.501999 -1.120418 -1.412642 -0.599325 0.830539 -0.087918 0.833577 -0.363374 1.521630 0.865639 0.339288 0.217921 -0.204715 -0.835740 0.095334 1.981317 
78 -1.536273 -1.614233 -1.553908 -1.372037 0.767231 -0.035419 1.071233 0.324708 1.104104 0.865084 1.234620 0.786179 -0.165788 -0.298428 0.594674 1.366341 
1610 -0.795361 0.159705 -0.412913 0.037919 -0.910430 0.531984 0.986345 1.436032 0.898419 1.964739 0.706522 0.132075 -0.625278 -1.919844 1.113605 0.153628 
1349 -1.142540 -1.437948 -1.330255 -1.062470 0.489380 -0.192213 1.016171 1.056407 1.065865 1.932567 0.384436 -0.450884 -0.789075 -1.670767 1.147767 0.368016 
2244 0.029337 -1.638686 -0.884256 -0.020686 1.010123 0.441058 0.312172 0.099875 1.695949 1.078431 0.075565 -0.061219 0.233910 -0.715321 0.090426 1.580444 
646 -1.322626 -0.602203 -0.597692 -0.397738 0.955737 -0.294889 1.024718 1.591802 -0.234200 1.263673 -0.005614 -0.341129 0.253385 -1.158261 0.450330 0.908859 
1956 -0.049462 -1.346963 -1.043695 -0.081044 1.320968 0.245358 0.396934 -0.216653 1.304939 0.906305 -0.338861 0.348495 0.353666 -0.961468 0.154167 1.546923 
747 -0.642921 -1.015767 -0.671377 -0.332323 0.846150 0.479862 2.252192 1.060024 -0.242406 1.680369 0.612039 0.038118 0.281932 -0.572440 -0.342842 0.841677 
2436 -0.477128 -1.068045 -0.772155 -0.256364 -0.489682 0.291509 1.860513 -0.620384 -0.289798 2.303351 0.362210 0.295931 0.755209 -0.467704 -0.943352 0.711898 
3128 -0.056627 -1.620627 -0.757444 -0.234384 1.061876 0.135643 -0.429638 0.340202 1.549335 1.770395 0.521771 0.211788 0.351806 -0.186943 0.055412 1.742021 
827 -1.850590 -0.124223 -0.976400 -0.079900 0.022757 -1.359590 1.240879 1.503712 0.934698 0.611769 -0.788755 0.579274 -0.084194 -1.175319 0.060893 1.219481 
1547 -0.506034 -1.125742 -1.039814 -1.223219 0.040410 -0.181782 0.434540 1.336742 0.642534 2.475182 0.954657 0.210831 -0.937444 -1.439939 0.686494 0.672623 
720 -1.036061 -0.659557 -0.847342 -0.154334 0.964851 -0.192158 0.760339 1.423836 0.906817 0.527810 -0.033591 0.380073 -0.003175 -0.940743 -0.093764 0.758376 
2897 -0.895167 0.464115 -1.565827 -0.259419 -1.043961 0.089281 0.936567 1.923544 1.698473 1.089472 -0.063436 0.499108 -0.093715 -1.676167 0.015054 0.348316 
2686 -1.504079 -1.253390 -1.445631 -0.871763 0.425009 -0.065830 0.245277 -0.102828 0.926267 1.149465 0.612660 0.069621 -0.452987 -0.868502 1.457013 0.319931 
53 -0.747536 -1.128417 -0.914137 -0.292091 0.618596 0.191349 1.170620 -0.737519 0.696173 1.315301 -0.073848 0.468805 -0.217918 -0.938057 -0.848382 0.934484 
278 -1.170915 -0.143802 -0.942274 0.847023 0.674713 -1.077064 0.988456 1.242850 1.095887 1.575626 0.060275 0.086461 0.453863 0.302650 -0.035963 0.856720 
2889 0.175428 -0.401765 -1.653756 -0.131357 -0.983537 1.081499 1.687755 1.689038 1.323819 1.408811 0.639143 0.769895 -0.276030 0.086151 -0.565422 0.001348 
1929 -1.031928 -1.361604 -1.600623 -1.418673 0.375418 0.937305 0.018709 0.584803 1.630951 2.423777 0.402323 0.785626 -0.649263 -0.092415 0.039771 0.666207 
1949 -0.707693 -1.358573 -0.000956 0.172520 0.581556 0.252754 1.920457 0.360016 0.085634 2.003774 0.362192 0.285294 0.543547 -0.640618 -0.635233 0.602048 
138 -1.541149 -1.636940 -1.324466 -1.194444 1.649881 0.340138 2.379025 1.163594 1.124014 1.766487 1.186265 0.343056 -0.873195 -0.883324 0.512790 1.202673 
778 -1.333554 -0.934947 -0.555008 -0.627793 0.424458 -0.176443 0.768172 1.223910 0.419462 1.123342 -0.859702 0.028325 -0.159121 -0.639921 0.252981 1.154991 
2020 -0.262976 -0.936650 -1.089040 -0.276280 1.415168 0.636147 0.172572 -0.057633 1.055613 1.374545 -0.107566 0.425783 0.048838 -0.504164 0.040414 1.809053 
879 -0.597679 -0.534280 -1.215604 -0.225393 0.594517 0.379607 1.197614 0.992900 1.208311 0.210651 -0.730468 0.392922 -0.068964 -0.740827 -0.543322 1.032443 
1121 -0.788718 -1.103458 -0.639405 -0.474490 0.486205 0.949876 2.103165 1.428280 0.621645 1.779420 0.431238 0.222300 -0.416945 -0.579115 0.059327 0.598329 
684 -0.250497 -0.691663 -0.881947 0.411311 0.921660 0.046527 1.893542 1.458888 0.446839 1.675122 0.078586 0.440671 0.233394 0.364470 -0.327192 0.419624 
110 -1.265110 -1.135825 -1.862209 -1.591691 0.386341 0.448479 1.098323 0.271879 1.090210 1.030387 0.406574 0.007804 -0.555765 -0.162370 0.072519 2.260108 
698 -1.055794 -0.313408 -0.758449 0.849711 0.736185 -1.225340 0.963636 1.329591 1.134803 1.701940 0.092210 0.353983 0.355892 0.187743 0.151379 0.774260 
1537 -0.898210 -0.566601 -0.282476 0.931893 0.339732 -1.305879 0.904992 1.488946 1.547331 1.910793 0.455596 0.949994 1.336994 -0.456965 0.510743 0.430403 
1883 -1.174137 -1.836659 -0.901238 -1.021805 1.218215 0.430722 0.351601 0.635952 1.219350 1.829679 0.064506 1.018590 -0.219782 -0.004067 -0.348708 1.505015 
424 -1.201097 -0.190084 -0.816173 0.809369 0.726562 -1.021759 0.974053 1.289022 1.147176 1.653517 0.166719 0.189678 0.384291 0.241526 0.170570 0.869020 
660 -1.210168 -0.172683 -0.921383 0.801348 0.789848 -0.971295 1.013161 1.358860 1.099268 1.653859 0.087634 0.144400 0.441540 0.315766 0.003479 0.898355 
2366 -1.529218 -1.647180 -1.144615 -1.300617 0.777312 0.309254 1.046523 1.248087 0.419361 2.217829 0.462398 -0.487942 -0.643193 -1.039421 -0.393623 0.889700 
3253 -0.620058 -1.063196 -1.027582 -1.067573 0.283349 -0.025720 0.935899 1.898253 0.469150 2.065298 0.126930 -0.570147 -0.478493 -1.734215 0.278689 0.775854 
1183 -0.104268 -1.189247 -1.193250 -0.398142 0.790426 -0.019178 1.640350 0.378848 -0.230500 1.705494 0.446663 -0.113381 -0.200556 -1.076223 -0.658802 0.325355 
459 -1.094161 -0.238337 -0.740736 0.838088 0.679877 -1.196807 0.925764 1.270602 1.221150 1.708636 0.136046 0.387689 0.429887 0.195985 0.170273 0.849202 
443 -1.238972 -0.227725 -0.750392 0.967630 0.616189 -1.130423 0.988541 1.214877 1.204193 1.674885 0.175595 0.249551 0.414799 0.214456 0.128108 0.708430 
877 -0.897806 -1.241551 -0.513561 -0.622888 0.987514 -0.381776 1.198661 2.032007 0.329186 1.603191 0.006585 0.149756 0.009573 -1.629559 0.576131 0.458396 
3126 -0.564155 -1.344178 -1.196846 -0.621237 0.241601 0.279363 0.997230 -0.122349 1.928400 1.086490 0.763808 -0.043112 -0.230221 -0.540538 -0.111530 2.116128 
1556 -0.463290 -0.332548 -0.926225 -0.806613 -1.216927 -0.070760 0.195903 0.224349 0.613171 2.468271 0.892091 -0.048902 -0.907533 -1.346934 1.759149 0.665752 
2160 -0.609133 -1.019986 -0.997566 -0.992375 0.773383 0.789068 2.233060 2.191332 0.431787 1.466524 1.211859 0.398663 0.118201 -1.660658 -0.075409 0.920119 
2699 -0.843057 -1.474465 -1.720289 -1.047612 0.753576 -0.302744 0.006585 0.590478 1.526789 1.490393 0.538926 -0.098200 -0.944789 -1.007550 0.516490 0.437419 
715 -0.769644 -1.108484 -1.240404 -0.246026 1.314735 -0.107998 0.490555 0.704434 1.156353 0.405401 -0.107043 -0.401175 0.166008 -0.585951 0.079470 1.360697 
990 -1.219329 -0.110210 -0.750677 -0.449309 0.587776 0.216009 1.317348 1.767197 -0.237622 1.460682 0.259142 -0.202916 0.154014 -1.476175 0.465632 0.726575 
2939 -0.768815 -1.405504 -1.393975 -0.623091 1.283981 0.827193 0.383364 0.547037 1.584066 1.346858 -0.229941 0.254887 -0.369556 -0.271540 0.022178 1.152722 
1815 -1.365551 -0.832266 -1.175611 -0.946829 0.126263 0.505722 1.595428 0.329734 0.803950 1.932734 0.761060 -0.056137 -0.827957 -0.692741 1.525594 1.052098 
2339 -0.983245 -1.810053 -0.794331 -0.249821 0.937651 0.508052 0.730537 0.064194 1.638056 0.936583 0.216882 0.454453 0.062242 -0.955229 -0.495137 1.063885 
2226 -0.509019 -0.921840 -0.961347 -0.348550 0.900555 0.244491 2.470842 -0.011309 0.683064 2.097468 1.088725 0.171668 -0.261823 -1.006996 -0.632977 1.283488 
2666 -1.013231 -1.586125 -1.761832 -1.023049 0.997766 0.346478 0.059636 0.623811 1.646410 1.405421 0.554566 0.003067 -0.677117 -0.742205 0.176210 0.519431 
2095 -0.757881 -1.672966 -1.277439 -0.730985 1.168159 -0.112506 0.028574 0.242152 0.940967 0.766636 0.270359 0.345198 0.347216 -0.711715 0.211822 1.111690 
2783 0.396391 -1.384490 -2.327215 -0.382219 -0.069222 -0.562349 2.104002 -0.028075 0.405287 1.635332 0.214629 0.755044 0.137608 -0.196604 -0.850306 -0.103926 
534 -0.120261 -0.948082 -1.327895 -0.129522 0.654632 0.204483 1.775427 0.554096 0.542732 0.908399 -0.839389 0.460238 0.084545 0.124226 -0.616932 0.790484 
671 -2.131883 0.078225 -1.205381 -0.134929 -0.200667 -0.048825 1.113656 1.570776 0.909189 0.801472 -0.466398 0.689797 0.573454 -0.234164 0.267371 0.707351 
1047 -1.026200 -0.239506 -0.738086 0.827582 0.614336 -1.100214 0.917438 1.307878 1.098965 1.525717 0.052107 0.487995 0.492041 0.126406 0.282045 0.751215 
2513 0.404480 -1.376668 -2.242407 -0.246493 -0.086739 -0.476653 2.103307 -0.027439 0.525635 1.628336 0.063193 0.655847 0.184467 -0.300575 -0.891108 -0.219633 
267 -1.142525 -0.172899 -0.935069 0.857104 0.650075 -1.055244 0.984290 1.339040 1.243106 1.643427 0.087585 0.387422 0.480646 0.363988 -0.090698 0.749763 
1083 -1.319696 0.027011 -0.505655 -0.293231 -0.254515 -0.046260 1.233636 1.273633 0.102264 1.741935 -0.756017 -0.816580 -0.541392 -1.646984 0.733101 1.040778 
395 -0.314769 -0.971845 -0.779762 -0.032615 1.542270 -0.053870 2.126178 1.688325 0.193811 1.697925 0.583515 0.350561 -0.019864 -0.169037 0.043904 0.711326 
2685 -0.256012 -1.955345 -0.875600 -0.194749 0.631579 0.741127 0.386155 0.327934 1.939904 1.226993 0.114747 -0.322360 0.911799 -0.364973 0.149529 1.543713 
1896 -1.579563 0.031700 -1.264052 -0.131605 -0.430313 -0.295694 0.899256 1.896368 1.450763 0.850263 -0.253403 1.140567 0.294508 -1.009787 0.166953 0.175436 
1834 -0.333280 -1.716891 -0.908408 -0.386409 1.164078 0.233683 0.087279 -0.056097 0.969418 1.082517 0.152632 0.404853 0.525648 -0.334288 0.287429 1.720555 
1563 -0.209199 -1.324015 -1.642930 -0.808974 -1.353002 0.335012 2.012155 -0.115735 -0.220849 2.273796 0.349246 1.389615 1.158124 0.293333 -1.038745 0.614832 
1609 -0.851793 -1.288341 -0.250700 -0.734243 0.504353 -0.158063 1.679655 1.980265 0.862994 2.586586 -1.004786 0.507459 -0.122781 -1.193915 0.797390 0.519626 
1890 -2.034664 -0.430628 -0.977943 -0.189475 -0.486502 -0.129272 0.841570 1.875102 1.435366 0.724819 -0.153650 1.303746 0.760883 -0.618225 0.471659 0.225091 
233 -1.139039 -0.968457 -0.764228 -0.383062 1.302023 0.060972 1.325295 0.612682 1.161665 1.209976 0.491721 0.266119 -0.158889 -0.336090 -0.570955 1.940195 
882 -0.074409 -0.383013 -1.103600 -0.363661 0.920526 0.416421 1.637558 1.726927 -0.239681 1.661319 0.216373 -0.190118 0.005305 -0.990589 -0.299803 0.444208 
1806 -1.245650 -1.317793 -1.427649 -0.467228 0.459013 0.886986 0.611865 -0.244796 2.020347 1.609077 0.672964 0.281374 -0.703308 -0.632408 0.228133 0.202084 
242 -0.573955 -0.981899 -0.636172 -0.996881 0.636772 0.016250 0.235482 0.292300 0.681709 1.628563 -0.151789 1.693809 0.941090 -0.827685 -0.987352 3.130137 
2023 -0.424880 -1.220827 -1.104031 -0.160521 1.302060 1.045938 0.347861 -0.229644 1.080099 1.020314 -0.328516 0.363952 0.719809 -0.531219 0.422360 1.429904 
84 -0.729235 -0.947709 -1.120597 -0.303018 1.044368 0.050035 1.215031 0.423780 1.315349 0.480472 -0.136735 -0.066603 0.164979 -0.336719 0.060700 2.013335 
2950 -0.949763 -0.886874 -1.665725 -0.967114 0.359163 0.670346 1.374459 -0.157368 1.638690 1.037514 0.905810 0.214518 -0.114896 -0.257569 0.004148 2.157406 
1037 -0.672188 -1.034189 -0.406972 0.637855 0.775398 -0.342765 0.670117 1.069204 1.493353 1.247813 0.273545 0.044356 0.560192 0.170174 0.178427 0.751088 
1776 -1.375956 -1.095563 -1.762132 -0.943202 0.545348 1.025055 0.512021 -0.004960 1.668613 1.849269 0.123167 0.035748 -0.892702 -0.191698 0.269900 0.668789 
3076 0.445472 -1.423782 -2.179352 -0.171664 -0.011588 -0.554090 2.087514 0.069169 0.512493 1.551853 0.105937 0.693673 0.177646 -0.259265 -0.800886 -0.285270 
2209 -0.186148 -0.795757 -1.681552 -0.933126 1.086568 0.456993 2.944585 0.862581 1.578710 2.196104 1.434165 0.774943 -0.252199 -0.634103 -0.092563 1.822851 
2703 -0.878243 -1.199963 -0.732792 -1.163602 -0.198414 -0.305112 0.776688 0.806386 0.980042 2.968727 0.124312 0.621284 -0.889794 -1.249630 1.418043 0.554141 
2477 -0.677115 -0.981192 -0.361770 -0.819232 -0.834436 0.524627 0.698425 1.747185 0.877242 2.643296 0.403263 0.227948 -0.589699 -1.104440 0.664993 0.622407 
2662 -0.797053 -0.794138 -0.654881 -0.420669 -0.272988 0.539481 1.064464 1.739640 1.172976 1.724042 0.714640 -0.025011 -0.673117 -1.658488 0.776184 0.245535 
461 -1.275335 0.265147 -1.317301 0.670772 0.571959 -0.935982 0.989737 1.212268 1.023223 1.620571 -0.072984 -0.331717 0.761759 0.421053 -0.139692 1.242574 
559 -1.141803 -0.008407 -1.141366 0.830379 0.680375 -1.034380 1.085240 1.232158 1.087501 1.547604 0.034482 -0.077326 0.503652 0.401016 -0.046922 0.924448 
2709 0.469165 -1.109626 -0.971553 0.018161 0.168091 0.483489 0.763301 -0.127148 1.758991 1.205053 0.226949 0.272745 -0.397025 -0.898390 -0.605254 1.110004 
756 -0.090803 -1.272413 -0.786001 -0.322428 1.219566 -0.015041 -0.029762 0.052459 1.002087 1.347504 0.289132 0.568566 0.194964 -0.496770 0.035157 2.065799 
165 -1.077396 -0.156897 -0.770125 0.873487 0.696068 -1.069538 0.912001 1.217869 1.084377 1.648126 0.104614 0.340310 0.495889 0.174729 0.091511 0.731009 
366 -0.805884 -0.407970 -0.832681 -0.164562 1.149032 -0.468213 0.258928 1.530425 0.549584 1.453348 0.043152 0.684067 0.517822 0.303298 -0.620314 1.732758 
2582 0.092886 -1.179483 -1.251398 -0.043167 1.392138 0.315120 0.378744 -0.300649 1.647276 1.105477 -0.243951 0.189755 0.056084 -1.157268 -0.003682 1.707372 
506 -1.261691 -0.157115 -0.943183 0.833437 0.806805 -1.148933 1.027864 1.260764 1.179326 1.558789 0.043842 0.162423 0.316992 0.226415 0.000784 0.901680 
1286 0.280329 -0.716378 -1.388346 -0.128513 1.322108 -0.038951 0.300444 -0.754090 1.415944 1.279716 -0.323607 0.240873 0.228662 -1.428791 0.143470 1.861644 
813 -1.299362 -0.177948 -0.937336 0.830734 0.801986 -0.953916 0.981288 1.333236 1.045938 1.639213 0.181553 0.046942 0.492618 0.306967 0.058504 0.795736 
1039 -0.949170 -0.249489 -0.914807 0.210453 1.101928 -0.683150 0.573084 1.471134 0.661291 1.494655 0.214080 0.603258 0.537162 0.334098 -0.365523 1.267898 
290 -1.236239 -0.184599 -0.867534 0.848643 0.754071 -1.083247 0.984588 1.227509 1.157638 1.601985 0.093132 0.192265 0.463226 0.257407 0.089768 0.879934 
554 -1.585994 -0.119398 -0.901095 0.283154 0.525474 -1.197862 1.041689 1.397535 1.023804 1.065230 -0.260306 1.107166 0.475594 -0.694840 0.215448 0.535371 
2437 -0.198891 -1.264406 -1.214605 -0.209441 -0.006678 -0.077955 2.041450 -0.452361 -0.142042 1.930377 0.351054 0.234046 0.352859 -0.570994 -0.744119 0.353829 
1158 -0.552866 -1.959498 -0.043293 -0.744858 -0.171020 -0.976356 1.184265 1.869278 0.467128 1.654160 -0.154991 0.183608 -0.252474 -0.996513 1.249128 1.017920 
849 -1.673349 -0.192976 -0.885306 0.173391 0.570670 -1.088821 1.178930 1.517913 0.945516 0.981737 -0.186922 1.100521 0.442440 -0.770340 0.239725 0.627295 
1927 -0.302251 -0.721957 -1.342763 -0.231287 1.344852 0.973553 0.441774 -0.547743 1.040118 1.130177 -0.464252 0.435209 0.336277 -0.827105 0.293245 1.693514 
1151 -0.189502 -0.990397 -0.986180 -0.288936 1.339442 0.020012 0.124588 -0.393915 0.874856 1.175327 -0.156407 0.635857 0.357827 -0.886790 0.225688 1.859131 
870 0.245431 -0.763228 -1.381092 0.171083 0.727474 -0.099114 1.998276 1.687798 0.919544 1.266599 -0.038057 0.885334 -0.200185 -0.342026 -0.722162 0.062478 
708 -0.323083 -1.243723 -0.644625 0.087601 0.817969 0.244631 1.253760 0.918224 1.068362 0.737242 -0.367949 0.593122 0.195411 0.130066 -0.131796 0.953623 
1672 -0.625838 -1.579959 -1.140431 -1.262060 1.316590 0.474661 2.437143 1.646225 1.118029 2.547035 0.278984 0.578588 -1.067860 -0.553509 -0.051593 1.241444 
2426 -1.542316 -2.046947 -1.176065 -1.415573 1.714531 0.115150 1.795297 1.649003 0.913891 2.142355 0.679619 0.190017 -0.678392 -1.103262 -0.149495 0.947298 
341 -0.890525 -0.753175 -1.112414 -0.173356 1.202047 0.122734 0.896185 0.573237 1.010144 0.313150 -0.643975 -0.003443 0.623409 -0.449306 0.132384 1.678793 
1446 -0.205130 -0.246472 -0.784363 -0.143812 -0.045973 0.788124 1.223192 0.113546 0.295062 2.556207 0.816186 0.548065 -0.779158 -0.675551 0.881749 -0.061307 
1032 -1.440660 -0.419548 -1.241705 -0.413106 1.254282 -0.465040 2.175236 1.998989 1.061143 0.953927 -0.107014 0.978999 -0.203682 -0.866778 -0.141330 1.219654 
1353 -1.194198 -1.376041 -1.289702 -1.319584 0.309674 -0.112732 0.271441 0.451315 0.686198 1.757514 -0.102920 0.250488 -0.547475 -0.407428 0.668794 0.758886 
