4057 16
1015 -0.42817253 0.24599433 -0.23308797 -0.30599648 -1.303553 -0.84752285 -0.13851781 0.72185725 0.4941839 1.2321142 0.8683149 1.136038 0.5707911 0.7094018 0.089945644 0.4694354
2300 0.6399796 -0.2408248 -0.11088255 -0.95271844 -0.1611674 -0.7328044 -1.6945933 0.43754312 0.10440482 -0.015194487 0.9389953 1.1889746 -0.4259307 1.0174543 0.038920894 -0.039262418
193 -0.05018926 -0.45135534 -1.1033 -0.20491059 0.25428256 -0.66475815 -1.182833 -0.08228227 0.80702883 -0.1926383 0.79083383 0.80562633 0.6868231 1.4081032 -0.3152216 -0.59999764
324 0.083747216 -0.44011715 -0.1221948 -0.473956 -0.35950306 -1.3289548 0.6762167 1.9365907 0.16111867 0.9257134 0.37470087 0.6735828 1.4362423 0.40038294 -0.3193193 0.18902914
1560 -0.04488259 -0.024596367 0.33776754 -0.19109845 -0.43319812 -1.522042 0.82987964 1.0611283 0.6935561 0.11056876 0.5691791 0.8053133 1.6339502 1.0924269 -0.6489545 -0.36908004
414 -0.4267353 -0.056777235 -1.1026902 -1.3358496 1.3968335 -0.7840966 -0.48499835 1.5213913 -0.34012744 0.6136987 1.099653 1.0134535 -1.10728 0.20392135 0.18847856 0.08647544
1013 -0.24932085 -1.1321089 0.6938506 -0.06593947 -0.8600229 -0.5473543 -1.3524698 0.55004776 -0.4273881 -0.108116835 0.7688326 0.17426044 -0.18414709 1.5828811 0.16312176 -0.011216258
1363 -0.019569311 -0.97116923 0.95527804 0.16235283 -0.99781793 -0.66114694 -0.4103687 0.35020623 0.17337969 0.37497726 0.60962117 1.1466693 0.6484808 0.9502392 0.5121842 -1.2208834
2101 -0.80977577 -0.6343932 -0.6452253 0.29984504 -0.56005734 -0.970262 -0.9446455 -0.8246109 -0.07097833 0.67223585 1.3679906 0.26453605 0.615293 0.9983676 0.088589735 -0.19437435
1523 0.35867885 -0.20278056 -1.56124 -0.24840775 -0.40876254 -1.2685689 -0.7152657 -0.35242394 0.4064378 0.5056493 0.94704926 -0.31921008 0.21285185 2.0369086 0.043715917 -0.3180394
123 -0.576316 -0.86903304 0.29065093 -0.45635527 -0.8638263 -0.03368475 0.027662758 1.2813777 0.35182142 0.8816938 0.43173903 1.4393888 0.4143732 1.1823497 -0.04059477 0.22748072
2235 -0.092614606 -1.6436509 -1.0058336 0.26278117 -0.46177864 -0.9380377 -0.07000421 0.1409084 0.2848795 0.29801825 1.0609372 -0.38079095 -0.123342864 1.4004467 0.718097 -0.7105761
1493 -1.2196412 -0.7395031 0.26715663 -0.66244954 0.22926402 -0.30384976 0.7520766 0.7131203 -0.61533153 1.3028066 0.21982248 1.8103272 0.13664137 1.3454562 0.74092346 0.27850363
1362 -0.077430114 -0.5198875 0.17928292 0.33851072 -0.5374584 -0.80383605 -0.2248805 1.1379607 0.6814161 0.63649136 0.65278083 1.1935433 1.0890758 1.0817995 0.04371154 -0.2082656
550 -0.2652135 -1.0957575 -0.37186828 -1.2967373 -1.3938682 -0.4644713 -0.06605904 0.6923201 0.39264378 1.3596143 0.96279716 0.55050147 0.11674574 0.5314496 0.48082203 0.34555307
974 0.37099162 -0.1004439 -0.18938279 -0.45407602 -0.7063049 -0.8483337 0.02582965 1.1626148 -0.58048236 0.9473968 1.1502349 1.3540035 0.8947041 0.35174856 0.9026846 0.2375266
527 -1.0348406 0.29235202 0.18555054 -0.36518657 1.2773505 -0.5649312 0.23908018 1.6035898 0.2005522 0.21786524 0.4396678 0.049094345 -1.0826625 2.1286728 -0.08076339 -0.80709904
1404 -1.0745094 -0.23956802 -0.726921 -0.15594529 -0.21491478 -1.292322 -1.2355424 -0.2922434 0.8019007 0.4399707 0.32347983 0.6867281 1.0924573 1.0875734 1.1243598 -0.37259474
1437 -0.18787612 -0.8244664 -0.23998879 -0.028361453 -0.8358346 -0.4373067 -0.40080017 1.5404029 0.2869146 0.6364631 1.2387444 1.2219384 0.59330904 0.61360455 0.2864635 0.12596118
2003 -0.8924185 -0.7558585 -0.3735178 -0.5901291 -0.416674 -0.9485499 -1.4259439 -0.40469173 0.38576928 -0.15501633 0.6864269 0.0687884 1.3450353 1.3260627 0.42152393 -0.5151079
1816 -0.18463254 -0.45156676 0.082476825 -0.960662 -0.3152646 -1.4169352 1.4628015 1.2069222 -0.1567373 0.24144565 1.1312894 0.74993134 1.6785074 0.2848759 -0.5241006 -0.19385451
2410 0.611089 -0.72477907 0.19869973 -0.041367687 -0.24596539 -1.3964965 -0.8439326 0.9368353 0.3291875 0.90905935 1.455245 1.4428618 -0.45552006 0.70750695 0.44027814 -0.13884197
2179 -0.15073544 -1.3115789 -0.13136856 -0.116041355 -1.3049726 -1.2409561 -1.1614335 0.9094188 0.4015803 0.69706875 0.30300283 0.27495804 -1.3062928 0.3687152 -0.054850653 0.13776144
1803 -0.5041898 0.34414938 0.030447392 -0.16423373 1.3633698 -1.1429782 0.92448175 0.7126979 0.1518399 1.4579837 0.6391505 1.0368494 -0.77082664 2.2771552 -0.20384707 -0.4828415
1042 0.23433909 -0.78413785 0.43880367 -0.341456 -0.48675504 -0.2039736 -0.38554335 1.3251922 -0.6848503 0.5399381 1.2086962 0.5422246 1.3836138 0.4551719 0.52829087 -1.1193968
792 -0.507855 -1.2452471 -1.0685843 0.756599 0.2053019 -0.7789858 -1.1563902 -0.029222505 -0.34007856 0.35094377 1.5265692 0.4888406 0.46534947 1.073931 -0.3234376 -0.35327336
970 -0.5928297 -0.68678564 -0.39847246 0.061585832 -0.21688767 -0.4908382 -1.2807449 -0.31329027 -0.009665522 1.3119339 0.8965534 -0.24108155 0.17064153 2.0039334 -0.40483838 -0.29245687
1475 -0.14690891 -0.29792267 0.57203406 0.06279236 -1.1822865 -2.0603054 -1.0217276 0.39341962 -0.5448069 0.15304424 1.278656 0.7206803 -0.6843395 1.2341834 0.53023666 0.79193974
2298 -0.8646312 -0.63389444 -0.553759 -0.6052958 2.3060079 -1.0690017 0.12941337 1.6617758 -0.31164932 -0.18515424 0.50659794 1.1385715 -1.062236 1.3612282 -0.18241054 -0.4937271
1396 -0.1364113 -0.61883914 -0.16431054 0.6238523 -0.84125316 -0.9822044 -0.49409652 -0.582326 -0.30361265 1.0256609 1.7274966 1.2236001 0.27729395 0.34243023 0.124519445 -1.332111
2067 0.03423558 0.071919225 0.45262858 0.03527894 -1.110997 -1.419684 -0.22723716 1.1589388 -0.3251979 0.37712523 1.5367384 1.1663935 -0.15406223 0.95313466 0.60209113 0.6648789
318 -1.1553884 -1.6201286 -0.6041423 -1.9134009 0.81186175 -0.9623166 0.6397779 0.65565616 -1.3890176 1.093574 0.58824205 -1.2386717 -0.60274553 1.1092749 -1.4781717 -0.39152017
2048 0.17400888 -0.54186225 0.3867761 -0.19992138 -0.8364853 -1.8375963 -1.4447848 0.3671165 0.08085131 0.5222697 1.2458639 1.189956 -1.2398248 0.3622053 0.4658252 -0.04409355
2286 -0.158721 -0.47211158 0.24379069 -0.35958105 -0.15187348 -0.6051904 -1.2572417 0.275728 0.7789218 -0.2930536 0.5061027 0.40256685 0.85934734 1.468286 0.5427301 -1.5351592
959 0.3603309 -0.64425385 0.21690995 -2.1385562 -0.003264512 -0.19718476 0.6460116 1.0000244 -0.6060137 0.49943003 1.6773436 0.13820729 -0.50142163 0.45904505 0.26003432 -1.5217403
2435 -0.6041092 -0.57516044 -0.10349242 -0.6287941 -0.07903157 -0.8309505 -0.9230837 0.39869 0.4548462 -0.4561143 0.8882559 -0.24880323 1.4872702 1.3925247 0.88015497 -1.1076373
42 -0.3009788 -1.3946712 -0.08617467 -1.7643851 -0.59073234 -1.1487219 0.09166794 0.5216607 -0.02242934 0.47518644 0.71236473 0.4361684 -0.69200623 0.9368292 0.6512677 1.1766256
1360 0.043877896 -1.0159757 -0.29156348 0.3366319 -0.79738396 -0.63492584 -0.93356043 0.28353125 -1.4513472 0.46286255 0.46271813 -0.42885214 0.718319 2.057328 -0.22494128 -0.33538988
2163 -0.7296595 -0.85897005 -0.33464146 -0.015045329 -0.65808403 -0.25258183 -0.92708397 -0.39866662 -0.8639783 1.1366929 0.90103686 -0.56945616 0.3200569 1.8768969 -0.20826712 -0.4496394
1428 -0.053007416 -0.67996305 -1.4060748 0.45945895 -0.30754167 -0.25408834 -0.9725489 0.078254156 -0.61412376 0.88132954 1.0227704 -0.13727503 0.07491764 1.843825 0.18112953 -0.8620509
383 -0.36268577 -0.6649348 0.26893792 -2.037161 1.3270338 -0.7759994 -0.49800667 1.0630392 -0.3859305 0.7331905 1.9174019 0.6067673 -0.7357031 -0.010388986 -0.4609727 -0.2523823
2323 0.075792216 -0.90200627 0.089133024 0.08707011 -0.6888617 -0.45120403 -0.9666167 1.6055759 -0.16444188 0.39693782 1.359664 0.31146902 1.3038292 1.0282139 0.08386132 -0.5999303
705 0.32431957 -0.93841594 0.49560872 0.03054052 -0.37883988 -0.9787481 -0.92042667 0.5860434 0.24267484 0.37920398 1.4465541 1.5866677 -0.46929082 0.5865619 0.2361538 -0.7188896
1741 -0.42708132 -1.1668842 -0.61149013 0.2781659 0.7487672 -1.3678312 0.15034401 0.37026408 0.897808 0.6162035 0.34386998 1.6383988 -1.1264973 1.1490357 0.70337385 -1.0770988
1535 -0.9633292 -0.8900232 -0.38485026 -0.05402141 1.4865191 -0.9890588 0.94217116 0.7534774 0.1390842 0.8271956 0.31374177 1.688592 -0.9350595 1.3352393 0.57285994 -0.80148405
1672 0.14500606 -0.18850273 -0.11153859 -0.45920244 -0.54841995 -1.6313175 0.9618515 1.4814746 0.20581877 0.43814644 0.93197596 1.1079562 1.5084448 0.11512245 -0.036317926 -0.10751073
197 -0.32403308 -0.17463274 0.9794433 -0.9270216 -0.75114006 -0.90599185 0.48549935 1.5578111 -0.14682706 0.61825484 0.6049534 0.6638803 1.7599905 0.56911886 -0.70558184 -0.29911733
2353 -1.3900781 -0.15592162 -0.7593356 -1.195535 0.875523 -0.29356012 0.5926566 1.5840402 -0.82650244 0.8671785 1.0230784 1.2311476 -1.0448047 0.21413845 1.2634281 -0.84064794
977 -0.41313457 0.34246096 -0.6308051 1.7177823 -0.63948613 -1.7744738 0.13303055 2.1906993 0.44513816 1.9593683 0.7981228 1.0078512 0.19948675 1.8857287 -0.5939136 -2.1763558
3131 -0.10092068 -1.3739009 0.09381405 -0.47997493 -0.732059 -0.4531689 -1.1612312 0.97511977 0.41359913 0.0600469 0.16301854 0.9512576 -0.35044384 1.4845281 -0.112435505 0.45862445
3152 -0.3335806 -0.13170376 0.3106346 -0.68121266 -1.3330894 -0.633551 -0.22361676 1.1339054 0.6003687 1.6241323 0.58280474 1.1326693 0.38928246 1.1339337 -0.65664506 0.39975458
1441 -0.25725105 -1.3883917 -1.277841 0.37539098 0.009988787 -1.2776982 -0.38451976 0.35008967 1.1349877 0.20587817 0.4779133 0.884707 -0.5521195 1.1024164 0.6319361 -0.7091172
1800 -0.18010262 -1.4218054 0.3102022 -0.36899218 -0.34800637 -0.742973 -1.2464066 1.1275741 0.2962755 -0.056582928 0.3072639 0.107081816 -0.49938646 2.3253152 0.45281473 0.021865573
1917 -0.67216766 -0.66441286 -1.6029512 -0.14423524 0.6053248 -1.6862811 -1.2506635 -0.31203857 0.26905805 0.3768587 -0.07587589 1.3842224 0.88412505 0.22097912 0.9960196 -1.3533481
547 -0.9940128 -0.64312255 -0.33685675 -0.48335114 0.6449926 -0.6550872 -1.4710381 -0.3502548 0.9946708 0.49239162 0.6533147 0.025596667 0.41947314 1.6460072 -0.92696714 -1.0987729
153 -0.21652497 -0.6569416 0.8105288 0.19631925 -1.2343104 -0.678427 -0.6338595 1.2358938 0.16537786 0.24813691 1.2346787 1.0292649 0.3558961 0.9606572 0.069980316 -0.18497151
855 0.2728608 -1.416368 -0.12831746 0.5418267 0.06853581 -1.4861475 -0.39579892 0.49239242 0.6216267 0.6896113 1.052684 1.6715003 -0.6319787 0.87094676 0.49822855 -0.6009123
1983 0.4323989 -1.2215581 0.104048446 -1.5949545 0.2601077 -0.3959895 0.5743999 1.113234 -0.5462232 0.48788863 1.6955837 -0.1002897 0.8732044 0.26446456 -0.066801004 -1.1329271
64 -1.80255 -0.53514576 -0.24305357 -0.6553665 0.9118422 -0.15866274 0.7772221 1.3374563 -0.17533275 1.0577066 0.47384182 1.5069754 -0.67836535 1.1041597 1.1909624 -0.6716423
1924 0.0046401946 -1.283441 -1.0676503 0.09256301 1.0151864 -2.0958662 -1.8485001 -0.07761071 -0.51894474 0.39655215 -0.53077006 1.0627717 0.47520444 0.7468551 0.8882853 -1.4204673
1971 -1.1742305 -0.8133161 -0.71109766 -0.6145215 0.635811 -1.0823917 -1.561288 -0.30629662 0.951808 0.2627264 0.6340424 0.31079832 1.044838 1.1490695 -0.3003742 -0.37143698
1783 -0.6021249 -0.50588316 0.6894772 -0.55146337 -1.2390583 -0.33968696 -0.047521032 1.0460467 0.54337966 0.73986655 0.6557233 1.3531284 0.7476559 0.91998816 -0.451238 0.096526355
2495 0.28746343 -1.421509 -0.23210928 0.2767567 -0.39529854 -0.64063907 -0.7565058 1.7200643 -0.6001612 0.35555002 1.2447126 0.17049587 1.3569213 0.82660717 -0.271749 -0.50265723
1586 -4.203869 -0.68768847 0.39213872 -0.64586616 -0.41351554 -1.0383182 -0.9436227 2.709489 -1.4177324 0.013593163 2.231929 -0.1272262 -0.6695587 -0.0693101 -1.7091725 -2.4444215
2313 0.3949234 -0.8439358 0.40303403 0.12560199 0.16335367 -1.8389661 -0.77963287 0.7682948 0.90369004 1.582927 0.70611787 0.9153284 0.44211543 1.0506814 0.58477616 -0.37068948
2004 -0.42187244 -0.51212484 -0.42789555 -0.5958236 -0.090041146 -1.2081417 -0.7250365 0.009822021 0.90382063 -0.6093191 0.5376123 0.19749726 1.4135504 1.4922173 0.4723314 -0.5021741
3181 0.7074581 -0.29676166 -0.058067307 -0.88428575 -1.0115802 -0.4679311 -1.1724011 0.66582084 0.38858587 0.9986282 1.159739 0.9335129 -1.0144278 0.94346666 -0.4050766 -0.48995242
141 -0.65466845 -0.7186643 0.19141583 -0.9444287 -1.3337573 -0.28006646 -0.17734097 1.1265541 0.6445524 1.1529869 0.6778245 1.3501633 0.54348534 1.0360587 -0.2301652 0.28537226
1302 0.17830151 -0.69230497 -1.0878221 0.58677423 -0.90960824 -0.68004096 -0.5589935 0.20268606 -0.11811613 1.4359858 1.3466594 0.12457455 -0.71041566 0.83677065 0.26876703 -1.5748397
1449 -0.5910205 -0.7892645 0.015170174 -0.23090474 -0.9819267 -0.8229017 -1.6117771 -0.3811755 -0.47926423 0.3662551 0.78575736 -0.5349745 0.70648867 1.7467743 0.23338896 -0.4711877
982 -1.7783331 -0.49150473 -0.2991386 -2.0740469 -0.8616705 -0.22070423 -0.15930717 0.8129825 1.4438853 0.37508208 1.1361887 -0.75457275 -0.020871239 1.1479216 0.15221067 -2.244595
269 -1.0284455 0.19700232 0.49548125 -2.43143 -0.9397264 -0.5296872 0.9392786 0.2627387 -0.11727179 1.5311521 0.91532105 -0.41778114 -0.23664902 0.8348596 0.34363762 -2.0976205
308 -0.94775724 -0.06494311 -1.0177279 -1.8919795 -1.128011 -0.043766897 0.63124067 0.48407203 -0.49000615 0.74301386 1.740978 -1.108691 0.33427298 1.444535 -0.3545464 -2.5294943
232 -0.09674153 -0.28677157 -0.25074175 -0.6115908 -0.53218895 -1.7709081 1.0295705 1.517347 0.4601479 0.49262035 0.6559598 0.87378246 1.7838433 0.16597843 -0.34641033 -0.17854916
161 -1.3870487 -1.4911474 0.7736499 -1.9746072 0.26343465 -0.96841896 0.35916254 0.32881984 -0.6643973 1.1259272 0.9573857 1.5856704 -0.76267576 0.9244621 0.53318095 0.9637786
390 -1.6831696 -0.4805905 0.36935708 -1.1040671 -0.47307602 -0.95954657 0.100336514 1.9975452 -1.0030942 1.7320044 0.38984782 -0.5869889 0.04564972 -0.29993516 1.4213244 -1.6252027
1209 -0.5619157 0.43086284 -0.38532707 -0.4420939 -0.4685004 -0.89819103 -0.04787989 0.7138362 0.46398303 2.1240993 1.3515261 0.36613607 0.94062555 1.3544691 -0.60419184 0.4525152
1673 -0.0712346 -0.18795133 0.28870758 -0.708257 -0.44659573 -1.6191472 0.8963392 1.5324103 0.1512862 0.59093255 0.6857256 0.931614 1.789273 0.31705514 -0.55876195 -0.13835551
2602 0.096865505 0.68378526 -0.9692395 -0.6977741 -0.09836262 -0.6538137 -1.3076969 1.0566112 -0.35022867 0.6170078 1.0179102 1.4180845 0.5794829 0.8955327 1.1007042 0.2681066
157 0.23634861 -0.08908501 -1.0652289 -0.5282235 -2.8120944 -1.1779445 -0.062220924 0.4117217 0.33857724 0.8602359 -0.058518082 0.98019844 0.33120412 0.99983543 -0.13108991 -0.36030862
2275 1.3902749 -0.6602365 0.16477633 -0.36430717 0.5173906 -2.302157 -1.6871037 1.8579707 0.31385657 0.6908608 0.54963875 0.35179397 0.15730788 1.2543772 0.33788195 -0.7157896
832 -1.459494 0.16914791 -0.34588668 -2.26798 -1.0039483 -0.27299675 0.36308384 0.29548445 0.24246985 0.8022196 1.1229479 -0.9645072 0.020506348 1.0534968 -0.044330265 -2.3877122
158 -0.58236504 -1.5115757 -0.4532209 -0.21897481 -0.6864626 -0.51552916 -0.5313502 1.6482811 0.7822697 0.08341845 0.1120077 1.7674043 0.20162138 1.0675508 0.100375906 0.27141637
2586 -0.29523695 -0.83522886 0.27346334 -0.29079598 0.7481546 -1.2498344 -0.99610114 0.16538507 0.31082666 2.144516 1.21007 -0.1649914 0.4765376 1.5123839 0.021282494 -0.27707556
619 -0.7388428 -2.0052555 -1.0660669 -2.5407965 0.73765385 -1.5074064 -1.0855478 -0.18934263 0.75492305 1.0982791 -0.7487379 0.33153918 -0.49426675 1.2554847 -2.632516 -2.2007284
1331 -0.2796921 -0.39025006 -1.645688 -0.13964209 0.4029156 -0.7588683 -1.328571 -0.08672101 0.22925116 0.16165951 1.0619072 1.2145047 1.058861 0.093191326 -0.29310215 -1.3082052
2099 -0.75013256 -0.25488853 0.32160372 -0.48413366 0.65104693 -0.5287051 -0.65789956 0.46876332 1.1472331 -0.052143227 0.42100257 -0.048389662 0.17566863 1.6351227 0.05788264 -2.09973
91 -2.4821804 -1.6385775 -1.6073127 -0.9570002 1.200316 -1.4943986 1.1013683 0.68506706 -2.621266 1.490088 1.0256969 -0.40782225 -0.2834559 0.61879486 -2.0344813 -0.83951813
642 -0.0767701 0.5408636 -0.9016902 -1.1217586 0.8792358 -0.49091926 -1.4363233 1.2460693 -0.5383026 0.4979745 0.82433337 1.4664311 -0.5189054 0.9005645 0.67205256 0.19013163
876 -0.799486 -0.8273389 -1.1733541 -1.628262 -1.807823 0.046070777 0.19611873 0.40433228 -0.4413427 1.6684412 0.246442 0.81672555 -0.08988434 1.8679389 0.8486717 0.17878339
579 0.47779974 -0.6554516 -1.0619167 0.29310623 -2.0256736 -2.1101606 -0.602914 0.22385304 0.46262428 0.37859735 -0.15865341 0.9478476 0.43950182 0.49945435 -1.7295866 -1.1628845
2417 -0.0022356089 -0.4514703 -0.16102248 -0.29032022 -1.7139947 -0.69101536 -1.1698352 1.2098129 0.40215582 1.2002503 0.508886 0.30357713 -1.0211681 0.67110175 -0.38396564 -0.05303621
830 0.1116223 -1.2484671 0.43848515 -1.2845755 -3.193076 -2.1990979 -0.22738977 0.42129526 -0.16968858 -0.35605758 -0.05464898 1.5434443 0.62664336 0.57631475 0.79911166 -1.6685877
2177 -0.86653906 -0.4527869 -0.052587587 0.1239791 -0.6998498 -0.6892394 -1.3790544 -0.50211215 -0.50453764 0.64715147 1.3038558 -0.24093023 0.16332859 1.7727454 -0.27041566 -0.04882793
249 -0.42958185 -0.9860423 0.014057029 -0.40436128 -0.86577237 -0.23531047 -0.6304383 1.4187336 0.7255002 0.5788021 0.2956955 1.3966393 0.62918586 1.0823357 -0.1726956 0.22395796
214 -1.4612477 -0.83140993 -0.49876097 0.3983421 -0.07972263 -1.6577598 -0.40485725 -0.85690147 -0.14521277 0.9892899 0.2843272 1.0293831 1.2794008 1.6038096 0.88372236 0.16007452
2029 -0.85923815 -1.3148022 0.19921428 -1.308841 0.48386467 -0.96440053 -1.1621158 0.24254039 0.2309956 0.17837591 1.1000715 -0.28206113 1.0867878 1.9306744 1.0540894 -0.42492574
1183 -0.7624419 -0.7180431 -0.8105893 -2.0945058 0.49187306 -0.10343551 0.98841614 1.7564573 -1.1694162 0.6061372 1.2570161 1.2844942 -1.154554 0.34460613 1.3506689 -1.6067656
2021 0.26713234 0.72186834 -0.45540965 1.1300056 -0.22566503 -1.7184032 1.092704 1.4819226 0.09335358 1.3168049 0.8926343 0.6128887 -0.3215332 1.7461793 -1.1545464 -1.8226408
160 -0.42477098 -0.25204393 -0.17116912 0.0069040987 -0.5748106 -1.5684634 -0.7712073 0.3806536 1.1973437 1.2961782 0.1697968 0.7600912 0.8355406 1.0619706 1.2315488 -0.44701886
2023 -0.5506675 -1.8102907 -1.3514216 0.15673022 -0.30956778 -1.1788275 -0.23158965 1.2253968 1.312188 -0.022701439 0.15974134 1.9326811 -0.41367877 1.1420732 0.38685083 -0.53217924
55 -3.8856735 -1.8496491 0.15398954 -1.7717009 -0.34527215 -1.8752829 0.17212069 -0.048691314 -1.2721903 0.98247886 1.3265471 2.5006182 -2.2641795 0.15557103 -1.457415 0.078681424
1068 -0.28046525 0.0027248515 0.6631945 -0.8993383 -0.28029713 -1.3237553 0.6546205 1.4448209 -0.10694709 0.89798874 0.7957534 0.58879524 1.9693681 0.70000297 -0.963908 -0.019429563
1400 0.06634403 -0.43969962 0.15509072 -0.30104494 0.40178502 -0.8684849 -1.8090793 0.19792308 0.16484994 -0.44376138 0.072543696 1.2596799 0.47790927 2.211666 0.30705264 -1.0884143
432 -1.2958547 -0.39321807 0.05143723 -0.26492858 0.67893183 -0.9650829 -1.3727475 0.13689867 1.172425 0.38749814 0.5857632 -0.37520877 0.301774 1.661422 -0.76520103 -2.1877685
277 -0.057826493 -0.41682935 -1.2883157 0.8355238 -2.442397 -2.7427225 -0.5749154 0.23644887 -0.34012184 -0.29438347 -0.40897614 1.4661813 -0.42255828 1.2564954 -2.1250472 -1.4191672
1121 -0.4165788 0.42274976 1.0302478 -0.83897644 -0.5354526 -0.93475515 0.1556263 1.4387823 -0.58304197 1.1722486 1.0437186 0.45079517 2.2984354 0.8714932 -0.70002365 -0.93303674
1289 0.081354626 -1.0322553 0.43935928 0.52119696 -0.5758699 -1.637518 -0.4363516 0.3978517 0.3242111 1.3594028 0.1184234 0.85045326 1.055129 1.4650558 0.85749066 -0.5194055
1479 1.1560103 -0.8152249 0.19533645 -0.2682591 0.23812461 -2.1310973 -1.3071353 1.5415742 0.53887445 1.1733173 0.8951002 0.7188684 0.05719938 1.1706461 0.8244003 -0.59408754
2249 -0.5885554 -0.69353104 -0.88979894 0.23028225 -0.024278129 -0.7546911 -1.0537847 -0.6657284 -0.12696883 1.0034121 1.6568271 0.9921386 0.7585743 0.1239426 -0.42452955 -0.8897214
1063 -0.3332963 -1.5602424 -1.2661256 -1.9484884 0.40438548 -1.2026267 0.022415997 1.059151 -0.41244286 0.7440209 0.564605 0.2555791 -1.1123068 0.5808266 0.22198525 1.1819714
2316 -0.73783463 -0.3733548 -0.6827422 0.08219397 -1.0511351 -0.8927322 -0.53684306 -0.5586622 -0.018319929 1.3610386 1.4712098 1.187433 0.7695779 0.22686033 -0.3119582 -0.18442771
2013 0.12658043 -1.2576085 0.03854242 -0.62801886 -1.1593956 -1.0483509 -0.870353 0.37378258 -0.0032227084 2.0550902 1.090869 -0.097644046 -0.4390227 1.1123893 0.60108036 -0.14857681
2668 -0.4228498 -0.7142963 -0.10590662 -0.40794533 -0.15265651 -0.2964665 -1.2014934 1.2133542 0.23784158 -0.22688958 1.1656009 0.4723999 1.7405844 0.777465 0.61089045 -1.3026792
1336 -0.43923035 -1.6252753 -1.3948396 0.21003634 0.4970228 -1.474681 -0.48387071 0.14936353 0.7470782 0.24007034 -0.2584178 1.5118593 -0.7509626 0.88186103 0.8063125 -1.4084276
2686 -0.30384687 -0.24071942 0.30058908 0.23396908 -1.1635276 -0.79774505 -0.27864215 1.5133097 0.13832764 0.53544086 1.374228 1.2766863 -0.18128921 0.81683916 0.22994713 0.36127394
1923 -0.7854648 -1.3751343 -0.7562466 0.8576328 0.7104855 -1.5888082 -1.2910335 -0.31461856 -0.54614305 0.9852263 0.8849962 0.2592658 0.65747803 0.9322921 0.18814291 -0.3264546
367 -2.490896 -1.2654145 -0.9004138 -0.9821903 -1.114622 -0.7271601 0.10311901 0.7072439 -1.4349432 0.050682385 0.27150676 -1.456945 -0.356996 2.147946 -1.2679511 0.039472077
2507 -1.7570525 0.83855885 -3.3341892 -2.3997202 -1.1204426 -2.5986993 0.9441686 -1.0191205 -1.037058 1.1797186 1.2975466 1.0063401 -1.4024063 -0.0793564 0.2825065 -3.1761878
2240 0.38910666 0.23021272 -1.4208682 -0.57133555 -0.50190175 -1.9768811 -0.7222301 -0.9379988 0.12632373 0.71024865 0.817752 -0.34587717 -0.1946147 2.6771708 -0.016070796 -0.78046775
580 0.65300393 -0.73237914 0.28111652 0.67462206 -1.4773782 -1.8058306 0.08015118 0.073274076 0.021478329 0.4321699 0.45069528 1.2513595 0.7647895 0.89899623 -1.4459996 -1.7553681
1736 -0.21982974 0.9130461 -0.53344834 -0.39290762 1.1205587 -1.2170807 0.48191592 1.5630567 0.4908331 1.1418977 0.3987381 0.73826593 -1.5477846 1.4811704 -0.26709002 -0.6150924
2274 -0.5319761 -1.1063015 -0.6000272 -0.6778675 0.013748067 -1.2268159 -0.3977977 0.0636203 0.47717908 -0.13600521 1.632376 -0.45603243 1.1131188 1.651755 1.1516439 -0.7453696
994 -1.3858275 0.6073906 -0.56207335 -1.9102529 1.2672625 -0.64378166 -2.5583823 1.4332123 -1.6743672 1.115253 -0.052816555 1.9518268 -0.05361918 0.9966785 -0.03954697 -0.1339237
2526 0.1463048 -0.19065247 -1.0737934 -0.46902964 -0.6592597 -1.8369523 -0.9269898 -1.2570442 -0.19430016 0.65624017 0.9490319 -0.38518658 -0.16226692 2.5063152 -0.20279148 -0.6012937
365 -2.681051 -0.7127111 -0.741635 -1.324954 -1.2057555 -0.959834 0.5233938 1.3566275 -1.2996963 -0.7532153 0.57980144 -1.2208916 -0.440483 1.5987924 -0.6315487 0.30245003
2092 -1.1495702 -1.3193372 -0.8942084 0.99779373 -1.0879781 -2.0092573 -1.2328448 -0.07939738 0.2990603 0.5521308 1.0157576 -0.36645153 0.2916506 0.48981524 -0.7378251 -0.35660312
1477 0.60820895 -0.3172914 0.09088383 0.65857506 -0.7630612 -1.6587994 1.0692536 0.75817573 -0.04027783 0.42888862 0.46492577 0.5748045 1.0063537 1.5037969 -1.4973149 -1.084332
47 -1.4005038 -1.6803906 0.3075307 -0.5059118 1.1373734 -1.8864071 -1.0847149 -0.8460205 -0.4300114 1.9438697 1.340002 1.1754957 1.4289597 0.40395212 -1.470085 -1.4969144
2424 -0.44251108 -0.01982252 -0.9175658 0.0053562364 1.2735287 -2.1221874 0.5138409 1.3278779 0.7197547 1.2160121 -0.47938502 1.0228049 -1.7920728 1.2452778 0.19420344 -1.0310103
2086 -1.1051793 -2.0371985 -1.8707101 0.22317153 -0.556227 -1.3188084 -0.11070717 1.3036537 1.0118461 -0.4888351 0.29783195 2.321693 -0.66189903 0.9468304 0.46182603 -1.0927997
342 -1.2928201 0.3925115 -0.7003297 -2.32575 -1.1960925 -0.45373538 0.817008 0.49744517 -0.15331633 0.89646316 1.0280466 -1.2651476 0.22193451 1.4454578 -0.450637 -2.5310948
439 -4.267155 -0.08236311 0.45655987 -2.9018564 -1.8069357 -1.4554039 -1.0886754 1.5045706 -1.9572039 -0.41986623 -0.32624012 -0.6379418 -0.42734185 1.3697864 -0.46070635 -0.13206105
2418 0.38046247 -0.8384111 -0.36006078 -0.32277998 -1.1943505 -0.8022298 -1.2013222 0.6949188 0.29687753 1.8899045 0.88343555 0.20051968 -1.2098737 0.66203195 0.14068773 -0.7764822
235 0.6357237 -0.64779234 -0.017086526 -0.7766784 -0.029379664 -0.64512515 -1.159914 0.8112043 0.21537314 0.7979967 1.5754608 1.5573733 -0.8298572 0.5644012 -0.1828882 -0.32775548
348 -3.5980124 1.7878301 1.6091833 -2.831331 0.05208246 -4.0499763 -0.7271986 -0.09494794 -0.6983455 1.2293437 1.1514671 0.18347344 0.35079125 1.2862195 -0.37905607 0.2619951
1963 -0.35650587 -0.23779039 -1.4282488 -3.0425224 0.14635053 -0.4108618 -0.4196763 -0.6689342 -0.7704035 -0.95638716 1.7921158 1.9317765 0.12042552 2.2103374 -0.44008705 -1.0183064
1364 -0.022536246 -1.5745052 0.08443381 0.058190547 -1.0125582 -1.5193735 -0.25247946 0.17698875 0.21178748 1.5968239 0.62779605 -0.35048804 0.15348385 1.7173377 0.97556883 -0.5619139
756 -0.906496 -0.7886748 -0.5392574 0.34360933 -0.28460658 -0.6912816 -1.2121534 -0.64800984 -0.46826914 0.8348808 1.3484576 0.03154868 0.3116689 1.7871375 -0.42987454 -0.22733502
775 -0.062370814 -0.7332469 -0.9359354 -0.20095502 -0.13322797 -1.4917831 -0.032977562 2.7350805 -0.7121474 0.6074152 0.6524306 0.44402322 1.9535893 0.6376281 -1.1382222 0.57829523
2226 -1.151528 -0.48070937 0.11197742 -0.24331447 0.59732056 -0.984868 -1.1893549 0.16598931 1.243687 0.32179463 0.61421406 -0.4021082 0.26001215 1.5995381 -0.79597056 -2.0415654
1660 -0.47781885 -0.08919889 -0.1285618 -0.44078305 -1.0440934 -0.86574435 -0.08691032 1.3998704 0.5753475 1.704593 0.7922365 0.6660724 0.6684587 0.7592366 -0.69048053 0.60933757
2288 -0.8602342 -0.45255068 0.2692306 -0.3649305 0.45053625 -0.6625669 -1.2802159 0.23746282 1.1047548 0.082321666 0.5309411 -0.11603269 0.5023492 1.6167295 -0.37119907 -1.9947199
2512 -3.289193 -1.0141432 -1.2660943 -3.4207726 0.7624058 -0.46963823 -1.2789383 1.2092055 -1.7870988 0.16983119 -1.1081028 1.7840278 1.6082528 0.93224573 -0.3458962 -0.82650054
1476 -0.10979165 -0.030443419 0.67283446 -0.09035976 -1.0526856 -2.356929 -0.58976346 0.62897074 -0.73068583 0.19364376 1.1704191 1.107333 -0.4920497 1.219568 0.54535985 1.1335466
2157 -0.7658943 -1.0496043 -0.12308886 -1.3455443 0.6224604 -1.4688704 -1.0000881 0.4676022 0.24475507 0.48332736 1.6331048 -0.84194046 1.3300574 1.8666008 1.3691483 -0.7901663
119 0.21767798 -0.23252329 -1.5069487 0.110420674 -1.269089 -1.7811102 -1.482576 0.24448833 0.5826888 -0.19588752 -0.13081768 1.3160719 1.0633552 0.68850553 -1.6488369 -1.5325826
52 -1.9381055 -0.15428135 -0.10143239 -2.3656905 -0.5792373 -0.9232347 1.2746142 0.14094196 -0.24033874 1.3277 0.5383641 -1.3807644 -0.8805579 1.5782559 -1.0847533 -1.4685882
1717 -2.5446465 1.8178264 -1.6664896 -0.69647026 0.7465722 -4.587623 1.4740801 2.6655116 -1.2831867 -0.77587014 -1.0389836 0.7471714 -0.9344395 0.6060826 -0.23751321 -1.1694082
557 -1.478032 -1.7252057 -0.30278707 -1.0754228 -0.6709943 -2.5290723 2.3330336 1.2272563 -1.9749695 0.27548766 0.47333464 0.7427711 2.343747 0.32438135 -0.83261013 -0.26150414
1398 0.21920799 -0.5493215 -2.3285642 -0.7175087 -1.4766827 -1.2503523 -0.21856217 0.059996434 0.5125455 0.67307556 0.31856617 -0.26966783 0.052871056 2.139125 0.07024936 -0.1386362
1822 -0.74611443 -0.5585704 -0.103037894 -0.65056247 -1.2444896 -0.41938153 -0.11838696 1.2290199 0.824622 1.2291889 0.8077043 1.2732027 0.68435216 1.0734601 -0.22585434 0.3945812
2341 -0.41713905 -1.0985798 -0.065340646 0.17526816 -0.39606836 -0.6588742 -0.63817126 0.9853222 0.03635781 -0.41384536 0.87776375 -0.32830974 -0.8518684 2.2355478 0.81485015 -0.45798278
309 -1.0075792 0.038642857 -1.0146248 -1.2748562 -1.322793 0.2677376 -0.31185073 -0.069960766 -1.3351076 0.9043269 1.6861036 -0.86356264 0.26917484 2.2028687 -0.42855227 -2.3809373
1044 -0.500839 -0.5944241 0.6009507 -0.20730972 -0.5984727 -0.9873111 -0.084006324 2.1914945 -0.5836546 1.2599772 0.50874954 0.016248802 1.581371 -0.2871661 0.43675974 -1.3929017
1450 -0.30960137 -1.154862 0.5175667 -0.37545848 -0.9937767 -0.8317919 -1.1374267 -0.07327261 -0.4226314 1.3843532 0.96028817 -0.6700673 -0.0004910852 1.695311 0.35684088 -0.37414974
1749 -0.87830114 -0.5576649 -0.048385467 -0.19211838 0.9884323 -0.73681927 1.0186585 0.49737296 -0.11750772 1.3015696 0.045337852 2.0308526 -0.6978569 1.8886081 0.15480413 -0.3191689
584 -0.7718382 -0.36430427 0.43562254 -1.9518299 0.6543304 -0.23352098 1.0038195 1.6084208 -0.7683338 0.88198346 0.6380795 -0.5296921 -1.4791045 2.100945 -1.1587412 -1.4553251
73 -1.8000289 -1.4236181 -0.85032654 -1.4424294 0.961574 -1.2880847 0.90464526 0.70588005 -2.309151 1.611761 0.58020353 -0.94276345 -0.65804654 0.71619767 -1.5179588 -0.47815958
2406 -0.25763282 0.01849503 -1.034897 1.5341059 -0.8862791 -1.3769289 0.47306356 1.4874439 0.2023455 1.9812847 1.121969 0.53126484 -0.59971637 1.7892683 -0.75034666 -2.264697
1243 -0.9937838 -0.92014706 -0.659835 0.10752731 1.7291172 -2.0156772 1.3419417 1.2768619 -0.12099468 1.1285032 -0.21974462 1.2872977 -1.3054708 1.0051184 0.31392586 -0.7801149
289 -1.1687504 0.36868295 -0.87962323 -2.268692 -1.3132372 -0.51257974 0.84697855 0.30724 -0.1929147 0.390046 1.1439185 -1.1844943 0.3695761 1.4152197 -0.22495851 -2.5677588
2924 0.87343884 -0.31767288 -0.48967317 -0.6138086 0.37475103 -1.1656842 -1.8746812 0.42387897 0.43915498 -0.16382669 0.5391826 0.53260577 0.4449728 1.0168277 0.3654895 -1.1718671
668 -2.0837886 -0.66997916 -2.6747687 -0.9648527 -1.0324728 -4.754721 2.0548935 -0.08135861 -0.41992828 0.7068997 1.2345799 1.0027905 -0.6630118 -0.52240473 -0.060427926 -0.13762599
2679 -0.14172551 -1.210613 -0.25450096 -0.31386086 -0.6504074 -0.026446622 -0.88628405 1.796811 0.037525985 0.42813987 0.9924244 0.7395456 1.5405077 0.812167 0.28285703 -0.84220785
2732 -1.3364352 -1.1377232 -0.15427317 -0.8141406 1.1199404 -1.160694 -1.5220636 -0.33511564 0.81200767 1.0169683 1.1288537 0.09357548 0.78871614 0.7932299 -0.5672616 -0.5779196
156 0.10859536 -0.08223961 -0.35135183 -0.48055008 -0.40144813 -1.8074645 1.0628724 1.5854702 0.56859463 0.26093057 0.47137317 1.1113197 1.7830479 0.5557115 -0.4415765 -0.43537226
599 -0.6615192 -1.6936723 0.033663675 -2.2271223 -1.34981 -0.92684907 0.4527145 1.9070328 -1.0057018 1.0417159 1.3622462 -0.21150868 -1.3724993 -0.18987954 1.1415669 -0.84342635
2552 -0.7167609 -0.9599199 0.19158387 0.065882094 -1.259369 -0.58436704 -1.8062304 1.0893159 -0.10948625 0.8954802 0.120679006 -0.0048374366 -0.8339359 0.96613574 0.083105445 -0.15428911
1825 0.2811884 -0.4232016 -0.86179626 -1.0346154 -2.2193348 -0.6888211 -0.4876895 0.88055414 0.38831007 1.1597588 0.27343416 0.3525637 -0.38292736 0.8825959 -0.3094774 0.121814586
198 0.22997592 -0.36154872 -1.6855386 -0.9403488 -2.5076773 -0.835578 0.036261328 0.25483173 0.33117393 0.9698811 0.04886622 0.46848345 -0.13503902 1.7364479 -0.21341322 -0.1306364
2330 -2.2745852 -0.5529693 -2.4404738 -2.4691715 0.5352538 -0.4320865 -0.8635876 0.98513776 -2.3415675 1.6428518 -1.3164313 0.8502514 2.1114144 1.0966655 -0.63643146 -1.590452
2299 0.5660294 -1.6145192 -0.5192474 0.6548108 -0.6266942 -0.9854188 -0.0048289816 1.2802895 -0.7764333 0.23111475 0.829775 -0.38902918 1.0644408 1.8613834 -0.500774 -0.76471734
895 -0.47644365 -1.5976458 -0.2272651 -1.3590142 -1.2794985 -1.0736156 -0.15069701 0.85735863 0.121412225 0.96834743 0.60391927 0.26401153 -0.9140805 -0.0003293728 0.43060955 0.70013213
682 -2.253634 0.722931 -2.8961778 -2.4435265 -1.2952328 -2.6224616 0.45932883 -1.1365169 -1.1422906 1.1193107 1.531672 0.7184901 -1.7710183 -0.11373459 0.714662 -2.8506258
1488 -0.6329104 -1.1852771 0.2477865 -1.5433803 1.1558896 -1.0463196 -0.9912357 0.26743189 0.2921442 1.3730974 1.355534 -0.5502742 1.0009209 1.4541278 0.5344632 -0.47507566
2296 -0.45966852 -0.6615356 0.5855181 -1.2187259 -0.06310604 -2.2204182 2.0911222 1.1179266 -0.46972865 0.5902524 2.199953 0.21145986 1.2797596 0.34471983 -0.56832063 -0.59938204
1738 -2.8813949 0.12507178 -0.9341248 -2.259449 1.4680562 -0.36789352 -1.9172138 1.490301 -2.6050704 0.8428924 -0.42467055 1.3113892 1.5090945 1.1933722 -0.3053503 -0.9279222
2336 -2.4734175 -0.51888925 -1.0819355 -2.7898283 0.96267915 -0.2441144 -1.3946847 0.9906989 -2.3372467 0.8852158 -0.94696075 1.2266434 1.5019052 0.82869774 -0.40913144 -1.2065785
700 -1.423312 0.16719733 -0.3823821 -2.5132675 -0.9909635 -0.5683276 0.8939762 0.19977103 -0.053045597 1.1619692 0.72464716 -1.1682646 -0.336705 1.2957053 -0.20117408 -1.9667884
110 0.06601043 -1.3538802 -0.29322824 0.7112259 0.026740279 -1.1299739 -0.8837905 0.8957588 0.15664262 0.5423827 1.661492 1.2937226 0.027132649 0.71375245 -0.11356666 -0.13408148
1864 -0.8468477 -0.4236681 -0.9964209 -0.5931234 -0.81963086 0.29212263 -0.81894225 -0.2940237 -1.1395465 1.124413 1.2009773 -0.6488964 0.49161574 2.0034008 -0.5491485 -1.8191723
2002 -0.12301106 -0.39263254 -1.0608332 -0.7046407 -0.010878988 -1.4132916 -0.6551635 -0.2537263 0.827493 -0.3483859 0.87373656 -0.15908428 1.2856569 1.7213527 0.379135 -0.40923256
1341 1.518966 -0.6511141 -0.19945125 -0.5051266 0.11510779 -1.7596447 -1.7113768 1.2850454 0.23199971 0.56278753 0.8742853 0.27413476 0.8174568 0.9584303 0.36448228 -1.1096506
1846 0.8004447 -0.8787993 -0.20510708 -0.55995464 -0.7764625 -1.4560874 -1.7729093 1.1965923 -1.4535451 0.7498862 0.22246486 -0.6167113 1.7856249 1.2931415 0.34986615 -1.1519728
2151 -0.5112026 -0.46674535 -1.8549153 -0.2901465 -1.7640843 -3.1051838 1.1850448 1.21712 -4.2145414 0.34035873 -0.4000013 1.5091007 -1.2773377 2.5332847 -2.024967 0.52304995
1859 0.6176068 0.05580918 0.26108608 -1.1747755 -0.74498546 -0.5442375 -1.5389018 0.38863668 0.44872373 0.25163487 0.82760376 0.84720105 -0.78447884 1.9140936 -0.10952665 -0.6628925
167 -0.9978206 -0.65060675 0.025905494 -1.3118017 -0.14260074 -0.50768197 -0.35166192 0.56196463 1.4737718 -0.21183291 0.9005163 -0.49648216 -0.060335614 1.3575449 0.36102983 -2.3652666
1156 -1.0832745 -0.8008075 -0.66897917 -1.3648369 -0.34804484 -2.2503629 -0.45326775 1.2447277 -0.5242652 0.7517964 0.87573326 0.7340225 0.06726323 1.4533935 -0.38056776 -1.1971904
1359 -0.93288505 -1.0635347 -1.174615 0.41970846 -0.50012946 -1.3383702 -0.5137849 0.5323972 1.1109174 0.82405573 0.34017494 0.23698503 0.22679473 1.0476841 1.4517465 -0.67478794
1714 -0.7954231 -1.3133968 -0.25010824 0.044291507 -0.45414886 -0.5717119 -1.7452841 0.70112544 0.28843278 1.0561745 0.2059599 -0.03543365 -0.76064557 2.2020934 -0.25765634 0.0765816
1043 -0.39742884 -0.1722102 1.0947251 -0.687011 -0.46600693 -0.61805934 -0.14853464 1.7053518 -0.6292129 0.9235855 0.9824621 0.3539253 1.8639847 0.32275787 -0.02047238 -1.1226109
3020 0.43013373 -0.5256178 -0.7174327 -1.3793011 0.22159767 -0.7341522 -1.0099535 -0.45161292 0.049036678 -0.45200557 1.4744427 1.3504466 0.3666974 1.2639117 -0.3604685 -0.25958857
433 -1.9751464 0.09760845 -0.19800866 -1.2589221 0.61992633 -1.444185 0.24515814 2.2332342 -1.2390752 1.9315987 0.8416319 0.049557257 -0.30237827 -0.7135465 1.6278718 -1.6246828
1709 -2.4689846 1.0122886 1.6120161 -0.56241226 -0.251664 -2.8404531 0.6809704 0.48480907 -2.432013 0.59650683 3.2216609 -0.2939661 -1.1677476 1.5048552 -0.7292827 -1.884566
2449 0.46626586 -1.0819376 0.0447095 -0.20677789 -0.88978136 -1.5486614 -1.1838683 0.8264009 0.15098041 1.7708548 0.95721054 0.52134687 -1.0825626 0.5633786 0.53998506 -0.12894624
1881 -0.22178523 -0.64978987 0.0055196052 0.15900508 -1.6963007 -0.74671 -0.79643714 2.0604894 0.2622028 0.49094266 1.182821 0.8553374 -0.37848994 0.47507247 -0.11460248 -0.14912441
501 -0.5722057 0.16836065 0.18465792 0.27262926 -0.9667155 -1.1502273 0.08482657 2.1070657 -0.29424158 -0.029108688 1.7950673 0.8695789 -0.57507104 1.2881131 0.51327085 0.46434683
3084 -0.56528234 -0.6507456 -0.071419664 -0.72848946 -0.95262027 -1.1696512 -1.7362651 -0.07712229 -0.31862476 -0.044619184 0.7307556 -0.8234444 1.6594334 1.5230528 0.34923115 -0.8427194
2568 -0.6467815 -0.17092143 -2.2857273 -0.9091823 1.4145572 -0.8602258 -0.82177436 1.1435258 -0.07552386 0.3266811 1.2450032 1.0546453 -0.15858054 -0.37535614 -0.14243196 -0.6766782
1843 -0.3112826 -1.7977751 -0.10346649 -0.7300523 -0.566446 -0.93799883 -0.70850927 0.4199416 0.38062474 -0.31216025 0.4704936 0.05747635 -0.08472275 1.580533 0.6457121 0.51535875
2395 -0.8053367 -1.3309165 -0.30962795 -0.47121716 0.89751023 -1.192615 0.17380853 0.44162455 1.1960734 -0.08193865 0.31289303 0.90275574 -0.5667451 1.0867395 0.5805791 -2.9898293
236 -1.239525 -0.013555191 -1.2633234 -1.0777686 -1.3589823 0.3440908 -0.7212093 0.1599236 -1.2394675 0.8710772 2.0009758 -0.7272019 0.33311462 2.4782856 -1.1182063 -2.3003142
1498 -2.0620437 -0.78437257 -0.2925674 -0.21166644 0.629663 -1.1142528 0.27545103 -0.30852577 -0.6063499 1.124874 0.35872167 1.6946511 1.0846808 1.6100076 1.2076193 0.3265584
1468 -0.16473746 -0.17716765 -1.2475309 -0.4991735 1.2054046 -2.7058415 0.8142743 1.3375974 0.64592516 1.5763373 -0.7645001 0.75794226 -1.9032956 1.307035 0.502801 -1.5700624
1168 -3.4834971 -1.2537304 1.4966688 -0.9006438 0.598984 -2.181217 -1.4168016 2.1157432 -1.2514111 0.1356926 -0.989291 1.7505392 0.7783562 0.13911651 -3.2274091 -2.8273501
2345 -1.137988 -0.6452699 -0.61216956 -1.3003657 -0.34097785 -2.043785 -0.3443141 1.1118054 -0.65997875 0.70911676 0.72246087 0.697956 -0.017865686 1.4044168 -0.2116959 -1.2330537
2146 -0.2524456 1.004515 -0.94996446 -0.9360032 1.4060239 -1.1257573 -0.307752 1.4226326 -0.30495417 1.3812857 0.79776764 0.8966644 -1.6033299 0.7666897 -0.23773164 -0.23408817
1120 -0.044403255 -0.0011295017 0.9209183 -0.7557383 -0.28297818 -0.5463805 -0.31921017 1.5980017 -0.88364244 1.1586761 1.2062391 0.51107043 1.9232581 0.6542904 -0.17631678 -1.3339332
384 -0.057514958 -2.7577782 -0.8155798 -2.2003298 0.7861664 -1.1309896 0.16563866 0.37738717 -0.6799997 1.0802938 0.32307264 0.015171169 -0.44036603 0.45561585 -0.9296031 -0.29663327
1254 -0.7644042 -2.164696 -1.7503741 -0.4620209 0.040466297 -4.0305414 0.35718662 1.8126919 -2.9513333 2.2026806 -1.5838544 1.1759773 -0.55446786 -0.5126335 -2.8217137 -0.97592115
1324 -1.7675647 -0.32798362 0.6118305 -2.2540095 -0.42229438 -0.60020524 1.3066251 0.3735117 -0.43722957 1.5545623 0.40788862 -0.9344369 -0.9421899 1.8354067 -1.045633 -1.3688024
568 0.21630622 0.13354523 -2.0265203 -0.7769088 0.88160384 -3.3510165 -0.4271068 -0.4005785 -2.9505742 0.4298344 0.062846996 3.2182817 -2.4222765 0.80575275 -1.2011707 -2.7635908
1310 -3.5200045 1.7152134 0.21159019 -1.2078254 -0.082205735 -3.449164 -3.082393 2.866387 -0.68559045 0.7130696 -0.014321552 0.17248724 1.4719759 -0.5705094 -1.0535253 -1.7043864
2031 -0.14333397 -1.5144742 -0.9175737 0.5107171 0.15143736 -1.486322 -0.18579812 0.8280212 1.0987829 0.26674256 0.5406239 1.789524 -0.70724434 0.9858722 0.4720208 -0.76878417
3237 0.47412115 0.1177361 -1.2366542 -0.3986278 -0.56575304 -1.894826 -0.7462362 -0.87660867 0.008996545 0.59011513 0.91089624 -0.351713 -0.15015541 2.7387605 -0.07569847 -0.76729584
1832 0.3345208 -0.63711566 -0.16461685 0.4922332 -1.0371646 -1.6040307 -0.01723084 -0.754152 -0.5342408 1.1572162 1.5598608 1.4154826 0.57887375 0.49153507 -0.72845596 -1.7516176
695 -1.66007 -0.38779983 -0.092477255 -0.66998225 0.2842911 -4.0489078 -1.2381094 0.22377124 -2.875555 -0.36962795 -0.017549109 3.977161 1.8135016 0.49093658 -1.8757563 0.35168102
2035 -0.75382066 -1.5920528 -1.4471548 0.4714298 -0.31936195 -1.4066807 -0.21412624 0.86463124 1.1917014 -0.18548383 0.18770115 1.8723962 -0.70384943 1.1364197 0.42058334 -0.75544614
1482 0.53261817 -0.6539429 -0.5022356 -2.3142762 -0.6450537 -0.8051453 -1.6095779 0.06423734 0.26660395 0.81407017 0.84633696 1.9098631 -0.55353355 1.1613226 0.90271705 -0.6641828
92 -0.5935963 -0.83359665 0.3383287 -0.06701378 -0.29570132 -0.54460293 -1.02771 1.2547668 -0.045496695 -0.5858413 0.84990615 -0.29489863 -0.8891204 2.1764202 0.6578248 -0.41661647
677 0.35850567 -2.5390124 0.34698403 -3.0881674 -0.42445228 -1.9827309 1.0147351 0.47395197 -0.8474446 -0.25307757 0.126388 0.6768478 -0.31478903 1.2836928 0.27990088 -0.13498096
469 -0.8861072 -0.13195162 -0.8239561 -0.098175704 -0.68482226 -1.2536732 -0.5704081 3.2546716 -0.3087478 0.090449326 1.7250481 0.72909015 -1.4818552 0.3479895 -0.19449066 0.3213327
1845 -0.9493193 0.16968523 -1.0145658 -0.93799055 -1.5215151 0.054268464 -0.4730757 -0.10247708 -1.4783896 0.8419437 1.5833098 -0.8015708 0.31929213 2.5041156 -0.77886397 -2.4793935
3384 -1.9327472 -0.026700048 0.40599415 -2.774299 -0.63074565 -0.9102222 1.3000952 0.47855765 -0.21988583 1.8249211 0.38846886 -0.9311861 -0.79008216 1.5155206 -1.0711461 -1.2900449
2819 -0.52183765 -0.49810532 -0.39098743 0.057247873 -0.6252726 -1.0763109 -1.3370508 -0.96239215 -0.3694951 0.8159736 1.1327002 -0.17202553 0.2408057 1.882077 -0.13392708 -0.3357454
76 0.29915166 -3.315797 0.049648456 -2.738585 -0.082651995 -1.907666 0.9647521 0.4422485 -1.1628382 -0.1180222 -0.2820029 0.6346034 -0.3438922 1.3245363 -0.74902976 -0.5911413
2729 0.21036501 -1.3182305 -0.30233 0.49659708 -0.5694333 -1.5474321 -1.0339059 0.24965248 -1.5968679 0.9450949 -0.63820523 0.026046187 1.3304112 2.0810332 0.26486748 -0.6950523
29 -1.5164949 0.034529757 0.51272064 -2.9274707 0.5497695 -3.9203923 1.1881182 -1.9424385 -0.61861163 1.8304679 -0.4354228 2.5441163 0.77032715 1.5814767 -2.3218842 -0.9373477
692 -0.35857415 -0.405693 -1.8174412 0.0039406666 -0.28768963 0.2882434 -0.9671825 0.21484087 -0.79867405 0.9023615 0.94334763 -0.12667759 0.31979173 2.0656698 -0.22064835 -1.6045256
2000 0.8761419 -0.551284 0.36682042 -2.0495148 -0.47165212 -0.191985 0.21472597 1.5987804 -0.68264973 0.87230575 1.7570841 0.13518128 -1.2455827 1.1979362 -0.5142842 -1.6517308
168 -2.0800827 1.7446558 -1.7303716 -1.0466173 -1.8903077 -0.75563794 0.24407871 1.701812 -0.30095318 1.076092 1.0579888 2.5932732 -0.08152021 0.44114414 -1.4204656 -0.68772405
2407 -1.0316769 -1.1568636 -0.17943208 -0.2614333 0.727434 -1.2758671 -1.378468 -0.68153954 0.122276984 1.6231896 1.5402879 0.6546237 0.8709045 0.19948122 -0.6449486 -1.0690914
615 0.05779306 -0.3010954 0.11166997 -2.7848043 -0.49756235 -0.35805514 0.6817823 0.46769303 -0.03151286 1.7459122 1.0465974 0.3762341 -0.4964743 0.57363385 0.43965912 -2.0547638
145 -0.3112892 -0.76916766 0.45709184 0.20746593 -0.5874001 -1.033558 -0.46692657 1.7036432 0.6825896 0.5746416 1.6287462 1.4779544 0.4662903 0.9119407 0.22584401 -0.18061812
3 0.7132237 2.2596295 -0.122300826 -2.5446637 -1.1134679 -3.801399 0.72717404 0.6575689 -0.6390808 2.3542054 -0.25230438 1.0427873 0.015848504 2.1184032 -0.22288154 -0.010523542
2556 0.33834004 -1.7881861 0.073369294 -2.662551 -0.6556588 -1.4188856 0.8366472 0.51853806 -0.57233965 -0.28485593 0.9322654 0.47283974 -0.38012645 1.1686921 0.39880925 0.41621944
2285 -0.6827853 -0.4684643 0.217183 -0.65885496 -0.031923644 -0.54832846 -0.9603822 0.5312612 1.0315292 -0.41555807 0.6063039 -0.28383684 0.6497991 1.4496741 0.4448838 -1.9468815
317 -1.0576841 0.13057697 0.024894683 0.18168755 -0.6120614 -0.92132837 0.34571227 2.1199846 -0.44970706 -0.46472225 1.4416263 0.10562029 -1.0057331 1.8255564 0.5242833 0.31823936
437 0.19404186 -0.7537808 -0.4566029 -2.6016304 -1.1806229 -0.4511668 0.2529787 0.62939936 0.5528313 2.0611527 0.74438906 0.8233402 -0.5036563 0.6603545 0.60196525 -1.4864541
14 0.39875895 0.6994313 -0.02100674 -0.71849924 -0.4550076 -1.4993892 0.37546238 0.7514944 0.6818295 0.9423809 0.5560082 1.3442144 -0.023295619 1.4131408 -0.40876287 0.8794175
310 -1.729869 -0.12016647 0.8615601 -2.5321968 -0.6728807 -0.4745768 0.95032877 0.34331045 -0.1856947 1.9749804 0.51872224 -0.4838324 -0.5776305 1.3361573 -0.6346052 -1.6765723
2974 -1.6779447 0.4182432 -1.2563148 -3.4168832 0.13141564 -3.729333 0.7237174 -1.0293564 -0.7397433 0.6683888 -2.0099254 0.42596564 -1.6364883 1.6076823 0.2502455 -1.7765907
1175 -1.3631852 -0.74943495 -0.36636156 -2.2549427 -0.94916266 -0.32757336 -0.78584695 0.92962486 1.202495 0.95866644 1.4539742 -0.20304209 0.09495388 0.4738068 0.19684687 -0.21426846
990 -0.7629818 0.41457593 -0.40304145 0.2258955 -0.80860174 -1.4021667 -0.16689816 2.973993 -0.47375065 -0.077738866 1.7697262 0.4585238 -1.1217852 1.2252471 0.22274806 0.45167327
1883 1.0208603 -0.99917763 -0.031991675 -0.24932227 -0.47630632 -1.0159551 -1.3701978 1.6386105 -0.71205956 0.51050353 1.0671588 0.1426988 1.4508557 0.6101616 0.2474086 -1.0136477
1833 0.26805586 -0.06316192 0.39968467 -0.89456004 -0.8824604 -1.8950891 -0.25870407 0.492337 -0.50843245 -0.040698122 1.2538859 1.2214614 -0.49801266 1.2026979 0.4649107 1.3235172
71 -1.1271389 0.24110058 -1.2546625 -2.1998272 1.1422756 -4.972889 1.0097746 -1.4631708 -0.2697012 1.8987281 1.3291878 -0.9606134 0.30284482 0.5346002 -0.89272374 -2.5490248
905 -0.761192 -0.41818964 0.107834555 0.33014798 0.21044935 -0.72231007 -0.22824615 1.583328 -0.19363521 -0.400451 1.0172569 -0.1792384 -1.2583001 2.4224448 0.54321235 -0.18582375
530 -3.4300864 -0.18449906 -0.67883784 -1.7375817 -1.6707119 -1.6722238 -0.122426614 1.1360258 -1.3394705 -0.8203762 -0.113109075 -1.2508949 -0.6827181 1.9178315 -0.27335796 0.31330404
112 -0.43911815 -0.37051573 1.0432925 -0.780397 -0.9117805 -1.0237522 0.52446914 1.2248282 0.63178205 0.42396718 0.4789707 0.8951453 1.3792402 1.0464662 -1.2410738 -0.14377534
2670 -0.99628884 -2.0101218 -1.6571076 0.24932265 -0.47293264 -1.6024786 -0.0065759206 1.2178727 1.3467544 -0.28315416 0.017674081 2.2147493 -0.47213528 0.9409115 0.31009623 -0.96442384
1858 -0.5443621 -0.47085997 0.17343274 -0.3274126 -0.73143977 -0.906854 -1.1509341 0.07851289 1.0644077 0.8281275 0.19201584 0.9316924 1.0828595 1.1106421 1.0487604 -1.2747996
1462 -0.7159948 -0.7090619 -0.11900044 -0.58870524 0.82363844 -0.8797877 1.3119036 -0.083476424 -0.96104735 1.1827534 -0.08477212 2.7846034 -1.1565461 2.241352 -0.5009169 -1.1639733
594 -2.4368155 -1.5639284 -2.153629 -3.7974195 -1.2431048 -1.6330338 0.029345239 0.8538793 -1.6029804 -1.940089 -0.015026552 -0.63212454 -0.21731478 0.7861261 0.31731576 -1.275817
395 -1.7228566 -1.3417732 -0.20725681 -0.9023808 -0.81073505 -0.63435704 0.14348488 0.1847064 -1.3299572 0.67950875 0.57071847 -1.6311184 -0.04668709 2.0549097 -1.0540744 -0.06910659
2068 0.26150402 0.011724191 0.39953262 -0.4047604 -1.36332 -2.0102057 -0.2650904 0.76510566 -0.81684375 0.085935704 1.6695557 1.0638285 -0.3656918 1.348065 0.46873736 0.9528723
1491 -3.3546724 -1.3369088 0.31763166 -2.0597787 -0.5224711 -1.6780396 0.5392534 -0.15509751 -1.4920664 0.69225323 1.1130306 2.4454887 -2.194177 0.6084349 -0.69268066 0.37891763
555 0.14428663 -1.5792183 -0.75805646 -0.7341037 -0.0509024 -0.7551791 0.49212995 0.49041995 0.55047727 0.11828976 1.6475263 -0.6436068 -0.44079092 1.070601 0.37811145 -1.7332101
758 -0.364736 -2.1027136 -0.66044885 -2.197464 0.9119403 -0.75495636 0.037771903 0.7414389 -0.8636297 1.0671194 0.6995604 -0.62628466 0.015868163 0.3792091 -0.84132 0.012258445
360 0.25727612 -2.2411277 -0.11481038 -0.22906148 -0.94732744 -0.869753 0.14226411 0.05832518 0.33417034 0.7415057 0.7616945 0.6301202 0.08625091 1.3212436 0.62767464 -1.0030185
146 -0.97660875 -0.94295585 0.8372564 0.21855478 -0.6900261 -0.34276858 0.048398025 1.0119379 0.16224748 0.8765325 0.06529872 1.5361152 0.5720529 0.9447957 0.51263446 -0.5477186
1837 -1.1540956 -0.9473918 -0.61690617 -1.0016705 -0.65256095 0.4081736 0.096230276 0.104089394 -0.6706901 1.7078874 0.2690824 1.0414935 0.16745907 2.6732042 0.3217595 0.1401867
88 -1.4312826 -2.0899286 0.6785825 -1.2675209 0.42693883 -1.7201756 -1.4361333 -0.03356829 0.54711807 -0.39907786 0.92512035 -0.10110144 0.43695936 1.4261119 -0.021655574 0.14002533
1776 -0.22043549 -0.10907807 0.6927688 0.1397139 -1.1784805 -2.698658 -1.0441581 0.42716596 -0.98513824 0.3731689 1.08603 1.098674 -0.6384032 1.5180818 0.49155104 1.0823387
2453 0.4091454 -0.9563752 -0.5073867 -1.2679844 -0.94145983 -0.4374872 -0.82844776 0.7412967 0.73411864 1.1003397 1.8033606 1.7396424 -0.8722039 0.8401349 0.040963564 -0.5591834
768 0.20265245 -0.46563596 0.29878595 0.19203216 -0.88918084 -0.7287055 -0.1632311 0.51424146 -0.7625181 0.72619945 1.513372 1.2376516 1.0495474 0.34282887 0.8355657 -1.2203308
378 0.042243294 -1.1268954 1.0810146 -2.9904864 0.53120184 -5.0415435 -0.06857003 0.5407073 0.120245025 2.205058 -1.7217771 -0.30968115 0.22081195 1.068124 -0.82826984 -1.3203992
1047 -1.6000264 0.15711506 -1.0689703 -3.74204 0.6474263 -1.4758235 -0.55868125 -0.23743093 -1.725631 1.5799326 2.9176667 1.1911026 -1.0164253 -0.183822 -1.7809511 -0.6588491
1782 -3.1775086 -0.0063552633 -1.3199526 -1.1384518 0.806981 -3.4449608 1.1313924 -0.82692975 -1.5185789 2.2466013 -0.5673807 2.513859 0.19814298 -0.8083975 -0.3100337 -2.768789
1720 -0.4392836 1.4534098 -1.8301158 -2.685401 -0.7149499 -4.7246737 0.49433973 0.9571435 0.04278784 -0.71286494 2.0689902 0.4964221 0.3958502 -0.52693284 1.9021214 -2.472035
2238 -0.5995657 -1.6018448 -0.96352816 0.9197736 -0.22361954 -1.3566082 -0.83712703 0.13109933 -0.09222059 0.46084893 1.3749963 -0.21427032 0.49995592 0.6781657 -0.0028957382 -0.31805775
124 -3.268425 -1.3683325 -1.1080282 -0.74061835 0.42275262 -2.7837129 2.0290518 0.6571593 0.2538275 -0.60946804 2.9798408 1.2054769 -0.8645373 1.6202916 -3.1830075 -0.67148554
1933 0.6264796 -0.046937075 -0.93594915 0.06777252 -2.0097618 -3.6590302 -1.3015211 0.42990473 -0.12934418 1.4276278 -1.4984907 0.88098377 0.16839874 0.79759556 -1.8654222 -1.6592505
602 0.7894333 -0.9052849 -0.1477841 -2.3292806 -0.067538306 -0.46639302 0.84862494 0.6309698 -0.596058 -0.15472114 1.6908367 0.018380744 0.1888528 0.98736805 0.25108728 -1.051324
2939 0.425992 -1.1292132 0.029970368 0.505925 -0.4171892 -1.2971116 -0.7424982 0.110360935 0.15938894 0.8983017 1.4260607 1.9272068 -0.47975487 0.75150704 0.14412788 -0.9273602
1419 0.0958429 -1.2397522 0.016950106 0.8256931 -0.26928595 -1.9510518 -0.8022221 0.10071229 -0.7030714 1.2419467 -0.6578808 0.93390787 1.3396337 1.7460456 0.7078191 -0.4984878
2800 0.6500075 -0.80986416 0.05636518 -0.6324424 -0.450018 -0.8454138 -0.95841885 0.89613104 0.5092947 1.0484656 1.6690824 1.5977296 -0.88160306 0.76390654 0.04087526 -0.61298186
2258 -0.3563024 -0.0486492 -1.2889127 -0.03283664 -0.7268244 -1.3802292 -0.39534536 -0.44519234 0.34653902 0.988429 1.7818885 -0.18384263 0.609916 1.5677776 0.016488828 0.1004655
560 -0.28154394 -2.3207285 -1.4438559 -3.0925453 0.63409096 -1.3497689 -0.36493334 -0.53246343 -0.36117774 1.5520298 -0.3586921 0.6237213 -0.41663793 0.74174523 -1.9735978 -1.1590163
3122 -0.0065036532 -0.6511468 0.58066845 -0.5910938 -0.32794374 -0.46551988 -1.4937271 0.3723379 0.2483963 -0.24032553 0.45397493 0.5048559 -0.11306158 2.1258304 0.48613164 -0.6902011
322 -1.3183279 -0.83889496 -0.27364776 -1.5451012 0.42652526 -1.0377865 -1.5532783 -0.7899046 1.1134602 0.8954348 -0.38548514 0.20775723 0.2538537 1.7431322 -1.5183785 -1.4154085
329 0.7307489 -1.0257007 -0.4782003 -1.7915212 0.2651977 -1.0298915 0.8289712 2.4920216 0.0067607765 0.9552015 0.90639853 -0.29081762 0.9118569 0.29661506 -0.24433519 -1.3929281
2025 -0.95084256 -1.2889132 -0.15937287 0.056219254 1.2503608 -1.5293386 -1.3259021 -0.19041653 0.2448694 1.8123587 1.1624953 0.1639098 0.702 0.9171038 -0.23052233 -0.51920426
87 0.19212897 -0.094816506 -0.20297068 -0.85087806 -0.50691754 -2.2258694 1.007544 2.8676157 -0.109331906 1.1785945 -0.04409256 -0.0743811 1.3776851 1.4926437 0.19377199 0.4216539
2559 -2.51076 -0.14070404 -0.71702886 -0.4201776 -0.3213079 -0.9558806 0.42306057 2.5734403 -1.8257271 -0.98604506 2.1617322 0.7934803 -1.3809147 1.3058083 1.6851723 -0.5567161
3099 -0.071097195 -0.23015569 -0.2966266 -0.7760299 -0.6139154 -1.7558692 1.0974834 1.759268 0.1840662 0.5678896 0.8720538 0.8313075 1.6367437 0.04684869 -0.29897553 -0.010105502
3060 0.30015212 -0.03834505 -0.27135286 -1.1060176 -1.5941198 -0.58215576 -0.39258227 0.7470737 0.5465962 1.428215 0.9293667 0.8005854 -0.11961006 0.88908446 -0.36850086 0.22971994
1729 -0.3229268 -1.649735 -0.66151625 0.39376995 -1.6807188 -2.0549798 -1.2737379 0.31498584 0.41860205 0.66792727 0.44067338 0.015591896 -0.35943148 0.15670498 -1.3426721 -0.09622055
2093 -1.6795872 -1.3227587 -0.540438 1.0705488 -0.9534852 -2.6326115 -1.2484648 0.0041161855 0.73795277 0.49444702 1.3239903 -0.8006517 0.13658997 0.833274 -1.0661266 -1.3285294
2434 -0.70150447 -0.357958 0.06208923 -0.2858502 -0.32978135 -0.7658893 -1.2553782 0.9449897 0.651382 -0.82267714 0.5912642 -0.24598211 0.5430401 1.6655799 0.9816038 -1.6084732
1207 -2.2745821 -0.036291886 -0.22763824 -0.97562623 1.0400934 -0.104873106 0.68612236 1.7399622 0.08402143 0.658578 0.05016616 0.77351874 -0.99165004 2.0482798 0.72979605 -0.8273874
2263 0.50879943 0.08208736 -1.2351775 -0.73233086 -0.786041 -1.7617165 -0.93283236 -0.9748098 0.17143679 0.648331 0.9030818 -0.16426253 -0.38459262 2.8349612 -0.2506748 -0.75923926
3986 -1.5447134 0.34290498 -1.578781 -4.6480904 -0.56175876 -3.4291754 0.13898347 0.19300178 -1.1040059 1.2178277 -0.9640972 -0.10895936 2.2076466 1.1222355 0.69135576 0.1178665
1123 0.4476348 -0.71243 0.5474335 -2.1330953 0.121769644 -0.11516368 0.67116624 1.4782542 -0.8367607 0.75876844 1.5159304 0.16851449 -1.2116212 1.2616496 -0.5348216 -1.7122046
1872 -0.15476407 -1.3365223 -0.9542568 -1.1298281 -1.2624084 -0.34444672 -0.36264184 0.9028667 0.43861836 0.8927975 2.032529 1.1284313 0.055642013 0.7100055 0.2817368 0.119773544
879 0.6535765 -1.6797364 -0.40827295 0.76113164 -0.76478106 -1.5403447 0.37311321 1.2771161 -0.952059 -0.10369495 0.74515164 -0.50287646 0.91094583 2.175065 -1.2309979 -1.1376948
200 1.9116147 -0.91822463 0.24545197 -0.8536001 0.39926857 -4.5557647 -0.97957915 2.35693 0.4953169 -0.0015297316 0.52371716 -0.06470494 -0.68053573 1.3604554 0.38614476 -1.7479968
2220 -1.0301075 0.84593505 -0.646861 -0.5038439 1.1639401 -1.0226797 0.020280635 1.540113 0.7186129 0.6091106 0.005250514 0.3852714 -1.4795839 2.241215 -0.61759466 -0.53342426
2595 -0.13674048 -1.4386245 0.18015826 0.34396535 -0.40627575 -0.72973067 -1.2898855 1.5003495 -0.5621061 0.16319999 1.5014248 0.16018635 0.92984813 1.0342478 -0.22508146 -0.23000437
2437 -0.0053816065 0.7468516 -1.296598 -1.5476872 1.331418 -0.8461295 -0.7767626 1.4884634 -0.4219173 0.99697727 0.4474404 1.0069501 -0.93293136 0.78060293 0.43693158 0.022597648
36 -0.11912286 -1.3989383 -0.19032842 -2.0939898 1.3753968 -0.5574158 -0.16488194 0.78299546 -0.4017554 0.81561166 1.5434982 -0.2864605 0.54849666 0.19459844 -0.43930355 -0.45875806
1297 -1.2608503 -0.3208993 -0.6314921 -0.19157171 -1.4394348 -1.0371925 -0.8843594 -0.429664 -0.40843415 1.575485 1.4126283 1.6316404 0.84631556 -0.084212326 -0.7605025 -0.13072312
2769 -0.23148617 -1.1100991 0.20004925 -0.57919705 -0.318274 -0.9938211 -1.2471975 -0.14549768 -0.05892145 2.1315868 1.1758375 -0.47389862 -0.031677105 1.646427 0.13849247 -0.2550683
2442 -1.4141613 -1.533165 0.02555143 -0.7284975 1.3074785 -1.7405894 0.72749513 0.19322388 0.88625866 -0.48831183 -0.026985519 1.2243272 -0.48759598 1.2368453 0.4261024 -2.9173496
458 -2.0881615 1.0771552 0.4992013 0.37710682 -0.29172692 -3.5427256 0.30014655 2.342657 0.31707692 -0.3434902 0.5014852 0.24472836 1.8852044 1.7788037 -1.2602466 0.108712405
2455 1.0614225 -1.1485994 0.29873833 -0.3009447 0.4760001 -2.2117586 -1.6311476 2.221987 0.34802336 0.8268773 0.53673965 0.3432283 -0.36252654 2.1382067 0.7895905 -0.4888815
1195 -2.14132 -0.38776347 0.16420217 -3.8229609 -0.49911338 -1.8565688 -1.0132052 0.7362065 -1.0164963 1.8508817 -1.3370539 2.4038 -1.7026285 -0.8056454 -1.0571758 -2.00222
482 -0.106113836 -0.42001888 0.4441592 -2.563838 0.548612 -0.6606086 -1.3084451 1.1706984 -0.13115165 0.1648048 1.7637864 0.41134295 -0.8146661 0.19015554 -0.21288495 -0.67136085
2998 0.538845 -1.017191 -0.45499784 -1.523374 -0.04684179 -0.4262179 0.84725475 0.6853951 -0.22283734 0.05623112 1.7676872 -0.49358416 0.06382518 0.7640594 0.22638434 -1.5557014
607 -0.2909368 -0.8888448 -0.3122455 -2.2292204 -0.04639853 0.046700273 0.72344995 1.5945859 -1.1644622 0.49751225 1.6062592 0.63121915 -0.91892624 0.2658024 0.8402045 -1.586557
75 -1.5871667 -1.7067133 -0.6432797 -1.5823672 1.0127714 -1.4284668 0.5955482 0.66757977 -1.9356401 1.7221102 0.6536185 -1.3706156 -0.78159493 0.4960455 -1.1694301 -0.99321014
1817 -0.061212763 -0.28766453 0.16062672 -0.6554834 -0.3868431 -1.6882793 1.1348985 1.3559401 0.22953042 0.12825072 0.84340376 1.1913251 1.7558931 0.28999332 -0.47014815 -0.29296526
1454 -0.29674554 -1.5293546 -0.49269587 -0.8920548 -0.8980573 0.016199471 -1.2935541 1.8438758 0.49365884 1.0677723 0.26279992 1.2406051 1.4765203 0.8951953 0.046063796 -0.82480425
1377 0.1378298 -0.96642375 0.10934628 0.42659718 -0.5300556 -1.6251135 -0.7296456 -0.12188413 0.131919 0.46983632 1.4082625 1.7257136 -0.7532066 0.2564527 0.29474223 -0.7149507
2139 0.45245755 -0.5848733 -0.9148681 -2.1770558 0.43785036 -0.72956306 -0.5446099 -0.5546713 -0.23077022 -0.71815443 1.8121079 1.6601218 0.31103462 1.7962 -0.5269782 -0.83906627
2337 -0.6864605 -0.17023696 0.16239117 -2.7287385 -0.16508143 -0.7966043 -1.6631836 1.2127299 0.63693947 -0.07050084 2.222851 0.30627128 -0.6932319 0.590137 -0.11496109 -0.3988482
2327 -0.7438188 0.15781578 -0.11673038 -0.41393605 1.3869187 -1.2843338 0.4420702 0.60113674 0.5121244 2.5962074 1.0418696 0.4685858 0.019500356 1.9780909 -0.5144361 -0.32762572
1670 0.18315096 0.6791082 -1.3797446 -1.9920304 1.4867395 -1.3705752 -0.41493988 1.6793243 -0.8982369 0.49973702 0.719606 0.8443843 -0.86955416 0.5242629 0.6185896 -0.07790155
2698 0.10481048 -0.9313521 0.31366956 -0.058520287 -0.35155278 -1.1133555 -0.77545434 1.5163505 0.6112438 0.6729511 1.7648567 1.7265358 0.04365963 0.59173006 0.31734926 -0.26460293
425 -1.7429641 0.3796043 -0.9737478 -2.5775163 1.1092801 -0.31081405 -2.5159156 1.8489791 -2.4567676 0.76803994 0.0035732514 1.9120921 0.5631688 1.2501047 -0.54153043 -0.26030844
386 0.09974656 -2.569715 -1.2447268 -2.7696514 0.8590617 -1.3046288 -0.043531265 0.011215239 -0.70012313 1.4495531 -0.1000771 0.4320934 -0.47555175 0.6549601 -1.509357 -0.76970375
246 0.58411175 -3.638583 -0.66275454 -0.95952356 -1.3248779 -0.9689901 0.41817644 0.4428796 -0.8991449 0.85026354 -0.06293105 1.4729079 -0.54993844 1.98854 0.1743758 -2.2197332
1932 -0.5765529 -1.8270651 -0.7437235 0.16716324 -0.7883909 -0.53574795 -1.3966178 0.13380991 -1.0339837 -0.24185902 1.4030952 0.5543666 0.10816606 1.3510964 0.017874712 0.059980504
1225 -0.9874576 0.32642058 -0.8029282 -1.6492251 -0.24156925 -1.8085862 0.22719689 1.2540627 -1.391865 0.20654 0.15570347 0.47892308 -0.21584375 1.0378476 -0.86120194 -0.87023365
2355 -0.660773 0.045815557 0.064833224 -0.4219158 0.82522327 -1.2342788 -0.16146128 0.4844476 0.65573657 2.6804855 1.3358154 0.28588066 0.33338037 1.69933 -0.43483594 -0.045858696
2295 0.07096757 -0.93843734 0.17030059 -1.4860667 -0.11884188 -1.2475879 1.5619041 1.3363624 -0.20659456 0.16450472 1.9436855 0.2686934 1.2028027 0.24554366 -0.5023863 -0.71964717
1062 -0.31918195 -1.7220082 -0.68153375 -1.8703594 -0.36054024 -1.3056284 -0.08283305 1.0354887 -0.22477096 0.7535583 0.44380274 0.32557952 -0.98329633 0.44837096 0.575759 1.1215613
1620 -0.35311893 -0.9217074 0.71622187 0.46954638 -1.1382824 -0.80451584 -0.6448391 -0.0866105 -0.24296065 0.7008707 1.1041038 1.5434766 0.32298708 0.639961 0.45832476 -1.7503086
731 -1.7984775 -0.44079372 0.45577174 -1.6786249 -1.0510424 -1.0519502 0.43950543 1.7667879 -0.7282873 1.8902185 0.4257381 -0.8433167 -0.42327914 -0.2129188 1.2152301 -1.8795091
532 -2.519112 -1.4923869 -2.356035 -3.4246404 -1.2949433 -1.4742506 -0.007322994 1.3570687 -1.3716892 -2.0292358 0.2508197 -0.7870548 -0.27298743 0.89525515 -0.10859001 -0.86772907
711 -0.059661295 0.35120004 1.1919141 -2.4944012 0.8852218 -3.3758674 1.1309776 1.0609223 -3.313189 2.9426806 -0.6450471 1.4489261 0.11688266 0.2998034 -0.68947405 -2.3665738
3562 -2.188597 1.047922 1.6934899 -0.7565427 -0.33996296 -2.7241547 0.69657385 0.43051508 -2.8890324 0.8712865 3.0901124 -0.2431006 -1.1667002 1.6981143 -0.8444553 -1.6263368
422 -2.1835563 1.0775442 1.7149118 -0.8139769 -0.30844554 -2.6477635 0.6855681 0.43032104 -2.9193916 0.86072963 3.0535567 -0.15408087 -1.1485717 1.76157 -0.8648581 -1.5985152
3076 -1.9554687 2.3354793 -0.111871496 -1.0641783 -1.759055 -2.360025 1.1981032 1.7416251 -2.3451085 2.3709576 -1.6040622 -0.19394095 0.6089689 2.8206804 -1.4843323 -2.1846597
1836 -1.2012184 -1.0417101 -0.23350757 -0.77114576 -0.29973584 0.25636956 0.5168388 0.48508722 -0.92719746 1.6242625 0.34928343 1.5752082 0.19675407 2.18145 0.4297897 0.24329385
72 -1.4078127 -1.3349961 -0.6051515 -1.5329344 0.8130389 -1.6205069 0.67256033 0.90081125 -2.1820502 1.5803163 0.50052714 -1.428412 -0.65869606 0.8275353 -1.4730684 -0.29386106
850 0.4810727 1.2817552 -0.14275642 -1.2363393 -0.50423485 -2.2802434 0.47756484 0.6157423 0.2997187 1.2056499 0.042118963 1.7344104 -0.062177 1.6861167 -0.38537085 0.76172185
1564 -3.3003547 -0.12076694 -1.1061246 -0.7272285 -1.5469917 -4.3180943 2.464095 -0.45936888 -0.5474727 -0.24852836 -1.1092032 0.45895573 -0.03858134 1.9632548 -2.1579309 -0.72028804
1180 -1.5829082 -1.9351714 -1.2126545 0.21395326 -1.2549275 -1.85412 1.0081869 -0.5162984 -0.10593217 0.1439006 1.1251127 -0.22478823 -0.9578294 2.1258464 1.0165962 -1.1400608
833 -1.263638 0.26129103 -1.18859 -2.2315242 -1.1136805 -0.29208615 0.8926745 0.33193082 0.100605816 0.954366 1.2789674 -0.8480245 0.36122465 1.4082247 -0.44162774 -2.7217758
149 0.08136634 -0.3492998 -0.18948099 -0.5821295 -0.47463834 -1.8025731 1.1135368 1.4667263 0.43339625 0.39366487 0.8316672 0.73830116 1.681471 0.36432818 -0.4082185 -0.14005332
2005 -0.2173496 -0.22348242 -0.4161721 -0.7047827 -0.15497988 -1.3925929 -0.31612578 0.19654518 0.8207473 -0.63221794 0.77243614 -0.12532827 1.8728154 1.793883 0.31096628 -0.5708624
3867 -1.2194651 -0.8428743 -0.76136357 -1.3376876 -0.46693808 -2.144572 -0.50726396 1.0795941 -0.60772705 0.8220673 0.95683587 0.90134305 0.10519205 1.4988652 -0.2191337 -1.3179762
175 0.29777825 2.1225488 -0.42429447 -1.4492707 -2.1033976 -1.2961192 -0.34254718 3.1523583 -3.1734552 1.3576165 0.307968 0.34651467 -0.87615776 2.7241528 0.61779195 -3.264151
2095 -0.21099077 0.0027888124 0.6942472 -0.2656747 -0.79843855 -2.8469057 -1.8133365 0.45756176 0.3241446 0.9537434 1.4536302 1.037153 -1.6405069 0.2438552 0.44588503 -0.4914178
43 -3.06652 -0.7965456 -1.6620721 -0.45667136 -0.17504199 0.27306247 -1.1487844 2.3091776 -0.83632416 2.1426222 0.253892 2.1278944 -1.1145324 0.935082 -2.5349627 -3.3297925
2911 -2.0342543 -0.54358464 0.48367724 -3.145325 0.23359242 -4.1894765 0.72530675 2.3233643 0.29645115 -0.6940096 -1.9703822 3.2130988 -1.0052986 0.22506458 0.23418811 -0.51206183
2971 0.82128257 -0.91217494 -0.7730357 -2.0344586 0.2548842 -0.8267019 -0.20459932 -0.28633174 -0.07731464 -0.87659943 1.8416458 1.2277992 0.35982603 1.249056 -0.4144326 -1.0832137
404 -1.076424 -0.7334172 -0.62641245 -1.2624534 -0.3639968 -2.090423 -0.31587908 1.0440452 -0.56770706 0.65065366 0.74708706 0.9032269 -0.057213224 1.3882127 -0.41837075 -1.2003399
99 -1.1245164 -0.8751328 -0.061641496 -0.58469373 -0.4688616 0.32994232 0.4887945 0.691563 -0.39072055 1.3647777 0.32702568 1.5537497 0.3258631 2.0292325 0.24412793 0.07524193
771 -1.0788822 -0.110355176 0.29733586 -1.0313364 1.0960708 -0.32575235 0.5929643 1.6759413 -0.35621172 0.61283344 0.670791 -0.246723 -1.705379 2.382728 -0.664068 -1.2081
1335 -0.7164625 -1.9539202 -1.6484159 0.1934676 -0.08850928 -1.4349014 -0.33957756 1.114871 0.88916785 -0.35318998 -0.26484993 2.2268896 -0.58426744 1.0126952 0.6243477 -0.9346779
2874 -2.116938 0.022587651 -1.3911246 -1.0104945 0.7459505 -0.6468335 1.0769863 1.4768535 -1.4201618 0.5446642 1.8210614 1.0683398 -1.1060358 0.3677394 1.1903108 -0.7219999
238 -1.1963117 -0.6971244 -0.5699451 -1.1751182 -0.21197547 -2.1454773 -0.3005224 1.1185087 -0.5710481 0.7216676 0.90614855 0.72812206 0.06579573 1.4717685 -0.39083374 -1.2210305
147 -1.3978072 -0.115884736 0.013591666 -3.1261227 -0.86464393 -0.6723913 -1.5003071 1.1493852 0.83729726 0.35471228 2.2397265 0.031631816 -0.45645478 0.61463237 0.05831408 -0.2844301
1401 0.8412894 -0.0020170468 -0.10213248 -1.0650413 -0.65072566 -0.6472506 -1.6852244 0.5025671 0.2584402 0.52075607 0.87010384 1.2887877 -1.0266782 1.4093039 -0.42609292 -0.6486811
487 -1.0703166 0.70473456 0.7898621 0.44556424 -0.31441715 -2.8875496 0.48726833 1.7650563 0.24750258 -0.28884253 0.39036933 0.6877989 1.6367453 1.0284593 -0.6330077 -0.32113945
172 -1.1951783 -0.60960853 -0.6116119 -1.118877 -0.21510834 -2.0620863 -0.2904198 1.1743059 -0.675983 0.71540177 0.8240905 0.89534575 0.083917886 1.5763379 -0.29234558 -1.2702762
1399 1.2984146 -0.16510104 -0.7481414 -0.87622184 0.025320632 -1.5228258 -1.8554671 0.4828223 0.2261157 0.093982056 1.093472 0.29362315 0.15885249 1.2421141 0.41240492 -0.7136678
2745 -1.2658058 -0.16128701 -1.4649411 -4.376932 0.09853321 -3.730994 0.1973433 -0.26750025 -1.115505 1.3304039 -0.852199 0.34294823 2.2421544 0.8601309 0.8974872 -0.128259
1239 -1.0800029 1.3629903 -1.1424001 -2.8735423 0.6210413 -1.2821863 0.6637618 0.97736996 -4.73916 0.15885422 0.23446673 0.95058227 -0.79420435 1.9658303 -0.4943791 -2.6109316
396 -1.6561353 -1.4002732 -0.17282374 -1.8094717 -0.21298529 -0.75878173 0.5930355 -0.015451442 -1.2619209 1.1458114 0.55652684 -1.6429452 -0.29242417 1.7568786 -1.0827328 -0.399869
2078 0.524463 -0.70350796 -0.7940458 -2.1730056 0.286455 -0.87817925 -0.5243246 -0.54425967 -0.097315885 -0.74018425 1.8504739 1.687292 0.4228715 1.7806568 -0.6594072 -0.72026783
2189 -1.792956 -0.33538687 -0.6787369 -1.0476929 1.0286739 -0.24698824 0.7604852 1.501992 -0.47089422 1.1882948 0.90294373 1.5754021 -0.8345254 0.8121555 1.4031984 -0.8715444
1069 -0.14772668 -2.1756175 1.3458395 -1.6600226 -1.5369289 -2.9814508 -0.6977836 -0.019160692 -3.0516658 -0.79337156 -0.113836944 2.2301528 -1.7928287 1.0270426 -2.6077974 -2.3602533
2118 0.5545923 0.20354058 0.242587 -1.2542579 -0.35068116 -1.5955642 -0.49391332 0.4199918 0.23211214 0.04502319 0.97021717 1.2749528 -0.40448 1.4328475 -0.099314995 1.2175764
398 -0.71542907 -1.0183624 -0.0050424654 -1.9932253 1.0178688 -0.43879598 0.6085603 1.6574265 -1.2247566 1.1936092 0.11630733 -0.8096927 -1.5515907 2.0393708 -1.6020193 -1.4421762
195 -2.2653933 0.13696198 -1.8813565 -1.9098047 -0.8893519 -2.00378 -2.9414458 2.3152273 -1.5726999 1.3917565 -1.9496638 1.6003213 0.43255144 0.07657137 -3.0463393 -0.68070775
3135 -1.0784813 -0.6434277 -0.66604036 -1.2409415 -0.3000687 -2.0289538 -0.3460259 1.082165 -0.64225346 0.7333782 0.7657684 0.7949522 -0.068278 1.4126161 -0.3300655 -1.2089525
1392 -0.7667095 -0.67917585 -0.68046284 0.30626118 -0.824521 -1.0071032 -0.7745612 -0.9424803 -0.18906777 1.1600379 1.7372068 1.0568068 0.65585047 0.42034152 -0.10324311 -0.8143104
820 -1.2333827 -0.57099867 -0.74158186 -1.3380754 -0.33132556 -1.9377826 -0.2435304 0.8649624 -0.7656968 0.61021525 0.698961 0.568513 -0.021844579 1.211833 -0.2758331 -1.1156623
1573 -2.0196187 1.8542979 -1.9177345 -1.433296 -2.0442643 -0.9204188 0.18056093 1.7337538 0.11335415 1.0365877 1.4850904 2.7465901 -0.49785563 0.41879877 -0.92986697 -0.7903045
28 -0.8666482 -0.32631394 -0.62014633 -0.26045942 -1.3541646 -1.0435969 -0.4914614 -0.27774316 0.05962749 1.6748195 1.2556558 1.6023988 0.9016468 0.22451386 -0.4887896 0.16286145
2935 -1.1901711 -1.3554761 -0.24955548 -1.8432758 1.1225615 -0.8604121 -1.229811 0.22728474 0.82482666 1.2260092 1.5199333 -0.34532842 0.95823413 0.6540469 -0.10712427 -0.6208962
1901 -0.4429247 0.36721078 -0.06957904 -0.6920143 -1.1291746 -0.7728477 -0.4028143 0.85551876 0.49862957 2.196247 0.93527204 1.0348881 0.4935943 1.1705768 -0.7073026 0.43557444
412 -1.0618687 -0.5485827 -0.65178305 -1.2150055 -0.24804957 -2.0009978 -0.19236968 1.0286771 -0.7116021 0.5733747 0.74959207 0.671499 -0.08853534 1.3046445 -0.38260788 -1.0813372
639 -1.1718584 -0.1713402 -0.4773448 -1.0185916 0.19249396 -2.165252 -0.29191077 1.0096551 -0.7998401 0.51782423 0.7917779 0.31457272 -0.12634663 1.2525219 -0.31835347 -1.1309006
1708 -2.1967976 1.0006378 1.7926263 -0.6870525 -0.25612247 -2.6813176 0.66902614 0.41278237 -2.7414033 0.699906 3.0701008 -0.22514781 -1.1171634 1.8037467 -0.78785086 -1.7659461
3640 -1.5846207 -1.0750567 0.09640755 -3.6124678 -0.5738233 -2.0426345 -1.1614037 0.70196193 -1.517486 1.852502 -1.0633464 2.6858466 -1.4631289 -1.2717078 -0.6429627 -2.3122063
3601 -3.9266217 -0.6828154 -0.7974699 -0.19776016 1.1437455 -3.5090623 0.029242303 0.10412259 -1.8537242 0.19351308 -0.85906905 -1.2098105 1.2545571 0.9396787 -1.8452424 -3.2014482
2148 -0.37645108 0.19852301 -0.5755377 1.4487084 -0.5389573 -1.6111993 0.76044416 1.8301353 0.24229965 2.147552 0.81165487 0.7804111 -0.38091278 1.7848655 -1.0650436 -2.476766
4018 0.3972623 0.14070004 -1.3050406 -0.5641338 -0.67195326 -1.8987635 -0.71743935 -0.91976434 0.09341996 0.5925384 0.8763589 -0.3396666 -0.25009996 2.6995833 -0.15996367 -0.61203295
2172 -0.8148819 0.4429987 0.087363966 -1.916609 2.1490772 -4.33031 0.9362884 -1.2688689 -2.0226102 -0.17784484 2.563836 2.292386 0.28982374 0.76582444 0.14634217 -2.4891596
613 -1.105267 -0.76581615 -0.67713207 -1.2681755 -0.35056764 -2.0938847 -0.41743213 1.1925507 -0.60493356 0.79348236 0.8800151 0.876964 0.015996817 1.5580198 -0.30779752 -1.2413821
3528 -1.131763 -0.8196795 -0.6423588 -1.3436159 -0.38574296 -2.2545698 -0.3878551 1.1399031 -0.6338574 0.85778004 1.0565754 1.0192306 0.20707671 1.8087543 -0.16085471 -1.35376
3236 0.2000763 -0.28887272 -1.4659872 -0.14511392 -0.237184 -1.1272938 -1.4675268 -0.059843484 0.6943725 -0.30579242 0.49382907 1.0739598 0.9257074 0.6578165 -0.93483657 -1.1593455
1922 -1.3996375 -1.3694687 -0.78548646 0.89686054 0.87047637 -1.84184 -1.7846477 0.25169444 -0.8848203 1.2174261 0.32178956 0.118262045 0.3102227 0.5186091 0.8234759 -0.8044651
107 -1.1310402 -0.7479998 -0.70427775 -1.271621 -0.42522216 -2.2144656 -0.43090641 1.1673025 -0.60148966 0.89554846 0.91885054 0.86383486 -0.028153578 1.6590861 -0.22253455 -1.2101198
2057 -0.08076563 -0.880851 -0.15906608 -0.87614036 -0.87206644 -1.7744043 -2.1189396 0.4120073 -1.04941 0.45975763 0.285629 -1.0043703 2.1657164 1.2485088 0.2482574 -1.2411519
968 -2.367139 0.37699896 -1.2052214 -3.9239335 0.6914517 -0.9958398 -0.37144336 -0.17093185 -1.5685998 1.6862997 2.899088 1.421595 -0.7579885 0.19719931 -2.359167 -1.1338661
725 -2.7651508 -1.088203 -2.1888783 -2.091254 -1.9649584 -3.529903 0.54915935 0.5007011 0.79229754 1.2582568 -2.5519845 2.3804443 -0.76911277 -0.22409242 -0.36796236 -1.2936729
2256 -0.13312988 -1.5630327 -0.6214846 0.8000613 -0.054319244 -0.9971579 -1.0577649 0.9058126 -0.2801212 0.3928462 1.5794592 0.38709998 0.8106307 0.71357596 -0.35724902 -0.22167152
896 -1.0465293 -0.4400206 -0.77090794 -1.1235806 -0.087450124 -1.9328021 -0.1737797 1.0481195 -0.6187826 0.6570428 0.62311697 0.7745768 -0.12134252 1.0338634 -0.38757583 -1.2150582
1918 -0.47634083 -1.4259845 -1.5652558 0.19581906 0.815801 -1.8001039 -0.99678814 0.036988176 0.16471197 0.0003052151 -0.54185116 1.597638 0.14911938 0.6823029 1.03209 -1.500286
2024 -1.0622476 -0.36733392 -0.61134577 -1.5287111 -0.6243686 -1.8952779 -0.46092114 1.0407373 -0.98032695 0.5128757 0.82737815 0.26465905 -0.13735081 1.2340479 -0.27876994 -1.1091486
68 -1.1696602 -0.56016004 -0.6712473 -1.2498212 -0.32906315 -2.002936 -0.3474173 1.0536957 -0.59551877 0.72901344 0.7179281 0.7054805 -0.024133038 1.2606834 -0.35316175 -1.1834537
1326 -1.1333263 -0.74531764 -0.61768 -1.3269352 -0.29084986 -2.182039 -0.38513544 1.1577145 -0.5202351 0.9004919 0.9799084 0.8248046 -0.0015289233 1.5623635 -0.33942124 -1.2028034
1999 -0.8452694 -0.2519114 -3.6615846 -1.7856873 1.0498486 -2.8048797 1.2000352 2.14649 -0.7674177 -1.9680377 -0.87465036 -0.048260093 0.26557985 1.7872745 -1.2692701 -2.9889014
1124 -0.1012781 -0.5134025 0.119244404 -0.4959598 -0.40749532 -1.5207199 0.5596356 2.4977064 0.1003234 1.310871 0.3506813 0.19037078 1.5460544 -0.31264648 0.05566323 -0.9791552
441 -1.9168818 -0.8186009 0.23776196 -2.0012262 -0.26107773 -0.8346 1.3026485 -0.11123694 -0.8131221 1.2491255 0.39155185 -1.3421036 -0.5125949 1.8487446 -1.0301691 -1.0037868
1915 -0.818546 -0.5713995 0.8107964 -4.2051616 0.43326008 -2.0056944 -1.0269482 2.3524127 -1.9996347 -1.8667626 -0.74354124 2.4417083 1.1099764 0.40798867 -0.9018615 -2.171699
347 -2.1719558 0.8397933 -2.9687223 -0.43872592 -2.9951272 -2.9218452 -0.4552578 -0.8035329 -3.310293 1.8593396 -0.45255953 0.11399867 -0.7475181 1.0170535 -1.4084877 -2.4024575
3616 -1.2212642 -0.80766696 -0.065870084 -0.35656476 0.5887261 -0.8384622 -1.5188805 0.17244785 1.1797382 0.4424 0.6210345 -0.28474778 0.46821314 1.8084898 -0.97841775 -2.0241697
473 -1.1481373 -0.93574965 -0.6487373 -1.3679557 -0.38822445 -2.2986662 -0.47397342 1.2476187 -0.55146027 0.92441505 1.0853798 0.9273034 0.065680936 1.723286 -0.24926251 -1.2530472
117 -2.6993055 -1.7225505 -0.97518945 -3.0338426 1.2858624 -3.2072918 3.0687928 -0.032886844 -2.2147636 -1.0965775 0.53430384 1.9666077 -0.4846489 0.3862422 -0.64238524 -1.611786
358 -2.5493653 -1.4371262 -2.420546 -3.9876938 -1.313126 -1.2912204 -0.25735277 1.4938352 -1.4782698 -1.8546891 0.29370868 -0.4244463 -0.25354272 0.5277009 -0.044986486 -1.0247849
2404 -1.129073 -0.53367436 -0.66641605 -1.2362158 -0.24855125 -1.9658631 -0.2116774 1.0374975 -0.51057655 0.53522617 0.7588658 0.62919724 -0.18063487 1.262236 -0.37948093 -1.2260643
263 -3.9042804 -0.223579 -0.7035547 -0.32686555 -0.70132315 -4.066919 0.2481703 0.3805582 -1.4265151 -0.7200453 2.5478976 0.7605155 0.8145961 -1.4728552 -1.9783542 -1.9235775
57 -1.7930633 0.49591166 -1.1450233 -3.4622283 0.24472694 -3.7878425 0.851324 -0.87309927 -0.8167497 0.76726305 -1.9469197 0.46551836 -1.6177272 1.3980712 0.33023798 -1.6244859
2084 -0.22450101 0.3867342 -1.0991926 -0.45303312 -1.2846327 -3.5774014 1.5629439 2.0771933 -1.5316111 0.14834748 -1.9635154 0.2645529 1.1172187 1.9038645 1.4810292 -3.7047153
1681 -4.6220365 -0.19085923 0.2714059 -0.5950548 0.14394109 -0.9859792 -1.155468 2.7985265 -1.0642202 0.4630832 2.2383113 0.029492212 -0.28989232 0.1595246 -1.4708805 -1.7126838
2438 -0.123576194 -0.27669057 -1.1350454 -0.64837694 1.1135532 -2.5194438 0.78973794 1.5007187 0.5729326 1.7148745 -1.1456507 1.0709264 -2.091981 1.4328656 0.05498139 -1.302828
1147 -1.2588499 -0.9283959 -0.6810596 -1.3968899 -0.4368479 -2.330178 -0.59072 1.2478739 -0.53689325 1.0007299 1.0682716 0.9625862 0.21682103 1.7810937 -0.29761627 -1.2510954
2799 -1.1324627 -0.36074537 -0.46356192 -1.0528681 -0.23232487 -1.7631558 -0.091815755 0.9375061 -0.9333821 0.4627508 0.2564138 0.551559 -0.1324927 0.9358881 -0.5442917 -1.1280847
880 -2.2367222 0.025368411 0.5623406 -0.6573537 0.13016994 -1.5368861 0.8464116 3.1512268 -3.583677 -1.4580172 -0.30154318 0.30228305 0.8015115 2.7079582 -2.1069336 -2.347922
596 -2.0302773 -1.7097049 -1.9426236 -3.8464956 -1.1836082 -1.8392557 -0.106272615 0.39147466 -1.9668418 -1.9454306 -0.37053388 -0.6800963 -0.13152845 1.2136557 0.7039871 -1.6968371
623 0.06591635 -0.34371287 0.4298891 -2.4613724 0.72312284 -0.74772584 -0.35950413 0.98153657 -0.35133752 0.3715884 1.9659902 0.15965623 -1.0392079 0.17245463 0.058380783 -1.0798056
2273 -1.9567908 -0.4802863 -0.51914066 -1.0317757 0.88920224 -0.2366574 0.8559941 1.6548076 -0.39672476 1.2494826 0.87786305 1.4984493 -0.981672 0.7915103 1.3305522 -0.942229
1230 -2.2272992 0.29897976 -0.8885854 -4.858516 1.0089908 -2.5865412 -1.4506212 0.07530278 -1.3642266 -0.83335924 -0.4552931 -0.037523407 -0.9059645 1.6874708 -2.5256639 -0.58997965
375 -0.8756582 -2.2439284 -1.4817846 -2.8126585 0.39214623 -1.4203216 -1.0203339 -0.56358325 0.084868565 1.5113697 -0.71598583 0.49959552 -0.7172927 0.9702871 -2.4389882 -1.1759641
1494 0.76841617 -1.1815804 -0.116083 0.99445623 1.2125847 -3.87617 -1.7757447 2.930458 0.14720485 0.07340284 1.5720782 0.91265386 -0.409051 1.2045044 -0.4351809 -1.0436354
1773 -2.4522016 0.9223047 0.7072891 -0.18573576 -2.699866 -2.4904318 -1.0354754 2.4407516 -1.1762553 -1.0258342 -1.7886276 1.0695595 0.13329452 3.0671198 -2.538591 -1.5168074
2317 -2.1381218 1.079738 0.3074854 -0.37108538 -1.8729564 -3.2089603 -0.60494745 2.3954802 -0.51345915 -2.9532197 1.0660515 1.8804121 -1.9627621 1.0839177 -1.2961556 -2.6957238
1959 -0.47384968 -1.1171328 0.7300009 -0.87267524 -0.10116978 -0.4884327 -1.504283 0.49407265 -0.077667944 0.09114745 0.6515251 0.18919444 0.077244796 2.4194338 0.84632504 -0.21362743
1280 -4.3363805 -1.5661362 -0.8467437 -2.2176256 0.7809757 -4.1688004 0.2908804 -0.9549432 0.558127 -0.42183825 0.27046406 0.056696203 -1.5800389 0.41064757 -1.1197587 -1.2791812
2905 -1.0945114 -0.67777187 -0.6090402 -1.3171511 -0.26550263 -2.054504 -0.42436463 1.0848167 -0.6253692 0.80837226 0.72298354 0.6973582 0.030494388 1.3520541 -0.2855942 -1.259055
1212 -1.7755668 0.7265478 -3.0254667 -2.322838 -1.2063816 -2.4075258 0.65785754 -1.1119938 -1.0726006 1.1929251 1.2874327 0.99397963 -1.5054357 -0.083075166 0.5342195 -2.910235
102 -2.1345932 -1.3328013 -1.3773516 -2.4379733 -1.5452859 -1.7848922 0.079890825 1.7886678 -1.290723 -1.9748877 0.3536235 -1.6282296 -0.5117204 1.1778104 -0.602621 -0.544308
410 -1.1064317 2.6519425 -0.24661915 -3.1653764 -1.8409408 -4.2953606 -1.320973 1.6167251 -0.49061245 0.6410879 0.25191483 1.1345139 -0.16331448 -0.5674464 -2.4555166 -0.58007556
377 -1.0834422 -1.5716834 -0.3926703 -1.8627728 1.1565493 -0.57248384 0.61037713 1.4531448 -1.5655911 1.0684962 0.27134836 -1.1604948 -0.983521 1.7575127 -1.745853 -1.1586483
3053 0.56402504 0.3391902 -1.3642062 -1.4323093 0.22262189 -4.486808 0.4160539 1.9317731 -2.4117641 -2.4737327 2.6047769 -0.16485666 -0.3974079 0.86941105 -0.65504515 -1.2330972
1358 -1.8367528 -1.4046311 0.4326056 0.52989084 -0.63580287 -0.97677004 -1.2811664 1.8562069 -0.18793714 1.6125987 -0.5706343 0.032074932 -0.0109469285 0.43408763 1.0862834 -0.68059933
3088 0.2281041 -1.2548457 -1.3706336 -1.5195367 -0.50811476 -2.100849 -1.3485339 2.5318272 -1.46711 0.4449056 -0.5568949 -1.1345323 -0.24144675 0.37438667 -2.1755252 -4.8035283
1728 -0.7057467 -0.44702694 -0.8088163 -0.5711718 -0.26650587 -1.5100068 -0.98261195 -0.33932304 0.9192057 -0.2267341 0.55718654 0.10207157 1.4112115 1.409018 0.6189082 -0.42049786
1571 -1.7233827 1.3723177 -1.7505584 -0.9828871 -1.7264199 -0.82030225 0.32623973 1.5736219 0.3035991 1.231589 1.332905 2.3835907 -0.058348812 0.3871924 -0.7529789 -0.2350584
1821 -0.78890663 -0.4429582 0.37514523 -0.67574966 -1.38032 -0.44118333 -0.18261722 1.1045756 0.5427832 1.1762848 0.5155319 1.5522667 0.6444973 1.108878 -0.3074122 0.38796213
823 -2.4140754 -1.0766786 -0.87481207 -2.099205 -1.3725648 -1.4993287 0.3277764 1.3414582 -1.3399112 -1.710117 0.9007599 -1.427879 -0.33773416 1.4293373 -1.0153699 -0.0019451244
3153 -0.5425784 -1.1210448 -0.84907466 -1.3771553 -1.4593549 -0.6109291 -0.081559904 0.7353497 0.7895987 1.1506453 2.0398169 0.6796846 0.36271644 1.0038944 0.6410383 0.07449387
40 -0.40287343 -0.20704372 -0.59781975 0.2693638 -0.51607 -1.4936104 -1.1548693 -0.7488612 -0.13909778 0.71352315 1.3073314 0.14781566 0.091848664 1.7167466 0.013892824 0.35169098
1547 -0.5501752 -0.27029786 -0.026872663 -1.0247549 1.2637322 -3.1308277 -1.8376795 0.611988 -0.3220979 3.303945 0.25859573 -1.3664782 0.7913323 2.19137 -0.3555171 -0.51873964
2413 -1.8263668 0.7432863 -2.9976795 -2.3212156 -1.1593999 -2.4556255 0.697425 -1.151809 -1.087789 1.1289419 1.3234688 0.9651791 -1.5503188 -0.034276124 0.5607589 -2.9091692
326 -1.8089503 0.1329258 -0.45376888 -0.17692693 -0.9748091 -1.0586699 0.7264369 2.0395033 -0.76816285 -0.8611547 1.4011481 -0.23631759 -0.9210461 2.0900009 0.058321618 0.653661
2850 -1.1007129 -0.64126396 -0.030250505 -0.34114802 0.62219334 -0.92421865 -1.4627156 0.050597113 1.1924788 0.43538082 0.6449813 -0.33669958 0.45494974 1.8019531 -0.8370263 -2.016944
497 -3.56911 0.02294683 -0.02673537 -2.3214731 -1.6802043 -1.5540341 -0.45325866 1.5923706 -1.2648867 -0.63493675 -0.58983845 -0.9189812 -0.27732718 1.8149859 -0.2578953 0.27636436
3206 -0.6899526 -0.82145023 -0.5434001 -1.0799558 -1.6043792 -0.6365734 0.14275663 1.0163244 0.8650293 1.3551247 1.5200957 0.8589223 0.48313197 0.975247 0.3987735 0.321448
2436 -0.96545297 -1.21117 -0.66424996 0.13435622 1.831057 -1.8422743 1.3512566 1.2149884 -0.4071993 0.9852371 0.024080241 1.4536448 -1.211727 1.3536355 0.59956014 -0.9217455
1421 -1.2710568 -2.0835803 -3.3790767 -1.5618643 -0.6954008 -3.3094368 -0.25784346 0.07618748 -2.6927407 -0.8571065 0.19650114 1.0354505 -2.7782683 0.063074745 0.76128197 -1.6953063
1750 -2.048165 0.9369757 -2.1475942 -1.076328 0.9257151 -2.035016 0.7248689 1.7576706 0.7716155 0.47737 -0.5395211 0.11275325 -1.5236704 3.2522354 -1.6915071 -0.23296364
274 -2.0578794 -1.3102851 -1.7397753 -0.9581278 1.2265279 -1.4846643 0.7367456 0.6212394 -3.5201428 1.1879812 1.2431262 -0.09117831 0.06366924 0.49099785 -2.2749944 -0.95929915
2255 -1.0293652 -1.0394045 -0.97074497 -0.31911692 -0.6441907 -1.1764449 -0.2472063 -0.26608405 0.38691625 0.47094503 2.4188676 -0.13249819 0.7754535 1.3707955 0.87109476 -0.27913913
248 -0.2547245 -2.2052655 -1.0692728 -2.3868568 0.82111716 -1.0740603 0.04567255 0.7280457 -0.7485695 1.3790152 0.29489288 -0.021483174 -0.51793945 0.5276358 -0.49046013 0.528368
2368 -0.5177764 -0.029716982 -0.42579356 1.4313118 -0.49937394 -1.1163812 -0.11742372 2.033405 0.73820144 1.3733753 0.5896423 1.4030523 0.8989399 1.770515 -0.28090084 -1.3226267
155 0.8621557 -0.947286 0.19831222 -0.103654765 -0.2581345 -1.8734074 -1.0115527 1.1956524 0.3123506 1.7112993 1.025567 0.9563126 -0.21077758 0.6694829 0.69914585 -0.1928784
217 -0.55227405 -0.7346841 -0.07785683 -0.48551267 -0.08149654 -0.63495773 -1.0596217 0.48557392 0.32155916 -0.4479913 1.0357926 0.24307744 1.6299618 1.3445865 0.7610483 -1.2246172
379 0.14358239 -1.1481866 0.9828193 -2.9819932 0.6707215 -4.9755783 -0.08473486 0.57244676 0.24095725 2.0285234 -1.8258549 -0.4870939 0.3103903 1.1720722 -0.8264271 -1.3580381
1368 -1.6399326 -1.5351523 0.15720776 -0.9559553 1.0128148 -1.6323451 -1.708225 -0.14964458 1.1109586 0.21338712 1.0389756 0.2227291 0.65014625 1.1157515 -0.56980324 -0.25142732
2097 -0.19453837 -0.19679429 0.5542918 0.18722735 -1.3349633 -2.724837 -0.9093861 0.47138324 -0.8922977 0.24928728 1.037888 1.0766569 -0.8260769 1.5988381 0.5727164 0.98339707
2239 -0.1502692 -1.0955791 0.14903426 -1.6138389 -0.93832624 -0.40001735 -0.21618181 1.0388975 1.1008692 1.1334268 1.5128123 2.428051 -0.39764822 0.91715056 -0.8915586 -0.67542267
2231 -1.1653986 1.217132 -0.95549846 -2.9194558 0.6127795 -1.6126612 0.6860384 1.2805953 -4.5868816 -0.18418604 0.05045076 0.6710299 -1.1683956 1.6200792 -0.5099886 -2.7059963
19 -2.0009594 1.8787936 0.17120302 -1.756517 -2.0366685 -3.1800377 1.0311117 1.0345856 -0.969185 0.67094815 1.7010609 0.25482792 0.21883501 -0.5145201 -2.9565501 -3.51468
1418 -0.22583617 -2.1207514 0.27666402 -0.42047402 -0.29504675 -3.5039117 -0.52694976 -0.63065493 -0.14459223 0.24659087 1.4644597 2.7176516 -0.8275485 -0.24839747 -0.105361514 -0.9245179
225 -0.34052175 -1.1276273 0.038955815 0.6014972 -0.3523385 -2.0335772 -0.5644211 -0.18187213 -0.39376387 1.472631 -0.1907887 1.1153623 1.398235 1.7754804 0.94515544 -0.12922499
2358 -0.35646048 0.63745797 -1.2928686 -1.0033193 1.5431975 -1.207746 -0.41449887 1.4857193 -0.6068108 1.4269959 1.1629505 0.8642985 -1.7432873 0.6756457 -0.26465434 -0.27394146
966 -0.36529166 -1.0920054 0.904114 -2.2471142 1.7602749 -4.0672865 -0.6961056 -0.59345114 -2.75812 -0.9154356 0.5066456 -0.24194668 -1.5510479 2.6165025 -0.62534475 -1.2409184
1198 -0.72466755 -1.3202331 -0.9976051 -0.62700546 2.6804626 -1.7293144 0.35426334 2.5472581 -0.6401655 0.021462433 0.106088586 0.8856008 -0.99108523 1.4154394 0.08211396 -0.7906988
3687 -0.54715616 0.95614547 -1.2902312 -0.99934715 1.5733241 -1.4389309 -0.604701 1.2870706 -0.7665724 1.7326318 0.93131495 1.003498 -2.0649197 0.8416272 -0.48390448 -0.36867973
1972 -0.72973776 -0.45628086 -1.068246 -0.6148274 0.6835422 -0.815238 -1.3422445 -0.1373406 1.1955531 0.28062347 0.6636265 0.39315918 0.80876946 1.5681461 -0.83816016 -0.6208302
268 -3.0917766 -2.4308271 -1.4866652 -1.5033202 -2.0171642 -0.76149404 0.53455234 0.8171182 -1.5988567 -0.19878696 -0.77979386 -0.43315208 -1.9511698 2.6418948 -1.7055216 -1.0746853
1596 -4.0640316 -0.071616486 0.8918567 -2.2867808 -0.12111637 -0.8103757 -0.38940796 2.31183 -0.34533978 -2.2645457 0.53988594 2.8002977 -0.39450124 1.7379484 -1.4902437 -1.7673302
2764 0.012002182 -0.8634508 -0.4869326 -1.8388073 -1.296834 -0.46567124 -0.39313564 0.6320075 0.6017197 1.9557194 0.64085627 0.75718755 -0.39514014 0.42072845 0.7502301 -0.8499605
1555 -4.0260153 -0.05697875 0.88771397 -2.2411199 -0.08180013 -0.8599559 -0.34223443 2.3541155 -0.36996105 -2.2071526 0.58520156 2.7786028 -0.3231551 1.7928181 -1.4968994 -1.7290764
194 -0.19923346 0.24930401 -0.13786018 -0.81154436 -1.4669853 -0.8356163 -0.33326283 0.8947025 0.6714049 1.8182697 0.85391015 1.102101 0.3233533 0.9858417 -0.60669416 0.37567344
2631 0.52534753 -0.3506491 0.3939477 -1.8785487 0.08023334 -0.732681 -1.8259207 0.70701647 -0.245072 0.14636509 1.631225 0.7764758 -0.48301414 0.6334027 -0.2886901 -0.34583783
2079 -0.8004565 -0.43514568 -0.8181945 -0.59874123 0.7038588 -1.0677868 -1.5257963 -0.29176894 1.1964321 0.120694585 0.7003579 0.41055968 0.8699341 1.4452915 -0.778076 -0.7124227
1786 -0.19579095 -0.041938573 0.7890562 0.014965819 -1.2511684 -2.7193973 -0.9717502 0.5198264 -0.94033176 0.28761482 1.1170645 0.99269277 -0.72554016 1.4342781 0.6122298 0.92949075
1169 -1.2399131 -0.8590653 0.683776 -0.18702826 -0.5412741 -1.205258 -0.27199885 2.269785 -0.6340198 1.6267499 0.010520567 -0.5741064 0.8242246 -0.34779996 0.86839503 -1.2738409
669 -2.2559834 -0.34111598 -3.0787134 -0.5723442 -1.3697672 -4.8115497 1.3892975 -0.03494939 -0.503585 0.0144097665 0.94027674 1.484678 -0.42411128 -0.56310606 0.24295397 -0.01530321
397 0.29470524 -3.4338217 -0.28314212 -1.8475953 0.4890932 -1.6210005 0.60216206 0.09639585 -1.0020764 0.74768835 0.14629176 0.39726567 -0.45355278 0.92515963 -0.60462224 -0.6896392
2162 -1.8247993 -0.85098416 -2.6601195 -0.89404863 -1.1693215 -4.637931 2.2015688 0.011571079 -0.4459719 1.002081 1.292887 0.64657634 -0.77212524 -0.48194686 -0.40954536 -0.19455856
3822 -1.4449705 -0.36851734 -1.6395341 -2.6657388 -0.29959106 -3.2431047 0.25014317 -1.107098 -0.528185 -0.015358357 -2.2737052 -0.08775659 -1.9132195 2.3788333 -0.13384353 -2.4763155
2970 -0.6489769 0.19730163 -1.3921486 0.10428197 -0.0022912326 -1.300099 -0.9887837 0.13285838 0.8142771 -1.2552769 1.717192 1.3997966 0.32178283 1.9930905 -0.6621597 -0.7437252
1919 -0.94087684 -1.4022217 -1.2076836 0.35737476 1.1716746 -2.4669778 -2.1943083 -0.0008332691 -1.0435665 0.8444274 -0.25484386 0.13063736 0.087647334 0.7527973 1.0619569 -1.2295123
209 -1.280982 -1.6506265 -0.49713352 -1.4098006 0.8598287 -2.148427 0.75117314 0.7828699 -2.3586853 2.2920396 0.5065056 -1.6421303 -0.6009433 0.6152375 -1.4357964 -1.0983171
1712 -0.53636867 1.3394845 -1.7283678 -2.5803478 -0.5926461 -4.486026 0.4862729 1.0656242 -0.0047145667 -0.6709096 1.8642136 0.4989433 0.42035106 -0.49123004 1.8341429 -2.4163454
3746 -1.24529 -0.8319399 -0.7568144 -0.87506974 2.5703733 -1.3895398 0.2552634 1.5166211 -0.7035445 -0.74612623 0.5580333 1.4163883 -1.1444249 1.971764 -0.1881992 -0.32664824
540 -3.5477207 0.14883289 0.07680105 -3.109131 -1.6674114 -1.7635332 -0.5978121 2.0966935 -1.0311083 -0.38189042 -1.0821604 -0.9975124 0.2218353 2.5120087 -0.24789569 0.508562
2739 -1.3258703 -1.7164499 1.2616754 -0.51729465 -0.17590673 -1.46776 -1.6369102 0.5072463 -0.081828706 -0.31477934 1.0238867 -0.14861916 0.10390262 1.4559315 -0.2324827 0.2478184
2211 -0.91084856 -0.79578793 -0.08933596 -1.1575843 -0.18973432 -0.8557342 -2.0308661 1.8377119 0.11100293 -0.75290906 1.9895624 -0.38515967 -1.3390231 2.2536483 0.59693414 -0.45267764
2183 -1.4160035 0.08247783 0.38116103 -2.807924 0.4701019 -3.7066746 1.1508124 -1.699829 -0.56898654 1.750646 -0.38580054 2.4541674 0.669229 1.4403819 -2.2024457 -0.9072005
1908 -2.214351 -0.30050975 -1.8104709 -3.6217403 -1.6351876 -2.5728126 0.3147796 0.2965674 -0.55389667 -1.171099 0.3225447 3.349395 1.4352013 -0.87800753 0.0029359858 -1.3436208
1384 -1.063146 -0.62311816 -0.65242153 -0.93592453 2.5683763 -1.4601185 0.33772036 1.4726452 -0.65587854 -0.66442424 0.68074274 1.480785 -1.1677115 1.7437983 -0.30430853 -0.44239628
2331 -2.210042 -0.70228773 -1.4798566 -2.7457187 0.84132755 -0.34120354 -1.1579713 0.97127056 -2.321463 1.4697522 -1.2273548 1.1374538 1.6634843 0.79610145 -0.4323973 -1.4929461
20 -1.3547199 -0.82599 0.7928485 -0.23044814 -0.048146248 -0.21161821 0.42588308 1.0661086 -0.37351036 1.1774606 -0.018371627 1.8705835 0.21790212 1.1269248 0.9360249 -0.44050968
566 -3.3010368 0.22828934 -1.1371112 -2.0569496 1.4179069 -0.86805195 1.3936316 1.774217 -1.0365669 0.88238263 -1.1109291 0.2748692 -0.5533537 2.9116235 0.96391624 -1.503724
163 -0.3893812 -1.6337959 -0.8757394 -1.9174781 -0.12736224 -1.3488741 -0.28582966 0.9892061 -0.5587548 0.6570541 0.44218117 0.21319039 -0.81788456 0.643113 0.6871779 1.3772138
900 -1.7820543 0.04929236 0.3071861 -2.743775 0.22555383 -0.049162775 1.1509744 1.9903097 -0.5644512 0.7578346 0.652436 0.18731864 -0.99280185 2.4065256 -2.9197264 -1.6539487
373 -1.0697 0.3063656 -1.273248 -2.1175516 1.1226674 -4.8996463 1.0516663 -1.3814723 -0.2233853 1.9657422 1.3542428 -0.96086186 0.37510324 0.46102098 -0.7725521 -2.4538121
1125 -1.6864667 1.0866566 -1.4959627 -0.5780924 1.2027355 -1.5538424 0.07139704 1.715914 0.71970534 0.78550583 -0.21621993 0.38058227 -1.4511353 2.7114 -1.2239424 -0.24589038
992 0.42406863 -0.8119708 0.07745816 0.42582753 -1.3362331 -2.1182845 0.22195134 -0.51768064 -0.04629545 0.7495901 1.1719612 1.3495629 0.6659779 0.6465416 -1.7299562 -2.0064065
1509 0.059150662 -0.8682479 -0.4902207 -2.1070638 -1.2322264 -0.42634636 -0.43871516 0.44730863 0.58198005 1.8339217 0.6180578 1.118226 -0.3140531 0.64966476 0.7525228 -0.68292826
658 -2.2417152 -0.98835206 -2.0304794 -1.2348111 2.1866987 -2.8632188 -1.6068952 -0.454365 -2.4632108 1.1829576 -0.71443516 -0.012111176 -0.46431836 1.4765899 1.4090178 -1.428189
152 -1.8846343 -0.7906652 -2.6243126 -0.8783758 -1.1281097 -4.628851 2.1772332 -0.00066897547 -0.46722797 1.0366132 1.2537041 0.67240244 -0.7639461 -0.4971874 -0.41802248 -0.161299
2454 0.33105272 -0.9830889 -0.7030816 -2.3074017 -1.0773728 -0.46640345 -1.0407003 0.24593373 0.7660896 1.4307158 1.1716123 1.859635 -0.57279384 0.976236 0.8822542 -0.96917707
2167 -0.20930275 -0.11389688 0.039299604 -1.8632392 -0.09745205 -0.9157407 -1.9613711 1.182053 0.7248706 -0.48338887 1.9503492 0.60765314 -0.9639691 1.2042438 0.22193435 -0.3453623
595 -2.0140188 -1.6765558 -1.8624475 -3.9929786 -1.1565812 -1.7694999 -0.07172624 0.38651487 -2.0198886 -1.8271497 -0.24899471 -0.60291225 -0.21566826 1.0090834 0.65078104 -1.73986
70 -0.28705636 -0.13490227 -0.39927024 -0.7520392 -0.9269846 -1.7955636 0.9978741 1.7083949 0.44980988 0.9344057 0.7386589 0.83034134 1.5588269 -0.010568978 -0.16907923 0.1884325
2661 -1.5368838 -1.8112996 0.5591786 -1.4480318 0.5697738 -1.5572891 -1.3671808 0.026997672 0.13081764 -0.3137642 1.1305828 -0.15580793 0.99021757 1.8570086 0.8977316 -0.1563742
79 -1.6834021 -1.4142176 -1.4637637 -0.8009725 2.006936 -2.9501188 -2.0455596 -0.100637466 -2.1138866 0.9724464 -0.66510296 -0.07363893 -0.15677468 1.5374477 1.7326334 -1.1426663
2444 -0.94956744 -1.2715445 -0.21923845 -0.076047696 1.4364771 -1.4407818 0.47602358 0.67695206 0.7984836 0.6117022 0.44696888 1.96153 -1.1231598 1.4091002 0.7428347 -1.2131084
1122 -0.3229225 0.2864601 1.2023617 -0.88249874 -0.35235992 -0.8006215 -0.044648148 1.6061907 -0.8767563 1.3172929 1.134266 0.4692486 2.1159143 0.77690053 -0.30867633 -1.3985864
1485 -0.24465118 -2.0343866 0.12043877 -0.21669242 -0.44393432 -0.48987457 -1.2183255 0.77024883 0.4350788 0.591537 0.29182097 0.8201305 -0.8180998 2.111462 -0.17131114 -0.13241099
3347 -2.12367 0.17701505 -1.7469283 -2.0885508 2.4504855 -3.5151496 -1.0879694 -0.49811637 -3.3856165 1.1277436 -0.35667384 -0.24674027 0.21213381 1.3352945 0.69901866 -0.8285673
3253 -1.9383161 0.06559226 -0.15452066 -0.07287265 -0.57168293 -0.92582226 0.45808634 2.29939 -1.0855206 -0.63141596 1.9825801 0.23510456 -1.1424875 1.5405444 1.0309653 -0.08414125
319 -1.1002196 -1.6807575 -0.8267782 -2.1770413 0.30021545 -1.2072803 -1.3060036 -0.97591496 1.0459553 1.2702911 -0.6475266 0.4349973 0.1588862 1.5970976 -1.8992687 -2.1222243
1722 -1.329838 -0.73412836 0.7412967 -0.66513526 -0.017014194 -0.4801889 0.5959318 1.077023 -0.8504597 1.5678408 -0.38222983 2.0305192 0.24626449 1.349343 0.96015143 -0.10502841
3314 -0.3417914 -1.0640326 0.88591784 -2.2329583 1.7430917 -4.049101 -0.67238194 -0.58868057 -2.7376642 -0.92469287 0.46847698 -0.27841938 -1.541643 2.6167462 -0.5694682 -1.2113472
1343 -0.47962198 -1.6290457 -0.75325847 -1.5502762 -1.0167761 -0.38204342 -1.6570401 1.2289875 0.8737331 1.7621279 -0.029968902 1.615405 1.5340635 0.8118034 0.7151803 -1.4014324
2481 -1.0382729 -0.7581259 -0.7248951 -0.8973155 2.5534484 -1.3460456 0.2897498 1.5243299 -0.77515537 -0.63468206 0.52544564 1.4620517 -1.2939949 1.933278 -0.5027317 -0.43914443
98 -3.3217666 -0.0368822 -1.5043476 -1.4775492 1.0487169 -3.2128923 0.2983791 -0.837934 -1.9830499 0.9251778 -0.57479984 2.504397 0.2803587 -0.91497666 -1.0177251 -1.8725181
2656 -1.132013 -0.7211191 -0.65271604 -0.95798457 2.600341 -1.4316413 0.22177434 1.3760973 -0.66300434 -0.6934437 0.5137177 1.412123 -1.0492258 1.9605682 -0.22600137 -0.33878544
1508 -0.47385907 0.21431826 1.0728754 -1.2068232 -0.59175026 -1.014685 0.43602237 1.7322209 -0.66301 0.98297775 0.7238362 0.6781847 2.1268291 0.79049087 -1.1030359 -0.3932969
1111 -3.4786873 1.7447014 1.4549862 -2.8600965 -0.23555084 -3.920521 -0.30491227 -0.39410645 -0.9042501 0.56268275 1.1987674 0.435176 0.4313121 1.4227495 -0.14488086 0.3766649
1410 -3.0953572 -1.5668797 -0.77002686 -0.79381543 0.3779638 -2.7071972 1.865199 0.39160356 0.13633886 -0.7617908 2.739989 1.2326694 -0.70222753 1.6185281 -2.981606 -0.47327733
1179 -1.1384208 0.39928767 -0.70434445 -1.0924257 -1.727654 0.12084931 -0.25035438 0.46674222 -1.6040823 1.1119512 1.7859666 -0.8611271 0.13677278 3.0515673 -0.46470827 -2.861338
48 -0.019148944 0.13661543 -1.8407555 -0.19500166 -0.64655834 -1.6402743 -0.48046458 -0.30643344 0.35107967 0.88703454 1.7186189 -0.5884063 0.5633009 1.8013613 -0.26709855 -0.23043798
2837 -2.609114 -1.3952669 0.48494664 -2.1904497 -0.5997508 -1.2111253 0.662641 -0.065616 -1.1278232 0.4565243 1.0678555 2.3336766 -1.8391298 0.96312404 -0.06860699 0.56023264
2264 -0.75542957 -1.7243 -1.091615 -0.010392611 -0.9369801 -0.5723461 -0.571636 -0.2362112 -0.14456077 0.20480601 1.7527083 0.33223316 -0.008510784 1.2114546 0.42409274 -0.1808823
241 0.1311846 -0.60245603 -0.2320851 -1.2463769 1.0678896 -0.7590653 -0.84780383 1.1432656 -0.05845132 0.9443814 1.8847018 1.401154 -1.0553929 0.11672737 -0.30230334 -0.1647162
78 -2.164883 0.01542197 -1.7843305 -1.8365945 2.4727998 -3.3438869 -1.2857207 -0.50069416 -3.0137436 1.2282062 -0.45526505 -0.27782482 0.13770726 1.468439 0.8290365 -1.0977248
3162 -1.8848883 -1.4596648 -0.3564469 -2.3252215 0.23168433 -0.7511984 -1.157415 0.84808373 1.4331558 1.5991559 1.9052811 -0.34120688 0.5677249 0.5441453 -0.07665776 -0.64017373
229 0.03805863 -0.8808336 -0.63400435 -1.8226252 -1.215205 -0.4506436 -1.0740123 0.45346576 0.7914695 1.7172952 0.48552004 1.0054618 -0.14515673 0.6188233 1.1205072 -1.2164998
1353 -0.028926732 -0.86668396 -0.11774025 -0.24785903 -1.9190398 -1.3263224 -0.9670687 1.6148657 0.7190336 0.7952092 0.5458195 0.19138631 -1.2672253 0.5899655 -0.36268646 -0.12898788
3669 -1.8602985 -0.76900154 -2.612332 -0.8770802 -1.2049779 -4.6453404 2.1308427 0.033591237 -0.41886365 0.97956246 1.2827673 0.59903616 -0.77886677 -0.48481268 -0.4208371 -0.15943302
1010 -0.76771915 -0.92373127 -0.38625285 -1.1616243 -0.52394503 -1.6841755 1.9057034 0.9328443 -0.99335706 0.2534317 1.0240817 0.8450439 2.2622204 0.46966764 -0.6342518 -0.052837085
3509 -0.27444276 -0.30547944 -1.5502856 -0.33580816 0.42461517 -0.7067032 -1.4523424 -0.18106842 0.48630306 0.004199762 0.96879786 1.4141223 1.1154195 0.84200406 -0.52560705 -1.1917628
3417 -1.9957447 0.19191433 -0.98212004 -1.0120265 0.71374446 -0.66047645 0.8797828 1.7318645 -1.4913353 0.3680261 1.7060764 1.0221483 -1.0559905 0.47874784 1.3528587 -0.54888296
16 -0.044443846 -0.35347039 0.2790673 -0.59944063 -0.44945884 -1.9764435 1.2696072 1.2797217 0.19249941 0.3061707 1.0701588 1.0385312 1.8402815 0.43288645 -0.39853376 -0.2535757
2642 -0.1995821 -0.49191168 0.35657793 -2.9636428 0.7590164 -1.5207462 -0.539346 0.39785722 -0.65235823 0.27487305 2.2048726 -0.045615837 -1.6285623 0.17644814 0.28572175 -1.5694556
1982 0.18865752 -2.030379 -1.5287547 -0.09425897 -0.39502892 -1.6550757 -0.079655044 0.3132228 -0.4056966 0.31496552 1.2588897 -0.4749684 -0.38487023 1.6778754 1.526799 -0.7956078
2344 -3.0090122 -1.8526475 -0.41354316 -0.93822485 0.33700508 -2.801103 1.7577641 0.12667929 -0.059033208 -0.982727 2.7369294 1.3537412 -0.54754555 1.7398006 -2.9302132 -0.29941016
2814 -0.28906417 1.072547 -1.1398517 -1.2757628 -0.35345533 -1.1116618 -1.8033342 1.4592148 -0.4440269 1.0705317 1.5027623 1.3770795 0.53741026 0.9053106 1.5841199 -0.009004967
2114 -1.2026161 0.49008036 0.12450155 -2.4673095 -1.3157672 -0.565428 0.45672318 0.2959444 0.07180833 1.3304418 0.8440268 -0.8728076 -0.57656145 1.2017608 -0.035893075 -2.4239047
2730 0.19743666 -0.35122848 -1.7382723 -0.5004327 0.19945194 -1.1631472 -0.93452835 -0.34614348 0.97882915 0.21762237 0.9810044 0.41430423 0.3641281 2.0687366 -0.44402125 -0.6485541
2875 -0.45095077 0.9528335 -1.1436068 -1.1312411 1.575338 -1.2961556 -0.521803 1.4773637 -0.80801517 1.8137596 1.009619 0.9174549 -2.0795004 0.9250324 -0.39815488 -0.5184835
339 0.32982576 1.8384439 0.101567276 -1.8751552 -0.91446394 -3.0603998 0.6128162 0.7850009 -0.22406353 2.1075058 -0.3510908 1.4282941 0.052650414 2.0065842 -0.14865813 0.5278494
2271 -0.7964517 -1.2283895 -0.21598862 -0.3043776 1.3561554 -1.2892238 0.7400835 0.4862747 0.92917234 0.3747964 0.3949181 1.7763482 -0.9218599 1.3586079 0.80019295 -1.4273635
719 -0.014546678 -3.9004438 -0.21491538 -1.5419132 -0.18696985 -1.2924075 0.40954402 -0.18971106 -0.67929554 1.0337256 0.10656512 0.72769636 0.18263085 1.1526293 -0.08980219 -1.1916293
2521 -0.8715862 -0.36516753 -0.86969924 -0.09736547 -0.3741209 -0.9682575 -1.3242819 -0.53775245 0.5190304 0.06842917 0.9221343 0.65717024 1.1216681 1.3774865 0.32066765 -0.39200318
464 0.19559577 -1.0087906 0.26029885 -2.5131564 -0.19726999 -0.43653446 1.092515 1.317146 -0.5851918 0.42037365 1.7519076 0.49039698 -1.0514112 0.4254842 -0.4873497 -2.1078968
400 -1.1089271 0.8724121 0.43903303 -0.9788079 -1.7546227 -1.11235 0.6148887 0.6033051 0.6795952 1.4659377 1.6593697 1.0239862 0.15634887 1.1183996 0.6317396 -0.25232273
2441 -0.95864505 -1.4218758 -0.05037265 -0.69232404 1.48181 -1.4994788 0.91751814 0.5269082 1.1760453 0.10030578 0.12136945 1.3736242 -0.49791938 1.5133367 0.66637105 -2.4405608
2473 -2.262198 -0.69137615 -0.29417613 -2.1055117 -0.13010558 -1.0373125 -2.0211937 -0.45860624 1.2279093 0.8660461 -0.5860065 0.50983673 0.21283756 1.8974924 -2.2593846 -1.5861801
196 -0.22528897 -0.2846041 0.81287485 -0.969293 -0.41237783 -1.3659371 0.56359684 1.7007631 0.07676988 0.7137803 0.453904 0.80041295 1.7096223 0.52147156 -0.8517758 0.06218247
2610 -0.22572531 0.022636747 0.074218564 -0.41606155 -1.5873675 -0.809471 -0.57347846 1.2682654 0.5342395 1.6491606 0.60953337 0.6014848 -0.040905613 0.66928846 -0.5207496 0.34728396
2892 -0.5028759 0.56811154 -0.04986322 -0.33270133 1.4339788 -1.6857787 1.4264125 0.361697 -0.24036896 1.5950981 1.095093 1.0142931 -0.9921235 2.8450713 0.23666318 -0.91005135
2122 -0.7367876 -1.2219518 -1.3105798 0.08929117 0.50774586 -0.95608205 -1.5215491 0.15725492 0.50941205 0.14334744 1.2077281 0.6294713 0.96708053 1.3265351 -0.5595248 -0.27619094
97 -3.2277975 -0.052304737 -1.4099886 -1.2647506 0.8976031 -3.2537284 0.6939353 -0.884183 -1.8056629 1.4996023 -0.5522202 2.4786372 0.20592612 -0.9069768 -0.6266946 -2.2426033
1574 -2.0682535 2.0342638 -1.7436771 -1.5780727 -2.0502777 -0.75359845 0.09603993 1.5672169 -0.31048006 1.1229975 1.2204653 3.155342 -0.85320425 0.59406984 -1.2048007 -1.1931328
