8035 16
1709 -0.9673101 -0.9616818 0.2869831 -0.30723727 0.7031373 -0.054328404 0.43706018 -0.60587996 -0.2625306 -0.12590685 2.1050532 -1.040471 -1.1970848 0.59183526 0.5201082 -0.28255102
982 0.25814262 -1.2055075 0.58522797 2.9668145 0.7059305 -2.463877 0.75068474 -0.41619155 -1.8832145 -0.301972 2.684847 -0.028680842 -0.18234935 0.7353269 -2.8267715 -2.093132
1186 -1.2806225 -0.35288936 1.0965903 0.75204796 0.36575532 -0.6185629 0.37155452 -2.6695242 -1.4331194 0.74914557 2.0675793 -1.4342526 0.5292731 -0.93064314 -0.08586782 -1.283336
449 -1.3407146 -0.8546057 0.59325826 3.256221 0.5835108 -0.18165182 -0.3641994 -0.086499296 -0.59306365 -0.4231456 0.8763726 -0.67760473 -0.73857605 -0.73878473 -1.5443581 0.28004876
675 -0.8869986 -0.8381638 0.42706025 1.6948481 1.5847754 -1.987328 -0.10425327 -1.6018903 -1.385648 1.0422556 0.8981418 1.2664025 0.18324238 -0.41519377 0.5791827 -0.9653843
1491 -0.8322285 -1.4722503 -1.2910479 0.5636655 1.1158206 0.6216505 -0.7830536 0.013572387 0.06868298 -1.1345637 2.0905669 -0.026429534 0.25848722 0.6968955 -0.53495747 -0.5182789
1500 -1.081897 0.009934368 -0.42308196 -0.19210242 0.92775846 0.20178339 -0.546925 -0.13662042 -0.5009933 0.10342077 2.4106388 0.53426576 -0.61644155 0.7473334 -0.30152103 -0.7132386
740 0.21759218 -0.28651977 1.0034114 0.5041757 0.5264226 -1.1569021 -0.02575859 -2.2664583 -0.5429907 -0.54297996 2.068337 0.38554358 0.43695146 -0.19985074 -1.8397783 0.33404225
1345 -0.095064335 -2.5929024 0.13382567 1.0638161 1.4310502 -0.84707844 -0.055368863 -3.3425353 -0.9218881 -1.7645426 2.0195096 -0.25527638 -1.0665535 2.3756537 0.40335116 -0.8060981
1695 -0.188501 -0.8611821 -0.40045995 -0.081131026 1.0067133 -0.8945385 0.8233545 -0.28942618 -0.66101664 -0.32107896 1.8340073 -0.8601261 -1.6380345 0.5013167 0.783809 -0.50501806
1101 -1.5667685 0.24591708 -0.29012573 -0.013267633 0.6935303 -0.51413447 0.10196537 0.22657031 -0.9500059 -0.7022641 2.0766838 -1.4141402 -0.18432534 -0.72170615 -2.0231295 -0.69013816
26 0.71713996 -0.6312198 1.4115592 -0.17498422 1.3244222 -2.0257106 -1.2071874 -2.8592017 -1.1388006 0.115914755 1.399006 -1.0462564 0.42560884 0.54492784 -2.0553174 0.30250582
1304 -0.59051836 -1.0174166 -1.862463 -0.9004599 1.3434863 0.1912984 -1.933323 -3.7317545 -0.46672842 -0.19802076 1.3158184 -1.8845662 -1.9900258 0.42557308 -2.987819 0.22757961
186 0.94713885 -0.53708863 -0.43750653 1.5737243 1.5028346 -1.3399496 -0.66727555 -2.5133395 -0.1978707 0.10991006 0.8419868 -1.1196102 -0.7154132 -0.8293602 -1.8474442 -2.2016401
811 -1.0086112 0.02744814 1.3292084 1.3212855 0.20430575 -1.2247984 0.0891937 -2.02369 -1.7912369 0.14371152 1.0191474 -0.7093801 -1.0303671 -1.2300358 -0.06668818 -1.4002353
1233 -1.4544103 -2.2169147 -0.32375857 0.54739404 2.3529024 0.6509807 -1.220906 -1.0490712 -3.6223483 -1.0661582 0.382518 -3.0873208 0.6939035 -0.60131085 -0.5086763 0.83261365
847 -0.01751066 -0.9040755 0.15647858 0.5903153 -0.6246316 -2.1869526 0.50976247 -1.1742986 -0.6919365 2.1251624 1.8547254 -0.44011503 -0.2545402 -0.28996524 -2.0731552 -1.1115685
221 -0.12753116 -0.34833372 -0.021641465 1.0623558 -0.42210168 -1.8366781 0.47930688 -1.9875896 -0.18748704 0.8818669 2.1450508 0.20764375 -1.0919871 -1.7144073 -0.01634134 -0.03656405
343 -1.4731113 -4.5318623 -1.6097655 -0.5244012 -1.6305699 0.34455863 -1.6618184 -2.9554513 -0.75649303 -1.6703364 2.4236815 -0.678079 -0.41789836 -1.7108262 0.114719704 -0.67338544
1235 -1.1401072 -1.7680959 -0.8529422 0.3962537 -1.0086961 -1.447175 -1.1714873 -0.36295497 -1.3378973 -0.6057551 2.023256 -0.20008275 -0.37908694 -0.19744003 2.4407048 -0.36647114
461 0.17403626 0.27771917 -0.48247313 0.51156485 1.4729769 -1.9265577 -1.6805538 0.16150077 -1.9853145 1.155189 0.44042632 -1.6574937 -1.0084972 -0.8674008 -0.122095354 1.1269162
1216 -0.24651584 -0.62962157 -0.07302968 0.4799645 1.0422801 0.94040745 -0.68616897 -1.0408301 -2.911815 -0.012060937 1.1322176 -2.1111681 1.0667354 -0.07774333 -0.92645603 0.64264244
1356 -0.10744622 0.45362556 -0.008336463 1.6397442 0.58392966 -2.1978993 0.33028084 -0.6558561 -0.79693896 -0.35372037 1.8704193 -0.23366833 -1.5209087 -1.8795067 -1.0446949 -0.30167565
903 0.51917297 -2.7865472 -0.714291 3.0043411 -0.89653724 0.4824206 -0.92109865 -1.9370192 -1.8071975 0.8685503 0.90877175 1.3777142 -0.6994535 -0.44782546 -0.3589219 -0.15727584
1239 -1.7614084 -1.1600523 -1.139019 1.1894873 -1.1811917 -3.160118 -0.07812315 -0.6176947 -0.18116769 0.4393769 1.0930605 0.100767374 -0.5808057 0.34725347 -0.022434842 -0.64158297
1105 1.3764629 -2.9565072 -1.5012726 2.3842 1.2567996 -0.85837173 0.25041273 -0.3721535 -1.2760689 1.0540413 0.033253863 -0.6092313 -1.0469035 0.02434875 -0.41303557 0.2457914
1430 -0.20684989 -1.9627165 0.19716495 3.0340128 -1.3381557 -1.0847211 -0.6236049 -0.30528438 -0.9619679 -0.15595312 3.7847295 -2.4150445 -1.1676842 -0.6438998 0.028886024 2.498312
1450 1.3601141 -0.26932648 -1.0937647 1.6968192 -0.4675552 -1.3024253 0.02210888 -1.9373393 -1.4272676 0.3709567 0.4225853 -1.4370259 -0.24926534 -1.1552095 -1.6744027 -0.90835863
35 -0.72639513 -2.0510902 -1.5679514 0.6300186 -0.2860787 -1.1780838 -2.5955951 0.051902324 -2.1329198 0.051712215 0.2640871 -0.94044816 -0.8142433 1.88605 -2.1123931 1.9145993
1379 -0.9991506 -1.9049255 -1.1867328 0.27108243 1.3784145 -0.17098837 -2.0443163 -0.4252317 -1.4797138 2.1467633 -0.03489408 0.76028395 -1.3067173 -0.75585234 -1.8757197 -1.2481594
497 -1.3910527 -0.21435025 -1.7071624 1.5931047 0.08900986 -0.48545715 0.8610861 -2.6546443 -2.6577396 1.3066459 0.31067303 0.3110247 -0.70815355 -0.4526224 -0.863281 -0.052266728
676 -1.1008332 -1.6674352 0.7946196 1.1350408 1.2686273 -2.7304049 0.64008284 -1.7787457 -1.8948976 0.840115 0.65389764 0.9458161 -0.41595843 0.14981143 0.3645177 -1.4054542
1451 -2.1067948 -0.47768334 -0.53546864 2.270731 0.4621261 -0.49424794 0.64136887 -0.21138756 -0.4560438 0.74135166 1.0483984 -1.12643 -1.5423717 -0.00020878586 -0.033785626 0.2922517
2110 0.26308218 -0.5533348 -1.4398758 0.74685526 1.7811081 -0.017213326 -0.9023623 0.78467256 -1.1616738 -0.90775836 1.8729242 0.002732399 0.2165618 0.5969779 -0.8220867 0.22263736
1362 -0.72059613 -1.3691727 -0.91220695 0.9365313 -1.1066025 -2.2884917 0.6588608 -1.5434979 -0.309791 0.585314 1.5572819 0.7330465 -0.16732293 0.41013992 -1.6185923 -1.2170179
634 -1.0122136 -2.2610927 1.2447618 -0.26764885 -0.015051897 -1.0350883 -3.7411082 -0.46679962 -2.1826885 -1.698514 1.6834118 0.0805268 -1.8204949 1.0080807 -1.5632534 1.389683
1257 -1.4817914 -2.0302947 1.0123842 -0.056041546 2.0339618 -0.9372735 1.246237 -1.2372589 -1.6037757 0.7838718 1.1187536 0.342574 -0.6684226 0.08679381 -0.24789684 -1.0540905
262 -2.3224442 -0.9759942 0.27397195 2.8994262 -0.6672882 -2.634062 -1.6517907 0.3845781 -1.028907 -1.3787695 2.2571688 0.28473607 -1.6602712 -1.2430102 0.012050881 -0.14062448
295 0.06127616 -1.4134701 0.58896697 2.2669806 0.4741984 -0.8955822 -0.1339584 -2.305631 0.10184995 1.0992199 1.2009987 -0.37667415 1.0273068 -0.34354156 -0.82618314 0.4385539
185 0.4755512 -4.978583 -2.6743429 -0.052361045 2.2982078 -1.1736315 -3.874679 -2.2965982 0.8592494 0.988075 2.6393037 -4.028721 0.9266873 0.6938453 0.025239212 0.40250012
659 0.8916348 -4.0904346 -0.42380902 -0.4740877 -0.15482438 -2.2997255 -4.152502 -4.4558244 -1.0646358 -1.606432 0.501351 -1.3784686 -0.7069483 -1.909594 -0.6596434 -0.42914727
1290 0.056821615 -1.0538214 -1.8363367 1.2146691 1.9365646 0.8709942 -0.7280859 -0.7592826 0.5352464 0.71532214 2.5028975 -0.32903403 -0.16342017 0.011050853 -1.6712376 -0.8586221
1226 -1.4933134 -0.31598768 -0.4481075 1.012578 -0.92648065 -1.6943506 -0.8378579 0.4093109 -0.86342955 -0.9166478 1.9803386 -0.42221308 0.19384031 -0.31208426 0.73498344 -0.82813877
414 -0.89512557 -2.2325017 -1.0839751 1.368267 0.53615767 -0.98162305 -2.3886735 -0.054400433 0.1847519 2.284688 1.2987505 1.1940963 -1.9297987 -0.043456648 -2.0753903 -0.96140295
774 0.36842653 -1.1704324 0.78125083 0.2422734 2.3145242 -2.1207745 -1.2125072 -2.8881714 -1.3264517 0.28865305 -0.11169735 -1.8646055 0.42360696 0.09932032 -0.80184823 0.13120145
794 0.49781606 -1.7644886 -1.2413177 2.3924382 1.7925224 -0.669269 -0.14707884 -0.92052895 -1.6359303 0.9062401 -0.49841005 -0.42374146 -0.89876086 1.3549598 -0.7879546 -0.4545009
483 -0.35926983 -1.2659686 -0.253321 0.20774324 -0.31642428 -1.399108 1.2459837 -1.8978304 -0.8735989 0.1879539 0.85217875 -0.5034232 -0.838656 -0.19972518 -1.623141 -1.787665
1354 -0.6756197 -1.1073557 -1.6159666 1.7974474 -0.20034847 0.33807588 -1.2824559 1.5177253 -1.9744391 -0.21224698 1.9052798 -0.2029586 -1.217833 1.0660063 -0.6658622 -1.1191661
519 -0.64695656 -1.5444845 -0.18963465 0.7094144 0.37452078 -2.3185484 0.59929985 -1.3865513 -1.3919792 1.0896858 -0.1448879 0.23321122 -0.65952283 -1.4822049 -1.0275145 1.301257
708 -1.2552435 -2.3281984 -0.32816494 2.7395992 -0.730703 -2.512768 0.5710302 -0.89980966 -1.1745182 -0.14093879 0.8810133 -0.70052433 -0.744344 1.2133601 0.42008972 -1.064324
1264 0.40959647 0.018702405 -1.9907221 0.9463506 -0.12561709 0.8658216 -0.14667247 -1.1849751 -1.5964763 -0.8472704 2.7319632 -1.8866307 -1.0990164 0.83959967 -1.8914291 -0.080316514
760 -0.9226584 -1.2256976 -0.92791957 1.9094888 -0.8281579 0.014748722 0.3689951 -1.6928294 -2.5094676 1.4877311 0.40460566 -0.21708475 0.34430027 -0.88790035 -0.101959944 -1.2209964
1449 0.21519111 -2.05601 1.9496545 0.64946306 -0.1109428 -1.1400166 -1.25828 -3.3003588 -1.8090315 1.7939004 1.1978673 -0.4004059 -1.6758391 0.91754675 0.24694283 -1.0465897
112 -0.5524968 -1.2592187 0.54435194 -0.1331248 0.99596065 -2.1314797 -0.17359363 -1.3464998 0.02369176 -1.1087602 1.8494965 0.6627801 0.9957468 -1.173732 -1.0140777 -0.6828516
797 0.2024391 -2.7071636 -3.0880594 0.18920967 -0.84518766 -2.4588983 -1.8890321 -4.671131 -1.6968349 -1.7369552 1.6069891 -0.107403815 0.46521458 1.316984 0.6636515 -0.8347609
539 -2.7290094 0.2186958 0.18401457 1.4370933 0.5419981 -1.4622908 -1.6234103 -2.9581125 -1.3879908 -0.6868938 1.1284808 -1.1366342 1.1240286 -0.03003229 -0.3302639 0.071834065
30 -1.6214638 -1.6276993 0.2847463 0.6166011 2.3378115 -0.96502286 -1.2276957 -0.20325841 -1.3889582 -1.2405005 0.49085206 -1.6803699 -1.9072554 -1.3592697 -0.2308722 -2.2316496
557 -1.2063653 -1.3088503 -1.4438236 1.2941939 0.22158964 -1.7818062 -2.2484248 -0.71222866 -2.1627712 -1.6858187 0.036196753 -0.78727 -0.8562204 1.2718184 -1.792416 2.2564497
97 -0.63434213 -0.7752169 -0.67086095 1.5455512 -0.54486 -0.87858135 -0.8189866 0.7087252 -0.84030324 0.9415618 1.838538 0.09036187 0.90678996 -2.0690606 -1.4104595 -0.3325256
1159 -0.12553708 -0.49177432 -0.11615646 0.8354022 1.64654 -1.9403948 -0.18839964 -2.37224 -0.69603777 0.216525 -0.21279477 -1.7231755 -0.25159034 -0.904178 0.12656863 -0.28740367
1305 -0.2291691 -1.2090237 -0.87916785 -1.6855078 1.4927002 -0.67781794 -2.4654214 -2.293499 -0.7383757 0.13431142 2.7091112 1.230547 -1.2436614 1.467046 -0.2878094 -0.78741115
968 0.083444856 -0.50709635 0.5970978 1.578828 -0.7732651 -1.7723107 -0.13459353 -1.6378113 -0.88928926 -0.28466657 1.871616 0.96623653 -0.8144638 0.6739057 -0.94063914 1.188838
1291 0.15326855 -1.3224496 -2.8644366 1.6863925 2.119388 0.5649531 -0.71949124 -0.44273856 0.08113437 1.362299 2.5496318 -0.63036096 0.0027400365 0.05156436 -1.4037122 -0.971307
884 0.051913906 -2.7049625 0.39562997 2.98794 -0.39637485 0.5809329 -0.54360473 -2.3411946 -1.0363379 0.14284213 1.4058903 1.2716292 -0.5519975 -0.05512839 -1.9439135 -0.33799165
370 1.1985174 -1.7745692 -1.6733092 2.313105 1.2297882 -2.0250084 -1.0089749 -3.3999083 0.63467735 2.3445232 1.8181632 -0.10845538 1.0962752 0.33955815 -0.37145165 -0.35098088
664 0.39727578 -2.1763852 1.1407785 2.3830266 0.65938336 -0.2449134 0.1289316 -0.9009176 -1.4550935 0.4490483 1.1683627 -1.4633824 -0.88536894 -1.6951563 0.9999542 0.4202542
555 -2.6945276 -0.33538023 -0.7728374 -0.15712884 0.75188243 -2.310488 -0.21131705 -2.9685214 -1.7336196 0.44158185 0.8818859 -0.5820195 0.7061404 1.197501 -1.2427211 -0.9443614
503 -0.90037787 -1.2889379 0.15291806 2.2577038 0.42354652 -0.1650057 0.3690775 -2.2660487 0.2908504 0.5896472 1.9800732 0.6028518 -0.6763522 -0.5139677 0.3702658 0.032486003
1205 -0.083389565 -5.862145 -2.260827 0.6184716 -1.488989 -1.3104614 -3.1663373 1.1582444 -2.1629019 -2.1479983 1.7689898 -0.9088747 -0.8246442 -1.0443571 -0.9807068 -0.65887547
1113 -1.5849087 -1.6841573 1.3336349 -0.2645242 0.37147367 0.15336052 -0.011199244 -1.0372742 -0.1760039 0.40841743 3.0024686 -1.6977724 -0.52986294 -2.1817434 -0.20142429 -0.5039284
1059 -0.54661006 -2.4956467 0.14679047 -0.4732139 -1.1552728 -1.796403 -1.6505196 -2.4997227 -1.8415409 0.840644 0.581637 0.20089091 -1.6245481 -0.60244554 1.5154974 -0.83981603
1381 -0.40231305 0.8534392 -0.69212043 -0.24223313 -0.19748014 0.6413731 -1.4073706 -1.4475217 -1.8517805 0.06846676 1.5648785 -1.0576977 -0.91306555 -0.6946102 0.17409445 -0.6104477
6650 -0.6111969 -1.5786185 -1.8214499 -0.7208525 0.9089746 0.86645097 -0.37852326 0.240801 -1.3835924 -0.27725875 1.9917322 0.03981832 0.12215901 0.72331667 -0.68710595 -0.45987147
1343 -0.8784182 -3.6153257 -0.5952976 0.1916222 -1.332915 2.2521424 -3.8531783 -2.9391878 -2.3655932 0.12672119 3.1637137 1.3147272 -1.5814619 -2.0544794 -1.6819583 0.37441865
554 -1.1181719 -1.1333758 0.08971183 1.5136678 -0.40695292 -1.4499427 0.37939763 -2.2437053 -0.9717165 -1.1783262 -0.0059674843 -0.8132698 -0.9972679 -0.8550493 -0.628082 -1.3209119
667 -0.4875485 0.47966066 0.1347942 0.50882953 -1.0705314 -2.2670557 -0.19352864 -0.9784403 -1.8774896 -0.5008867 1.9663264 0.13834217 -1.1652735 0.6305111 -0.61647 0.50684476
553 -0.22764455 -1.0680434 -0.85955983 1.1728164 0.57124823 -2.4096725 1.1782322 -0.2486316 -1.3028606 0.8708402 1.5722082 0.00027041545 -0.25554615 -0.033413045 -2.1638823 -2.2016306
1190 -1.8014128 0.15600976 -0.532379 1.2997193 0.40496266 -1.2838289 0.07069261 -0.28256407 -0.67500556 1.6721883 1.9647729 -0.39871728 -1.0248102 -0.50571966 0.53839153 -1.3220611
482 0.22345822 -1.4610751 -0.07525951 1.514293 0.5138673 -1.061568 -0.56051207 -0.6841716 -2.2346067 0.7765637 0.81032413 -0.9876048 1.4548606 -1.2383016 -0.8093677 -2.6859643
850 1.1391857 -2.6203408 -1.2282622 2.2396588 0.527015 -0.8037856 -0.99037117 -0.2904494 -0.008751552 0.8719374 0.4861367 -0.17707632 -0.64037 -1.2434701 0.3533442 0.5741434
301 -1.623951 -2.1314814 -0.8162783 -0.64104426 -0.16198227 -1.3567092 -2.6713793 -0.8345388 -1.5659124 -1.1945616 0.90996575 0.23702864 -1.0572648 0.2914834 -0.3864379 2.4508057
1010 -1.1679342 -0.39321494 -2.1320918 -0.28550786 1.7956094 0.12278189 -2.2253067 -0.16474438 -0.7329276 -0.75674725 2.2599852 -1.3950886 -0.2668017 0.889897 0.4034962 -0.020788405
910 0.14882435 -1.8015884 0.9413243 1.4945892 0.47620377 -0.42483014 0.050877046 -2.2646706 -1.5555282 1.7954148 1.1672237 -2.2425025 -1.4591054 0.038268667 -0.17917714 -2.4221234
233 0.9574771 0.46623802 -1.9231287 1.056853 0.4923874 -1.0230008 -1.9132677 -1.9605849 0.15189686 0.76068896 2.3090413 0.030216537 -0.9376496 -0.35302624 0.48969322 0.08835977
1394 -3.6834252 -1.94334 -0.9240725 -0.18151332 1.7456468 -2.731265 -1.2588637 -3.709462 -1.5091237 -0.7046191 0.6864112 0.29095665 0.41355816 1.4820341 -1.9158851 -1.9903011
1245 1.7004502 -2.9108508 -0.9540239 1.8028865 -0.42303553 -0.38098013 -2.894532 -0.46920556 -5.601313 -2.309627 2.3817894 0.521453 -3.675635 -1.5327904 -0.035901263 -1.7418753
447 0.8940058 -4.1875815 0.15865684 -0.43430942 0.08965513 0.4639719 -1.6641744 -3.1167324 -1.5948097 1.9502145 2.1086435 -1.7769678 -0.6441126 1.1277792 -4.4604025 0.013419091
248 1.3642954 -4.322872 -2.3533216 0.60758305 1.6563745 -0.6289291 -3.2623162 -4.513311 -1.5409606 0.2708823 2.719886 -0.37070203 2.0912113 0.5259244 1.0241522 2.389929
73 1.0172735 -4.3490047 -4.2264686 1.2031947 -1.9609581 -3.5365968 -2.4812438 0.33308443 -2.7703004 1.699518 2.3901584 -0.5077714 0.99870574 0.4538407 -1.3970876 1.6285844
1143 -1.4358412 -3.146426 -1.087223 -2.7750213 -2.2868812 -3.218302 -3.1296062 -1.6493106 -1.7236909 0.2047961 2.9442647 -2.5794983 -1.4212058 -2.202602 -0.8288533 0.6869417
187 1.851184 -2.439439 -2.3798022 3.50725 4.5285325 -1.4697845 -3.7957466 -2.2017055 -3.0201116 -0.77621216 0.9646706 0.98238605 -1.5695324 -1.116784 0.47815743 2.1050673
1022 -2.6759293 -4.7659907 -2.2009385 -2.6592197 2.1785905 -2.4667754 -2.7444088 -0.90615636 -1.798001 0.57717973 1.9864076 -2.0158653 -0.12288076 -2.507549 1.3804221 -1.7697744
923 0.6458418 -3.5687127 -3.9055393 3.37672 -0.52743435 0.21532062 -4.1998525 -1.2141155 -0.6871466 -2.4194098 2.895925 -0.6022286 -1.2532928 -2.4155123 -0.13621777 -1.0101212
1340 -0.8004438 -3.7369576 -3.0718727 -0.31531832 2.5369806 -0.026752973 -5.2612925 -1.2648172 0.4237774 -0.017819403 1.7498983 -2.302741 -1.4473666 -2.7781599 -1.5718404 0.7857294
1195 -0.35283116 -1.2248783 -1.2787166 -0.6027731 0.06417868 -0.8729637 0.1411434 0.58801734 -1.006913 0.28517953 1.0544635 -2.7141953 -0.95165247 0.11241975 -1.0346532 -0.6948474
647 -0.5017708 -2.3132188 -0.79427505 0.73277515 -1.1980507 -1.6654406 -1.2276219 -1.8620638 -1.6336535 0.40630686 0.90637785 -0.63006216 -0.61665374 -1.0178096 2.4342904 -1.5624602
809 -3.2043216 -0.36749858 1.0279114 0.7159869 0.44438222 -1.9700727 -0.546843 -2.511515 0.28094053 0.23176117 3.2271278 -1.9907652 -0.9635173 1.0451429 -1.1075021 -0.50594157
911 0.07378094 -0.8700389 1.5012106 1.5756117 0.5202154 -1.3743899 -0.035101965 -2.4924874 -1.1626096 1.6206647 1.271641 -1.4543734 -1.5087621 0.34190717 -0.013792762 -1.4312885
950 -1.3733972 -2.0976832 0.34637785 0.36579567 1.3836088 -1.2923043 1.1373252 -1.3582449 -1.6434822 2.1207273 0.28029364 -0.016517697 -0.49901727 -1.6865921 -1.2790414 -0.21237984
137 -1.0049851 -3.3362145 -0.049242187 2.183625 0.18745257 -1.3764263 -0.055809237 -1.5803165 -2.0703664 0.9354243 0.60200536 -1.4902259 1.6728617 -1.8971266 0.818181 0.31964204
964 0.5095701 -1.2079774 0.86151534 1.9463384 0.06261671 -1.6054674 -0.32873833 -0.56698954 -0.77321994 0.7514012 1.7688453 1.4393237 -0.8550654 -0.16863365 0.2212559 0.88490474
175 0.3190045 -2.2971263 0.68046933 1.1338664 0.03725636 -0.9925769 -1.6656392 0.07310068 -0.8098876 0.13239047 0.5040286 -2.1202724 -0.7470337 -1.0061158 -0.17920591 -2.0211287
1222 -1.5771215 -1.0057395 -0.13864057 -0.54437345 0.79329175 0.11301472 -0.29834786 -0.31006232 -0.049027264 0.48302227 2.7768676 -0.09610336 -1.639535 0.7159974 0.08975449 -0.41557527
640 0.47144985 -0.4955063 -1.6144747 1.641649 -0.26827115 -0.38305196 0.3319012 -1.1368868 -0.26640347 -0.8734654 1.3371086 -2.251433 -8.886071e-05 0.22798583 -1.0561302 -0.069902495
1069 -1.291929 0.08637059 -1.9575917 -0.20564227 -0.45334473 0.40514386 -0.93846595 -1.833052 -1.2717721 -0.80284053 1.0415635 -0.75483173 -1.3883554 -0.1987607 -0.72404575 -0.7530141
525 0.034117106 -1.1474011 -0.33436617 2.6885135 -0.24809067 -1.6160519 0.29658094 -0.7633376 -0.81784457 -0.9039942 0.9637472 -0.76468164 -0.7884882 0.13145663 0.5357353 -1.6771486
602 -0.8867917 -2.2043445 -1.9571185 2.2561085 -0.67687917 -2.638749 -0.34203017 1.6271088 -1.1434978 0.5565069 2.96968 -1.5755827 0.55809176 -0.63678455 -0.05647523 1.2599152
509 -0.78672194 -2.697286 -1.0823524 0.07185055 1.2476965 -1.7267153 -2.216552 -0.1057079 -1.3163992 1.966669 -0.25082362 1.1386398 -0.50590277 0.13163917 -1.4191717 -0.9040294
942 0.63610816 -0.17057155 -1.2403653 1.6631582 0.38912064 -1.428758 -0.090576194 -2.960002 -2.160462 1.5964653 0.54357165 0.78662646 -0.8564365 -1.066285 -1.3699434 0.25454596
96 -0.81325454 -1.0590332 0.5634081 1.7983083 -0.2772732 -0.71361303 -1.3112602 -2.2356489 0.61154956 0.98491675 1.4406657 -0.021663887 -1.0238103 -1.3960763 0.15780887 -0.91026473
1025 -0.42162207 -0.7000449 -1.495168 1.6245632 -0.97957313 -1.7405114 -0.23339045 0.49457633 -0.61735666 0.09649485 2.4935853 -0.742232 0.6817455 -1.4870964 0.06913844 -0.25457212
5604 -0.8990303 0.20965306 0.28737167 0.14217763 0.36332807 -0.01243537 -1.4258507 -0.9044587 -2.7900395 1.3506665 0.26666304 -0.96200794 -0.8618308 -0.51458025 -0.8802938 0.7927205
21 -1.8928088 -2.5030699 -2.3846347 0.70576674 -1.0280571 0.40512404 -3.9072707 1.4957527 -4.715391 0.83581394 2.86921 -1.7287744 0.30900118 -1.3262736 -1.535588 2.2140148
442 0.7137219 0.3281571 0.54529256 1.7387207 0.75505286 -2.0466475 -0.1339581 -1.2709166 -1.695941 -0.15866007 2.4966202 -0.08278054 0.7285566 -0.22473127 -2.707335 -1.0362569
720 -1.134467 -2.4950566 1.4319587 -0.4603819 0.24525677 -1.131579 0.002756299 -0.37444448 -0.93630606 0.89582705 2.6923277 -1.5782318 0.575102 1.2125834 -0.43558526 -0.5479304
1080 0.07885632 -1.266784 -3.281251 -0.45691055 0.6661592 0.06296601 -0.44497663 -0.4479903 -1.5501608 0.7956322 2.433007 -0.19528191 -0.027048742 -0.51231396 0.29239333 -1.7744572
1446 -2.012345 -3.206818 0.4072862 -0.9903578 0.25500587 -1.7031837 -1.6403248 0.09949564 -2.3713894 -0.5625265 0.75979435 1.2430156 -1.2803642 0.5114639 -1.1169949 0.67032
259 -1.1190255 -1.3898464 -1.6210061 0.50324005 1.5818385 -0.12786588 0.9377732 0.7008101 -2.240577 2.0480928 3.0775554 -0.11189805 -0.054345213 1.2452391 -0.65173036 -0.49789372
158 -2.1764295 -3.1831968 -1.6903803 1.8677175 -1.2758529 0.022550184 -3.7720788 -4.0948925 -1.5584273 -1.3431666 3.1612253 1.6119633 1.9744501 0.73322177 -1.100672 -1.7085053
1432 -2.1103678 -1.6019483 -1.3367584 1.7548949 -0.6671138 -0.3913287 -0.77510935 1.4854715 -3.0240822 -1.3247495 1.0803956 -0.03405955 -1.3550283 -0.16341755 -1.1890666 -1.362756
247 0.48460266 -0.7964389 -0.052890986 -0.14617783 -0.3554517 -2.0020752 -0.25354764 -2.0265026 -0.9605833 0.1400565 2.4540448 0.024971869 -0.0924218 -1.5978593 0.9098255 1.1821349
1339 0.2873109 -2.7799106 -0.57831097 -1.2041092 0.74814904 -1.8342432 -1.8013479 -1.0228354 -1.0971887 -1.3890336 1.1285206 0.636482 -1.6773173 1.0053102 -2.1102226 1.3326647
152 -2.0853713 -0.7739746 0.064174786 1.2540826 -0.65385103 -1.7911946 -1.375532 0.2224859 -0.13272658 1.2155464 1.7691131 -0.4607764 -0.75065905 0.25140128 0.5428732 -1.1714704
49 -0.7243989 -3.2165613 -0.9444503 -0.26908407 -0.5883511 -1.1303718 -2.3365593 -1.5365049 0.47772765 -1.535353 2.6063938 0.412462 -1.3344281 -0.89660114 -2.5258894 2.082525
215 0.6355069 -0.7135964 0.51046306 2.2064788 -0.039348084 -0.8891819 0.104604624 -0.49996257 -2.0643852 2.730753 2.57197 -0.6031948 -1.0340999 0.7282601 -0.58260006 0.6571771
919 0.6688187 -2.5828738 -3.0723307 0.30778912 1.8325053 -0.1887805 -2.9405162 -2.8580298 -2.5617583 0.03157937 -0.15506813 -1.3984833 1.2960428 -0.18673064 -0.930884 -2.0453203
1296 -0.15726744 -1.5973197 -0.32842618 2.5486238 0.18647137 -0.5629004 1.3164095 -2.466603 -0.78409094 -0.089692585 1.5045712 -0.13610274 0.16332482 -1.1431332 0.20342894 0.29363337
114 -0.65263885 -0.8978897 -0.31846997 1.5461029 0.9342544 -1.1200066 -0.16283949 -2.6540198 0.69210875 0.38361284 0.6229386 -0.20965396 -2.1133199 -0.1519575 -0.04886976 0.57650375
682 -0.19468425 -1.9456547 -1.4517052 1.5166869 0.5684812 -1.9811858 -3.1608198 0.48852247 -0.94146 1.4966269 1.0082799 1.6777525 -1.7151163 0.5533492 -0.8190593 -0.8255804
806 1.0668703 -1.8415639 0.98554325 1.7767025 0.3151696 -0.19723828 -0.8403374 -1.2226791 -1.8105054 0.67359877 0.41542125 -2.1373105 -1.3027267 -1.4870551 0.2982836 -1.326437
255 0.8199245 -3.9007394 1.2272837 1.4163318 1.0615226 -1.6809167 -2.6960177 -2.499262 -0.95403016 1.6675667 1.7711686 0.4579741 -2.1026566 2.5775468 0.4008848 -1.568944
909 -0.913137 -0.8442249 -1.2435862 0.42247656 -0.04736529 -1.5454192 -2.53744 -0.40856797 -2.3543568 -1.6118438 0.78379995 -0.4963655 -1.2776064 0.27447438 -1.5822908 2.737503
171 -0.5529769 -1.26092 1.8237436 0.60141325 -0.101808146 -0.94541585 0.22498077 -0.5825117 -0.9323344 0.69430566 2.445972 -1.020821 0.86941165 -0.5552162 -0.005756817 -0.40800586
563 0.718236 -2.8727744 0.05899363 2.6268356 -0.13733375 -0.60616463 -2.1765943 -0.92941236 -3.511163 -0.98634225 -0.05668666 -1.8134495 0.8488005 -1.5128838 -0.8274371 -1.5621552
417 -1.4443182 -1.093469 0.5859047 0.5855318 -0.7336108 0.3299538 0.2040155 -0.70794743 -1.3791637 1.2654817 1.1127336 -0.8127386 0.060326807 -1.3424654 -0.9466374 -0.49041617
938 -1.1757802 -0.16198201 -0.40258405 2.2629576 1.3372003 -1.6863494 -1.3374147 -0.44837216 -1.8014543 1.973329 -0.022774208 -1.49221 -1.516703 1.1864161 -1.1660954 -1.668499
1230 0.4459462 -2.1543949 0.1711348 0.6203772 1.379194 -0.79174876 0.77701646 -1.0719585 -0.35920236 -1.0951862 1.6252491 -0.91467035 -1.377912 1.3774151 0.0019820454 0.34913704
1228 -2.3154702 -1.4165132 -1.8229505 1.2477319 -0.33257565 -1.8865455 -0.6838169 -1.4425844 0.31628683 -0.3560703 0.22197223 -0.050354842 -0.8970009 -0.7729267 0.07577458 0.19289444
308 -1.1356803 -3.0170887 0.060569987 1.938482 0.7528837 -1.0888567 -0.73537105 -3.2167473 -3.1661747 -2.2288575 -0.17810793 1.0319691 -0.81265277 -1.8735052 -1.1580778 -1.7714975
608 -0.51200575 -0.68136257 0.31180942 2.4542296 0.028669192 0.058927193 -0.112310536 -1.9469786 -0.053278256 0.25795493 1.4763736 0.5214143 -0.09302612 -0.04046627 -1.6624299 0.5366397
481 0.05887372 -0.6313057 -0.8917942 0.94241875 1.4189427 -1.8883574 0.36550993 0.16245739 -1.5795428 0.6129206 0.9015857 -0.2078852 0.51252574 -1.0817466 -1.5601609 -1.8352602
943 -1.4386466 -1.3831567 0.8677411 1.4920615 -0.21706742 -1.2739723 -0.7469185 -2.9022338 -0.32055923 -0.39114964 1.365364 -0.019976316 -0.51701754 -1.5310905 -0.22021581 -2.3990114
408 -0.5321129 -0.37391332 -0.6611339 1.2880408 1.1788514 -2.5067358 -0.5512474 -2.1075847 -0.035759196 0.8900907 0.19677697 -1.2830002 -1.2637763 -0.026165107 0.8937004 -0.03199251
32 -1.8941637 -3.3159232 -1.7448215 0.071229324 -1.3157778 0.06947396 -0.65635544 -2.3990393 -0.8550932 -1.3610125 0.60643315 -1.2935784 -1.0690542 -0.5446413 -0.24537028 -0.73251617
625 0.64535546 -2.3350458 -1.5278654 0.6331917 -1.192422 -0.25120807 -2.0035403 -1.6350253 -1.4415038 -0.15686548 2.3096802 -2.9763331 0.55279154 2.501569 -1.5149397 -1.4266582
1372 -0.77394384 -2.6478648 -0.93883085 0.5108561 0.5683958 -1.104071 -2.1494977 -0.071086146 -0.63652015 -0.13850115 -0.06913783 -1.2017581 -2.8752675 0.7717107 -1.5518306 1.4638462
604 0.8104804 0.009590058 -0.6006967 1.0791719 -0.66136247 -1.081202 -0.09181919 -2.085668 -2.0120554 1.4649016 1.8200691 -0.012028422 -0.3183909 -1.2759047 0.58076906 0.82582647
106 -0.85055083 -1.0846237 -0.2601562 1.7191957 0.7018293 -0.7129343 0.55215645 -0.9877132 -0.72767437 1.9469515 1.9518667 0.79775006 -0.6745949 -0.06736095 1.2333087 -0.9121695
1307 -1.2556983 -1.8160985 0.62440455 1.6333574 0.04242397 0.0008113124 -0.60654294 -3.4576814 -1.2375994 0.33394957 1.8289821 -0.9504842 0.3631269 -0.78438514 -0.178575 -3.1904197
723 -2.472113 -2.1377928 -2.2965446 1.8611838 -0.35933244 -2.021338 0.098054945 -1.4530245 0.5221537 1.0267465 0.79729605 -0.54804265 -0.06925949 -0.3997479 -0.57312316 -0.62870955
354 -0.2380152 -0.29563004 -0.16166411 -0.1537532 0.69691014 -3.0443172 0.4644116 -1.8910757 -0.6198064 -0.057950478 1.0284616 -1.4220201 -0.24222918 -0.66071343 0.27125394 -0.3979132
1119 -0.7760391 -1.5644721 1.1761577 0.03272074 0.8858266 -2.1275 -1.1489638 0.14602998 -0.0092530055 -0.2539009 1.191283 -0.021272263 -0.43374625 -1.4347032 -1.6575043 -1.1737397
758 -1.2961997 -0.9114153 -0.13948786 2.8813214 0.52044123 -1.9516337 1.3949056 -1.9531102 -1.0186065 0.08162774 1.260178 -0.78730875 0.72849065 -0.90857315 -0.19693476 0.51886564
738 0.05162262 -1.374891 0.439049 0.70024115 -0.27233738 -0.7349419 1.9512317 -1.412189 -1.8281244 0.043755554 1.4309955 -0.6228433 -0.91162676 -1.1690521 -0.35113806 -0.47079533
1338 -0.7309732 -2.5008876 0.3276409 -0.76705205 -0.23429121 -2.2969642 -2.1992114 -1.6711504 -0.9897987 -0.61590964 0.87537646 0.630713 -1.9958754 0.27040836 -2.3821974 1.8189789
972 -0.11066649 -0.43224266 -0.9155549 1.5435646 -0.5248374 -0.6217914 -0.13368054 -2.1916401 -0.27708977 -0.23190331 1.4892796 0.97299016 -0.20084701 -0.7062064 -0.03421466 1.2275797
1719 -1.0137177 0.5460078 -1.3135804 0.71284944 0.5708558 -0.86905456 -1.580384 -0.19271895 -0.9521729 -0.7412061 0.36943522 -1.3255743 -0.36638984 -1.0409789 0.20303078 -0.7711117
1227 0.20834559 -1.2508206 -1.6374525 1.3142852 -1.7321502 -0.189165 -2.163677 -1.4072956 -0.58841896 0.2582737 2.0727339 -1.8306727 0.059985332 -1.901229 -3.085177 0.27861694
1136 -1.7155329 -0.29699165 -0.8149769 0.76897234 0.6308823 0.59531105 0.20502868 -0.30314144 -1.9399942 -1.3726627 2.54491 -0.9910376 -0.35864368 -2.068177 -0.99653715 -0.11363122
1396 -1.480306 -2.413382 0.6554671 -0.270752 0.25869977 -0.85563964 -1.9091953 -0.87269497 -1.6806391 -0.9233352 0.94933426 1.2863731 -2.0438464 0.97893703 -1.9293225 1.352505
1297 0.3615607 -0.48465684 0.24702539 0.87239397 2.728205 -1.2374623 0.8257399 -0.14148019 -1.6897495 1.3832905 2.4926677 -1.0040435 0.088226296 -1.0910039 -0.9039147 -1.710587
1065 -0.6891265 -2.9138727 -3.4047046 -0.041155007 1.0046057 -2.5400205 -0.85128707 0.95722806 -4.6025834 0.60175383 0.47039157 -1.2666678 0.42295358 -2.8627114 -1.30809 0.31105688
759 -0.0980517 -0.41643983 0.36153144 0.2060214 2.305939 -0.11445431 -1.1625305 -1.1630147 -0.20001528 -0.6374028 2.0900784 -0.40377688 -0.2602666 -0.8964083 1.2117493 -0.63253605
51 -1.8927362 0.27529073 1.1009178 0.7055973 0.12630478 -1.49641 -1.2912153 -1.3200474 -1.8048747 0.43354478 1.4955567 0.2834404 -1.455531 -1.851066 0.6853045 -0.47736502
269 -0.6509471 -2.6883416 -0.39983 2.8749356 3.7984483 -1.8961772 -3.1717384 -1.4387776 -0.3505812 0.7760007 1.5237291 0.9183867 -0.9511145 1.915641 -1.4295963 2.6900156
1187 0.2792337 -1.109619 -0.27975667 0.24548696 -0.96944034 -1.5387172 -0.5735195 0.32150152 -1.7894728 -0.49660334 1.1786807 -2.7832952 -0.84054524 0.78912675 -0.81474763 -0.9728909
315 -0.9145485 -1.3411914 -1.166924 1.0552192 1.5003476 0.3224319 -1.9379708 -0.34298715 -1.5993422 2.0997767 0.40219778 0.91711724 -1.7357725 -0.6689752 -2.4969718 -0.6139955
1376 0.4365708 0.0636662 -0.036893517 2.0679383 -0.11913093 -1.3718116 -0.16092739 -1.1714894 -1.5200446 1.5695608 1.9201347 0.10594184 -0.6799624 0.43064547 1.0552553 0.2297609
80 0.56022865 -2.9608834 -1.6182498 2.734532 1.3420475 0.19136319 1.6514516 -1.3766762 -3.2399178 -0.30783218 1.7323132 -1.0509105 -1.3315979 -2.3923643 0.4450168 1.1394712
409 -0.010572271 -1.3658454 -0.31008902 -0.6532538 1.1273957 -0.64861226 1.3976578 -2.9616382 -1.674612 0.35481405 1.2060572 -0.053255644 -1.4132614 -0.63889235 -2.1368299 -0.7234055
1259 -0.8485824 -0.4276723 -2.0624988 0.29601154 1.448088 -1.3473074 -0.49666893 -0.24810177 -0.53865874 1.4258898 1.4516732 -2.0110319 0.09104399 1.5209466 -1.5153437 0.6566828
1092 -0.5737164 0.23614445 -0.88551253 0.43667975 0.68202347 -1.683616 0.8107624 -0.24937493 -0.52744377 0.2584763 2.2273393 -0.5658469 -0.39336056 -1.3133435 0.4499008 -0.45112795
1088 0.4130355 -0.78417563 -2.6851301 1.2519065 1.7325199 -0.056681518 -1.1835195 0.22283629 -1.9136199 -1.7885581 1.927505 0.32558665 -0.15128608 0.4319556 -1.5344611 0.53090405
1442 0.0802263 -1.9667684 -0.97071576 2.5700216 -0.5726628 -0.6430703 -0.47210866 -0.6640813 -0.702045 0.4263012 0.9409244 1.3504443 -0.948261 -0.753856 0.3339388 1.2552453
727 -0.3083696 -2.5078356 -1.5660366 1.4227811 0.35655677 -2.119569 -1.9815189 0.7297815 -2.0371037 -1.1234252 -0.13123846 -1.614257 -2.856113 -0.017750489 -1.5032346 1.8813498
1455 -1.1585959 -1.7773927 -1.4432967 1.5681467 -0.7166474 -2.049664 -2.907219 0.106388584 -1.8887649 -0.22281772 -0.07400704 -1.1475524 -0.16225438 0.76035887 -2.6794093 1.5074657
5509 -0.33055353 0.2070644 -0.5654089 -0.22606388 0.5777277 0.17977639 -0.91995823 -0.24283202 -1.0401243 0.6336638 2.563873 -0.40513608 0.094382755 0.50166345 -0.04628054 -1.6772573
500 -0.84119105 -3.10001 1.2624794 2.653122 1.9721451 -1.1865617 -3.8014424 -3.23822 -1.7177169 -0.12849675 1.8322748 -2.2617412 -0.55857384 1.6829576 1.2447995 3.6013677
1424 2.0136607 -3.7507417 -3.2594926 0.026376694 1.6509297 -1.3591192 -0.7631259 -2.9879797 -2.1255224 -2.7211862 1.3280647 -1.1120723 -2.299595 -2.7900972 -0.04017254 0.1993819
234 -1.9650826 -2.5095959 1.7284089 2.4177163 -0.08933755 -0.5592155 -1.6764774 -1.9417785 -3.571575 0.61252844 2.6298528 -3.0577404 -1.0442144 3.6357007 -1.5836005 2.8728976
287 1.5960097 -4.583591 -2.7035437 -1.0555125 1.1623938 0.03109725 -3.4000041 -3.4005535 -0.8379046 1.2696604 1.4067341 -0.17574403 -3.103337 -0.2658475 -1.6046764 -2.2167907
742 -1.2581186 -3.2161727 -0.9667391 -0.4304612 -1.1660501 -4.7168574 -2.9928644 -3.258517 -0.9736961 -0.05001589 2.1017132 -1.8671193 2.1050675 1.8795733 -1.7010161 0.8361091
973 -0.55217224 -4.082557 1.5122452 3.5308566 2.396441 -0.87149596 -3.8313875 0.7058038 -2.9919689 -2.039128 2.270673 -1.4398042 -1.673624 2.7242332 -0.35848108 1.0874305
224 0.11183715 -2.524372 -2.2405477 -1.0754392 -1.6575074 -2.2221003 -2.9500382 -0.97226757 -5.0446653 0.10632844 2.7024834 1.5928473 -1.2002822 -3.5757635 -0.41039306 -1.0478488
463 0.084030166 -3.2759504 -3.351113 -0.46547717 1.7774696 0.2492845 -4.1799 -2.8357992 -2.845993 0.37189126 1.4328375 -0.86976546 -2.1726282 -2.1050282 2.3785386 1.6409649
683 3.511865 -2.8735154 -1.8968219 1.5317382 0.78034043 -0.3109484 -4.643474 -2.844181 -3.1217456 -0.6988221 2.658178 -0.1419401 1.1202168 -1.7345866 0.27226904 -0.6259642
890 0.24105258 -3.8303804 -2.9021053 1.146469 1.2999454 -0.22139257 -4.455731 -4.0477033 -2.6125295 0.4599409 -0.028579496 1.2333313 -0.9480955 -0.05566242 -1.2752111 2.9097571
1056 -0.37570015 -3.5322313 -1.4517461 -0.50438327 -0.34640294 2.013135 -3.5415623 -2.9670312 -2.9404297 0.44154802 3.976859 -0.9546828 0.68450916 -0.0905178 -2.464216 3.797546
115 -3.1047833 -3.8135831 -0.651748 2.3085816 0.26006922 -2.1935127 -5.4743624 -1.4954019 -0.6098932 1.1941602 1.6231197 1.4283189 1.3209226 0.66169924 -2.1379726 1.4164779
2058 0.45893624 -0.80476934 -1.1275278 -0.423175 1.1385483 -0.17282897 -0.79942775 1.0528078 -1.3534253 -0.3547522 2.2901318 0.14710571 -0.45147887 0.40972218 -0.16652471 -0.81329805
1656 -0.52661574 -0.16690277 -1.2982677 0.2006033 1.2303532 -0.3544248 0.052192654 0.9613936 -1.2594194 -0.025409466 1.992899 -0.05614672 -1.4096199 -0.0040128697 0.41939956 -0.35570094
83 -1.0792034 0.46204042 -0.9383411 1.0809458 0.9766844 -1.271418 -1.2296518 -0.8150831 -0.95564187 0.20957202 0.061861776 -1.3958492 -0.28474966 -1.408333 0.6045521 0.12845623
761 -0.7500604 -1.4711334 -2.7513256 1.0078692 0.9769356 -2.181901 0.0010920039 0.6290627 -3.6074245 1.1456141 0.18480507 -0.7103249 0.8334119 -0.7558559 -1.5872543 -0.57387227
1298 1.716263 -0.67685187 -0.38332903 0.88278437 -0.066469274 -0.9106509 -1.4937633 -2.3875177 -1.3427043 1.0092912 2.3051684 -1.9685668 -0.1817147 0.9706535 1.3427013 -0.121951774
1254 -0.6142335 -1.8271462 -0.4552163 0.9565527 -0.66144866 -0.77467465 0.33282706 -1.1903603 -1.3660536 1.4900321 0.8962992 -0.9668293 1.0220319 -1.8785508 0.2750502 -0.5466531
709 -0.15365097 0.10017383 -0.23567994 0.6272544 -0.11430274 0.83015925 -2.549609 -2.334167 -2.8653567 -1.2110423 1.2383422 -1.6484498 0.025941426 0.044801123 -0.4461942 -0.26075163
1029 0.20969376 -1.9017885 -2.3194358 -0.5820793 -0.4366211 0.2168831 -0.23582494 0.14450502 -1.8341501 -0.03669665 1.8341022 -2.5066457 0.17092156 0.2662257 -0.7804437 -0.6472925
929 0.93303084 -0.6794691 -0.050945953 -0.9196657 1.2137861 -2.2924964 -1.7428731 -0.84436506 -1.3668215 1.6714535 0.8255627 -2.809457 -0.8684874 -0.19533381 -1.4046296 -0.23041259
1213 1.0538687 -1.3270248 -0.55801296 1.3131286 2.2086425 0.85170233 -2.773413 -0.41461557 -3.04075 -1.1715124 2.6976898 1.2382194 -0.32609254 0.2521961 0.0007183383 0.74866307
147 -0.2102235 -2.6929543 0.25408757 1.6351712 0.35899788 -0.6763332 -2.330776 -3.122622 0.66777736 1.0663817 1.9788601 1.131062 -1.1008607 -2.7178984 -0.63058174 -0.92968136
926 -0.8567693 -0.5551537 0.6532948 1.1365273 -0.105916746 -1.1671494 0.84952384 -0.5205759 -2.309359 1.3022158 1.4620323 -1.6543297 -0.8044721 -2.0349987 -1.1368121 -1.2366824
169 -1.3449808 -0.85306674 -0.7817913 -0.47244996 0.74294406 -1.2444423 0.45936927 -0.3078695 -0.7555207 0.801002 1.481922 -2.4055953 0.102693155 1.2874509 -0.335065 0.27423579
825 -1.000334 -1.3109117 0.18471867 -0.23778585 0.799372 -0.8209105 0.14057773 -0.20969014 -0.24037921 0.78340995 2.4310288 -1.7905056 -0.44935653 1.7111069 0.1657105 -0.07798247
1258 0.6522554 0.12641382 0.28652713 1.6310848 -0.5118473 -1.8369411 -1.0754415 -1.3773446 -0.31319517 0.7548671 1.4256703 -0.36140567 -1.3573997 -1.5755845 -0.15516819 -0.5160437
265 -2.0814662 -1.2415925 -2.8480616 -1.5516871 1.1690105 -1.846255 -3.1788015 -2.4321404 -2.9636056 1.9693121 1.4502798 -0.90469354 0.9577351 1.1716645 0.8189771 0.9239015
1156 -1.3577056 -1.4813361 0.635989 1.1366309 0.548491 -1.7836918 -1.4743373 0.2487854 -0.5570742 -0.12803257 0.1386954 -1.3929083 -1.1576642 -1.0407302 -0.8320086 -2.005519
895 -0.6274392 -0.6528144 1.2678497 1.6224744 0.22531514 -2.307175 -0.04071874 -2.1356359 -2.7788541 1.224121 0.9942874 0.7917544 -0.24473752 -0.97929543 -0.77340794 -2.1029327
1388 -0.2750418 -0.20714384 -0.63638455 0.7077563 -0.98732513 -0.49808508 -0.48417437 -2.0596416 -0.11464128 0.9309628 2.2735431 -1.2368511 -0.3176128 -1.0404879 0.5426426 1.2452592
518 -0.4486029 -2.789272 -1.8592695 0.34162435 1.9307935 -0.42986667 2.3435576 -2.5952172 -2.885328 -0.38104647 1.430469 0.20546243 -1.482244 -0.14151217 -2.3003438 1.5022941
537 -2.6122336 0.5721635 0.014743786 1.3527585 0.732741 -2.1099875 -0.64793867 -1.851782 -1.247338 0.10200159 0.936414 -0.52167046 0.89869756 0.08094891 -1.1230937 -0.59371907
70 0.080476515 -2.297754 -1.9915117 0.64997476 1.3008224 -1.6618507 -2.3492835 -0.2929307 -3.3162508 0.89995915 -0.20068091 -0.88667053 -0.80419123 1.9653054 -3.4977913 1.937631
2 -0.34588927 -2.6248085 0.25700304 -0.56424826 0.25663698 -1.1523073 -1.3268992 -0.7646677 -1.5058355 -1.8132396 1.0851916 -0.65287304 -1.2767777 -0.09486606 -2.6504068 2.3047647
965 -1.6160991 0.44992745 0.36155388 1.9163922 0.25128946 -0.25857347 -0.31498897 -0.99658 -0.08478895 -0.054938335 2.3803148 -0.84002995 -0.25537428 -0.36490893 -2.3345673 -0.04736623
997 -1.1497023 -2.5798562 0.21423326 -0.8298232 0.7572733 -2.3584754 -2.0439668 -1.4054797 -0.22820383 -1.534212 1.060718 0.011383692 -1.5113319 0.95095384 -2.0343766 1.3061726
253 -0.2056396 0.05392581 -0.52392846 0.3596146 2.2910514 -0.35917747 -2.358476 -1.7990556 -0.68543893 -0.5901514 1.2071296 -0.20411052 -0.12591678 -1.4894531 -0.41979393 -1.9460456
159 -0.8727481 -1.929758 0.38924173 0.76697075 0.9052838 -0.49833688 -0.23379228 0.60539883 -0.20536128 0.45530605 2.5136607 -0.48794395 -1.2063195 -2.6740968 0.026352353 -0.38006005
146 -1.4650242 -1.1592788 -0.030192122 0.9619724 -0.11057563 0.010114059 -0.49132735 0.68065137 -1.805492 -2.1943963 2.618773 -1.1865686 -0.59328973 -1.6050252 -1.4920187 -0.8354083
612 -0.122031614 0.47561148 -0.6213674 1.8749305 0.6698089 -0.73521054 -0.027536541 -2.2797945 -1.525791 0.45796943 0.5368438 0.82284445 -0.5498737 1.1076987 -1.2565627 0.3652247
399 -1.0743753 0.11906442 -0.56275356 0.30065864 0.22870837 -0.306064 -0.5084088 -0.9762002 -1.2717608 1.7269034 2.5206687 -0.4554906 -0.63046545 0.20424373 -0.04022116 -2.8133366
81 0.7164825 -2.0007102 -1.6338 1.7795372 1.2653497 -1.0806496 -1.378479 -0.07896988 -0.8284585 2.3595366 0.30084896 -0.6699091 -1.3441385 -1.568596 -0.2514775 1.5951095
1004 0.6827325 -0.017792428 -0.39808917 2.676059 0.06427481 -1.4044881 -1.0020279 -0.49388197 -1.2444817 1.2476809 1.3968633 0.43856436 -2.4468343 -0.7148965 -0.733907 -0.9083317
213 -0.34818956 -2.709915 1.0078104 0.50736904 -0.21962366 -1.0629084 -1.8744718 -3.043126 -2.7480726 2.350076 0.84972644 -0.44241893 -1.7966412 0.2085837 1.8691396 -1.4381278
793 0.54241025 -2.039446 -0.8945369 -1.1181669 -0.080164224 -2.353406 -1.4868091 -1.0809121 -4.266272 -1.5399777 1.3522594 -2.2486563 -1.0003605 -0.08117283 -2.3920004 3.0490901
1021 -2.0033982 -1.8482461 -0.75379425 -0.779682 0.9336745 0.26567125 -1.3317039 -3.4584365 -0.6564029 1.2334068 0.08139001 -1.1737489 -1.047756 -0.6160269 -1.4479331 -0.24357057
849 -1.1123339 -2.2056632 -1.0452384 1.5321169 1.1256311 0.34513575 0.7711288 -1.0049204 -0.5655843 1.1784576 3.0379095 -0.61141884 -0.3837047 0.7924881 1.6317114 0.391557
5707 -0.4545394 -1.0542765 -0.19583827 -0.53313404 1.657103 -0.12054484 0.6923228 -1.0013152 -0.84208006 -0.29771063 1.8546544 -1.1821209 -1.0542754 0.5462259 0.5014868 -0.96449757
1114 -0.57561153 -1.1046658 -0.07186609 0.72559136 0.02005327 -1.1512991 0.24301301 -0.37884033 -1.0833348 1.9356782 0.9902793 -0.63348305 0.79020506 -1.8028988 -1.2733288 -1.1602323
1427 -0.7387185 -4.2463193 -0.65346134 0.60387784 1.9871056 -0.26159382 -0.87017226 0.28538644 -0.022363769 -1.845669 1.9388752 0.57625955 -0.8837453 -0.22736508 -1.2560003 -0.058292996
799 -0.07437708 -0.26882 -0.86780983 0.77473 2.2240176 -2.1199732 -0.20140712 -0.5401544 -0.26258335 1.2006825 1.4261972 0.2908947 -0.104858585 -1.297954 -0.371395 -1.3476293
516 -1.8163711 -0.755224 0.32344297 1.2895103 1.4709519 -1.8735521 0.08263049 -2.6619213 -0.82987195 4.5326476 4.9206715 -0.9548584 -3.0283968 -1.1297163 -0.18591353 0.38841575
464 -0.08097568 -0.5963574 0.65558976 1.9779884 0.073126 -1.8623921 1.0882434 -1.5479361 -0.9914576 2.574348 2.16792 -1.0577484 -0.9930808 0.45202634 -0.6803688 -0.22946705
1178 -1.0088824 -1.5184327 -0.45295584 1.1265323 0.71724755 -0.55148196 0.44276175 0.24215405 -0.83861 1.0638735 2.11059 -0.41403756 0.25922415 1.8039362 0.5052369 -1.2423046
763 0.3820238 -0.63440543 -2.078737 1.9037871 1.7560521 1.420226 -0.839014 -0.51497364 -1.3145831 0.868003 2.1621704 -0.8586605 0.9697271 -0.60767317 -1.0050356 -0.14174557
1158 -0.3306189 0.10847836 -1.4947937 0.8767891 1.9198866 -0.7900695 -0.7903927 0.62927264 -0.8681467 0.41920543 2.7027898 0.3815271 -2.0263336 -0.5141889 0.51918525 0.23278163
842 0.6347686 0.6368831 -0.54035246 0.95473397 -0.62988496 -0.36846843 -1.1851085 -2.0169158 -0.80808264 0.8757971 1.7451092 -1.0098724 -0.7772316 -0.34559467 0.8571401 -0.3152941
90 -0.7621453 -2.2787 -0.46303436 0.8763195 -1.4548428 -1.5226461 -1.3259691 -1.7729552 -0.8016977 1.6480007 1.2607538 -1.2285134 0.7177307 -1.714933 1.3048261 -0.99419045
921 -1.4264957 -2.974851 -1.0062073 0.30208188 -1.1343335 -0.67764217 0.10656459 -0.91309184 0.90580636 -0.04411574 3.3010185 -0.6193435 -2.057902 0.6716795 -1.2722476 -0.483538
490 0.8460069 -3.6211917 -1.6891087 2.1675155 1.3388648 -2.8648088 -0.98250675 -0.55017334 -3.9951177 -0.50633025 -0.7497012 -0.68786323 -0.60074186 2.322084 -1.3237114 -1.4057279
342 -0.23243587 -1.7284085 -1.6046809 1.4969308 -0.9370344 -0.62479526 -0.19691853 0.65074235 -1.2365339 0.13077836 1.8807377 -0.5510835 -0.55331105 1.8775866 -0.40733603 -1.439949
316 -1.8345585 -1.0522091 0.8559055 2.2059371 -0.73805046 0.54606426 0.060750596 -1.2521313 -1.1128347 0.6919529 1.6704638 -0.54017866 -0.1394548 -0.59422535 -2.1094818 0.01905906
1112 -0.44138563 -0.38452506 -1.2622378 -0.2291466 2.739081 -0.85258645 -0.5251892 -0.8861763 -0.51883554 1.4666421 0.7624281 -0.45168862 0.1947787 -0.90892535 -1.461835 1.1726276
1083 0.71322787 -0.356912 -0.42723545 1.5967963 -0.24390452 -1.8026484 -0.10731121 -2.0539587 -1.4832069 1.3301198 0.3762758 0.12239417 -0.5076748 -1.668029 -0.7971035 0.35284275
834 -2.1972463 -0.49616528 -0.540312 2.548942 0.7952901 -2.92923 0.8756579 -0.1281901 -1.6060596 1.8107502 3.2443886 0.1877897 -1.2977557 -0.0933605 -1.6007923 -2.989317
941 0.2509294 0.08283581 -0.0667406 1.4906037 0.15736742 -1.8366958 -0.36783153 -1.4469407 -2.1305134 0.7843981 0.82499063 -0.5313066 0.9424551 -1.0581181 -2.0533304 -1.5305426
670 0.491817 -1.1192857 -1.8778082 0.8644809 -1.0023465 -0.70141906 -0.4035395 -0.31788075 -1.3482778 -0.6047522 1.420728 -2.1992714 0.36697334 1.1412913 -0.5145287 -0.9497466
1117 0.3225022 -5.356694 -0.7505968 2.106924 0.0053716614 1.2060359 -2.8274522 -1.5521516 -2.8446655 -1.5356865 2.2975342 -0.89199907 -0.13753605 -0.35569614 0.35213313 3.439341
925 -0.111029886 -0.77700275 0.27738255 3.036078 0.96740973 -1.6479449 -0.057218358 -2.0410528 -1.7452184 1.0147021 0.1958577 0.23455265 0.23135044 -0.7933251 0.07719751 0.34283844
1267 0.20831732 0.6230773 -0.75143576 0.8996245 1.0503721 1.3179688 -1.6200341 -1.2354146 -2.3723745 -0.07766393 3.1705656 0.11574002 -0.539678 0.12569752 0.15441342 -0.28178066
661 -2.7453666 -4.405798 -0.63622063 0.003305385 -0.7442781 0.43457282 -2.1053169 -2.098621 -1.6372904 3.3278716 2.8031428 -0.14982761 0.26683453 1.4396367 -0.71435183 1.9453461
92 1.5545607 -3.9216044 1.0403072 1.3354115 3.674708 -1.070823 -2.3537617 -2.7596416 -1.5719557 -0.3045642 0.26341796 -1.2342411 0.6272854 0.4303405 -1.1976048 0.16191737
985 -0.36072505 -1.014745 -2.7267425 -0.5168687 0.23728669 -1.6082691 -1.2375883 -0.6009972 -0.894362 -0.06770219 3.0792296 -1.3692471 -1.7207401 1.234671 1.8299359 0.6018868
549 1.3921038 -1.0742157 0.45118582 -0.74040514 1.8715168 -2.2467582 -1.1780095 -1.9437996 -1.2326889 0.6990192 0.8657272 -2.4857 -0.17478716 0.2848526 -1.9895246 -0.3609581
358 -1.4516888 -0.5353311 -2.0582438 -0.38347137 0.943095 -0.031709123 -1.768649 -1.5174443 -3.3440065 -0.21955633 0.53417826 0.6178904 0.8721898 -0.28044093 -0.9367311 -1.1034617
947 -0.33911553 -0.96761286 -0.2931074 1.9227889 0.06662868 -0.47041023 0.44864246 -1.9939297 -0.35533097 -0.7462634 2.7986689 0.9968174 -0.54619837 -1.8302448 0.37869364 -0.15424222
883 -1.7450762 0.60205287 0.898584 1.7717328 0.52204496 -1.2449902 -0.4806582 -2.1848392 -1.980413 0.38286743 1.3676105 -0.3366154 0.8226464 -0.1326357 -0.05847813 -0.39308342
93 0.6625876 -1.332381 0.8226473 -0.42048433 0.13290538 -1.9575495 0.87341946 -1.0319376 -1.0433617 0.13153936 1.9097534 -1.025755 0.16903566 -1.0002593 0.26583385 0.098863386
160 -0.9607257 -2.2134671 -1.2438453 0.9212885 1.7023938 -0.121678695 -0.27400005 0.1079396 0.35302514 -1.6629405 1.7708871 0.10905535 -0.1867611 0.34945023 -0.43233517 -0.088550635
1330 -0.013934783 -1.0224789 -0.042490426 0.24792805 1.4650707 -1.1721262 -0.56631684 -0.36206532 -0.5575269 1.0138035 2.2062232 -1.8573036 0.29314536 2.0579846 0.67736155 -0.27663583
212 1.7244421 -1.2319734 0.76039994 -0.1453088 1.6198905 -2.076185 -2.2583609 -1.3503685 -4.9467735 -2.5721703 3.4576902 1.2835367 -1.7507056 -1.4027603 -2.2480683 1.7304786
570 0.39577734 -2.205964 -0.9588337 -0.3838514 0.48178518 0.92529225 -0.46139395 -3.2456508 -0.8497463 1.6910591 3.1446114 -1.3489281 -1.5493871 -0.08068337 0.2064902 2.2562633
2778 -0.41682127 -1.2117244 0.83432764 -0.07138835 0.8530707 -1.6245865 -1.409509 1.3310469 -0.5597465 0.07161956 1.8076673 -0.05223455 -0.24248828 -1.157817 -0.95304084 -0.54984784
1412 -1.0378251 -3.2381284 -1.1857755 0.9581095 0.5506644 -1.9166011 -1.9525552 -2.3802953 -3.883209 0.7977567 0.3739436 -0.6200853 -3.174622 2.8722544 1.7017671 2.1984854
199 -0.7376599 -1.1626288 -0.6166999 0.030287782 0.861776 -0.4500281 -0.2599433 0.7842826 -1.9364543 -1.248393 3.4194424 0.19459505 -0.67239505 0.9372968 0.3749306 0.9743012
1177 -0.5783543 -1.0820618 0.37027434 -0.14859773 0.42510065 -0.2136418 -0.039342586 -0.41825968 0.36423266 -0.45300907 2.9735017 -1.9829277 -0.62346655 -0.4953662 0.23542574 -0.2060536
768 -0.5233069 -2.2943203 0.045153644 -1.2859907 0.63021344 -2.1971147 -2.4727576 -1.2640307 -0.8123305 -1.393811 1.2625223 -0.568106 -1.1258109 0.19263957 -1.0822197 2.393058
58 -1.5217458 -1.7396039 -0.13280855 -0.68827665 0.18176979 -1.5701896 -2.9703002 -0.07145014 -1.4542286 -1.493344 1.264169 -0.28888035 -1.0251615 0.47317094 -0.607582 1.9125274
480 -0.34584272 -0.30999294 -0.99837226 0.29703066 1.1797268 -1.5710458 -0.12973994 0.09121787 -2.4823925 0.9110878 0.62778485 -0.17105776 1.0598229 -0.78590214 -1.5110165 -1.522285
1278 -1.7722441 -1.8259435 -0.90046555 2.3071628 0.89828616 -1.2615693 0.7860541 -1.0412832 0.38864914 1.8139096 0.6392814 -0.9010349 -0.48123044 -0.31365824 -0.7208654 -0.58517164
1046 -1.1433696 -0.47304326 2.191865 2.1263776 1.3027966 -0.36622623 -0.3028742 -2.533659 -3.010149 -0.330936 1.7340838 -0.45245707 -1.7920796 -0.91702676 -0.54796624 -1.8410714
468 -0.9742701 -1.2829978 -0.92601544 -1.0100185 2.0569427 -2.8534622 -1.0814775 -1.5605671 -0.14850375 1.2804351 1.425428 0.7325762 -0.55063796 -2.0239944 -0.9853682 -1.0624585
1134 -1.5240436 -1.3904217 -0.10728625 3.876421 0.47188684 -0.8952598 -0.4055386 -0.7730298 -1.5051318 0.75769705 0.046114106 0.2543594 -1.1286706 -0.5129171 0.09451052 0.8943718
252 -2.2690547 -1.4279187 1.7004265 2.6330245 1.7274327 -1.1028296 -1.5873606 -0.6925068 -2.370101 1.2407309 2.1647499 1.2191334 1.2245643 0.76880527 -0.75874925 0.098290026
532 -1.7180872 0.0257115 -0.27534422 2.0189888 2.3902535 -1.3726029 -0.45610946 -1.4305483 -2.2673395 -0.37884417 -0.17004283 -0.87681633 -0.45056522 1.4360838 -1.7794282 -0.67366385
1131 -0.5027755 0.39601177 0.6089328 1.095403 1.5803729 -0.011774174 -0.30297062 -0.73525393 -1.0752579 0.041376434 2.2192938 -1.640109 -0.18895681 -0.93626606 -2.668958 0.17136087
207 -0.8821684 -2.4782586 -0.33560112 0.84458065 1.4320863 -0.6717607 -1.9405571 -0.3923375 -0.30950752 2.3815992 0.82488346 1.0545937 -1.9981942 0.25518647 -2.1274552 -0.99332434
428 0.9916796 -0.947506 -3.4885476 -0.5054153 0.25339705 -1.8553859 -1.3440819 -0.39407676 -4.0240154 0.091754384 2.447533 -0.26295123 0.35166276 1.8369153 -0.53083605 0.59324735
1030 0.0069668056 -0.28200626 -1.5520883 0.5594961 1.3302182 -0.1712735 -0.80059904 1.217325 -1.11166 -0.53058577 1.6442877 -0.49985632 -0.86277395 0.6167689 -0.19328599 -0.6862162
706 -0.68120366 -0.54855067 0.28386194 -0.06326259 1.1244452 0.017468208 -0.65709037 -0.72816753 -1.8365203 -0.28774792 2.014647 -0.42665163 0.19221872 1.6864355 0.4167066 -1.3940201
1870 -1.6037362 -2.5551805 0.24622025 -0.013165277 1.3461416 0.7077508 -1.5559044 -0.3290531 -0.93366235 0.68096757 1.3066162 -0.8995898 -1.7862625 -0.1843646 -1.7141817 2.2309206
243 -1.7784162 -0.6373864 -0.5164389 0.8114383 -0.08640781 -0.8978599 -0.6569378 0.7682032 -1.4758834 -1.8452046 1.733733 -0.59411 -0.42433283 -1.1569982 -0.75538105 -1.590228
611 0.58096457 0.686632 -1.0853381 -0.39238864 0.6312423 0.13840376 -0.8735823 -1.034736 -1.6539615 -0.46085158 4.3808284 -2.3365526 -0.85602885 0.8196968 -1.6354237 0.069109105
1064 -0.6068698 -2.2520888 1.1052831 1.1156764 0.10663945 -1.8944192 0.30698612 -1.2424302 -1.3470992 1.8148946 1.3586968 0.5674567 -0.40362325 -1.0529804 -0.14093137 2.0113435
705 -1.1777248 -0.38636446 -2.1393826 0.3510962 -0.11493112 1.1443397 -0.5849122 -1.454278 -1.6393436 -1.3757699 2.0500705 -0.6685313 -0.8170427 1.4097149 -1.3262126 -0.9392819
666 -1.0560199 0.45566833 -0.91950834 0.16247383 0.24932681 -0.55928344 -1.5558184 -0.34774816 -1.6596427 -0.010895489 1.2307904 -2.522458 -0.14107402 -1.6900867 -0.115917034 -1.152799
459 -2.9455798 -0.03174995 -1.7432444 -0.5619052 -1.9494903 -0.5490066 -1.8227184 -1.7132629 -3.427481 -0.51890224 2.4150782 -1.5532545 0.045189183 0.20658623 -0.6249 -0.015932724
337 -0.45427307 -2.184171 0.56109786 0.51011425 1.380231 -0.66062105 1.9999752 -2.2301023 -1.2154505 0.6930956 1.3196012 0.18325776 -1.333898 -1.117969 -0.9131938 -0.052592706
5512 -1.7104706 -0.115762204 -1.85393 -1.5719119 0.8418695 -0.8669588 -1.1114246 -1.926248 -0.78327334 -0.22383045 1.4797285 -0.8996134 -1.6019386 0.6539547 -1.5462143 -0.87873256
330 -1.2288665 -2.866455 -0.36096987 -0.3416485 1.5464172 0.6023143 -1.1298392 -0.24425401 -1.7099766 0.69161946 0.87051964 -1.2629334 -2.189945 -0.015570141 -1.5306202 2.2741838
352 -0.71487653 -2.556811 0.049134936 -0.13767125 3.6169262 -0.83003896 -2.1489115 -0.69835234 -0.63711923 -0.8240846 0.7447362 -2.3710153 -2.5949597 -0.4605016 -0.44362897 -1.7159741
6622 -0.4208926 -0.18631242 -1.2349674 1.0773998 1.5462996 -1.5727271 0.1968255 -0.38811445 -0.027948476 0.8831846 1.2993826 -0.12332996 -0.41850516 -1.3680102 0.483242 -0.7319758
1238 -0.14382567 -3.0018647 -0.021437736 1.6030709 0.7926624 0.63712937 -2.5909626 -2.6867878 -3.3934946 1.9696251 1.6671691 0.10309968 1.4323995 -3.349334 0.9479435 -0.45134136
686 -1.5117538 -2.448548 -1.1923628 -1.5492845 0.32044557 -2.165226 -2.6435542 0.022182278 -2.3660927 -1.7145799 0.99403906 0.8407911 -1.1310704 0.5063414 -0.5989447 0.9647636
881 -0.5803328 -0.6311298 -0.697124 -0.3197305 1.0229738 -0.10601313 0.74988323 -1.5534543 -0.6466947 -0.06339159 2.53728 -0.95414865 -1.4624174 0.67871195 0.6798849 0.38270578
7024 -0.3815851 -0.5263547 -0.024424076 -0.11173371 2.0020862 -0.34304634 -0.28722915 -1.0449789 -0.44327036 -0.6400039 1.7250264 -1.0884118 -1.2104458 -0.12569728 1.0864965 -1.2140938
71 -0.4167467 -2.4354708 -3.455402 0.5676134 0.47447607 -2.0867167 -1.7743584 -4.5895076 -0.41208282 -1.6721013 0.9739244 -0.7826981 0.039621472 0.7779343 0.6036636 0.2734316
828 -1.4864349 -0.8945803 -0.78420657 0.84176314 1.5269214 -1.9619708 0.40721962 0.06139477 -2.4029765 -0.6142296 1.5768417 0.47963694 -2.3222485 -0.8393342 1.5824425 -0.3209917
403 -0.6128063 -2.2375796 -2.9319296 1.0251638 0.07884587 -1.0171123 -0.7259414 -4.0109305 -0.5397555 0.0028189695 0.36267164 0.020551724 -1.0908271 0.6359616 0.8727097 0.27263734
217 -1.5057825 -3.1396987 -0.2770622 0.2666405 1.7284548 0.49408174 -1.2517314 0.124331914 -1.3034055 0.36672658 0.8940743 -0.67270744 -1.6336242 0.3927755 -1.5269161 2.2761667
6669 -1.2854359 -0.7611627 0.056603063 0.33655503 1.0101767 0.31107393 0.034713108 -0.050995488 -0.9040913 0.04162361 1.5127248 -0.73565835 0.3468479 1.1847396 -0.14936416 -1.4042594
1993 -0.22051618 -0.9629253 -1.3464302 0.29861057 1.2402985 -0.24783684 -0.37899178 0.9119553 -1.2979252 -0.95273715 2.5323634 0.18122496 0.26192984 0.48616385 0.3086157 0.6665676
1241 -1.2522385 -2.9777539 -0.39738205 -1.0662425 1.0893214 -0.18539064 -0.14045748 -3.4340231 -3.1017456 -0.16921055 1.6875389 -0.98656386 0.36613595 1.3307985 1.5841498 -0.22363506
510 -0.7216389 -2.8860986 -0.392105 0.5001082 1.9023768 -1.263884 -2.2145784 0.02937994 -1.2865806 2.2569275 0.1902136 1.312717 -0.88420755 0.2620932 -1.6102676 -1.0211238
1334 -0.9817636 0.16816863 -1.1757798 -0.6300772 1.638818 -0.51460624 -0.7321218 0.14127782 -2.4982543 0.3207452 1.1157993 0.4132304 0.51945204 -0.39524123 -0.8003078 -0.6076588
1170 -1.7686447 -2.1679769 -0.837315 2.0401742 -0.7859367 -0.36638284 -1.3658676 0.6994376 -2.5821168 0.16050823 -0.0850907 0.3104747 -1.5854179 -0.5890991 0.16036308 -0.25847718
613 -1.3374833 -2.988103 -1.4709456 0.7165716 0.5082398 -0.828639 -2.5247226 0.42421132 -1.1585113 -0.023371886 -0.039827276 -0.95550483 -2.971398 -0.26023325 -1.4677316 1.8761517
424 -0.79981965 -2.665925 -0.5691378 0.5251717 1.5610224 0.4396038 -0.8103445 -0.36347866 -1.0501144 -1.4622424 3.6765373 0.44948012 0.84943074 -1.4600059 0.8271444 0.7992852
239 -2.2977066 0.29071617 0.47110155 1.4199333 0.15090364 -1.735262 -0.9046802 -1.7793254 0.14648096 0.8678822 1.9675579 -1.4224938 0.35056746 0.30677518 -1.8458122 -0.5533356
885 -1.7286114 0.33917215 -0.1316702 1.513166 0.9804567 -1.6150732 -0.106093906 -0.9704883 -1.2708838 0.11220901 0.88965183 0.3929335 0.7601731 -1.0738362 0.07373461 0.5292852
590 0.49422377 -0.5574258 -1.3015459 2.8636003 -0.25071082 -1.4003754 -2.1295202 -0.091182135 -1.6993276 1.8964697 1.3140807 1.0942984 -1.47217 -0.19655003 -2.0057132 -1.2575303
866 -1.8104955 -3.7088542 -2.9792268 -0.3284085 1.7265995 -1.0215868 -4.780218 -3.812359 -0.19396032 -3.100345 1.7887758 -0.10030893 0.68798697 -1.615253 -0.77940667 -0.9841605
421 2.66311 -2.272395 -1.7172506 2.0458105 1.3492192 -1.9244848 -4.3917522 -0.77309525 0.5722494 -1.6668125 3.4053366 -0.558053 -2.065962 -0.21029897 -2.4217916 0.44374567
145 -0.48399895 -2.7505803 -4.0142813 -1.2509232 -0.09637569 -1.3571408 -3.6731637 -0.47696692 0.20197327 2.1634946 3.9667113 -1.4534459 -1.972457 -1.1906643 -2.4245975 2.1234818
121 -1.6783377 -2.7050743 -0.78206146 1.1278176 0.98884374 -0.7261393 -4.7226834 -2.783002 -1.2603555 0.08386179 1.2775097 -1.9620752 2.7167058 -0.8768969 -4.7034335 -1.6467927
544 -1.666977 -2.3448408 -3.648794 1.4666029 -1.5482131 -0.16722739 -2.2121754 -2.0015416 -3.1724424 1.4855464 3.0074992 1.3287249 -3.7270656 2.8792021 -0.9505875 1.6936451
1276 -0.604051 -4.297353 1.7340946 1.3472127 0.06743098 -2.7568707 -0.96785533 -0.33421746 -4.9437213 -0.7665992 1.7689012 -0.9021907 0.9673215 0.77882934 -0.14189386 2.5066814
16 1.473725 -2.130327 -2.0970514 1.5591458 -2.5496845 -0.8264289 -5.4029074 -1.2368056 -1.9809343 0.3052526 4.441081 0.82824516 0.041905005 -0.43330818 -1.2616307 0.3445943
891 -2.5793884 -5.3914437 0.88043493 -1.2918067 -0.2036311 -0.4283648 -2.9665997 -0.5897443 -3.033715 -0.52316535 1.2015731 -4.2501254 -0.42071584 -0.16484036 -1.6055217 0.04651103
561 0.686817 -4.7992196 -0.15054321 0.8751871 -2.986274 0.7610198 -2.738106 -1.2675366 -5.444414 -0.32761523 2.8882315 -0.6014977 -0.87698156 -1.2350942 0.7386216 -0.3170328
46 -1.1474776 -3.7079163 -1.5621712 0.4634212 -0.36282954 1.453045 -2.7250988 -3.7348948 -4.6802344 0.10607994 0.6774184 0.08231157 -0.81764096 2.5776074 -2.1015916 1.2192601
484 0.97010565 -2.2502577 -4.661318 -0.7372598 1.1698043 -1.7751021 -2.9143229 -3.1997879 -3.928361 0.6622674 0.15727341 -0.73640865 0.22764647 -3.2595341 -2.2080991 0.6121555
453 -4.355293 -3.572857 0.5540969 0.11984757 -0.3464682 0.644009 -4.921118 -3.1501338 -2.0939224 0.92421776 1.8624908 -0.8242758 1.2475598 -0.8525366 -1.5272974 -0.9672201
615 -2.0823128 -2.6841571 -0.4959024 -0.5302196 -0.18152943 -1.4847509 -5.1862507 -2.2123647 -0.76810634 1.9355342 1.5622061 -4.009661 0.17261449 1.4384751 -2.054505 -0.16053516
526 0.74547803 -1.4708208 0.14340806 0.8504553 -0.74040025 -0.8717546 1.4979535 -2.387405 -3.0824852 1.3921406 2.5622435 0.03997804 -0.58151305 -1.1669546 -0.07615483 0.7037574
868 2.9086514 -3.2965686 -2.0092316 1.5442487 1.2576561 -2.2776465 -2.202987 0.29247215 -3.2250266 0.908411 2.807565 1.3090128 0.60439056 1.4197627 -0.012154784 -0.5972034
36 -0.762063 -1.0700248 0.065610446 2.9313054 1.0818439 -0.75111717 -0.042517215 0.12787099 -1.8788959 -1.330301 1.1504722 -0.29660636 0.39985365 -2.2297661 -1.2284145 -0.21675746
1005 -1.6763871 -0.20811321 0.24997208 0.8907009 0.51679164 -1.5474681 -1.0827111 0.46463996 -1.1013732 1.5054888 0.83487535 -1.6548706 -1.3100351 -0.1583075 -0.49274242 -1.6143138
1453 -1.8318967 -2.0422995 -3.0265095 1.841599 -0.65954006 -1.1154672 -2.9803948 -0.4079029 -2.4977696 -0.34363633 0.07545584 -0.29228237 0.6798075 0.56618553 -2.9900403 1.0894641
353 -0.18905754 -2.0792336 -1.3671045 1.3425674 1.0061946 -2.1413186 -2.8173356 0.27622753 -0.7276053 1.7092144 0.4137452 1.2636893 -0.8120311 0.59811264 -1.5581617 -0.95645714
1348 0.4870028 0.12694831 0.41127878 1.2791449 0.8789828 -1.829822 -0.53661406 -2.0294683 -0.44991204 -0.14756593 0.9226756 -1.4789919 -0.8198741 -0.29205316 0.51999795 -1.3636987
1318 -0.3502076 -2.6394033 -1.1755513 -0.0019006517 1.901127 -0.9768578 -0.024088833 0.6821323 -1.918254 0.12862445 2.6589334 -0.20357251 0.14159684 -0.074742846 2.3121166 0.015924528
1384 -0.56004226 -0.73040926 0.005992378 0.76001596 -0.73512876 -0.7109553 -1.5457349 -1.8258686 0.615607 1.3994725 2.04506 -1.0136198 0.3964588 -0.6519392 0.67301744 -0.38836554
367 -0.8413803 -1.3258313 -0.039985776 1.7352968 0.5289365 -1.384542 0.023250626 -3.0278008 -0.06170624 2.5387137 1.80484 -0.13274518 -0.83264184 -2.2490988 -0.44573218 -1.2993648
5651 -1.5743877 0.43268722 -0.54965097 1.0964489 0.7403042 -1.3194543 -0.9481873 -1.0936482 -0.79264814 -0.2607752 0.62557423 -0.70591545 0.13762964 -1.4832565 0.55628407 0.89137536
1184 -1.0760539 -0.84632283 -0.45995098 2.3079991 0.23935385 -1.625924 1.7015655 -1.5686744 -0.7448886 1.7526013 1.4623126 -1.5640955 -0.46961406 0.40958488 -0.79387194 0.36873358
1406 -1.8350366 -1.2815238 0.4850575 -0.075292 -0.06625829 -0.7363639 0.28773558 -1.6988267 -1.6459534 1.0767621 -0.21207182 -0.72666484 -0.83422196 -1.4327484 -1.0164219 0.52984434
1237 0.02747945 0.6463937 -0.058386613 -0.47829166 0.9903825 0.42739716 -0.7690734 -0.8609437 -1.7033278 0.53278697 2.5114481 -0.6929606 -0.5801477 0.6173649 -0.17037138 -1.0301781
194 -1.1710217 -1.5995258 0.2599766 -0.19042657 1.1145124 -1.379863 -1.062017 1.8767383 -0.6861673 0.5090203 2.1474855 -0.61612886 -1.2094796 -1.7340168 -0.46551782 -0.011783696
552 0.30519268 -0.6632294 -0.080953166 1.5398208 1.7626003 -2.819538 -1.0590385 0.7236792 -0.8963192 -1.2246501 0.9864283 -0.8988489 -0.03166433 -0.320172 -0.5460648 0.05193952
550 -1.1043206 -0.8112086 -1.126384 0.27734575 3.303683 -0.6298478 -1.6263142 -0.9970429 -1.5411359 -1.098798 1.4493644 0.10132973 1.4516743 0.13152413 -2.7182825 0.35302258
369 -2.5402563 -1.4354345 -3.1946745 1.7070967 0.19365898 1.2764496 -0.19327502 -1.260582 -3.7790108 -0.99050933 3.1525445 -0.82239914 1.2136229 -1.4856553 -2.7595103 1.6434765
89 -0.19421707 -2.3439887 -0.9004488 0.43463746 0.24059135 0.10337546 -1.4330271 -1.2536497 0.9505962 0.6808063 3.1362813 -1.8681897 -3.4238856 1.3204893 -0.42402655 -0.5998053
764 -0.67658806 -1.1039504 -1.8816459 1.2399532 -0.3059571 -0.56004924 -0.5848598 -2.5281084 0.37677857 -0.0738762 0.65828526 0.3085172 -1.547344 -0.53846544 0.26440892 0.40113145
364 -1.0645834 -0.4801154 -0.089718916 1.3328362 -0.0082682455 -1.5725483 0.77466285 -1.4649876 -0.6866586 2.4728658 2.8920703 0.09273763 -1.3277967 -0.4498451 0.4043481 -0.5733595
473 0.35432476 -0.7754311 -0.28576627 0.25715882 2.5456877 -0.23787299 -0.28231248 -0.6252976 -1.2799995 2.2687194 2.375213 0.38827404 -1.240454 -2.3837767 -2.1315458 1.3483341
702 -0.8978685 -2.397563 0.8917317 0.7710283 0.89692646 -2.8092957 -1.7579376 0.027482022 0.91535974 0.23468053 1.4769673 -0.7570448 -0.27232125 -0.43691272 -2.4755056 -0.72325337
437 -1.3686028 -0.47840866 0.0081138145 0.68811625 -0.7840227 -1.9434474 -1.0143324 -1.5377936 0.35586342 1.9974403 2.0818944 -1.5565962 0.84916425 -0.7991095 -1.7150239 -1.2637155
1365 -2.4180605 -3.2572827 -1.7372074 0.13052738 -0.6392601 -1.6277993 -1.7823474 -0.36526307 -2.679099 0.9914314 -0.46145353 -0.9588954 -2.405563 0.76143503 0.09916621 -1.8956099
900 -0.7986415 -0.10223117 -0.748289 0.31515482 -0.6692189 -3.120827 0.39203346 -1.5664083 -0.4980208 -0.263372 1.640352 0.08922622 -1.3278486 -0.46160987 -0.13492405 -0.4954379
1332 0.6544195 -3.6017277 -0.06378079 0.36263916 -0.09160212 -0.41274536 -0.110879384 -0.31462744 -4.536924 -1.1678002 2.0751088 -0.05427035 1.0898142 0.58595514 -3.0662792 -0.95809907
832 -1.2945802 -2.4719243 0.64403063 -0.81939965 2.6028333 -1.2020885 -2.2810175 -1.376886 -2.028293 -1.5695803 0.56513745 -2.137318 -1.9869822 -0.48799965 0.73307323 -1.9714165
311 -0.0974475 -1.58314 -0.014788735 -0.44807482 0.22155853 -0.70074826 1.3279248 -0.44954112 -0.8857141 0.121736325 1.9149958 -1.0399389 -1.2991905 -0.05825732 0.58183295 -0.22309887
1289 -0.6657904 -0.88085324 -2.1072547 -0.5726495 2.566938 0.928676 -1.6804972 -1.4450588 -0.98375165 0.023079991 2.4319127 -1.8773242 0.89394176 -0.03712412 0.29058483 0.5572427
974 -1.8008306 0.1476062 -1.7241426 -0.65197945 0.7333136 0.062061105 -1.0153289 -1.1140724 -3.536726 -0.49933067 0.9798073 -0.18285204 -0.2423463 -1.1014267 -0.10129955 -1.000295
984 0.87662816 -1.8395135 0.8550478 0.068900846 1.1754872 -1.6858793 0.64346886 -1.8471254 0.01053642 -0.40410835 2.2275195 -0.17243147 0.073388465 -1.279664 -0.91676724 0.5780476
1100 -0.4404134 -5.1871743 -2.1502342 2.723323 1.1328653 0.83591264 -2.5600364 -0.7226162 -0.2749829 1.7098767 1.2617178 -0.567373 0.906551 0.111102864 -3.244009 0.0609203
1341 -1.7403439 -0.32041922 1.0674144 1.0623685 1.2374078 -0.90907675 -0.54780304 -1.3590199 -0.9150222 1.0764718 1.7005203 0.82990026 0.87833935 0.013185777 0.18117276 0.28136536
340 1.3168763 -1.2535766 -0.52883804 0.8511901 0.8431931 -2.3091688 -1.099743 -1.4218892 -0.18582577 1.0127685 2.4366605 1.5944285 -1.385691 -0.12948416 0.56484026 1.269835
150 0.5039421 -1.4747863 1.1243069 2.2667077 0.5360538 -0.4948115 -0.10680778 0.73530453 -1.309533 0.037874155 2.3848636 -0.6137875 -1.3314346 -1.3591763 0.45683745 0.21923214
240 0.6882894 -4.3116994 -0.88904196 2.2908823 1.2841196 0.20699506 0.4852006 0.37846413 -2.5431895 1.3440202 0.6570217 -0.91359967 -0.60765815 -0.21239951 -0.64447355 0.014031168
1203 0.44401288 -1.8237021 -1.9572715 1.0302229 -1.1124631 -0.2461439 -0.0916257 -0.7259219 -1.3032705 0.06607495 3.102876 -2.0508983 -1.3658085 1.9045498 0.4178441 -1.6285238
747 -0.8133604 -2.4736276 -0.20732023 0.12895654 0.23642932 -2.274496 -2.6380687 -0.13022512 -1.0714269 -1.4683449 1.5720422 -0.33952075 -1.2782085 0.57049286 0.3899894 2.5991745
1246 0.61793673 -2.42933 -0.96918356 1.6065255 1.0551965 -1.2928988 -0.7781172 -0.042539943 1.0526259 0.37015605 1.3218931 -1.5166783 -0.817868 -1.5874088 0.6941335 -0.71405536
476 0.6115095 -1.022938 -2.4743237 -1.1122701 0.62296754 -1.0731605 -0.98023444 0.17126773 -2.6974783 -0.9361807 2.1623087 -0.56601906 0.7339857 0.6520342 -0.30763063 -0.0055331984
1255 -0.2315148 -1.3057927 -0.21618427 1.7925273 0.053731747 -0.3903825 0.06666216 -2.3043592 -2.0115297 1.1302645 1.0190659 -1.3659619 1.4100368 -0.15371709 0.11033463 -2.2604854
1383 -2.1056144 -1.206924 -1.7346239 0.7044346 0.92067474 1.6734154 -0.4585695 -0.74566585 -2.278558 -1.0226861 2.8738732 -1.8200551 1.0828483 -1.9868354 -1.3010442 0.5555847
1326 -0.42085502 -0.6689964 -1.0728 2.9938188 -0.549143 -0.7264895 0.51527274 -1.2343516 -2.7823272 0.06924934 1.131654 -0.17164177 -0.23343575 -0.07776701 0.47956347 -1.7837844
1111 -0.6174766 -0.9733782 0.4388077 1.048167 1.0986011 -0.3452392 -2.1512148 -1.2106409 0.69196004 0.82972914 1.8469003 -0.80275244 -0.3130366 -0.9189184 1.2272854 -1.0764645
948 0.54409623 -1.1406622 -1.5287665 2.2724326 -0.11294152 -1.4639935 -1.9961619 -0.40661907 -1.7359256 1.7562734 0.95833915 1.1054642 -2.8078275 -0.21275188 -1.0730265 -2.0901084
1444 -1.8038733 -0.9199283 -1.3716611 0.8018871 -0.99783236 -0.4524375 -0.3933938 -2.40494 -0.7400845 -1.3629347 0.24886326 -0.6586489 -1.4569165 -0.90570754 -0.21717742 -0.7343232
1808 -0.85210574 0.4970224 -0.5218724 0.7947292 1.0495968 -1.4915013 -1.3242732 -0.10793549 -0.95760185 0.45605353 0.73498094 -1.9449812 -1.3125727 -1.4655122 0.17338435 0.6225848
1231 -1.2511425 0.58588374 -0.6276831 0.6535753 0.13483767 -1.2540786 -1.0379665 -1.2792064 -0.6362995 0.5486371 1.4782916 -0.047562893 -0.38128772 -1.9010584 0.80275697 0.8983646
57 -3.873443 -1.1023327 -1.6450727 0.39299017 -0.22205435 -2.0902696 -1.5900514 -3.5341969 -2.210878 1.4692506 0.63854384 -0.4211527 0.42064896 2.1200507 -1.7099955 -0.834784
1349 -1.1542307 -1.2308196 -0.065314084 -0.7161083 1.3086014 0.50340736 -0.4589275 -1.5628194 -1.5962822 -0.88179684 4.595856 1.8695766 -1.937999 -0.8123393 -2.6606832 -0.32592767
1135 0.35993314 -1.5699072 0.3274512 -0.5023116 2.28491 -2.086648 -0.8480484 -1.1471424 -4.800743 -3.4499493 2.5858934 0.8581913 -1.8948652 -0.8494403 -1.4148692 1.1096857
1329 -0.16134517 -1.0447679 -0.46536148 1.8232955 -1.3319644 -0.27507445 -1.1496522 -1.0087574 -0.4524917 0.81683016 3.5878563 -1.612864 -1.0140116 -1.0559729 0.37884843 2.2233999
3257 -0.11966731 -0.15307161 -0.040068306 1.3469055 -0.18262793 -0.8191128 -0.058079537 -2.2412238 -0.31600094 -0.15071152 1.1012795 0.9469018 -0.20022188 0.27060875 -1.2876433 0.7589794
863 -0.621917 -1.9587713 -0.53322315 -0.77597886 0.8980548 -2.062895 -2.2955856 -1.1941848 -1.1149781 -1.5999185 0.5663945 0.78132087 -2.202962 0.49819508 -2.5894248 0.48655486
54 -1.2865324 -1.8102385 -0.5840028 -0.656913 0.59446985 -1.8862137 -3.1387644 -0.64104044 -1.1341275 -0.79249495 0.9816854 -0.37242493 -0.91399693 0.25314146 -0.7812308 2.7862744
1682 -0.2367928 0.14121507 -0.58753836 0.6650514 -0.59933174 -1.0357345 -0.18940692 -1.6996639 -0.5941963 0.54608303 1.8175164 0.105108775 -0.12994559 -1.5618787 0.47735593 1.035837
132 -0.8597362 -3.3969648 -1.8248038 0.09751605 2.2464755 -1.873098 -4.833193 0.19768697 -0.5256004 1.3486233 1.037067 0.83702576 -1.022676 0.039913047 0.16631897 -0.9296756
300 -0.69802934 -2.1085064 0.54384357 -0.7636683 0.8718226 -2.6283422 -2.8437598 -0.288616 -1.5919837 -0.7881782 2.3436956 -0.39468864 -0.19874015 1.2766535 -0.5599246 2.8754475
1089 -0.3937849 -0.914678 0.37045684 1.5681705 1.0703268 -2.4868927 -0.110758804 -0.81733704 -0.69356817 -0.30554748 2.1323318 1.8471394 0.54796135 -0.9174537 0.20093039 -0.085474305
1363 -1.0391614 -1.3567982 -0.34685633 0.29985356 -0.12075249 -0.105113335 0.071347065 -0.80533844 0.38075277 0.18862611 2.2150047 -0.73378855 -2.339741 0.8340729 0.09744386 -0.8756599
529 0.24485628 -0.9681462 -1.4093271 -0.026575511 -0.23529463 0.0575668 -0.48999745 0.0042552836 -1.9446536 -0.5214953 2.4824183 -1.2822183 1.529651 0.5448523 0.037908018 -0.52600515
1423 0.501058 -1.5236017 -2.8561661 -0.35536495 -0.8179322 0.93340176 -0.061028697 -0.70158243 -2.8846061 -0.36228725 3.1271367 -2.7024934 -1.0120362 0.49835554 -1.8963957 0.28642124
6935 -0.49686953 -2.5060248 0.21814875 -0.38881326 0.30992383 -1.4675648 -1.9445075 -1.0266429 -0.78349006 -0.9586053 0.33234555 0.52136487 -1.8372169 0.90197206 -2.0592127 0.8284453
957 -0.28149536 0.40781257 -1.2705474 1.1542807 1.8524023 -1.7333304 0.04750153 -0.5476064 -0.104603 0.5495511 2.104101 0.23554213 -0.8827578 -1.4556032 -0.37253 -0.42941093
835 -1.7345327 -1.1722796 -0.5462558 1.0211465 -0.1698185 -0.46622747 -0.9359887 -2.4418023 0.5699578 0.6382601 0.38379428 -0.18488368 -1.972401 -0.7766903 0.11843935 -0.08927773
429 1.2497804 -1.7337694 0.46459207 -0.2938191 -0.49156904 -3.2984824 0.73499376 -1.1206591 -1.3495415 1.6147339 2.6622427 -0.6615195 0.17552027 -0.5611099 -1.1096636 -0.5115416
1452 -1.2028513 -1.4611324 -1.3138276 2.2698033 0.37077105 -0.24248876 0.16183183 -0.95424783 -0.9932985 1.915267 0.35164028 -0.28128138 -0.3904743 -1.668155 -0.6709923 -1.5654887
323 -1.0401868 -1.5711255 0.72811466 0.6610519 0.058682278 -2.1139486 -0.035834588 -1.2538698 -0.4582035 -0.57615167 -0.16045183 -0.9735546 -1.1143907 -0.91930276 -1.9234486 -1.1554841
1281 0.5446788 -1.0571342 -2.6172485 1.1875341 2.3657799 -0.35501915 -1.2748996 0.4601355 -0.22853553 0.9027696 2.2261999 -0.7737402 -0.2969903 0.97600347 -2.3661313 -0.27414295
1331 -0.3945006 -1.6402774 -0.22578944 3.516142 0.20117638 -2.8432946 -1.3863847 -0.76852673 -0.7647184 0.4342214 1.5383688 -3.916001 1.4174896 -0.14188252 -0.9067608 -0.71723974
198 -0.15270735 -2.621975 0.2286063 -0.7532909 -0.5075914 -1.809532 -1.8773266 -0.91692793 -0.3000997 -1.2579986 1.875065 -0.21062225 -1.5207745 -0.098859824 -2.536104 1.7359884
303 -1.3318369 -2.3673866 -1.1879847 0.2470856 0.21961841 -1.2956371 0.015741237 -1.5102669 -0.6961607 -0.97419184 2.5256276 -0.7699828 -0.6113439 0.81400234 2.5435662 0.62413025
1102 0.65999234 -4.267333 -0.63603246 0.039894678 -1.2953717 -2.0630186 -2.4566963 -3.7287383 -0.2100192 0.69501954 1.5506012 -3.9582899 -1.4119748 1.5537791 -0.925285 1.3457624
804 0.71917874 -1.864351 -1.4413086 -0.39928758 2.8714397 -0.25996503 -1.937804 -2.0071034 -3.2743096 -3.0045357 0.9619919 -1.2469653 -1.2189518 0.82768375 0.041753363 -0.082119234
1154 -0.9042237 -1.3837126 -0.45676813 -0.11002351 0.27435467 -0.4240933 0.8228553 -0.38782358 -0.55268955 -0.15677579 2.1842802 -1.3415365 -2.0136857 0.62368053 0.39189792 -0.8335948
1058 -1.8108948 -2.8783162 -2.556003 2.2246783 -0.66478926 -1.5805994 -4.1898203 -2.7567315 -1.0878079 1.0702667 1.3877776 -0.44692263 0.016657049 3.2364337 0.85323805 -0.37390336
1324 0.19589157 -1.1433666 -0.9277919 0.2833774 -0.4168049 -0.30071455 0.9608419 -0.99707764 -0.7590956 -0.010178085 2.7365594 -0.89058053 -1.9057542 1.1754035 0.25043347 -0.46554816
653 -0.9238196 -1.4283439 1.4164883 1.4452572 0.088177934 -0.9625001 -0.5615424 -1.2516013 0.33683926 1.2032856 1.8436687 0.10674122 0.57472426 -0.40400746 0.3169426 0.41840565
889 -0.89116764 -2.3266716 0.8122213 0.8691777 0.62016267 -0.94854206 -0.4393483 1.1404439 -1.0711856 -0.1119233 2.5863078 -0.516641 -1.5208982 -2.768531 -0.124540955 0.077852294
415 0.7108706 -1.4760708 -0.16217257 -0.8788036 1.2759914 0.4804069 0.14870624 -3.4101233 -2.2844253 -0.35559893 1.2933913 -0.6883401 -1.0256863 -1.6554847 -1.6920143 -0.66861224
741 -1.0540712 -1.4604734 -0.5075073 1.4386408 0.9396023 -1.0571557 0.5626709 -1.5091234 -0.45351434 2.6830878 1.0948501 0.0070864167 -0.33544233 -1.3570871 -0.18986334 -1.0994836
914 0.7395629 -0.60947704 -1.9943053 1.1506044 0.74040484 -1.5019349 -0.8183607 -2.018107 0.42481312 0.6128801 1.5990653 1.0102887 -1.2322508 -0.55205643 0.30465835 0.38858896
854 -0.30229348 -0.1890159 -0.726723 -0.85523534 0.8143254 -0.40741503 -0.7111729 0.33317766 -0.33828384 -0.89658993 3.4157722 -1.6366924 -0.37500644 -0.64234555 -0.93780655 0.48811835
649 -1.9197177 -2.942271 -0.9798868 1.1699008 0.19821097 0.42765537 -3.1427078 0.7236003 -0.2428963 -0.9784524 2.0813885 -2.4806814 0.12918825 -0.03959343 -1.8514141 0.7271899
836 -0.26057696 -1.9297346 -2.3919575 -1.148769 -0.017316781 0.28441125 -0.5917708 0.09190823 -1.6767101 -0.06030133 1.842543 -0.54588664 0.5052759 0.45021152 -0.30931354 -0.6717316
1126 0.009655061 -0.40371785 -1.535195 -0.5140614 1.3658054 -0.44789627 -0.78721935 0.99481297 -1.4436742 -0.6269505 2.3557825 -0.02438164 0.18474413 0.07035846 -0.42228827 0.3541048
692 0.6611021 -0.77554315 1.1011444 1.9082599 0.49802637 -1.023981 0.11157309 -0.056275435 -1.1775061 1.2876266 2.1278954 0.50560933 -1.5621248 -0.43569484 -0.25956705 0.5139637
1074 -1.6428493 -0.982626 -2.1878312 -0.8290995 2.055664 -2.5208783 -2.0447206 -1.373823 -3.352721 1.5315322 1.2729129 -0.611101 2.01803 0.7825507 0.5685524 0.5709952
756 0.037932813 -0.42375386 -0.7225713 1.8377049 1.5877584 -2.1322727 -0.004542963 0.35615864 -1.3112826 -1.2245986 0.7835858 -0.59548956 -0.37408945 -1.6657542 -1.3572015 -1.2431294
969 -2.3078506 -1.4618547 -1.5471894 -1.7943529 2.4350574 -2.5522132 -3.0007412 -1.363274 -2.7522016 1.1517746 1.5056111 -1.2573006 2.4719357 0.1777362 -0.60842025 -0.75155365
304 -2.5317023 -0.23577414 0.26674005 1.5217962 1.0760547 -2.0475674 -0.2763951 -0.43601865 -2.579423 -0.6434356 1.3704354 0.7676283 -0.9771543 -1.1958073 0.90823025 0.14479484
523 -0.8045511 -1.1198996 -0.36507207 0.47456196 -0.03769036 -2.0129728 -0.5645271 -2.083359 0.99085987 0.29009277 2.4060826 -1.867945 0.63792616 -1.1601927 -0.082838275 -1.7163979
245 -0.12205033 -1.4937824 0.06998956 2.4576576 1.6752992 -1.4690287 0.27098653 -3.186459 -0.91642606 0.06922752 0.40131393 -1.1825446 0.8185047 -1.1457129 0.0020880688 0.29792863
31 -0.66826504 1.0044037 -0.073413774 0.6748539 -0.43443897 -1.6148887 -0.95907736 -1.796323 -2.7171247 0.80796987 0.96738285 0.5264573 -1.6806577 1.0577526 -1.3933407 0.61083645
1 -0.89320284 -0.93227124 0.016247844 0.42384553 0.34778363 -2.1745894 0.5588206 -2.0824387 -0.6767372 -0.33520788 -0.4061577 -0.90241 -0.6856754 -0.911012 -1.1651715 0.08464932
704 -1.024769 -0.61123276 -1.6403251 4.6969457 0.8848372 -2.6305282 -2.7818606 -1.1223842 0.32939178 1.209297 1.9446588 -1.3348172 0.412836 0.3853139 -0.24822554 -0.56017864
564 0.22695547 -0.8425926 0.6299092 1.9182452 2.283687 -0.16428639 0.0883566 -0.57133967 -0.5950156 1.1573181 2.2301607 -2.2906158 0.011511914 -1.3079686 -2.3202248 -1.3046702
24 -1.6639619 -1.7422658 -0.1114466 -1.4825864 0.21032071 -0.49957693 -0.32394645 -1.537607 -0.32715338 -0.7760889 2.3865411 -1.5049316 -1.2950529 0.6606682 0.5011317 -0.29378918
512 -0.8846563 -3.2431293 -0.94454217 0.04599897 1.4502286 -1.9736999 -1.6576773 -0.18397321 -1.1637195 2.282395 -0.22349302 0.7023172 -0.445286 0.36909163 -1.6080792 -0.9536924
1086 -0.7817679 -0.9141227 -0.8365295 -0.8326951 1.6681131 -0.61035806 0.98304594 -1.7233393 -1.0364571 0.30163875 1.6230103 -1.4977176 -0.766588 1.0292907 0.43767506 -0.002272713
566 -2.5803957 -2.1673036 -0.26212898 1.063261 -0.23142691 -1.2026017 -1.4772943 0.14533883 -2.3452914 0.8632169 -0.34899482 -0.61086714 -2.0662775 -0.048864238 0.2579225 -1.3457863
840 -0.18720797 -3.134825 -0.6706021 0.5729692 0.28740197 0.31103122 -0.601033 -2.1417542 -2.2176664 1.790461 1.6639473 -0.42344233 1.0623062 -3.1013098 0.83986646 -0.5153518
1066 -0.4820631 -0.8243254 -0.26846716 1.1281562 1.1637834 0.1363533 -0.3464453 -0.62335473 -0.62405235 -1.4945353 2.4907815 0.3499788 0.1804395 -1.5967723 0.85339135 -0.6160297
1460 2.1462407 -1.9681996 -0.56690246 1.6508288 0.29394773 -2.2531612 -0.8871061 -2.1251996 -1.53173 1.6472386 0.95673066 0.36861777 0.17346655 -2.558358 -0.95807683 0.37085414
398 -0.0026017101 -1.3238779 -1.6032488 -0.12774782 1.5133637 0.2676609 -0.5465821 0.894282 -1.6843829 -0.5273034 2.2245538 0.3149124 0.015026531 0.8505814 -0.4199541 0.10357149
362 1.2510632 -1.7178305 -1.4752864 -0.11316799 1.5723482 -0.7445766 -1.2543144 1.0770377 -1.7255898 0.3280791 2.8871691 0.47837022 -0.3894928 1.2233466 -0.11989815 -0.87519366
241 -1.2089058 -1.675893 -1.3720757 -0.26592165 0.25322372 -0.93251395 -2.8515582 0.2801817 -1.3271337 0.20686156 0.75098586 -0.43077484 -1.6937377 1.0083331 -1.3894091 2.289677
1073 0.8617851 -0.8290688 -0.41757447 1.6288406 3.3756444 0.6574863 0.8733066 -1.9098285 -2.1549187 1.4632989 4.556155 -1.7371391 -1.28643 0.1834875 -0.1499259 1.5173438
1234 0.16840361 0.15294077 0.020660229 1.9606049 2.4915698 -1.0997114 -1.3823447 0.33224112 -0.98547995 -0.48501348 3.1533263 -0.13601837 -2.4752283 -1.1318787 0.25373092 0.42990944
1044 -1.3114272 -0.90644383 0.36349016 0.17001142 1.0163187 -4.4988956 0.73320234 -2.4743447 -1.8676796 0.42252746 1.7652851 0.5497286 -1.2043594 -0.21244067 0.33464837 -1.3335257
687 -1.4006087 -2.4434266 -0.8750721 0.105847694 -0.21595795 -1.7295569 -2.6229355 -1.146513 0.020754807 -1.7140272 1.9151154 0.55297214 -0.6828353 -0.10721473 -2.5828836 2.3811986
34 -1.4819088 -0.018264744 -0.43007383 0.54217404 0.733651 -1.3447896 1.2064114 -1.8982035 -2.2213275 0.15840746 0.3292756 -0.15857159 -0.5436258 -0.6466623 -0.5147183 1.0900303
5865 -0.9160066 -1.6384996 -0.81012887 -0.34473217 0.91231066 -0.74518573 1.3032761 -0.22260936 -0.69566035 0.69143146 1.540147 -1.184596 -1.1625334 0.24938658 0.6848953 -0.014082633
845 -1.6949418 -3.0033398 -1.7684088 -0.76890576 -0.11820627 -1.5945708 -0.20568636 -0.47632343 -2.463398 -1.4980518 1.402034 -0.85379606 1.8709042 0.61687315 -0.9958631 0.33409768
839 -0.603051 -0.99158126 -0.65552276 0.72045004 0.8443511 0.21707718 -2.057481 -0.7198961 -1.1295997 1.3249727 0.40536097 0.6735282 -0.84318525 -1.7655715 -1.601485 -1.8025656
1042 0.22208093 -1.4189671 -1.2639704 1.0344735 1.3693161 0.30245697 -1.1969775 0.39501292 -0.6016913 -1.3264308 2.5824249 -0.21155043 0.95660484 0.81941944 -1.0955505 -0.22512408
1306 0.91018665 -1.9654472 1.7083074 0.18590485 2.3203473 -1.3432226 -0.99749696 -1.3504798 -3.7102106 -2.920654 2.2534451 -0.17050728 -1.5207411 0.14583415 -0.70278573 0.7484285
84 -0.3676209 -1.940074 -1.2794756 0.2619485 -0.19793744 -0.6278685 0.070421234 -0.76641697 0.66255236 -0.69475377 2.4096274 0.3340596 -1.5061406 0.6662169 -0.615366 -1.5478512
808 -0.6823454 -2.26521 -1.495146 1.7378762 0.19136235 -1.851777 -1.7262474 -0.60393023 -2.649916 -1.7051964 -0.46571353 -1.6064602 -1.3612386 0.7029356 -0.9640394 2.5014334
524 -1.6670159 -3.3968246 0.7524142 -0.1805623 0.48928243 0.37660718 -1.0931251 -0.41274795 -2.2043755 1.8454143 1.7751968 -0.993263 -3.1099725 0.71086043 -1.4041758 2.1076777
208 -1.2553439 -1.6459614 0.45858887 2.4822826 -0.9628929 -0.6170445 -1.7690988 -3.6975873 -1.1783736 -0.98067373 2.4452538 -0.0014376368 -0.50642204 -2.7501662 -1.896291 -3.2004435
955 0.5554983 -0.68668354 -1.2678908 2.0368905 1.2748781 -1.5594567 -1.1144949 -2.0144181 0.6534513 0.9418432 1.2066962 0.38860005 -2.7098389 -0.09443997 -0.58236533 0.40813467
5518 -1.3669566 0.48413366 -1.3662479 -0.008245861 -0.1341619 0.38527673 -0.96320397 -1.1767362 -2.202175 -0.71779114 1.0598503 -0.6763086 -0.7390512 -1.1228584 0.23951277 -0.5437822
407 0.03545429 -0.39053425 1.0208802 0.042608347 0.3396222 -1.2919462 -1.8851556 0.8652245 -0.91245866 0.24085903 2.2161078 0.050120804 -0.26649803 -0.9438755 -0.5710075 -0.62050974
822 0.7915977 -3.191366 -1.9365759 0.27523974 0.86337715 -0.561651 -1.8367945 2.1466503 -1.7900344 -0.14012846 2.7424552 -2.338575 -2.8720202 0.8562677 -2.8741324 -0.21229792
492 -2.1463237 -0.092945546 -0.914609 -0.011376329 -0.44098547 -1.0969903 0.20785548 -0.78470206 -2.588303 0.89916074 2.9921114 -2.4203653 0.37768456 1.964742 -1.4785273 -0.18770729
614 0.109986894 -1.2527882 -0.8656736 -0.48407623 2.4256337 -3.490703 -1.5908362 -1.1074029 -0.41046453 1.1323173 1.489857 0.3475875 0.14403106 -2.3631232 -1.2620641 -0.8934315
328 0.069410354 -0.11990998 -1.5051603 0.68172497 -0.51486874 -1.1124285 0.23403783 -0.97079545 -1.0379199 0.51102746 2.4948223 -0.3481116 0.6833115 -1.5978513 0.59992665 0.602196
650 1.0558684 -3.1804569 1.4947933 0.8672055 0.12900248 -1.1368324 -1.4858629 -2.321353 -1.7589134 2.098823 1.3847889 0.008527487 -1.5412242 1.6932956 -0.30812997 -1.5131972
1180 -0.74275917 -1.3139622 -1.525364 1.3147337 -0.42785197 -0.5664117 -1.6633528 -0.014800671 -1.1699166 1.9447286 0.71461266 1.1139315 -1.2634135 -1.0465335 -1.8580415 -1.3531296
1435 -0.34263715 0.09309555 -0.34493142 0.7561943 1.4797632 -1.1337515 -0.9470566 -1.1431385 -0.6220553 -0.93184114 1.4941229 -1.5174774 -1.2454697 0.35835317 1.087768 -1.7973561
148 -1.3725871 -3.2803648 -0.3439161 -0.0071661216 -1.4588594 -0.14396983 1.353065 -1.2640327 -3.3517754 0.09897385 2.0789871 -0.5328138 -0.4231232 -1.4381498 -2.1820195 1.3941689
961 -1.1148739 -3.0059547 -1.3487724 2.1480675 1.2947894 1.448335 -0.36278033 -0.3888201 -0.26231682 0.16745822 3.1353629 -0.33167797 -0.011331708 -0.14815193 1.2408079 0.2286733
273 0.10661563 -0.7610806 0.976144 1.7474647 0.4515554 -1.1038424 0.5248781 -3.5015476 -0.5443365 2.1584187 2.374157 -0.91954035 -0.17486411 -0.6802729 -0.6028972 -0.6282196
846 0.16687095 -1.4603755 -1.8072568 0.053647544 1.1518898 -0.7072442 -1.0747255 1.7420858 -1.1787256 -0.37371263 1.9375335 -2.14708 -1.5068305 0.6395972 -1.0766228 -0.7949052
1380 -0.45635715 -1.2334778 -0.27388623 0.20697492 1.4803107 -2.0564866 0.76005614 0.111877 -0.55811435 0.021245454 2.1773083 -0.9218531 -1.1131045 1.7669955 0.19479609 -0.8573077
1060 0.161388 -3.2826016 -1.9491489 0.9503862 0.584212 -0.42905745 -1.8203374 -0.9773343 0.7387196 -0.5916738 3.1864905 0.58110005 0.23037843 2.2320442 -1.1570535 -0.6553037
454 -0.87780076 -0.3118569 -0.47860762 -0.514926 3.3347309 -0.29530427 -1.5179875 -1.1951749 -1.7135477 -0.405615 1.440105 0.22703029 0.28921103 -1.396549 -0.079370625 -1.0687733
1355 -0.22181167 -1.5024948 -2.712345 0.6743647 -1.0696222 -1.5259496 -2.3570576 -0.16872603 -1.8310343 0.20077749 3.93608 -1.8472099 -2.980511 1.4487596 1.9467595 1.6771153
327 0.94915414 -1.257127 -0.73952186 -0.07403729 1.0472945 -0.6921534 -1.7732104 -0.77387357 -2.0184023 -0.032196544 1.9946262 -2.9718297 0.8711624 -3.0825942 -0.66559285 0.5190702
100 -0.94236135 -0.8141677 -0.10193199 0.3640167 0.282042 -0.31804177 0.4323071 -2.1616092 -1.3628168 1.1364337 1.0192935 -1.2117878 -0.28699496 0.4473884 -0.65105194 -2.718947
1049 -0.46345648 -1.3728467 -1.3777158 1.2545046 1.7362311 -2.062792 0.2187188 0.15014556 0.117068425 -1.6599171 0.5853694 -0.24575958 -0.09136732 -0.22290955 -0.52268815 0.33931214
1229 0.4401145 -2.0912218 -0.63466245 -0.08661615 1.8895602 -2.4527364 -0.9150704 -1.3059667 -0.6641551 1.15218 2.9968066 -0.8534678 1.158574 2.6073067 0.56447005 0.57578456
1118 0.39104965 -0.744405 -1.407186 1.7151492 -0.9410608 -0.21366724 0.07893735 -1.3207088 -0.5843372 0.2314961 1.4980336 -1.884724 -0.02426561 -1.5698783 -1.7978095 0.38828972
322 0.21895882 -2.9881718 -1.6246096 1.5797076 -0.29777718 -2.2694614 -1.9872442 0.4275731 -1.7566949 -1.486059 0.7355138 -1.6400149 -1.446286 0.8071686 -0.5256071 2.622278
494 -0.8844669 -0.3021882 -0.41200763 -0.4110224 0.8681421 -0.36162314 0.16617146 0.23600715 -0.865873 -0.159089 2.4608214 0.015142713 -1.493833 0.56854373 0.41217053 -0.19409657
1405 -1.6153749 -2.4114172 -0.14454904 0.035500873 -0.45554247 -1.4679533 -2.5409186 -1.4972389 -1.6289353 -0.8523556 1.1557583 1.6486781 -2.1658852 0.30261058 -1.3789407 2.3711057
1303 1.5053446 -0.83640444 0.08872506 0.34437576 1.2060099 -0.4391041 -1.065703 -1.1714444 -1.627585 -0.039278984 1.7137034 -1.8634814 0.897828 -2.0442364 -0.74430376 1.1971208
230 -1.0925095 -2.2967963 1.4773511 1.4877487 0.63819987 -2.050266 -0.97634417 -0.5595494 0.3829974 0.25919086 0.36335075 -0.6825366 -0.38551843 -0.65187424 -1.3853657 -0.80305773
310 -0.8420683 0.08593119 -0.08742859 0.18050851 1.1746361 -0.24172273 -0.08685636 -0.42364305 -0.5170784 -0.057545632 3.146264 0.9519534 -0.9429345 0.44553107 -1.4944417 -0.73582894
790 0.72805125 -0.39935464 1.5427551 1.9973949 1.0123452 -0.57921034 0.08007913 -1.1832396 -2.6409607 1.1604875 2.5328126 0.5223145 -2.1398778 -1.4629493 -1.5594838 0.37338388
784 0.05392403 -3.0873303 0.327122 0.09001041 -0.040779598 -4.034636 -1.0523739 2.0533068 -2.2201638 -0.36115837 2.8353658 0.45272526 -1.0529995 -0.68870497 -1.8290988 0.024803588
23 0.68107283 -1.9705385 -0.99364835 1.7532743 -1.2803106 -2.2697358 -0.5010831 -1.3510224 -1.8406662 -0.4436602 0.5284697 -0.7806105 -1.2157817 -0.804287 1.5075833 -1.4859711
593 0.97558105 -2.9232585 -3.6598194 0.43705434 0.35106778 -1.1175791 -1.4731863 -3.1226056 -3.2540362 0.79164034 0.6609189 -3.3917112 -1.226779 0.8652685 -0.33134645 3.5651724
598 0.7826592 -4.0941195 -4.353449 -0.25180987 1.4650766 -2.0498283 -2.7353683 -1.13621 -0.3082474 -1.4288572 1.7925057 0.07356859 -1.3862716 -2.4109192 -2.2615342 -2.6785438
1215 3.2031138 -3.3048236 -1.1889846 1.7400374 0.75020367 -2.3153453 -3.7805955 -1.9950356 -2.4471023 -1.0338849 0.22627737 -0.11811358 -3.6056006 -1.3594098 -2.014777 0.12639782
427 -2.4046588 -3.0837715 -3.4573865 4.2028475 -1.7654362 0.40778333 -2.5220704 -2.250735 -2.4697428 -0.837132 1.8703703 -1.3243957 1.5107054 0.3570933 0.4170499 0.5372032
191 -2.7769349 -3.3163664 -4.371417 -1.0527225 -1.0048175 -1.7570678 -3.6406949 -1.8585037 -0.38534078 -0.13772939 2.3181934 -2.6050105 0.9676895 0.11276305 -1.3692071 1.3825768
118 -0.09312825 -2.462169 -2.1529915 -1.1525887 -0.2911748 -0.3179126 -6.3041563 -0.5984131 -0.737078 0.3400294 2.9558501 -1.9684443 -2.2252822 0.41450056 -2.161534 -0.9581493
1327 -0.5054911 -3.4861042 0.13178451 1.1171492 2.9954598 -3.5345364 -2.6614254 -1.3357402 -3.8956828 -0.08197512 1.7023501 0.9741928 3.0970607 2.410447 -0.41591585 -0.36314297
1437 2.6504948 -5.2528005 -0.8146018 3.0089085 0.3835331 -2.8052714 -1.0750732 -0.8931744 -2.8697062 -2.4867992 1.6556259 1.5863498 -1.5427281 -0.47887343 -1.9355607 -1.4798381
1243 0.49034578 -2.0909538 -1.9037477 -0.6467889 2.201902 -3.4506645 -5.228042 -2.938371 0.029561995 -0.44990197 1.3114166 -3.1170316 0.29021525 -1.0410005 -2.5933974 1.0736647
991 -1.9141247 -4.2701735 -3.7923155 -1.1872936 -1.5150098 -2.3737926 -2.1625478 0.43610045 -1.2704561 0.39700773 3.3231485 1.29202 -2.185822 -2.2212749 -0.51477665 0.29149097
581 1.0259728 -2.120949 -4.768626 2.0098424 -1.7379464 -0.46369216 -2.8618505 -0.9551046 -3.876475 -0.5694718 1.1462326 -0.06690731 -2.1027622 -1.9466262 -1.4307812 0.18301626
1169 -0.4602897 -2.2346387 -0.54494804 2.5841126 -0.38030064 -1.0773387 -3.0254312 0.24738204 -6.130601 1.8415349 2.9508758 -1.8839806 1.177389 1.7589635 1.0869195 1.9049894
246 -0.5386562 -4.165404 -0.7951889 -1.8533396 2.487397 -2.2750525 -2.2378955 -3.7777498 -3.6935284 -1.3048824 0.52181697 1.1404982 0.933599 -0.8112731 0.18667524 0.465461
1081 -0.6367787 -5.4636664 -3.4079406 0.98037356 0.17355046 -1.3268374 -1.1751233 -3.0152848 0.7543646 -0.16231899 2.4161007 -1.2740864 1.1105479 0.79665434 -1.6324923 2.7284107
762 -1.6946815 -2.965099 0.13377467 -0.09077097 0.5917403 -3.1182444 -5.6279497 -0.30552953 -3.8527634 -0.406242 0.326407 -1.6441994 1.8211906 -0.63156134 -1.0443916 -0.40656143
1032 -1.0703409 -5.4188223 -3.4354603 0.16135877 1.3880507 -2.7768128 -3.8782978 -0.6834609 -1.0756781 -1.1263118 1.7577115 -1.2368289 2.1149771 -0.34380955 1.4934529 0.9178569
1039 -0.9930489 -3.5786762 -0.65476775 0.8088382 -2.6020205 -1.1417763 -2.8310947 -2.473531 -3.694598 2.3672206 2.0272202 -1.5278499 2.3335357 1.9750218 -0.98541266 -0.29219106
1182 -0.8851144 -3.3795161 -2.6185539 2.041174 -0.3789205 1.4606491 -5.1893096 -2.121935 -1.7100872 1.5198241 0.73712575 -2.4951892 -0.6544561 0.425687 -0.5275952 1.047494
823 -0.7051318 -6.006214 -1.4522121 1.6371615 -0.1657269 -2.6053197 -3.0160575 -3.0474916 -1.7171919 -1.6275555 0.441223 1.811771 -0.40706575 1.9868972 0.32630205 -0.08701261
75 -2.6772578 -4.654742 2.2957726 0.0025249887 1.8588595 -1.3661625 -4.066756 -2.3287523 -1.1266025 -1.8358209 2.218291 -1.1829839 1.8631802 -0.06938414 -1.0208169 0.19552286
765 1.3031657 -4.679239 -1.8672525 -1.3677034 2.2692785 -1.1649728 -4.149463 -1.3777958 -1.463477 -0.85358244 2.2864513 -0.05620381 1.8233912 -2.3719354 -2.637411 -0.11662069
1035 0.7598299 -2.9298682 0.67414343 0.23871025 0.43518332 -1.2400949 -3.146129 -4.175429 -4.0575023 -1.6470495 2.3104444 1.1869967 -0.326156 1.9694053 0.99007154 1.5398682
1350 -0.8244654 -4.3147798 -2.1502612 0.9581235 2.163183 2.4859254 -1.5857157 -4.2573166 -2.212931 -1.9236513 0.94105667 -0.7938003 -1.4233649 -0.8913729 -0.89940804 1.363316
531 -3.546547 -5.058258 -0.29086462 0.7160098 0.1703464 -0.9075657 -3.563001 -2.2264898 -3.5755346 -1.1841484 0.28100467 -0.4585374 1.4576072 0.24672027 1.316686 -0.07972751
410 -1.1783947 -3.3326864 0.2837117 3.7261124 -1.6063246 -0.34524626 -4.3330483 -1.6159137 -4.0956635 -0.58986014 2.0253513 1.1864609 1.8825843 -0.6195412 -0.5859959 -0.3538536
59 0.3602122 -3.2692835 0.8290145 0.30492067 1.175549 -1.219871 -3.8620925 -2.660401 -3.5411718 -0.5447235 1.4744227 2.0688763 1.1936424 -0.08957103 -3.1618023 -2.6638298
200 0.9360983 -2.8680112 0.6288103 -1.0475478 1.3210288 -0.7669651 -4.1712265 -2.7045271 -3.686079 1.4973338 2.4869795 2.4507985 -0.17410564 -0.42942035 -2.098131 1.8549533
1157 0.66440755 -5.0811386 -0.28765386 1.2549385 0.42910916 -1.4382163 -5.053868 -1.1555421 -0.031723093 -1.1034732 3.7199872 0.08577125 1.3152558 -1.5632526 0.04061021 1.7383618
1431 -1.054788 -3.4862587 -0.48382944 -0.15234102 -1.3376676 0.33550143 -4.6769767 -4.4615083 -0.7682541 -1.3470287 3.0117702 -1.407727 -0.30439436 1.6145697 -0.5328275 0.82618266
862 0.32331207 -2.044715 -0.3925315 0.58650917 0.26132524 -0.65391296 -5.359087 -2.950914 0.6053481 1.1876055 3.6205072 -0.120361775 -0.22250366 0.647846 -3.5449758 1.019577
1262 1.5360683 -6.585747 0.42050946 -0.7444506 0.4061703 0.7916051 -2.446671 -1.1322186 -3.0431998 0.521554 2.874932 0.24264199 0.41795123 -0.6023178 -0.7582114 0.12974782
1179 0.2897565 -2.1833227 -0.31991082 2.6882005 0.10698398 -3.6242306 -5.130919 -2.5545504 -2.147666 -1.6345553 1.4585263 0.66978705 1.7487934 0.68664706 -0.14096817 0.7225417
125 -1.5141516 -3.1246262 0.14550368 3.8749738 -1.0526417 -0.6460243 -6.036873 -1.6893967 -1.8141738 0.52254826 2.4766047 -0.7542818 -0.001182231 -0.6752034 0.6682121 2.894292
1070 -1.376332 -1.4381821 0.89623713 -0.28842974 0.3754246 0.11938303 0.102296405 -0.7539675 -1.5371201 -0.36456728 2.4397068 -0.86018956 -0.60870564 1.0780588 0.9854768 -0.82341856
402 1.1458136 -1.5404117 -0.31585082 1.3084854 2.4546025 0.7159329 -1.1875477 -0.27463138 -3.0353065 -0.4965511 3.2954612 0.9605118 -0.44174019 0.80201626 -0.39475018 1.8760959
406 -0.46041116 -2.1846647 -0.79732394 2.288751 -0.47934 -1.3936224 0.4741151 0.70758724 -1.0314201 0.21888205 1.5020995 -0.5739918 0.0026909043 0.84466344 0.4892804 -1.2548848
1130 -0.59884864 -1.5208172 -0.16731095 -0.3710529 1.1906301 -0.36156434 0.6692873 -0.64305943 -0.709363 0.108920485 2.049264 -1.0182313 -1.3483025 0.3493641 1.1019816 -0.86911637
605 -0.17284116 -0.9502556 -0.63200974 2.1016543 0.829227 -2.531567 -0.17929651 -0.34387052 -1.9684522 1.5324959 1.0032254 -1.7939059 1.7789979 -0.590938 -1.6975557 -1.4544642
457 0.61679995 -0.6119878 0.5642568 0.6986958 0.3132858 -0.322105 -0.3573578 -0.13069832 -0.93429714 1.4693642 1.8756602 0.25533205 -1.7483636 -1.7269406 -1.5256675 -0.022386748
452 0.85981876 -1.7435609 0.57527876 1.8223407 0.6681624 -1.0988685 -1.1106143 -0.12530239 -2.470852 -0.0233472 0.26220253 -1.5038643 0.2652465 -1.7139655 -0.30565345 -1.9653751
1094 -0.27251107 0.89565504 0.055253975 0.67362714 0.9087211 -1.0669589 0.12741782 -0.80933225 -0.15465319 0.03855188 2.5831387 -0.050777327 -0.4842626 -0.84122235 -1.8698862 -0.16795877
769 -0.21013135 0.76904637 0.34994897 0.9858086 2.3283324 -1.3058695 -0.6103357 -0.7719632 -0.42412394 -0.3015881 2.4578207 -0.7070199 -1.2717373 -1.4187915 -0.1344808 -0.15639059
1142 0.859073 -1.2303562 -0.02066874 1.0250351 1.1730299 -2.5777035 0.24479556 0.04413409 -3.3870056 -0.46367955 1.4974529 -1.3013146 0.1545361 -2.3319232 0.4391242 -0.104222715
91 -1.5588819 -2.390526 -1.1332537 0.42856842 0.47219265 1.1978458 -0.91674817 -0.5118655 -1.4363763 0.6300272 1.3757924 -0.9164298 -2.3238184 0.060429107 -2.2193205 2.4054637
1067 -1.1980034 -3.267045 -1.0640076 0.04092747 0.8711575 -2.4368522 -0.9054285 0.01460327 -1.2092999 1.3720416 -0.26895362 1.0865852 -0.5055808 0.18762648 -0.9495124 0.27161267
980 0.23761334 -2.6616693 0.2805774 1.6224005 1.0621766 -0.9980506 1.2347416 -1.939672 0.6069096 -0.11525614 1.7171229 -1.4421684 -1.0283977 0.8664477 -0.9123388 0.5652859
479 -1.916805 -0.16870786 0.2963458 0.041635115 1.1119196 -0.34830382 -1.0353442 -1.4050744 -1.9103464 1.3648106 2.50452 1.6113198 0.3280862 0.5215975 -0.39242417 0.2484962
289 0.022838324 -1.9493331 0.5804689 0.99361444 1.1433475 -1.2549539 1.1259463 -2.2362797 0.59312505 0.44334945 1.6151135 -0.08670356 -1.3130825 -1.0228453 -0.42198688 0.54670167
1095 0.5376091 0.088701405 0.5982705 1.1336696 -0.5751133 -2.466264 -2.1970024 0.10012217 -1.2685615 0.4444545 1.9289625 -0.98946226 -0.41682565 -1.4559773 -0.024754478 -0.076138966
206 -0.7046256 -0.23410507 -0.049841188 0.28661144 1.091893 -0.6349919 0.2981107 -1.3025309 -2.0626085 -1.0622066 2.113673 -0.12686463 -0.4521448 1.1551368 1.1161908 -1.3224885
1346 -3.3433807 -1.0957848 -0.9784617 1.8003411 0.6331135 -0.56732345 0.51315147 0.27534062 -1.1802326 0.14743294 1.3935616 -0.9191628 -0.116923094 0.6645143 -0.3518149 1.2098849
306 0.61376953 -1.5756124 0.7273185 3.450439 0.0004983405 -2.1695814 0.5299462 -0.14195263 -1.8567649 -0.7110855 1.7345942 -0.91545326 -0.84160423 0.40703893 -1.3055918 -1.4480937
792 -2.4254978 0.33089113 0.74906886 0.9122396 -0.084926344 -1.3588824 -1.6417156 -0.3132079 -1.7560269 1.8129406 1.1962473 -0.1507574 -1.6781793 -0.38150898 -0.13008554 -0.45937282
201 -0.11114185 -0.9232813 0.40721267 3.5284307 0.07425314 0.48072043 -1.2800299 -2.630551 -0.33485845 -0.30695188 2.7493553 -0.00039146715 -0.12158228 1.1197636 -1.3500638 -0.09467528
416 -1.5071548 -2.2229264 -0.6393106 0.72027624 0.45556188 -1.5251079 -2.7131526 -1.9727976 -0.9869601 -2.0691667 -0.15741152 -1.0999359 -1.1260229 1.2497107 -2.193433 1.9390042
1367 -0.65221316 -1.6741043 -1.0303398 -0.47127038 0.52674735 -1.2881279 1.2681775 -2.7480042 -2.1081803 0.12914301 1.2131757 0.6420766 -0.99676037 -0.9150723 -2.395557 -2.0421214
344 -0.80597776 -1.5690707 -0.3881878 2.801708 -0.71117675 -2.4403703 0.3151479 -1.4585978 -1.7642924 -1.8378409 0.5917893 -0.9306095 -0.3564823 -1.1926069 -0.4559342 -1.2349794
1014 -1.225758 -0.65705645 -1.066105 1.7019978 0.26933748 0.0038990667 0.09027733 -1.7680079 -0.12798467 0.82344276 0.56755674 -0.62314755 -2.7331688 -0.75319695 -0.35028797 -0.049049374
1055 -0.4976909 -0.124526 0.28882325 -0.049240686 0.18351838 0.38550556 -1.6931252 -0.94815356 -3.4539807 1.5926133 0.8054379 -1.5848532 -1.5922198 -0.32939795 -1.1365631 0.46109426
1433 -0.6828109 -5.6826034 -1.1918333 -0.12899685 2.582284 0.10927248 -0.9021927 -0.6945071 -0.19511238 -1.6472441 1.5685151 -0.07707157 -1.4120724 -1.712986 -1.5953517 -0.2371234
270 -1.180644 -0.91199344 -1.080984 0.08092538 -0.32625127 -1.0277461 -0.6826318 -0.8197201 0.34406358 0.47896686 3.6031685 -0.592966 -2.844246 0.6723061 0.6730705 -0.5470282
933 0.12978335 -0.41565904 -1.724629 1.048597 1.2015731 -1.8667971 0.52034307 -0.44064164 -0.8572916 0.45408547 1.3188429 -0.45814013 -1.1271342 -1.4153962 0.9970106 -1.2514709
25 -2.1825109 -3.4382393 -0.68430233 3.0274427 -1.5053241 -3.0213358 0.93315357 -1.429443 -3.1457314 -0.9104056 1.0389904 -1.0058014 -1.5810571 1.963975 0.35293537 -0.0928654
1242 0.80590814 -0.65856224 0.28943998 0.4757703 1.0047431 -2.52346 0.6212536 -0.013298857 -2.1094291 0.1241562 2.2562606 -0.9093332 -0.36355582 -1.8260859 0.62801766 0.1492796
1110 0.660647 -1.37735 -0.23829891 1.5962347 0.086700276 -1.0577807 0.33031216 -2.7230303 -0.8987418 0.59923327 4.3072824 1.0876452 -0.79139936 -2.886092 0.05673492 -1.2531303
1137 -1.1943631 0.51117915 0.22382817 1.7089514 0.15635519 -2.1168725 -1.0923238 -2.4488857 -2.580279 0.53012294 0.8806626 -1.0822974 1.652481 -0.5201624 -1.8921485 -1.0190287
495 -1.8281085 0.10086568 0.019462219 0.21375956 1.2393354 -0.053160746 -0.772323 -0.72308594 -1.0755043 0.5957561 2.45159 1.1321464 -0.1989601 0.84909755 -0.2813872 -0.12730528
1309 -0.6986697 0.38863286 -0.54863584 -0.1493286 0.44356906 0.74553674 -1.014589 -0.66955554 -1.1718482 0.35308424 2.9568672 0.08431375 -0.46587345 0.27753285 -0.16544813 -1.1587362
1078 0.27901074 -2.233422 -2.0259767 2.066084 2.5524292 -1.479256 -3.578213 -2.3252726 -0.093321145 0.84797615 2.0259295 0.0890193 -0.3919323 2.7113678 -1.5822252 2.9165087
562 -0.7461296 -0.2693935 1.0671912 0.51427096 1.4135855 0.18271887 -1.5137154 -1.4262812 -3.5061185 1.3877646 0.40973336 -1.3380693 -1.5324491 -0.41785175 -0.5809283 0.66722894
1557 -0.029410787 -1.5866927 0.8263201 1.1311185 0.45617086 -0.005862031 -0.3788784 0.7957462 -0.9775926 -0.23670667 2.5033922 -0.20654638 -1.1123854 -2.2150602 -0.18540372 -0.25599352
190 0.53900754 -1.1242524 0.022556266 1.7033496 1.1896896 -2.638152 -0.08258971 -0.5604683 -0.079826735 -1.6072934 1.400266 -1.3056642 0.04961751 -0.46065545 0.0037025323 -0.9941821
440 -2.2746232 -1.0232513 0.17231144 0.83984387 0.1535595 -1.794975 -1.1205475 0.21782926 -1.215124 1.321861 0.55293006 -0.66220427 -1.7325023 -0.563196 0.15865284 -1.9331129
645 -0.2445424 -1.0785875 -0.63490635 0.06731946 -0.49104556 -1.8421596 0.86389214 -1.9614261 0.21278475 -0.23986852 2.1202967 0.3759813 -1.1840025 -0.25794643 -0.50561696 -1.5428901
448 1.2944306 -0.6863615 -2.412897 0.50426173 0.87742895 -2.1126986 -1.0285665 -1.7049161 0.6199715 2.0741007 1.9018332 -0.49155653 -0.5293939 -0.34921792 -0.25551197 -0.4532118
6735 -1.7296922 -0.22496024 -1.6341107 -1.7078291 0.9320948 -0.7814331 -1.083019 -1.94275 -0.48935232 -0.3287228 1.705277 -0.79223084 -1.4935787 0.4971697 -1.7558948 -0.6914397
1413 -1.4508284 -0.48364988 -0.59023386 -0.4479084 1.540122 -1.0953736 0.56481576 -0.75275904 -1.0412519 -1.5409579 1.9713883 -0.188357 1.1340191 -1.1841564 -1.1887828 -0.6361331
621 1.2502424 -2.4763017 -0.94370264 -0.38942888 4.430966 -1.1006219 -3.445454 -0.20049228 -2.7244446 -0.43330923 1.3904909 -0.78223854 -0.76697725 1.259763 -0.7579184 1.6900519
53 -1.2050477 -2.731809 -1.2884343 0.38210392 1.0827323 0.6416779 -2.3251622 -0.9983355 -1.7227613 2.445475 0.3245742 0.79024136 -2.377205 0.28173077 -1.8040608 -1.4636438
94 0.13181177 -1.3676847 0.78637946 3.3053005 -0.16370043 -0.8662629 0.15552326 0.2488461 -1.0742058 -0.9189986 1.63997 -1.0848595 -1.2358725 -0.3285577 -0.4676126 -0.3092
654 -0.35924184 -0.09204609 -2.8811016 1.1051116 -0.3837626 -1.0935427 -2.104547 -0.38550636 -1.6401688 0.38757142 0.8127322 -2.7301974 0.1701383 1.2388899 -0.5528317 -0.9449589
218 -0.66256464 -2.098005 -1.3772187 1.6759189 -1.6546929 -0.7756257 -3.0052018 -1.9672368 0.41318318 -1.3878111 3.4363592 0.30034652 -2.7913616 0.6118636 -2.6780791 -2.5197446
1167 0.10794384 -2.0048394 -1.3770757 1.1441847 -0.7457094 -1.0714682 -1.1894082 -1.3716853 0.5729594 -1.9634348 3.2734275 0.31306398 -2.695943 0.6667031 -1.4724373 -1.4082345
130 -0.8916103 -2.491206 0.620366 1.6086293 1.0328332 -1.2269726 0.3904157 -1.4755166 1.0142598 1.0527797 1.0895859 -0.553695 0.058028057 0.033364367 -0.78412926 0.10986135
