2614 16
2361 0.39554685 0.2325686 -0.30184728 0.13199092 -0.19905812 -0.18142098 -0.12392009 -0.104314655 -0.29008454 -0.37804106 0.4200405 0.028484516 -0.37757546 -0.64537525 0.08275152 0.15918764
832 0.3904515 -0.03542342 -0.24832176 0.017928848 0.14173229 -0.15095538 -0.038468756 0.016425198 -0.113215074 -0.26801848 0.05261711 0.7389479 -0.7086205 -0.055087764 0.03297017 -0.079928495
1218 0.08234883 0.07530719 -0.0068298364 0.068156905 -0.079851165 -0.17952763 0.1339018 0.052783456 0.06261897 -0.42475998 0.09808925 0.70808923 -0.66234994 -0.15214479 -0.32400468 -0.080039494
1499 0.20014851 0.23549867 -0.012374719 0.16478431 0.1580977 -0.16545501 0.28511474 0.20380056 -0.26365063 -0.310125 0.20654759 0.49298912 -0.41318136 -0.24524716 -0.2731195 -0.14349562
681 -0.032246184 0.3671756 0.06899214 0.16638006 0.113781355 -0.29421774 0.11271559 -0.31965357 -0.17307952 -0.24691181 0.469966 -0.13895565 -0.3964068 0.12296488 -0.18855533 -0.10261153
1923 0.30225793 0.20201074 -0.21290404 0.17435111 0.3548441 -0.07240344 -0.41482222 0.16177225 -0.31397203 -0.23921396 -0.14333646 0.7303447 -0.5946418 -0.20292917 -0.2807998 -0.058023732
230 -0.20033927 0.18068881 -0.14275588 0.148472 0.1545494 -0.24287973 -0.03253548 0.32042104 -0.1714038 -0.39269456 -0.023393085 0.47261697 -0.59305924 -0.35481292 -0.21170601 -0.29390097
1928 0.05408344 -0.14466728 -0.35586426 0.31024814 0.09259274 -0.32306728 0.08051853 0.18487892 -0.019389521 -0.4253754 0.088670544 0.6852481 -0.60952145 -0.16279662 -0.017062522 -0.18005513
567 -0.0728982 0.17357816 -0.25703278 0.0144867515 0.024202134 -0.07909316 0.15144573 0.2244139 -0.22413553 -0.40000123 -0.080910936 0.4987629 -0.66426736 -0.29677483 -0.08675579 -0.18961737
2406 0.013670639 0.3184545 -0.03468732 0.0023812242 0.21615842 -0.35647815 -0.12738572 0.2198223 -0.12699556 -0.08402022 0.06630544 0.66045576 -0.5941526 -0.45590883 -0.24015692 -0.11357732
1227 0.022271637 0.07826216 -0.27884674 0.09927025 0.19992743 -0.16992582 0.16113302 0.08329074 -0.029298505 -0.2980068 0.24337168 0.56002593 -0.574538 -0.52031887 0.046808377 -0.15342195
2124 0.21556512 0.12943429 -0.18984352 -0.04841927 0.2538486 -0.16212022 0.105211325 0.14771685 -0.27289915 -0.28702226 0.02029346 0.6405397 -0.58536613 -0.14410172 -0.13996816 -0.1868248
446 0.13029876 0.2212228 -0.3889681 0.08454144 0.24826765 0.12009869 -0.1815809 0.31918418 -0.21009505 -0.30183777 0.055926714 0.49961147 -0.6602151 -0.2817764 0.1646051 -0.16941516
1156 0.16445741 0.1341581 -0.2852667 0.16693562 0.26317978 0.027911931 -0.12820528 0.1485605 -0.0720179 -0.38124752 -0.16477129 0.47233286 -0.78377426 -0.49678677 -0.045051318 -0.1943967
505 0.10104022 0.2377754 -0.27954563 0.023494562 0.26446235 -0.08198784 -0.18141054 0.2062999 -0.17739233 -0.24954861 -0.0136110885 0.60899305 -0.63862175 -0.19190963 -0.08614327 -0.00408114
1259 0.13984376 0.4642296 -0.11151337 0.23853183 -0.5491628 -0.3458886 -0.16687506 -0.010742785 -0.32460344 -0.7279264 0.296639 -0.14201027 -0.34287947 -0.34856454 0.2709637 0.15177575
465 0.34376884 0.23350963 -0.2405486 -0.14610417 0.2245639 -0.04673346 -0.20960626 0.30600792 -0.19341819 -0.28073698 0.06943979 0.6139265 -0.64075 -0.062449466 0.051781792 -0.11609262
802 -0.22398129 0.1863153 -0.2842556 0.069143124 0.05943806 -0.082649045 0.23607975 0.09004449 -0.17496875 -0.32284072 -0.09864789 0.5775134 -0.6899977 -0.45387045 -0.13809374 -0.08592912
1434 0.22055922 0.33524108 -0.30823353 -0.10074674 0.231948 -0.047610518 -0.10910502 0.07824674 -0.12443652 -0.30306926 0.1341459 0.7163425 -0.4428863 -0.29821953 0.06281507 -0.002645657
2542 0.14509028 0.31412357 -0.07254979 0.12642838 -0.14378972 -0.53171355 0.045604233 -0.15382797 -0.349374 -0.57521594 0.235003 -0.15928292 -0.3984066 0.115422964 0.23292898 0.35185736
1424 -0.1597225 0.06947867 -0.38541344 0.05781593 -0.0027610075 -0.367249 -0.14665924 0.1764249 -0.1879231 -0.29124793 0.14493217 0.53972363 -0.4586023 -0.46561173 -0.24092019 -0.3728912
918 0.4192136 0.36190885 -0.5415652 0.072663404 0.38749808 -0.17015488 -0.012341251 0.21754448 0.023609903 -0.10097365 -0.22892699 0.60765475 -0.6870921 -0.24159674 -0.28123307 0.11261684
602 -0.029706543 0.2519801 -0.13755 0.08589517 0.12672849 -0.23219927 -0.12782954 -0.16395973 -0.4382651 -0.28889516 0.30885783 -0.12400531 -0.49351686 0.029900461 0.05019551 0.21423794
1430 0.12650298 0.610823 0.11696748 -0.011044639 -0.16477032 -0.36196503 -0.13593826 -0.014415928 -0.27860007 -0.6800338 0.19991846 0.22231051 -0.19362287 -0.21291381 0.17764658 0.29460043
2311 0.261849 0.32220474 -0.15989947 -0.14323829 0.19468223 -0.040159322 -0.17676501 0.17110696 -0.12615159 -0.3533827 0.026515352 0.64410347 -0.5858801 -0.14713445 -0.06958257 -0.07515915
1764 0.4541998 0.6858428 0.38484752 0.033966053 0.06704961 0.17113551 0.17175373 -0.099804774 0.16313113 -0.7545303 0.2793165 0.10540678 -0.36243084 -0.13742511 -0.28353125 -0.25754887
1612 0.14399256 0.20637509 -0.07206658 0.076607436 0.2190602 -0.29850814 -0.041581847 0.18416472 -0.16959709 -0.2974314 -0.1727659 0.73009354 -0.6246531 -0.21276607 -0.15816657 -0.17780137
1013 0.13515745 0.52070993 -0.05549503 0.03492753 0.050954457 -0.28877595 -0.04561061 0.18338622 -0.3353056 -0.6639465 0.24297114 -0.07687957 -0.33557963 -0.118780434 0.071125746 0.45298302
1520 0.13207011 0.45624903 -0.1872701 0.24995852 -0.3393309 -0.4397226 -0.12663922 0.046154875 -0.34525618 -0.7034592 0.40213197 -0.36192313 -0.31408224 -0.38093382 0.25835267 0.14369172
1358 0.18730602 0.29088748 0.010024402 0.13063489 0.13068137 -0.38116413 0.31077144 0.114438094 -0.273835 -0.16868445 -0.009422805 0.77148193 -0.47696224 -0.32814375 -0.18191311 0.084336
2177 -0.039725766 0.1857354 -0.081293866 0.114075825 0.23592056 -0.3118928 -0.1055895 0.17514554 -0.23564386 -0.22856128 0.098413736 0.7894485 -0.47375023 -0.26339173 -0.38004085 -0.116592914
919 0.27578425 0.26691929 0.020318754 0.03720341 0.38590983 -0.20879796 0.2480882 0.17987297 -0.10509804 -0.3124169 0.021332866 0.5394955 -0.5601692 -0.24805906 -0.42451233 -0.35754308
483 -0.24628666 0.23364936 -0.15271285 0.03151544 0.19586058 -0.2210148 0.1128037 -0.03853335 -0.2777587 -0.05271419 -0.10217022 0.6999214 -0.6959281 -0.08658515 -0.20237511 -0.19316754
2005 0.26762387 0.19297564 -0.089281544 0.1234824 -0.28456053 -0.6132926 0.03130561 0.122554354 -0.27187595 -0.5513894 0.48162112 -0.31514677 -0.4978471 -0.1361968 0.13550535 0.24536633
97 -0.013429351 0.067151345 -0.38947588 0.06592895 0.19393322 0.039926432 0.11844549 0.26646078 -0.24921587 -0.5399167 0.07864224 0.4669694 -0.57158595 -0.20817319 -0.0035787527 -0.18090981
1077 0.23840062 0.3845929 -0.14005767 0.22971348 -0.21658717 -0.3118272 -0.04186689 -0.101042025 -0.35421318 -0.5094571 0.42695078 -0.22114128 -0.38156497 -0.07117201 0.046416666 0.37811348
1557 0.19703437 0.47990626 0.051786296 0.3072406 -0.52283275 -0.53950876 -0.52704555 0.1384863 -0.048056524 -0.67274094 0.47510868 -0.12415388 -0.36073518 -0.17156732 -0.09791964 0.2890059
1149 0.2510181 0.39814916 -0.044030063 -0.003040737 0.031542372 -0.3596915 -0.044770397 0.090513244 -0.14341055 -0.8299142 0.48076707 -0.15424275 -0.3393122 -0.049775302 0.23210898 0.36439478
1940 -0.099269874 0.12928112 -0.2917374 0.2288246 0.021612646 -0.3064041 -0.048549607 0.39572537 -0.16204196 -0.39285007 -0.0945264 0.562919 -0.5826801 -0.32274473 -0.2596667 -0.31774646
1105 0.019626157 -0.11160638 -0.41692728 0.034690026 0.14994158 -0.2463152 0.39034203 0.15146534 -0.10336053 -0.26586854 0.16407931 0.7752834 -0.69839245 0.0074069416 -0.21722382 0.03097053
1741 0.36941656 0.38482258 -0.22689176 -0.034711286 -0.2818221 -0.26517218 -0.025082683 -0.09434769 -0.14526194 -0.35367602 0.4811729 0.15863267 -0.37063244 -0.45316306 -0.0033579732 0.37388295
768 -0.0030478498 0.3549044 0.07317429 0.029233139 0.30347395 -0.3798643 -0.14075544 0.2534881 -0.04750024 -0.2549525 0.14817205 0.6684371 -0.45238048 -0.23635092 -0.29637626 -0.2732251
475 0.17977577 0.5790263 0.03161509 0.27685675 -0.39591876 -0.26878008 -0.22734131 -0.0674249 -0.30119368 -0.5776237 0.39342183 -0.29159695 -0.46501607 -0.22686109 0.04268072 0.43500364
383 -0.015849357 0.10626897 -0.4592807 0.04417532 0.06741361 -0.35232115 -0.12828577 0.25640595 -0.1281766 -0.3374207 0.10344373 0.5041503 -0.4497913 -0.52702653 -0.20433766 -0.4457431
1142 0.10204566 0.113170475 -0.0021100563 -0.04055569 0.24191022 -0.3236478 0.33350042 0.17425442 -0.1626486 -0.21611592 0.09044518 0.66251314 -0.7096835 -0.2862863 -0.120454624 -0.048452914
181 0.0691124 0.2548191 -0.25200683 -0.089788586 0.31281325 0.07510934 -0.06302775 0.0859179 -0.052574705 -0.35684833 0.09242915 0.7506749 -0.6418327 -0.16590625 -0.080873944 0.05628136
1733 0.069993585 0.18856241 -0.07976941 0.004456414 0.4591807 -0.24677776 -0.03501056 0.08572749 -0.29257885 -0.2885956 -0.17971468 0.5985219 -0.6510386 -0.23841396 -0.3006022 0.03760469
2302 -0.007397432 0.26943988 -0.14594987 0.06274666 0.2160606 -0.10446121 -0.061877225 0.20338807 -0.26455012 -0.33457604 -0.09138901 0.6843156 -0.56221163 -0.28502077 -0.26477236 -0.1390861
2366 0.24281384 0.1291329 -0.15710533 -0.10717951 0.30543464 -0.09072318 0.108967565 -0.016321136 0.0589254 -0.38434842 0.044045825 0.5833185 -0.71455425 -0.31225926 -0.14677496 -0.04457871
1372 0.029321339 0.26172537 -0.349829 0.19967744 0.49420097 -0.19191585 -0.090337105 0.2084698 -0.11761737 -0.26378742 0.12526432 0.41966805 -0.45847446 -0.6472462 -0.059037786 -0.25705302
1082 0.000811931 0.34435785 -0.07699443 -0.1323089 0.16366415 -0.052189246 -0.14505209 0.20354839 -0.13781606 -0.4091299 -0.09977713 0.73705477 -0.6483218 -0.09579233 -0.1536264 0.036003742
2126 0.09423023 0.24236913 -0.15210183 0.15859547 0.19157787 -0.35416993 -0.1592657 0.102797605 0.029886901 -0.16142645 0.09785696 0.8337646 -0.4989573 -0.36799276 -0.12011767 -0.21056741
1152 0.14490184 0.04360568 -0.21710742 0.018532444 0.35227385 -0.25474542 0.21547186 0.19263528 -0.27560145 -0.23522736 0.35373566 0.5330848 -0.48781702 -0.20271535 -0.17046411 -0.014220865
1620 0.30413702 0.3777736 -0.08607327 0.003503858 0.09629845 -0.19838409 0.092876695 0.09716326 -0.43552387 -0.78376275 0.40054995 0.06717453 -0.19131278 -0.027645381 0.19250304 0.29858354
169 0.36550426 0.5486239 -0.011956091 0.12190078 -0.33641014 -0.35268 -0.24831219 -0.09233224 -0.27701685 -0.7757645 0.5189585 -0.28778875 -0.3687801 -0.13430332 0.23960115 0.39980367
297 0.119851954 0.43031663 -0.23052521 0.41166776 -0.33536294 -0.3279032 -0.10681538 0.029757468 -0.38881552 -0.73777294 0.37074444 -0.3526447 -0.2555613 -0.40492618 0.18009993 0.08932142
2569 -0.18525036 0.4980407 -0.24096313 0.106844544 0.27392933 -0.2736572 0.03052954 -0.12075578 -0.46015504 -0.41427904 0.5369013 -0.220952 -0.20705535 0.24941488 0.22760946 0.3096931
175 -0.14219053 0.24348165 -0.39992803 -0.06507089 0.14957334 -0.26052913 0.13359396 0.35571563 -0.32090047 -0.47094557 0.056824043 0.40056124 -0.36575422 -0.2750056 -0.09238952 -0.37319586
2418 0.371474 0.5421596 0.027587797 0.47845915 -0.44924837 -0.28806093 -0.041637477 -0.07153513 -0.38337106 -0.6208801 0.54742163 -0.18911786 -0.32569572 -0.18837008 0.18607737 0.41673175
2076 -0.13104856 0.04332183 -0.313296 0.21060649 -0.03193026 -0.3727893 -0.042358395 0.11769678 0.042817995 -0.29772896 0.11936191 0.7088072 -0.5603875 -0.5754269 -0.1424397 -0.33298543
634 -0.10436014 0.342284 -0.70777667 0.16060568 0.21720293 -0.055345714 -0.38576156 -0.413147 -0.32825318 0.23940957 -0.22699681 0.5254182 -0.6656878 -0.0317478 -0.45295256 -0.096760295
2605 0.23881942 0.42627022 0.012886965 0.46256968 -0.2843444 -0.48281768 -0.11175149 0.053384464 -0.27868408 -0.65848255 0.34847546 -0.285512 -0.3319573 -0.5212474 0.2692614 0.07326779
120 0.42483506 0.31325492 -0.122353755 0.2555277 -0.48081288 -0.31082958 0.012052102 -0.04807471 -0.39146057 -0.78190064 0.58793277 -0.2874907 -0.3779863 -0.13635488 0.035227507 0.39173874
420 -0.020434622 0.15910633 -0.21035331 0.24965553 0.23683907 -0.25471354 0.0392496 0.4901604 -0.38619772 -0.317221 0.017238805 0.44178343 -0.5139148 -0.39043275 -0.043184128 -0.40194473
903 -0.05401762 0.17278774 -0.4240856 0.23673348 0.22544792 -0.14884678 -0.04608808 0.2306363 -0.2447636 -0.5256922 -0.18256192 0.43814096 -0.49067715 -0.37685195 -0.022866696 -0.1923675
803 0.17721185 0.4245353 0.09705327 0.1853587 -0.46004587 -0.4352155 -0.2157631 -0.041689083 -0.31137502 -0.6927362 0.48409668 -0.29023686 -0.4816947 -0.22894977 0.12183607 0.38103092
2539 0.17706479 0.45935717 -0.17205055 0.4810621 -0.52009076 -0.45994928 -0.0055258204 0.14610104 -0.29812282 -0.6290083 0.41914737 -0.2816455 -0.34318718 -0.47609454 0.24219032 0.1705859
2240 -0.04254116 0.3578134 -0.1422927 0.1761873 0.50159883 -0.39899603 -0.011698841 0.1661642 -0.3591728 0.22738288 -0.048626773 0.42688203 -0.6321448 -0.11977272 -0.1762696 -0.21429473
2522 0.08897207 0.227349 -0.111829855 -0.23344733 0.25899252 -0.24049573 -0.024850128 0.20031771 -0.20190984 -0.31762484 0.13685223 0.3771485 -0.5801041 -0.5168148 -0.34060174 -0.19005029
893 0.11551129 0.22719334 0.0023920329 0.09980359 0.31634724 -0.38654613 0.029855883 0.15688549 -0.16697417 -0.075358436 -0.12269408 0.5630976 -0.72092 -0.36933607 -0.12163794 -0.2426204
1367 0.26778463 0.3318972 -0.114721514 0.20216365 0.035873283 -0.28783724 0.015867487 0.2660768 -0.23312218 -0.76289886 0.33466157 -0.09369459 -0.29395315 0.03273668 -0.031129612 0.22443408
2143 -0.123326115 0.15143675 -0.22358705 0.084328145 0.11101429 -0.24641617 0.09131538 0.24611107 -0.23760712 -0.30574158 0.00905818 0.44351026 -0.59457934 -0.5525673 -0.07837708 -0.36036098
1788 0.05459991 0.32008663 -0.09450899 0.14336108 0.06712811 -0.31374294 0.07309862 -0.006804165 -0.3300721 -0.564141 0.37624708 0.11552374 -0.27781412 0.10852489 0.15695353 0.36799744
1959 0.4938391 0.34670207 -0.112911284 0.032506604 -0.1259826 -0.2799267 -0.20453402 -0.15088023 -0.17549723 -0.7064489 0.6709491 -0.20511961 -0.45766017 -0.13018182 0.44872594 0.46410677
963 -0.1065498 0.7384812 -0.18700683 0.23111783 -0.27739632 -0.31317377 -0.007367841 -0.20542522 -0.6517507 -0.18577208 0.56245863 -0.23444365 -0.10255113 0.13605182 -0.0032204937 0.23965558
1934 -0.1655087 0.260244 -0.26875457 0.281899 0.3514273 -0.25255784 0.012249389 0.254476 -0.0155424485 -0.63089293 0.01149635 0.5767636 -0.2883805 -0.3405122 -0.19113323 -0.3938327
2578 0.14547734 0.31778046 -0.17624873 0.37768233 -0.16116017 -0.25535238 0.102669165 0.041376464 -0.22757323 -0.8772586 0.58755094 -0.15974979 -0.23164134 -0.33101594 0.4686094 0.08261678
375 0.27615356 0.6471199 0.09383389 0.2902803 -0.50460285 -0.37878162 -0.18055145 0.03457202 -0.38203183 -0.59776396 0.52352345 -0.21221155 -0.3339004 -0.20674479 0.21200866 0.3420064
119 0.008235844 -0.042706575 -0.3001177 0.029051416 0.074862696 -0.041092552 0.26722136 0.18566167 -0.017742522 -0.2982506 0.2822343 0.9835497 -0.71217394 -0.15562771 -0.22211206 -0.041308627
2019 -0.14294061 -0.15633193 -0.4396439 0.22587104 -0.03667142 -0.3216084 0.39703298 0.24871005 -0.009649668 -0.31587914 0.02204229 0.52877027 -0.82212365 -0.28720617 -0.0018993386 -0.2231672
2058 0.14887618 0.32844207 -0.08538672 -0.0841052 0.4721635 0.1447659 -0.0007773839 0.20539173 -0.04194091 -0.4443356 0.10721709 0.57162625 -0.5912602 -0.18487462 -0.31370035 -0.30824476
2205 0.35014015 0.4647613 -0.05360177 0.20194276 0.21604726 -0.21507287 0.14490366 -0.06832749 -0.05250355 -0.7756023 0.45818263 -0.2351415 -0.19134608 0.118240274 -0.13184269 0.10559683
1802 0.059030566 0.43696246 -0.14084165 0.14892702 0.16695522 -0.16875142 0.10197114 -0.15949948 -0.4425834 -0.6243232 0.4302113 0.102431275 -0.10184014 0.16677837 0.2327356 0.2886108
1324 -0.1297745 0.23549052 -0.53406394 0.20094989 0.3889451 -0.18354039 0.022595853 0.24261963 -0.347098 -0.50612473 -0.23361398 0.5163566 -0.36453676 -0.28794575 -0.022966802 -0.28751248
921 0.71108997 0.62665963 0.4216538 0.18250819 -0.028914226 0.0027619004 0.3089434 -0.035260193 -0.044019748 -0.5826709 0.5872649 -0.23953813 -0.41171002 -0.074057035 -0.14250676 -0.18971203
999 -0.046204686 0.0724662 -0.0578493 0.07764954 0.23467252 -0.40643656 -0.07152035 0.17196932 -0.12187581 -0.361266 0.07666945 0.80208397 -0.53117484 -0.31529322 -0.27542683 -0.20004171
1789 0.1710106 0.11732924 -0.15532461 0.097438626 0.24834768 -0.27029946 0.0990934 0.37277564 -0.22458428 -0.11130885 -0.046031967 0.6972574 -0.78368413 -0.2046196 -0.2627608 -0.05422123
100 -0.332924 0.6310809 -0.56922007 0.24320154 0.20430383 -0.40179586 0.12516291 -0.014575609 0.16171305 0.04976317 -0.42594492 0.19275644 -0.6746749 -0.4633135 -0.16871981 -0.24152543
2427 0.044045344 -0.0509521 -0.16630161 0.105425246 0.13970971 -0.20814468 0.4205542 0.1500084 -0.028163122 -0.082360424 0.2348227 0.69804746 -0.8186048 0.060777374 -0.12474681 -0.3503517
698 0.17242078 0.117396824 -0.30359122 -0.20590146 0.4200114 -0.3173071 0.31121334 0.18882893 -0.18227485 -0.3863005 0.10758811 0.58128464 -0.5258258 -0.12545304 -0.2172593 -0.014215744
2481 -0.04677651 0.26884118 -0.14100927 -0.0031300867 0.38196975 0.041595664 -0.08823266 0.038064755 -0.123458244 -0.40834752 -0.040413488 0.68983173 -0.6156089 -0.25648776 -0.40513054 0.027948793
1178 -0.05867192 0.07354041 -0.43544236 0.028291674 0.038611792 -0.052985694 -0.06062831 0.2967809 -0.12478135 -0.273511 0.30857664 0.50402164 -0.60637665 -0.5888873 -0.0332344 -0.29650828
804 0.13642125 0.36949602 -0.3489452 -0.14274192 0.39680856 -0.08152092 0.08414085 0.07338813 -0.13851129 -0.4365852 -0.21943222 0.69057655 -0.5111683 -0.12283255 -0.29994345 -0.1514922
1008 -0.07439997 0.18680488 -0.2956094 -0.03251758 0.40810114 -0.1560267 0.046026044 0.18250492 -0.11704585 -0.3056591 0.11221956 0.68831074 -0.5789792 -0.21748348 -0.25301817 -0.03753506
238 0.07431527 0.12601292 -0.4942664 -0.09816096 0.22658172 -0.24014643 0.12106735 -0.23587954 -0.13138956 -0.04340679 0.23024574 0.5897113 -0.5205756 -0.06892403 -0.05913381 -0.020876369
1009 0.19625795 0.37908056 -0.051326692 -0.105411656 0.1388784 -0.15217589 0.17712781 0.19753496 -0.17253985 -0.28248873 0.050232224 0.6496988 -0.47710168 -0.35832357 -0.36239272 -0.41826895
2458 0.25162998 0.3268932 0.009725754 0.24997786 -0.43079734 -0.52338177 0.123838246 -0.03507948 -0.2726312 -0.7193924 0.6162493 -0.11097397 -0.31448436 -0.25079858 0.26672745 0.3353827
1604 -0.058577515 0.27543655 -0.21780552 -0.04882254 0.3388555 -0.25960255 0.12951393 0.2265913 -0.35981032 -0.32141832 -0.11995667 0.7473467 -0.49373817 -0.23453276 -0.34189615 -0.1001428
227 -0.24129693 0.23989539 -0.2882169 0.06091796 0.06773378 -0.33213428 0.14865294 0.4089892 -0.19724463 -0.37412152 -0.1237548 0.44830033 -0.61054087 -0.40721816 -0.14909686 -0.26156807
13 0.09433772 0.20478638 -0.38323906 -0.0055323774 0.4923976 -0.1712182 -0.047779895 0.29867226 -0.28819022 -0.19110695 0.07665519 0.48592523 -0.57549924 -0.30941468 -0.3025339 -0.030128958
1385 0.44082555 0.63378346 0.14613532 0.4790432 -0.342652 -0.071948886 -0.13178492 -0.025362268 -0.20644937 -0.5518513 0.5500387 -0.27333722 -0.40585074 -0.20874938 -0.06309203 0.2978817
640 -0.08843151 0.30522692 -0.28903782 0.16797501 0.21889606 -0.15540145 0.095727295 0.4836753 -0.103524365 -0.4149284 0.06618841 0.43063366 -0.4992986 -0.3247582 -0.06470244 -0.31588826
1052 -0.0867797 0.16283114 -0.15089531 0.0005983804 0.51945263 -0.3314245 0.30523756 0.26384994 -0.29307225 -0.24829347 0.0823041 0.5825305 -0.55137646 -0.19713698 -0.39220238 -0.14737324
1843 0.26358595 0.090076104 -0.26276255 -0.18815677 0.38027486 -0.43126214 0.059649352 0.2803408 -0.26307142 -0.3053787 -0.03205682 0.6307743 -0.5772522 -0.22113241 -0.1359684 -0.3480305
1046 -0.00027090526 0.3746728 -0.16636148 0.35346445 -0.19272454 -0.06870255 0.14193906 0.15288514 -0.32943085 -0.52053165 0.36135295 -0.09354834 -0.4160949 -0.27107814 0.2443003 0.07569392
205 0.5261782 0.36201656 -0.17431846 0.013654538 -0.13338362 -0.12704325 0.053980708 -0.2030749 -0.067724064 -0.8833001 0.7141882 -0.0323573 -0.16933155 -0.13874353 0.049574878 0.22460663
791 -0.25090283 0.13741647 -0.0121126855 0.019256976 0.36634386 -0.602895 -0.11986029 -0.12192933 -0.107733645 0.03931994 -0.023702301 0.51753694 -0.74374807 -0.11782079 -0.26014727 -0.1551325
1780 -0.043875612 0.5424738 -0.16340096 0.35941178 -0.20035356 -0.21655469 -0.07788279 0.18656264 -0.43742877 -0.6664719 0.49375322 -0.3606921 -0.30291697 -0.44729012 0.27351415 0.22827572
2429 0.07998089 0.5404484 0.24662511 0.22076778 -0.34030008 -0.19075981 -0.26799425 -0.030643057 -0.372864 -0.56533056 0.48295647 -0.13465068 -0.51148117 -0.2326084 0.12992345 0.5087663
144 0.10181002 0.43073636 -0.08377733 0.37435812 -0.5547333 -0.33326572 -0.17613272 -0.103913985 -0.36863923 -0.5949198 0.64048606 -0.36993203 -0.4919277 0.04405656 0.2260447 0.40612411
2303 -0.21507429 0.24657232 -0.3708647 -0.15901501 0.4141968 -0.2923166 -0.012958585 0.111293204 -0.23504433 -0.07773371 -0.052283034 0.4555786 -0.7104094 0.27290875 -0.08129228 -0.3129896
1842 -0.076721355 0.42451227 -0.06695619 0.031261865 -0.026280113 -0.31050974 -0.19866908 -0.059605982 -0.44410485 -0.018866675 0.47796217 -0.31651482 -0.65467215 0.2188609 0.2261349 0.2011431
793 -0.07185135 0.2866417 -0.31626746 0.04191652 0.32419157 -0.2732868 -0.07687029 0.4226955 -0.05426421 -0.33682483 0.23430476 0.6415079 -0.3868078 -0.12871844 -0.5094628 -0.19338392
1783 0.35935476 0.48849666 0.15942779 0.057016212 -0.14015083 -0.47172886 -0.3217913 -0.118232265 -0.26622537 -0.6781444 0.60745496 -0.25402233 -0.31630906 -0.2271363 0.13433927 0.33673412
2045 0.053640615 -0.15486412 -0.6214019 0.3061792 0.041021347 0.04611743 0.22529402 0.27642247 0.0374973 -0.5696678 -0.026134374 0.58444893 -0.76642936 -0.15896612 0.051381223 -0.21573156
355 0.26555726 0.5447694 0.024166109 0.30704114 -0.5474566 -0.27924043 -0.24499919 -0.02248976 -0.2943713 -0.72991055 0.5672107 -0.22617868 -0.40105173 -0.14690928 0.10392274 0.46034864
796 0.22536531 0.1382966 0.13315298 0.22228907 0.39412898 -0.36619127 -0.047984898 -0.20736626 -0.22996034 -0.28573042 -0.29421106 0.8613907 -0.6361874 -0.6398564 -0.1716431 -0.047122896
2595 -0.05539802 0.21666476 -0.3876086 0.27703938 0.1340403 -0.25842863 0.049593426 0.32406172 -0.23792735 -0.40834945 -0.30975384 0.48258153 -0.58255833 -0.29321152 -0.016686073 -0.26313248
1825 -0.22991826 0.061493054 -0.5669281 0.2288884 0.028216545 -0.3446514 -0.1816407 0.21439119 -0.026907833 -0.40358448 0.2179492 0.6186257 -0.3704341 -0.5514233 -0.094708204 -0.3571262
1387 0.27591613 0.46270543 -0.14999132 0.1955478 -0.5609126 -0.20846851 -0.123646684 0.024432385 -0.44573495 -0.40334722 0.58536005 -0.14470185 -0.3694825 -0.08314988 0.10299536 0.20040214
2593 -0.17905822 0.21629861 -0.26975226 0.039641842 0.22168083 -0.16307314 -0.5337781 -0.61701316 -0.08707067 -0.2571799 -0.009594882 0.4217842 -0.44431266 -0.014248656 -0.81695884 -0.4334199
2250 0.07703492 0.19193569 -0.20122364 -0.10101571 0.1928902 -0.118840694 -0.199201 0.28616938 -0.16588934 -0.14477119 -0.06737071 0.73846835 -0.828696 -0.15368567 -0.1456741 -0.27680925
622 0.2060831 0.69171435 0.059034504 0.118066914 -0.37009293 -0.27792063 -0.28215748 0.10778795 -0.3792058 -0.42308906 0.59096706 -0.27506325 -0.45513093 -0.124210976 0.25115675 0.39183202
661 0.4203564 0.4245563 -0.13249773 0.15942249 -0.4334879 -0.49327537 0.047451302 -0.14217663 -0.19529289 -0.84442264 0.39448893 -0.2877577 -0.3992219 -0.16955546 0.2763064 0.4000624
931 -0.14012362 0.121579304 -0.21551076 -0.029186118 0.32493567 -0.4153297 -0.043719117 0.29517505 0.0143060405 -0.36601207 0.20628956 0.71993285 -0.52827126 -0.10067089 -0.27327517 -0.13426311
1901 0.020714844 0.27282837 -0.26489756 -0.024807075 0.31621224 -0.165118 0.1030189 0.19708994 -0.28918055 -0.27444017 -0.18488973 0.72045946 -0.62453073 -0.28661004 -0.34151986 -0.06538291
138 0.0071135685 0.14596635 -0.33424598 0.10272614 0.08427202 -0.16727683 0.19926982 0.35687587 -0.20860487 -0.39360347 0.032792397 0.55133474 -0.55065393 -0.3530934 0.056227446 -0.34029788
2431 0.2580848 0.020577256 -0.20418178 0.0056545828 0.25616145 0.029773284 -0.3836643 0.0044045565 -0.476914 0.037296668 0.31261733 0.39713377 -0.7292283 -0.60109335 -0.30133778 0.010365375
837 -0.042903207 0.016520873 -0.059978504 -0.008683775 0.3284341 -0.51117384 -0.11984608 0.2721623 -0.04490856 -0.36304367 0.15825756 0.4779565 -0.6354968 -0.3374137 -0.3699275 -0.1114346
1036 0.14236608 0.24731709 -0.20468332 -0.21485288 0.16166662 -0.04682113 0.032362435 0.20833564 -0.36365637 -0.18297063 -0.11284928 0.6470186 -0.74066454 -0.12374432 -0.17700766 -0.12526464
113 0.37161976 0.46652508 -0.2157663 0.116389 -0.046886925 -0.049030315 0.11037884 0.08559734 -0.36052865 -0.8045611 0.6860063 0.112116195 -0.06590953 -0.026911797 0.13780963 0.41367292
2386 -0.21645752 0.20852605 -0.6190952 0.1562379 0.2897892 -0.20800158 -0.19428691 0.25199097 0.08682294 -0.526839 0.3248748 0.49089554 -0.22566777 -0.45940593 -0.19221272 -0.34866494
1336 0.23546553 0.2849095 -0.034795832 0.32209525 -0.37512574 -0.42395785 -0.067979865 -0.1604695 -0.25168246 -0.83017963 0.5796375 -0.38662294 -0.44277123 -0.00074270926 0.12123051 0.37430608
312 -0.1148333 0.19524983 -0.607118 0.028167186 0.2744842 -0.28056785 0.11365833 0.40143955 -0.29180634 -0.52837604 -0.010151505 0.39218584 -0.3432275 -0.3510799 -0.029844053 -0.2812038
2439 0.14150384 0.07802797 -0.29348853 -0.1414139 0.30634853 -0.25361726 0.28113103 0.22727741 -0.20537458 -0.3405786 0.37018895 0.5887254 -0.45555142 -0.046893887 -0.15561655 0.053183954
2049 -0.108956106 0.34078676 -0.08793841 0.10950918 -0.37068486 -0.2985076 -0.006977308 -0.092008375 -0.23230925 -0.84963566 -0.020796195 -0.17930473 -0.4900534 -0.6145555 0.12384107 0.06873049
834 0.054772478 0.11310762 -0.14274405 -0.10351906 0.46910083 -0.24317098 0.281464 0.14347777 -0.265171 -0.37003127 0.29274052 0.47735947 -0.47040707 -0.10262411 -0.12413487 -0.00021577434
2572 -0.09778003 0.17164911 -0.10877437 -0.010118231 0.31437966 -0.3126063 0.18834378 0.213867 -0.17101943 -0.22386956 -0.05089727 0.66227365 -0.70929575 -0.36486983 -0.30546027 -0.2037599
1192 0.033730976 0.3049317 0.04297339 -0.013237305 0.38258117 -0.26950788 0.15901712 0.24339463 -0.080871545 -0.41594616 -0.0655739 0.68871564 -0.59066606 -0.17390601 -0.238116 -0.033181924
1830 -0.3806495 0.49678636 -0.34937802 0.30668655 0.26733866 -0.09201901 0.07358461 0.12909809 -0.34121174 -0.3042004 0.30482885 -0.18701118 -0.3514303 -0.05983657 0.33269843 -0.1536979
676 0.3318716 0.13998666 0.011048601 0.14612126 -0.30274627 -0.29772073 0.01755572 -0.18993324 -0.38348466 -0.7438873 0.62114716 -0.028705364 -0.3702136 -0.12878045 0.11436053 0.41024506
1407 0.24536638 0.489498 -0.07247897 0.33287638 -0.302805 -0.3065253 -0.032044113 0.023814704 -0.33590364 -0.68322563 0.6495374 -0.4715708 -0.45710233 -0.23854546 0.105618596 0.5120902
1012 0.14257613 0.49627435 -0.2990502 0.5248542 -0.4125591 -0.24352473 -0.082163095 0.19306962 -0.23028018 -0.6121151 0.34894538 -0.28095677 -0.4069229 -0.45339495 0.3241514 0.18048823
2061 0.04197344 0.22787376 -0.3871618 0.1612525 0.11088504 -0.19194946 -0.028606696 0.3195226 -0.30224478 -0.40082884 -0.18694207 0.49873033 -0.48605227 -0.42629358 -0.07510646 -0.47321737
524 -0.032627627 0.392082 -0.39361337 -0.19583845 0.27747002 -0.17155477 0.100818545 0.23147924 -0.16436332 -0.380233 -0.24671254 0.7141876 -0.5796552 -0.18835264 -0.47099584 -0.04025741
581 0.19771771 0.3578428 0.05489651 0.1706692 -0.44010535 -0.527132 -0.12142465 -0.11753755 -0.44066963 -0.7361197 0.52350366 -0.3952867 -0.4462284 -0.31210098 0.20414923 0.31863043
2215 -0.040258322 0.20170031 -0.29152265 -0.07813741 0.27773413 -0.35078034 0.1613243 0.2395537 -0.15188137 -0.46614435 0.015662609 0.54554266 -0.45468643 -0.11438068 -0.23351641 -0.043557372
2296 0.19398466 0.1111693 -0.37837058 -0.26363248 0.16765614 -0.081881 0.017904218 0.3431106 -0.27768242 -0.2639289 0.1381882 0.68302155 -0.65260094 -0.23990574 -0.3483703 -0.30538365
2164 0.28076455 0.31449658 -0.15099812 0.05936791 0.13203187 -0.2850243 0.21852885 0.14356443 -0.40398937 -0.6675131 0.27289435 0.18440813 -0.18559892 -0.018985968 -0.1166623 0.36699426
1410 0.23625754 0.39435744 0.09931415 0.22009563 -0.35433277 -0.20123903 -0.065203264 -0.07086557 -0.2740997 -0.86007744 0.6646991 0.018599043 -0.3210846 0.015562119 0.29011193 0.395257
820 -0.14508538 0.49651396 -0.033742007 0.40736336 -0.34340715 -0.21132647 -0.123114 0.12557647 -0.054909565 -0.7432356 0.41539872 -0.011464182 -0.3657521 -0.44445086 0.31578952 0.17202319
2137 0.17168237 0.6378617 0.06916849 0.2031636 -0.26000398 -0.31338826 0.09112554 -0.12337179 -0.34567943 -0.63835233 0.30213204 -0.45725933 -0.45465308 -0.3520285 -0.034253884 0.5044225
367 0.021141563 0.25155026 -0.09747585 0.05346841 0.26570627 -0.34880152 0.09744914 0.37418774 -0.14662178 -0.25613207 -0.084532455 0.74206066 -0.645611 -0.18218212 -0.20228653 -0.1569549
608 0.0731109 0.13615473 -0.10159287 -0.091036454 0.17858873 -0.508265 -0.1514633 0.3657966 -0.06659025 -0.2690066 0.18931684 0.6308902 -0.54308784 -0.10570695 -0.31047347 -0.33774316
773 -0.0035293263 0.517236 0.04403325 -0.15410095 0.24098982 -0.30926803 0.10974376 0.06331668 -0.12855558 -0.32023966 -0.24975504 0.5227113 -0.5860862 -0.49717462 -0.24890387 0.039996102
750 0.057069972 0.075244114 -0.18919107 -0.13427958 0.17123802 -0.2649386 0.15081722 0.4114185 -0.25967452 -0.19863571 0.088337205 0.6214051 -0.74876356 -0.2803844 -0.2874567 -0.2801679
467 -0.055019636 0.17137589 -0.22560091 -0.15040386 0.36254677 -0.066041335 -0.044445504 0.46917036 -0.19105701 -0.22762787 0.15565038 0.5456821 -0.7974969 -0.15559234 -0.2904189 -0.09692197
344 -0.06389947 0.2908985 -0.25657824 -0.122840196 0.45059046 -0.21221928 0.22545351 0.1950507 -0.13905634 -0.39896736 -0.04104061 0.70826715 -0.5297355 -0.1420559 -0.16726232 -0.074694954
760 -0.09573314 0.30699325 -0.21179771 -0.15009707 0.49142012 -0.24993728 0.14629842 0.16439775 -0.07254692 -0.45801803 0.034261126 0.8064661 -0.46764866 -0.21687537 -0.16945687 0.007233333
1035 0.13899337 0.37341544 0.17680813 0.27901983 -0.19078565 -0.34358895 0.08697899 -0.20938629 -0.29399878 -0.67363983 0.5393979 0.0066563427 -0.31943655 -0.20901942 0.058112696 0.54113793
1687 0.19080156 0.48978373 0.1180027 0.15925315 -0.42920607 -0.13958992 -0.18309154 0.03148516 -0.36777285 -0.62883973 0.5172538 0.06916814 -0.403866 -0.24724913 0.16545774 0.4623904
2042 -0.29294187 0.36582458 0.09577093 0.20249163 0.15059902 -0.25951758 -0.21538858 0.19969 0.10604318 -0.09833461 0.043935426 0.8713299 -0.70467097 -0.17782491 -0.380122 -0.11904452
2424 0.18757032 0.47849047 -0.24905612 -0.2667179 0.33643445 -0.23839241 -0.044312835 0.26475966 -0.06491488 -0.3100141 -0.04786017 0.70474446 -0.5384455 -0.11545135 -0.013302138 0.18302579
58 0.1989596 0.74800336 0.00969819 0.30318895 -0.4379824 -0.24466196 0.010154368 0.007940538 -0.366502 -0.7337828 0.5222697 -0.26520562 -0.32708034 -0.16999505 0.23986724 0.5261545
121 -0.13753805 0.2907099 -0.4614972 0.009735555 0.22903554 0.18911405 -0.17586307 0.12238054 -0.13945769 -0.2652491 0.18571663 1.0046309 -0.51575154 -0.2746527 -0.28481358 0.023621948
924 -0.0012242438 0.3764633 -0.16177921 -0.24366654 0.4933503 -0.2618696 0.05376573 0.35176203 -0.11621371 -0.36736667 0.032358978 0.6216737 -0.532746 -0.25027832 -0.21671653 -0.19384886
509 0.40013412 0.5418678 -0.14620301 0.0964333 -0.39171633 -0.33184344 -0.16303483 0.053557016 -0.48398882 -0.6545264 0.4019435 -0.04451527 -0.19356246 -0.13401252 0.01853613 0.39194998
1401 -0.0693264 0.07879239 -0.38941702 -0.03820375 0.29642934 -0.42509764 -0.18432677 0.19934326 -0.14308952 -0.16919826 0.43353784 0.78643465 -0.3428912 -0.4076008 -0.47024903 -0.28767788
1771 0.04729029 0.04288847 -0.0748427 -0.2176784 0.27935672 -0.22570896 -0.050428208 -0.061962835 -0.23874232 -0.45346844 -0.19160458 0.6347306 -0.7582834 -0.41588444 -0.40799993 -0.011977323
2457 -0.0008039995 0.24404395 -0.35793313 0.02639285 0.09114125 -0.19369169 0.14859895 0.44177115 -0.14413816 -0.49368286 -0.081316106 0.5885292 -0.53947425 -0.37497747 0.13107991 -0.438239
1653 0.17829758 0.5568178 0.0016311639 0.20243876 -0.31715405 -0.1489592 -0.17904684 -0.02050226 -0.30648372 -0.72401804 0.5772534 -0.39267766 -0.49618918 -0.2257177 0.15550357 0.4849823
1529 -0.1317768 0.10472257 -0.26658672 -0.050122496 0.38665658 -0.35944638 -0.012745844 0.04926599 -0.35801136 0.14989337 -0.13669667 0.33091268 -0.9325264 0.13235307 -0.016122343 -0.5222966
2395 0.018287241 0.17037307 -0.15446259 -0.16433638 0.2417504 -0.1449584 0.014666409 0.23941939 -0.3437384 -0.24692143 -0.22765 0.64754885 -0.85367787 -0.06342697 -0.15178527 -0.025114743
1498 0.23374282 0.00960221 -0.17374061 -0.07792229 0.16747326 -0.28001547 0.06470471 0.27570716 -0.30851004 -0.27091065 -0.07089474 0.61202264 -0.76812136 -0.16095892 -0.07706648 -0.15132388
325 0.11983452 0.39993772 -0.847569 0.09639257 0.14981683 0.34942752 -0.23948887 0.08715318 -0.04549835 -0.1415256 -0.10642821 0.5751466 -0.6913695 -0.4668302 -0.68028075 0.07011122
1395 -0.35548085 0.15506037 -0.2846316 0.038310617 0.16812447 -0.24363117 -0.20919947 0.29567048 -0.109420225 -0.36497083 0.1791815 0.7311258 -0.49930266 -0.23530078 -0.6430296 -0.21520108
972 0.13259624 0.5683163 -0.07469425 0.20011334 0.22730799 -0.16834112 0.010390418 0.4038541 -0.23546758 -0.63519657 0.35493267 -0.131011 -0.371432 -0.021453174 -0.04994486 0.5830734
328 0.23048663 0.44000542 0.014254759 0.39160097 -0.40367714 -0.3870349 -0.19609725 -0.046315495 -0.3277825 -0.72184306 0.5686596 -0.44879553 -0.50366265 -0.17445396 0.030000214 0.56184006
2289 -0.061723374 0.14697763 -0.38020682 -0.03919948 0.5886548 -0.22718523 0.13444011 0.040222276 -0.21172982 -0.47723204 -0.09182095 0.70986074 -0.49315268 -0.20611723 -0.14952755 0.05125248
2202 0.53857315 0.43719256 -0.1272275 0.4186435 -0.22165395 -0.38648838 0.012132419 -0.20016246 -0.17791855 -0.72740024 0.66777176 -0.20114668 -0.25546888 -0.12768653 0.2638269 0.46731493
571 0.06664672 0.110399894 -0.06309908 -0.09632049 0.09959959 -0.39720675 0.2038793 0.4251372 -0.29898548 -0.14331277 0.13301769 0.6434679 -0.6780687 -0.1553303 -0.26891908 -0.29607505
246 0.17073683 0.77175355 -0.06098612 0.14922054 -0.5127273 -0.13382997 -0.18898134 -0.138608 -0.39627162 -0.7200373 0.50767213 -0.29662696 -0.30859923 -0.26581678 0.1483923 0.39622098
2413 -0.12976618 0.21306525 -0.2301805 -0.065375224 0.6227406 -0.24461965 0.23595522 0.13021357 -0.24813893 -0.49159572 -0.0076359063 0.61924654 -0.45570707 -0.30902526 -0.22214551 -0.06546196
1963 -0.0200378 0.08942791 0.035695132 0.120104335 0.24823566 -0.5426815 -0.06437087 0.5105545 -0.033598 -0.19109143 0.24102215 0.6616403 -0.63612163 -0.1974195 -0.35497835 -0.24347629
2453 -0.24099906 0.30521235 0.1707083 0.22259049 -0.2109388 -0.6149627 -0.57602 -0.0046742447 -0.1358208 -0.8998708 0.69986653 -0.019618014 -0.11405546 -0.10092055 -0.1654414 0.22919212
1494 -0.35406837 0.2814403 -0.32327774 0.34492365 0.117298245 -0.2716894 -0.05222752 0.47055438 0.009796189 -0.6278695 0.010232227 0.4438608 -0.37024722 -0.26865363 -0.29191932 -0.29692823
1006 -0.065172814 0.26146677 -0.27387562 -0.18310855 0.30282924 -0.45644498 0.14285728 0.29876763 -0.10186014 -0.27958125 0.03406354 0.69850415 -0.5452705 -0.26199552 -0.31790122 -0.09591092
610 0.15601291 0.21915904 -0.2581935 -0.14609654 0.21388417 0.03704691 -0.0627283 0.2524972 -0.102290876 -0.3280584 -0.2208959 0.67985713 -0.8818929 -0.13860156 -0.17288938 -0.16513446
1456 0.084798366 0.36787122 -0.15114212 -0.029538367 0.4801938 -0.16181181 -0.054045938 0.19568524 -0.19579315 -0.3848243 -0.0032813365 0.4730651 -0.46127883 -0.10188941 -0.23121682 0.008189588
1451 -0.03889609 0.39187792 -0.29923347 0.5389141 -0.35034952 -0.3318971 -0.08007927 0.020449366 -0.22678404 -0.6961106 0.500866 -0.4562756 -0.3528326 -0.55325234 0.1397557 0.17190659
2185 -0.0023298198 0.28292236 -0.27654684 -0.16279434 0.39250672 0.13212425 -0.07727375 0.17634661 -0.20620416 -0.5026846 -0.072545685 0.64806336 -0.6149885 -0.044314027 -0.36891624 -0.05725633
2549 0.18841502 0.74224186 -0.18443672 -0.12796429 -0.2765771 -0.5794373 -0.07440039 -0.20909932 -0.09993423 -0.72661376 0.3298639 -0.4480477 -0.324368 -0.3810891 0.18554084 0.37859306
645 -0.008909664 0.16366434 -0.62888235 0.1351854 -0.066020936 -0.22209056 -0.03430417 0.052035578 -0.39090633 -0.33558923 0.08234241 0.7254971 -0.19834189 -0.6774437 -0.07474972 -0.43040273
2175 0.10163473 0.70287937 0.041538462 0.013080859 -0.5204862 -0.24708413 -0.17670164 -0.11311939 -0.33970258 -0.7147186 0.037207734 -0.27934775 -0.50719875 -0.15533379 0.06714271 0.40311173
783 0.15715964 0.34384128 -0.38245946 -0.24710536 0.5872693 -0.13009827 0.057153113 0.1367241 0.019489015 -0.3639291 0.048885934 0.7511838 -0.54682374 -0.20537212 -0.10571394 0.12672642
942 0.23757854 0.4913016 -0.38213238 -0.14859034 0.04638723 -0.45799518 -0.22240464 0.3620996 0.049039293 -0.11710431 0.12243646 0.35142353 -0.48660752 -0.7401995 0.2699028 -0.34698087
1345 0.009939295 -0.14523849 -0.28021654 0.061777625 0.027713604 -0.42615733 0.38323838 0.36425343 0.10257665 -0.17130907 0.2675584 0.7111482 -0.8627909 -0.0025703863 -0.17320576 -0.09288993
352 -0.09294709 -0.055323422 -0.38876683 0.27900618 0.33744496 -0.287107 0.25246653 0.1935446 -0.40376943 -0.18627106 0.078484304 0.32727602 -0.6000585 -0.76044905 -0.114258334 -0.3440179
210 0.02093743 0.30772042 -0.30589214 -0.050467864 0.62075496 -0.2073995 0.14055203 0.25944063 -0.24160592 -0.28855634 0.13164903 0.595184 -0.41447416 -0.17797711 -0.25111136 -0.08398998
461 -0.09044793 0.15766262 -0.062347706 0.10341449 0.3766046 -0.5325921 -0.13432898 0.47392124 -0.004337043 -0.3884372 0.07739037 0.50735825 -0.5735492 -0.009328164 -0.3514475 -0.16135049
1637 0.18086116 0.4920061 0.1489132 0.27010268 -0.2871959 -0.35598266 -0.28209928 -0.05096359 -0.4341379 -0.7123579 0.7465795 -0.43373936 -0.4278962 -0.16061081 0.114134155 0.50763524
225 0.24169128 0.07317599 -0.17251043 -0.106227554 0.28689617 -0.08508763 -0.096425466 0.4286352 -0.19305885 -0.10779023 0.06019754 0.5564706 -0.9435809 -0.13543683 -0.24938956 -0.21985435
1507 0.121793576 0.42939946 -0.21491891 0.44352382 -0.31233037 -0.20055726 -0.14944664 0.13099398 -0.2095794 -0.7398763 0.38105038 -0.10279348 -0.31783083 -0.4488532 0.47373724 0.04258996
1757 0.046420183 -0.0041292445 -0.35580808 0.13508761 0.15889739 -0.38579023 -0.3828727 0.03442627 0.10647953 -0.24212022 0.16953105 0.9089809 -0.547622 -0.3877223 -0.33678716 -0.21871403
1761 -0.052002035 0.20600376 -0.100414105 0.004289714 0.21935843 -0.50943667 -0.09685053 0.34581497 -0.010328129 -0.34305507 -0.00060519273 0.6899031 -0.5553651 -0.27362445 -0.5346092 -0.28568205
2353 0.23582274 0.49254638 0.114713326 0.21704823 -0.17112799 -0.5257318 -0.14651802 -0.19247058 -0.21157543 -0.8500375 0.254356 -0.25266814 -0.34773836 -0.16895251 0.096744694 0.4606129
1138 0.027874961 0.30165035 -0.043805882 0.33850133 0.31030202 -0.19135623 0.16502136 -0.04942458 -0.03184994 -0.22929652 -0.17775938 0.9009985 -0.60090315 -0.3571232 -0.19964793 -0.035321653
2557 0.18247184 0.5782898 -0.1261608 0.12512405 -0.34586653 -0.31902713 -0.03873986 0.021240868 -0.26510245 -0.6663457 0.70958513 -0.58304894 -0.47055215 -0.35337856 0.05168759 0.4479194
1050 0.19842422 0.19846183 -0.12915604 -0.4476791 0.0959138 -0.3851696 0.014520428 0.25669995 -0.4443388 -0.46982244 0.009902616 0.3319662 -0.484106 -0.26787558 -0.3310793 -0.14362231
1829 -0.25193268 0.23897783 -0.5210942 -0.18824641 0.2868129 0.2744979 -0.5751248 -0.45612454 -0.3050517 0.099377826 0.22511476 0.5856022 -0.71762264 -0.1518809 -0.15023494 -0.25029272
73 -0.0421645 0.20705654 0.03656594 -0.11713143 0.22478324 -0.08725833 0.09366824 0.098385036 -0.13760607 -0.3735478 -0.15413071 0.7527461 -0.81164837 -0.27408335 -0.309896 -0.10138583
1515 0.022655193 0.14289626 -0.09955074 -0.27933466 0.17942396 -0.50521624 -0.10988557 0.018084563 -0.23242627 -0.2985755 -0.25590605 0.5345811 -0.7332659 -0.29398957 -0.3378509 0.017845582
1988 -0.007846729 0.123108484 -0.06858915 -0.0017335933 0.21097037 0.11992749 -0.07686093 0.24305595 -0.20895478 -0.3525224 -0.17719917 0.41361922 -0.98252934 -0.2787436 -0.47725952 -0.10189466
222 -0.15542622 0.3462355 -0.33653477 0.007735824 0.17157714 0.20246428 -0.10147074 0.28328842 -0.2584245 -0.34905553 -0.1011185 0.82416326 -0.6428313 -0.20938453 -0.29596046 -0.17258102
2059 0.06289566 0.1290415 -0.40644035 -0.24131484 0.21700263 0.08528724 -0.05755501 0.05276352 -0.26790482 -0.4826679 -0.09492668 0.7974074 -0.63503873 -0.21405594 -0.3448276 -0.1735871
821 0.26615465 0.6338666 0.18402562 0.25918785 -0.3739626 -0.26424143 -0.31281492 0.01842822 -0.36912262 -0.78574353 0.68122786 -0.17143531 -0.34297478 -0.14606728 0.41203946 0.4217336
390 0.19134206 0.58488345 0.36893493 -0.0043271524 -0.3755102 -0.619733 -0.23045972 0.03963903 -0.23422046 -0.4707957 0.50452584 0.09252274 -0.40496767 -0.3697263 0.46050143 0.32598233
140 0.13217384 0.24529685 -0.14072986 -0.032411363 0.35710004 -0.3117428 -0.19107488 0.21073525 -0.30011436 -0.09967051 -0.19505768 0.421514 -0.7377871 -0.4296611 -0.3490583 -0.1909751
1576 0.123322286 0.55020666 0.09593029 0.15460083 -0.010121982 -0.16335653 0.010286456 0.11492714 -0.4574648 -0.41245952 0.42249042 -0.26848492 -0.44923967 -0.00768048 0.06061548 0.3097494
1606 -0.052017376 0.2637871 -0.12170602 -0.15927021 0.26642793 -0.37700897 0.1373356 0.2019837 -0.11610887 -0.48463368 -0.09701389 0.6267422 -0.5478646 -0.30534947 -0.32649487 -0.045480024
357 -0.07588156 0.1355086 -0.097311884 -0.07275792 0.15519433 -0.4921214 0.13911517 0.44927645 -0.09131142 -0.048816506 0.16424441 0.5273201 -0.8047662 -0.35509133 -0.20246892 -0.07809625
54 0.21172863 0.35649693 -0.21968651 0.17073591 0.26215053 -0.24781461 0.25157845 0.32069793 -0.13608664 -0.7060031 0.38975787 -0.047779363 -0.36103085 -0.01199638 -0.020325746 0.5429104
1781 0.21784957 0.5300048 0.0747551 0.20231949 -0.3297357 -0.31844553 -0.09323941 0.15876085 -0.40365952 -0.6480898 0.4548111 -0.44789276 -0.59589994 -0.30258182 0.13674836 0.53183866
1670 0.23210959 0.44000947 -0.003551869 0.32435676 -0.2097799 -0.25678015 -0.013032213 -0.15830694 -0.48522305 -0.6734924 0.581323 -0.44989216 -0.4129699 -0.3693666 0.062312733 0.5150484
354 0.081742465 0.3323066 -0.032758974 -0.09073353 0.18474354 -0.10562564 -0.09031055 -0.22562587 -0.0476787 -0.31791928 -0.0841426 0.9059651 -0.61480016 -0.49973193 -0.1449745 0.25276282
1826 0.46961948 0.30871287 -0.056700572 0.40767613 -0.086588874 -0.11541474 -0.63310313 -0.09341241 -0.56856054 -0.4191771 0.61415476 -0.39693052 -0.47669718 -0.4527267 0.06672049 0.36723125
2326 -0.027449347 0.16059297 -0.16089134 -0.05885442 0.15248747 -0.24946201 0.17308316 0.15295933 -0.20497167 -0.46836275 -0.1800466 0.74483377 -0.62192434 -0.3272737 -0.35177618 -0.075301945
1447 0.2314172 0.21862856 -0.14484611 0.1895168 0.3548346 -0.3135506 -0.05483367 0.20005582 -0.21392173 -0.19297864 -0.13251103 0.5718753 -0.62001425 -0.31132314 -0.027776036 -0.10236229
185 0.24735563 0.6476118 0.020152748 0.36390018 -0.5848232 -0.312452 -0.22240168 -0.0556428 -0.34306425 -0.7678634 0.51307106 -0.19348602 -0.27584434 -0.041986767 0.14345121 0.38079536
1048 0.241905 0.31025508 0.04408469 0.35146505 -0.31760433 -0.36046144 -0.015852286 -0.23956238 -0.098637395 -0.8893236 0.6682956 -0.26584518 -0.47042963 -0.036279593 0.1899609 0.5192354
98 0.24139974 0.71153504 -0.0021432634 0.30326906 -0.5511554 -0.119209625 -0.31121036 0.08349089 -0.18974961 -0.6753602 0.66645175 -0.2827162 -0.5120526 -0.12832671 0.35223433 0.42996418
330 -0.0387205 0.18770808 -0.2916424 -0.50276846 0.10919396 0.029820343 -0.20519423 -0.0075466903 -0.5431244 -0.42896858 -0.1753427 0.68467915 -0.6455307 -0.19285274 -0.4703781 -0.16483602
2432 -0.18347429 0.12595297 -0.181337 -0.2662833 0.09501752 -0.28593048 0.23493129 0.24928468 -0.17363754 -0.17351365 0.13730538 0.61534286 -0.795366 -0.4406141 -0.2677673 -0.07479652
336 0.0060312594 0.22367294 -0.18367821 0.11675227 0.5789277 -0.3304189 -0.3038426 0.35299203 0.26762596 -0.35871252 0.26145193 0.65124613 -0.54951406 -0.092190504 -0.19729061 -0.11183778
811 -0.11970337 0.33411717 -0.17670079 -0.16374421 0.2627922 -0.23158106 0.18252198 0.2649916 -0.20070152 -0.45465693 -0.028211785 0.8615872 -0.4604557 -0.2505165 -0.28040135 -0.17751318
2228 0.35749617 0.14855336 -0.3523524 -0.4156696 0.011759192 -0.5096807 -0.26233676 0.1621931 -0.41341436 -0.41621536 -0.06823185 0.40725362 -0.40270522 -0.37428528 -0.3481073 -0.27691257
2132 -0.038504794 0.050969332 -0.14041744 -0.05470312 0.21252063 -0.22431786 0.26063067 -0.12560359 -0.27284175 -0.38483962 -0.23278844 0.8539002 -0.6892743 -0.4373933 -0.44137716 -0.080433354
912 -0.1793302 0.26743254 -0.46560568 0.03658882 0.40419862 -0.3716848 -0.35751656 0.2261297 0.05187415 -0.3253651 0.36830905 0.79380435 -0.23693578 -0.32708633 -0.38093618 -0.0727711
996 0.17515841 0.5328155 -0.14750816 0.4431587 -0.49805763 -0.5188268 0.12222124 0.08039929 -0.2408413 -0.7616577 0.54629534 -0.43365043 -0.30974323 -0.16989727 -0.068191364 0.43370864
1344 -0.10384463 0.34624252 -0.0019009269 -0.057279456 0.57046586 -0.11737993 0.20773597 0.10596495 -0.094206534 -0.37951013 0.042597305 0.5459502 -0.5919218 -0.31312048 -0.2815299 0.05409845
2186 0.20914218 0.36286446 -0.06769429 0.1633775 -0.04953718 -0.2014233 0.19350824 0.24179904 -0.26367941 -0.6020674 0.5711968 0.016171591 -0.35731652 -0.1406443 0.07581373 0.39308074
1941 0.04795185 0.29409534 -0.23942259 0.44251 -0.3172025 0.038118917 -0.15905723 0.16614933 -0.41602635 -0.7674134 0.4234305 -0.18999551 -0.4035674 -0.47146973 0.3633253 -0.0063041747
859 0.2238347 0.69990486 -0.06012191 0.2289226 -0.39777315 -0.42447948 -0.12934172 0.1511866 -0.18790953 -0.5416504 0.44656643 -0.5156679 -0.59652156 -0.13009499 0.26218113 0.48348758
966 -0.061118104 0.34904617 -0.22869496 -0.00018151836 0.44185072 -0.2161627 0.053654548 0.35018566 -0.14823706 -0.4648121 -0.0357466 0.7161741 -0.41966438 -0.19781184 -0.20292167 -0.27617517
1210 0.21051699 0.7702007 0.09808696 0.28646526 -0.41250342 -0.1821023 -0.2775426 0.08265551 -0.14793332 -0.81587934 0.54039603 -0.07812892 -0.40719646 -0.026159873 0.5701051 0.4797532
2089 0.28737205 0.6651273 0.09636561 0.27240768 -0.29043078 -0.31823063 -0.35129368 -0.013407688 -0.24699178 -0.7146996 0.59088606 -0.063056976 -0.21690719 -0.16027671 0.3259989 0.36030278
1717 -0.12390196 0.023497885 -0.3238373 0.16026425 0.100074604 -0.20385751 -0.2974147 0.2819901 -0.10359335 -0.24633968 0.12390711 0.64386165 -0.65060186 -0.22479537 -0.6148373 -0.257131
2590 0.035739485 0.34570158 -0.22526771 0.05144284 -0.55186486 -0.63971335 -0.1874882 0.10111529 -0.19964619 -0.98601216 0.14449291 -0.32134017 -0.36093014 -0.2987014 0.4589079 -0.19440657
2440 0.14494711 0.3205399 -0.3317166 -0.0022303215 0.3695195 -0.28341645 0.17641553 0.35015544 -0.16207877 -0.38429993 -0.12909289 0.7378745 -0.45393202 -0.17798273 -0.22217385 -0.1603537
1172 0.18038428 0.05296295 -0.1422604 0.10748175 0.32624927 -0.1146216 -0.5199201 0.30435163 0.22248398 -0.28093487 0.07699088 0.71041095 -0.9179102 -0.22330673 -0.1263299 -0.21526939
1904 -0.13516434 0.16370957 0.08421225 -0.071576275 0.27965242 -0.31245854 0.18148892 -0.0011166052 -0.27205154 -0.2419812 -0.0062503396 0.8736081 -0.6511386 -0.5938257 -0.30995467 -0.11954952
1179 0.3908941 0.19635448 -0.372859 -0.10280385 0.2690871 -0.06386182 -0.42623016 0.10984482 -0.11588374 -0.13497552 -0.1860731 0.7178264 -0.8639207 -0.4007935 0.1344273 -0.026772274
1969 0.30048633 0.606859 0.029417634 0.24806747 -0.43809587 -0.19644631 -0.12900701 0.0048788 -0.42222905 -0.6658223 0.5819118 -0.2598187 -0.43574172 -0.14336734 0.19340108 0.5456935
883 0.15977775 0.5552899 -0.10740763 0.3776938 -0.21805298 -0.38504696 -0.12222378 -0.31681743 -0.2974594 -0.7513931 0.42386633 -0.4711239 -0.2957745 -0.12466769 0.31640348 0.21881525
271 -0.046522588 0.6140128 -0.06868094 0.11020892 0.2122569 -0.21821555 0.027252898 0.24117948 -0.26965424 -0.877126 0.41282025 -0.05127362 -0.19226208 -0.023090418 0.25137725 0.51767224
1276 0.25164416 -0.012419172 -0.09600605 -0.29996404 0.15311193 -0.04017221 -0.09007669 0.076156944 -0.26891088 -0.4281939 -0.3122593 0.47547612 -1.0275834 -0.27359936 -0.32892206 -0.1797595
85 -0.118668735 0.14863504 0.25592417 0.2242541 0.18979676 -0.40133223 0.26531798 -0.040917497 -0.044776946 -0.08772792 -0.06656418 0.8574905 -0.84186596 -0.59706753 -0.2092215 -0.038990326
861 -0.0766517 0.33023924 0.095150374 0.011897676 0.21002704 -0.36010188 0.31294677 -0.042023327 -0.2845048 -0.2720353 -0.13102977 1.0550953 -0.49541843 -0.3370923 -0.21967715 0.10956563
1621 -0.12707597 0.08674696 -0.4109668 -0.045421787 0.28171906 -0.49416015 -0.34842247 0.13603407 -0.20641355 -0.23599295 0.022646224 0.6425081 -0.4605433 0.09019264 -0.32495993 -0.49448994
340 0.030513896 0.3216538 -0.33049577 0.10546424 0.55418086 -0.12135275 0.31375858 0.32445872 -0.32863855 -0.29904872 0.32114995 0.7076076 -0.21543923 -0.2509368 -0.28332946 -0.16924047
243 0.20690353 0.6189898 0.018523343 0.2823385 -0.36244214 -0.20150879 0.30464694 0.23978792 -0.53315544 -0.552654 0.6234865 -0.16777618 -0.26152533 -0.27407694 -0.11550169 0.5463321
1872 0.28573295 0.37499177 -0.008957408 -0.042988304 -0.25046262 -0.18542561 0.058895167 0.24066406 -0.39751288 -0.54394716 0.48503238 -0.09739309 -0.50804216 -0.20398888 0.026725074 0.3692427
530 0.35316524 0.37482888 -0.1284695 0.11496178 -0.25871134 -0.120978504 0.16170284 -0.05880856 -0.323902 -0.70030445 0.7715406 -0.27640188 -0.45099485 -0.2089682 0.15900882 0.5601295
2166 0.37904382 0.55448824 -0.15207224 0.40626276 0.280368 -0.080742195 0.13092609 0.3044875 -0.10299666 -0.7251765 0.4132071 0.057907596 -0.21970478 0.13984966 0.04307643 0.54421335
2355 -0.034385312 0.5801515 -0.26966348 0.42719862 -0.5811187 -0.10759474 -0.26102012 -0.09923385 0.10098596 -0.8577535 0.4346273 0.023850141 -0.27224317 -0.44372097 0.5406724 -0.021865992
2387 0.40009916 0.3919453 -0.087043256 0.34518173 -0.23113208 -0.4340925 -0.12344073 -0.045873117 -0.28127852 -0.743017 0.6501177 -0.530657 -0.45468265 -0.29968604 0.15920702 0.44201088
2370 0.090731144 0.6366993 -0.16332206 0.2318222 0.2578955 -0.17441094 0.105469674 0.4717018 -0.36214286 -0.5912776 0.39006427 -0.088273086 -0.26190966 -0.119883806 0.09417318 0.55986446
1710 0.2900894 0.62532264 -0.101645954 0.4437336 -0.31448352 -0.07631459 0.04820267 0.12628803 -0.14110911 -0.6641356 0.38781944 0.031498823 -0.06533866 -0.37587208 0.18634193 -0.42071268
441 -0.019521927 0.06579812 -0.0737514 -0.07059385 0.15539412 -0.44331056 0.08010855 0.4473184 -0.15844281 -0.11098478 0.041727405 0.692364 -0.85316634 -0.106911875 -0.24537037 -0.24848159
995 0.06713441 0.40448564 -0.43939131 -0.18582647 0.6236015 -0.015982125 -0.015189449 0.14231518 -0.072207466 -0.47614548 0.07394 0.57204145 -0.4435679 -0.17107281 0.08317077 0.17775992
1147 0.055140164 0.2431673 -0.20472032 -0.1975596 0.24942228 -0.2879096 -0.037520073 0.29023895 -0.18204296 -0.14589067 0.06960965 0.67832345 -0.64745486 -0.29532918 -0.30564204 -0.20167856
1819 0.4599236 0.5383259 -0.13388352 0.40989974 -0.24803725 -0.44618922 -0.17493328 0.06660615 -0.36284342 -0.79308546 0.40945938 -0.42514107 -0.30198893 -0.057463344 0.15341571 0.4398741
180 0.2884632 0.5385957 -0.072284564 0.39629722 -0.48698857 -0.22824363 -0.11586738 0.051121593 -0.22749542 -0.64788944 0.6048273 -0.31631926 -0.46423513 -0.17513457 0.11260707 0.45601985
1555 0.095606506 0.1723043 -0.2808014 -0.13495351 0.43423012 -0.1378513 -0.046497397 0.13079382 -0.26092038 -0.3356907 0.1657388 0.54281 -0.47500473 -0.34191924 -0.32401696 -0.18303336
343 0.40515354 0.18391109 -0.15926048 -0.13736348 0.17363662 -0.23179665 0.19969127 0.36119518 -0.11150786 -0.24360861 -0.21230178 0.65822387 -0.8769862 -0.12002894 -0.090973355 -0.17987746
132 0.22352925 0.60280186 0.1298018 0.14828585 -0.33385667 -0.2698234 -0.1265275 0.09497475 -0.47136918 -0.75753236 0.49291 -0.4577945 -0.48044503 -0.2747395 0.17526403 0.36864084
1286 0.57834905 0.50667167 0.17615075 0.21540914 -0.23869932 -0.43808857 -0.36871147 -0.022631226 -0.36604095 -0.384064 0.30018404 0.0011255792 -0.39893267 -0.21625441 0.20797545 0.34446302
1085 0.3990426 0.27896047 0.021208156 0.24542774 -0.21961734 -0.24910708 1.6020891e-05 -0.3106073 -0.37465164 -0.7188622 0.5988495 -0.08506667 -0.35097963 -0.15517418 0.18881673 0.5032603
1224 -0.12925313 0.09711677 -0.5776609 0.1960523 -0.12756625 -0.116882525 0.094709784 0.4996015 -0.35443074 -0.45068923 0.052794714 0.3888814 -0.46852025 -0.39614022 -0.14367507 -0.52563035
1688 0.46908304 0.49087656 -0.11423356 0.3789065 -0.21702713 -0.33413953 -0.34602636 -0.19146255 -0.39370772 -0.7273205 0.6388085 -0.31400183 -0.2899268 -0.26244283 0.29933187 0.49327552
566 0.37196788 0.47755408 0.33320227 0.05912483 -0.08588246 0.028810414 0.14675029 -0.11464019 -0.2286497 -0.7180816 0.33924583 -0.03468497 -0.34027937 -0.22420599 -0.3339482 -0.08379471
1381 0.1675547 0.6982756 0.17130803 0.17837694 -0.4481619 -0.30296412 0.0004834365 0.06983928 -0.48291036 -0.6864636 0.5892256 -0.35998404 -0.4118017 -0.21261741 0.24520601 0.41794208
1609 0.23248208 0.5421539 0.22171433 0.15064196 -0.38239723 -0.27611968 -0.0981812 -0.037991207 -0.48013836 -0.8735932 0.6836823 -0.25935844 -0.28400713 -0.14633012 0.21350205 0.2912916
380 0.54848236 0.030544974 -0.16591023 -0.037170064 -0.0032513475 -0.18942326 -0.055585384 -0.13264488 -0.3731097 -0.2811277 0.394468 -0.08055025 -0.6767264 -0.31394634 0.272067 0.16451646
1101 0.26937917 0.39887622 -0.7734758 -0.007926675 0.102349125 -0.55781597 -0.36782497 0.22547631 0.2536104 -0.1662529 0.09610953 0.5983673 -0.28562024 -0.29745862 -0.7848793 -0.07609698
1935 0.2724331 0.18937032 0.09410347 0.031897694 -0.19671963 -0.4625374 -0.021295605 0.06284245 -0.05913563 -0.6062795 0.40024027 0.23144014 -0.47037795 0.043587245 0.27581966 0.19148445
668 0.23043144 0.32930034 0.019794066 0.3639818 -0.12034544 -0.52987885 0.026093958 -0.25881946 -0.15025885 -0.94808567 0.76178694 -0.31512362 -0.29663143 -0.10863831 0.28541407 0.49969625
1840 -0.024474531 0.18245116 -0.11825587 -0.0034496458 0.42703965 -0.48384342 -0.38813266 0.30826345 -0.016380966 -0.2629632 0.13654687 0.47613737 -0.5374227 -0.2461187 -0.48550686 -0.3418401
1001 0.3225924 0.1968082 -0.04733827 -0.17347492 0.3818569 0.2680444 -0.13486846 -0.021115143 -0.2648014 -0.45716375 0.06512222 0.47987753 -0.62086564 -0.16537705 -0.50774294 -0.43923128
1297 -0.2765579 0.032643966 -0.2716119 0.35533306 0.05507381 -0.3676654 -0.12727444 0.34772396 -0.029597837 -0.5035191 0.2017822 0.4320974 -0.436019 -0.36809236 -0.1899208 -0.45503333
980 0.27821392 0.2823221 -0.26798853 0.16994733 0.38426018 0.052288353 -0.44149303 0.0642495 -0.6041231 0.072696134 -0.0107419565 0.4265504 -0.5939932 -0.36760503 -0.24171633 8.758234e-06
186 0.2777945 0.76298064 0.11710492 0.36453608 -0.37950787 -0.43034926 -0.018535433 0.105040394 0.018461097 -0.5220849 0.59349084 -0.17703636 -0.31583 -0.40814143 0.081969395 0.3366281
1750 -0.0782069 0.135836 0.07971042 0.05273759 0.14078808 -0.50239235 -0.17182237 0.07016869 -0.20548148 -0.4579896 -0.005503038 0.9479028 -0.40229794 -0.1736345 -0.47358418 -0.030009665
240 0.35380346 0.24185757 0.0011691959 0.33351043 -0.15361238 -0.36581987 0.171389 -0.18237484 -0.48981574 -0.92729187 0.59046775 -0.31859908 -0.30069235 -0.067001775 0.13502155 0.46837127
758 -0.0016546078 0.1400302 -0.15442866 -0.20854819 0.23449895 -0.28409877 0.029391803 0.38258547 -0.20204687 -0.12046499 0.2429965 0.60762906 -0.7272037 -0.41101116 -0.23137641 -0.23520246
561 -0.12353678 0.1468327 -0.05142402 -0.042813875 0.1274497 -0.5992903 -0.27938896 0.026110543 0.03304062 -0.50293916 -0.14653501 0.83378816 -0.5216682 -0.2848148 -0.5313848 -0.09288702
1030 0.39957875 0.6494537 -0.18498299 -0.02027842 -0.46625006 -0.2417324 -0.3033017 0.03772526 -0.2332319 -0.88845056 0.39077783 -0.26468906 -0.3320031 -0.19465788 0.08651495 0.35765645
189 -0.11004044 0.046321932 -0.064214624 0.31087115 0.06490056 -0.58202994 -0.1795111 0.3183056 0.022271167 -0.29209054 0.15993093 0.7898705 -0.5271562 -0.21149027 -0.33850726 -0.19453152
2226 0.3322207 0.2589242 -0.05319623 0.3975042 -0.26176447 -0.33491808 0.17845526 -0.12797233 -0.4591096 -0.86866784 0.5900663 -0.42304757 -0.41648716 -0.041983806 -0.01660733 0.555468
2358 0.37126377 0.39439788 -0.15590973 0.25506017 -0.12102054 -0.22457792 0.24413262 -0.117473334 -0.14604127 -0.87143755 0.58458877 -0.43730298 -0.45805332 -0.12140044 0.08067989 0.5845997
764 -0.097694404 0.33030987 -0.52474856 -0.1450948 0.11612357 -0.11553368 0.11996294 0.38611197 0.099409744 -0.42013574 0.3475063 0.46681768 -0.48583534 -0.6101741 0.34964862 -0.3120642
59 0.27255282 0.32155925 0.07566182 0.26770535 -0.25331318 -0.45160946 0.1450529 -0.29950324 -0.015183841 -0.8947801 0.7761653 -0.11251919 -0.26750302 -0.13318552 0.10627664 0.42143807
2102 -0.11924556 0.23003627 0.17811711 0.09828851 0.11021819 -0.5060072 0.1353754 0.03755296 -0.034470264 -0.17844254 -0.13414298 0.85416114 -0.75002056 -0.5885597 -0.20720296 0.061699912
1549 0.16577107 0.38196915 -0.2970989 -0.21056163 0.21238674 -0.41318625 0.098318756 0.49304014 -0.1682365 -0.10424071 0.09886427 0.24723478 -0.57671875 -0.3617287 -0.27608886 -0.26632357
371 0.38430217 0.4395646 -0.12352626 0.44873083 -0.13657926 -0.56704533 -0.0053406777 -0.02752916 -0.33357033 -0.61897725 0.6018102 -0.5938705 -0.38770992 -0.3189061 0.06820561 0.49628946
1351 0.12475769 0.39182192 -0.32593212 -0.20023304 0.48561716 -0.13130915 -0.09820667 -0.01129637 -0.28622007 -0.43649688 -0.16411802 0.7854169 -0.3817033 -0.33504757 -0.27576813 0.038862135
539 0.17042269 0.52669054 -0.14648998 0.13633458 -0.19629522 -0.33608902 -0.26329735 -0.043696888 -0.30157414 -0.78479266 0.7216318 -0.4273992 -0.32082823 -0.21560116 0.16692843 0.46474767
660 -0.13736868 0.36085185 -0.14317368 -0.12453713 0.5606709 -0.3386237 0.104559265 0.035394646 0.009102932 -0.40034655 -0.08962876 0.5297733 -0.5336049 -0.5041283 -0.46766615 0.029011304
927 0.30434427 0.80756205 0.014578139 0.43526343 -0.35348752 -0.36087212 -0.15688662 0.0030905746 -0.40361398 -0.5562235 0.580744 -0.24959071 -0.17497405 -0.20275027 0.053433 0.50765246
1756 -0.060033772 0.1599953 0.151863 0.09436554 0.31694824 -0.33865106 0.3226327 0.040817294 -0.29616475 -0.19742222 0.06355164 0.8541379 -0.60041666 -0.41167226 -0.15105402 -0.014166146
1333 -0.029772272 0.15817095 -0.17946386 -0.23064701 0.0911446 0.07021009 -0.21949486 0.15334134 -0.3521371 -0.32422972 0.046083473 0.8171661 -0.678313 -0.1647646 -0.39716157 -0.26222178
2354 0.09580107 0.20372346 -0.38858226 -0.23036164 0.51741034 -0.22142029 0.014415038 0.4365534 -0.28591582 -0.27589837 0.3384546 0.5766378 -0.45468158 -0.24227637 -0.24453 -0.10630309
443 0.28545097 0.46423 -0.025704972 0.37959012 -0.39724883 -0.2933164 -0.25529754 -0.07119661 -0.16175994 -0.7802314 0.7563366 -0.33170307 -0.36631325 -0.20192197 -0.029866934 0.44074422
548 0.10560321 0.62073606 0.111940905 0.31411496 -0.35439765 -0.33267355 -0.07300562 -0.119 -0.4926153 -0.5520122 0.59632576 -0.4763102 -0.4454697 -0.30543274 0.03619665 0.5780687
2053 0.20952368 0.6089669 0.02317437 0.27705577 -0.2419306 -0.37200332 -0.013699398 0.118218616 -0.42205754 -0.62686044 0.5449443 -0.43032372 -0.35911408 -0.26731622 0.06072969 0.42074865
1453 0.31041813 0.4497025 -0.20143665 0.20542738 -0.5910459 -0.36779106 -0.12377487 -0.04327432 -0.21577086 -0.7471497 0.36466622 -0.16840877 -0.38136983 -0.18374372 0.13928205 0.37160006
99 0.3450201 0.37123156 0.015453566 0.24409305 -0.21049893 -0.19155772 0.27057588 0.20675278 -0.26068324 -0.5837399 0.58194077 -0.17573927 -0.46107683 -0.064881235 -0.07056469 0.4337184
2445 -0.20232736 0.35142612 -0.46034515 0.12957373 0.6021403 -0.48516533 -0.07683372 -0.1543321 -0.38936025 0.088224895 -0.38321826 0.3591491 -0.6702835 0.46831945 -0.23398568 -0.1177236
2555 -0.1524277 0.41356874 -0.12357723 0.30886123 0.09031807 -0.22925687 -0.0823222 0.091267265 0.16673185 -0.41131416 -0.2342655 0.66281796 -0.5844939 -0.7920545 0.25053126 -0.41260102
1998 -0.16127586 0.19480611 -0.5929229 -0.4505596 0.4123737 -0.06394128 -0.10608509 -0.3268453 -0.47486264 -0.052050043 0.22280559 0.49961275 -0.47126752 0.024759617 -0.116620064 -0.4619235
2479 0.20112306 0.62065655 0.016537331 0.27500734 -0.24684104 -0.19035703 0.043817967 0.010028234 -0.39382184 -0.658986 0.42974928 -0.1843621 -0.32596526 -0.2375278 0.0025211086 0.584492
1432 -0.057515107 0.14891544 -0.2409471 0.43366057 0.09476911 -0.19467805 0.1394711 0.40201098 -0.060301464 -0.31544098 0.038973317 0.44741973 -0.64478934 -0.6493776 0.07705014 -0.39447528
2416 0.29037637 0.42718655 0.020227809 0.34358594 -0.23786154 -0.39313406 -0.1583519 -0.09484098 -0.23358226 -0.7480451 0.6479931 -0.38621593 -0.34529135 -0.42169252 -0.0056209275 0.3756665
1094 -0.08921495 0.20806427 -0.20883593 0.11905591 0.502383 -0.49640346 -0.101652585 0.45765787 -0.00046079897 -0.5120843 0.16903901 0.7141003 -0.32976687 0.054577354 -0.37671566 -0.20582049
1824 0.07099026 0.19425908 -0.27159134 0.07002002 0.14587079 0.21443363 -0.18176533 0.28031802 -0.26681155 -0.34156886 -0.31646156 0.61692184 -0.90845436 -0.114924654 -0.55445915 -0.09301583
2139 0.36422718 0.32042518 -0.06819924 0.36585885 0.0704715 -0.26743793 -0.08741484 0.1881077 -0.46107602 -0.5254339 0.24492417 -0.08212147 -0.3176285 -0.1988398 -0.19108027 0.31020117
1021 0.13653275 0.25020197 -0.17526516 0.24517915 0.4090781 -0.4173649 -0.32251495 0.3950552 0.13105045 -0.3535375 -0.10151018 0.8920631 -0.5439709 0.050559595 -0.24814978 -0.18786637
1581 0.31815007 0.4121545 0.0001771473 0.35072854 -0.18020631 -0.20086363 -0.063783914 -0.037422188 -0.5070155 -0.8837027 0.36511663 -0.22976936 -0.30129302 -0.19406027 0.21228717 0.35799086
2003 -0.14040056 0.20271266 0.068964325 -0.21144621 0.16543932 -0.031680893 0.051428974 0.13472372 -0.19625497 -0.32030112 -0.011652633 0.7596118 -0.8309668 -0.34454522 -0.265754 -0.17291029
1586 -0.48521435 0.621083 -0.43551356 0.24664775 0.08587094 -0.4020708 0.024679653 -0.8515891 -0.37114832 0.246319 0.42678344 0.038340677 -0.9806008 0.9332328 0.044746105 -0.3948609
1525 -0.11033066 0.16084464 -0.0067510684 -0.14573106 0.11037358 -0.41076115 0.20357798 0.07077713 -0.1697461 -0.25580332 -0.22032326 0.7072731 -0.80296487 -0.33875024 -0.2714977 -0.09610913
1388 0.12660654 0.52010924 0.060002476 0.28263384 -0.68275124 -0.11087837 -0.22924258 0.14950529 -0.34695402 -0.8048523 0.50479454 -0.22627823 -0.61150527 0.0030204584 0.20249301 0.52287
1521 0.30125117 0.6569183 0.062448643 0.33422217 -0.4107277 -0.32225284 0.011481147 -0.38996705 -0.22005428 -0.8988504 0.21485475 -0.5101164 -0.38868883 -0.45315802 0.115233295 0.23680803
1280 0.1786561 0.26255757 -0.19415851 -0.19354755 0.21191256 -0.24937811 0.21050005 0.3850788 -0.2826789 -0.14937218 0.09553324 0.6025793 -0.62806284 -0.17715381 -0.095268056 -0.3112079
1770 0.019371124 0.3058613 -0.22664171 -0.20858437 0.32458603 -0.2895116 0.24751353 0.46756536 -0.1943028 -0.42680448 0.013281271 0.57913786 -0.54284394 -0.041137338 -0.29229036 -0.0462191
2127 0.12981807 0.7235756 0.0152912 0.29656684 -0.59267277 -0.2257521 -0.2851301 -0.019381404 -0.24774916 -0.651788 0.5107046 -0.22006457 -0.5376547 -0.14977157 0.29678646 0.6645006
2527 0.015477285 0.39302015 -0.36421272 -0.20834604 0.5050382 -0.22010385 0.11195438 0.42185146 -0.0655748 -0.4841978 0.22464836 0.76048476 -0.3065095 -0.15733817 -0.15089302 -0.18289569
2550 -0.23799568 0.15280233 -0.13218977 -0.20150468 -0.013190862 0.02388926 0.15079415 0.0006712831 -0.31461352 -0.27598092 -0.0148266805 0.8802434 -0.76366645 -0.2582071 -0.41591963 0.0014456427
968 -0.11960899 0.31705946 -0.25027588 -0.026002215 0.6970211 -0.23433918 0.106639124 0.50547785 -0.20381916 -0.23212819 0.124466546 0.42158508 -0.5718706 -0.24571656 -0.3138256 -0.21455802
2321 -0.041406896 0.4224629 -0.055367284 0.124129824 0.5194444 -0.13595246 0.10185737 0.09235215 -0.19291618 -0.31841514 0.07064783 0.9827541 -0.33690748 -0.19928655 -0.03802887 0.061547086
978 -0.3807679 0.82827747 -0.50470835 0.1907586 0.12015079 -0.5178081 -0.049171124 -0.89775705 -0.62496734 0.23227331 0.28195572 -0.3914281 -0.74044937 0.615124 -0.08848635 -0.40342304
1135 0.1251534 0.5592525 -0.055806857 0.44167048 -0.36442184 -0.34655997 0.085779026 0.15219966 -0.547923 -0.7100822 0.46599245 -0.22652474 -0.22242133 -0.1612587 0.016656598 0.52541465
2516 0.18425183 0.26720384 -0.24846965 -0.08055121 0.3693539 -0.37461352 0.1496368 0.4766114 -0.29209003 -0.17825297 -0.05927079 0.45547637 -0.63987076 -0.13476202 -0.1631058 -0.12341441
214 -0.521729 0.37451154 -0.35830018 0.08847099 0.24298695 -0.5021899 0.25872993 -0.6673507 -0.43793368 0.38618854 0.15817316 0.16113137 -1.0592734 0.61592346 0.06551144 -0.6885795
1292 -0.11224763 0.51154524 -0.29623342 0.54848176 -0.40433154 -0.10962634 -0.15266554 0.27465394 -0.12188944 -0.7752557 0.54071504 -0.09320178 -0.25652018 -0.34549463 0.4158525 0.013127475
1650 0.2240555 0.58090013 -0.11187142 0.26436293 -0.2599861 -0.3852666 -0.09634801 -0.27362844 -0.38955986 -0.93411607 0.6537207 -0.41772103 -0.18410121 -0.23381974 0.14744213 0.47308844
1613 0.044941466 0.35584807 0.27208802 -0.13237935 -0.25306654 -0.42263857 -0.06995592 0.14447097 -0.4061737 -0.54542494 0.41905266 -0.1516461 -0.62798345 -0.28125164 0.25570476 0.3310015
2025 0.02700225 0.28752524 -0.2224724 0.006977011 0.6337075 -0.119165346 0.06226964 0.2636313 -0.22163104 -0.38640267 -0.057731595 0.5864191 -0.56422776 -0.15912955 -0.2807641 0.015399502
2365 0.30060372 0.23357727 -0.0638859 0.42355126 -0.15346748 -0.2406793 0.20507555 -0.14263786 -0.2627228 -0.8551946 0.8169796 -0.23906371 -0.3053653 -0.15951984 -0.0076235286 0.56320566
1991 0.0894298 0.23506577 -0.4421821 -0.17303623 0.6092751 -0.19093043 0.03639007 0.2351664 -0.19739705 -0.49619865 0.007540486 0.61515504 -0.43709964 -0.14622277 -0.32913372 0.0036373169
2232 0.025422057 0.33365673 0.17073885 0.26155528 -0.24498892 -0.28977156 -0.036078937 -0.19880441 -0.18656926 -0.7429923 0.5470172 -0.06035818 -0.477205 -0.34965625 -0.028147224 0.6846945
2181 0.5169975 0.35441884 -0.055933814 0.533393 -0.26604632 -0.26831374 0.10562713 -0.06394008 -0.26510206 -0.82767564 0.659226 -0.19460532 -0.30716753 -0.015605001 0.16622984 0.46556646
1177 0.42567283 0.5800248 -0.19068979 0.20987195 -0.28989872 -0.114724666 0.053586043 0.046711985 -0.19054577 -0.6970229 0.83992887 0.009169936 -0.19629586 0.03410957 0.2511326 0.44531718
1772 -0.03898502 0.22653922 -0.21655563 -0.18014884 0.30680853 -0.35287014 0.14246288 0.49004707 -0.19576524 -0.033067316 0.22734739 0.48857972 -0.68869406 -0.20418957 -0.18954547 -0.3646559
127 0.42774287 0.48321256 -0.019922119 0.24767213 -0.06766065 -0.7448909 -0.19618717 -0.20899974 -0.2927402 -0.8068728 0.6784807 -0.45116735 -0.13722824 -0.3055671 0.045501582 0.43733397
655 -0.1352982 0.18434373 -0.35347298 -0.17622533 0.084801294 -0.014229244 -0.82945853 0.24329558 0.11378613 -0.2380061 0.4483415 0.7309969 -0.624105 -0.44249904 -0.70462906 -0.4633283
1838 -0.21650405 0.24755237 -0.3760561 0.29699913 0.30711913 -0.2332184 0.22584349 0.649387 -0.119891696 -0.54207224 0.078375734 0.32426783 -0.46513414 -0.25572035 0.17773277 -0.38454375
2543 0.18491615 0.45915407 -0.022117397 0.3300493 -0.21050866 -0.12819919 -0.41017362 -0.17232943 -0.24125428 -0.8646214 0.6182528 -0.28459063 -0.3955021 -0.16177645 0.14628635 0.5211044
333 0.32643825 0.7338669 0.14802736 0.0935861 -0.431039 -0.1660006 -0.5210533 -0.021230225 -0.3087783 -0.85997945 0.6393204 -0.07142546 -0.25928882 0.013965293 0.49732897 0.23419963
285 -0.2283595 0.20184737 -0.40597928 -0.10965128 0.1367995 -0.37059677 0.14437257 0.022381462 -0.038096085 -0.05557394 0.2252783 0.82228476 -0.5451867 -0.76651365 -0.40172097 -0.1587217
2246 -0.07210623 0.26682657 -0.022915887 -0.03383796 0.077194914 -0.3883789 0.28901935 0.1653328 -0.39948943 -0.09628272 -0.04111004 1.0406657 -0.5705435 -0.39712182 -0.18108428 0.0055161337
1408 0.06832214 0.24123152 -0.25052506 -0.22575623 0.21706893 -0.33626047 0.07733674 0.3783508 -0.43602693 -0.31904 -0.071818896 0.72891587 -0.49779454 -0.111777246 -0.30441278 -0.17469317
2574 0.15900493 0.08190176 -0.3050525 -0.13341033 0.57453245 -0.13947529 -0.0120549435 0.10450934 -0.5222126 -0.45841113 -0.24976586 0.56916475 -0.595732 -0.1516324 -0.30551466 -0.16197923
2087 0.012598256 0.104501106 -0.19144659 -0.065744564 0.3822754 -0.11332408 0.06518215 0.069961295 -0.28229654 -0.41150448 -0.12737864 0.89583516 -0.6764701 -0.19216086 -0.21352541 0.062835164
2022 0.14618208 0.27747917 -0.34197122 -0.10663223 0.6262865 -0.10100726 0.15813868 0.5414311 -0.19700556 -0.3412446 0.4130223 0.5526101 -0.38245174 -0.063787736 -0.17025197 -0.30618337
77 -0.15920143 0.2822866 -0.28917715 -0.15313089 0.5919373 -0.24785037 0.21352425 0.35445487 -0.27800864 -0.572348 0.06516718 0.65236235 -0.38965946 -0.16454926 -0.21918246 0.12448089
1601 0.21329336 0.5941571 0.08669968 0.27968523 -0.39943826 -0.3743397 -0.15743017 -0.08988626 -0.40331095 -0.59017277 0.61047715 -0.42626855 -0.4822285 -0.26888263 0.23950231 0.48474023
1539 -0.46572787 0.815036 -0.29797322 -0.28010237 -0.5292749 -0.49271324 -0.08119312 -0.8086468 -0.22728305 -0.38699466 0.5262818 -0.41829458 -0.4223978 -0.005870222 0.46251157 0.27101243
1762 -0.068270124 0.24348746 -0.23248042 -0.0769642 0.40604985 0.05264484 -0.12971564 0.17541754 -0.29190946 -0.25737956 -0.12300222 0.69729596 -0.7746076 -0.15694773 -0.33282664 -0.014232377
751 0.025010614 0.3167327 -0.5054178 -0.2528904 0.61807173 -0.23295128 0.1050069 0.4574931 -0.17848775 -0.39609966 0.16420636 0.4697881 -0.44082478 -0.12006782 -0.09001327 -0.04446264
1411 -0.3060144 0.1930858 -0.016412338 -0.041444086 0.12239658 -0.3585845 0.2065116 -0.0076654777 -0.4428705 -0.39426205 -0.16826713 0.7758764 -0.5438815 -0.4515186 -0.41666782 0.11313892
2241 -0.035632752 0.3193551 -0.40813664 -0.2216618 0.5140342 -0.2753524 0.2310429 0.28433153 -0.23365524 -0.57917064 0.0006019708 0.7191935 -0.32089755 -0.02324533 -0.21989863 0.033432197
2026 0.21686047 0.4469729 -0.080722585 0.51965714 -0.15689042 -0.4095159 -0.07875009 -0.18280812 -0.29913473 -0.85373497 0.6233598 -0.39699072 -0.3044867 -0.21981473 0.106202334 0.6287238
487 -0.23622882 0.15034439 -0.22242823 0.43516767 0.026492726 -0.24032508 -0.059807222 0.05047345 -0.008124082 -0.55964684 -0.28261605 0.3820118 -0.6527657 -0.8692438 0.02201128 -0.25480637
202 -0.15051846 0.3360036 -0.2089807 0.08975731 0.5284884 -0.17188063 0.29397973 0.33359325 0.05014154 -0.46521845 0.052290354 0.64943326 -0.5139204 -0.067086056 -0.28153178 -0.0029516674
2093 0.29899582 0.55202174 0.038365357 0.32251003 -0.36823618 -0.35341322 0.114471406 0.12589459 -0.5501185 -0.58878994 0.34238636 -0.57640964 -0.56803364 -0.31691572 -0.004879335 0.5050358
1893 0.0460783 0.19138636 -0.16941956 -0.19801587 0.15296017 -0.44322422 0.06071363 0.39839572 -0.124391556 -0.23146558 -0.008859455 0.51099086 -0.69906986 -0.24097952 -0.32129037 -0.2998136
1674 -0.117376246 0.37250224 -0.19974287 0.07459628 0.5658716 -0.2997356 0.11957742 0.5214978 -0.14922473 -0.3396115 0.019899111 0.5935842 -0.52612317 -0.0430577 -0.03882139 0.023191102
2293 0.15530229 0.44437796 0.05539581 0.20344858 -0.45364502 -0.56377864 -0.058958136 0.052962173 -0.49387732 -0.63692003 0.42304492 -0.5110914 -0.52253103 -0.17086153 0.13859017 0.36714134
373 -0.024546225 0.16970298 -0.0688575 0.326368 0.3507671 -0.38711375 0.18506977 -0.076506816 0.026530895 -0.39194384 -0.31282917 0.9378239 -0.63692117 -0.40477088 -0.19524573 0.059781928
345 -0.11546225 0.2465962 -0.058036868 0.22545408 0.58377945 -0.14706963 0.20792769 0.031642552 0.05335922 -0.4106627 -0.22112118 0.6457002 -0.7411887 -0.47244856 -0.3233651 -0.044708192
1813 0.29048702 0.6113144 -0.010656194 0.20240036 -0.19926047 -0.38909128 -0.030270075 0.18984228 -0.47844186 -0.56605166 0.44604838 -0.26995665 -0.28502107 -0.24122153 0.07261263 0.4163596
2012 0.041285407 0.252295 -0.23210628 -0.11668145 0.6327665 -0.21436588 -0.012435336 0.27071533 -0.06613562 -0.41332603 -0.15317903 0.53579074 -0.6981817 -0.03605427 -0.083261 -0.08607881
2345 -0.16666852 0.050261013 -0.3408593 0.33266214 0.063004166 -0.39760223 0.16249208 0.6144767 -0.15666275 -0.40012914 0.10717655 0.312594 -0.584569 -0.40551707 0.07135133 -0.5066213
2408 0.06379649 0.5387201 -0.18583715 0.20951052 0.3708393 -0.16403429 0.002954259 0.30679432 -0.24491759 -0.7885219 0.34315422 -0.09020822 -0.25060153 0.04078913 -0.0085365 0.63032347
1231 0.35937575 0.7229373 -0.195335 0.31445366 -0.44105983 -0.47544566 0.032994203 0.022458827 -0.43462178 -0.53704554 0.40538988 -0.4040626 -0.28212872 -0.34477293 0.031087514 0.5255549
1455 -0.2615619 0.8166158 -0.3466581 0.23847608 0.38071495 -0.5016392 0.10204654 -0.6963791 -0.659089 0.5305591 0.25409493 2.5139827e-05 -0.85715055 0.767977 -0.12937972 -0.45624182
975 0.11440874 0.32191432 -0.6041218 -0.18616754 0.035621047 -0.14519463 0.0015119398 0.33213714 -0.26613164 -0.067067645 0.21179257 0.74156314 -0.4580467 -0.501505 -0.42461446 -0.17889401
626 0.36956477 0.46258762 -0.18292557 0.15489572 -0.43328425 -0.15245688 -0.21146278 0.057655856 -0.39583197 -0.7114112 0.61961275 -0.24363504 -0.34133387 -0.16435368 0.025648745 0.3790614
997 0.00308357 0.22271521 -0.46826002 -0.35560638 0.27123016 -0.14970243 -0.08936538 0.104040705 -0.65788096 -0.50930864 -0.023233062 0.8176301 -0.22817305 -0.14684469 -0.35451177 -0.21283951
1804 0.25380203 0.57884926 0.058268894 0.25855228 -0.49630246 -0.27066624 -0.044770613 0.29355812 -0.49168095 -0.7810413 0.5605756 -0.47076485 -0.4695474 -0.11812604 0.113656126 0.32632312
2350 0.27571464 0.29135364 -0.040159237 0.5608088 -0.2733273 -0.39204627 0.13279273 -0.2077438 -0.10943242 -0.8302532 0.76324123 -0.18026648 -0.31175387 -0.16667362 -0.0005432458 0.6179165
1807 0.30437005 0.8461316 -0.045889594 0.19889724 -0.37865874 -0.3171687 -0.33196136 0.059123594 -0.1765123 -0.632123 0.74065 -0.16118856 -0.16995133 -0.20131367 0.17733423 0.41289577
65 -0.040814273 -0.015751489 -0.14589302 0.16492628 0.23989727 -0.5323125 -0.35551456 0.44684404 0.03869641 -0.32247022 0.04655464 0.64458466 -0.71675515 0.030677844 -0.24403137 -0.4417486
2214 0.30822486 0.2817637 -0.07963508 0.40999848 -0.11082896 -0.27480757 0.22112733 -0.13154007 -0.08075645 -0.9266912 0.7478974 -0.2901532 -0.4127815 -0.15266228 0.040606767 0.69117796
1681 0.10801465 0.09388667 -0.15941793 0.045059495 0.3972207 -0.4113201 0.062061355 0.4414677 -0.13407299 -0.078497484 -0.09843646 0.5443089 -0.91629326 -0.24664068 -0.08475191 -0.12827688
1702 -0.09450341 0.28696522 -0.034052808 -0.19276112 0.36004534 -0.2981675 0.18323824 0.15769406 -0.23759791 -0.44575623 -0.17283556 0.71109474 -0.5805413 -0.26467147 -0.39452335 -0.1671095
2450 -0.0058810725 0.118045874 -0.120968975 -0.09301195 0.2669335 -0.4759351 0.06189526 0.5870074 -0.23684515 0.017977377 0.10704533 0.46519923 -0.87329197 -0.24577455 -0.18078223 -0.2221981
122 0.24367164 0.7838443 0.05597989 0.30274034 -0.37145025 -0.13079295 -0.26384938 0.07758039 -0.24480464 -0.72417635 0.48235643 -0.37998122 -0.52837354 -0.11594904 0.34881145 0.5194505
508 -0.30114406 0.84436345 -0.6054788 0.2878888 0.19710049 -0.5307619 -0.04614916 -1.0352253 -0.48079252 0.48829758 0.3580112 0.007012639 -0.9265111 0.77391505 -0.10524965 -0.5329997
1308 0.6030032 0.79980725 0.035744984 0.03544911 -0.31286883 -0.03427602 -0.20217884 -0.24165772 0.07193361 -0.7496253 0.2589412 -0.13121133 -0.28964365 -0.35492793 -0.03236973 0.016637377
234 0.36429754 0.30789328 -0.32631108 -0.279893 0.6131653 -0.19558024 -0.04838817 0.18196926 -0.40006235 -0.1910493 -0.03822593 0.57163656 -0.50119287 -0.33485994 -0.1548555 -0.2205667
1753 -0.18595634 0.23764461 -0.23436053 0.20505884 0.5447043 -0.45848715 -0.16954556 0.3015706 0.10154005 -0.5748742 0.11689118 0.7479703 -0.29449567 0.0017084534 -0.5085083 -0.015635144
1285 0.518558 0.5625233 -0.13402525 0.23588401 -0.21905407 -0.27088195 -0.29008234 -0.07115186 -0.2748533 -0.831003 0.592876 -0.21939738 -0.26815784 -0.06968971 0.46593812 0.3631226
1070 -0.014568901 0.22581118 -0.20392956 0.09229191 0.46553874 -0.35784784 0.15870002 0.16648394 -0.027006174 -0.23537849 0.03208835 0.775849 -0.56797886 -0.22824672 -0.32798088 0.027125848
1896 -0.08995626 0.34013346 -0.23678634 -0.020625157 0.5684197 -0.22761354 0.1281082 0.47620028 -0.106940046 -0.3894405 0.0029776911 0.53892183 -0.5582031 -0.027641464 -0.12870649 -0.15004067
769 0.17205612 0.3894104 0.061012823 0.16826996 -0.24058287 -0.44379035 -0.26116914 -0.20924406 -0.10994807 -0.7843887 0.7565172 -0.45598406 -0.555605 -0.23897168 0.13337405 0.5994019
23 -0.25113228 0.4865334 -0.36545888 0.27497107 -0.46156064 -0.26388714 0.13836488 0.0064948825 -0.22782025 -0.9005464 0.20785965 -0.3912564 -0.29677856 -0.7269593 0.17265625 -0.06642632
1905 -0.09753041 0.034452848 0.22490801 0.121535026 0.101674065 -0.7494841 -0.43296838 -0.108603776 0.09647884 -0.5161755 -0.18337354 0.5786381 -0.6079413 -0.36351764 -0.5363412 -0.18761602
476 -0.20780697 0.10634588 0.19450304 0.3536451 0.19314355 -0.45636097 -0.24493113 -0.0069688144 -0.02438702 -0.3948424 0.12574647 1.0831554 -0.4184858 -0.30199254 -0.37912214 -0.12683181
2609 -0.05626337 0.34342638 -0.13928133 -0.28364447 0.27349758 -0.42540297 0.103603 0.44050932 -0.24412242 -0.27459744 0.047277715 0.70849746 -0.5057853 -0.329349 -0.26782125 -0.43537095
2147 -0.12406405 0.1744223 -0.25053746 0.21972007 0.45950264 -0.50054234 -0.17041416 0.44978708 0.25726536 -0.5746458 0.24702032 0.57592314 -0.35683268 0.08716087 -0.35587776 -0.18881728
648 0.2623467 0.4954655 0.0072646793 0.12373607 -0.60934454 -0.39760894 -0.029681792 -0.07130208 -0.621559 -0.6383145 0.36138222 -0.50897676 -0.5902101 -0.32429504 0.17202449 0.43341762
2008 0.09120659 -0.00344851 -0.1496586 -0.23169568 0.22675335 0.016327579 0.35452217 -0.11427971 -0.13235837 -0.57971823 0.31403798 0.7271269 -0.5559559 -0.20477189 -0.19560547 0.11205756
1029 0.29572475 0.5347048 0.09707573 0.22112319 -0.2845432 -0.33435753 -0.14860182 -0.12111402 -0.306869 -0.81900924 0.40862632 -0.6049501 -0.62809587 -0.20760559 0.3488097 0.42069823
428 0.044840854 0.5696503 -0.119672365 0.15268704 0.33215922 -0.17809747 -0.012600948 0.30549106 -0.26233372 -0.7262648 0.44794786 -0.051839974 -0.18162984 0.06597622 -0.15125574 0.5587796
1974 0.45650676 0.24434721 -0.36449978 -0.3306564 0.2181702 -0.3288998 -0.30260274 0.17186214 -0.31521392 -0.32988086 -0.34765851 0.52605957 -0.66309625 -0.110254325 -0.10979863 -0.096120805
1000 0.29398978 0.41005555 0.046603385 0.14423324 -0.3227287 -0.27499768 -0.10803118 0.105551206 -0.65372896 -0.8401029 0.5179779 -0.44297677 -0.39486504 -0.11871787 0.1861653 0.24059796
2582 0.037795678 0.48499072 0.08883502 -0.0035435485 -0.18677092 -0.4649286 -0.1751009 -0.29637587 -0.21552289 -0.9244076 0.6970208 -0.31734103 -0.32914796 -0.19283895 0.28052452 0.45262545
1168 0.26806083 0.5339648 0.0723816 0.2135761 -0.5122772 -0.3202227 -0.20060016 -0.026889889 -0.6358882 -0.8770406 0.37164435 -0.5536579 -0.4165089 -0.2260061 0.10222895 0.20145382
215 0.0820079 0.34494764 -0.30170202 0.057670593 0.6073844 -0.07193695 -0.024898464 0.27358374 -0.42611554 -0.27588934 -0.067761816 0.63824826 -0.4438683 -0.17130141 -0.22837631 -0.07549105
937 0.14700007 0.14439051 -0.33084565 -0.19889845 0.10655895 -0.3324829 0.1518715 0.41765407 -0.2786871 -0.35188502 0.08418221 0.7536114 -0.5027087 -0.29299125 -0.28306922 -0.33038694
801 0.49113628 0.42778143 -0.67201567 0.2359732 0.10324422 0.0024405257 -0.29752105 0.31159377 0.29335046 0.044888806 -0.5104744 0.6867254 -1.0636097 -0.19202422 -0.27680138 -0.037313674
2499 0.15422887 0.17623086 0.0018013605 0.052677188 0.14484209 -0.35532948 0.13417614 0.365748 -0.09517779 -0.0042653345 0.13120033 0.8220279 -0.7597826 -0.3134184 -0.22836784 -0.26146257
67 0.018632011 0.29299527 -0.23862386 -0.031455092 0.6654684 -0.16561787 0.19301592 0.3847778 -0.13435842 -0.38860172 0.20374428 0.74583846 -0.4383088 -0.031964663 -0.16120605 -0.016722351
913 0.19671291 0.6814641 0.1777143 0.180059 -0.43595314 -0.2617349 -0.36597908 -0.19919518 -0.38362637 -0.8911102 0.6618081 -0.08376075 -0.18561563 -0.13142504 0.48953164 0.23482394
1357 0.42577696 0.45966622 0.01754101 0.25771657 -0.1710658 -0.29751518 0.1415722 -0.115577385 -0.49478322 -0.9564126 0.74404234 0.00408732 -0.026189087 0.13405704 0.40382805 0.33729324
439 -0.0059127496 0.25662637 -0.056077834 -0.18451747 0.08144035 0.06698122 -0.12665948 0.3892893 -0.041110184 -0.27100354 0.073838234 0.75169927 -0.8797757 -0.21079923 -0.3576426 -0.342958
1412 -0.078299016 -0.010517366 -0.06379299 -0.14238344 0.1728058 -0.4484557 0.27734163 0.15032108 -0.21572888 -0.18663323 -0.12696604 0.6667093 -0.9411028 -0.34018856 -0.28346416 -0.011479336
86 0.10673902 0.0033643832 -0.26163733 -0.014813886 0.13312247 -0.4697804 -0.491781 0.24112462 -0.37111723 -0.4390787 -0.060879193 0.81615895 -0.41563675 0.0028794894 -0.5652733 -0.3263736
1245 -0.21167201 0.0317869 0.083027214 -0.0749318 0.00824005 -0.16838828 -0.6268151 0.3211346 0.055987034 -0.4381321 0.44237062 0.5397923 -0.70633745 -0.20437293 -0.49543384 -0.23365584
1834 0.03904256 0.27818373 -0.14951485 0.7583391 -0.25589004 -0.3020742 -0.121762626 0.08351035 -0.23599997 -0.79856277 0.24863546 -0.35166523 -0.39740837 -0.5870857 0.34677538 -0.106385365
786 0.034841474 0.27379873 -0.1876203 0.0011457533 0.5719093 -0.16903226 0.08327069 0.28275025 -0.059673775 -0.4714799 0.032487605 0.67120737 -0.5491623 -0.07863886 -0.120926306 0.12010798
470 0.06333403 0.047999274 -0.06575679 0.2564715 0.053467102 -0.6278764 -0.1853535 0.49688897 0.040342934 -0.36252746 0.17642315 0.52840453 -0.5412308 -0.056047168 -0.519525 -0.17535132
609 -0.67187876 0.79296565 -0.62871546 0.15813498 0.98477674 -0.3067534 0.12078485 -0.3309217 -0.14639592 0.11216549 0.33283132 0.23120105 -0.51315707 0.7774964 0.21858925 -0.2028515
2449 -0.36104333 1.020483 -0.46864167 0.2667567 0.06442826 -0.49959627 -0.25480053 -0.9591323 -0.43751952 0.31639665 0.18904915 -0.39117643 -0.9999747 0.79854554 0.08861677 -0.020958208
49 0.23428822 0.39081615 -0.14845212 0.3839336 -0.58350676 -0.61611426 -0.13117816 0.0005010108 -0.5422478 -0.7026517 0.5060023 -0.40170708 -0.31804848 -0.28025106 0.20632559 0.3245898
339 0.4380308 0.6656952 -0.1796973 0.3455318 -0.29405057 -0.28582522 -0.20271258 0.040022373 -0.16418092 -0.45005453 0.5550165 -0.3142849 -0.38342667 -0.19103867 0.0065314407 0.53259903
2190 0.48851538 0.45366785 -0.13647366 0.33795106 -0.34557492 -0.0946118 0.048327744 -0.111271 -0.28034866 -0.6346393 0.6912864 -0.018668653 -0.3259611 -0.08309299 0.2861129 0.4712814
1110 -0.16355246 0.42186537 -0.23801178 0.012697475 0.587431 -0.21817245 0.21495396 0.2879434 -0.16677894 -0.5341116 0.0024180317 0.649666 -0.34746173 -0.09224892 -0.18099011 0.21128002
68 0.010004497 0.29844236 -0.13390788 -0.045807645 0.0077228183 -0.2915044 -0.17372301 0.12700738 -0.32798088 -0.1455027 0.009097739 0.93326265 -0.4845802 -0.3160574 -0.1793113 -0.052041654
291 -0.39980718 0.92972153 -0.8166666 0.25558865 0.1277752 -0.30948073 0.032745335 -1.2273508 -0.5090968 0.3085316 0.34705222 0.015751211 -0.9765795 0.9193979 -0.168681 -0.52427477
287 -0.383426 0.85454154 -0.576343 0.19177097 0.13047373 -0.43562922 -0.007741991 -1.0331502 -0.53230685 0.39456937 0.28190055 -0.10948119 -1.0709838 0.7895381 -0.15504548 -0.64964074
1531 0.055271633 0.3044036 -0.27843755 -0.047907464 0.5482659 -0.22911459 0.005076888 0.37950912 -0.0718015 -0.47750467 -0.20420407 0.6015985 -0.6270058 0.03306999 -0.1377125 0.009194002
1352 0.192862 0.12727992 -0.27990356 -0.20680149 0.1634731 -0.38262996 -0.06577234 0.29213965 -0.4194114 -0.13424678 0.03622996 0.3838243 -0.65152043 -0.22742097 -0.26436165 -0.08347238
545 0.30226287 0.5273657 -0.16531539 0.49890903 -0.2961667 -0.53565925 -0.032326397 -0.101691864 -0.50459206 -0.8885871 0.35674858 -0.40316877 -0.19139922 -0.112398945 -0.011044111 0.59746426
171 -0.112405375 -0.014582104 0.14416924 0.10398553 0.29764128 -0.25631312 0.09824158 -0.21224196 -0.04002604 -0.3527073 -0.3167246 0.71058345 -1.0069277 -0.63011307 -0.15084112 -0.050666057
2051 0.25947908 0.47269067 0.07677453 0.3368263 -0.16414171 -0.33181277 0.03638496 -0.12199027 -0.47105172 -0.72564507 0.7036402 -0.5544169 -0.36990592 -0.37179846 0.14246786 0.37271455
771 -0.022194693 0.1871991 -0.4131959 -0.26695272 0.36319482 -0.24774753 0.29020065 0.3785923 -0.29764092 -0.3665201 0.367655 0.7863665 -0.32315406 -0.1518077 -0.20927195 -0.30338725
1278 -0.37083113 0.87690717 -0.58053076 0.3551093 0.08224533 -0.52642834 0.12655683 -1.136471 -0.45616224 0.37893423 0.3733889 -0.007382258 -0.89909333 0.79487157 -0.19177596 -0.63450736
1011 -0.32895574 0.16165698 0.0105131 -0.31079057 0.14062199 -0.0017229632 0.09345114 -0.06239292 -0.21083868 -0.44841808 -0.082353435 0.6453865 -0.8369664 -0.51702267 -0.6355311 -0.0636579
1745 -0.1277401 0.32040364 -0.12519461 -0.10730116 0.4898189 -0.20342936 0.24402265 0.24903266 -0.15731804 -0.5135333 -0.091198996 0.74494386 -0.54496664 -0.06967401 -0.2857269 0.15165387
1510 0.436424 0.5067762 -0.011083636 0.4672393 -0.2193272 -0.1621714 -0.27269372 0.0698497 -0.3565169 -0.6474704 0.54039884 -0.26223198 -0.41440812 -0.11387556 0.22256625 0.45528513
503 -0.30356133 0.94512653 -0.56408864 0.3575081 0.18615358 -0.49413154 0.06469176 -1.0804563 -0.4251762 0.48955113 0.35511795 0.09756404 -0.9619195 0.8912143 -0.101358265 -0.47342572
1914 -0.24833477 0.65495574 -0.382674 0.35693148 0.57152134 -0.5620981 -0.18780509 -0.42386106 -0.25515178 -0.08868615 -0.21286048 0.017760001 -0.31140217 0.31083673 -0.05692593 0.38883874
405 0.3640756 0.8054404 0.037314985 0.45428053 -0.13679777 -0.7423237 -0.24485737 0.11394908 -0.26261854 -0.529192 0.40945646 -0.31115836 -0.12456221 -0.19294181 0.14717235 0.37940806
1530 -0.42244136 0.9042116 -0.45336255 0.28532067 0.13688296 -0.23911624 0.20750794 -1.1252389 -0.36037344 0.35906994 0.5502289 -0.05465512 -0.9995135 0.63320386 -0.049354386 -0.8249362
1150 0.17382577 0.17534053 -0.1427094 0.025527472 0.4398062 -0.30151317 0.14749068 0.6008539 -0.13449775 -0.2175935 0.10370761 0.53481936 -0.7181564 -0.10992936 -0.1503188 -0.34578472
2263 0.35754567 0.45830268 -0.07280741 0.3584433 -0.22379977 -0.49446246 -0.008089663 -0.25288662 -0.24279228 -0.63116777 0.5820007 -0.48698044 -0.4617242 -0.51929975 0.1266887 0.6009033
1519 0.05425179 0.18837531 -0.21593413 0.030038653 0.5811824 -0.31982908 0.15883088 0.5087634 -0.32678828 -0.3755278 0.18032625 0.1700661 -0.5077838 -0.10720532 -0.23782124 0.05981741
2498 -0.06548675 0.29344296 -0.37077656 -0.07751302 0.7686612 -0.15595546 0.0034794996 0.09329116 -0.2564599 -0.59552824 -0.00016225944 0.6619264 -0.3000456 -0.041965578 -0.13170284 0.13012527
1304 -0.45534864 0.05983379 -0.24930978 0.2928219 0.14420024 -0.579692 -0.31922597 0.16687986 0.32440624 -0.679478 0.010467117 0.2739108 -0.5359023 -0.7690122 -0.25433922 -0.51898295
258 -0.0012294515 0.1794183 -0.013963336 -0.28708372 0.2786085 0.12479062 -0.2367646 -0.16473792 0.23255706 -0.28389674 0.12494233 0.90549606 -1.0048124 -0.4740145 -0.14393419 0.16273499
425 -0.54748434 0.91362214 -0.36797264 0.19672258 0.20362861 -0.54061127 -0.21299641 -1.0621777 -0.49257404 0.38901192 0.24032415 0.023665234 -1.0045714 0.77939904 -0.2337389 -0.66890025
1400 0.21205474 0.6391607 -8.2172526e-05 0.26489946 -0.2203813 -0.19415413 -0.3509528 0.16387495 -0.24814862 -0.7447554 0.6066473 -0.28324285 -0.4089503 -0.049975198 0.25930554 0.46374202
1677 0.42423213 0.64478445 -0.03072657 0.17463425 -0.2518468 -0.40659332 -0.13909201 -0.06592727 -0.49172172 -0.57984567 0.6023162 -0.14553502 -0.19173689 -0.25694758 0.41847768 0.4111759
2517 0.07072476 0.35698307 -0.16358864 0.04472741 0.70721626 -0.031086953 0.079226665 0.28819495 -0.06783121 -0.5816127 -0.25139204 0.57193154 -0.6374002 0.00052491645 -0.1429204 -0.044180192
639 -0.00028428514 0.078227945 0.110488415 -0.044063292 0.324943 -0.41765395 0.2159255 0.4961225 -0.256118 0.13483469 0.32427377 0.54878 -0.92072374 -0.4278384 -0.08230671 -0.20406356
1038 0.16979566 0.549524 -0.09260407 0.17698431 -0.3009135 -0.562064 -0.16737016 -0.13108274 -0.29196414 -1.0193115 0.4517309 -0.30867708 -0.20602109 -0.008417417 0.27295217 0.43426558
1419 0.24007913 0.19300681 -0.06720325 0.12992382 0.33416528 -0.283751 -0.008062676 0.25409955 -0.23378596 -0.21434447 -0.17639859 0.7190384 -0.70083535 -0.448895 -0.20894766 -0.12701747
2010 -0.26210544 0.25377244 -0.43140212 -0.18641773 0.40145823 0.33814687 0.06520257 0.22865425 -0.18413489 -0.57642114 0.1459942 0.7454486 -0.6268269 -0.084990114 -0.35651776 0.1700946
1488 0.13944183 0.2758135 -0.5187387 0.2800493 -0.5555085 -0.44309106 0.00819439 0.12813179 -0.14967218 -0.9339322 0.01262233 -0.46140435 -0.4020776 -0.5064665 0.1893369 -0.32719263
1858 0.032232188 0.20186912 -0.20764367 -0.2956871 0.17732985 -0.07184228 -0.24773766 0.49811244 -0.29812393 -0.25878575 0.056729406 0.71672547 -0.7622661 -0.13604303 -0.2760309 -0.4238229
162 0.14294071 0.3968477 -0.09024932 0.24150863 -0.1814162 -0.5102644 -0.04636938 -0.19945009 -0.31498444 -0.8236137 0.4941708 -0.65270764 -0.45591396 -0.3760671 0.0722903 0.4573973
2260 0.017148465 0.29315725 -0.35437787 0.13030316 -0.009780206 0.046849694 -0.17196296 0.16365512 -0.22061859 -0.4385968 -0.35436705 0.82450104 -0.6074497 -0.26784068 -0.66375935 -0.12968814
955 -0.045474786 0.102785856 0.14757901 -0.036195222 0.39024338 -0.2850601 -0.19498879 -0.15008202 -0.18116927 -0.34579408 -0.13911648 0.718829 -0.7259882 -0.60082453 -0.2535724 -0.1499333
722 -0.12352792 0.38047495 -0.20942743 -0.095191546 0.5644207 -0.34732458 0.10658761 0.3765599 -0.21005318 -0.47195032 -0.056502342 0.63975173 -0.41769803 -0.048990916 -0.23465541 -0.045035847
1897 -0.20441157 0.64637744 -0.43333167 0.484399 0.29178774 -0.36600906 0.07137026 -0.95169103 -0.5378854 0.23277579 0.28375244 0.081806995 -0.8171684 0.86978173 0.009918271 -0.5697732
2191 0.101820685 0.7438459 0.016036125 0.11127692 -0.5314323 0.027658926 -0.20469874 -0.21467945 -0.5065431 -0.92674845 0.5570565 -0.15160663 -0.2845069 -0.2203707 0.2771532 0.5006683
1854 -0.029390994 0.39007697 -0.11230842 0.08500808 0.5890223 -0.1919138 0.16112407 0.22527161 -0.0038086623 -0.3143834 -0.12262661 0.6191214 -0.67780095 -0.20331663 -0.25681356 0.22583677
453 -0.08406525 0.119562745 0.108077146 0.26473793 0.34064206 -0.15089928 0.1534359 -0.26713753 0.00095508737 -0.49452114 -0.18973994 0.7998366 -0.69726014 -0.69986 -0.2644 0.01413669
755 0.33261615 0.24742332 -0.16151349 0.2518454 -0.17936271 -0.38872966 0.3041934 -0.21478501 -0.21191187 -0.69367725 0.844413 -0.33830586 -0.4370217 -0.28426632 0.16252942 0.6359407
702 0.24907966 0.39767858 -0.08293509 0.16585645 -0.28702664 -0.49666148 -0.07823403 -0.17889649 -0.29076606 -0.8894048 0.48619568 -0.5624323 -0.4887992 -0.24904482 0.14675154 0.49228507
1791 0.22541988 0.59003735 0.03365235 0.3160868 -0.3820004 -0.2736284 -0.16358297 0.10504984 -0.51457024 -0.69376576 0.5967515 -0.48670143 -0.5220849 -0.15111089 0.15624587 0.613978
925 0.15299447 0.37119812 0.06869654 0.23708893 -0.20163196 -0.45193726 0.37952214 0.25495282 -0.5044235 -0.09931891 -0.25562465 1.0992668 -0.44498911 -0.4464351 -0.54547024 -0.11325403
576 -0.31650567 0.8342302 -0.59296125 0.2421386 0.15341437 -0.37308732 -0.14051835 -1.2230799 -0.60659593 0.3076478 0.16354166 -0.08328302 -1.0001434 0.77526546 -0.04891759 -0.5398599
22 -0.1472147 0.07515267 -0.06272698 0.12497619 0.11100627 -0.58579475 -0.29748628 0.23342302 0.16425672 -0.3402152 0.24894032 0.7646114 -0.5262369 -0.360141 -0.46802375 -0.123224534
1985 0.16292682 -0.12393782 -0.23841763 -0.19527784 0.1247726 -0.50627875 0.040073656 0.58556616 -0.15426223 -0.03232456 0.1838522 0.4848171 -0.9803171 -0.21872267 -0.22113527 -0.34621552
733 0.36187792 0.4507828 -0.21129768 0.10413979 0.45420432 -0.15177183 0.2931757 0.31772506 0.016980976 -0.5710275 0.5253563 0.05530321 -0.3489197 0.056481976 0.06833552 0.5134117
1547 0.46637055 0.3064544 -0.0013044552 0.14071341 -0.27095628 -0.5150609 0.08624005 0.06921595 -0.28421405 -0.43980855 0.63762695 -0.05559361 -0.3670679 -0.16107999 0.12303638 0.34423393
55 -0.27727893 0.9906943 -0.63684994 0.26923946 0.36216626 -0.5338959 -0.041084465 -1.1347679 -0.41633925 0.2947234 0.3811146 -0.18304728 -0.91241974 0.8548342 -0.034928728 -0.67525345
1793 0.19083743 0.39056796 0.06252678 0.21698698 -0.27539384 -0.60661846 -0.1373074 -0.53126156 -0.22043514 -1.1693518 0.38860023 -0.47401977 -0.33529192 -0.40458253 0.41567606 0.28062627
1578 0.017579256 0.21653725 -0.033414453 0.15313274 0.45394528 -0.27703187 0.0859489 0.045325853 -0.12475772 -0.39281943 -0.23952739 0.70412076 -0.63476664 -0.27116826 -0.13589141 -0.04782127
1155 -0.13237488 0.23861252 0.14085014 -0.0040825335 0.11095784 -0.36861572 0.41677436 0.29779023 -0.26989865 -0.03417101 0.10121188 0.76471436 -0.7647998 -0.31533188 -0.1067305 0.06328787
1885 -0.41639778 0.98235834 -0.47137165 0.43381584 0.40230703 -0.59067076 0.10600656 -0.9201423 -0.5171701 0.46335128 0.41193777 -0.17459023 -0.8712176 0.7992711 -0.27878785 -0.56969714
1679 0.30627805 0.4063024 -0.20718822 -0.038844727 -0.1263439 -0.25114492 -0.46391046 -0.10133053 -0.011685788 -0.3986462 0.61303806 -0.07416914 -0.5637879 -0.3400093 0.4661465 0.40433776
1596 0.20886749 0.46317396 0.0020676763 0.2028042 -0.31578165 -0.64980644 -0.17771338 -0.23321 -0.36341667 -0.79716396 0.7965969 -0.39991844 -0.13398318 -0.38861105 0.028791623 0.29692414
385 0.45614573 0.12070161 -0.4934092 -0.28803325 0.5716052 -0.11429266 -0.21861294 -0.0074063553 -0.3207824 -0.28482172 0.013002083 0.7471199 -0.50884134 -0.20573683 -0.03212044 -0.19692673
1973 0.1990629 -0.015416599 0.014111536 -0.005525346 0.23471408 -0.47063336 0.19332895 0.48185408 -0.20427895 0.06055506 0.06530197 0.5864952 -1.0152099 -0.16378205 0.07495214 -0.3021094
1754 -0.01722818 0.42968962 -0.5050317 -0.24152705 0.6381166 -0.2014544 0.03758858 0.2356575 -0.17972869 -0.61695147 0.08382304 0.55346864 -0.23571396 -0.022010013 -0.015345057 0.23124854
589 -0.07299364 0.18932295 -0.3210664 0.037913475 0.6163134 -0.2391068 0.119107164 0.45797515 -0.14415751 -0.44380486 0.0385262 0.4941343 -0.5804183 -0.055760883 -0.17911291 -0.06628161
372 -0.08079525 0.16580173 -0.33364022 -0.1375826 0.26190928 -0.25679898 -0.0963026 0.23347217 -0.21833965 -0.35990044 -0.22027373 0.68203294 -0.6996154 -0.1522213 -0.35045764 -0.18677127
236 0.26676995 0.80086046 0.0009359534 0.16502072 -0.4946432 -0.035925765 -0.15945873 0.12283266 -0.4583857 -0.59466726 0.53765446 -0.3763419 -0.48885575 -0.14609249 0.04114171 0.5827755
2133 0.3660376 0.6140889 0.09388566 0.35066634 -0.12255051 -0.08482248 -0.35188332 0.09964011 -0.20236187 -0.61987704 0.62130064 -0.3483752 -0.5739535 -0.16041403 0.31604293 0.52687347
128 0.28302005 0.56835246 -0.041982662 0.5431322 0.08821075 -0.4851064 -0.06421489 -0.036943004 -0.22235322 -0.8908997 0.53813994 -0.5014943 -0.26505154 -0.22008425 0.1108838 0.61621577
666 0.26996243 0.06681897 -0.44818607 -0.3183201 0.16905692 0.25416395 -0.2574118 0.057998788 -0.43511587 -0.11762053 0.16236557 0.73235404 -0.780319 -0.52176684 -0.48201588 -0.35535657
353 0.41450545 0.10110684 -0.05130121 0.029394265 0.3429486 -0.15556322 -0.10559304 0.25233376 0.014076836 -0.43487003 -0.35138395 0.546138 -0.9321965 -0.10140645 -0.14978163 -0.38527313
1016 -0.4794338 0.57433254 -0.49185 0.39417934 0.1883252 -0.23997714 -0.08943554 -1.1372513 -0.4696379 0.21107851 0.72995275 0.05433561 -0.98310244 1.006569 -0.02485768 -0.43273103
1268 -0.13853818 0.28224298 -0.40292686 -0.047830157 0.41387337 -0.2823624 0.006283751 0.4133796 -0.06976837 -0.31559396 -0.007379112 0.60282946 -0.5811203 -0.36738414 -0.25318268 -0.33196133
440 -0.054988712 0.15583986 -0.2612066 -0.13159429 0.24192089 -0.47731164 0.10936866 0.43351808 -0.04489889 -0.16937561 0.046614844 0.5502339 -0.73839474 -0.21700826 -0.29362482 -0.26424095
2178 0.036568027 1.1942115 0.020008035 0.16727637 0.12918852 0.16590819 0.23791689 -1.03397 -0.4143684 0.12898006 0.6940133 0.020771397 -0.78459984 0.8441879 -0.52904904 -1.143178
458 -0.039624892 0.731289 -0.22798598 -0.004085463 -0.6707149 -0.14509402 0.031746265 -0.1667967 -0.35688442 -0.96424675 0.44710085 -0.3759501 -0.34909254 -0.30020484 0.189714 0.45231232
953 0.30944827 0.5180169 -0.024963671 0.19991206 -0.5222318 -0.24852629 -0.4408971 -0.086921915 -0.5482752 -0.7452387 0.49903467 -0.2388419 -0.37458503 -0.006420623 0.27817127 0.36411947
1777 0.09988374 0.7616484 0.016218044 0.06893097 -0.46669322 -0.051208377 -0.15837613 0.1937882 -0.55353653 -0.6261207 0.71145284 -0.19381402 -0.32402834 -0.13494945 0.3102966 0.39954168
2027 0.036388587 0.20146017 -0.01839158 0.841656 -0.28356135 -0.9847092 -0.28743127 0.1414276 -0.21438463 -0.6647534 0.33781296 0.07515362 0.05558855 -0.086692385 -0.5581845 0.17931701
1164 0.0048514637 0.44152987 -0.5007143 -0.022573808 0.689347 -0.1645024 0.10857475 0.28279898 -0.05558793 -0.5273057 -0.15556894 0.63608915 -0.40275806 -0.0038830573 -0.12435602 0.07550933
1755 0.10665597 0.60725987 0.45953825 0.3886162 -0.050966214 -0.21227565 -0.110375084 0.18196167 -0.5587202 -0.5571153 0.6332887 -0.11058477 -0.3391359 -0.3396273 0.17250353 0.46293074
704 0.39040476 0.45086876 -0.1311492 0.6440644 -0.27100196 -0.39616242 -0.055317286 -0.04703108 -0.3878413 -0.7342765 0.5161918 -0.44957486 -0.33965558 -0.18825933 0.017126735 0.5803182
852 -0.10723318 0.45161602 -0.030219723 -0.013019456 0.20004411 -0.25058484 0.22275132 0.16142194 -0.2789292 -0.45320815 -0.18855828 1.002027 -0.3910472 -0.26298395 -0.33356315 0.056741953
2169 0.10899719 0.061202317 0.08341183 0.032480743 0.2409756 -0.5655312 0.18170021 0.1852698 -0.14889054 -0.1745767 0.04371405 0.79546887 -0.6646174 -0.43500528 -0.2548465 -0.21491572
1460 -0.31340572 0.6677391 -0.48937514 0.2936138 0.29122844 -0.54567754 -0.06763886 -1.1233398 -0.5731904 0.3253359 0.4008276 -0.02009707 -0.9262705 0.91266584 -0.22653349 -0.4791646
1508 -0.120861754 0.2787052 -0.3194161 0.26936895 -0.022088425 -0.4215471 0.26811895 0.4587356 -0.19953069 -0.7320976 0.5820192 -0.23153655 -0.29737347 -0.15995662 -0.11051706 0.36862445
1633 -0.081075646 0.38309035 -0.36561695 0.012098507 0.61478883 -0.25001016 0.13644016 0.6018519 -0.15428199 -0.43816495 0.11243437 0.55553687 -0.39338416 -0.12592652 -0.20013139 -0.10323282
2420 -0.10168183 0.2832108 -0.08185175 -0.16807972 0.431527 -0.37940565 0.115648255 0.029699948 0.037360772 -0.46087524 -0.2917003 0.6590432 -0.7157352 -0.46856812 -0.2532236 -0.11555309
2243 0.19953337 0.56986666 0.12446966 0.29493994 -0.51904166 -0.42352614 -0.20906775 0.06145025 -0.50639194 -0.86588866 0.3677921 -0.5554076 -0.46012136 -0.07775127 -0.0005018785 0.36640975
2340 0.094284356 0.52825314 -0.27264768 -0.25631303 0.37414488 -0.33683306 -0.15731907 0.55274284 0.0067719533 -0.06466576 -0.062132645 0.43656608 -0.72312623 -0.3137276 -0.25911358 -0.47542712
2489 0.057106767 0.3541499 0.056991708 0.27554944 -0.00047023012 -0.43877685 0.24671002 0.02240695 -0.24783733 -0.07287055 -0.35893762 0.8536393 -0.6462034 -0.73259145 -0.3893474 -0.038135566
2090 0.035443127 -0.017808616 0.06518792 0.37341958 0.23112457 -0.589471 -0.38883087 0.32874116 0.10457579 -0.33043134 0.0029299767 0.8120499 -0.6700415 -0.024465784 -0.40763602 -0.32185072
1366 0.040281095 0.107324064 -0.08843469 0.33277783 0.511759 -0.17965545 0.21315402 -0.040750023 -0.49083793 -0.13619544 -0.12409294 0.8232818 -0.56879824 -0.51834166 -0.40102723 -0.027472546
1538 -0.12238914 0.49909234 -0.34976977 0.33938166 -0.5003389 -0.119545974 -0.014118228 0.32405204 -0.106097564 -0.8007638 0.36234957 0.06445759 -0.27141902 -0.48222193 0.5296454 -0.16396965
562 -0.21419606 0.59989494 0.058188405 -0.16098045 -0.6391581 -0.5363922 -0.17409606 -0.048621282 -0.15238571 -0.6485115 0.67133725 -0.20713392 -0.44029644 -0.3256282 0.33925107 0.24036779
673 -0.04013398 0.03811148 0.06947184 0.10798566 0.108388335 0.13065596 -0.16678599 0.0052824654 0.05593776 -0.31768933 -0.03614296 0.99083465 -1.0123094 -0.43158075 -0.17902668 -0.051572047
1133 -0.038399905 0.16308928 -0.19055185 -0.013579344 0.544943 -0.27436146 0.13642997 0.4015034 -0.31343365 -0.23944764 0.19444707 0.57186735 -0.5108298 -0.36298245 -0.35607004 -0.42806774
